{
    "num_epochs": 5000,
    "batch_size": 64,
    "final_loss": 0.7731468677520752,
    "learning_rate": 0.001,
    "train_data_exp_dir_paths": [
        "/app/data/fl_configs/fl_train_data/goal_pos_1_2",
        "/app/data/fl_configs/fl_train_data/goal_pos_3_2",
        "/app/data/fl_configs/fl_train_data/goal_pos_3_3"
    ],
    "encoder": {
        "num_inputs": 28,
        "num_outputs": 1,
        "num_hidden_layers": 1,
        "neurons_per_hidden_layer": 64,
        "hidden_layer_activation_function": "relu",
        "final_layer_activation_function": null,
        "bias": true,
        "weights": [
            0.4749646782875061,
            -0.33760300278663635,
            -0.13686862587928772,
            0.13289780914783478,
            0.2674271762371063,
            0.006824019830673933,
            -0.16906295716762543,
            0.0006764393183402717,
            0.17072460055351257,
            0.09915314614772797,
            0.7057653069496155,
            0.2880275249481201,
            0.1552525758743286,
            -0.16269543766975403,
            -0.21676334738731384,
            -0.20184297859668732,
            -0.059248700737953186,
            0.1797960102558136,
            0.399596631526947,
            -0.10382197052240372,
            -0.3410659432411194,
            -0.1470993459224701,
            -0.29788628220558167,
            -0.12731429934501648,
            0.28343307971954346,
            -0.16611315310001373,
            0.1125042736530304,
            0.001750723458826542,
            -0.01625433936715126,
            -0.008498177863657475,
            -0.36884406208992004,
            -0.20248332619667053,
            0.24680475890636444,
            0.07357678562402725,
            0.382954478263855,
            -0.05561574175953865,
            0.1936134546995163,
            0.11083591729402542,
            0.5501227378845215,
            0.4293096363544464,
            0.6051586270332336,
            0.2790527045726776,
            -0.029058335348963737,
            -0.139856219291687,
            -0.24460363388061523,
            -0.03993697091937065,
            0.27604544162750244,
            -0.08343642204999924,
            0.3936619460582733,
            -0.1279887706041336,
            0.200165793299675,
            -0.1117066815495491,
            -0.14596664905548096,
            0.42452138662338257,
            -0.27167096734046936,
            0.11782587319612503,
            -0.26941847801208496,
            0.3285030424594879,
            -0.021261727437376976,
            -0.1962994933128357,
            0.23074126243591309,
            -0.45017990469932556,
            -0.20070314407348633,
            -0.4980514347553253,
            -0.18964643776416779,
            0.3230431377887726,
            -0.13832393288612366,
            0.5437874794006348,
            0.695245623588562,
            0.3421020805835724,
            -0.2370675653219223,
            -0.4675878584384918,
            -0.2395537793636322,
            0.13771864771842957,
            0.10730106383562088,
            -0.11870735883712769,
            -0.1571037322282791,
            -0.1749609112739563,
            -0.3502384424209595,
            -0.023895151913166046,
            -0.27285611629486084,
            -0.3025664985179901,
            0.10939853638410568,
            -0.027798829600214958,
            -0.12523701786994934,
            0.4018535912036896,
            0.22432994842529297,
            -0.08681797236204147,
            0.3864487409591675,
            -0.11726754903793335,
            0.1995813548564911,
            -0.21384090185165405,
            0.16986088454723358,
            0.3721644878387451,
            -0.13531284034252167,
            0.13623332977294922,
            0.268098384141922,
            -0.04957395792007446,
            -0.5386723875999451,
            -0.274331271648407,
            0.026109613478183746,
            0.2660229504108429,
            0.3342421054840088,
            0.10663802176713943,
            0.2765430212020874,
            0.25895968079566956,
            0.10962167382240295,
            0.4658386707305908,
            -0.14259299635887146,
            -0.09748238325119019,
            -0.12976782023906708,
            0.13152235746383667,
            -0.05261199548840523,
            -0.4685572683811188,
            -0.18161864578723907,
            -0.316283255815506,
            0.2622648775577545,
            0.1268245130777359,
            -0.4072312116622925,
            0.007968682795763016,
            -0.27269697189331055,
            0.3114495873451233,
            -0.12084297090768814,
            0.280548632144928,
            0.32445642352104187,
            0.20355303585529327,
            0.012876360677182674,
            0.4025457203388214,
            -0.0848277285695076,
            -0.3204493522644043,
            0.17164301872253418,
            0.09170342236757278,
            0.3777838349342346,
            -0.2640044689178467,
            -0.33087700605392456,
            -0.10970118641853333,
            -0.16455380618572235,
            -0.2963159680366516,
            0.3855355381965637,
            -0.11831624060869217,
            -0.032556213438510895,
            0.10041976720094681,
            -0.233152374625206,
            -0.1549069732427597,
            0.03482769802212715,
            -0.07200184464454651,
            0.1569996327161789,
            0.19310574233531952,
            0.0020273609552532434,
            -0.04323862865567207,
            -0.06396504491567612,
            0.08982262760400772,
            0.0559881329536438,
            -0.01838183030486107,
            -0.17960168421268463,
            0.1375628560781479,
            -0.09123304486274719,
            -0.08777431398630142,
            0.03581991046667099,
            -0.08203649520874023,
            0.08155447244644165,
            0.06789173185825348,
            0.01329596433788538,
            -0.05874988064169884,
            0.07766102999448776,
            -0.10974978655576706,
            0.06703166663646698,
            0.01695757545530796,
            0.1784813404083252,
            0.2543279528617859,
            -0.05466768145561218,
            0.029888710007071495,
            -0.005714037921279669,
            -0.24692828953266144,
            0.028844095766544342,
            0.09698386490345001,
            -0.12804485857486725,
            -0.22899074852466583,
            0.21017466485500336,
            0.2352510392665863,
            -0.16441664099693298,
            -0.0025572380982339382,
            -0.3918731212615967,
            -0.20953264832496643,
            -0.23541998863220215,
            -0.05693908408284187,
            -0.23017343878746033,
            0.2169579267501831,
            0.26315250992774963,
            0.4450713098049164,
            0.37546461820602417,
            0.0658266693353653,
            -0.02846626006066799,
            -0.3391629457473755,
            0.16515421867370605,
            -0.23332364857196808,
            -0.26502665877342224,
            0.2928485870361328,
            0.025669459253549576,
            -0.24039125442504883,
            0.16654525697231293,
            -0.374609112739563,
            0.3466227054595947,
            0.14666937291622162,
            -0.4047703742980957,
            0.3924112319946289,
            -0.10755595564842224,
            0.11936601251363754,
            0.4699966311454773,
            0.026891212910413742,
            0.04858429357409477,
            -0.13119632005691528,
            -0.5613664984703064,
            0.02952255867421627,
            0.23908676207065582,
            0.28611984848976135,
            -0.2890007197856903,
            0.1971835047006607,
            -0.16815483570098877,
            0.011980435810983181,
            0.020902927964925766,
            -0.06114711984992027,
            -0.08237386494874954,
            0.07764393836259842,
            -0.06689618527889252,
            -0.024558190256357193,
            -0.18248198926448822,
            0.25162696838378906,
            -0.2285880446434021,
            0.21039541065692902,
            0.10798271745443344,
            -0.272670179605484,
            0.029473822563886642,
            0.4747792184352875,
            0.036059945821762085,
            0.027836691588163376,
            0.26470261812210083,
            0.17062312364578247,
            0.05354341119527817,
            -0.2861303985118866,
            0.2489684820175171,
            0.11780872195959091,
            -0.07412653416395187,
            -0.003485592547804117,
            0.2938050329685211,
            0.17074160277843475,
            0.536342978477478,
            -0.05878834426403046,
            -0.36613550782203674,
            0.05175398290157318,
            -0.2737777531147003,
            -0.33172672986984253,
            0.010470311157405376,
            0.5212991237640381,
            -0.2932262122631073,
            0.32132184505462646,
            0.1423203945159912,
            0.035407133400440216,
            0.21683107316493988,
            -0.10905314981937408,
            0.18930931389331818,
            0.10808950662612915,
            -0.25128158926963806,
            -0.1600980907678604,
            -0.00937804114073515,
            0.21090690791606903,
            -0.23702456057071686,
            0.10841654986143112,
            0.19069404900074005,
            -0.19347433745861053,
            -0.44214391708374023,
            -0.12034084647893906,
            -0.0026646186597645283,
            0.4275021553039551,
            -0.10310647636651993,
            -0.009115527383983135,
            0.23972535133361816,
            0.30808210372924805,
            -0.05467528477311134,
            -0.3433658182621002,
            -0.23623599112033844,
            -0.2692202031612396,
            0.14705991744995117,
            0.039140649139881134,
            0.2376372069120407,
            0.014389123767614365,
            -0.6454031467437744,
            -0.1281990259885788,
            0.11094825714826584,
            0.010579383932054043,
            0.1761036515235901,
            0.026600994169712067,
            0.024941157549619675,
            0.01830991357564926,
            -0.05487476661801338,
            -0.45113569498062134,
            0.42398178577423096,
            0.15962079167366028,
            0.01299651712179184,
            0.12461009621620178,
            -0.36689528822898865,
            0.006619996856898069,
            -0.04444163292646408,
            0.12892813980579376,
            -0.3621509075164795,
            -0.0032337189186364412,
            -0.26304468512535095,
            -0.18061020970344543,
            0.062071043998003006,
            0.33991849422454834,
            0.14479129016399384,
            -0.07812703400850296,
            0.28543955087661743,
            -0.403969943523407,
            -0.30603504180908203,
            0.015291273593902588,
            -0.3341854512691498,
            0.3018655776977539,
            -0.10481244325637817,
            -0.10070554167032242,
            0.4856760501861572,
            0.1669979840517044,
            -0.26775747537612915,
            0.2039525955915451,
            0.059292271733284,
            -0.2671795189380646,
            0.33865025639533997,
            0.35818302631378174,
            0.2877291738986969,
            0.23216694593429565,
            0.539412260055542,
            0.4027306139469147,
            0.27300313115119934,
            -0.31901815533638,
            -0.28756123781204224,
            -0.21518072485923767,
            0.000764163676649332,
            0.3198867440223694,
            -0.4540318250656128,
            -0.09839872270822525,
            0.29890176653862,
            -0.03823019936680794,
            0.2762146294116974,
            -0.024147087708115578,
            0.11215761303901672,
            0.19138312339782715,
            0.20643851161003113,
            -0.29332610964775085,
            -0.00261624064296484,
            -0.1125871017575264,
            0.24050571024417877,
            -0.6052761673927307,
            -0.3447611927986145,
            0.2633993923664093,
            0.013559829443693161,
            -0.057808633893728256,
            -0.2994963228702545,
            -0.2745956480503082,
            0.8201698660850525,
            -0.09896939992904663,
            -0.017708670347929,
            -0.06750652939081192,
            -0.20522062480449677,
            0.08875935524702072,
            -0.12646226584911346,
            -0.19520603120326996,
            -0.13742387294769287,
            0.1855548471212387,
            -0.09465958178043365,
            0.006331463344395161,
            0.4889639616012573,
            0.43405598402023315,
            -0.08086582273244858,
            0.2866280674934387,
            0.0866975262761116,
            0.06763338297605515,
            0.4083925783634186,
            -0.10947238653898239,
            0.09840379655361176,
            -0.23258788883686066,
            -0.09357862174510956,
            0.098356232047081,
            0.003919021692126989,
            0.16758990287780762,
            0.20092836022377014,
            0.0524156354367733,
            -0.19964663684368134,
            0.3006823658943176,
            -0.16539470851421356,
            -0.22935330867767334,
            -0.03318534791469574,
            0.06844405829906464,
            0.16709010303020477,
            -0.3498467803001404,
            0.0648755356669426,
            -0.11370950937271118,
            0.22454141080379486,
            0.07158367335796356,
            -0.05147111043334007,
            -0.0008316927123814821,
            0.38186195492744446,
            0.10919000208377838,
            -0.13631390035152435,
            -0.12093989551067352,
            -0.08695147186517715,
            -0.10165833681821823,
            -0.2224961221218109,
            -0.08934040367603302,
            -0.17984528839588165,
            -0.12688983976840973,
            -0.33923909068107605,
            0.044253747910261154,
            -0.07928483933210373,
            -0.08008488267660141,
            0.0768076702952385,
            -0.20501160621643066,
            0.5922843813896179,
            0.10733480751514435,
            0.10653074085712433,
            0.181712344288826,
            0.05024300888180733,
            -0.3571051359176636,
            0.1327114701271057,
            -0.09150433540344238,
            0.0910320058465004,
            0.1038399413228035,
            0.12307815253734589,
            0.01670841872692108,
            0.16836705803871155,
            -0.32337018847465515,
            0.21327966451644897,
            0.28229662775993347,
            0.31037718057632446,
            -0.2223428636789322,
            0.3101597726345062,
            0.19968634843826294,
            -0.009645229205489159,
            -0.15765313804149628,
            0.29813653230667114,
            -0.2894204556941986,
            -0.28773725032806396,
            0.12262904644012451,
            0.3553691506385803,
            0.17831836640834808,
            0.2427501529455185,
            0.2051813304424286,
            0.32350578904151917,
            -0.10774397850036621,
            0.5921095609664917,
            -0.07980453222990036,
            -0.32294347882270813,
            0.01386092696338892,
            0.28974243998527527,
            -0.07973524183034897,
            -0.10849396884441376,
            -0.2394898235797882,
            -0.09534996747970581,
            -0.1647331416606903,
            0.6006138324737549,
            0.08669687807559967,
            0.3940059542655945,
            -0.3060530424118042,
            -0.18874986469745636,
            0.00432207714766264,
            0.09619397670030594,
            -0.34888240694999695,
            -0.09096277505159378,
            -0.47659632563591003,
            0.08179459720849991,
            0.2725223898887634,
            0.3322017192840576,
            0.5742582082748413,
            -0.032709117978811264,
            0.08086580783128738,
            -0.3311752676963806,
            0.5761885046958923,
            0.07511391490697861,
            0.06361673772335052,
            0.12183839082717896,
            0.12192945182323456,
            0.055934466421604156,
            0.1344882994890213,
            -0.17670559883117676,
            0.13895583152770996,
            -0.3110105097293854,
            0.0978776142001152,
            0.004352392628788948,
            -0.2530319392681122,
            -0.07053603231906891,
            0.4866427481174469,
            -0.2106345146894455,
            0.21969909965991974,
            0.032882653176784515,
            -0.00960355531424284,
            -0.63542640209198,
            -0.015322481282055378,
            0.07438585162162781,
            0.0904969573020935,
            -0.12607084214687347,
            0.010933353565633297,
            -0.05186694860458374,
            -0.07130435109138489,
            0.06549731642007828,
            0.1313791573047638,
            -0.2797469198703766,
            0.17385244369506836,
            -0.08924243599176407,
            0.2563740015029907,
            0.21236208081245422,
            -0.3217075765132904,
            -0.09088967740535736,
            -0.03624579682946205,
            -0.1041226014494896,
            0.3681429624557495,
            0.23670163750648499,
            -0.28183603286743164,
            -0.25765469670295715,
            -0.0823446586728096,
            -0.19493578374385834,
            0.25255143642425537,
            -0.14445529878139496,
            0.027735095471143723,
            0.0788755714893341,
            0.15207824110984802,
            -0.08326933532953262,
            -0.32213693857192993,
            -0.3050187826156616,
            -0.41355031728744507,
            0.38296830654144287,
            -0.0465707890689373,
            0.12757264077663422,
            -0.3080698847770691,
            -0.15859542787075043,
            0.6243804693222046,
            -0.3058914542198181,
            -0.30506736040115356,
            0.3373032510280609,
            -0.3650530278682709,
            0.08604071289300919,
            0.1840779334306717,
            0.05875023826956749,
            -0.19999900460243225,
            -0.2074631005525589,
            0.3371846079826355,
            0.23360320925712585,
            -0.2324248105287552,
            0.05971219763159752,
            0.09227386862039566,
            -0.038156215101480484,
            0.2360592931509018,
            0.26622235774993896,
            -0.19124609231948853,
            0.10007228702306747,
            0.023307587951421738,
            0.0884602814912796,
            0.021997293457388878,
            0.0019656626973301172,
            0.06268034130334854,
            0.14032530784606934,
            0.21729668974876404,
            -0.14245791733264923,
            0.2602611482143402,
            -0.13535593450069427,
            -0.1114681214094162,
            -0.011473811231553555,
            -0.19727246463298798,
            -0.24246709048748016,
            0.10474296659231186,
            -0.1929636150598526,
            0.2742588222026825,
            0.21112476289272308,
            -0.34514403343200684,
            -0.08622081577777863,
            0.21534986793994904,
            -0.30506283044815063,
            -0.0008150556241162121,
            0.19135771691799164,
            -0.03961654379963875,
            -0.3750101923942566,
            0.13276754319667816,
            -0.2998395562171936,
            0.12154895067214966,
            -0.21333244442939758,
            0.30624887347221375,
            0.07649530470371246,
            -0.112631656229496,
            0.1645735651254654,
            -0.34201958775520325,
            -0.07382290810346603,
            -0.2939292788505554,
            0.1169905960559845,
            -0.39696937799453735,
            -0.006454146467149258,
            0.008559341542422771,
            0.21171803772449493,
            0.3200196325778961,
            -0.1870805323123932,
            0.30406418442726135,
            0.05672662332653999,
            -0.005900358781218529,
            -0.21531584858894348,
            -0.02449813485145569,
            -0.305483341217041,
            -0.44943714141845703,
            -0.12955574691295624,
            -0.09183704853057861,
            0.18939784169197083,
            -0.5993693470954895,
            0.4112683832645416,
            -0.13546624779701233,
            0.4473692774772644,
            0.24758929014205933,
            -0.19801664352416992,
            -0.18375609815120697,
            0.04701177775859833,
            0.2668910622596741,
            -0.03166024014353752,
            0.3244313597679138,
            0.13398821651935577,
            -0.03966349735856056,
            -0.17171569168567657,
            0.10353110730648041,
            -0.15630538761615753,
            -0.02902408316731453,
            -0.11638206988573074,
            0.1460268795490265,
            0.28443995118141174,
            0.2952604591846466,
            0.1251104176044464,
            0.10166538506746292,
            -0.28135696053504944,
            -0.18305091559886932,
            -0.2707979083061218,
            0.021385641768574715,
            0.7090562582015991,
            0.10878009349107742,
            -0.26642298698425293,
            -0.1316433548927307,
            0.6561059355735779,
            -0.032260339707136154,
            -0.0980297327041626,
            -0.08271847665309906,
            0.3448426127433777,
            0.13053342700004578,
            -0.11219963431358337,
            -0.14683111011981964,
            0.1538466513156891,
            -0.34002265334129333,
            0.2924765944480896,
            0.18774598836898804,
            -0.5641729235649109,
            -0.21435204148292542,
            0.07215956598520279,
            -0.09444960206747055,
            -0.05095471814274788,
            -0.27574390172958374,
            -0.013196073472499847,
            0.21809063851833344,
            -0.07811792939901352,
            -0.06266792863607407,
            0.3336896002292633,
            0.24089843034744263,
            0.21589742600917816,
            0.04549940675497055,
            0.0011412946041673422,
            0.38115447759628296,
            0.021892482414841652,
            0.07410997897386551,
            -0.10301780700683594,
            0.016913950443267822,
            -0.1273731142282486,
            -0.23352737724781036,
            -0.34194648265838623,
            0.18560096621513367,
            -0.14375464618206024,
            -0.38236063718795776,
            -0.26556065678596497,
            -0.20492063462734222,
            -0.5294627547264099,
            -0.11872558295726776,
            -0.2449016124010086,
            0.01201280951499939,
            0.038902368396520615,
            -0.3558327257633209,
            0.5653887391090393,
            0.18806520104408264,
            -0.367474228143692,
            0.020308351144194603,
            0.06502530723810196,
            0.2350040078163147,
            -0.14254021644592285,
            -0.3537808358669281,
            0.4327169358730316,
            -0.14492742717266083,
            -0.36661234498023987,
            0.1751573234796524,
            0.07327920198440552,
            0.28760892152786255,
            -0.10001422464847565,
            0.1349157691001892,
            -0.3303956985473633,
            0.20492544770240784,
            -0.2817956507205963,
            -0.28362590074539185,
            0.20167620480060577,
            -0.17725731432437897,
            0.11219034343957901,
            0.125535786151886,
            -0.3253728747367859,
            -0.06450206786394119,
            0.09245236963033676,
            0.21688835322856903,
            0.5063175559043884,
            -0.0012851855717599392,
            -0.22764171659946442,
            -0.11182927340269089,
            -0.793757438659668,
            -0.11524906754493713,
            -0.13884742558002472,
            -0.19051510095596313,
            -0.29621782898902893,
            0.2779546082019806,
            0.16578315198421478,
            0.04220341518521309,
            0.046234507113695145,
            0.19623248279094696,
            -0.10082221776247025,
            0.015544156543910503,
            -0.18468619883060455,
            0.05117994546890259,
            0.04576662555336952,
            -0.15855772793293,
            -0.061270199716091156,
            0.14004643261432648,
            -0.598536491394043,
            0.2487466037273407,
            0.2061581313610077,
            0.3715166747570038,
            0.03327187895774841,
            -0.0012248593848198652,
            0.2732509970664978,
            0.1614575833082199,
            -0.10063536465167999,
            -0.5243945121765137,
            0.06297674030065536,
            0.17025823891162872,
            0.14714424312114716,
            0.0470380075275898,
            -0.23436659574508667,
            -0.34154191613197327,
            0.09366710484027863,
            0.24614468216896057,
            -0.24845220148563385,
            -0.39137348532676697,
            0.19548927247524261,
            -0.14380639791488647,
            0.18840140104293823,
            0.3052981197834015,
            -0.2680058777332306,
            0.21908670663833618,
            0.07040627300739288,
            -0.288951575756073,
            0.64073646068573,
            0.10103534162044525,
            -0.0020219115540385246,
            -0.1958896964788437,
            0.3096330463886261,
            0.05782008916139603,
            0.2925912141799927,
            0.07936867326498032,
            0.054517436772584915,
            0.25309857726097107,
            -0.07908283919095993,
            -0.018432294949889183,
            -0.2562284469604492,
            0.17205408215522766,
            -0.03166189789772034,
            0.35868677496910095,
            0.14056940376758575,
            0.021411556750535965,
            0.03132481127977371,
            0.05210140347480774,
            -0.5883890390396118,
            0.34724491834640503,
            0.4595811069011688,
            0.3022859990596771,
            -0.17371441423892975,
            0.1277570128440857,
            0.21337826550006866,
            -0.11036976426839828,
            -0.22031722962856293,
            -0.031848836690187454,
            -0.038471516221761703,
            -0.10259414464235306,
            -0.37657079100608826,
            0.22734934091567993,
            0.13669860363006592,
            0.12716227769851685,
            -0.03521089628338814,
            0.14392216503620148,
            0.355385959148407,
            0.3053898215293884,
            -0.0500335656106472,
            -0.25459808111190796,
            0.1578962653875351,
            -0.19488711655139923,
            0.16875655949115753,
            -0.44333282113075256,
            -0.2362534999847412,
            -0.2660108506679535,
            -0.06897323578596115,
            -0.1911417543888092,
            0.1586412638425827,
            0.14329339563846588,
            -0.2722265422344208,
            -0.09514708817005157,
            -0.14252869784832,
            -0.5182275176048279,
            0.6269103288650513,
            0.3524303734302521,
            -0.0035292485263198614,
            -0.11731921881437302,
            -0.14656437933444977,
            0.41029250621795654,
            0.2504113018512726,
            -0.10024917125701904,
            -0.14968064427375793,
            -0.06252361834049225,
            0.09386232495307922,
            0.07450255751609802,
            0.26995348930358887,
            0.33230412006378174,
            0.12299132347106934,
            0.17190325260162354,
            -0.2848166227340698,
            -0.24000780284404755,
            0.0030867927707731724,
            -0.062058575451374054,
            0.16186244785785675,
            -0.26562491059303284,
            0.31199097633361816,
            0.26415255665779114,
            0.2949233949184418,
            0.01853014901280403,
            0.07470589131116867,
            0.2019345462322235,
            -0.059214770793914795,
            0.3102284371852875,
            -0.35819000005722046,
            0.5281286239624023,
            -0.06506870687007904,
            0.043915290385484695,
            -0.08472646772861481,
            -0.16348454356193542,
            -0.0032440696377307177,
            0.23251284658908844,
            0.07964815944433212,
            0.13253344595432281,
            0.2510778307914734,
            -0.006670323200523853,
            -0.10845363885164261,
            0.164594367146492,
            0.004857114981859922,
            -0.19697366654872894,
            0.019394580274820328,
            0.1492953598499298,
            0.09916061162948608,
            0.1762484461069107,
            -0.46891912817955017,
            0.4504691958427429,
            -0.1904645711183548,
            0.18799316883087158,
            -0.03350885584950447,
            -0.035861674696207047,
            0.2756611406803131,
            0.09023746848106384,
            -0.2581609785556793,
            0.4833678901195526,
            0.34029635787010193,
            0.256378173828125,
            0.10132162272930145,
            -0.2665167450904846,
            -0.20352382957935333,
            0.09648337215185165,
            0.22157849371433258,
            0.20821809768676758,
            0.06755974888801575,
            0.04494279623031616,
            0.3009428083896637,
            -0.10557262599468231,
            -0.04135590046644211,
            -0.074033223092556,
            -0.16104592382907867,
            -0.19632485508918762,
            -0.032950278371572495,
            -0.19920434057712555,
            0.017882687970995903,
            0.14265748858451843,
            -0.27919232845306396,
            -0.13206565380096436,
            0.05892772600054741,
            0.04935135692358017,
            -0.13210900127887726,
            0.127518430352211,
            -0.041398391127586365,
            -0.14357918500900269,
            0.13194580376148224,
            -0.001811161870136857,
            0.2890477776527405,
            -0.24753227829933167,
            -0.24326761066913605,
            -0.21054404973983765,
            0.23540227115154266,
            -0.11053958535194397,
            -0.10079608112573624,
            0.04213733226060867,
            -0.21101361513137817,
            -0.15347890555858612,
            -0.05097733810544014,
            0.03662596270442009,
            -0.04856346920132637,
            0.014375426806509495,
            -0.2610987722873688,
            0.3024705648422241,
            -0.14828583598136902,
            -0.49911588430404663,
            -0.3142225742340088,
            -0.13292624056339264,
            -0.13449081778526306,
            -0.18358628451824188,
            0.21174751222133636,
            -0.22987663745880127,
            0.3720426559448242,
            -0.5065452456474304,
            0.04117905721068382,
            0.2241736650466919,
            0.16194257140159607,
            0.0666651800274849,
            -0.06408174335956573,
            0.1243428885936737,
            -0.3089146912097931,
            -0.3073939085006714,
            0.3243918716907501,
            -0.4077092409133911,
            -0.16324198246002197,
            0.16600236296653748,
            -0.5928549766540527,
            0.21643668413162231,
            0.5670455694198608,
            -0.04557925462722778,
            -0.15259329974651337,
            0.1290079802274704,
            0.12728630006313324,
            -0.07465463131666183,
            -0.25652003288269043,
            -0.3598422408103943,
            0.1364060640335083,
            0.05065102130174637,
            -0.09942206740379333,
            0.021949326619505882,
            -0.07430467009544373,
            0.08390309661626816,
            0.1577623188495636,
            -0.2683146297931671,
            -0.1004888042807579,
            0.07977266609668732,
            -0.32030540704727173,
            0.25255998969078064,
            -0.3015357553958893,
            -0.075100839138031,
            0.21250200271606445,
            -0.4314885437488556,
            0.6464540362358093,
            0.4149795174598694,
            0.28686508536338806,
            0.023108884692192078,
            -0.207083061337471,
            -0.18189875781536102,
            0.1850583851337433,
            0.00028882763581350446,
            -0.3151954114437103,
            -0.015929602086544037,
            -0.2658902108669281,
            -0.031331971287727356,
            -0.05341057479381561,
            -0.10459582507610321,
            -0.23771922290325165,
            -0.2422582060098648,
            -0.2937822639942169,
            0.048189956694841385,
            0.03878991678357124,
            -0.10693588107824326,
            0.4271150529384613,
            0.3111017644405365,
            0.26069459319114685,
            -0.06392430514097214,
            0.18631145358085632,
            0.18387088179588318,
            -0.3225901126861572,
            0.0488341860473156,
            0.20890899002552032,
            -0.08408356457948685,
            -0.26839953660964966,
            0.29739469289779663,
            -0.026726534590125084,
            0.3190188407897949,
            0.03320806100964546,
            0.051427219063043594,
            -0.07418786734342575,
            0.0006479581934399903,
            -0.2797708213329315,
            -0.04815487191081047,
            -0.123139888048172,
            0.24256476759910583,
            -0.0468125194311142,
            0.1277332752943039,
            -0.20500700175762177,
            0.32463765144348145,
            -0.23649485409259796,
            -0.1684502214193344,
            0.4592974781990051,
            -0.059297289699316025,
            0.1632651388645172,
            -0.35383692383766174,
            -0.17334303259849548,
            -0.17947417497634888,
            0.29171162843704224,
            0.06367001682519913,
            -0.14877399802207947,
            -0.23106589913368225,
            0.1309938132762909,
            -0.03466159477829933,
            0.3241293132305145,
            -0.1868385225534439,
            0.025721635669469833,
            0.16035573184490204,
            -0.054143305867910385,
            -0.19934268295764923,
            0.36188754439353943,
            0.0692518949508667,
            0.2242155224084854,
            -0.043598152697086334,
            -0.10495267808437347,
            0.04262338951230049,
            -0.2958317697048187,
            0.30872222781181335,
            -0.12919771671295166,
            0.487870454788208,
            -0.040143780410289764,
            -0.5113214254379272,
            -0.1598898321390152,
            -0.1700175553560257,
            0.2069694548845291,
            -0.37050312757492065,
            0.18641714751720428,
            -0.03277236968278885,
            -0.41558584570884705,
            -0.24905289709568024,
            0.23305325210094452,
            -0.013357418589293957,
            -0.00718702981248498,
            -0.40639209747314453,
            -0.41090500354766846,
            -0.04275163263082504,
            0.04293303191661835,
            -0.4682387113571167,
            0.05717501416802406,
            -0.1043170765042305,
            0.24635092914104462,
            0.04261883720755577,
            0.09643019735813141,
            0.001773351919837296,
            -0.22544468939304352,
            0.23746025562286377,
            -0.2357395440340042,
            -0.12258562445640564,
            -0.07885365933179855,
            -0.009512375108897686,
            -0.021321650594472885,
            0.46806806325912476,
            0.06514493376016617,
            -0.12167207151651382,
            0.14585982263088226,
            -0.21440906822681427,
            0.06327223032712936,
            0.5514751672744751,
            -0.13362784683704376,
            -0.27944517135620117,
            0.1473028063774109,
            0.08648823946714401,
            -0.4983915090560913,
            -0.4242278039455414,
            -0.1998458057641983,
            0.249503493309021,
            -0.18394272029399872,
            0.16763900220394135,
            0.09510333836078644,
            0.281305730342865,
            -0.5829881429672241,
            -0.21572819352149963,
            0.23528441786766052,
            0.38872092962265015,
            -0.2147936075925827,
            0.0474729910492897,
            -0.0366174690425396,
            0.5359885692596436,
            0.21569785475730896,
            -0.21676911413669586,
            -0.5121318697929382,
            0.04117171838879585,
            0.049846991896629333,
            -0.14621983468532562,
            0.1695563793182373,
            -0.10597825050354004,
            0.2945423722267151,
            -0.06759145855903625,
            -0.2185124307870865,
            0.02933410555124283,
            0.3400369882583618,
            -0.36955034732818604,
            0.18080398440361023,
            -0.11505092680454254,
            -0.014721636660397053,
            0.22308778762817383,
            0.10364526510238647,
            0.2347268909215927,
            -0.11647047847509384,
            0.1889568567276001,
            -0.055646780878305435,
            -0.049581173807382584,
            0.2603766620159149,
            -0.008634349331259727,
            0.3806227445602417,
            0.06863745301961899,
            -0.15456953644752502,
            -0.09738875925540924,
            0.11938760429620743,
            -0.16239002346992493,
            -0.20177839696407318,
            0.20485436916351318,
            -0.4657810628414154,
            0.07331892102956772,
            -0.3639710545539856,
            0.023809490725398064,
            -0.170876607298851,
            -0.011657009832561016,
            -0.24985060095787048,
            -0.10059338063001633,
            -0.17654351890087128,
            0.25107860565185547,
            0.15995508432388306,
            -0.371806800365448,
            0.022401604801416397,
            -0.1820007860660553,
            0.05912955850362778,
            0.08391638100147247,
            0.44287383556365967,
            -0.3386389911174774,
            0.2706132233142853,
            -0.14577925205230713,
            0.28989773988723755,
            -0.043537404388189316,
            -0.3794260621070862,
            0.4172338545322418,
            0.014202267862856388,
            -0.2889575958251953,
            -0.23086772859096527,
            -0.025247879326343536,
            0.22178660333156586,
            0.04000234231352806,
            0.11148153245449066,
            0.2629048824310303,
            -0.1350826621055603,
            0.34699663519859314,
            0.20942482352256775,
            -0.18424858152866364,
            -0.2412940263748169,
            0.04658036306500435,
            -0.023569677025079727,
            0.11949383467435837,
            -0.006829085759818554,
            -0.09699508547782898,
            0.2372700273990631,
            0.14625763893127441,
            -0.12100281566381454,
            0.20458760857582092,
            0.02895181067287922,
            0.11334734410047531,
            0.14677856862545013,
            -0.015546062961220741,
            -0.1546115279197693,
            0.08121985197067261,
            -0.06398994475603104,
            0.05448565632104874,
            -0.10799822956323624,
            -0.008900018408894539,
            0.06523256003856659,
            0.12168579548597336,
            -0.08525823801755905,
            -0.10735601931810379,
            -0.17552335560321808,
            -0.16568340361118317,
            0.08102884888648987,
            0.11566775292158127,
            -0.054890431463718414,
            -0.03318807855248451,
            0.5255172848701477,
            0.009414217434823513,
            -0.12332350760698318,
            0.10833020508289337,
            -0.04846324026584625,
            0.1948513686656952,
            0.0919448733329773,
            0.4365413188934326,
            0.05898328870534897,
            -0.27726736664772034,
            0.11574403941631317,
            -0.09584762156009674,
            -0.19847309589385986,
            0.027478132396936417,
            0.19996030628681183,
            -0.11429043859243393,
            -0.28520822525024414,
            0.22658900916576385,
            -0.19176343083381653,
            0.07890542596578598,
            0.4240129292011261,
            -0.03587990999221802,
            0.30147886276245117,
            0.26649683713912964,
            0.22666895389556885,
            0.3997514247894287,
            0.14849865436553955,
            -0.32291895151138306,
            -0.23297899961471558,
            0.22104912996292114,
            -0.13503995537757874,
            0.09366463869810104,
            0.13541436195373535,
            0.012429253198206425,
            -0.055553119629621506,
            -0.1844741702079773,
            0.12757223844528198,
            -0.2601957619190216,
            0.2797589898109436,
            0.3830982744693756,
            0.0719841942191124,
            -0.2792738974094391,
            -0.1324092447757721,
            -0.11297391355037689,
            0.14852528274059296,
            -0.1419067680835724,
            0.034827571362257004,
            -0.13509587943553925,
            0.06087680160999298,
            0.11274857074022293,
            -0.3637406826019287,
            -0.17509610950946808,
            -0.21888770163059235,
            -0.34090712666511536,
            -0.07954725623130798,
            -0.173008531332016,
            0.07411425560712814,
            0.3663519024848938,
            0.4657858610153198,
            -0.09718020260334015,
            0.06669491529464722,
            -0.08856968581676483,
            0.2275620549917221,
            0.2818392813205719,
            -0.2471194714307785,
            0.06709223240613937,
            0.2630510926246643,
            0.10158132761716843,
            -0.3004132807254791,
            0.2607865631580353,
            -0.17200392484664917,
            -0.3747912049293518,
            0.18478624522686005,
            0.004178511910140514,
            0.08840112388134003,
            0.050265487283468246,
            -0.14126834273338318,
            0.09613822400569916,
            0.018723472952842712,
            0.2084021270275116,
            -0.002184081356972456,
            -0.28641587495803833,
            -0.032784562557935715,
            0.0034710525069385767,
            0.06339819729328156,
            0.05989876016974449,
            0.1273321509361267,
            -0.08456606417894363,
            -0.3646085262298584,
            -0.004873388446867466,
            -0.13191260397434235,
            0.27129679918289185,
            -0.01716255024075508,
            0.525001049041748,
            0.01573398895561695,
            -0.2887178957462311,
            -0.3976437747478485,
            0.16344332695007324,
            -0.04313277825713158,
            -0.7275174260139465,
            0.18913421034812927,
            -0.23162782192230225,
            0.15083667635917664,
            -0.41338855028152466,
            0.3653588891029358,
            -0.08810858428478241,
            0.057462867349386215,
            -0.16389960050582886,
            0.036071255803108215,
            -0.0087175527587533,
            -0.0393490307033062,
            0.454679399728775,
            0.19477792084217072,
            -0.19883404672145844,
            0.2939182221889496,
            -0.42515939474105835,
            0.16082608699798584,
            0.23768630623817444,
            -0.2114657461643219,
            0.4784040153026581,
            0.2897869646549225,
            -0.0745803564786911,
            0.06908611953258514,
            0.15315116941928864,
            -0.2308979034423828,
            -0.33676043152809143,
            -0.7157289981842041,
            -0.06992343813180923,
            0.14839616417884827,
            0.3083984851837158,
            -0.05652942135930061,
            -0.2629874348640442,
            -0.11500327289104462,
            0.18271775543689728,
            0.0550127848982811,
            -0.270142138004303,
            -0.4372798800468445,
            -0.085378497838974,
            -0.1635882407426834,
            -0.011700594797730446,
            0.05529610440135002,
            0.055461980402469635,
            -0.1925838440656662,
            0.3279310166835785,
            -0.1494668424129486,
            0.08259808272123337,
            -0.23115284740924835,
            0.12860096991062164,
            -0.09078482538461685,
            -0.3551499545574188,
            0.09692155569791794,
            0.07957574725151062,
            -0.42591238021850586,
            -0.28918924927711487,
            -0.042842380702495575,
            0.036381740123033524,
            0.12592212855815887,
            -0.18143117427825928,
            0.24784138798713684,
            -0.3915303945541382,
            0.12364715337753296,
            0.1133919432759285,
            0.0943627804517746,
            0.053265366703271866,
            0.2381584644317627,
            -0.05550312623381615,
            -0.29365941882133484,
            0.26024582982063293,
            0.25735560059547424,
            0.3087944984436035,
            0.10283585637807846,
            0.4259519577026367,
            -0.20336782932281494,
            -0.1324806660413742,
            -0.08340297639369965,
            0.05116536095738411,
            -0.2489265501499176,
            0.28613975644111633,
            -0.0011670764070004225,
            0.2120351344347,
            0.0714796632528305,
            -0.21334493160247803,
            0.1986018419265747,
            -0.2093234360218048,
            0.34968799352645874,
            -0.10365664213895798,
            -0.24493886530399323,
            0.25444525480270386,
            -0.04715938866138458,
            -0.03179938346147537,
            -0.016360154375433922,
            -0.13813328742980957,
            -0.04135984182357788,
            -0.2640790343284607,
            -0.466935396194458,
            0.08085848391056061,
            0.3142321705818176,
            0.4220108091831207,
            0.1459158957004547,
            0.31216391921043396,
            0.3231838047504425,
            0.17261581122875214,
            0.07882440835237503,
            -0.1409173458814621,
            0.24472056329250336,
            -0.37729641795158386,
            0.23318824172019958,
            0.3212072253227234,
            -0.1418193280696869,
            -0.07933102548122406,
            -0.19931253790855408,
            -0.14545169472694397,
            0.1608838587999344,
            -0.08176970481872559,
            0.4788365066051483,
            0.3469713032245636,
            0.20918738842010498,
            -0.009281971491873264,
            -0.112963005900383,
            0.08201190084218979,
            0.10340922325849533,
            -0.14756347239017487,
            0.10329465568065643,
            0.035090841352939606,
            0.014129328541457653,
            0.10607317835092545,
            0.05776164308190346,
            0.25902292132377625,
            -0.3505134880542755,
            -0.20257560908794403,
            0.07025696337223053,
            -0.2081775665283203,
            -0.04934758320450783,
            -0.029809098690748215,
            -0.13449867069721222,
            0.17822332680225372,
            -0.0019991276785731316,
            -0.08270391076803207,
            0.18578965961933136,
            0.19354571402072906,
            0.004283491056412458,
            0.11831606924533844,
            -0.12852822244167328,
            0.06658684462308884,
            0.15799090266227722,
            0.5800790190696716,
            -0.0047468324191868305,
            0.20062030851840973,
            -0.12858261168003082,
            -0.2200523018836975,
            0.1417645514011383,
            -0.44772347807884216,
            0.530712902545929,
            0.040217481553554535,
            0.2942992150783539,
            0.019394362345337868,
            -0.35651886463165283,
            -0.42328494787216187,
            -0.1166592538356781,
            -0.41455915570259094,
            -0.14125162363052368,
            -0.24896343052387238,
            0.018385648727416992,
            -0.24405360221862793,
            0.4147414267063141,
            0.011852248571813107,
            0.19524899125099182,
            -0.21689413487911224,
            0.07549840211868286,
            -0.05906488746404648,
            -0.021340664476156235,
            -0.0793643593788147,
            -0.21360661089420319,
            -0.1144256517291069,
            0.31594520807266235,
            -0.08578827232122421,
            0.0232081301510334,
            -0.17457297444343567,
            0.0033730422146618366,
            0.4573555290699005,
            0.1730615198612213,
            -0.2452356517314911,
            0.37002360820770264,
            -0.07983162999153137,
            0.23593446612358093,
            -0.25078171491622925,
            -0.033733729273080826,
            0.23767998814582825,
            0.23437173664569855,
            0.39691227674484253,
            0.21472887694835663,
            0.14787507057189941,
            -0.31505629420280457,
            -0.2582225799560547,
            -0.12825585901737213,
            0.01656307280063629,
            0.30485478043556213,
            0.0372554287314415,
            0.2233790159225464,
            -0.11735168099403381,
            -0.27328187227249146,
            0.045434944331645966,
            -0.2756503224372864,
            0.07201690971851349,
            -0.2449808120727539,
            0.06222403049468994,
            0.2782647907733917,
            0.381870299577713,
            -0.13684715330600739,
            0.13727863132953644,
            -0.04705830290913582,
            -0.3264733850955963,
            0.6396784782409668,
            0.10650429874658585,
            -0.1571180671453476,
            0.0644930973649025,
            -0.2791258990764618,
            0.44006219506263733,
            0.29165118932724,
            0.049197327345609665,
            0.14548635482788086,
            0.2112104743719101,
            -0.3257470726966858,
            -0.09723855555057526,
            -0.23254148662090302,
            -0.04448387399315834,
            0.2819904685020447,
            0.331271231174469,
            0.15941929817199707,
            0.14144493639469147,
            0.377390056848526,
            0.3007124662399292,
            -0.2958233058452606,
            -0.10208676010370255,
            -0.16396717727184296,
            -0.27754199504852295,
            -0.09556244313716888,
            0.1906425952911377,
            0.21777954697608948,
            -0.06467290222644806,
            0.09078865498304367,
            0.14766494929790497,
            -0.20612238347530365,
            -0.006743974518030882,
            -0.08452246338129044,
            -0.14464783668518066,
            0.058616284281015396,
            -0.16754047572612762,
            -0.33288824558258057,
            -0.3816470801830292,
            -0.21341075003147125,
            0.19661492109298706,
            -0.016495106741786003,
            -0.24412165582180023,
            -0.32794541120529175,
            0.3667527735233307,
            0.02948863059282303,
            0.25277116894721985,
            -0.35706955194473267,
            -0.08973415940999985,
            0.2847381830215454,
            -0.07169108092784882,
            -0.07523513585329056,
            -0.046347085386514664,
            -0.3951962888240814,
            -0.025709090754389763,
            0.5503254532814026,
            -0.1410961151123047,
            0.09113162010908127,
            -0.17393659055233002,
            -0.14303994178771973,
            -0.1858951896429062,
            -0.16760577261447906,
            0.0842801183462143,
            -0.1898600161075592,
            0.4028773605823517,
            -0.3561537265777588,
            -0.4762107729911804,
            -0.33751946687698364,
            -0.12204122543334961,
            0.11233081668615341,
            -0.06230107322335243,
            0.1767038106918335,
            -0.17150045931339264,
            -0.3214895725250244,
            0.1559535413980484,
            -0.2918578088283539,
            0.05160995572805405,
            0.04335125908255577,
            0.3211156129837036,
            0.11652018129825592,
            0.25539618730545044,
            0.05377017706632614,
            0.08635010570287704,
            0.2721594274044037,
            -0.08776061236858368,
            -0.2038494497537613,
            0.18789729475975037,
            0.1503545194864273,
            0.5631293058395386,
            0.15876618027687073,
            -0.19555619359016418,
            0.1957976520061493,
            0.04948576167225838,
            0.43452683091163635,
            -0.06251506507396698,
            -0.364820271730423,
            -0.03594803437590599,
            -0.3338508605957031,
            -0.5096100568771362,
            0.2457813024520874,
            -0.031641677021980286,
            -0.4035908877849579,
            -0.06972943246364594,
            -0.12691186368465424,
            -0.1289130449295044,
            0.13261690735816956,
            -0.08029533922672272,
            -0.12185178697109222,
            -0.21832819283008575,
            -0.249211385846138,
            -0.19980253279209137,
            -0.46403205394744873,
            -0.038696158677339554,
            0.22359399497509003,
            -0.06267957389354706,
            0.1923709660768509,
            -0.008119715377688408,
            0.05838700756430626,
            0.32346421480178833,
            -0.05931142345070839,
            0.03551197424530983,
            -0.18262828886508942,
            -0.10093580931425095,
            -0.3112628757953644,
            0.22136510908603668,
            -0.09277501702308655,
            0.010216545313596725,
            -0.16296881437301636,
            0.12444576621055603,
            0.029727276414632797,
            0.00954398512840271,
            0.04432462155818939,
            0.0009577310411259532,
            0.14175480604171753,
            0.024824662134051323,
            0.10351677983999252,
            0.30497992038726807,
            -0.16203497350215912,
            -0.4370200037956238,
            0.24362139403820038,
            -0.24855811893939972,
            0.506016731262207,
            -0.02336866781115532,
            -0.062129583209753036,
            0.15263882279396057,
            0.03215091675519943,
            0.2756422162055969,
            0.35718411207199097,
            -0.07325991243124008,
            -0.15389280021190643,
            -0.4005573093891144,
            -0.26602527499198914,
            -0.23215146362781525,
            0.2111859917640686,
            0.31951993703842163,
            0.0037532548885792494,
            0.14015114307403564,
            -0.1572689265012741,
            -0.09648986905813217,
            0.24704043567180634,
            -0.020248668268322945,
            -0.25679710507392883,
            -0.06546106934547424,
            0.39964017271995544,
            0.18228496611118317,
            -0.16659651696681976,
            -0.033354442566633224,
            -0.2863057553768158,
            -0.33427634835243225,
            0.24732136726379395,
            0.13370981812477112,
            -0.0853976383805275,
            -0.2067330926656723,
            -0.1271609365940094,
            0.38139501214027405,
            0.4086592495441437,
            -0.1287442445755005,
            0.07801571488380432,
            -0.05803074315190315,
            0.028853876516222954,
            -0.04407370835542679,
            0.4129418134689331,
            0.23266050219535828,
            0.11172597855329514,
            0.051320888102054596,
            -0.068319171667099,
            -0.2136957049369812,
            0.010915919207036495,
            -0.18098996579647064,
            0.05117223784327507,
            -0.14912843704223633,
            -0.11428885161876678,
            0.21545976400375366,
            -0.4472528100013733,
            -0.09487785398960114,
            -0.2589212656021118,
            -0.19983287155628204,
            0.5425856709480286,
            0.19333946704864502,
            0.01725061796605587,
            -0.14435087144374847,
            -0.014987409114837646,
            0.16343767940998077,
            0.16854192316532135,
            0.009141318500041962,
            -0.3399388790130615,
            -0.03840429335832596,
            0.11939594149589539,
            -0.025530723854899406,
            0.03581276535987854,
            0.1817566603422165,
            0.18375027179718018,
            0.3460450768470764,
            -0.11253874003887177,
            -0.1754532754421234,
            -0.0803079828619957,
            0.009283228777348995,
            0.19589418172836304,
            -0.12463980168104172,
            -0.21981288492679596,
            0.012859214097261429,
            -0.010884187184274197,
            -0.41953277587890625,
            0.22924020886421204,
            0.1450338363647461,
            -0.06644339859485626,
            0.474269837141037,
            0.17503638565540314,
            0.49170729517936707,
            -0.09183676540851593,
            0.241465225815773,
            0.15413901209831238,
            -0.052101198583841324,
            -0.13939504325389862,
            0.33703917264938354,
            -0.29026633501052856,
            0.18170911073684692,
            0.2093948870897293,
            -0.30194148421287537,
            -0.23896333575248718,
            0.10794421285390854,
            0.014664020389318466,
            -0.06305984407663345,
            0.058982253074645996,
            0.12460439652204514,
            0.021371370181441307,
            0.2237624228000641,
            -0.3035082221031189,
            0.3819081783294678,
            -0.0963745042681694,
            -0.29275578260421753,
            -0.20305781066417694,
            0.17648719251155853,
            0.1355050504207611,
            0.2139921486377716,
            -0.24433565139770508,
            0.1291268765926361,
            0.2880845069885254,
            0.48299258947372437,
            0.062108010053634644,
            -0.058206360787153244,
            -0.10072224587202072,
            -0.19243592023849487,
            -0.07048794627189636,
            0.146817147731781,
            -0.16042856872081757,
            -0.5464118123054504,
            -0.2713067829608917,
            0.49557143449783325,
            -0.16186319291591644,
            0.13261474668979645,
            0.052716054022312164,
            -0.06685639172792435,
            0.15305624902248383,
            -0.1284204125404358,
            -0.3655150532722473,
            -0.5808854699134827,
            -0.3415454924106598,
            -0.28565800189971924,
            0.005496310070157051,
            -0.009672148153185844,
            -0.07704586535692215,
            -0.12770286202430725,
            0.03926675021648407,
            -0.17900250852108002,
            -0.040557440370321274,
            -0.2382553666830063,
            -0.2374873161315918,
            -0.06339088082313538,
            0.14548726379871368,
            0.044842321425676346,
            -0.3548075258731842,
            -0.03403431177139282,
            -0.13746094703674316,
            -0.2644977271556854,
            -0.13953307271003723,
            -0.209491565823555,
            -0.20282156765460968,
            -0.03467307612299919,
            -0.3158339262008667,
            -0.3848980665206909,
            -0.16149573028087616,
            -0.07379692792892456,
            0.01976640708744526,
            0.08567437529563904,
            0.13849708437919617,
            -0.047282371670007706,
            0.010918984189629555,
            -0.1789942979812622,
            -0.04839818552136421,
            -0.2967173755168915,
            0.05850231274962425,
            -0.2429918348789215,
            0.1786484271287918,
            -0.28905364871025085,
            -0.026081042364239693,
            -0.17631356418132782,
            -0.05674224719405174,
            0.21205486357212067,
            -0.0922701507806778,
            -0.08904825896024704,
            0.034473057836294174,
            -0.193009614944458,
            -0.16837681829929352,
            0.18441981077194214,
            -0.20432186126708984,
            0.2613374590873718,
            0.18932384252548218,
            -0.2930161952972412,
            -0.1712840348482132,
            -0.2031739354133606,
            -0.47351694107055664,
            -0.20401854813098907,
            0.050880998373031616,
            -0.0834057405591011,
            -0.009258342906832695,
            0.0024715957697480917,
            -0.13688699901103973,
            0.0138004831969738,
            0.520235538482666,
            -0.6441896557807922,
            0.9147389531135559,
            -0.47505122423171997,
            0.3417837917804718,
            -0.003522945800796151,
            -0.34253206849098206,
            -0.5334662199020386,
            -0.3625021278858185,
            0.17975746095180511,
            0.31194156408309937,
            -0.6635215282440186,
            0.5915595293045044,
            -0.26565924286842346,
            -0.1928509920835495,
            -0.1887628734111786,
            0.8395053148269653,
            -0.14895755052566528,
            -0.26222696900367737,
            -0.2940490245819092,
            -0.2627512514591217,
            0.5092499852180481,
            0.519039511680603,
            0.19597190618515015,
            0.5437516570091248,
            -0.6054328680038452,
            0.3672786056995392,
            0.6229791641235352,
            -0.27256155014038086,
            -0.37270334362983704,
            -0.12668025493621826,
            -0.2229914516210556,
            0.06005048379302025,
            -0.5779790878295898,
            0.44167011976242065,
            0.2655779719352722,
            0.23907773196697235,
            0.37785619497299194,
            0.32757431268692017,
            0.38090258836746216,
            0.17681953310966492,
            0.34541091322898865,
            -0.002708952408283949,
            -0.33189114928245544,
            -0.25187644362449646,
            0.17391055822372437,
            0.4630095660686493,
            -0.6297104954719543,
            0.13623881340026855,
            0.276993989944458,
            0.43515050411224365,
            0.12442627549171448,
            -0.30511152744293213,
            -0.5391198396682739,
            0.659417986869812,
            -0.3394453525543213,
            -0.7783849835395813,
            -0.4897180199623108,
            -0.1215943917632103,
            -0.40118467807769775,
            -0.2673397958278656,
            -0.27860748767852783,
            -0.4104854166507721,
            -0.28791603446006775,
            0.02737334743142128
        ]
    },
    "decoder": {
        "num_inputs": 1,
        "num_outputs": 28,
        "num_hidden_layers": 1,
        "neurons_per_hidden_layer": 64,
        "hidden_layer_activation_function": "relu",
        "final_layer_activation_function": null,
        "bias": true,
        "weights": [
            0.6522918939590454,
            -0.4821358323097229,
            0.26228153705596924,
            -0.4777435064315796,
            0.32091331481933594,
            -0.7235098481178284,
            -0.3987847566604614,
            -0.06278228759765625,
            -0.702661395072937,
            -0.937991738319397,
            -1.576115369796753,
            -0.44816136360168457,
            -0.6147066354751587,
            -10.318245887756348,
            -0.11913061141967773,
            -4.138396739959717,
            1.344093918800354,
            -0.22319471836090088,
            1.5077322721481323,
            0.24122849106788635,
            0.24095232784748077,
            -0.05636192485690117,
            -1.0715951919555664,
            -0.5495003461837769,
            0.04952573776245117,
            0.9526609182357788,
            -0.9687796831130981,
            -0.26437926292419434,
            -0.44459056854248047,
            -4.128061771392822,
            -3.645069122314453,
            0.7148132920265198,
            0.5141849517822266,
            -0.672440767288208,
            0.38684070110321045,
            -0.553875207901001,
            -0.7591344118118286,
            0.38373374938964844,
            0.668403685092926,
            2.4817841053009033,
            2.279838800430298,
            0.09548783302307129,
            1.5099855661392212,
            0.060964185744524,
            -0.7449822425842285,
            -0.31168198585510254,
            -2.168099880218506,
            -0.551134467124939,
            0.5779328942298889,
            -4.542268753051758,
            0.036455944180488586,
            -0.8564925193786621,
            -0.15737777948379517,
            0.4299267530441284,
            0.24125009775161743,
            0.0014756135642528534,
            1.4273940324783325,
            -0.4660402536392212,
            -0.6268676519393921,
            1.9486815929412842,
            -0.7841126918792725,
            -0.6245200634002686,
            -0.6722094416618347,
            0.7187279462814331,
            0.1978921741247177,
            0.48764243721961975,
            -0.6078463792800903,
            -0.9640868902206421,
            -0.8141858577728271,
            0.7217172980308533,
            -0.8113354444503784,
            -0.3344355821609497,
            -0.355576753616333,
            -0.9521809816360474,
            1.1958651542663574,
            0.45618316531181335,
            -0.8983025550842285,
            0.7011928558349609,
            -0.5406386852264404,
            0.7973505854606628,
            -0.12074407935142517,
            -0.05509328842163086,
            -0.30766355991363525,
            0.10390444844961166,
            0.03834182769060135,
            0.025651387870311737,
            0.4925893247127533,
            0.2547300457954407,
            -0.7675272226333618,
            -0.08733160048723221,
            -0.49379587173461914,
            -0.5827127695083618,
            -0.6249963045120239,
            1.3507752418518066,
            0.6988182663917542,
            -0.020077694207429886,
            0.3668619692325592,
            -0.672601580619812,
            0.0448494553565979,
            -0.9307601451873779,
            -0.9472262859344482,
            0.40560445189476013,
            0.3810088634490967,
            -1.152945876121521,
            -1.7984150648117065,
            -0.5896612405776978,
            -0.3314580023288727,
            0.3835615813732147,
            -0.6990671157836914,
            -0.3757520914077759,
            1.586142897605896,
            -0.06337118148803711,
            0.19321998953819275,
            0.8618349432945251,
            0.2713390588760376,
            -0.5234863758087158,
            0.16957837343215942,
            0.5417026281356812,
            0.5291935801506042,
            0.34588387608528137,
            -0.28343576192855835,
            -0.1877666711807251,
            -0.8095148801803589,
            -1.170732021331787,
            -0.8422602415084839,
            -0.9946341514587402,
            0.6756632924079895,
            -0.8968898057937622,
            -0.1361430436372757,
            -0.081552654504776,
            0.11622637510299683,
            -0.03418712317943573,
            0.10533533990383148,
            0.007901052013039589,
            -0.08811570703983307,
            -0.0870068222284317,
            -0.10818801820278168,
            -0.1168552041053772,
            0.3730851113796234,
            0.02441929094493389,
            -0.09934371709823608,
            -0.8891838788986206,
            0.09789542853832245,
            -0.23047451674938202,
            -0.1623019278049469,
            0.09842357039451599,
            -0.32236018776893616,
            0.05736326798796654,
            0.05235220119357109,
            0.01099521666765213,
            0.050285257399082184,
            0.017119206488132477,
            -0.10608409345149994,
            -0.34694111347198486,
            0.055928051471710205,
            0.01978786289691925,
            -0.05626976490020752,
            -0.5818200707435608,
            -0.003945530857890844,
            -0.10291214287281036,
            -0.03294384106993675,
            -0.11950695514678955,
            -0.01573764532804489,
            0.007439136505126953,
            0.022284910082817078,
            -0.11965879052877426,
            -0.10254856199026108,
            0.7053983807563782,
            1.0448969602584839,
            -0.030981212854385376,
            -0.27145156264305115,
            -0.06644732505083084,
            0.025536537170410156,
            0.0058684200048446655,
            0.5202692747116089,
            0.03169134259223938,
            0.050758205354213715,
            0.022332273423671722,
            0.04672706499695778,
            0.060672104358673096,
            0.0805126428604126,
            -0.0705784410238266,
            -0.0751701146364212,
            0.091205894947052,
            -0.1303873509168625,
            0.05712909996509552,
            -0.07950630784034729,
            0.5574395060539246,
            -0.12303169071674347,
            -0.08748820424079895,
            -0.07135700434446335,
            0.08183600008487701,
            0.02859962359070778,
            0.07762621343135834,
            0.05383677780628204,
            -0.00964885950088501,
            -0.03567296266555786,
            -0.04125433415174484,
            0.00012791156768798828,
            -0.09909990429878235,
            0.06600244343280792,
            -0.117582306265831,
            -0.09696680307388306,
            0.12954853475093842,
            0.04954761266708374,
            0.08099062740802765,
            0.10360385477542877,
            -0.2583780288696289,
            -0.05807795375585556,
            -0.002668231725692749,
            -0.36693716049194336,
            -0.03360990807414055,
            -0.03233291208744049,
            0.05813070014119148,
            0.30480849742889404,
            0.1397041380405426,
            -0.035212621092796326,
            -0.0936313271522522,
            0.017251551151275635,
            -0.06286822259426117,
            0.012308910489082336,
            0.5174192190170288,
            -0.2770335376262665,
            -0.0021210103295743465,
            -0.010193687863647938,
            -0.050673872232437134,
            -0.013037803582847118,
            0.1013980358839035,
            -0.013621747493743896,
            0.05867458134889603,
            -0.11431245505809784,
            0.966995120048523,
            -0.32150235772132874,
            -0.07729180157184601,
            -0.273413747549057,
            -0.06685411185026169,
            -0.009979590773582458,
            -0.11989203095436096,
            -0.04008941724896431,
            -0.029615163803100586,
            -0.005805578548461199,
            -0.4224011301994324,
            -0.049498748034238815,
            -0.01448647677898407,
            0.0822266936302185,
            0.02040834352374077,
            -0.06092309206724167,
            -0.0486740916967392,
            -0.3506912291049957,
            0.05752207338809967,
            -0.05793537199497223,
            0.26329582929611206,
            0.044498786330223083,
            0.04212203621864319,
            0.061881065368652344,
            0.0752781480550766,
            -0.015548758208751678,
            -0.08192196488380432,
            0.06669408082962036,
            -0.01881641149520874,
            -0.09192073345184326,
            -0.09580499678850174,
            0.01648816466331482,
            -0.10696379840373993,
            -0.0974501520395279,
            -0.03403797745704651,
            0.21762339770793915,
            -0.056870296597480774,
            -0.08585245907306671,
            0.4499343931674957,
            -0.05824780464172363,
            -0.5552161335945129,
            -0.23125508427619934,
            0.04986406862735748,
            -0.16594119369983673,
            -0.0495016910135746,
            -0.08395744860172272,
            0.0739934965968132,
            0.10159876197576523,
            -0.010212699882686138,
            0.07818730175495148,
            -0.13090071082115173,
            -0.04299265146255493,
            -0.06093291938304901,
            -0.07463394105434418,
            -0.15642303228378296,
            -0.576253354549408,
            -0.16363908350467682,
            -0.08533027023077011,
            0.11077055335044861,
            -0.0011565603781491518,
            -0.11868435144424438,
            -0.005974292755126953,
            -0.10954928398132324,
            0.044020794332027435,
            0.6290900707244873,
            0.07963169366121292,
            0.06796319782733917,
            -0.13253693282604218,
            -0.087160624563694,
            -0.07669657468795776,
            -0.09271542727947235,
            0.32174885272979736,
            -0.052180469036102295,
            0.09089053422212601,
            -0.5275105834007263,
            0.0064068022184073925,
            0.07585841417312622,
            -0.04458428546786308,
            -0.12015058845281601,
            0.029750170186161995,
            -0.06324677169322968,
            -0.1835285723209381,
            -0.03935004770755768,
            0.09991832077503204,
            0.42499101161956787,
            -0.048020943999290466,
            0.06230464577674866,
            0.029688730835914612,
            -0.10710710287094116,
            -0.020409662276506424,
            0.052057765424251556,
            0.014275804162025452,
            0.06016357243061066,
            0.08873651921749115,
            -0.09104520082473755,
            -0.10656479001045227,
            -0.04981394112110138,
            0.08625909686088562,
            -0.06450638175010681,
            0.2437020093202591,
            0.10571176558732986,
            0.057567983865737915,
            0.1353137493133545,
            -0.09516577422618866,
            -0.2107824832201004,
            -0.05642600357532501,
            -0.09294651448726654,
            -0.12382031977176666,
            -0.03202912583947182,
            0.03733622282743454,
            0.08157521486282349,
            0.06984134763479233,
            -0.022264782339334488,
            -0.020745262503623962,
            -0.14092311263084412,
            0.03531642258167267,
            0.052312642335891724,
            -0.1120523065328598,
            -0.18606464564800262,
            -0.4850362241268158,
            0.013448821380734444,
            -0.041207071393728256,
            0.04348655045032501,
            -0.03761890530586243,
            0.012604907155036926,
            -0.06985624134540558,
            0.0966133326292038,
            -0.0524740032851696,
            0.4047732651233673,
            0.49622392654418945,
            0.052999347448349,
            -0.12215437740087509,
            0.052449245005846024,
            -0.06532377004623413,
            -0.11721020936965942,
            0.21077357232570648,
            0.05620698630809784,
            -0.11276757717132568,
            -0.3820623457431793,
            0.04130103066563606,
            0.027886658906936646,
            -0.042879868298769,
            -0.04440974071621895,
            -0.03455936536192894,
            0.09460588544607162,
            -0.1175181195139885,
            0.10879683494567871,
            0.01652716100215912,
            -0.13833509385585785,
            0.021280437707901,
            0.04773670434951782,
            -0.013670620508491993,
            -0.024718672037124634,
            0.08999577909708023,
            -0.23787645995616913,
            -0.04171113669872284,
            0.09333305060863495,
            -0.08744637668132782,
            -0.21138319373130798,
            0.03383296728134155,
            0.08035774528980255,
            -0.09909507632255554,
            -0.11232811212539673,
            -1.1160941123962402,
            -0.07031078636646271,
            -0.03467775881290436,
            0.4586617052555084,
            -0.12128013372421265,
            1.523746132850647,
            0.6331655383110046,
            -0.05797198414802551,
            0.7787197232246399,
            -0.0350082702934742,
            0.06538474559783936,
            -0.03601209819316864,
            -0.1948481649160385,
            -0.059435952454805374,
            0.06036055088043213,
            0.7413007616996765,
            0.050199419260025024,
            0.10715004801750183,
            0.037243202328681946,
            0.8378196954727173,
            1.2239478826522827,
            0.10107371211051941,
            0.07920370995998383,
            -0.09970511496067047,
            0.042924914509058,
            -0.014619231224060059,
            0.056848183274269104,
            -0.0011552742216736078,
            0.0988476574420929,
            -1.6393543481826782,
            -2.6824073791503906,
            -0.025888681411743164,
            0.9384247660636902,
            0.00509921507909894,
            0.10843107104301453,
            0.0010677725076675415,
            -1.3737787008285522,
            0.11202627420425415,
            0.0821995809674263,
            1.4079405069351196,
            -0.014172911643981934,
            0.06575031578540802,
            -0.2552693784236908,
            0.040788546204566956,
            0.08527430891990662,
            -0.0912664607167244,
            0.8441880345344543,
            -0.051792651414871216,
            0.004895403981208801,
            -2.4640774726867676,
            -0.037377119064331055,
            0.10240153968334198,
            -0.2683757543563843,
            -0.012428387999534607,
            0.10072965919971466,
            0.10155268013477325,
            -0.058459460735321045,
            0.053432613611221313,
            0.06848646700382233,
            -0.05918445810675621,
            -0.09259428083896637,
            0.10876302421092987,
            -0.07575039565563202,
            0.04658220708370209,
            0.06941606849431992,
            -0.060769472271203995,
            0.045301154255867004,
            0.5449444651603699,
            0.06679148972034454,
            -0.04006323963403702,
            0.30751165747642517,
            0.08638432621955872,
            0.14831006526947021,
            -0.062227603048086166,
            0.03319590166211128,
            -0.03713427111506462,
            -0.2977631092071533,
            -0.20140881836414337,
            -0.1234876960515976,
            0.14019615948200226,
            -0.12112915515899658,
            -0.11029991507530212,
            -0.023557856678962708,
            -0.6126013398170471,
            -0.20085409283638,
            -0.01763596385717392,
            0.12031987309455872,
            0.011573046445846558,
            0.0364387147128582,
            0.0914267897605896,
            0.0718161016702652,
            0.03847267106175423,
            0.11961425095796585,
            -1.1282364130020142,
            0.1433798372745514,
            0.07792961597442627,
            0.2013469636440277,
            0.051510799676179886,
            -0.06538201868534088,
            -0.004973888397216797,
            -0.12315373867750168,
            -0.06553035974502563,
            0.13712061941623688,
            0.044173870235681534,
            0.09174343198537827,
            0.049969837069511414,
            -0.07086627930402756,
            -0.036670658737421036,
            0.08632723987102509,
            0.11261113733053207,
            0.2599562108516693,
            0.1175767034292221,
            0.07336688041687012,
            -0.011365493759512901,
            0.04936373233795166,
            0.06043747067451477,
            0.062300264835357666,
            0.06776021420955658,
            0.16934432089328766,
            0.10137098282575607,
            -0.014010652899742126,
            -0.09021028876304626,
            -0.07123929262161255,
            0.14512962102890015,
            -0.028347596526145935,
            0.039243802428245544,
            -0.11974911391735077,
            0.02544000744819641,
            -0.4809452295303345,
            0.07731664180755615,
            0.010025903582572937,
            -0.6986975073814392,
            0.06088802218437195,
            0.20148271322250366,
            -0.1740434765815735,
            0.0076591819524765015,
            -0.06600261479616165,
            0.03250686824321747,
            0.08658302575349808,
            0.0032486554700881243,
            0.13107867538928986,
            0.2042548656463623,
            0.07838618755340576,
            -0.12555307149887085,
            -0.06979455053806305,
            -0.08962005376815796,
            0.0700482577085495,
            0.9224978685379028,
            0.3227877914905548,
            0.23504263162612915,
            0.01996457576751709,
            -0.03757144510746002,
            -0.021079163998365402,
            -0.04380069673061371,
            -0.056631073355674744,
            0.1745641529560089,
            0.20141899585723877,
            -0.48003947734832764,
            -2.1587932109832764,
            -0.09840688109397888,
            -0.042536661028862,
            0.11951427906751633,
            0.11503881216049194,
            -0.01321190595626831,
            -0.5364658832550049,
            0.0405053049325943,
            0.09746035933494568,
            0.3392089605331421,
            0.1587943583726883,
            0.09005802869796753,
            0.16918742656707764,
            0.1542036086320877,
            0.021989263594150543,
            0.16504991054534912,
            -0.034233540296554565,
            -0.11001171171665192,
            0.0568496435880661,
            -0.7433739304542542,
            -0.08834508061408997,
            -0.11260810494422913,
            -0.06147795915603638,
            0.11047109961509705,
            0.1254381686449051,
            -0.0443665012717247,
            0.07294109463691711,
            0.07234668731689453,
            -0.04645010828971863,
            0.015358898788690567,
            0.04340735077857971,
            -0.09856948256492615,
            -0.032017841935157776,
            0.08753758668899536,
            0.2071007490158081,
            -0.045609280467033386,
            0.08350524306297302,
            -1.4156651496887207,
            -0.03749056160449982,
            0.5846810340881348,
            -0.15096554160118103,
            -0.057740822434425354,
            0.14954087138175964,
            0.060307443141937256,
            0.044047996401786804,
            -0.03188563883304596,
            -0.14327287673950195,
            -0.027214290574193,
            -0.07883851230144501,
            -0.04717650264501572,
            -0.10328400135040283,
            -0.09290318191051483,
            0.09372599422931671,
            -0.012299279682338238,
            0.547901451587677,
            0.1735752820968628,
            -0.052006322890520096,
            -0.0876290500164032,
            0.02724456787109375,
            0.10555227100849152,
            0.010335594415664673,
            -0.06700030714273453,
            0.0021649994887411594,
            -0.6672621965408325,
            0.4160773754119873,
            -0.08057433366775513,
            0.246058851480484,
            0.013754894956946373,
            -0.03415419161319733,
            0.0012967437505722046,
            -0.14215216040611267,
            0.04975156486034393,
            0.024911407381296158,
            0.6453450918197632,
            0.07813810557126999,
            0.004284769296646118,
            -0.0015865627210587263,
            -0.07968924939632416,
            0.028970086947083473,
            0.08311095088720322,
            0.06725214421749115,
            -0.06348134577274323,
            0.10585759580135345,
            -0.305594801902771,
            0.004060864448547363,
            0.010812997817993164,
            -0.08751405030488968,
            0.03168460726737976,
            0.04717857763171196,
            -0.10389778017997742,
            -0.11238013207912445,
            -0.016859084367752075,
            -0.09372225403785706,
            -0.07431862503290176,
            0.008833721280097961,
            0.11558586359024048,
            -0.11574256420135498,
            0.07785879075527191,
            -0.07357072830200195,
            0.059143971651792526,
            0.03995174169540405,
            -1.4001821279525757,
            -0.033563271164894104,
            0.07098327577114105,
            -0.0714251697063446,
            -0.06993778049945831,
            -0.07807794213294983,
            0.007807589136064053,
            0.008209077641367912,
            -0.11043153703212738,
            -0.3527859151363373,
            -0.24985583126544952,
            0.06575626134872437,
            -0.07654989510774612,
            -0.0628509670495987,
            -0.07124744355678558,
            -0.05557692050933838,
            0.5955342054367065,
            0.031495191156864166,
            -0.08974765241146088,
            -0.10300489515066147,
            -0.10035762190818787,
            0.10129834711551666,
            -0.06147749722003937,
            -0.01886892318725586,
            0.04833504930138588,
            -0.11615706980228424,
            -0.12105422466993332,
            -0.6880910992622375,
            -0.03692527115345001,
            0.022139495238661766,
            0.03153713420033455,
            -0.016386553645133972,
            0.06730668246746063,
            -0.05953633785247803,
            0.07957945764064789,
            0.07370724529027939,
            -0.0372578427195549,
            -0.00454508513212204,
            0.09805814921855927,
            0.023417804390192032,
            -0.07645956426858902,
            0.08782937377691269,
            -0.0015580742619931698,
            -0.14696821570396423,
            0.10053671896457672,
            -0.06019267439842224,
            0.6194847226142883,
            0.01442350447177887,
            -0.09980028867721558,
            -0.12818056344985962,
            -0.09367276728153229,
            -0.10849528014659882,
            0.07855788618326187,
            -0.016882091760635376,
            0.09793093800544739,
            -0.054529979825019836,
            0.06830615550279617,
            -0.10080790519714355,
            -0.009584665298461914,
            0.028593584895133972,
            -0.029573559761047363,
            0.08147935569286346,
            0.043637897819280624,
            -0.029707759618759155,
            2.358957290649414,
            -0.03522545099258423,
            -0.2349080741405487,
            0.16384857892990112,
            -0.007318764925003052,
            -0.08595481514930725,
            -0.12765440344810486,
            0.013588320463895798,
            0.020010272040963173,
            0.08534450083971024,
            -0.002917940029874444,
            0.12213201820850372,
            0.15552189946174622,
            0.022462576627731323,
            0.10669645667076111,
            0.11766591668128967,
            -0.832307755947113,
            -0.32976341247558594,
            -0.07204348593950272,
            -0.05932726338505745,
            -0.03436785936355591,
            0.014684037305414677,
            0.08999815583229065,
            -0.12122559547424316,
            -0.14345966279506683,
            -0.10067739337682724,
            -0.10445736348628998,
            0.29634180665016174,
            0.05872553586959839,
            -0.037340063601732254,
            -0.16034400463104248,
            0.024385228753089905,
            0.08356614410877228,
            0.21482735872268677,
            0.04254429042339325,
            -0.183982253074646,
            -0.27578797936439514,
            0.05986863002181053,
            -0.006917178630828857,
            0.054597191512584686,
            0.005921659059822559,
            0.006042907480150461,
            -0.06932954490184784,
            -0.12527737021446228,
            -0.012402042746543884,
            -0.038689643144607544,
            0.5790221691131592,
            -0.08101940155029297,
            -0.12439614534378052,
            0.13121849298477173,
            0.0891723483800888,
            -0.1252533197402954,
            0.07815590500831604,
            0.1140887588262558,
            0.11834220588207245,
            0.011998191475868225,
            0.13603359460830688,
            -0.00359363853931427,
            0.06334105134010315,
            -0.09879384934902191,
            -0.035344675183296204,
            -0.0979800596833229,
            0.0065569630824029446,
            0.1063089370727539,
            -0.08535174280405045,
            -0.055124908685684204,
            -0.15186838805675507,
            -0.04359116405248642,
            0.055075183510780334,
            -0.12969283759593964,
            -0.0682225152850151,
            0.01629318669438362,
            -0.06015594303607941,
            0.17700359225273132,
            0.12336568534374237,
            0.040423959493637085,
            -0.022628020495176315,
            -0.003009423613548279,
            0.047103822231292725,
            0.009241238236427307,
            -0.021747779101133347,
            -0.05036967620253563,
            -0.24408680200576782,
            -0.14818304777145386,
            -0.014353439211845398,
            -0.00028180540539324284,
            -0.02260032296180725,
            -0.09684810042381287,
            -0.03854723647236824,
            0.00879930704832077,
            0.7219380140304565,
            -0.5019770264625549,
            -0.08621491491794586,
            -0.11833580583333969,
            -0.008140988647937775,
            0.005759119987487793,
            -0.022565454244613647,
            0.026534438133239746,
            0.05051031708717346,
            -0.008503412827849388,
            -0.1807929426431656,
            0.0669625848531723,
            0.03911268711090088,
            -0.06989224255084991,
            0.003634978551417589,
            -0.1519220769405365,
            0.05365290865302086,
            0.014960688538849354,
            -0.08837789297103882,
            -0.010058671236038208,
            0.5960701107978821,
            0.10962715744972229,
            0.06194542348384857,
            0.09241142123937607,
            -0.0795748382806778,
            0.014043794013559818,
            0.003383222036063671,
            0.04079292714595795,
            0.00633750855922699,
            -0.09081432223320007,
            0.10948909819126129,
            0.09859326481819153,
            0.08959341049194336,
            0.04433053731918335,
            0.018874630331993103,
            0.20380385220050812,
            0.015119258314371109,
            0.007909119129180908,
            1.8605798482894897,
            0.11274223029613495,
            -0.3525456190109253,
            0.13760948181152344,
            -0.09990455210208893,
            -0.2952267527580261,
            -0.12334386259317398,
            -0.1360176056623459,
            0.06011004000902176,
            -0.11180581897497177,
            0.03694409132003784,
            -0.007126167416572571,
            0.02435963600873947,
            0.11795233190059662,
            -0.09548577666282654,
            -0.03400176763534546,
            -0.2917034924030304,
            -0.29130685329437256,
            -0.09405170381069183,
            0.07434747368097305,
            0.0814933031797409,
            -0.11285567283630371,
            0.07696519792079926,
            0.01200246810913086,
            0.0414542481303215,
            -0.0048044282011687756,
            -0.08646494895219803,
            0.3142322301864624,
            -0.05428352952003479,
            -0.13071179389953613,
            -0.044377680867910385,
            -0.10713362693786621,
            -0.07323017716407776,
            0.1584828644990921,
            -0.010621130466461182,
            -0.0581488199532032,
            -0.19552569091320038,
            -0.09372998028993607,
            -0.07575376331806183,
            0.05938003212213516,
            -0.08302813768386841,
            -0.12376537919044495,
            -0.1250620037317276,
            -0.1613895744085312,
            -0.10725463926792145,
            0.09954726696014404,
            0.9514498114585876,
            -0.11850111186504364,
            -0.11676199734210968,
            -0.06768772751092911,
            -0.04504704475402832,
            -0.1993839293718338,
            0.005893002729862928,
            0.10433417558670044,
            0.08839946985244751,
            -0.07586219906806946,
            0.056398019194602966,
            0.010832741856575012,
            -0.10454443097114563,
            0.02085171639919281,
            -0.1054617315530777,
            -0.2866283655166626,
            -0.04615107923746109,
            -0.07959851622581482,
            -1.9717514514923096,
            -0.05606098473072052,
            0.16923630237579346,
            -0.40077653527259827,
            0.06614519655704498,
            -0.03322113677859306,
            -0.18347050249576569,
            -0.0539713017642498,
            -0.025520991533994675,
            -0.40582212805747986,
            -0.24605076014995575,
            -0.11035914719104767,
            -0.24220260977745056,
            0.09796440601348877,
            0.051997169852256775,
            -0.029932886362075806,
            1.864548921585083,
            0.17952971160411835,
            -0.18225136399269104,
            -0.1256188601255417,
            -0.06222860515117645,
            -0.21669314801692963,
            0.031057611107826233,
            -0.011608168482780457,
            -0.08905751258134842,
            -0.20174835622310638,
            0.9285984039306641,
            0.5786213278770447,
            0.11028683185577393,
            0.09216698259115219,
            -0.13379348814487457,
            -0.12436158955097198,
            0.003545209765434265,
            -0.05654408037662506,
            -0.08974985778331757,
            -0.07886752486228943,
            -0.37133657932281494,
            -0.004896920640021563,
            -0.028326183557510376,
            -0.08737002313137054,
            -0.15707948803901672,
            -0.18632954359054565,
            -0.180406391620636,
            -0.02432047203183174,
            -0.09484365582466125,
            0.04126167297363281,
            1.2276307344436646,
            0.09293051064014435,
            -0.03540287911891937,
            -0.07568887621164322,
            0.03737013041973114,
            -0.035222023725509644,
            -0.008355432190001011,
            -0.021230682730674744,
            0.045235827565193176,
            0.0016130059957504272,
            0.13024143874645233,
            -0.04220852255821228,
            0.10222969949245453,
            -0.04142071306705475,
            0.013407409191131592,
            -0.3007334768772125,
            0.16155391931533813,
            -0.11846102774143219,
            0.8488774299621582,
            -0.06415161490440369,
            -0.38024193048477173,
            0.09968981891870499,
            -0.08652588725090027,
            -0.3036239445209503,
            0.019828420132398605,
            0.031097302213311195,
            0.05493062362074852,
            0.3148317039012909,
            0.1690809577703476,
            0.1121152937412262,
            -0.18416765332221985,
            -0.006953433156013489,
            -0.053816720843315125,
            0.06845049560070038,
            0.4895179569721222,
            -0.4787064492702484,
            -0.05647297576069832,
            -0.09955298900604248,
            0.11177599430084229,
            0.02130785770714283,
            -0.062753826379776,
            0.01721183955669403,
            -0.03836579620838165,
            0.09436153620481491,
            0.9243553280830383,
            -1.3516677618026733,
            0.06984032690525055,
            -0.26289984583854675,
            0.06011924892663956,
            0.05826054513454437,
            0.11620888113975525,
            -0.022563613951206207,
            -0.019640207290649414,
            0.06434015929698944,
            -0.5830851197242737,
            0.01215884555131197,
            -0.03414791822433472,
            -0.015203763730823994,
            0.01668471470475197,
            0.005953541491180658,
            -0.022395992651581764,
            -0.20859389007091522,
            0.03965340554714203,
            -0.10939855873584747,
            0.11947494745254517,
            -0.07956308126449585,
            0.07971777021884918,
            0.010781132616102695,
            0.031428173184394836,
            0.040499355643987656,
            -0.11643119156360626,
            0.06915490329265594,
            0.10551390051841736,
            0.048431023955345154,
            -0.07890738546848297,
            0.11731760203838348,
            0.01858273148536682,
            -0.0002565532922744751,
            -0.029848366975784302,
            -0.08908910304307938,
            0.05107371136546135,
            -8.463859558105469e-05,
            -2.340498447418213,
            -0.01630304753780365,
            0.14062736928462982,
            -0.05310782045125961,
            0.09929992258548737,
            0.028720004484057426,
            0.12437304854393005,
            -0.03709318861365318,
            -0.03980659693479538,
            -0.1295236498117447,
            -0.18072974681854248,
            -0.0093916654586792,
            -0.221334308385849,
            -0.012449562549591064,
            -0.11763428151607513,
