{
    "num_epochs": 10000,
    "batch_size": 64,
    "final_g_loss": 2.1750152111053467,
    "final_d_loss": 0.34579208493232727,
    "generator_learning_rate": 0.0002,
    "discriminator_learning_rate": 0.0005,
    "train_data_exp_dir_path": [
        "/app/data/fl_configs/fl_train_data/goal_pos_1_2",
        "/app/data/fl_configs/fl_train_data/goal_pos_3_2",
        "/app/data/fl_configs/fl_train_data/goal_pos_3_3"
    ],
    "generator": {
        "num_inputs": 3,
        "num_outputs": 28,
        "num_hidden_layers": 1,
        "neurons_per_hidden_layer": 64,
        "hidden_layer_activation_function": "relu",
        "final_layer_activation_function": null,
        "bias": true,
        "weights": [
            -0.03272998705506325,
            -0.45529383420944214,
            0.7000272870063782,
            -0.4631219208240509,
            1.412932276725769,
            0.9417582750320435,
            -1.0377650260925293,
            -0.06339939683675766,
            0.17829585075378418,
            -0.669279158115387,
            0.7043918967247009,
            -0.4698982834815979,
            -0.1967407464981079,
            0.28463810682296753,
            -1.0362721681594849,
            -0.15776866674423218,
            1.2042145729064941,
            -0.5460448861122131,
            0.4809626042842865,
            0.8422379493713379,
            1.306045413017273,
            0.5733315348625183,
            -0.0538804866373539,
            -1.1888582706451416,
            -0.8562354445457458,
            -0.8772053718566895,
            1.1986629962921143,
            0.394656777381897,
            1.0680160522460938,
            0.2561419904232025,
            0.32405349612236023,
            -0.5539993047714233,
            -1.0172287225723267,
            -0.11182606965303421,
            -0.225556880235672,
            1.434471845626831,
            0.6204272508621216,
            0.8366234302520752,
            0.35534021258354187,
            0.6070017218589783,
            0.6582181453704834,
            -0.15149016678333282,
            0.8916016221046448,
            1.1655712127685547,
            -0.6781814098358154,
            -0.672813892364502,
            0.40808627009391785,
            -1.1489089727401733,
            0.010985291562974453,
            0.5206149816513062,
            0.7430287599563599,
            -0.03882130980491638,
            1.7691190242767334,
            -0.5129244327545166,
            -0.2126362919807434,
            1.0635002851486206,
            0.13731640577316284,
            0.8050523400306702,
            0.5684100985527039,
            -0.47794485092163086,
            1.2245275974273682,
            0.05096542090177536,
            -0.24889643490314484,
            0.43780454993247986,
            -0.08555029332637787,
            1.0337313413619995,
            1.0934650897979736,
            -1.4284988641738892,
            -0.11065821349620819,
            -1.4014840126037598,
            0.675406277179718,
            1.8244271278381348,
            0.7751179337501526,
            -0.04666309431195259,
            0.33209991455078125,
            0.3997091054916382,
            1.1268259286880493,
            0.8956174850463867,
            1.1844489574432373,
            0.8487090468406677,
            0.32068485021591187,
            0.8953084349632263,
            -0.05673642456531525,
            -0.7581729888916016,
            0.6994419097900391,
            0.17006446421146393,
            0.16575053334236145,
            0.9799807071685791,
            -0.32356324791908264,
            0.6373292207717896,
            0.26278427243232727,
            -0.2246461659669876,
            0.8519003987312317,
            0.3803642690181732,
            0.43814513087272644,
            0.7943341732025146,
            -0.5719409584999084,
            0.8748703002929688,
            -1.0567861795425415,
            -0.4203571081161499,
            -1.007576584815979,
            0.3631998896598816,
            0.8952442407608032,
            -0.4176963269710541,
            1.1809732913970947,
            0.8947063088417053,
            0.8859793543815613,
            0.19471411406993866,
            -0.7853535413742065,
            0.6614718437194824,
            1.0974987745285034,
            0.6107283234596252,
            1.0064560174942017,
            0.2722925841808319,
            0.7809575796127319,
            -1.2374933958053589,
            -0.9140172600746155,
            0.6437961459159851,
            -0.6404205560684204,
            -0.5877425074577332,
            1.1997326612472534,
            -1.403822660446167,
            0.33097249269485474,
            -0.9092303514480591,
            -0.10814832150936127,
            -0.45226067304611206,
            -0.12631435692310333,
            0.26033976674079895,
            0.9869062900543213,
            0.8761903643608093,
            -0.5040562748908997,
            0.6725102066993713,
            -0.7901405096054077,
            0.012187854386866093,
            0.6310650706291199,
            -0.20773819088935852,
            -0.62312251329422,
            0.8609678149223328,
            -1.2310478687286377,
            1.0495206117630005,
            -0.15518441796302795,
            -0.2417907416820526,
            1.1302324533462524,
            -1.0729296207427979,
            0.9154207706451416,
            -0.1520865261554718,
            0.22041276097297668,
            1.4214091300964355,
            -0.38124746084213257,
            0.42929577827453613,
            0.9448060393333435,
            0.3782263994216919,
            -0.9098029732704163,
            1.0668867826461792,
            -0.6960441470146179,
            1.184620976448059,
            -1.1967265605926514,
            -0.6494029760360718,
            -0.8486480712890625,
            -0.8523407578468323,
            0.8655757308006287,
            0.7390046715736389,
            -0.46997368335723877,
            0.6468852162361145,
            0.5891599059104919,
            1.0475353002548218,
            0.3613913953304291,
            -0.04917414113879204,
            -0.7863836884498596,
            -1.1117600202560425,
            -0.9247885942459106,
            1.1226329803466797,
            0.41660964488983154,
            -0.5674925446510315,
            0.7469363808631897,
            0.24177053570747375,
            0.7933383584022522,
            0.14784717559814453,
            -0.05212920159101486,
            -1.3955777883529663,
            -0.5072849988937378,
            0.6599844098091125,
            0.6651794910430908,
            0.4820680320262909,
            0.5929600596427917,
            1.0505993366241455,
            1.109708547592163,
            -0.06026453897356987,
            -0.28904393315315247,
            0.47414082288742065,
            -0.8415923714637756,
            1.0834956169128418,
            0.7199116349220276,
            0.0634588748216629,
            0.07771074026823044,
            0.6749640107154846,
            0.8127650618553162,
            0.24353045225143433,
            0.29601725935935974,
            0.9595712423324585,
            0.7336661219596863,
            0.3839681148529053,
            0.15465161204338074,
            0.25311440229415894,
            0.8805718421936035,
            0.6825414896011353,
            0.36849886178970337,
            0.5137550830841064,
            0.6091423034667969,
            0.7529374957084656,
            0.6432240605354309,
            0.29584750533103943,
            0.5006725788116455,
            0.21239878237247467,
            0.8545510768890381,
            0.7264971137046814,
            0.29613354802131653,
            0.7219534516334534,
            0.956138014793396,
            0.23299573361873627,
            1.044946551322937,
            0.4802173972129822,
            0.9362891316413879,
            0.8616740107536316,
            0.3568405508995056,
            0.47623682022094727,
            0.3807141184806824,
            0.6213850378990173,
            0.08252964913845062,
            0.6274922490119934,
            0.37158164381980896,
            0.6861859560012817,
            0.8537416458129883,
            1.0819295644760132,
            0.8627460598945618,
            0.5003306269645691,
            0.5675027370452881,
            0.9330801367759705,
            0.33225390315055847,
            0.37449631094932556,
            0.4009841978549957,
            0.014262634329497814,
            0.35057199001312256,
            0.19784218072891235,
            0.8139166235923767,
            0.9988741874694824,
            0.8822779059410095,
            0.24236659705638885,
            0.5058510303497314,
            0.19133348762989044,
            0.7568424940109253,
            0.17271815240383148,
            0.6592932939529419,
            0.15016089379787445,
            0.6891277432441711,
            0.5539170503616333,
            -0.05876250937581062,
            0.16244518756866455,
            0.15700021386146545,
            0.1128726378083229,
            -0.02500222995877266,
            -0.15074443817138672,
            -0.05033230781555176,
            -0.04516085609793663,
            0.19158422946929932,
            0.05014457926154137,
            0.013372709974646568,
            0.07747949659824371,
            -0.025741759687662125,
            0.10807263851165771,
            -0.08858560770750046,
            0.17398548126220703,
            -0.33478009700775146,
            0.14328566193580627,
            0.10170853137969971,
            -0.30652788281440735,
            -0.062261540442705154,
            -0.03565707802772522,
            -0.17752709984779358,
            -0.07570920884609222,
            0.10498392581939697,
            -0.03533082455396652,
            -0.050691425800323486,
            -0.07832177728414536,
            -0.10344964265823364,
            0.11583227664232254,
            -0.0019245524890720844,
            -0.10498020052909851,
            0.06483045965433121,
            0.14580531418323517,
            0.043673500418663025,
            0.011676764115691185,
            0.07536525279283524,
            -0.08706759661436081,
            -0.16463583707809448,
            -0.08319831639528275,
            0.05809926614165306,
            0.08813201636075974,
            -0.1332760900259018,
            0.10515377670526505,
            -0.20386068522930145,
            -0.05390380322933197,
            0.05423758924007416,
            -0.04437457025051117,
            0.04867696017026901,
            0.07142443209886551,
            -0.13802474737167358,
            0.2607787251472473,
            0.0016289176419377327,
            -0.3123528063297272,
            0.05740705877542496,
            0.1104186400771141,
            0.07373500615358353,
            0.061957746744155884,
            -0.35294240713119507,
            -0.09183727204799652,
            -0.22730222344398499,
            -0.07609990984201431,
            -0.036109793931245804,
            0.12590500712394714,
            0.11872081458568573,
            -0.03244303539395332,
            0.13269267976284027,
            0.05640649050474167,
            -0.04839646816253662,
            -0.18051105737686157,
            0.10875815153121948,
            -0.033081136643886566,
            -0.10683497786521912,
            -0.1899569183588028,
            -0.1937587708234787,
            0.08859312534332275,
            -0.1291208118200302,
            -0.147403284907341,
            0.11778953671455383,
            0.23568545281887054,
            -0.10026733577251434,
            -0.0909818559885025,
            0.1017422154545784,
            0.18945392966270447,
            -0.11072856187820435,
            0.03656655177474022,
            -0.09220610558986664,
            0.022435341030359268,
            -0.12292130291461945,
            0.0018843325087800622,
            -0.09073043614625931,
            0.1611463725566864,
            0.006527872756123543,
            0.027694446966052055,
            -0.15351355075836182,
            -0.04138560593128204,
            -0.10074756294488907,
            -0.23439306020736694,
            0.052346717566251755,
            0.07664759457111359,
            0.09117569774389267,
            -0.014127461239695549,
            0.05656347796320915,
            -0.10548486560583115,
            -0.04075811058282852,
            0.12374554574489594,
            0.21264661848545074,
            -0.044092170894145966,
            0.011169365607202053,
            -0.04748448729515076,
            -0.19770441949367523,
            -0.12054747343063354,
            -0.07688826322555542,
            0.1415749490261078,
            -0.12407033145427704,
            0.1518581211566925,
            0.0006022333982400596,
            -0.001837782096117735,
            0.229850172996521,
            0.10716966539621353,
            -0.14941540360450745,
            -0.13284021615982056,
            -0.02721928246319294,
            0.16800899803638458,
            -0.08561436831951141,
            0.19296486675739288,
            0.1334635317325592,
            -0.15550941228866577,
            -0.12930019199848175,
            -0.031828176230192184,
            -0.06977003812789917,
            0.1677888184785843,
            -0.11780773848295212,
            0.07011063396930695,
            0.010976739227771759,
            -0.26448705792427063,
            0.08534204959869385,
            0.11749841272830963,
            -0.14318591356277466,
            0.06551389396190643,
            0.1648740917444229,
            -0.04139743372797966,
            0.13210369646549225,
            0.09430462121963501,
            -0.03013620525598526,
            -0.06141689792275429,
            -0.035837456583976746,
            -0.09531944245100021,
            0.006251935381442308,
            -0.011441264301538467,
            0.12214543670415878,
            0.02184080146253109,
            0.28841984272003174,
            -0.15431906282901764,
            0.07061711698770523,
            0.10313184559345245,
            -0.13263119757175446,
            0.039999719709157944,
            -0.15504755079746246,
            -0.07111657410860062,
            0.02590150386095047,
            -0.05940067768096924,
            -0.1048431470990181,
            0.059169985353946686,
            0.0899951159954071,
            0.09652578085660934,
            -0.08848971873521805,
            -0.0683155357837677,
            0.06996805220842361,
            0.08118302375078201,
            0.0940781831741333,
            0.054803039878606796,
            0.04493991658091545,
            -0.010440575890243053,
            0.08225715905427933,
            -0.008197099901735783,
            -0.14475150406360626,
            -0.03166291117668152,
            0.29072582721710205,
            -0.14195361733436584,
            -0.06658747047185898,
            0.09326138347387314,
            -0.12972715497016907,
            0.1970948725938797,
            -0.038212474435567856,
            0.1697452962398529,
            -0.19966855645179749,
            0.16145165264606476,
            -0.17644040286540985,
            -0.31695857644081116,
            0.017906246706843376,
            -0.05105888843536377,
            -0.14846856892108917,
            0.17221038043498993,
            0.014340913854539394,
            -0.06961540132761002,
            -0.1422366350889206,
            0.21115848422050476,
            -0.1769062578678131,
            -0.0384434312582016,
            -0.0013719761045649648,
            -0.20648851990699768,
            -0.01667998917400837,
            0.04102127626538277,
            -0.020497243851423264,
            -0.21491949260234833,
            0.034405551850795746,
            -0.18902002274990082,
            0.0797257125377655,
            0.14599746465682983,
            -0.18214121460914612,
            -0.1278892308473587,
            0.03224198892712593,
            -0.2595328688621521,
            -0.016685649752616882,
            0.07993199676275253,
            -0.18584026396274567,
            0.061989132314920425,
            -0.12024601548910141,
            -0.12685243785381317,
            -0.164434552192688,
            0.12298684567213058,
            0.14592847228050232,
            0.05770089849829674,
            0.049429841339588165,
            -0.03196574002504349,
            -0.10874757915735245,
            0.12631045281887054,
            0.12609779834747314,
            0.17890304327011108,
            0.08466786891222,
            -0.13632507622241974,
            -0.06454093009233475,
            0.17123271524906158,
            0.1009410098195076,
            0.052894629538059235,
            0.2022354006767273,
            -0.0836234837770462,
            -0.015467473305761814,
            -0.09460195899009705,
            -0.3365496098995209,
            0.15356700122356415,
            0.09187980741262436,
            0.07926279306411743,
            0.07710781693458557,
            0.10319194942712784,
            0.07863225787878036,
            -0.1231127604842186,
            -0.22479203343391418,
            0.10427790880203247,
            0.2772391140460968,
            -0.04691361263394356,
            -0.08979810774326324,
            -0.13335829973220825,
            -0.01797397807240486,
            -0.3346704840660095,
            -0.0076156556606292725,
            -0.16214793920516968,
            -0.13057374954223633,
            -0.165025532245636,
            0.20740371942520142,
            -0.14377059042453766,
            -0.21481376886367798,
            0.1536647528409958,
            0.017243750393390656,
            0.13718494772911072,
            0.1878833770751953,
            -0.131294846534729,
            0.046525999903678894,
            0.1837218999862671,
            0.11268331855535507,
            -0.1966712325811386,
            0.22193263471126556,
            -0.08684772998094559,
            0.1225396990776062,
            0.09757966548204422,
            -0.0980517715215683,
            -0.05899657681584358,
            0.1454814076423645,
            0.15996487438678741,
            -0.05123136565089226,
            0.013311924412846565,
            0.23615242540836334,
            -0.05428028106689453,
            0.1769479513168335,
            -0.08703135699033737,
            -0.04900423437356949,
            -0.03080977499485016,
            -0.1707642376422882,
            0.08549990504980087,
            -0.32998502254486084,
            0.04210875183343887,
            -0.07393209636211395,
            0.19078829884529114,
            0.2661479413509369,
            -0.18318407237529755,
            -0.010786289349198341,
            -0.0007194850477389991,
            -0.011565063148736954,
            -0.09013219177722931,
            0.2868233323097229,
            0.06900251656770706,
            -0.2761451005935669,
            -0.15032321214675903,
            0.0948176458477974,
            -0.24151818454265594,
            0.018693996593356133,
            -0.4276079833507538,
            0.02500234916806221,
            0.12817439436912537,
            -0.02995184436440468,
            0.10123208165168762,
            0.1629231572151184,
            -0.08952081948518753,
            -0.04029221087694168,
            0.13776730000972748,
            0.12701189517974854,
            -0.22373151779174805,
            0.07852306216955185,
            0.1272144615650177,
            -0.24963106215000153,
            0.22468534111976624,
            0.4557236135005951,
            0.04522082209587097,
            0.19211402535438538,
            -0.021165525540709496,
            0.1647721379995346,
            0.0650331899523735,
            -0.24850508570671082,
            -0.06371716409921646,
            0.30579107999801636,
            -0.07845653593540192,
            -0.02865121141076088,
            -0.14485622942447662,
            -0.19133344292640686,
            -0.25389227271080017,
            -0.015650123357772827,
            -0.07431380450725555,
            0.00980359222739935,
            0.16347475349903107,
            -0.2540152072906494,
            -0.24715648591518402,
            0.11804315447807312,
            0.07150794565677643,
            0.09833355247974396,
            0.18352967500686646,
            -0.11921513825654984,
            0.06947588920593262,
            -0.23543483018875122,
            0.054491620510816574,
            -0.031959451735019684,
            -0.18772295117378235,
            -0.14010898768901825,
            -0.08417128771543503,
            0.06215832754969597,
            -0.10778779536485672,
            0.3436150848865509,
            0.02674335055053234,
            0.03458089381456375,
            0.11125850677490234,
            0.24215921759605408,
            0.12217076122760773,
            -0.32289716601371765,
            0.16610480844974518,
            -0.03896411880850792,
            -0.09335484355688095,
            0.024365466088056564,
            0.05168485268950462,
            0.0027254275046288967,
            0.08400750905275345,
            0.05567862093448639,
            -0.05623319372534752,
            0.20184937119483948,
            -0.007846962660551071,
            0.050395019352436066,
            -0.1807081699371338,
            0.20091989636421204,
            0.22049419581890106,
            0.20858654379844666,
            -0.1402282565832138,
            -0.020567165687680244,
            0.3233564794063568,
            0.02906196564435959,
            -0.3191725015640259,
            -0.04552950710058212,
            -0.20925496518611908,
            -0.1936720758676529,
            -0.1977025717496872,
            0.1961570680141449,
            0.09585084021091461,
            0.09031974524259567,
            0.1750902235507965,
            -0.09970895200967789,
            0.1314695030450821,
            0.19383129477500916,
            0.2556162476539612,
            0.018379783257842064,
            -0.2477712482213974,
            0.19320544600486755,
            -0.007451549172401428,
            0.05152105167508125,
            -0.007655568420886993,
            -0.20401525497436523,
            0.14655517041683197,
            -0.14438298344612122,
            0.1346956193447113,
            -0.2928282618522644,
            -0.06075150892138481,
            0.051283497363328934,
            0.14084696769714355,
            0.18244977295398712,
            -0.1424732357263565,
            -0.09541048109531403,
            0.16598981618881226,
            0.019241228699684143,
            -0.030502598732709885,
            -0.13435596227645874,
            -0.10421819984912872,
            0.1419510841369629,
            -0.06760223954916,
            0.10063184052705765,
            -0.009303543716669083,
            -0.1442687213420868,
            -0.024051208049058914,
            -0.23379290103912354,
            0.06856837123632431,
            -0.060083404183387756,
            -0.18278396129608154,
            -0.10848238319158554,
            -0.0779789611697197,
            -0.29958435893058777,
            0.15420372784137726,
            -0.09143378585577011,
            -0.29378485679626465,
            0.2058061957359314,
            0.0030219582840800285,
            0.07695130258798599,
            -0.2879151403903961,
            0.16250386834144592,
            -0.1666303277015686,
            -0.04840259253978729,
            -0.06986826658248901,
            0.2052440196275711,
            0.1457948088645935,
            -0.033237263560295105,
            0.48178771138191223,
            0.0409904345870018,
            0.12640982866287231,
            0.039460793137550354,
            0.2081221491098404,
            -0.35480886697769165,
            0.18180352449417114,
            0.02398431859910488,
            0.11843860894441605,
            0.11226649582386017,
            -0.10194454342126846,
            -0.16868458688259125,
            -0.050589900463819504,
            -0.054137833416461945,
            0.04213644936680794,
            -0.1652458757162094,
            -0.19467401504516602,
            0.08366957306861877,
            -0.024610046297311783,
            0.10231110453605652,
            0.27036193013191223,
            0.03655972331762314,
            0.009599873796105385,
            -0.3341243267059326,
            -0.00705876387655735,
            0.083367720246315,
            -0.25684213638305664,
            0.05342314392328262,
            0.12272550910711288,
            0.0988386943936348,
            -0.0777365043759346,
            0.10285741090774536,
            0.1640063226222992,
            -0.0014700799947604537,
            -0.17373467981815338,
            0.060255467891693115,
            0.08462006598711014,
            -0.022750891745090485,
            0.1530139148235321,
            -0.2009030431509018,
            0.051253609359264374,
            0.1874750703573227,
            -0.08612654358148575,
            -0.0688818171620369,
            -0.21964910626411438,
            0.06750692427158356,
            0.15229550004005432,
            -0.2966901659965515,
            0.06149344891309738,
            0.06339866667985916,
            0.25767040252685547,
            -0.0843932032585144,
            -0.13585233688354492,
            -0.260331928730011,
            -0.1440201997756958,
            0.06960488855838776,
            -0.06813236325979233,
            0.12417614459991455,
            0.09512987732887268,
            0.28079453110694885,
            -0.3153097331523895,
            0.17323561012744904,
            -0.1286218762397766,
            -0.1555410921573639,
            0.200643390417099,
            -0.08152896910905838,
            0.018591875210404396,
            0.034754280000925064,
            -0.11112474650144577,
            -0.0828685313463211,
            -0.03522991016507149,
            -0.0924348533153534,
            0.1721075177192688,
            -0.09508088231086731,
            -0.14929921925067902,
            0.03513350710272789,
            -0.07670728117227554,
            -0.08877033740282059,
            0.13590356707572937,
            0.06911497563123703,
            -0.13612747192382812,
            0.2721647024154663,
            0.045959893614053726,
            -0.03747329115867615,
            -0.08566300570964813,
            -0.09097988903522491,
            -0.2699717879295349,
            0.060015298426151276,
            -0.14278782904148102,
            0.09203927963972092,
            0.05288250371813774,
            0.11371219158172607,
            -0.24757257103919983,
            0.11256218701601028,
            -0.13435444235801697,
            0.15434421598911285,
            0.2631525993347168,
            0.08625286817550659,
            -0.07883849740028381,
            0.20069772005081177,
            -0.2223905473947525,
            0.02304217964410782,
            0.020326418802142143,
            0.09348747879266739,
            0.058741357177495956,
            0.03108443133533001,
            -0.12070876359939575,
            0.17507483065128326,
            -0.1645316183567047,
            0.05855858325958252,
            -0.12058059126138687,
            -0.022252187132835388,
            -0.19816835224628448,
            -0.013887578621506691,
            0.3816482424736023,
            -0.1351536214351654,
            -0.13304901123046875,
            -0.12385892122983932,
            0.04646415263414383,
            0.060914069414138794,
            -0.03735838085412979,
            0.03107691928744316,
            -0.03976908326148987,
            0.22998054325580597,
            -0.019147884100675583,
            0.15178345143795013,
            0.23993843793869019,
            -0.05480260029435158,
            -0.058143869042396545,
            -0.03439318388700485,
            0.22792528569698334,
            0.014840916730463505,
            0.21228602528572083,
            0.016395671293139458,
            0.021446771919727325,
            0.1376507729291916,
            -0.1564103215932846,
            0.08262167125940323,
            0.11533843725919724,
            0.17618496716022491,
            -0.144704669713974,
            0.02354051172733307,
            0.16535399854183197,
            0.01630515605211258,
            0.06661192327737808,
            0.10338348150253296,
            -0.18122464418411255,
            -0.008464018814265728,
            0.11525584757328033,
            0.011870433576405048,
            -0.09098973870277405,
            -0.08926073461771011,
            0.1659330576658249,
            -0.12736810743808746,
            0.16622424125671387,
            0.16821609437465668,
            -0.16427092254161835,
            0.09368112683296204,
            0.13469350337982178,
            0.004933769814670086,
            0.040022749453783035,
            0.020969029515981674,
            -0.09397705644369125,
            -0.2077590525150299,
            0.06096993386745453,
            -0.13580968976020813,
            0.08673267811536789,
            0.14189019799232483,
            0.08379100263118744,
            -0.0123335225507617,
            -0.28460633754730225,
            -0.26908549666404724,
            -0.05297356843948364,
            -0.2604626417160034,
            0.10097727924585342,
            -0.27328237891197205,
            -0.05042107775807381,
            0.10382040590047836,
            -0.05316007137298584,
            0.14470955729484558,
            -0.05346328020095825,
            0.06751170009374619,
            -0.002899267477914691,
            0.0067010256461799145,
            0.006386933848261833,
            0.062479984015226364,
            0.017002427950501442,
            0.06001649424433708,
            0.06054941937327385,
            -0.00010140272206626832,
            -0.04191596433520317,
            -0.13426543772220612,
            0.1678755134344101,
            -0.06837213039398193,
            -0.01235481258481741,
            0.015026303008198738,
            -0.1339067667722702,
            -0.1796904355287552,
            0.08508121967315674,
            0.22856217622756958,
            -0.03217311203479767,
            -0.22466079890727997,
            0.3631061613559723,
            -0.16651734709739685,
            -0.025189923122525215,
            0.09896515309810638,
            0.13826210796833038,
            0.026588115841150284,
            -0.02286386489868164,
            -0.14414002001285553,
            -0.10859324038028717,
            0.07261467725038528,
            0.00490776589140296,
            0.1619928628206253,
            0.07220976799726486,
            0.02240724302828312,
            -0.20442798733711243,
            0.17515547573566437,
            0.035555120557546616,
            0.06403666734695435,
            -0.1683598905801773,
            -0.15971922874450684,
            -0.38816043734550476,
            0.09456481039524078,
            -0.10550353676080704,
            0.1071939542889595,
            0.023353643715381622,
            0.09829503297805786,
            -0.350157231092453,
            -0.11576921492815018,
            0.00628596032038331,
            -0.04186905547976494,
            0.010639715008437634,
            0.06193588674068451,
            0.09347501397132874,
            0.19055035710334778,
            -0.11972611397504807,
            -0.010185308754444122,
            -0.009735962375998497,
            0.12172529846429825,
            -0.011553777381777763,
            -0.039385873824357986,
            0.11886413395404816,
            -0.1109340488910675,
            -0.14167974889278412,
            0.01087805163115263,
            0.03826892748475075,
            -0.45301589369773865,
            0.16119033098220825,
            0.22886724770069122,
            0.017694134265184402,
            -0.33075815439224243,
            0.09559058398008347,
            -0.020118290558457375,
            -0.00818006880581379,
            0.1888003647327423,
            0.07699697464704514,
            0.018984980881214142,
            -0.10639806091785431,
            0.17175300419330597,
            -0.06696873903274536,
            -0.2291702777147293,
            -0.03893964737653732,
            0.06086868792772293,
            -0.23133285343647003,
            -0.00977359525859356,
            -0.04741169512271881,
            -0.08548063039779663,
            0.09278865158557892,
            -0.013991554267704487,
            0.18570765852928162,
            -0.017388690263032913,
            0.13238456845283508,
            0.17769412696361542,
            0.11367138475179672,
            0.007613885682076216,
            0.012769639492034912,
            -0.0759936273097992,
            -0.06288079172372818,
            -0.11892112344503403,
            -0.06111782789230347,
            -0.2042195349931717,
            -0.11661095917224884,
            0.002638358622789383,
            0.03264912590384483,
            -0.053858738392591476,
            -0.22283518314361572,
            -0.22346670925617218,
            0.056742578744888306,
            -0.14696955680847168,
            0.1573893278837204,
            0.09789744019508362,
            0.13716349005699158,
            0.10640984028577805,
            0.04359275475144386,
            -0.250274121761322,
            0.04284684360027313,
            0.0668237954378128,
            0.17941470444202423,
            0.055093914270401,
            -0.11043500900268555,
            0.14767755568027496,
            0.13876095414161682,
            0.07060568779706955,
            0.03156913071870804,
            -0.25992441177368164,
            -0.1064823791384697,
            -0.0041276272386312485,
            8.75973782967776e-05,
            -0.12883466482162476,
            0.19055843353271484,
            -0.0902169942855835,
            -0.044269464910030365,
            0.019446879625320435,
            -0.07966846972703934,
            0.13773295283317566,
            0.012241896241903305,
            0.01399680133908987,
            0.21223978698253632,
            -0.048659343272447586,
            0.13817040622234344,
            -0.23342162370681763,
            -0.058560170233249664,
            0.11464454978704453,
            0.08027665317058563,
            0.2615276575088501,
            -0.014343412593007088,
            0.12741287052631378,
            0.18163369596004486,
            -0.11028344184160233,
            -0.017476696521043777,
            0.37557801604270935,
            -0.09282554686069489,
            -0.09087275713682175,
            -0.04441877081990242,
            -0.1348322033882141,
            -0.05214069038629532,
            0.21049299836158752,
            0.08068329095840454,
            0.32802122831344604,
            0.07259389013051987,
            -0.08602526038885117,
            -0.3706052601337433,
            0.25319528579711914,
            0.15271125733852386,
            -0.2388121485710144,
            -0.10797987878322601,
            -0.10418777167797089,
            -0.0500149242579937,
            -0.04756500571966171,
            -0.04262151941657066,
            0.06177305430173874,
            0.03567612171173096,
            -0.02703111246228218,
            -0.3814152181148529,
            0.044641945511102676,
            0.203860342502594,
            0.09961424022912979,
            0.07001696527004242,
            -0.010615641251206398,
            -0.07689134031534195,
            -0.017744867131114006,
            0.012934153899550438,
            -0.13801467418670654,
            -0.06745605170726776,
            -0.11200109124183655,
            -0.20435017347335815,
            0.08285902440547943,
            -0.05304689332842827,
            -0.10494443774223328,
            -0.03514502942562103,
            -0.01904294267296791,
            -0.06876906007528305,
            0.060084715485572815,
            -0.2872776389122009,
            -0.07107990980148315,
            -0.16993385553359985,
            -0.052553340792655945,
            0.09464658051729202,
            -0.22019550204277039,
            0.30825674533843994,
            0.13972584903240204,
            0.11455651372671127,
            0.09576347470283508,
            0.07767100632190704,
            -0.07787859439849854,
            0.00044042375520803034,
            -0.24713614583015442,
            -0.005564069841057062,
            0.03232812508940697,
            0.13151519000530243,
            0.20200803875923157,
            -0.007450915407389402,
            0.27723029255867004,
            -0.020640991628170013,
            0.04706353321671486,
            0.14245647192001343,
            0.1600465625524521,
            0.2762620151042938,
            0.02322494238615036,
            0.05893009901046753,
            -0.2615903913974762,
            0.31207290291786194,
            -0.014766709879040718,
            -0.14392980933189392,
            -0.2745797634124756,
            0.026405511423945427,
            0.06113709136843681,
            0.19336727261543274,
            -0.11410336196422577,
            0.3209472894668579,
            0.04998074471950531,
            0.03709276020526886,
            -0.1719859093427658,
            0.41702333092689514,
            -0.09981886297464371,
            0.05518076568841934,
            0.07213348150253296,
            -0.04621482267975807,
            0.11101587861776352,
            -0.09808195382356644,
            0.023728180676698685,
            -0.18099093437194824,
            0.13207806646823883,
            -0.08073344081640244,
            0.1799759715795517,
            0.09404327720403671,
            -0.11866186559200287,
            -0.07287184149026871,
            -0.1419610232114792,
            0.02558731473982334,
            0.10801796615123749,
            -0.23086582124233246,
            -0.1758624017238617,
            -0.12112602591514587,
            0.05377131327986717,
            -0.10986223816871643,
            0.12528006732463837,
            -0.0786873921751976,
            -0.08868793398141861,
            -0.028093373402953148,
            -0.019152872264385223,
            -0.07436066120862961,
            -0.07384219765663147,
            0.16951175034046173,
            0.12593704462051392,
            0.2478872835636139,
            -0.038902655243873596,
            0.3740833103656769,
            -0.08073247969150543,
            -0.13715367019176483,
            -0.2581242024898529,
            0.21731361746788025,
            0.14101362228393555,
            0.13746142387390137,
            0.05387083441019058,
            -0.0621829554438591,
            -0.09590426087379456,
            0.06015307083725929,
            -0.16495883464813232,
            0.20599554479122162,
            -0.06628099828958511,
            0.19645577669143677,
            0.11521738767623901,
            -0.007102532312273979,
            -0.032606855034828186,
            0.08612305670976639,
            0.008759054355323315,
            -0.02130018174648285,
            0.10049272328615189,
            -0.17795655131340027,
            0.06758034229278564,
            0.04952342063188553,
            -0.06818781793117523,
            0.048135679215192795,
            0.06584080308675766,
            -0.10571567714214325,
            0.22022013366222382,
            -0.1372881829738617,
            0.16880792379379272,
            0.036998849362134933,
            0.0020004683174192905,
            -0.08146211504936218,
            0.06127578020095825,
            -0.1525813192129135,
            0.06047079339623451,
            0.029762061312794685,
            0.027454527094960213,
            0.016224071383476257,
            -0.2075819969177246,
            -0.1657211035490036,
            -0.08375255018472672,
            -0.017270395532250404,
            -0.2085033357143402,
            -0.034180302172899246,
            -0.15622340142726898,
            -0.05093727260828018,
            0.3542020916938782,
            -0.012139307335019112,
            0.010406449437141418,
            0.08759110420942307,
            0.22369813919067383,
            -0.19415584206581116,
            0.14218918979167938,
            0.028244460001587868,
            0.16247259080410004,
            0.010012541897594929,
            0.2134334295988083,
            0.10017253458499908,
            -0.12607362866401672,
            -0.23184938728809357,
            -0.33687326312065125,
            0.11029374599456787,
            0.06900600343942642,
            0.023333359509706497,
            -0.349196195602417,
            0.3016669750213623,
            -0.08695869147777557,
            0.00952325202524662,
            0.05126363784074783,
            0.33670639991760254,
            0.014179502613842487,
            0.1588578224182129,
            -0.1994234025478363,
            0.2270207703113556,
            0.251503586769104,
            -0.019558407366275787,
            0.02865801565349102,
            -0.061458658427000046,
            -0.11755876988172531,
            -0.04642169550061226,
            -0.032719727605581284,
            0.21002528071403503,
            0.012628959491848946,
            -0.10605142265558243,
            -0.2557084858417511,
            -0.0893455371260643,
            -0.09760171175003052,
            0.0525316447019577,
            -0.23923739790916443,
            0.0747041255235672,
            -0.0796213150024414,
            -0.3072842061519623,
            -0.14601141214370728,
            -0.058495186269283295,
            0.004278962500393391,
            0.16679689288139343,
            -0.11259473860263824,
            -0.012641691602766514,
            0.16097834706306458,
            0.03991059958934784,
            0.3585881292819977,
            0.05922282114624977,
            0.09793433547019958,
            -0.06476423144340515,
            0.05846637859940529,
            0.038722846657037735,
            -0.12048573791980743,
            -0.022777549922466278,
            -0.14571605622768402,
            -0.15331843495368958,
            0.012347870506346226,
            -0.025489402934908867,
            0.05324159935116768,
            0.03184913471341133,
            -0.11340836435556412,
            0.121396504342556,
            -0.09144454449415207,
            -0.017512280493974686,
            -0.1818399727344513,
            0.08653867989778519,
            0.18599550426006317,
            -0.1963697224855423,
            0.06334776431322098,
            0.16484810411930084,
            0.10449638962745667,
            0.12553365528583527,
            0.1538623571395874,
            -0.07977700978517532,
            -0.13525022566318512,
            0.08372222632169724,
            -0.19630636274814606,
            0.18372943997383118,
            0.13104353845119476,
            0.018399102613329887,
            0.21788233518600464,
            0.0774114802479744,
            0.017154410481452942,
            0.008407220244407654,
            -0.07960300147533417,
            0.04369999095797539,
            0.009994412772357464,
            -0.1704208254814148,
            -0.30120885372161865,
            -0.11526455730199814,
            0.13498592376708984,
            0.16880561411380768,
            0.018318573012948036,
            -0.23936256766319275,
            -0.06548309326171875,
            -0.0230330228805542,
            0.019172614440321922,
            0.1452704519033432,
            0.06393101811408997,
            0.05435282737016678,
            -0.13886511325836182,
            0.111142098903656,
            0.13998228311538696,
            -0.01634196750819683,
            0.045258719474077225,
            -0.01967756450176239,
            -0.15238188207149506,
            -0.10947390645742416,
            -0.05466987565159798,
            0.08838704228401184,
            0.453016072511673,
            -0.14720378816127777,
            -0.05888204276561737,
            0.11893868446350098,
            -0.1436283439397812,
            0.05151433125138283,
            0.009698739275336266,
            0.010158740915358067,
            0.0021216117311269045,
            -0.18922342360019684,
            -0.1657356321811676,
            0.07824938744306564,
            -0.05541158467531204,
            0.004861192777752876,
            -0.055047787725925446,
            0.22474972903728485,
            0.05161985382437706,
            0.04245072975754738,
            0.18874503672122955,
            -0.3061947822570801,
            0.036010585725307465,
            0.06679119914770126,
            0.02900535985827446,
            0.012015976943075657,
            0.1771470308303833,
            -0.060737986117601395,
            0.08919258415699005,
            0.1392659991979599,
            -0.07061085104942322,
            -0.010279886424541473,
            0.1331588327884674,
            -0.09623143821954727,
            0.16348998248577118,
            0.08294801414012909,
            -0.04450744390487671,
            0.0833519846200943,
            -0.09001033753156662,
            -0.13399948179721832,
            -0.04964578524231911,
            -0.17691940069198608,
            -0.03442481905221939,
            -0.0682530477643013,
            -0.009601935744285583,
            0.086090087890625,
            0.10783587396144867,
            0.03967531770467758,
            -0.0747423768043518,
            -0.06307114660739899,
            -0.08746776729822159,
            -0.09209305047988892,
            -0.13435432314872742,
            0.09542016685009003,
            0.11345524340867996,
            0.12300125509500504,
            0.03167577460408211,
            -0.1800713688135147,
            0.0340510718524456,
            -0.09908288717269897,
            0.15315236151218414,
            0.06773559749126434,
            -0.09751646965742111,
            -0.054311174899339676,
            0.07962151616811752,
            0.17815963923931122,
            0.08067549765110016,
            -0.3270244598388672,
            -0.2376386970281601,
            -0.2266562283039093,
            -0.05253632739186287,
            0.12560544908046722,
            0.07853550463914871,
            -0.011194043792784214,
            -0.0017109604086726904,
            -0.08574722707271576,
            0.05859382450580597,
            0.19731071591377258,
            0.08771216869354248,
            -0.09190596640110016,
            0.1839558482170105,
            0.12491460144519806,
            0.07475166022777557,
            -0.10042820870876312,
            0.055219635367393494,
            0.05998019501566887,
            0.2455170601606369,
            -0.03815179690718651,
            0.0669797733426094,
            0.09261418879032135,
            0.1983097791671753,
            -0.007281225640326738,
            0.11834929883480072,
            -0.37666621804237366,
            -0.03140968829393387,
            -0.02207312174141407,
            0.3335944414138794,
            -0.061787016689777374,
            0.08497581630945206,
            -0.23651885986328125,
            0.14423982799053192,
            -0.029046785086393356,
            0.09925530105829239,
            0.09120529145002365,
            0.19000428915023804,
            -0.27425676584243774,
            -0.019730854779481888,
            0.11110278218984604,
            -0.02067156508564949,
            -0.09615879505872726,
            -0.13781529664993286,
            -0.23855958878993988,
            0.10160853713750839,
            0.15105955302715302,
            -0.03271745890378952,
            0.21354404091835022,
            -0.167549267411232,
            0.03626145422458649,
            -0.13304825127124786,
            -0.19104143977165222,
            -0.08651028573513031,
            0.32769688963890076,
            0.001942150411196053,
            0.33871689438819885,
            0.05161680281162262,
            -0.017904432490468025,
            -0.12256655842065811,
            0.0001330380910076201,
            -0.10740257799625397,
            0.038444411009550095,
            -0.0013217029627412558,
            -0.0003845894825644791,
            0.030841775238513947,
            -0.09088268131017685,
            -0.2587655484676361,
            0.14069081842899323,
            0.030925584957003593,
            -0.034668516367673874,
            0.13245101273059845,
            0.10736087709665298,
            0.09601862728595734,
            -0.31808072328567505,
            -0.25119176506996155,
            0.13512256741523743,
            0.03919513523578644,
            0.060786012560129166,
            0.2292318195104599,
            -0.027325738221406937,
            0.05118231475353241,
            0.017713498324155807,
            -0.05766073241829872,
            -0.12990187108516693,
            -0.0856284350156784,
            0.19749271869659424,
            0.16174599528312683,
            -0.0630609318614006,
            0.15019749104976654,
            0.07819776237010956,
            0.0830548033118248,
            0.1179293692111969,
            0.112062007188797,
            0.026528622955083847,
            -0.0346715934574604,
            0.1883234977722168,
            0.002686428604647517,
            -0.006510961800813675,
            -0.03728318586945534,
            -0.1630488932132721,
            0.043178848922252655,
            0.06610507518053055,
            -0.3218545615673065,
            -0.008865322917699814,
            0.15592652559280396,
            -0.1419312059879303,
            -0.013082016259431839,
            0.1374800205230713,
            0.3052978515625,
            -0.1078774482011795,
            -0.018920117989182472,
            -0.1419999748468399,
            -0.1430797278881073,
            -0.15577372908592224,
            -0.12018940597772598,
            -0.06688100844621658,
            -0.19227494299411774,
            -0.3051975667476654,
            -0.23174014687538147,
            0.02120581828057766,
            0.013459508307278156,
            -0.09687919169664383,
            0.005390315316617489,
            0.1388331651687622,
            0.16492609679698944,
            0.1220058798789978,
            0.011374699883162975,
            -0.20150484144687653,
            0.2391902655363083,
            0.11041157692670822,
            -0.12236613780260086,
            -0.10138720273971558,
            0.11380551010370255,
            0.14794127643108368,
            0.07769200205802917,
            0.012927708216011524,
            0.1581527590751648,
            0.1997583955526352,
            0.13864830136299133,
            -0.06627033650875092,
            -0.11720424145460129,
            -0.0005777676124125719,
            0.013805590569972992,
            0.038237884640693665,
            0.04831591621041298,
            0.019590407609939575,
            0.30084672570228577,
            0.19938381016254425,
            0.054346319288015366,
            -0.07108811289072037,
            -0.08240023255348206,
            0.040457624942064285,
            -0.0847133919596672,
            0.08930201083421707,
            -0.033939093351364136,
            0.2091163843870163,
            -0.10073661804199219,
            -0.06931682676076889,
            0.10646626353263855,
            -0.0027900668792426586,
            0.08569634705781937,
            -0.061690859496593475,
            -0.04641033336520195,
            0.29129284620285034,
            0.09821402281522751,
            0.16192221641540527,
            -0.10730428993701935,
            0.053455088287591934,
            -0.18341779708862305,
            -0.24606817960739136,
            0.02269943803548813,
            0.14191097021102905,
            -0.1637088656425476,
            -0.252064049243927,
            -0.2219129204750061,
            0.21433332562446594,
            0.07612773776054382,
            0.04557477682828903,
            0.03840302303433418,
            -0.014760907739400864,
            -0.06450922042131424,
            0.07645244151353836,
            0.05250155180692673,
            -0.0795372948050499,
            -0.2267850637435913,
            -0.13945361971855164,
            0.1747274100780487,
            0.10413012653589249,
            -0.07775349915027618,
            0.06081913784146309,
            -0.05098525062203407,
            0.05050190910696983,
            0.10704018175601959,
            -0.1729545295238495,
            -0.02865501306951046,
            -0.1510676145553589,
            -0.25652363896369934,
            -0.02142306976020336,
            -0.18448050320148468,
            -0.03207993507385254,
            0.11351945996284485,
            -0.10024110227823257,
            0.2520309090614319,
            0.31535565853118896,
            -0.09109841287136078,
            0.049343615770339966,
            0.028801176697015762,
            0.03693603724241257,
            -0.02472257986664772,
            -0.0626041516661644,
            0.009921371936798096,
            0.008415482938289642,
            -0.16322633624076843,
            0.027427757158875465,
            -0.08875560015439987,
            0.03485298156738281,
            0.07538308203220367,
            0.1920579969882965,
            0.0010925489477813244,
            -0.05274464935064316,
            0.05641290172934532,
            0.06516261398792267,
            0.026646414771676064,
            0.020929526537656784,
            0.129629984498024,
            0.1458219736814499,
            0.022774050012230873,
            0.13660164177417755,
            0.0836431235074997,
            0.12575213611125946,
            0.13127487897872925,
            0.024662503972649574,
            -0.13639771938323975,
            -0.14824441075325012,
            -0.08324985951185226,
            0.08225589990615845,
            -0.046719618141651154,
            0.2175656110048294,
            -0.02579464018344879,
            0.16439197957515717,
            -0.11707889288663864,
            0.004652932286262512,
            0.029545195400714874,
            0.0019421298056840897,
            0.05486360937356949,
            0.17850461602210999,
            -0.12684747576713562,
            0.19869829714298248,
            0.1299823820590973,
            0.13511256873607635,
            -0.0984051376581192,
            0.03847452625632286,
            -0.0026276148855686188,
            0.006441193167120218,
            -0.07802017778158188,
            -0.06590394675731659,
            -0.08101693540811539,
            0.21864597499370575,
            -0.04068741202354431,
            -0.06043523922562599,
            0.06120615452528,
            0.2720705568790436,
            -0.06300516426563263,
            -0.02413959987461567,
            -0.18492461740970612,
            -0.28032955527305603,
            0.08302705734968185,
            -0.27983298897743225,
            -0.023879339918494225,
            0.13598568737506866,
            0.013001452200114727,
            -0.05350268632173538,
            -0.10684096068143845,
            -0.07354376465082169,
            -0.02204085700213909,
            -0.17252500355243683,
            0.16601994633674622,
            -0.011276147328317165,
            -0.09445639699697495,
            0.0806700587272644,
            0.018649546429514885,
            0.27692970633506775,
            -0.11607762426137924,
            0.15372823178768158,
            0.21543826162815094,
            -0.008740440011024475,
            -0.02557281218469143,
            -0.05708257853984833,
            0.0023866058327257633,
            0.12125214189291,
            -0.24160398542881012,
            0.12261205911636353,
            0.19041667878627777,
            -0.2504373788833618,
            -0.07167309522628784,
            -0.15412592887878418,
            0.02477644570171833,
            -0.07035274058580399,
            -0.05998321995139122,
            0.11457332223653793,
            -0.061399221420288086,
            -0.2152426391839981,
            0.08947323262691498,
            -0.2260245680809021,
            0.1046232134103775,
            0.02903570979833603,
            0.08897599577903748,
            0.0910230502486229,
            -0.005685770884156227,
            0.17522864043712616,
            -0.18023677170276642,
            0.12423157691955566,
            -0.02668895199894905,
            -0.10164621472358704,
            0.051470719277858734,
            -0.002247115597128868,
            0.05217929556965828,
            0.0524652898311615,
            -0.15628409385681152,
            0.13345570862293243,
            -0.025244474411010742,
            -0.050746288150548935,
            0.04975114390254021,
            -0.11077235639095306,
            -0.12187671661376953,
            -0.001400425098836422,
            0.09616570919752121,
            0.031296905130147934,
            0.15188612043857574,
            -0.07433247566223145,
            -0.03045978769659996,
            0.30935463309288025,
            -0.06208372116088867,
            0.1782679706811905,
            -0.013849000446498394,
            -0.02598332241177559,
            -0.14359286427497864,
            0.2963723838329315,
            -0.10975661128759384,
            0.14367157220840454,
            -0.01187166478484869,
            0.24883249402046204,
            0.13086089491844177,
            -0.09193775802850723,
            -0.018746813759207726,
            0.0562894381582737,
            0.08594989776611328,
            -0.22157879173755646,
            -0.24406573176383972,
            0.08580772578716278,
            0.09660511463880539,
            0.03634483367204666,
            0.014032048173248768,
            0.15451586246490479,
            0.03694123774766922,
            -0.2629331350326538,
            0.18622462451457977,
            0.14594361186027527,
            -0.24457991123199463,
            -0.08493523299694061,
            0.03023010678589344,
            -0.04559141397476196,
            -0.03456209972500801,
            0.016831569373607635,
            0.0005385224940255284,
            0.17229066789150238,
            0.1460745483636856,
            0.5046622157096863,
            -0.03532155230641365,
            -0.04357638955116272,
            0.12487135827541351,
            0.019028833135962486,
            -0.24037589132785797,
            -0.15709547698497772,
            -0.22738035023212433,
            -0.19445188343524933,
            -0.1537398397922516,
            0.04220343008637428,
            0.037929899990558624,
            -0.29577282071113586,
            0.008019313216209412,
            0.20399293303489685,
            0.07276351749897003,
            -0.10074476152658463,
            0.27415481209754944,
            0.021399369463324547,
            -0.030513467267155647,
            -0.1573975533246994,
            -0.06959585845470428,
            0.10391581803560257,
            0.0019853662233799696,
            0.019738882780075073,
            0.27748727798461914,
            -0.15673941373825073,
            0.0961628183722496,
            0.21279099583625793,
            0.2719440758228302,
            -0.1610470861196518,
            -0.13217942416667938,
            0.04735575616359711,
            -0.0876515731215477,
            -0.056032512336969376,
            -0.2757164537906647,
            0.06307507306337357,
            -0.1798224300146103,
            0.36679670214653015,
            -0.18998579680919647,
            0.003114694729447365,
            -0.041828274726867676,
            -0.015210391022264957,
            -0.10665788501501083,
            0.11032037436962128,
            0.06910818815231323,
            0.05366981774568558,
            -0.1385955810546875,
            0.12991556525230408,
            0.08119656890630722,
            -0.0670652687549591,
            0.16858340799808502,
            -0.23165203630924225,
            -0.0389326810836792,
            -0.1208137646317482,
            -0.1783168762922287,
            -0.191130593419075,
            0.0011150042992085218,
            0.02977728471159935,
            -0.035661060363054276,
            0.09974483400583267,
            -0.22413842380046844,
            0.07178471982479095,
            -0.10124851018190384,
            -0.15097676217556,
            0.06549976021051407,
            0.040832266211509705,
            -0.11142076551914215,
            0.004385726992040873,
            0.008800347335636616,
            -0.27326586842536926,
            0.05522645637392998,
            0.2862105667591095,
            -0.031301118433475494,
            0.1450495570898056,
            -0.09988027065992355,
            0.12778691947460175,
            -0.09997984021902084,
            -0.0027952881064265966,
            0.0869411751627922,
            -0.11717430502176285,
            0.02892664633691311,
            0.0925525426864624,
            0.17395377159118652,
            -0.0225316621363163,
            -0.02216419018805027,
            -0.19801132380962372,
            0.23435981571674347,
            0.1740814745426178,
            0.06027139723300934,
            -0.07866838574409485,
            0.19601225852966309,
            0.19026502966880798,
            -0.040577083826065063,
            0.04001797363162041,
            -0.33653590083122253,
            -0.11893191933631897,
            -0.13567879796028137,
            0.20391763746738434,
            -0.2648330628871918,
            -0.10353966802358627,
            -0.06610938161611557,
            0.021145615726709366,
            0.016652796417474747,
            0.15801747143268585,
            0.09845507144927979,
            -0.15320976078510284,
            0.04043670371174812,
            -0.07535634934902191,
            -0.16898198425769806,
            -0.027746984735131264,
            0.013598228804767132,
            0.3269400894641876,
            -0.047079794108867645,
            0.15780943632125854,
            -0.04671059921383858,
            0.12971587479114532,
            -0.2519838213920593,
            0.08869866281747818,
            -0.0016720527783036232,
            -0.07084677368402481,
            -0.03740187734365463,
            -0.03639288619160652,
            0.20571649074554443,
            0.2431887835264206,
            0.014499782584607601,
            0.022020572796463966,
            -0.31963014602661133,
            -0.23710323870182037,
            -0.10304667055606842,
            -0.0067885201424360275,
            -0.15692514181137085,
            0.02578776516020298,
            -0.09194822609424591,
            -0.03710700571537018,
            0.1298936903476715,
            0.13854289054870605,
            -0.057145919650793076,
            0.00891422200948,
            -0.021395226940512657,
            -0.04491671919822693,
            -0.006875998806208372,
            -0.1229778453707695,
            -0.1472293585538864,
            0.11547037214040756,
            -0.08689002692699432,
            0.1783139556646347,
            0.03677960857748985,
            -0.14734043180942535,
            0.01915171556174755,
            0.0023554693907499313,
            0.06001359596848488,
            0.19759303331375122,
            0.1967930644750595,
            -0.029574455693364143,
            0.10111597925424576,
            0.023262308910489082,
            -0.02466634288430214,
            -0.05772916227579117,
            0.07937231659889221,
            0.06797850877046585,
            -0.20097915828227997,
            -0.04634018987417221,
            0.15856575965881348,
            -0.028783340007066727,
            0.2320307195186615,
            -0.10667303204536438,
            0.027803579345345497,
            -0.11596500873565674,
            -0.06109333038330078,
            0.45465606451034546,
            0.09338546544313431,
            -0.16262410581111908,
            0.24402835965156555,
            0.22474175691604614,
            0.16482771933078766,
            0.2439844012260437,
            -0.31067562103271484,
            -0.06388447433710098,
            0.10339248925447464,
            -0.21812990307807922,
            0.1363324224948883,
            0.2688612639904022,
            0.16653180122375488,
            0.0041761635802686214,
            0.06917360424995422,
            -0.09410425275564194,
            -0.05784321203827858,
            0.2764020264148712,
            0.051959872245788574,
            -0.0769280344247818,
            -0.1038280501961708,
            0.09904763102531433,
            0.06020274758338928,
            -0.056730255484580994,
            -0.042915452271699905,
            0.07066196203231812,
            0.06958413124084473,
            -0.18341220915317535,
            0.15532445907592773,
            -0.06752536445856094,
            -0.14878292381763458,
            -0.13668087124824524,
            -0.10115497559309006,
            -0.30048009753227234,
            0.1502624750137329,
            0.11099705845117569,
            0.004503299482166767,
            0.008880357258021832,
            0.02328508161008358,
            0.050436586141586304,
            -0.10841332376003265,
            0.14235597848892212,
            -0.010826611891388893,
            -0.055742163211107254,
            0.057574301958084106,
            0.12301352620124817,
            0.1949663609266281,
            0.0118948295712471,
            -0.05790192261338234,
            0.05929466709494591,
            -0.1356220841407776,
            0.16068091988563538,
            -0.32977163791656494,
            0.06144121661782265,
            0.029864441603422165,
            0.011030806228518486,
            -0.2787332534790039,
            -0.0950106829404831,
            -0.08707815408706665,
            -0.08752467483282089,
            -0.22907964885234833,
            -0.2287653386592865,
            0.1688174605369568,
            0.025510694831609726,
            0.03847818821668625,
            0.3485805094242096,
            0.045692719519138336,
            -0.0576651506125927,
            -0.26691555976867676,
            0.16238099336624146,
            -0.07093722373247147,
            -0.22250108420848846,
            0.13186775147914886,
            0.15135891735553741,
            0.08717383444309235,
            -0.01950586400926113,
            0.041438329964876175,
            0.028515569865703583,
            0.10630843043327332,
            -0.09459563344717026,
            -0.22845640778541565,
            -0.028908750042319298,
            0.11720223724842072,
            0.2697657346725464,
            -0.043670427054166794,
            -0.07077015936374664,
            0.1396574079990387,
            -0.1757654994726181,
            -0.012429586611688137,
            -0.019655320793390274,
            -0.04116509109735489,
            0.10977894812822342,
            -0.1277039647102356,
            -0.03479970619082451,
            -0.022236794233322144,
            -0.11023060977458954,
            -0.036384280771017075,
            0.0990278497338295,
            0.028582120314240456,
            -0.05125989392399788,
            0.046701159328222275,
            0.028366437181830406,
            0.008241839706897736,
            0.02931131049990654,
            0.213730126619339,
            0.008348465897142887,
            0.0012044708710163832,
            0.04783323034644127,
            -0.04570621997117996,
            0.050517965108156204,
            0.06881280988454819,
            0.24101346731185913,
            -0.010829180479049683,
            -0.237839937210083,
            -0.1694359928369522,
            -0.037061937153339386,
            -0.26768356561660767,
            -0.20213492214679718,
            0.10009324550628662,
            0.08343897014856339,
            -0.10241755098104477,
            0.16662457585334778,
            -0.011646720580756664,
            -0.24437850713729858,
            -0.07989230006933212,
            -0.07733834534883499,
            -0.17539148032665253,
            0.03148159757256508,
            0.04699764400720596,
            -0.0860944539308548,
            -0.05369189381599426,
            0.01880352944135666,
            -0.055567286908626556,
            -0.2541884481906891,
            0.02922452986240387,
            -0.03482792526483536,
            0.002150195650756359,
            -0.03448963537812233,
            0.20112070441246033,
            -0.022527914494276047,
            0.08213768899440765,
            -0.07911737263202667,
            -0.006174926646053791,
            0.0006830387865193188,
            -0.14531885087490082,
            0.14509601891040802,
            -0.08175119012594223,
            -0.048870351165533066,
            -0.017235564067959785,
            -0.11746477335691452,
            -0.05176354572176933,
            0.02845141291618347,
            -0.06724600493907928,
            0.2297540158033371,
            0.09745068848133087,
            -0.05300606042146683
        ]
    },
    "discriminator": {
        "num_inputs": 28,
        "num_outputs": 1,
        "num_hidden_layers": 1,
        "neurons_per_hidden_layer": 64,
        "hidden_layer_activation_function": "relu",
        "final_layer_activation_function": "sigmoid",
        "bias": true,
        "weights": [
            -0.3909383714199066,
            0.1395145058631897,
            0.2576628625392914,
            -0.21638616919517517,
            0.15208061039447784,
            0.022613542154431343,
            -0.3195303976535797,
            0.45325538516044617,
            0.44976797699928284,
            -0.48878151178359985,
            -0.23237848281860352,
            -0.22788099944591522,
            0.38045403361320496,
            0.059227313846349716,
            -0.42431703209877014,
            -0.06297332793474197,
            -0.2047269344329834,
            -0.026310715824365616,
            0.09503012895584106,
            -0.1289350986480713,
            -0.2948911488056183,
            0.02160925231873989,
            0.21887525916099548,
            0.448127418756485,
            -0.5591195225715637,
            -0.022586509585380554,
            0.18935047090053558,
            -0.03756500408053398,
            -0.3478313386440277,
            0.10950744897127151,
            0.16583532094955444,
            0.14862462878227234,
            0.004437512252479792,
            -0.10951002687215805,
            -0.049585986882448196,
            -0.18173348903656006,
            0.37592798471450806,
            -0.03566538542509079,
            -0.11196128278970718,
            -0.333017498254776,
            0.017075346782803535,
            0.18811386823654175,
            0.09540768712759018,
            -0.15480229258537292,
            -0.27135521173477173,
            -0.036101195961236954,
            0.02235488034784794,
            0.23932978510856628,
            0.6501566171646118,
            -0.0770573616027832,
            -0.3247222602367401,
            0.031068267300724983,
            0.33552348613739014,
            0.08677463233470917,
            0.20703208446502686,
            -0.07953108847141266,
            0.36596399545669556,
            -0.40523675084114075,
            -0.08470623195171356,
            0.24376645684242249,
            -0.09867957979440689,
            -0.23622749745845795,
            0.2157568782567978,
            0.40768587589263916,
            -0.8017916679382324,
            0.36910057067871094,
            -0.08000578731298447,
            -0.35612207651138306,
            0.25716379284858704,
            0.2666890323162079,
            -0.15819063782691956,
            -0.05249706283211708,
            0.5066214203834534,
            0.2649243474006653,
            -0.006674532312899828,
            -0.15667101740837097,
            0.3380891978740692,
            0.12623462080955505,
            0.3097858726978302,
            -0.3277847468852997,
            -0.1122385784983635,
            -0.3391847312450409,
            0.2964649796485901,
            -0.14967456459999084,
            0.10461243242025375,
            -0.11742150038480759,
            -0.034696560353040695,
            -0.29663950204849243,
            0.46677514910697937,
            -0.27381473779678345,
            -0.4192275106906891,
            -0.223269984126091,
            0.1990073025226593,
            0.05030934140086174,
            0.1838558316230774,
            0.0794512927532196,
            -0.4503988027572632,
            0.25859594345092773,
            -0.003840247169137001,
            0.3588574230670929,
            0.05971180275082588,
            -0.03288757801055908,
            -0.15729108452796936,
            0.24781081080436707,
            -0.33677610754966736,
            0.27241507172584534,
            -0.1553690880537033,
            -0.29510822892189026,
            0.5654718279838562,
            0.1162380799651146,
            -0.07923854142427444,
            -0.11095615476369858,
            -0.13080938160419464,
            0.22024838626384735,
            -0.15876851975917816,
            -0.01367579773068428,
            -0.19749556481838226,
            -0.26720571517944336,
            0.14457161724567413,
            0.09606391191482544,
            -0.5577580332756042,
            0.0634671077132225,
            0.03580138459801674,
            -0.19652159512043,
            -0.25644463300704956,
            0.2771107852458954,
            -0.15699979662895203,
            -0.2539516091346741,
            -0.7182828187942505,
            -0.26869237422943115,
            0.5860533714294434,
            0.14766758680343628,
            0.0341956689953804,
            -0.3639930784702301,
            0.19887402653694153,
            -0.08997578173875809,
            0.21055538952350616,
            -0.23453496396541595,
            0.007123411167412996,
            0.24350276589393616,
            -0.2890124022960663,
            0.00035274430410936475,
            -0.4413376748561859,
            0.2070334553718567,
            -0.40011587738990784,
            -0.13728581368923187,
            0.2020147293806076,
            -0.32050490379333496,
            -0.46124860644340515,
            0.0026902772951871157,
            0.11654826998710632,
            0.37004613876342773,
            0.11081531643867493,
            -0.31810224056243896,
            0.07301157712936401,
            0.049791086465120316,
            -0.9283170700073242,
            -0.028098629787564278,
            -0.3147013187408447,
            0.44869479537010193,
            -0.1738494485616684,
            -0.3374595046043396,
            0.3106006979942322,
            0.10482768714427948,
            -0.4626157581806183,
            0.18308772146701813,
            0.24120157957077026,
            0.307262122631073,
            0.0675673708319664,
            -0.2192307412624359,
            -0.1710573136806488,
            -0.2850428819656372,
            0.6355940699577332,
            -0.4006139934062958,
            -0.08310362696647644,
            0.1170668751001358,
            0.22584408521652222,
            -0.1707780510187149,
            -0.26587533950805664,
            -0.3381102681159973,
            -0.0023327895905822515,
            0.08362475037574768,
            0.06657864898443222,
            -0.23201073706150055,
            0.38250643014907837,
            0.24332405626773834,
            0.49844610691070557,
            0.26040342450141907,
            -0.1709577590227127,
            0.0836939588189125,
            0.4318818747997284,
            -0.1784847527742386,
            0.4117552936077118,
            0.17909124493598938,
            -0.23450694978237152,
            0.07564923167228699,
            -0.972902238368988,
            0.14508765935897827,
            -0.04467127099633217,
            -0.05724281072616577,
            -0.16173307597637177,
            -0.1559360921382904,
            0.4303362965583801,
            0.05002615973353386,
            -0.38721078634262085,
            -0.2558293342590332,
            -0.0695810541510582,
            0.10417227447032928,
            0.20310544967651367,
            0.008335459977388382,
            -0.5170725584030151,
            -0.416263610124588,
            -0.598717987537384,
            0.16114850342273712,
            0.4365352690219879,
            0.3072555363178253,
            0.4120297133922577,
            -0.05335671454668045,
            0.612088680267334,
            0.22497335076332092,
            -0.4615187644958496,
            0.41192904114723206,
            0.5572145581245422,
            0.0051811919547617435,
            0.11036723852157593,
            -0.08429467678070068,
            -0.22495082020759583,
            -0.09311620891094208,
            -0.036223404109478,
            -0.44948849081993103,
            -0.31250566244125366,
            0.5127760767936707,
            -0.019465969875454903,
            0.007052335888147354,
            0.2699161767959595,
            -0.1007479652762413,
            -0.19268010556697845,
            0.06684704124927521,
            0.10593950003385544,
            0.09944816678762436,
            -0.040110111236572266,
            -0.23264801502227783,
            0.21112032234668732,
            0.2858964204788208,
            -0.6413395404815674,
            0.3749983310699463,
            -0.032553430646657944,
            0.30734947323799133,
            -0.015537885949015617,
            -0.0926206037402153,
            0.1419852375984192,
            -0.13985420763492584,
            0.04737900570034981,
            -0.10279462486505508,
            0.4442262351512909,
            -0.2682246267795563,
            0.23163767158985138,
            0.40861910581588745,
            0.06607954204082489,
            -0.18476426601409912,
            0.20967726409435272,
            0.4965498745441437,
            -0.10987737774848938,
            -0.2560696005821228,
            -0.1074359118938446,
            -0.2979339063167572,
            0.11633367091417313,
            -0.3736805319786072,
            0.30734288692474365,
            0.05542265251278877,
            -0.19268769025802612,
            -0.3888642489910126,
            -0.1971668154001236,
            -0.04915777966380119,
            -0.2602830231189728,
            0.1886863112449646,
            0.07419809699058533,
            0.15152542293071747,
            -0.12474542111158371,
            0.016040513291954994,
            0.02655680850148201,
            -0.241627499461174,
            0.04201164469122887,
            -0.22926031053066254,
            0.31551000475883484,
            0.19179008901119232,
            -0.413520485162735,
            -0.47445523738861084,
            -0.09826681017875671,
            0.09520743787288666,
            -0.03656093776226044,
            -0.046879492700099945,
            -0.5833010673522949,
            -0.33309802412986755,
            0.30602017045021057,
            0.23764535784721375,
            -0.4621228277683258,
            0.5212722420692444,
            -0.712778627872467,
            -0.29433906078338623,
            -0.9282893538475037,
            0.010628757067024708,
            -0.24196861684322357,
            0.18566106259822845,
            -0.1961846500635147,
            0.22502650320529938,
            -0.13842223584651947,
            0.06925344467163086,
            0.1028524786233902,
            -0.0156256016343832,
            -0.20576050877571106,
            -0.16083525121212006,
            -0.15495771169662476,
            0.04071108624339104,
            -0.12740550935268402,
            0.14683440327644348,
            -0.000629224581643939,
            0.37600141763687134,
            0.05068810284137726,
            0.1118464395403862,
            -0.024792851880192757,
            0.04832606017589569,
            0.12360040843486786,
            0.1243213564157486,
            -0.16764982044696808,
            0.09200365841388702,
            0.19953489303588867,
            -0.0062948185950517654,
            0.06746545433998108,
            -0.16576212644577026,
            -0.5518081784248352,
            0.03763884678483009,
            0.13529108464717865,
            -0.11580541729927063,
            -0.2292463332414627,
            0.10902532190084457,
            0.0958138182759285,
            -0.3069267272949219,
            -0.0328306183218956,
            -0.024162657558918,
            0.384484201669693,
            -0.2659068703651428,
            -0.23445838689804077,
            0.2916487753391266,
            0.02556788921356201,
            -0.007611771579831839,
            0.007279562763869762,
            -0.05830848589539528,
            -0.21601828932762146,
            0.39705199003219604,
            0.31442561745643616,
            -0.0016227207379415631,
            0.3602437674999237,
            -0.20762695372104645,
            0.08847065269947052,
            0.29470759630203247,
            -0.05375264212489128,
            0.45756930112838745,
            0.012212995439767838,
            0.08854452520608902,
            0.4079028367996216,
            0.19397921860218048,
            -0.18860316276550293,
            -0.06947948783636093,
            0.23597832024097443,
            -0.22615648806095123,
            -0.08949538320302963,
            0.07633665949106216,
            0.11685942113399506,
            0.27370694279670715,
            -0.5589152574539185,
            -0.15008892118930817,
            0.5964123606681824,
            0.1514625996351242,
            0.28260543942451477,
            -0.20627841353416443,
            0.25339505076408386,
            0.07288622111082077,
            -0.3062900900840759,
            0.5041093826293945,
            0.16016221046447754,
            -0.18385949730873108,
            -0.14482581615447998,
            0.21636958420276642,
            -0.16031058132648468,
            0.37651804089546204,
            -0.2793576717376709,
            -0.39073896408081055,
            0.01270788162946701,
            0.13478372991085052,
            -0.04468706250190735,
            -0.11214671283960342,
            0.1042519211769104,
            -0.2997336983680725,
            0.14785577356815338,
            0.03928009793162346,
            -0.12060123682022095,
            0.3691488206386566,
            -0.08123379200696945,
            -0.08175560086965561,
            -0.3451976776123047,
            0.27305281162261963,
            -0.04950574412941933,
            -0.16869984567165375,
            -0.5267433524131775,
            -0.14124220609664917,
            0.012667238712310791,
            0.26163336634635925,
            -0.01652437075972557,
            0.09046677500009537,
            -0.1457623392343521,
            -0.19828400015830994,
            -0.8328508138656616,
            0.3871747851371765,
            0.11401955783367157,
            -0.23113101720809937,
            -0.08981163054704666,
            -0.2701406478881836,
            0.2079198807477951,
            0.28934040665626526,
            0.08021388947963715,
            0.1931384801864624,
            0.5018351674079895,
            -0.027391206473112106,
            0.08475213497877121,
            -0.12405238300561905,
            -0.2804137170314789,
            0.2253810614347458,
            0.006454511545598507,
            0.14452779293060303,
            0.3203696608543396,
            0.13087138533592224,
            -0.350602388381958,
            -0.052398476749658585,
            -0.03678146377205849,
            0.158859521150589,
            0.3127068877220154,
            -0.20427118241786957,
            0.3043367266654968,
            -0.401868999004364,
            -0.08988170325756073,
            0.42774978280067444,
            -0.05120785906910896,
            -0.040414001792669296,
            -0.5065557360649109,
            0.05672673135995865,
            -0.04762376472353935,
            -0.059295475482940674,
            0.1532944142818451,
            -0.04783908650279045,
            -0.059778157621622086,
            0.14663413166999817,
            0.007207244168967009,
            -0.08910276740789413,
            -0.18439359962940216,
            0.6251471638679504,
            -0.06876517087221146,
            -0.18947884440422058,
            -0.07340259104967117,
            -0.11539341509342194,
            0.1701022982597351,
            0.17756453156471252,
            0.1691225916147232,
            -0.06028233468532562,
            0.10378957539796829,
            0.03958180174231529,
            -0.0763736143708229,
            -0.029845604673027992,
            0.1516553908586502,
            0.32010146975517273,
            -0.29693225026130676,
            0.32106462121009827,
            0.10139665752649307,
            -0.007471214048564434,
            0.10555585473775864,
            -0.08117411285638809,
            0.10045422613620758,
            -0.047271206974983215,
            -0.0881427451968193,
            -0.2594721019268036,
            -0.16938327252864838,
            -0.00746874837204814,
            0.3042891323566437,
            -0.27023592591285706,
            -0.289440393447876,
            0.24700766801834106,
            -0.08985909074544907,
            0.02242347225546837,
            -0.3061511218547821,
            0.35536038875579834,
            0.12327206879854202,
            -0.39947912096977234,
            0.3638063371181488,
            0.14536839723587036,
            -0.0825335755944252,
            0.5941182374954224,
            -0.4127354919910431,
            -0.07448288798332214,
            -0.009927037172019482,
            -0.10328281670808792,
            -0.05156732350587845,
            0.15179437398910522,
            -0.32080841064453125,
            0.06422515213489532,
            0.21644267439842224,
            0.050526123493909836,
            0.10267630964517593,
            0.06511469185352325,
            -0.8749531507492065,
            0.09364304691553116,
            0.5016365647315979,
            0.10838083922863007,
            -0.00378838530741632,
            0.07461310923099518,
            -0.3775392770767212,
            0.5388097763061523,
            -0.30729401111602783,
            0.17794960737228394,
            -0.19477152824401855,
            -0.16846755146980286,
            0.9247498512268066,
            0.09732592850923538,
            -0.12751422822475433,
            -0.11760088056325912,
            0.09384571015834808,
            0.2838021218776703,
            -0.3479529321193695,
            -0.20836777985095978,
            -0.14921312034130096,
            0.4065021276473999,
            0.6232805252075195,
            0.16383042931556702,
            -0.0012788332533091307,
            -0.04582086205482483,
            0.3405953645706177,
            -0.1132928729057312,
            -0.3706214129924774,
            0.3571109473705292,
            0.26168689131736755,
            -0.2743834853172302,
            -0.3329574465751648,
            0.2560102045536041,
            -0.22146186232566833,
            0.06896588206291199,
            -0.03587734326720238,
            0.0001827830565162003,
            0.2778894901275635,
            -0.19527795910835266,
            0.4134344458580017,
            -0.08511293679475784,
            -0.5385906100273132,
            -0.36344313621520996,
            0.3363094925880432,
            -0.1271805763244629,
            -0.14848800003528595,
            -0.17000307142734528,
            -0.23163242638111115,
            -0.1810312420129776,
            -0.047389738261699677,
            -0.0043169837445020676,
            0.13660340011119843,
            0.34049397706985474,
            -0.1889418512582779,
            -0.24509023129940033,
            0.04725201800465584,
            0.5989697575569153,
            0.0036689932458102703,
            0.17695844173431396,
            0.25283172726631165,
            -0.14726410806179047,
            0.09122409671545029,
            -0.2358866035938263,
            0.008282103575766087,
            0.13876809179782867,
            0.17456099390983582,
            -0.7339491248130798,
            0.2883848249912262,
            0.18329885601997375,
            0.20449288189411163,
            0.15283039212226868,
            -0.34738433361053467,
            -0.4520644247531891,
            -0.5063238739967346,
            -0.0856674388051033,
            0.6385695338249207,
            -0.083726666867733,
            -0.2527060806751251,
            0.44791293144226074,
            0.18195320665836334,
            -0.1513851284980774,
            0.3570728302001953,
            0.43322277069091797,
            -0.5634775757789612,
            -0.26856136322021484,
            0.2588699162006378,
            -0.4075351357460022,
            0.4112888276576996,
            0.15315991640090942,
            -0.26592326164245605,
            0.14238926768302917,
            0.17705240845680237,
            -0.5831704139709473,
            0.16017024219036102,
            0.8278806805610657,
            -0.03978560492396355,
            -0.2262413650751114,
            0.2772267460823059,
            -0.19585904479026794,
            -0.721283495426178,
            0.7527576684951782,
            0.29174014925956726,
            0.8157718181610107,
            0.2199944108724594,
            -0.055668123066425323,
            0.5847153663635254,
            0.11632324010133743,
            -0.013011591508984566,
            0.2170407623052597,
            -0.04570499807596207,
            0.14668068289756775,
            0.19260559976100922,
            0.09658356755971909,
            -0.03976815566420555,
            0.36837533116340637,
            -0.1558348834514618,
            -0.1864362359046936,
            -0.21060189604759216,
            -0.06485643982887268,
            0.524993360042572,
            -0.058598823845386505,
            -0.2574162483215332,
            -0.14870287477970123,
            -0.03808064013719559,
            0.08531716465950012,
            0.33278611302375793,
            0.14416374266147614,
            0.3592972755432129,
            -0.2512696087360382,
            0.05414386838674545,
            0.038236211985349655,
            0.03081691823899746,
            0.16624708473682404,
            -0.23040509223937988,
            -0.05907924100756645,
            -0.1532873958349228,
            0.2830312252044678,
            -0.123069629073143,
            -0.5646184682846069,
            0.41624686121940613,
            -0.4410003125667572,
            -0.4977627694606781,
            0.24781684577465057,
            0.3295515775680542,
            -0.4686969816684723,
            0.11116226017475128,
            -0.19642606377601624,
            -0.31968560814857483,
            -0.3268992602825165,
            0.13777923583984375,
            -0.07653632760047913,
            -0.008200647309422493,
            -0.005596770904958248,
            0.36477020382881165,
            0.5116697549819946,
            -0.8410893082618713,
            -0.12437906116247177,
            -0.27140501141548157,
            0.567935585975647,
            -0.3454654812812805,
            0.2273508906364441,
            -0.15256191790103912,
            -0.40971839427948,
            0.25216785073280334,
            -0.14224423468112946,
            -0.24711920320987701,
            -0.07902848720550537,
            0.2848167419433594,
            -0.13747060298919678,
            -0.04541782662272453,
            0.16599105298519135,
            -0.6888715624809265,
            0.45152127742767334,
            0.1711781919002533,
            0.0196446031332016,
            -0.15783527493476868,
            0.11328043788671494,
            -0.15984109044075012,
            -0.6021931767463684,
            0.15278670191764832,
            0.5078420639038086,
            -0.15789783000946045,
            0.3449544906616211,
            -0.02872360311448574,
            -0.7861140370368958,
            0.10777436941862106,
            -0.9188612103462219,
            -0.10331238061189651,
            0.16427581012248993,
            -0.39748919010162354,
            -0.5768276453018188,
            0.1726418286561966,
            -0.09611518681049347,
            -0.2146514654159546,
            -0.2947312593460083,
            -0.16684404015541077,
            0.29816970229148865,
            -0.09481264650821686,
            0.006149400491267443,
            0.41413164138793945,
            0.493914395570755,
            0.16529875993728638,
            0.014026887714862823,
            0.6961216926574707,
            -0.3295455276966095,
            0.14592105150222778,
            -0.10501328110694885,
            0.0006409881170839071,
            0.11409490555524826,
            -0.47016751766204834,
            0.04362709820270538,
            -0.3652081787586212,
            -0.09015607088804245,
            -0.3753555119037628,
            -0.23974935710430145,
            -0.005471357144415379,
            -0.056012511253356934,
            -0.24319319427013397,
            -0.4366534650325775,
            -0.01493458915501833,
            0.3389597237110138,
            -0.056163087487220764,
            0.011669754981994629,
            0.21027478575706482,
            0.013857210986316204,
            0.20669519901275635,
            -0.9490561485290527,
            -0.12381673604249954,
            -0.059856392443180084,
            0.1546541005373001,
            0.4763607680797577,
            0.034320488572120667,
            0.05200415104627609,
            0.21943409740924835,
            -0.05808555334806442,
            0.0853622779250145,
            -0.07531768083572388,
            -0.4386802315711975,
            0.46314167976379395,
            -0.10479797422885895,
            -0.09280528128147125,
            -0.15863865613937378,
            -0.23189958930015564,
            0.3003687560558319,
            0.18075492978096008,
            -0.08051884919404984,
            0.17573729157447815,
            0.3242029845714569,
            -0.2996862828731537,
            -0.1795348823070526,
            -0.13004335761070251,
            0.27943336963653564,
            -0.5580213069915771,
            -0.23818258941173553,
            0.2309942990541458,
            -0.22531412541866302,
            0.18188469111919403,
            0.30325672030448914,
            -0.15588074922561646,
            0.17152370512485504,
            -0.14368751645088196,
            -0.12323597073554993,
            0.2870039939880371,
            0.18709535896778107,
            -0.20576946437358856,
            0.052921365946531296,
            0.3485468327999115,
            -0.25274786353111267,
            0.32410600781440735,
            0.40005841851234436,
            0.22621601819992065,
            0.015688950195908546,
            -0.08901755511760712,
            -0.2289036065340042,
            -0.18999238312244415,
            -0.10811441391706467,
            0.014651591889560223,
            -0.05691635608673096,
            0.06834739446640015,
            -0.04654158279299736,
            -0.1880938559770584,
            0.018611179664731026,
            0.18169847130775452,
            0.019187645986676216,
            0.030396752059459686,
            0.014543619006872177,
            -0.03363346680998802,
            -0.15546485781669617,
            0.0035264608450233936,
            -0.20378272235393524,
            -0.21202510595321655,
            0.06863097846508026,
            -0.020751846954226494,
            -0.031042110174894333,
            0.5573893189430237,
            0.0954863652586937,
            -0.03540826961398125,
            -0.3128938376903534,
            -0.06751880049705505,
            -0.038694243878126144,
            -0.08309361338615417,
            0.3827889561653137,
            0.034948959946632385,
            -0.19157540798187256,
            -0.1382552981376648,
            -0.22705493867397308,
            -0.34186461567878723,
            0.08811195939779282,
            0.15624959766864777,
            -0.07821938395500183,
            -0.17773690819740295,
            0.3951777219772339,
            -0.198763906955719,
            0.16453418135643005,
            0.0393771156668663,
            0.5264120101928711,
            -0.025271492078900337,
            0.3962085545063019,
            -0.43272438645362854,
            0.2638196051120758,
            -0.035068899393081665,
            0.05830146372318268,
            0.08540847897529602,
            0.2412394881248474,
            -0.032704710960388184,
            0.07117118686437607,
            0.0731678307056427,
            0.22863368690013885,
            0.42285627126693726,
            -0.2503141164779663,
            -0.13101255893707275,
            0.038681380450725555,
            -0.11651069670915604,
            -0.05420777201652527,
            0.09324852377176285,
            -0.49316927790641785,
            -0.4404299557209015,
            0.32081151008605957,
            0.25080862641334534,
            -0.27680933475494385,
            -0.026464715600013733,
            0.23477499186992645,
            0.16610834002494812,
            0.10668934136629105,
            -0.29577401280403137,
            0.037312284111976624,
            0.571114718914032,
            -0.03497028723359108,
            0.1342473179101944,
            -0.14837732911109924,
            -0.014072000980377197,
            -0.029575178399682045,
            -0.028621811419725418,
            -0.1009398028254509,
            0.15302540361881256,
            -0.46791359782218933,
            -0.38224396109580994,
            0.36230677366256714,
            -0.24391567707061768,
            0.01741291582584381,
            0.1068340465426445,
            0.01707610674202442,
            0.03139546513557434,
            -0.04625682160258293,
            0.065178781747818,
            0.07198043912649155,
            -0.27953460812568665,
            0.39877772331237793,
            -0.24009723961353302,
            0.19815465807914734,
            0.11620490998029709,
            -0.08410616964101791,
            0.3344850540161133,
            0.17944371700286865,
            -0.08250585198402405,
            0.22778461873531342,
            -0.5968047380447388,
            -0.31515851616859436,
            0.1360856592655182,
            -0.26061397790908813,
            -0.09052234143018723,
            -0.1565900593996048,
            -0.35448870062828064,
