{
    "num_epochs": 5000,
    "batch_size": 256,
    "final_g_loss": 1.7232784032821655,
    "final_d_loss": 0.2521653473377228,
    "generator_learning_rate": 0.0002,
    "discriminator_learning_rate": 0.0002,
    "train_data_exp_dir_path": [
        "/app/data/fl_configs/fl_train_data/goal_pos_1_2",
        "/app/data/fl_configs/fl_train_data/goal_pos_3_2",
        "/app/data/fl_configs/fl_train_data/goal_pos_3_3"
    ],
    "generator": {
        "num_inputs": 1,
        "num_outputs": 28,
        "num_hidden_layers": 1,
        "neurons_per_hidden_layer": 64,
        "hidden_layer_activation_function": "relu",
        "final_layer_activation_function": null,
        "bias": true,
        "weights": [
            -1.0559594631195068,
            0.11464083194732666,
            -0.1563846915960312,
            -0.5207722783088684,
            0.5234867930412292,
            -0.8410680890083313,
            1.0282716751098633,
            -0.07377452403306961,
            -0.41416776180267334,
            -1.1153439283370972,
            1.2106297016143799,
            -1.1255005598068237,
            -0.7881578803062439,
            1.1631193161010742,
            0.6666572093963623,
            -0.9204744696617126,
            1.1925790309906006,
            -1.4221899509429932,
            -0.21840469539165497,
            -0.41925686597824097,
            -0.23927177488803864,
            -0.14434106647968292,
            0.07518848031759262,
            0.2012006789445877,
            -1.045623779296875,
            -0.605323076248169,
            -0.8246625661849976,
            -1.2281733751296997,
            -0.6295528411865234,
            0.6906706690788269,
            -0.3024936318397522,
            -0.07147955894470215,
            -0.1713336706161499,
            -0.2633737623691559,
            -0.8530287742614746,
            -0.3261759877204895,
            0.04234278202056885,
            0.8402454853057861,
            -0.2200261950492859,
            0.7161788940429688,
            -0.9597254395484924,
            -1.142488956451416,
            -1.0298881530761719,
            0.3801341652870178,
            -0.8186149001121521,
            0.06859111785888672,
            -0.6102258563041687,
            0.004091382026672363,
            -0.6956996917724609,
            0.9580428600311279,
            1.2053558826446533,
            1.1727534532546997,
            0.3365649878978729,
            -0.2517246603965759,
            -0.5731353759765625,
            -1.4163674116134644,
            0.802176833152771,
            0.059111081063747406,
            0.19005824625492096,
            -0.3422059118747711,
            -0.5163257122039795,
            -1.4432847499847412,
            -0.8294218182563782,
            0.8405449986457825,
            1.1638362407684326,
            -0.6413201093673706,
            -0.7674673199653625,
            0.03127836063504219,
            0.7066240310668945,
            0.9690582156181335,
            0.7528472542762756,
            0.511539876461029,
            0.970515251159668,
            -0.3367901146411896,
            0.17490988969802856,
            0.4059455096721649,
            0.2645326852798462,
            -0.22847025096416473,
            -0.2135048359632492,
            0.9075695276260376,
            -0.40665292739868164,
            0.9495173692703247,
            1.1679245233535767,
            0.36987578868865967,
            0.49986255168914795,
            0.6075826287269592,
            0.3826659321784973,
            0.423968642950058,
            0.03319086879491806,
            0.9297232031822205,
            -0.1768723875284195,
            -0.1817319542169571,
            0.19828735291957855,
            0.40672567486763,
            1.2873715162277222,
            -0.6384612321853638,
            0.7163794040679932,
            -0.030338922515511513,
            0.7068414688110352,
            0.44930294156074524,
            -0.36150193214416504,
            0.599633514881134,
            1.19255793094635,
            0.4383961260318756,
            1.0255186557769775,
            0.6217025518417358,
            -0.3131123185157776,
            0.2889278531074524,
            0.6235094666481018,
            -0.4453284740447998,
            0.5943488478660583,
            -0.550796627998352,
            0.33710840344429016,
            0.19389064610004425,
            0.39453446865081787,
            -0.621680498123169,
            0.8127198815345764,
            0.6996193528175354,
            1.1942424774169922,
            0.8652423620223999,
            0.35985732078552246,
            0.2560606300830841,
            0.8284325003623962,
            0.6462210416793823,
            0.35202687978744507,
            -0.3808630704879761,
            1.1894487142562866,
            0.05499270558357239,
            -0.01943274959921837,
            -0.09192037582397461,
            -0.10156504809856415,
            0.05186976119875908,
            -0.14549852907657623,
            -0.07759454846382141,
            -0.005767022259533405,
            0.009292319416999817,
            -0.026208503171801567,
            -0.11390017718076706,
            -0.08088084310293198,
            -0.005992848891764879,
            -0.018489107489585876,
            -0.07404159754514694,
            -0.15789742767810822,
            0.09754108637571335,
            -0.02467811480164528,
            0.038057632744312286,
            0.017662424594163895,
            0.00043724372517317533,
            0.024179523810744286,
            0.11838796734809875,
            0.03148902580142021,
            -0.14578723907470703,
            -0.13499271869659424,
            0.14574870467185974,
            -0.11602223664522171,
            -0.08613312989473343,
            -0.032311879098415375,
            -0.003649835241958499,
            -0.020792413502931595,
            0.10050585865974426,
            0.1880599856376648,
            0.09842897206544876,
            -0.07943252474069595,
            -0.08435854315757751,
            0.06677772104740143,
            -0.031046690419316292,
            0.19828757643699646,
            -0.02357698604464531,
            -0.026746803894639015,
            0.0049070618115365505,
            -0.09626033902168274,
            -0.046834029257297516,
            0.01593182235956192,
            0.04201887547969818,
            0.09680633991956711,
            0.1203593909740448,
            0.13461315631866455,
            -0.20802724361419678,
            -0.07493392378091812,
            -0.23543840646743774,
            -0.08895277976989746,
            -0.011927315965294838,
            -0.04051104560494423,
            -0.01947660744190216,
            -0.061816196888685226,
            0.23593327403068542,
            -0.006989040412008762,
            0.03436816483736038,
            0.10994333028793335,
            0.04776069521903992,
            0.15068630874156952,
            -0.17607052624225616,
            -0.0744721069931984,
            -0.040068283677101135,
            -0.01807442121207714,
            0.07616444677114487,
            -0.06398113816976547,
            0.010141565464437008,
            -0.1705126166343689,
            -0.03971727564930916,
            0.07371947169303894,
            0.19657987356185913,
            -0.06427641212940216,
            -0.04247095808386803,
            0.10333219915628433,
            -0.10055999457836151,
            0.055934272706508636,
            0.10802339762449265,
            -0.08550173789262772,
            -0.12663006782531738,
            -0.03131014481186867,
            0.13353444635868073,
            0.004352038726210594,
            -0.10513816773891449,
            -0.23008501529693604,
            -0.1320202648639679,
            0.10543078184127808,
            -0.12327476590871811,
            0.023310547694563866,
            0.04603024944663048,
            -0.05319507047533989,
            -0.05667831376194954,
            -0.003038864815607667,
            -0.05804575979709625,
            -0.08457277715206146,
            0.04956820607185364,
            0.05355424806475639,
            -0.0565585196018219,
            -0.11496508121490479,
            0.048857979476451874,
            -0.16701124608516693,
            -0.03763473778963089,
            -0.023743916302919388,
            0.16387635469436646,
            0.2738839089870453,
            -0.0741073340177536,
            -0.011347895488142967,
            -0.031228631734848022,
            -0.009728087112307549,
            0.06893607974052429,
            0.04220861941576004,
            -0.106753408908844,
            -0.09095306694507599,
            -0.056117184460163116,
            -0.1842818707227707,
            0.04104891046881676,
            -0.1288243532180786,
            0.08930544555187225,
            -0.05659162998199463,
            0.08928811550140381,
            0.0038073083851486444,
            -0.10902652144432068,
            0.15455901622772217,
            0.06977751851081848,
            0.05227028578519821,
            -0.011540394276380539,
            0.047145601361989975,
            -0.03924454748630524,
            -0.030052995309233665,
            -0.07634355127811432,
            0.011501706205308437,
            -0.06814587861299515,
            -0.10510624200105667,
            -0.0707845389842987,
            -0.0331842266023159,
            0.07924709469079971,
            -0.05807190388441086,
            0.021811095997691154,
            0.052435461431741714,
            -0.2729792892932892,
            -0.15228506922721863,
            -0.15237240493297577,
            -0.27743712067604065,
            0.10105352103710175,
            0.012515335343778133,
            0.07507588714361191,
            -0.04064338281750679,
            0.03247114270925522,
            -0.011171724647283554,
            -0.03293059393763542,
            0.11646907031536102,
            0.1554960161447525,
            -0.11001360416412354,
            -0.05270332098007202,
            0.11599406599998474,
            0.06507796049118042,
            -0.059652384370565414,
            -0.046238914132118225,
            -0.10948536545038223,
            0.12412495166063309,
            -0.06486435979604721,
            -0.14825494587421417,
            0.011007249355316162,
            -0.07960712164640427,
            0.11602218449115753,
            -0.15977397561073303,
            -0.05512548238039017,
            -0.08520542830228806,
            0.11614394187927246,
            -0.14039932191371918,
            0.0680784061551094,
            -0.1014312207698822,
            -0.04356654733419418,
            -0.05760730803012848,
            -0.031070074066519737,
            -0.00753821711987257,
            -0.17560498416423798,
            -0.06839392334222794,
            -0.05229805037379265,
            0.10734067112207413,
            0.08706841617822647,
            -0.11411871761083603,
            -0.10194867104291916,
            -0.1796826273202896,
            -0.04245005175471306,
            0.21765583753585815,
            -0.035921610891819,
            0.06500610709190369,
            0.0654832050204277,
            -0.14929144084453583,
            -0.1520325243473053,
            0.01372598111629486,
            0.12061602622270584,
            0.1794617474079132,
            0.07810875028371811,
            -0.030673114582896233,
            -0.04959834739565849,
            -0.032166630029678345,
            0.031102241948246956,
            0.10528777539730072,
            -0.03387894853949547,
            -0.010288002900779247,
            0.13744843006134033,
            -0.0922236368060112,
            -0.06059572100639343,
            -0.002607721369713545,
            -0.0723189190030098,
            0.06980982422828674,
            -0.05740122124552727,
            -0.06787295639514923,
            0.08077149093151093,
            -0.07573313266038895,
            -0.164930522441864,
            0.05805952847003937,
            0.05349307134747505,
            -0.005187807604670525,
            0.19061261415481567,
            0.02611706778407097,
            -0.012958946637809277,
            -0.07359343767166138,
            0.012302219867706299,
            -0.038044050335884094,
            -0.08150362223386765,
            0.20749463140964508,
            -0.1857912540435791,
            0.14156487584114075,
            0.01741810142993927,
            -0.011514270678162575,
            -0.04235859960317612,
            -0.10322924703359604,
            -0.02415815368294716,
            -0.02843199484050274,
            0.14357659220695496,
            -0.03152044489979744,
            0.00026206584880128503,
            -0.0657023936510086,
            -0.0933653935790062,
            0.05439169704914093,
            0.07567399740219116,
            0.01820881851017475,
            0.11778613924980164,
            -0.04888290539383888,
            0.05395372211933136,
            -0.03316732868552208,
            0.09170239418745041,
            0.07773371785879135,
            0.04663064330816269,
            0.05511251464486122,
            0.003636885667219758,
            -0.11129130423069,
            0.0991741195321083,
            0.058726102113723755,
            -0.0919150784611702,
            0.0987769365310669,
            0.14319251477718353,
            -0.10162383317947388,
            0.09348602592945099,
            0.027668703347444534,
            -0.0823470950126648,
            0.09972059726715088,
            -0.17199549078941345,
            0.10694828629493713,
            -0.12139403820037842,
            -0.12519843876361847,
            -0.1679241955280304,
            -0.06741388142108917,
            -0.06960613280534744,
            -0.32923659682273865,
            -0.21616050601005554,
            0.047443993389606476,
            -0.1659403294324875,
            -0.07195056974887848,
            -0.03024923801422119,
            -0.08585434406995773,
            0.008284252136945724,
            0.07587666809558868,
            0.1039990782737732,
            -0.19339483976364136,
            -0.06512540578842163,
            0.10243219882249832,
            -0.155406191945076,
            -0.1536395251750946,
            0.05316726490855217,
            -0.19874131679534912,
            0.10278889536857605,
            0.022343769669532776,
            -0.08777740597724915,
            0.13594205677509308,
            -0.010681421495974064,
            0.03172625973820686,
            0.06167173385620117,
            -0.2883909344673157,
            -0.030087050050497055,
            -0.10529264062643051,
            -0.09333829581737518,
            0.13236486911773682,
            -0.2149738371372223,
            -0.07579338550567627,
            0.12361400574445724,
            0.1058216392993927,
            -0.04570130631327629,
            0.1023738831281662,
            -0.04550433158874512,
            -0.04770713672041893,
            -0.21454258263111115,
            -0.11686332523822784,
            -0.030219558626413345,
            -0.04334939643740654,
            0.01429708395153284,
            0.17543095350265503,
            -0.29999855160713196,
            -0.10973914712667465,
            -0.17575347423553467,
            -0.07609519362449646,
            0.12171317636966705,
            -0.041286054998636246,
            -0.10123609006404877,
            -0.09056857228279114,
            0.03076218254864216,
            0.0919736921787262,
            -0.05390530452132225,
            0.11651774495840073,
            0.0848422646522522,
            0.03295861557126045,
            -0.10378716886043549,
            -0.022975053638219833,
            -0.07867471873760223,
            0.035499218851327896,
            -0.0154698695987463,
            0.041437260806560516,
            -0.006353892385959625,
            -0.07648471742868423,
            -0.10507232695817947,
            -0.05950504541397095,
            0.07982659339904785,
            -0.03011328913271427,
            0.08898280560970306,
            -0.10286173969507217,
            0.08439725637435913,
            0.09691869467496872,
            -0.25163450837135315,
            0.08234336227178574,
            -0.08190055936574936,
            -0.08882283419370651,
            -0.14020583033561707,
            -0.044942133128643036,
            -0.09548687934875488,
            0.09095951914787292,
            -0.10533726215362549,
            0.09768101572990417,
            0.039590947329998016,
            0.0002800885122269392,
            -0.10611957311630249,
            -0.14071452617645264,
            0.11483326554298401,
            0.09949283301830292,
            -0.07253730297088623,
            -0.03461155667901039,
            -0.08749280124902725,
            -0.11836530268192291,
            0.00046259904047474265,
            0.01849966123700142,
            -0.09711847454309464,
            -0.09880107641220093,
            -0.21643169224262238,
            0.08495296537876129,
            -0.07514829188585281,
            -0.07351934164762497,
            0.06891734153032303,
            -0.047315627336502075,
            -0.07915537804365158,
            0.10264339298009872,
            -0.009821921586990356,
            -0.10871408879756927,
            -0.027430696412920952,
            0.057208817452192307,
            -0.054521344602108,
            0.005139164626598358,
            -0.09898707270622253,
            -0.02057027630507946,
            -0.08277280628681183,
            0.11782798916101456,
            -0.030685890465974808,
            0.1010596752166748,
            -0.08631812781095505,
            -0.2000036984682083,
            -0.01432756520807743,
            -0.025154167786240578,
            -0.1651802361011505,
            -0.03840240463614464,
            -0.010550313629209995,
            -0.01967833749949932,
            -0.10567042976617813,
            -0.15383823215961456,
            -0.13024039566516876,
            -0.04537508264183998,
            -0.1090879961848259,
            -0.06398413330316544,
            -0.1762254536151886,
            -0.02236654981970787,
            0.1457795947790146,
            -0.24249914288520813,
            -0.02922428585588932,
            0.07134061306715012,
            0.051959116011857986,
            -0.20491601526737213,
            -0.045094795525074005,
            0.0008109053014777601,
            0.02304982580244541,
            0.009735635481774807,
            -0.2595841884613037,
            0.1102338582277298,
            0.09016451984643936,
            0.05066961050033569,
            0.12288258224725723,
            -0.10129133611917496,
            0.048764005303382874,
            -0.16881027817726135,
            0.08755631744861603,
            0.0669093206524849,
            0.061626847833395004,
            0.05419723689556122,
            -0.14597932994365692,
            -0.13624320924282074,
            -0.06035355478525162,
            -0.029620693996548653,
            -0.13093023002147675,
            -0.07098422944545746,
            0.012109107337892056,
            -0.08959554135799408,
            -0.26622796058654785,
            0.04391004517674446,
            -0.051519185304641724,
            -0.0986180379986763,
            -0.01866554468870163,
            0.18669433891773224,
            -0.12837453186511993,
            -0.012263494543731213,
            -0.1593354195356369,
            0.3716840147972107,
            0.030650505796074867,
            0.159899041056633,
            -0.2689162790775299,
            -0.0092477323487401,
            0.08193754404783249,
            -0.07729274034500122,
            0.03743189945816994,
            -0.11080551147460938,
            0.011604327708482742,
            -0.0725204274058342,
            -0.0570107102394104,
            0.06438004970550537,
            -0.0292025338858366,
            0.1892571598291397,
            0.04368625581264496,
            -0.13766801357269287,
            0.08796770125627518,
            0.07119622826576233,
            -0.13644905388355255,
            0.12024325132369995,
            0.027568448334932327,
            -0.16450709104537964,
            -0.021201536059379578,
            -0.07109232991933823,
            0.13758447766304016,
            -0.04572585970163345,
            -0.048509057611227036,
            -0.056980203837156296,
            0.18675731122493744,
            -0.029985126107931137,
            -0.17824682593345642,
            -0.02667662873864174,
            -0.21346865594387054,
            -0.13855886459350586,
            -0.02784649282693863,
            0.12259107828140259,
            0.010231614112854004,
            -0.008814215660095215,
            0.1607075035572052,
            -0.253953218460083,
            -0.13883155584335327,
            -0.17820002138614655,
            -0.006990984082221985,
            0.143065944314003,
            0.14027105271816254,
            0.11650523543357849,
            -0.10360760241746902,
            -0.09371231496334076,
            -0.04090339317917824,
            0.0814097672700882,
            0.03874521702528,
            0.0323459655046463,
            0.014457310549914837,
            -0.11143386363983154,
            -0.03557642176747322,
            -0.021568715572357178,
            0.18105989694595337,
            0.02273530140519142,
            -0.0344935767352581,
            0.13757526874542236,
            0.02392912469804287,
            -0.1079377755522728,
            -0.02959873154759407,
            -0.14380457997322083,
            0.05724743753671646,
            0.008044715970754623,
            -0.10416632145643234,
            -0.03815603628754616,
            -0.11661581695079803,
            0.09836264699697495,
            -0.09045550972223282,
            -0.05040198564529419,
            -0.042829517275094986,
            0.07270359247922897,
            -0.059528034180402756,
            -0.18306411802768707,
            0.07641773670911789,
            0.006031245458871126,
            -0.0711771696805954,
            -0.039197131991386414,
            -0.13731540739536285,
            -0.06222236901521683,
            0.028915956616401672,
            0.10653672367334366,
            0.05548088625073433,
            -0.07391683757305145,
            -0.13172556459903717,
            0.07747916877269745,
            -0.09537795931100845,
            -0.00884106196463108,
            0.05320015177130699,
            0.05961241200566292,
            0.023616677150130272,
            0.04335413873195648,
            0.060192257165908813,
            -0.0020725950598716736,
            -0.07947585731744766,
            -0.048364587128162384,
            -0.10068447142839432,
            0.11276556551456451,
            -0.12824904918670654,
            -0.11941277980804443,
            -0.15006478130817413,
            0.03124149702489376,
            0.042496971786022186,
            -0.027351699769496918,
            -0.09250405430793762,
            -0.09219025820493698,
            -0.15347053110599518,
            -0.06864474713802338,
            -0.041400205343961716,
            0.023769550025463104,
            0.09541323781013489,
            -0.07777230441570282,
            0.05595596134662628,
            -0.018965095281600952,
            -0.0800606906414032,
            -0.04604025185108185,
            0.03919357433915138,
            -0.10390625894069672,
            0.08045269548892975,
            0.10794930905103683,
            -0.10579349845647812,
            0.07451310753822327,
            -0.08105143159627914,
            -0.03316042199730873,
            0.024200763553380966,
            0.08972412347793579,
            0.06191696599125862,
            -0.06609413772821426,
            -0.07178771495819092,
            -0.013484569266438484,
            0.031201524659991264,
            0.01187520194798708,
            -0.021266696974635124,
            -0.11243659257888794,
            0.09205267578363419,
            0.1791439950466156,
            0.09555129706859589,
            0.012005048803985119,
            0.06311491131782532,
            -0.06451203674077988,
            0.1308635175228119,
            0.21828263998031616,
            -0.08713718503713608,
            0.019817277789115906,
            -0.01609564945101738,
            -0.11370342969894409,
            -0.15620705485343933,
            0.11381256580352783,
            -0.13304221630096436,
            0.008297956548631191,
            -0.008561418391764164,
            -0.02171393483877182,
            -0.029142552986741066,
            0.037893302738666534,
            -0.07204680889844894,
            0.01818544790148735,
            0.05429977923631668,
            0.03831428661942482,
            0.11109548807144165,
            0.10781164467334747,
            -0.007698446046561003,
            -0.09712932258844376,
            0.07475868612527847,
            -0.0925406664609909,
            0.018817950040102005,
            0.1547790914773941,
            0.10103075951337814,
            0.08493010699748993,
            0.124626025557518,
            -0.058603573590517044,
            -0.057324230670928955,
            -0.16939371824264526,
            -0.08403931558132172,
            -0.07487247884273529,
            0.22943086922168732,
            -0.23267363011837006,
            -0.14284782111644745,
            0.07485152781009674,
            0.003986425697803497,
            0.10332538187503815,
            -0.09024976193904877,
            -0.1059199720621109,
            -0.002537013031542301,
            -0.03277560696005821,
            0.09396316111087799,
            0.025928618386387825,
            -0.030454425141215324,
            -0.08636327087879181,
            0.08404482156038284,
            0.08127300441265106,
            -0.11534803360700607,
            0.03825831040740013,
            -0.06242915987968445,
            0.02764531970024109,
            0.037532176822423935,
            0.09322310984134674,
            -0.03262709453701973,
            0.03428018093109131,
            -0.10057977586984634,
            0.21949781477451324,
            0.06423218548297882,
            0.13293123245239258,
            0.05733245238661766,
            0.05677051097154617,
            0.03917266055941582,
            -0.05648227035999298,
            0.0017815314931795,
            0.0074792844243347645,
            0.0068994746543467045,
            -0.30834734439849854,
            -0.11187897622585297,
            0.10118912160396576,
            -0.27258074283599854,
            -0.054544784128665924,
            0.018411679193377495,
            0.10284563153982162,
            0.06535269320011139,
            -0.11592371761798859,
            -0.09084704518318176,
            -0.017738841474056244,
            0.08743146061897278,
            0.11525174975395203,
            -0.09517166018486023,
            0.09365097433328629,
            0.029750879853963852,
            -0.13766701519489288,
            0.043784964829683304,
            -0.09289492666721344,
            0.05180608108639717,
            0.10413773357868195,
            0.02392107993364334,
            0.07572667300701141,
            -0.05210040509700775,
            -0.09938934445381165,
            -0.012602428905665874,
            -0.11634740233421326,
            0.12597307562828064,
            0.05838649347424507,
            0.04693916440010071,
            0.05605223402380943,
            0.08564788848161697,
            0.09999862313270569,
            -0.023942120373249054,
            0.09143413603305817,
            -0.039291467517614365,
            -0.04619555547833443,
            -0.16819730401039124,
            -0.26055246591567993,
            -0.1109958067536354,
            -0.08503463119268417,
            0.016602223739027977,
            0.08965380489826202,
            -0.18380491435527802,
            0.08157873898744583,
            0.012617101892828941,
            0.16067257523536682,
            0.09332697093486786,
            -0.10396906733512878,
            0.013905644416809082,
            -0.17799165844917297,
            0.005875350441783667,
            -0.1087295413017273,
            -0.01933133229613304,
            0.11345908045768738,
            -0.09809819608926773,
            -0.04158306121826172,
            -0.0811382532119751,
            0.10994638502597809,
            0.01282589603215456,
            0.053462542593479156,
            -0.07899777591228485,
            -0.032935697585344315,
            0.13252076506614685,
            0.13753433525562286,
            0.10396992415189743,
            0.04142129048705101,
            0.04115986451506615,
            0.009749607183039188,
            0.03930240496993065,
            0.0012936071725562215,
            0.06791207194328308,
            -0.1389249563217163,
            0.043439123779535294,
            -0.12423621863126755,
            0.0488678477704525,
            -0.07155238837003708,
            0.013925661332905293,
            0.146482452750206,
            0.21457381546497345,
            0.06742876023054123,
            -0.07299946248531342,
            0.01985149085521698,
            -0.11970739811658859,
            0.019166048616170883,
            -0.1116262897849083,
            0.14910836517810822,
            0.09364545345306396,
            -0.06293760985136032,
            0.043258681893348694,
            0.008321646600961685,
            -0.11676555871963501,
            -0.0969872698187828,
            0.1377822458744049,
            0.08592277020215988,
            0.10112232714891434,
            -0.09842999279499054,
            -0.016985589638352394,
            -0.08511140942573547,
            -0.1401713490486145,
            0.1118873804807663,
            -0.014033003710210323,
            -0.00031496069277636707,
            0.024706345051527023,
            0.02537781186401844,
            -0.08248096704483032,
            0.0979137122631073,
            0.06069355830550194,
            0.09510229527950287,
            0.021175798028707504,
            0.08228552341461182,
            0.11160676926374435,
            0.10760181397199631,
            0.026850756257772446,
            -0.046333812177181244,
            0.1238112822175026,
            0.11456942558288574,
            -0.12187749892473221,
            0.047923363745212555,
            0.11099876463413239,
            0.03299405425786972,
            0.008833547122776508,
            -0.07311571389436722,
            0.15478211641311646,
            0.08628710359334946,
            -0.09685296565294266,
            -0.024781562387943268,
            0.04351036623120308,
            -0.10982827097177505,
            -0.19341282546520233,
            0.03382294252514839,
            0.054493267089128494,
            -0.015086601488292217,
            0.07232088595628738,
            0.09340130537748337,
            0.10550957173109055,
            0.10686585307121277,
            0.13116201758384705,
            -0.02515105903148651,
            -0.048485636711120605,
            -0.006767476908862591,
            0.1231813058257103,
            -0.06079106777906418,
            0.0005581810837611556,
            -0.001578252762556076,
            0.08263382315635681,
            -0.12074494361877441,
            0.17710299789905548,
            0.05183423310518265,
            -0.020767027512192726,
            0.03432869538664818,
            0.08701565861701965,
            0.0957866907119751,
            0.007783208508044481,
            -0.06343177706003189,
            0.021433742716908455,
            0.02826603502035141,
            0.1457957923412323,
            0.054098259657621384,
            0.13736610114574432,
            0.08100055158138275,
            0.023421652615070343,
            -0.09746305644512177,
            0.11732430756092072,
            0.11028917133808136,
            -0.09889496862888336,
            0.0036067902110517025,
            0.05586232990026474,
            0.07984166592359543,
            0.05695251375436783,
            -0.08929971605539322,
            -0.04078381881117821,
            0.11938964575529099,
            0.003019709838554263,
            -0.033261824399232864,
            0.22307643294334412,
            0.15010155737400055,
            -0.026951264590024948,
            0.05683467537164688,
            0.057366643100976944,
            0.02471938729286194,
            1.4421297237277031e-05,
            0.08964458107948303,
            -0.10866241157054901,
            0.07647973299026489,
            0.14812441170215607,
            0.11355245858430862,
            -0.023205604404211044,
            -0.05209729075431824,
            0.03628166764974594,
            0.11493849009275436,
            -0.01740194298326969,
            0.03155803680419922,
            -0.04504711925983429,
            0.02715246006846428,
            0.15681813657283783,
            0.047629714012145996,
            0.13058878481388092,
            -0.2758755385875702,
            -0.07521101832389832,
            0.1187034621834755,
            -0.10977358371019363,
            -0.023928357288241386,
            -0.06321186572313309,
            0.09466205537319183,
            -0.01801970973610878,
            0.19299760460853577,
            -0.0870039239525795,
            -0.03079044818878174,
            0.007517575286328793,
            0.019240498542785645,
            -0.08490370959043503,
            -0.013491624966263771,
            0.11750543117523193,
            -0.22639039158821106,
            -0.018334075808525085,
            0.07892033457756042,
            -0.06415531039237976,
            0.0018115041311830282,
            -0.008769514970481396,
            0.043770406395196915,
            0.22121058404445648,
            0.046380359679460526,
            -0.024529224261641502,
            0.01107756793498993,
            0.13409434258937836,
            0.01888987421989441,
            0.07204965502023697,
            0.08308546245098114,
            0.03182400017976761,
            -0.047816336154937744,
            0.11020791530609131,
            0.12097780406475067,
            -0.13569359481334686,
            0.08972321450710297,
            0.10361757129430771,
            -0.27147147059440613,
            0.009163232520222664,
            0.1158352717757225,
            -0.15100395679473877,
            0.055474653840065,
            0.07119529694318771,
            -0.03197680786252022,
            -0.015020462684333324,
            -0.018441468477249146,
            -0.06241830810904503,
            -0.18435025215148926,
            -0.043187160044908524,
            0.07375890761613846,
            -0.08043964207172394,
            -0.1163749098777771,
            0.02584448829293251,
            -0.23204635083675385,
            -0.23620642721652985,
            -0.14694778621196747,
            0.08792350441217422,
            -0.13835953176021576,
            -0.24401643872261047,
            0.1254418045282364,
            -0.27492761611938477,
            0.07968983799219131,
            -0.10323434323072433,
            -0.0993943065404892,
            -0.0549917072057724,
            -0.008158287033438683,
            0.05178876221179962,
            0.07721756398677826,
            -0.18706513941287994,
            0.09742799401283264,
            -0.0569474920630455,
            -0.24969644844532013,
            -0.18164072930812836,
            0.001558864489197731,
            -0.06952740997076035,
            -0.034581273794174194,
            -0.04163592681288719,
            -0.21267244219779968,
            0.04432187229394913,
            -0.13496778905391693,
            0.04550313949584961,
            -0.08343883603811264,
            -0.11181457340717316,
            -0.04619647189974785,
            -0.07769843190908432,
            0.04931677505373955,
            -0.011583905667066574,
            -0.22122658789157867,
            -0.10283812880516052,
            0.03017313778400421,
            0.13090233504772186,
            0.11357323825359344,
            0.019924001768231392,
            -0.14501550793647766,
            -0.20039816200733185,
            -0.041225679218769073,
            -0.1498991698026657,
            0.0835256576538086,
            0.07326554507017136,
            0.017174741253256798,
            -0.13740307092666626,
            0.06481344997882843,
            -0.033627353608608246,
            -0.010329893790185452,
            -0.09065572917461395,
            -0.14199553430080414,
            0.1247023195028305,
            -0.030456267297267914,
            -0.1248575896024704,
            -0.006381377577781677,
            0.12344934791326523,
            -0.05664432421326637,
            0.002796546323224902,
            -0.0027603607159107924,
            0.09029585868120193,
            -0.14923825860023499,
            -0.0406973659992218,
            -0.07294391095638275,
            0.07288941740989685,
            -0.01751898229122162,
            -0.13067395985126495,
            0.26974666118621826,
            0.17379096150398254,
            -0.10238537192344666,
            0.0822209045290947,
            -0.0439736545085907,
            0.12392935156822205,
            -0.11652101576328278,
            0.0018552676774561405,
            0.09036335349082947,
            0.06818976253271103,
            0.010802782140672207,
            0.018596632406115532,
            0.0018615322187542915,
            -0.08619377017021179,
            0.054084084928035736,
            -0.026471322402358055,
            0.1146090179681778,
            0.012586737051606178,
            -0.10016734898090363,
            0.041867684572935104,
            0.10275863111019135,
            0.0832352489233017,
            -0.12726262211799622,
            0.005731835961341858,
            0.2205142229795456,
            0.06401128321886063,
            0.1562841236591339,
            -0.12373652309179306,
            0.05098162218928337,
            -0.03186792507767677,
            0.1029115542769432,
            0.0025095136370509863,
            0.048188284039497375,
            -0.08529545366764069,
            -0.11010079085826874,
            -0.011817815713584423,
            0.004821102134883404,
            0.11561543494462967,
            0.056386981159448624,
            -0.07455073297023773,
            0.011268248781561852,
            0.014895387925207615,
            0.06875059753656387,
            -0.008511531166732311,
            0.06969909369945526,
            -0.08269497007131577,
            -0.0058982279151678085,
            0.07269196957349777,
            0.087739959359169,
            -0.019459040835499763,
            0.212909996509552,
            -0.017875658348202705,
            -0.10559137165546417,
            0.08107071369886398,
            -0.017580870538949966,
            -0.022513175383210182,
            0.04203842580318451,
            -0.012744945473968983,
            -0.16414251923561096,
            -0.013923609629273415,
            0.04016360267996788,
            0.011434854939579964,
            0.05541648715734482,
            0.11865687370300293,
            0.003930324222892523,
            0.1719127893447876,
            0.006511903367936611,
            0.010698078200221062,
            0.01902303472161293,
            0.03522491455078125,
            0.221279114484787,
            0.07160867750644684,
            0.057693302631378174,
            0.1558811515569687,
            0.0462360754609108,
            0.20870374143123627,
            0.10210118442773819,
            -0.043440863490104675,
            0.10115423798561096,
            0.11824246495962143,
            0.07237263768911362,
            0.07619190961122513,
            0.007699355483055115,
            -0.07357601821422577,
            0.1962709128856659,
            0.09092051535844803,
            0.17583629488945007,
            0.03202064335346222,
            0.11707895994186401,
            -0.1150946095585823,
            0.037802767008543015,
            0.042228467762470245,
            -0.07201378047466278,
            0.23448508977890015,
            0.14685668051242828,
            -0.06226137652993202,
            -0.026691868901252747,
            -0.013892671093344688,
            0.1114610880613327,
            0.04126863554120064,
            0.058011870831251144,
            -0.05563261732459068,
            -0.07776642590761185,
            0.15258152782917023,
            -0.015345758758485317,
            -0.00188973150216043,
            0.07660672068595886,
            0.11796443164348602,
            -0.17551814019680023,
            0.11189489811658859,
            -0.008944500237703323,
            0.2159084677696228,
            0.12136370688676834,
            -0.13004888594150543,
            0.16665643453598022,
            0.03518758341670036,
            0.08261875808238983,
            0.06666374206542969,
            0.254220575094223,
            0.023468483239412308,
            0.0854359120130539,
            0.05170319974422455,
            0.038157232105731964,
            -0.010197538882493973,
            0.25277137756347656,
            0.10887491703033447,
            0.16395355761051178,
            0.12283001095056534,
            0.17457880079746246,
            0.145652636885643,
            -0.02127601020038128,
            0.14606501162052155,
            0.09235688298940659,
            0.05605437606573105,
            -0.0018445784226059914,
            -0.030814262107014656,
            -0.15594883263111115,
            -0.034723177552223206,
            0.002529510762542486,
            0.18526622653007507,
            -0.07171817868947983,
            0.3158124089241028,
            0.10961271822452545,
            0.044084593653678894,
            0.04125833511352539,
            0.04052459076046944,
            0.07419775426387787,
            -0.22630465030670166,
            0.02601773664355278,
            0.03342890739440918,
            -0.0045397174544632435,
            -0.061282411217689514,
            0.09626860916614532,
            -0.14699161052703857,
            0.04709254205226898,
            -0.03652791678905487,
            0.12241162359714508,
            0.22953110933303833,
            0.023142339661717415,
            -0.09539888799190521,
            0.03269040584564209,
            -0.03673166409134865,
            0.021276384592056274,
            0.13789339363574982,
            0.16388043761253357,
            0.10257212817668915,
            0.03594313934445381,
            0.048172272741794586,
            -0.08687423169612885,
            -0.10212817788124084,
            -0.11953866481781006,
            -0.06126265972852707,
            -0.47722727060317993,
            -0.030298804864287376,
            -0.05783771350979805,
            0.06554695218801498,
            0.15798012912273407,
            0.027187848463654518,
            0.09182406216859818,
            0.027685362845659256,
            -0.02162514626979828,
            0.03818565607070923,
            -0.011565880849957466,
            0.1771378219127655,
            0.11964484304189682,
            0.028416862711310387,
            0.059426482766866684,
            -0.00804745964705944,
            -0.03634697198867798,
            0.0712895318865776,
            -0.06882467865943909,
            0.04523422196507454,
            0.14698252081871033,
            -0.0061337617225945,
            0.16049182415008545,
            0.16046537458896637,
            0.0971212163567543,
            -0.013017643243074417,
            0.16177427768707275,
            -0.06825011223554611,
            -0.014515846967697144,
            0.08344817906618118,
            0.18000470101833344,
            0.1402675062417984,
            0.09239290654659271,
            -0.07537741959095001,
            0.10725272446870804,
            0.136771097779274,
            0.11018810421228409,
            -0.16259436309337616,
            -0.12061059474945068,
            0.01463988795876503,
            -0.047983355820178986,
            0.008930138312280178,
            0.0129955830052495,
            0.0179738849401474,
            -0.001563445432111621,
            -0.014957001432776451,
            -0.05673878267407417,
            -0.04878315329551697,
            -0.07691002637147903,
            0.008489768020808697,
            -0.09672567993402481,
            0.06893863528966904,
            0.07649970054626465,
            0.04157857224345207,
            0.005074262619018555,
            -0.06330419331789017,
            0.12823444604873657,
            0.1639138013124466,
            0.06687989830970764,
            0.20089609920978546,
            -0.0034605946857482195,
            -0.046904727816581726,
            0.0900161936879158,
            -0.008351534605026245,
            0.005803411360830069,
            0.014188140630722046,
            -0.18191565573215485,
            0.007289430126547813,
            0.11510330438613892,
            0.11127880215644836,
            0.12946617603302002,
            0.10383207350969315,
            -0.0784749984741211,
            0.1113850325345993,
            0.02700066938996315,
            -0.058318592607975006,
            0.0169523898512125,
            0.14671482145786285,
            0.010533222928643227,
            -0.014141238294541836,
            -0.13915561139583588,
            0.011271441355347633,
            -0.0033708056434988976,
            -0.025119848549365997,
            0.015382989309728146,
            0.07302451133728027,
            0.08071237057447433,
            0.1028747707605362,
            0.09908559918403625,
            -0.1446952074766159,
            -0.07791908085346222,
            -0.07126311212778091,
            0.042925797402858734,
            0.002187298610806465,
            -0.15988151729106903,
            -0.00860088411718607,
            0.10566234588623047,
            -0.16194351017475128,
            -0.0443069189786911,
            -0.06683430075645447,
            -0.11739902943372726,
            -0.028160927817225456,
            -0.10912883281707764,
            0.08798107504844666,
            -0.14475487172603607,
            -0.0391325019299984,
            -0.037872474640607834,
            -0.03766144812107086,
            0.11275233328342438,
            0.06357907503843307,
            0.07985606044530869,
            0.01082543469965458,
            -0.08699610084295273,
            -0.18220657110214233,
            0.172574982047081,
            -0.1250750869512558,
            0.034978896379470825,
            -0.06421882659196854,
            -0.04495103657245636,
            -0.11998926103115082,
            -0.06802207231521606,
            0.14515919983386993,
            0.33498331904411316,
            0.11915384978055954,
            -0.0010008546523749828,
            -0.06010397896170616,
            -0.008045382797718048,
            0.1370464414358139,
            -0.067817322909832,
            0.050883132964372635,
            -0.03127026557922363,
            -0.06686708331108093,
            -0.15788327157497406,
            -0.14169183373451233,
            0.10316311568021774,
            -0.051099978387355804,
            -0.10903811454772949,
            0.07822881639003754,
            0.029472485184669495,
            0.055056262761354446,
            0.14894655346870422,
            -0.06392274051904678,
            0.07095984369516373,
            0.13620635867118835,
            -0.13994060456752777,
            0.049714911729097366,
            0.08950728923082352,
            -0.19337821006774902,
            0.11799456179141998,
            0.04152480140328407,
            -0.04665070027112961,
            0.07996327430009842,
            -0.01621750183403492,
            -0.0456099733710289,
            0.010449059307575226,
            -0.033518679440021515,
            -0.04938526079058647,
            -0.0034390215296298265,
            0.08795871585607529,
            -0.01692890003323555,
            -0.034040309488773346,
            -0.000525933806784451,
            -0.133845254778862,
            -0.08815573155879974,
            0.09283711016178131,
            0.04758709296584129,
            0.10608468949794769,
            0.12474966794252396,
            -0.08555539697408676,
            -0.01937110535800457,
            -0.10555638372898102,
            0.10825899243354797,
            -0.04032745584845543,
            -0.054050300270318985,
            0.1600658893585205,
            -0.06488649547100067,
            -0.11554139107465744,
            -0.10184338688850403,
            -0.13958685100078583,
            0.03424859046936035,
            -0.11473359167575836,
            0.05653766542673111,
            0.10764096677303314,
            0.004194296430796385,
            0.03258955851197243,
            0.09038901329040527,
            0.11172234266996384,
            0.016038451343774796,
            -0.026998348534107208,
            0.02320464514195919,
            0.11602630466222763,
            0.10812082141637802,
            -0.0007964393007569015,
            0.0721488893032074,
            0.0038823680952191353,
            -0.1654215008020401,
            -0.19762586057186127,
            0.17463131248950958,
            0.12952584028244019,
            -0.12491856515407562,
            -0.0031666308641433716,
            0.05030155926942825,
            0.02069178968667984,
            -0.02127194218337536,
            -0.14247585833072662,
            -0.021276969462633133,
            -0.14772778749465942,
            -0.02578776516020298,
            0.15838846564292908,
            0.11276040226221085,
            -0.04507545381784439,
            0.09174325317144394,
            -0.1144881322979927,
            -0.1446138322353363,
            -0.1228182315826416,
            -0.06389626115560532,
            -0.019550476223230362,
            -0.10500428825616837,
            0.06636393815279007,
            0.025900820270180702,
            0.08807986229658127,
            -0.06672647595405579,
            0.017078399658203125,
            0.06884530186653137,
            0.015901435166597366,
            -0.006652862299233675,
            0.2526831328868866,
            -0.1085982471704483,
            0.022740747779607773,
            -0.13725295662879944,
            0.017684847116470337,
            -0.01572653464972973,
            0.10411818325519562,
            0.005973420571535826,
            -0.15392737090587616,
            -0.08309179544448853,
            0.011358587071299553,
            -0.12036994099617004,
            -0.009781702421605587,
            -0.04246433451771736,
            0.04195293039083481,
            0.21696951985359192,
            -0.24336589872837067,
            0.03966759145259857,
            -0.12117871642112732,
            0.09763388335704803,
            0.04937431216239929,
            -0.13274350762367249,
            0.17910626530647278,
            0.17577223479747772,
            -0.024156276136636734,
            -0.02053873799741268,
            -0.15571656823158264,
            -0.05276757478713989,
            -0.17919890582561493,
            0.06845368444919586,
            -0.04065609350800514,
            0.07219032198190689,
            0.058383431285619736,
            -0.10782910138368607,
            0.07382126897573471,
            -0.16413065791130066,
            0.05866393446922302,
            -0.11134070158004761,
            0.09383292496204376,
            -0.030150381848216057,
            0.07249969989061356,
            0.07074316591024399,
            -0.02864636667072773,
            0.06895865499973297,
            -0.043154191225767136,
            -0.025605803355574608,
            0.05484306812286377,
            0.0041867466643452644,
            -0.08001434803009033,
            -0.03415039926767349,
            0.0039029426407068968,
            -0.07431857287883759,
            -0.13672634959220886,
            -0.061829086393117905,
            -0.056324705481529236,
            -0.061110083013772964,
            0.06289108842611313,
            0.06493381410837173,
            -0.015900596976280212,
            0.07603321969509125,
            -0.134629026055336,
            -0.008989201858639717,
            0.021799003705382347,
            0.05693403631448746,
            -0.1331898272037506,
            0.06758812069892883,
            -0.13946294784545898,
            -0.0080605149269104,
            0.06071560084819794,
            0.012167991138994694,
            0.1260075718164444,
            -0.0847284346818924,
            -0.13054974377155304,
            0.04405176639556885,
            -0.14846590161323547,
            -0.005885296501219273,
            -0.028432756662368774,
            -0.21085125207901,
            -0.03694026917219162,
            -0.13671940565109253,
            -0.06648670881986618,
            -0.17825382947921753,
            0.018495813012123108,
            -0.1487543135881424,
            0.1248859316110611,
            -0.0020276096183806658,
            -0.05350935459136963,
            -0.0013286706525832415,
            -0.12260882556438446,
            -0.06942319124937057,
            0.029347337782382965,
            0.03840600326657295,
            -0.13437429070472717,
            0.00794502068310976,
            0.06655247509479523,
            -0.15203826129436493,
            -0.007701420690864325,
            0.052813898772001266,
            -0.020214669406414032,
            -0.02725920081138611,
            -0.11187776178121567,
            -0.07853396236896515,
            0.06657260656356812,
            0.07063470035791397,
            -0.14474040269851685,
            -0.033222075551748276,
            0.0036255992017686367,
            -0.09855912625789642,
            -0.009530090726912022,
            -0.060730885714292526,
            -0.06084315478801727,
            -0.07588234543800354,
            -0.019531751051545143,
            -0.13937842845916748,
            0.032521795481443405,
            -0.22598759829998016,
            0.08845440298318863,
            -0.20911964774131775,
            -0.1632416695356369,
            0.048431456089019775,
            -0.14991746842861176,
            -0.07370449602603912,
            -0.0013522990047931671,
            0.03900746628642082,
            0.13245803117752075,
            -0.06387518346309662,
            0.04007615149021149,
            -0.3152179419994354,
            -0.11594170331954956,
            -0.20719262957572937,
            0.08537355810403824,
            0.023347554728388786,
            -0.059537678956985474,
            -0.067152239382267,
            0.0035824929364025593,
            -0.05225146934390068,
            -0.004463368561118841,
            -0.11414790153503418,
            -0.07261095941066742,
            0.012422601692378521,
            -0.03441275283694267,
            -0.07254122942686081,
            -0.03117063269019127,
            -0.273061603307724,
            0.06332356482744217,
            -0.07555153220891953,
            -0.0922280102968216,
            0.07028114795684814,
            -0.08419619500637054,
            -0.1826799362897873,
            0.016969434916973114,
            0.11060027033090591,
            -0.06841310858726501,
            -0.09210215508937836,
            0.14124830067157745,
            0.10941097885370255,
            -0.13515539467334747,
            -0.14659623801708221,
            0.22593548893928528,
            -0.011898442171514034,
            -0.04037415608763695,
            -0.10538411140441895,
            -0.28565382957458496,
            -0.02869631163775921,
            -0.05806594714522362,
            0.1715932935476303,
            0.09815503656864166,
            -0.05052107200026512,
            -0.11710941791534424,
            -0.16843126714229584,
            0.056145913898944855,
            -0.08906246721744537,
            0.17707102000713348,
            0.14342950284481049,
            0.010062098503112793,
            -0.09700419008731842,
            -0.08032287657260895,
            -0.1524914652109146,
            -0.21943502128124237,
            -0.28949877619743347,
            0.05976126343011856,
            -0.3313997685909271,
            0.04372015595436096,
            0.16643154621124268,
            -0.0834142342209816,
            0.035846270620822906,
            0.025731036439538002,
            0.23851120471954346,
            -0.12650717794895172,
            -0.10570800304412842,
            0.06162760406732559,
            -0.11039318889379501,
            -0.19096753001213074,
            -0.12895894050598145,
            -0.21679404377937317,
            0.017953580245375633,
            0.045546695590019226,
            0.034169938415288925,
            0.024979300796985626,
            0.060726143419742584,
            0.04114735499024391,
            0.07141043245792389,
            0.00031063053756952286,
            0.16172486543655396,
            -0.09145621210336685,
            -0.01320219598710537,
            -0.06773756444454193,
            -0.21205851435661316,
            0.004087170120328665,
            -0.005620832554996014,
            -0.12353354692459106,
            0.11111234128475189,
            0.0556691437959671,
            -0.036123309284448624,
            -0.26582083106040955,
            -0.2133578211069107,
            -0.15075644850730896,
            -0.014496047049760818,
            -0.007301360834389925,
            0.25383731722831726,
            0.005733049474656582,
            -0.18872137367725372,
            -0.1311018317937851,
            0.10524151474237442,
            0.029510904103517532,
            0.10342206060886383,
            0.027996031567454338,
            0.09931198507547379,
            -0.06958850473165512,
            -0.0007537363562732935,
            -0.11763423681259155,
            -0.05520857125520706,
            -0.13201089203357697,
            0.03390170633792877,
            -0.17708508670330048,
            0.2683560252189636,
            0.11814457178115845,
            -0.10123816877603531,
            -0.0493297353386879,
            0.0694093182682991,
            -0.03393026068806648,
            0.015481044538319111,
            0.14116889238357544,
            0.10553224384784698,
            -0.024047154933214188,
            0.151445209980011,
            -0.14888399839401245,
            -0.10304450988769531,
            0.12196100503206253,
            0.17177344858646393,
            0.14552965760231018,
            -0.015456349588930607,
            0.1704125702381134,
            -0.049566060304641724,
            0.07423356175422668,
            -0.1245129331946373,
            -0.09591582417488098,
            -0.16366951167583466,
            0.20755693316459656,
            0.08074457198381424,
            0.07516227662563324,
            -0.10120456665754318,
            -0.01683223620057106,
            0.0272491667419672,
            -0.07187574356794357,
            -0.08505067229270935,
            0.2364637702703476,
            -0.028979076072573662,
            0.06278528273105621,
            0.02991952933371067,
            0.00519388634711504,
            -0.13577444851398468,
            0.0303821824491024,
            -0.027208702638745308,
            -0.02696262300014496,
            -0.15448521077632904,
            -0.11929483711719513,
            -0.1350804716348648,
            0.1575070172548294,
            0.036044005304574966,
            0.1608225554227829,
            0.28786179423332214,
            -0.10394638031721115,
            -0.08036601543426514,
            -0.09466564655303955,
            0.18498137593269348,
            -0.03616797551512718,
            0.09269729256629944,
            -0.009671494364738464,
            -0.046273622661828995,
            -0.1531064510345459,
            -0.06191110983490944,
            0.2501462996006012,
            -0.055722128599882126,
            0.08531318604946136,
            0.12015023827552795,
            0.009809114038944244,
            -0.003231651848182082,
            0.017941245809197426,
            0.001232211128808558,
            0.13994719088077545,
            0.003983710892498493,
            0.019757386296987534,
            -0.0026947129517793655,
            -0.03648935630917549,
            0.08895878493785858,
            -0.31313642859458923,
            -0.2113327980041504,
            -0.1344643533229828,
            -0.1522613912820816,
            -0.1996133178472519,
            0.10643573850393295,
            -0.08927729725837708,
            -0.07232675701379776,
            -0.06722789257764816,
            0.13048069179058075,
            0.1208420991897583,
            0.11882708966732025,
            0.13477875292301178,
            0.03680752217769623,
            -0.007272901479154825,
            0.043161541223526,
            0.06938137859106064,
            0.14682191610336304,
            0.04074731469154358,
            -0.07161512970924377,
            0.013273549266159534,
            -0.19569772481918335,
            0.17866630852222443,
            -0.05064596235752106,
            0.03923414647579193,
            0.10623954236507416,
            -0.0269289780408144,
            -0.08250544965267181,
            -0.11357519775629044,
            -0.0026475954800844193,
            -0.08817113190889359,
            0.05729978531599045,
            -0.07819502055644989,
            -0.1602570116519928,
            0.07146711647510529,
            -0.08510316163301468,
            0.005489017814397812,
            -0.16290970146656036,
            -0.2148822546005249,
            -0.08372648060321808,
            -0.007282082922756672,
            0.03250304237008095,
            -0.07513679563999176,
            0.028972528874874115,
            0.01543006394058466,
            0.15255308151245117,
            -0.14777225255966187,
            0.07662028074264526,
            0.10426883399486542,
            -0.09047435224056244,
            -0.17215274274349213,
            0.13588109612464905,
            0.11733822524547577,
            -0.06643328070640564,
            -0.07704149931669235,
            -0.041018202900886536,
            0.1431492567062378,
            -0.055124592036008835,
            -0.05561515688896179,
            0.1247883290052414,
            -0.0669732391834259,
            0.04608968645334244,
            0.02935623563826084,
            0.06351877748966217,
            -0.09368205815553665,
            -0.2665741443634033,
            -0.07287514209747314,
            -0.2649519443511963,
            0.004510418511927128,
            -0.008519653230905533,
            -0.14305797219276428,
            0.10266458988189697,
            0.12141779810190201,
            -0.0806172639131546,
            0.11605415493249893,
            0.13933560252189636,
            0.007833975367248058,
            0.04161246865987778,
            0.013812384568154812,
            0.0014496567891910672,
            0.08318425714969635,
            -0.09029760211706161,
            -0.08815571665763855,
            0.033352505415678024,
            0.017697563394904137,
            -0.01840433105826378,
            -0.10189782083034515,
            -0.0984298586845398,
            0.15555348992347717,
            0.15358911454677582,
            0.08778021484613419,
            -0.07025708258152008,
            -0.005401277914643288,
            0.0990670844912529,
            -0.12880539894104004,
            0.014441127888858318,
            -0.0018344670534133911,
            -0.051231227815151215,
            -0.09412790834903717,
            0.08703236281871796,
            0.06221899390220642,
            0.040274977684020996,
            -0.23097003996372223,
            0.046684183180332184,
            0.12324291467666626,
            0.00028466799994930625,
            0.052680470049381256,
            0.04711022973060608,
            0.01479334942996502,
            0.16580310463905334,
            -0.005610968917608261,
            -0.013469396159052849,
            0.11092253774404526,
            0.1526719182729721,
            -0.0971178263425827,
            0.14591659605503082,
            0.03581095114350319,
            0.12782254815101624,
            0.07055407762527466,
            0.038017597049474716,
            0.04562179371714592,
            0.12795309722423553,
            0.15613345801830292,
            -0.06988224387168884,
            0.001001186203211546,
            -0.01008494384586811,
            -0.03590172156691551,
            -0.05350835993885994,
            -0.011008837260305882,
            0.05779479444026947,
            0.09464524686336517,
            -0.07590842992067337,
            -0.1041259840130806,
            -0.11551045626401901,
            -0.029791973531246185,
            0.11614897102117538,
            -0.033426880836486816,
            -0.05217316001653671,
            0.06333552300930023,
            -0.009043595753610134,
            0.08306428790092468,
            0.09351097792387009,
            -0.015540148131549358
        ]
    },
    "discriminator": {
        "num_inputs": 28,
        "num_outputs": 1,
        "num_hidden_layers": 1,
        "neurons_per_hidden_layer": 64,
        "hidden_layer_activation_function": "relu",
        "final_layer_activation_function": "sigmoid",
        "bias": true,
        "weights": [
            0.07453316450119019,
            0.14119389653205872,
            -0.12576702237129211,
            -0.09733884781599045,
            -0.04099311679601669,
            -0.31849274039268494,
            0.21541418135166168,
            0.21721220016479492,
            -0.19459237158298492,
            -0.25128456950187683,
            -0.27197006344795227,
            -0.1825580894947052,
            -0.011951635591685772,
            0.0020748034585267305,
            -0.2318149358034134,
            0.19069823622703552,
            0.0769207701086998,
            0.10875580459833145,
            0.2607989013195038,
            0.14117375016212463,
            0.022733839228749275,
            -0.1036917045712471,
            -0.02932526357471943,
            -0.13320812582969666,
            -0.21722722053527832,
            -0.04438292235136032,
            -0.249637633562088,
            -0.165989488363266,
            -0.02368824928998947,
            0.24704645574092865,
            0.042991284281015396,
            -0.05746593698859215,
            -0.255478173494339,
            -0.05306035280227661,
            -0.18604204058647156,
            0.20723703503608704,
            0.1552233248949051,
            -0.13992378115653992,
            0.3482063114643097,
            -0.24106043577194214,
            -0.0058195446617901325,
            -0.1465696394443512,
            0.17810049653053284,
            0.011174271814525127,
            0.05706281214952469,
            0.11645568162202835,
            -0.0836382731795311,
            0.17708386480808258,
            0.1281375288963318,
            -0.2852019965648651,
            -0.006385247688740492,
            0.11036623269319534,
            -0.05855606496334076,
            -0.1549481898546219,
            0.19278033077716827,
            -0.0006955658900551498,
            -0.05633458122611046,
            0.009740915149450302,
            0.260033518075943,
            -0.32517358660697937,
            0.03970925137400627,
            0.13620829582214355,
            -0.1614067554473877,
            0.16711080074310303,
            0.03484383225440979,
            -0.44611918926239014,
            -0.12652470171451569,
            0.12629030644893646,
            -0.23423804342746735,
            0.14593505859375,
            0.35302087664604187,
            -0.03320741653442383,
            0.07520125061273575,
            -0.17302507162094116,
            0.14407657086849213,
            -0.12246248871088028,
            0.3991479277610779,
            0.041949983686208725,
            -0.11392296105623245,
            0.008350561372935772,
            0.18509869277477264,
            -0.12365759164094925,
            0.09887722879648209,
            -0.03445446863770485,
            0.12794828414916992,
            -0.1089315116405487,
            0.10065171867609024,
            -0.24941863119602203,
            0.3322422206401825,
            0.27485325932502747,
            0.3678428828716278,
            -0.2093009352684021,
            -0.20325614511966705,
            0.10032155364751816,
            -0.08014284074306488,
            -0.13458624482154846,
            0.22745643556118011,
            0.002828911179676652,
            0.05054090544581413,
            -0.248159721493721,
            0.11283116042613983,
            0.23055757582187653,
            0.03567403182387352,
            -0.08543605357408524,
            0.1388813704252243,
            0.13384315371513367,
            -0.24486732482910156,
            0.34601902961730957,
            0.15711113810539246,
            0.07469164580106735,
            -0.20028364658355713,
            -0.06124957278370857,
            0.07324880361557007,
            0.015913227573037148,
            0.1843489408493042,
            0.02996787615120411,
            0.2882438898086548,
            0.21273601055145264,
            -0.06993281841278076,
            0.31769803166389465,
            -0.0442015677690506,
            -0.09397780895233154,
            -0.030132802203297615,
            0.024645263329148293,
            -0.054182276129722595,
            -0.14829565584659576,
            -0.0654534175992012,
            0.08862164616584778,
            0.2813417911529541,
            0.049313999712467194,
            0.20724406838417053,
            -0.3479432463645935,
            -0.0138902822509408,
            0.04446687549352646,
            0.5406906008720398,
            -0.2295445203781128,
            -0.3087623715400696,
            -0.022770892828702927,
            0.07586576789617538,
            0.26680174469947815,
            -0.23222753405570984,
            -0.10802268981933594,
            0.2374238818883896,
            -0.2835395038127899,
            0.32074540853500366,
            0.29191380739212036,
            0.23950424790382385,
            0.12568822503089905,
            0.3177901804447174,
            -0.03462414816021919,
            0.10945945978164673,
            0.08722802996635437,
            0.28135329484939575,
            -0.4127931594848633,
            -0.04806576296687126,
            0.03898458555340767,
            0.28692013025283813,
            0.10270341485738754,
            -0.04232296347618103,
            0.062062788754701614,
            0.3495055139064789,
            -0.015683429315686226,
            0.053215183317661285,
            0.1719585359096527,
            -0.2974812984466553,
            0.0717359110713005,
            0.22607532143592834,
            -0.17488865554332733,
            -0.2669665515422821,
            -0.23790833353996277,
            0.2776685059070587,
            -0.33637934923171997,
            -0.0001895996101666242,
            -0.21009942889213562,
            -0.2983066141605377,
            0.42455413937568665,
            0.1407686173915863,
            0.08350826799869537,
            -0.23662912845611572,
            -0.18905164301395416,
            -0.0243578739464283,
            0.05508045479655266,
            -0.34386590123176575,
            -0.12439289689064026,
            -0.03357450291514397,
            -0.09686239063739777,
            -0.22027748823165894,
            0.15124744176864624,
            0.048676472157239914,
            0.0652594342827797,
            -0.03994552046060562,
            -0.09505099803209305,
            -0.32373082637786865,
            0.17795640230178833,
            -0.022065071389079094,
            -0.24004845321178436,
            -0.20422838628292084,
            0.06328883022069931,
            0.13296130299568176,
            0.2249116599559784,
            -0.01405115332454443,
            0.06306775659322739,
            0.12806154787540436,
            0.05057616904377937,
            -0.09856032580137253,
            -0.16874589025974274,
            -0.3359599709510803,
            -0.1785845309495926,
            -0.39388585090637207,
            0.05647185817360878,
            0.38363176584243774,
            -0.04272986203432083,
            0.1253722906112671,
            -0.02213149331510067,
            0.17205412685871124,
            -0.26559722423553467,
            -0.16842103004455566,
            -0.0022118925116956234,
            -0.20711271464824677,
            0.11389491707086563,
            -0.22254782915115356,
            -0.1837020367383957,
            0.22697527706623077,
            0.016286933794617653,
            0.14258117973804474,
            -0.11852625757455826,
            0.23995302617549896,
            -0.010460468009114265,
            -0.2311464548110962,
            0.3009248673915863,
            -0.07641126960515976,
            0.05558101087808609,
            -0.2343595325946808,
            0.06703893095254898,
            -0.03327106311917305,
            0.024984607473015785,
            -0.34171226620674133,
            0.022612223401665688,
            -0.11241212487220764,
            0.2786809504032135,
            -0.03623974695801735,
            0.018667418509721756,
            0.05806896835565567,
            0.20553690195083618,
            0.10994265228509903,
            -0.0759204775094986,
            -0.12971022725105286,
            0.13036943972110748,
            -0.3663959503173828,
            0.08116097003221512,
            -0.12038696557283401,
            0.4584759771823883,
            -0.038636915385723114,
            -0.06917014718055725,
            0.0401371531188488,
            -0.19838039577007294,
            0.14874866604804993,
            0.2196887731552124,
            0.11829297244548798,
            0.014690152369439602,
            -0.20743027329444885,
            -0.16288156807422638,
            0.03018503077328205,
            0.03705233708024025,
            -0.25359392166137695,
            0.017601240426301956,
            0.19676432013511658,
            -0.1502077281475067,
            -0.004651909694075584,
            0.097537562251091,
            -0.024142621085047722,
            0.08474971354007721,
            -0.11593114584684372,
            -0.13271686434745789,
            -0.21566052734851837,
            0.4387860894203186,
            0.08823436498641968,
            0.16458430886268616,
            0.0990327000617981,
            -0.27796655893325806,
            0.07656797766685486,
            -0.005981271620839834,
            -0.17075003683567047,
            0.030200503766536713,
            -0.14024832844734192,
            0.5435124635696411,
            -0.2323233187198639,
            0.06920548528432846,
            -0.26258739829063416,
            -0.176696315407753,
            0.2291494458913803,
            0.04410601407289505,
            -0.0821937844157219,
            0.2590582072734833,
            -0.013333532959222794,
            -0.00488326046615839,
            -0.10609210282564163,
            0.266219824552536,
            -0.06928517669439316,
            0.12686726450920105,
            0.03889915719628334,
            -0.041344910860061646,
            0.079640232026577,
            0.05707193538546562,
            0.33272314071655273,
            -0.14662772417068481,
            0.02326294034719467,
            -0.4555051326751709,
            0.16212287545204163,
            -0.06360293924808502,
            -0.012476243078708649,
            0.0606500618159771,
            -0.31332311034202576,
            -0.3101925253868103,
            0.15665553510189056,
            -0.020319951698184013,
            -0.24777555465698242,
            0.23033662140369415,
            -0.03318564593791962,
            0.16208578646183014,
            -0.0735282301902771,
            -0.11936908960342407,
            0.13153210282325745,
            -0.04413703829050064,
            0.30303215980529785,
            0.21187284588813782,
            -0.190712571144104,
            0.13751427829265594,
            0.10361134260892868,
            -0.19595441222190857,
            -0.022733286023139954,
            0.043778445571660995,
            0.1942865252494812,
            0.07834591716527939,
            0.12705549597740173,
            -0.11374782770872116,
            0.029398662969470024,
            -0.07964850962162018,
            -0.018683934584259987,
            0.1813732236623764,
            0.05331147462129593,
            0.3734986484050751,
            -0.1754077523946762,
            -0.02296069823205471,
            -0.1530313789844513,
            0.1163528710603714,
            -0.08632355183362961,
            -0.34104394912719727,
            -0.06364002078771591,
            0.3631708323955536,
            -0.10007361322641373,
            0.020490996539592743,
            0.24635197222232819,
            -0.14895577728748322,
            -0.10179165750741959,
            -0.2064507007598877,
            -0.01726442761719227,
            -0.04289703071117401,
            -0.23935894668102264,
            -0.25837409496307373,
            -0.21722574532032013,
            -0.053335610777139664,
            0.1678878217935562,
            0.02983075939118862,
            0.22182506322860718,
            0.0038741002790629864,
            -0.1640031486749649,
            -0.18476302921772003,
            0.28978222608566284,
            0.17898409068584442,
            0.034721143543720245,
            -0.21900849044322968,
            -0.09574202448129654,
            0.1762830764055252,
            0.13285912573337555,
            -0.5158042907714844,
            -0.1524847447872162,
            -0.013445263728499413,
            -0.2656535804271698,
            0.16076520085334778,
            -0.020343642681837082,
            0.17399868369102478,
            0.11028548330068588,
            0.02464609593153,
            -0.04800745099782944,
            0.30854663252830505,
            0.10677406936883926,
            0.20012308657169342,
            0.06300777941942215,
            0.020635852590203285,
            0.13515831530094147,
            0.14379538595676422,
            -0.12140187621116638,
            -0.21594451367855072,
            -0.103022001683712,
            -0.1563701033592224,
            0.04831743240356445,
            0.10687115043401718,
            0.17820505797863007,
            0.23078736662864685,
            0.10808758437633514,
            -0.029219573363661766,
            -0.011639414355158806,
            -0.1991780549287796,
            -0.3454887568950653,
            -0.33271265029907227,
            0.31853342056274414,
            -0.16342954337596893,
            0.0078887939453125,
            0.0851997435092926,
            -0.035821713507175446,
            0.004160467069596052,
            -0.2416609823703766,
            0.1682402789592743,
            0.2546067237854004,
            -0.12292841076850891,
            -0.18537598848342896,
            0.10845276713371277,
            -0.09826663136482239,
            0.026843920350074768,
            0.10529427975416183,
            -0.13616430759429932,
            -0.08745817840099335,
            -0.013546187430620193,
            -0.08544690907001495,
            0.247303768992424,
            0.06398984789848328,
            -0.004101386293768883,
            0.03310571238398552,
            -0.3423905372619629,
            0.23763859272003174,
            -0.18638598918914795,
            0.18195609748363495,
            -0.6146070957183838,
            0.0987771674990654,
            0.15826939046382904,
            -0.23960155248641968,
            0.17424322664737701,
            0.07571713626384735,
            0.04504761844873428,
            -0.14903010427951813,
            -0.07845260947942734,
            0.24718765914440155,
            0.007402485236525536,
            -0.03838815912604332,
            0.16287682950496674,
            0.4305616319179535,
            0.0784459337592125,
            -0.2670970857143402,
            -0.11102449148893356,
            0.05838531628251076,
            -0.33939072489738464,
            0.2105494737625122,
            -0.2078762799501419,
            0.12202819436788559,
            0.024066636338829994,
            -0.06360971182584763,
            0.06015472114086151,
            -0.06023220717906952,
            -0.13644811511039734,
            -0.3365194797515869,
            0.29275235533714294,
            -0.07375551760196686,
            0.02058148942887783,
            0.32024872303009033,
            0.09583605080842972,
            0.3558925986289978,
            0.18272055685520172,
            -0.11864694207906723,
            0.09794577956199646,
            -0.10304185748100281,
            -0.04194473847746849,
            0.12143530696630478,
            -0.025339119136333466,
            -0.026687491685152054,
            -0.10608929395675659,
            0.14253965020179749,
            -0.3107115626335144,
            -0.14836949110031128,
            0.04926512390375137,
            -0.21877989172935486,
            -0.21344326436519623,
            0.2911034822463989,
            0.23055173456668854,
            0.11982020735740662,
            0.26842692494392395,
            -0.023599842563271523,
            -0.07968094944953918,
            0.22147896885871887,
            0.11368066072463989,
            -0.3706273138523102,
            0.021056897938251495,
            -0.028380535542964935,
            0.1080349013209343,
            0.07279366999864578,
            0.15538518130779266,
            -0.45574527978897095,
            -0.044988855719566345,
            0.009980978444218636,
            -0.04819437861442566,
            0.018471330404281616,
            -0.1192517802119255,
            -0.037889815866947174,
            -0.17045210301876068,
            0.10261917859315872,
            0.03544864431023598,
            -4.135347262490541e-05,
            0.20169255137443542,
            0.2247009128332138,
            0.32977110147476196,
            -0.15538205206394196,
            0.19297915697097778,
            -0.15017515420913696,
            -0.009117666631937027,
            0.35246530175209045,
            -0.08679725229740143,
            -0.0327284038066864,
            -0.1812565177679062,
            0.10435067117214203,
            -0.05111221596598625,
            0.058817628771066666,
            -0.20774352550506592,
            0.08045636117458344,
            -0.07996512949466705,
            -0.1298997551202774,
            0.09779646247625351,
            -0.17189359664916992,
            -0.16663998365402222,
            0.30727171897888184,
            0.1441289484500885,
            0.0038289492949843407,
            -0.13614504039287567,
            -0.07775583118200302,
            0.016414377838373184,
            0.02670477144420147,
            0.06957452744245529,
            0.03537583723664284,
            0.20635442435741425,
            -0.019791778177022934,
            -0.405465304851532,
            0.029605861753225327,
            -0.14410623908042908,
            0.384509414434433,
            -0.04560314118862152,
            -0.09718655049800873,
            -0.34492596983909607,
            0.010494615882635117,
            0.1963430941104889,
            0.12237412482500076,
            -0.04974987357854843,
            0.14942775666713715,
            -0.1676216572523117,
            -0.14399974048137665,
            0.11965726315975189,
            0.050193678587675095,
            0.24780501425266266,
            -0.060619715601205826,
            -0.10098356753587723,
            -0.17214041948318481,
            0.056257463991642,
            0.17138665914535522,
            -0.003707591211423278,
            -0.07638084143400192,
            0.11307679861783981,
            0.18841059505939484,
            0.2978355288505554,
            0.28729310631752014,
            -0.161222904920578,
            -0.3701254427433014,
            -0.06950048357248306,
            -0.7494921684265137,
            -0.04738606885075569,
            0.050837837159633636,
            -0.23136647045612335,
            0.1910703182220459,
            -0.23014158010482788,
            -0.11928199231624603,
            0.1593366116285324,
            -0.13250130414962769,
            -0.05940350890159607,
            -0.12690693140029907,
            -0.23091058433055878,
            0.1206832304596901,
            0.15453220903873444,
            0.03599463030695915,
            -0.2696344554424286,
            -0.2998177409172058,
            0.11215778440237045,
            -0.09786685556173325,
            -0.062163952738046646,
            -0.24034203588962555,
            -0.30451369285583496,
            -0.05019849166274071,
            0.15787597000598907,
            0.14387468993663788,
            0.3037560284137726,
            -0.2683899998664856,
            0.25698423385620117,
            0.029138952493667603,
            -0.3356386423110962,
            -0.07919494807720184,
            -0.07703713327646255,
            -0.1635444611310959,
            -0.35028693079948425,
            0.14499947428703308,
            -0.07786304503679276,
            0.25376492738723755,
            0.01719868928194046,
            0.08387653529644012,
            -0.22072558104991913,
            -0.04648784548044205,
            -0.08731137961149216,
            -0.0874473825097084,
            0.06312581151723862,
            0.0879070833325386,
            -0.12676329910755157,
            -0.024108175188302994,
            -0.049407992511987686,
            0.04611970856785774,
            -0.021218126639723778,
            -0.053567297756671906,
            0.011696213856339455,
            -0.04883190616965294,
            0.2150832712650299,
            0.266177773475647,
            -0.14155885577201843,
            -0.22977618873119354,
            -0.09925805777311325,
            -0.3475490212440491,
            -0.3364177346229553,
            -0.1537768840789795,
            0.34825822710990906,
            -0.027440890669822693,
            -0.08063852041959763,
            0.03836444020271301,
            0.31594187021255493,
            -0.4085395932197571,
            0.04850710183382034,
            0.17416569590568542,
            -0.36475345492362976,
            0.22107847034931183,
            0.2743171453475952,
            0.10796045511960983,
            0.19363923370838165,
            -0.20638889074325562,
            0.16548505425453186,
            0.03593990579247475,
            0.08526728302240372,
            -0.10308468341827393,
            -0.10846211016178131,
            0.3024868667125702,
            0.13447272777557373,
            -0.19889822602272034,
            -0.01816878467798233,
            0.14392618834972382,
            -0.15344403684139252,
            0.0273888036608696,
            0.001058668363839388,
            -0.02727068029344082,
            0.09436514228582382,
            0.011621646583080292,
            0.03296609967947006,
            -0.04307068884372711,
            -0.4313772916793823,
            -0.04521739482879639,
            0.037214506417512894,
            -0.21883663535118103,
            0.08821474760770798,
            0.08129145205020905,
            -0.11122255027294159,
            0.28149089217185974,
            -0.1426866501569748,
            -0.05652376264333725,
            0.04162464663386345,
            0.03199275955557823,
            -0.18689419329166412,
            0.28926166892051697,
            0.014342193491756916,
            0.44403597712516785,
            0.11152146756649017,
            0.1851293295621872,
            -0.23485073447227478,
            0.04032140597701073,
            0.23764441907405853,
            0.07860212028026581,
            -0.4075336456298828,
            0.049244947731494904,
            0.03481927141547203,
            0.09876050055027008,
            -0.007636034395545721,
            -0.10849256068468094,
            0.26629722118377686,
            0.2058979570865631,
            0.20559419691562653,
            -0.02877071686089039,
            -0.44352367520332336,
            -0.06130404397845268,
            0.18981149792671204,
            -0.10906749218702316,
            -0.00827673077583313,
            -0.20388931035995483,
            0.020259492099285126,
            -0.04624917358160019,
            0.1821867674589157,
            0.04327348247170448,
            -0.11727992445230484,
            0.07698433101177216,
            0.13888485729694366,
            0.6217240691184998,
            0.07221272587776184,
            -0.13491320610046387,
            -0.14805608987808228,
            -0.19739998877048492,
            -0.41035136580467224,
            0.09012916684150696,
            0.10374779254198074,
            -0.08318378031253815,
            0.02921474538743496,
            -0.1416061520576477,
            0.09746035933494568,
            -0.05141855776309967,
            -0.22519229352474213,
            -0.1528519093990326,
            0.196772962808609,
            -0.2043260633945465,
            0.3008492887020111,
            0.27016276121139526,
            0.14174124598503113,
            0.07381986826658249,
            -0.23583489656448364,
            0.21128053963184357,
            0.08016587048768997,
            0.33544501662254333,
            0.21411028504371643,
            -0.04453744739294052,
            -0.18419447541236877,
            0.2120998352766037,
            0.13495886325836182,
            -0.10779091715812683,
            -0.19990786910057068,
            -0.009477585554122925,
            0.24523651599884033,
            0.27582165598869324,
            -0.08788321167230606,
            -0.0794704332947731,
            0.06808607280254364,
            -0.17946121096611023,
            -0.062034837901592255,
            0.23492956161499023,
            -0.028149938210844994,
            -0.22684089839458466,
            -0.1533350944519043,
            0.09482091665267944,
            -0.1113109141588211,
            0.14322324097156525,
            0.10340556502342224,
            -0.10231717675924301,
            0.14000144600868225,
            -0.23908118903636932,
            0.11634381860494614,
            0.18560101091861725,
            0.1037738025188446,
            0.3840946853160858,
            -0.10464842617511749,
            0.03229476884007454,
            -0.07061123102903366,
            -0.07447604835033417,
            0.15053924918174744,
            0.347272664308548,
            0.28196901082992554,
            -0.1699165552854538,
            0.191543847322464,
            0.12375753372907639,
            0.30674150586128235,
            -0.010241818614304066,
            0.04834119230508804,
            -0.030727116391062737,
            -0.13294054567813873,
            -0.10488172620534897,
            0.21280403435230255,
            -0.013071161694824696,
            -0.04009008780121803,
            -0.03473762050271034,
            0.1904718428850174,
            0.23590624332427979,
            -0.1366879791021347,
            0.15209540724754333,
            -0.052470579743385315,
            0.02375457063317299,
            -0.03661438822746277,
            0.10332052409648895,
            0.07000058889389038,
            -0.006263440009206533,
            -0.07059880346059799,
            0.15008534491062164,
            -0.023395288735628128,
            0.2607692778110504,
            0.13464821875095367,
            0.09894461929798126,
            -0.06553014367818832,
            -0.1567370593547821,
            -0.3215496242046356,
            -0.10540074110031128,
            0.18923133611679077,
            0.07730685919523239,
            0.01993671990931034,
            0.06983830779790878,
            0.14562027156352997,
            -0.0785708948969841,
            0.043514858931303024,
            0.08884043246507645,
            -0.10327217727899551,
            -0.20042942464351654,
            -0.22108419239521027,
            -0.11733488738536835,
            0.04535576328635216,
            -0.0339755043387413,
            0.1860843151807785,
            0.16021284461021423,
            0.23639215528964996,
            0.06499247997999191,
            0.14346614480018616,
            -0.13984577357769012,
            0.1726006716489792,
            -0.13605475425720215,
            0.13708385825157166,
            -0.10444612801074982,
            -0.012294556014239788,
            -0.08106283843517303,
            -0.11861982941627502,
            0.2341168373823166,
            0.223527193069458,
            0.0052956631407141685,
            -0.182579904794693,
            -0.25614070892333984,
            -0.0527547150850296,
            -0.2223692238330841,
            0.012107530608773232,
            -0.326957106590271,
            0.0699382796883583,
            0.08181419223546982,
            0.11916190385818481,
            0.03127538785338402,
            0.08243416249752045,
            0.24769020080566406,
            0.0426444411277771,
            -0.054958976805210114,
            -0.12233025580644608,
            -0.034402862191200256,
            0.1459037959575653,
            0.06382326036691666,
            -0.13020507991313934,
            0.07251786440610886,
            -0.10943446308374405,
            0.05005894601345062,
            -0.004889017902314663,
            -0.2165222316980362,
            -0.2000478357076645,
            -0.20657575130462646,
            -0.21918070316314697,
            0.07891027629375458,
            0.044626377522945404,
            0.09564216434955597,
            -0.11856967210769653,
            0.21049410104751587,
            -0.25826868414878845,
            -0.03259528428316116,
            0.1520392745733261,
            0.11127651482820511,
            0.01770378090441227,
            -0.03452521935105324,
            -0.11509764194488525,
            -0.12186653912067413,
            0.11060760170221329,
            0.03559506684541702,
            -0.04818104952573776,
            -0.03966505825519562,
            -0.008753251284360886,
            -0.08527360111474991,
            -0.07762911915779114,
            0.27788007259368896,
            -0.26068341732025146,
            -0.07175833731889725,
            -0.032131269574165344,
            0.27239882946014404,
            -0.04630906507372856,
            -0.036598630249500275,
            0.008065108209848404,
            -0.09402883052825928,
            0.006497406400740147,
            -0.2844737768173218,
            -0.01622007228434086,
            0.15754617750644684,
            0.26390260457992554,
            0.23716947436332703,
            -0.18004272878170013,
            0.0373835414648056,
            -0.0357368178665638,
            -0.19381138682365417,
            -0.14334096014499664,
            0.2132851630449295,
            0.08236254006624222,
            -0.07311834394931793,
            0.001813399838283658,
            0.11197322607040405,
            0.05466235801577568,
            -0.21892769634723663,
            0.19887715578079224,
            -0.1318662017583847,
            -0.4260202646255493,
            -0.20345215499401093,
            0.28152525424957275,
            -0.0802408754825592,
            0.01420034933835268,
            -0.03219896927475929,
            0.09866232424974442,
            -0.1152915209531784,
            -0.3172706663608551,
            -0.0640476867556572,
            0.14060281217098236,
            -0.10036052763462067,
            0.22153018414974213,
            0.13026638329029083,
            0.056424859911203384,
            -0.15458257496356964,
            0.11796536296606064,
            -0.03777557238936424,
            -0.04461948946118355,
            0.007587839849293232,
            -0.16492009162902832,
            -0.3082386255264282,
            0.16718798875808716,
            0.501492440700531,
            0.38366949558258057,
            -0.040265850722789764,
            -0.3162328600883484,
            -0.06775321811437607,
            0.12406226247549057,
            -0.14001381397247314,
            0.3964218199253082,
            -0.18646064400672913,
            0.052055563777685165,
            0.03203710913658142,
            -0.1251825988292694,
            -0.05763678997755051,
            0.19195868074893951,
            -0.20782484114170074,
            -0.02369302324950695,
            -0.05220258980989456,
            -0.0529387891292572,
            -0.11138524115085602,
            0.22709104418754578,
            -0.05812826752662659,
            -0.03703208267688751,
            -0.1062169298529625,
            -0.23066243529319763,
            -0.034407828003168106,
            0.34481966495513916,
            0.1621587872505188,
            -0.1419280618429184,
            -0.03398357331752777,
            0.12848766148090363,
            -0.28366169333457947,
            -0.009491195902228355,
            -0.2879849970340729,
            -0.133652001619339,
            0.17185743153095245,
            -0.2560952305793762,
            0.11837009340524673,
            0.17352251708507538,
            0.1475551426410675,
            -0.15109732747077942,
            0.46519315242767334,
            -0.36450982093811035,
            0.6993825435638428,
            -0.33268511295318604,
            0.2093915194272995,
            -0.03345886245369911,
            -0.09043576568365097,
            0.061389535665512085,
            0.01062799897044897,
            -0.14630332589149475,
            0.46298515796661377,
            -0.038377970457077026,
            -0.040371138602495193,
            0.00801854021847248,
            -0.30815374851226807,
            -0.12101460248231888,
            0.05776159092783928,
            -0.4236414432525635,
            -0.1713450402021408,
            -0.14772124588489532,
            -0.13472233712673187,
            -0.1965155154466629,
            -0.3386589288711548,
            -0.10274358838796616,
            -0.16243015229701996,
            -0.24291455745697021,
            -0.0652039498090744,
            0.06355232745409012,
            -0.20265492796897888,
            0.11014529317617416,
            0.17835938930511475,
            -0.02132212184369564,
            0.05604652315378189,
