{
    "num_epochs": 10000,
    "batch_size": 64,
    "final_g_loss": 3.1314449310302734,
    "final_d_loss": 0.2072465866804123,
    "generator_learning_rate": 0.0002,
    "discriminator_learning_rate": 0.0005,
    "train_data_exp_dir_path": [
        "/app/data/fl_configs/fl_train_data/goal_pos_1_2",
        "/app/data/fl_configs/fl_train_data/goal_pos_3_2",
        "/app/data/fl_configs/fl_train_data/goal_pos_3_3"
    ],
    "generator": {
        "num_inputs": 3,
        "num_outputs": 28,
        "num_hidden_layers": 1,
        "neurons_per_hidden_layer": 64,
        "hidden_layer_activation_function": "relu",
        "final_layer_activation_function": null,
        "bias": true,
        "weights": [
            -0.6568533182144165,
            -0.3018023669719696,
            0.36687207221984863,
            0.1115020290017128,
            -0.5525668263435364,
            1.105356216430664,
            0.29059988260269165,
            -0.4558447301387787,
            1.532932162284851,
            1.4430429935455322,
            0.813720166683197,
            0.785552978515625,
            0.010029187425971031,
            -0.5545864701271057,
            0.9124957919120789,
            0.23387791216373444,
            -0.7130087018013,
            0.9703068733215332,
            -0.19637614488601685,
            -1.154983401298523,
            0.9543653130531311,
            0.934435248374939,
            0.7080827951431274,
            0.9572719931602478,
            -0.14737288653850555,
            -0.9477104544639587,
            1.1750880479812622,
            0.7688382267951965,
            -0.9645844101905823,
            0.012759711593389511,
            0.42731431126594543,
            -0.37737131118774414,
            0.7775433659553528,
            0.2677367031574249,
            -0.36580806970596313,
            0.318105548620224,
            -1.2863937616348267,
            1.1377911567687988,
            -0.1876639425754547,
            -0.0567513145506382,
            -1.2700846195220947,
            -0.49049514532089233,
            0.09847570210695267,
            -0.7904582619667053,
            0.47441354393959045,
            1.317753553390503,
            0.613633394241333,
            -0.5718560814857483,
            0.2772919237613678,
            -1.3247365951538086,
            1.4377354383468628,
            1.5561579465866089,
            -0.273655503988266,
            0.05702219903469086,
            -0.8147058486938477,
            0.10120085626840591,
            1.512939214706421,
            -1.3812803030014038,
            -0.2590687572956085,
            -0.6748234629631042,
            0.08040916174650192,
            -0.2944297790527344,
            0.6116098761558533,
            1.0093220472335815,
            -0.7041867971420288,
            0.3696337044239044,
            0.7722487449645996,
            -0.05529242753982544,
            0.7896649241447449,
            -0.6198199987411499,
            -0.35634633898735046,
            0.6368211507797241,
            -0.9199895262718201,
            -0.9762110710144043,
            0.0018055831314995885,
            1.1201658248901367,
            0.9107570052146912,
            1.2558115720748901,
            -1.2619649171829224,
            -0.0621589794754982,
            0.1461201161146164,
            0.5789269804954529,
            -0.2378738820552826,
            1.521822214126587,
            1.0039045810699463,
            -0.20181728899478912,
            0.477164626121521,
            1.098784327507019,
            -0.04388469457626343,
            0.8420925140380859,
            1.155583381652832,
            -0.6840239763259888,
            0.6110337972640991,
            0.30963942408561707,
            -0.5495185256004333,
            0.7741319537162781,
            -0.36093610525131226,
            1.1196144819259644,
            -0.7133322358131409,
            -0.2214358001947403,
            -1.1258575916290283,
            0.8576439619064331,
            1.2985870838165283,
            0.951029896736145,
            -0.1427030861377716,
            -0.017670288681983948,
            -1.4439157247543335,
            0.058482617139816284,
            -1.3106809854507446,
            0.877764880657196,
            -0.22324331104755402,
            -1.4675161838531494,
            0.6558610796928406,
            0.006665202789008617,
            0.28128954768180847,
            -0.4697232246398926,
            -0.6026761531829834,
            0.6505333185195923,
            -0.7825825810432434,
            0.5992662310600281,
            0.5160233378410339,
            -1.2648741006851196,
            -0.325408399105072,
            0.1957569420337677,
            -0.137278750538826,
            1.1999858617782593,
            0.12766045331954956,
            -0.983710527420044,
            1.006481647491455,
            1.271034836769104,
            -0.09104498475790024,
            0.7777746319770813,
            -0.2790801227092743,
            -1.0287095308303833,
            -0.1259474903345108,
            0.11345250904560089,
            -0.3203755021095276,
            0.6334343552589417,
            1.0101845264434814,
            -0.9932147264480591,
            1.0107156038284302,
            0.6067927479743958,
            -0.7387108206748962,
            1.0889662504196167,
            0.3593854606151581,
            -0.057944197207689285,
            -0.8947639465332031,
            1.2652875185012817,
            0.0868692621588707,
            0.07105723023414612,
            0.7941222190856934,
            -0.8538850545883179,
            0.8161159753799438,
            -0.575269341468811,
            -0.2427697777748108,
            1.2666337490081787,
            0.09689455479383469,
            -1.1406400203704834,
            0.9475892782211304,
            -0.4500444829463959,
            0.26822996139526367,
            1.4253835678100586,
            0.6746339201927185,
            -1.3639577627182007,
            -0.1273672878742218,
            -0.5341440439224243,
            -0.9878947138786316,
            -0.253848135471344,
            0.8805171251296997,
            -0.37149423360824585,
            -0.05439654737710953,
            0.2957753837108612,
            -0.5565587282180786,
            0.6724545359611511,
            0.46886783838272095,
            -1.133723497390747,
            0.21807120740413666,
            0.5720222592353821,
            0.14140789210796356,
            0.7202719449996948,
            -1.053091049194336,
            -0.5212641358375549,
            1.5423564910888672,
            0.47975802421569824,
            -0.4877625107765198,
            1.2188184261322021,
            -0.6939087510108948,
            0.8731066584587097,
            1.012431263923645,
            -0.7356755137443542,
            0.34126710891723633,
            1.7130424976348877,
            0.9584543108940125,
            0.0026682864408940077,
            0.0948256328701973,
            0.8950968384742737,
            0.5658863186836243,
            0.8306784629821777,
            0.24990755319595337,
            0.32146960496902466,
            0.4045976996421814,
            1.0955027341842651,
            1.0012377500534058,
            0.8244815468788147,
            1.2008050680160522,
            0.7886139154434204,
            0.7479302287101746,
            0.3470097482204437,
            -0.1371210366487503,
            0.3495718240737915,
            0.19842782616615295,
            0.6278300285339355,
            0.8088667988777161,
            0.6181173324584961,
            0.09935060888528824,
            0.42372772097587585,
            0.34201115369796753,
            0.919514536857605,
            0.15035603940486908,
            0.22574417293071747,
            0.7378626465797424,
            0.7186425924301147,
            0.4230358600616455,
            0.8433274626731873,
            0.989668607711792,
            0.5806836485862732,
            1.3914941549301147,
            0.4476708471775055,
            0.6922633647918701,
            0.9641821384429932,
            1.1019436120986938,
            0.28637629747390747,
            0.3076212704181671,
            0.13455037772655487,
            0.5389631986618042,
            0.020033961161971092,
            -0.018287204205989838,
            0.7834043502807617,
            0.19462476670742035,
            0.2593536078929901,
            0.8044110536575317,
            1.3190985918045044,
            0.3652367889881134,
            0.10922253876924515,
            0.030449528247117996,
            0.8897713422775269,
            0.2681433856487274,
            1.1797584295272827,
            0.41696134209632874,
            0.579658031463623,
            0.7735816240310669,
            0.12596365809440613,
            0.2309616655111313,
            -0.16427232325077057,
            1.2652939558029175,
            0.57750004529953,
            -0.2745124399662018,
            -0.02954958565533161,
            0.07359787821769714,
            0.03248564153909683,
            0.20995976030826569,
            -0.00567223783582449,
            0.03290342912077904,
            0.14682209491729736,
            -0.013954580761492252,
            -0.11290208250284195,
            0.00941055454313755,
            -0.09970118850469589,
            -0.09265543520450592,
            0.14030613005161285,
            -0.03404848277568817,
            0.1333635300397873,
            -0.07324030250310898,
            0.05008094012737274,
            -0.057732537388801575,
            -0.06810254603624344,
            -0.11992187798023224,
            -0.20128563046455383,
            -0.2733709216117859,
            -0.08987464010715485,
            0.04573111608624458,
            0.03019925206899643,
            -0.3396458923816681,
            0.13397295773029327,
            -0.007963621988892555,
            -0.013620011508464813,
            -0.06652849912643433,
            -0.07627827674150467,
            0.04490137845277786,
            -0.058341506868600845,
            -0.0021801444236189127,
            0.12120670825242996,
            0.048475999385118484,
            0.025701088830828667,
            0.09854020923376083,
            -0.1363571584224701,
            -0.21599893271923065,
            0.18553568422794342,
            0.1496293842792511,
            -0.09338510781526566,
            -0.006419665180146694,
            0.02918289601802826,
            -0.041281428188085556,
            0.04988998547196388,
            0.1926276832818985,
            0.05521702021360397,
            -0.08193999528884888,
            0.15459854900836945,
            0.17181891202926636,
            -0.046013012528419495,
            0.09408590197563171,
            0.017962519079446793,
            0.13152748346328735,
            0.03011338971555233,
            -0.020488953217864037,
            0.12773540616035461,
            0.08393477648496628,
            0.08064139634370804,
            0.08283869177103043,
            -0.08965424448251724,
            0.045388903468847275,
            0.035174302756786346,
            0.15755508840084076,
            0.17330756783485413,
            -0.1127791479229927,
            -0.01136024110019207,
            0.05650783330202103,
            0.17508915066719055,
            -0.11205454915761948,
            -0.1233859658241272,
            -0.17354361712932587,
            -0.2336159199476242,
            0.01690196432173252,
            -0.17554248869419098,
            -0.03086426481604576,
            0.1678733080625534,
            0.1485009342432022,
            0.12535420060157776,
            0.15455831587314606,
            -0.001598708564415574,
            -0.111393503844738,
            0.18554075062274933,
            0.04645947739481926,
            -0.12475486844778061,
            0.2277625948190689,
            0.048168737441301346,
            -0.00243196333758533,
            0.15152649581432343,
            0.06784757226705551,
            -0.043999675661325455,
            0.006671237759292126,
            0.07816613465547562,
            -0.2718459665775299,
            0.03883789852261543,
            -0.03632205352187157,
            -0.07906948775053024,
            0.13004927337169647,
            -0.09813303500413895,
            -0.07054994255304337,
            -0.009404134005308151,
            0.08062805980443954,
            -0.062241364270448685,
            0.016054270789027214,
            -0.05701947957277298,
            0.2166765034198761,
            0.07873371988534927,
            -0.003065589116886258,
            0.11271513253450394,
            -0.07262295484542847,
            0.009686330333352089,
            0.10697846859693527,
            0.10437576472759247,
            0.0005573815433308482,
            -0.11783768236637115,
            0.10363979637622833,
            0.045446328818798065,
            -0.05499142408370972,
            -0.1264425665140152,
            -0.10697592049837112,
            0.059897638857364655,
            0.10630772262811661,
            -0.10498586297035217,
            0.007250416558235884,
            -0.13784672319889069,
            -0.046779755502939224,
            -0.011084774509072304,
            0.11809136718511581,
            -0.18156641721725464,
            0.08362212032079697,
            -0.07497013360261917,
            -0.1840008795261383,
            0.08410286158323288,
            0.0034478185698390007,
            -0.0176042802631855,
            -0.1335381418466568,
            -0.1154833510518074,
            -0.06830572336912155,
            0.10857051610946655,
            0.06616290658712387,
            -0.06364187598228455,
            0.0063410005532205105,
            0.09136572480201721,
            0.14963075518608093,
            -0.019007792696356773,
            0.030731305480003357,
            -0.09273674339056015,
            -0.03366556018590927,
            0.1162908747792244,
            -0.08401171118021011,
            -0.012029260396957397,
            0.11103830486536026,
            0.18483898043632507,
            0.012193562462925911,
            -0.054387062788009644,
            -0.1106627881526947,
            0.10800047218799591,
            -0.0070876083336770535,
            -0.007181368302553892,
            -0.06618873029947281,
            -0.09110325574874878,
            0.060318950563669205,
            -0.09682528674602509,
            -0.05782680958509445,
            -0.08696793764829636,
            -0.16490620374679565,
            0.1426698863506317,
            -0.1578940451145172,
            -0.000777945329900831,
            -0.32771429419517517,
            0.20687246322631836,
            0.10685835778713226,
            -0.032733939588069916,
            0.1711704134941101,
            0.14924851059913635,
            -0.02178669348359108,
            0.16398827731609344,
            -0.09251388162374496,
            -0.0030653709545731544,
            -0.2320702224969864,
            0.02484077587723732,
            0.03311586380004883,
            0.026137277483940125,
            0.07147874683141708,
            -0.34209734201431274,
            0.15251140296459198,
            -0.10303477942943573,
            0.027694717049598694,
            -0.03536680340766907,
            -0.010101943276822567,
            -0.04827864468097687,
            0.21188226342201233,
            0.01870507001876831,
            -0.2114761918783188,
            0.09507017582654953,
            0.13342277705669403,
            0.11388904601335526,
            0.09931997954845428,
            -0.08394424617290497,
            -0.08913032710552216,
            0.021158834919333458,
            -0.15248605608940125,
            0.008570103906095028,
            0.02673855796456337,
            0.1779293566942215,
            0.011178400367498398,
            -0.16614851355552673,
            -0.21130628883838654,
            0.043777525424957275,
            -0.04309915378689766,
            -0.15863430500030518,
            0.0643753781914711,
            0.11675774306058884,
            0.08352739363908768,
            0.014260553754866123,
            -0.13012295961380005,
            0.1701345145702362,
            -0.09725196659564972,
            0.02170991152524948,
            -0.0639236643910408,
            -0.17980141937732697,
            -0.03463666886091232,
            -0.03015282191336155,
            0.11338034272193909,
            0.265343576669693,
            0.01371723785996437,
            -0.25295406579971313,
            -0.1782234013080597,
            0.13353231549263,
            0.25998997688293457,
            -0.017019331455230713,
            0.00564082246273756,
            0.14447595179080963,
            0.3310990333557129,
            -0.15047797560691833,
            0.06533107161521912,
            0.03655727952718735,
            0.038241975009441376,
            0.1310185194015503,
            0.1059868261218071,
            0.06782837212085724,
            -0.09531936049461365,
            0.03392663225531578,
            0.1856663078069687,
            -0.009357859380543232,
            -0.10305370390415192,
            0.030018752440810204,
            -0.02161242626607418,
            0.051216788589954376,
            0.03030572272837162,
            0.05013452097773552,
            -0.04492374137043953,
            -0.05544383078813553,
            0.06311804801225662,
            -0.2617473602294922,
            0.19502434134483337,
            -0.17660704255104065,
            -0.17593105137348175,
            0.09525738656520844,
            -0.2693231701850891,
            0.07019926607608795,
            -0.2788568139076233,
            -0.024318117648363113,
            0.08129549026489258,
            -0.05624467879533768,
            0.10182725638151169,
            0.009931654669344425,
            0.04666440561413765,
            -0.2751268744468689,
            -0.005562713835388422,
            0.027804676443338394,
            -0.265601247549057,
            0.21107430756092072,
            0.04324016720056534,
            0.1630139797925949,
            0.31272536516189575,
            0.0608600378036499,
            0.23545700311660767,
            -0.17530885338783264,
            0.18837110698223114,
            0.2767539620399475,
            -0.2872718572616577,
            0.25623422861099243,
            0.23641563951969147,
            0.104677215218544,
            0.21786947548389435,
            -0.2883063852787018,
            -0.1426631212234497,
            -0.17922846972942352,
            0.1384393572807312,
            0.04350579157471657,
            -0.06408519297838211,
            0.07480882108211517,
            -0.21285435557365417,
            0.24343599379062653,
            -0.05508818104863167,
            0.2911674976348877,
            -0.0866747722029686,
            -0.05759945884346962,
            0.43272924423217773,
            -0.058700792491436005,
            0.047625865787267685,
            0.17103511095046997,
            0.0011975052766501904,
            -0.13767297565937042,
            -0.20438309013843536,
            0.14358246326446533,
            -0.25063642859458923,
            0.13401708006858826,
            0.007471310440450907,
            -0.05632174387574196,
            -0.23628230392932892,
            0.37301579117774963,
            -0.21511758863925934,
            0.28168463706970215,
            -0.014030149206519127,
            -0.17251384258270264,
            0.23414050042629242,
            0.2989233732223511,
            -0.2702934443950653,
            -0.09965772926807404,
            -0.027368292212486267,
            0.052234649658203125,
            0.09554892778396606,
            -0.5089836716651917,
            0.029051192104816437,
            0.057575006037950516,
            0.02165907621383667,
            0.17451606690883636,
            0.15503722429275513,
            -0.3666609525680542,
            0.17270921170711517,
            0.05708615854382515,
            -0.07482248544692993,
            -0.16307133436203003,
            -0.0382600836455822,
            -0.06456314027309418,
            0.526759922504425,
            0.062308840453624725,
            -0.29928767681121826,
            -0.024748852476477623,
            -0.3101867437362671,
            -0.1821988821029663,
            -0.15960989892482758,
            -0.2829877734184265,
            0.05962147191166878,
            -0.15996210277080536,
            0.10861507803201675,
            0.23968693614006042,
            0.2412569671869278,
            0.028454678133130074,
            0.13906946778297424,
            -0.10477562993764877,
            -0.013111802749335766,
            0.0944177508354187,
            0.08299066871404648,
            0.11095474660396576,
            -0.028515398502349854,
            -0.3885329067707062,
            -0.05982961133122444,
            -0.20849056541919708,
            -0.8343102931976318,
            0.24894125759601593,
            -0.03296539932489395,
            -0.17819559574127197,
            -0.08554185926914215,
            0.17158013582229614,
            -0.03718459606170654,
            -0.007354148663580418,
            0.24326571822166443,
            0.09765021502971649,
            0.02716842107474804,
            -0.09035896509885788,
            0.07400843501091003,
            -0.11275193095207214,
            -0.21359436213970184,
            -0.01786547712981701,
            0.2068483978509903,
            0.07769444584846497,
            0.10063748061656952,
            0.014409655705094337,
            -0.13216404616832733,
            -0.18365420401096344,
            -0.06955130398273468,
            0.10042735934257507,
            -0.0964486300945282,
            -0.1542438417673111,
            -0.21801471710205078,
            0.14262837171554565,
            -0.19743339717388153,
            -0.09165242314338684,
            0.022614307701587677,
            0.06050461530685425,
            -0.04613272473216057,
            0.08037187159061432,
            -0.002749923150986433,
            -0.261400431394577,
            -0.1720031052827835,
            -0.19208386540412903,
            -0.12741294503211975,
            -0.14585661888122559,
            -0.07981518656015396,
            -0.2133566290140152,
            0.05435045436024666,
            -0.006311330478638411,
            0.07377255707979202,
            0.3996141254901886,
            -0.15275722742080688,
            0.005231716204434633,
            -0.07552002370357513,
            -0.029651377350091934,
            0.03264893591403961,
            -0.2979738414287567,
            -0.031170763075351715,
            -0.2849527895450592,
            0.04828234761953354,
            0.13596782088279724,
            -0.15921597182750702,
            0.12555037438869476,
            -0.15096518397331238,
            -0.029834449291229248,
            0.31090933084487915,
            0.028867673128843307,
            -0.11775694787502289,
            -0.38244906067848206,
            0.2632756233215332,
            0.04054974019527435,
            -0.07169469445943832,
            -0.027099445462226868,
            -0.0933646485209465,
            -0.13151615858078003,
            -0.06471028178930283,
            -0.22004453837871552,
            0.20090755820274353,
            0.4267667531967163,
            0.32600975036621094,
            0.0023246193304657936,
            -0.28338491916656494,
            -0.2405988872051239,
            0.17962221801280975,
            0.1600571870803833,
            -0.07386136054992676,
            -0.16386307775974274,
            0.2430063933134079,
            0.2799302935600281,
            0.056220684200525284,
            -0.06948504596948624,
            0.15484146773815155,
            0.04539873078465462,
            0.18953202664852142,
            0.01476754155009985,
            0.18944114446640015,
            0.07156196981668472,
            0.0932057574391365,
            -0.006162337027490139,
            -0.03521290048956871,
            0.11515577882528305,
            0.03799629956483841,
            0.017927173525094986,
            0.14387179911136627,
            -0.14739523828029633,
            -0.11272399127483368,
            -0.2354198396205902,
            0.27973824739456177,
            0.2719864845275879,
            0.17466309666633606,
            -0.1055961549282074,
            -0.022737616673111916,
            -0.0018110418459400535,
            0.17854411900043488,
            -0.03562014922499657,
            -0.3305324614048004,
            0.0024620674084872007,
            0.0236740093678236,
            0.04558487609028816,
            -0.1693565845489502,
            0.08144599944353104,
            0.19831255078315735,
            0.3132082521915436,
            0.22991006076335907,
            0.20721036195755005,
            -0.019070083275437355,
            -0.2710112929344177,
            0.05300659313797951,
            -0.2729225754737854,
            -0.25751742720603943,
            -0.08957827836275101,
            0.29035484790802,
            0.35637155175209045,
            0.03998175635933876,
            -0.008159397169947624,
            -0.1980208307504654,
            -0.14064578711986542,
            -0.1571984738111496,
            0.0576448068022728,
            -0.10702667385339737,
            0.11483598500490189,
            -0.2786842882633209,
            -0.304675817489624,
            -0.3302551209926605,
            0.23787058889865875,
            -0.25558948516845703,
            -0.2351597249507904,
            -0.19527679681777954,
            0.10609885305166245,
            0.16347305476665497,
            -0.10206242650747299,
            -0.31208181381225586,
            -0.16846701502799988,
            0.11067842692136765,
            -0.15929709374904633,
            -0.45559370517730713,
            0.15681196749210358,
            0.1283445656299591,
            0.11007021367549896,
            0.04531659930944443,
            -0.028313500806689262,
            -0.027447495609521866,
            -0.09828560054302216,
            0.1552533656358719,
            0.19994443655014038,
            -0.005274672992527485,
            -0.13439179956912994,
            0.2205425500869751,
            -0.030955681577324867,
            -0.09139671921730042,
            0.05522583797574043,
            -0.1268145591020584,
            0.02772989682853222,
            0.0001239742268808186,
            -0.22519366443157196,
            0.15923531353473663,
            0.04136504605412483,
            0.14033687114715576,
            0.1527540236711502,
            0.3809703290462494,
            -0.28360798954963684,
            -0.009601129218935966,
            0.16724605858325958,
            0.045252032577991486,
            0.22399340569972992,
            -0.1037449836730957,
            0.1833057552576065,
            0.11451506614685059,
            0.10664016753435135,
            0.09153320640325546,
            -0.10366557538509369,
            -0.23254035413265228,
            -0.08419711142778397,
            -0.17409884929656982,
            -0.12473971396684647,
            0.3777913749217987,
            -0.09913896024227142,
            0.28938716650009155,
            0.06841287016868591,
            0.06159443035721779,
            -0.08199620991945267,
            -0.5840966105461121,
            0.09681904315948486,
            0.11726534366607666,
            -0.025105692446231842,
            -0.028898537158966064,
            -0.0005982918082736433,
            -0.41848477721214294,
            -0.18568913638591766,
            -0.15829122066497803,
            -0.20331452786922455,
            -0.019299687817692757,
            -0.0034073262941092253,
            -0.02997092716395855,
            -0.008940333500504494,
            -0.05903947353363037,
            -0.14332303404808044,
            -0.210988387465477,
            -0.04727993533015251,
            0.057537905871868134,
            0.2360965758562088,
            -0.1610957682132721,
            -0.10911236703395844,
            0.06983233243227005,
            -0.01184859499335289,
            -0.23626992106437683,
            -0.11645981669425964,
            -0.05994099751114845,
            0.2981857657432556,
            -0.025697888806462288,
            -0.06915372610092163,
            0.21756376326084137,
            -0.10748971253633499,
            -0.025139128789305687,
            0.24091985821723938,
            -0.01420166902244091,
            -0.030841177329421043,
            0.05308772623538971,
            -0.2115592509508133,
            0.004021854605525732,
            -0.12962280213832855,
            0.10470695793628693,
            0.02530130371451378,
            0.1302993893623352,
            -0.1061437577009201,
            -0.14408737421035767,
            0.04683471843600273,
            0.16852852702140808,
            0.08868895471096039,
            -0.031080549582839012,
            -0.20663093030452728,
            0.06203063204884529,
            0.2230379283428192,
            -0.20605894923210144,
            0.1285836100578308,
            -0.06644029915332794,
            0.142711341381073,
            0.1641434133052826,
            0.02365007996559143,
            -0.04870712384581566,
            0.2191988229751587,
            -0.18155673146247864,
            -0.19342787563800812,
            -0.10681905597448349,
            -0.11295109242200851,
            0.034736182540655136,
            0.07738475501537323,
            -0.041229717433452606,
            -0.02881505899131298,
            0.16496844589710236,
            -0.0459795780479908,
            -0.028633227571845055,
            0.13720186054706573,
            -0.23466236889362335,
            -0.06140363588929176,
            -0.2604430615901947,
            0.3111537992954254,
            0.0015998913440853357,
            0.03851272910833359,
            -0.005238913930952549,
            -0.012568173930048943,
            -0.1388590782880783,
            -0.18430085480213165,
            0.0211337823420763,
            -0.0014234652044251561,
            0.013878731988370419,
            -0.08637283742427826,
            0.25451260805130005,
            -0.11817771941423416,
            0.07930931448936462,
            0.18423457443714142,
            0.07186334580183029,
            -0.009474956430494785,
            -0.18374544382095337,
            -0.03725295141339302,
            0.0021053485106676817,
            0.1165483146905899,
            0.033736854791641235,
            0.14844198524951935,
            -0.008527649566531181,
            0.016263272613286972,
            -0.10166045278310776,
            0.1441868394613266,
            -0.14787966012954712,
            0.01952044479548931,
            -0.11760751903057098,
            -0.016490647569298744,
            -0.041939448565244675,
            -0.04289074242115021,
            -0.019633520394563675,
            0.19113299250602722,
            0.08413029462099075,
            0.11501065641641617,
            -0.17382092773914337,
            0.100803904235363,
            0.04740529507398605,
            -0.03704718127846718,
            -0.11453326046466827,
            -0.019763918593525887,
            -0.05646529048681259,
            -0.10144113004207611,
            0.06503486633300781,
            -0.0963144600391388,
            0.04491588845849037,
            -0.2477721869945526,
            -0.2520595192909241,
            0.15390436351299286,
            -0.15671071410179138,
            -0.10832260549068451,
            0.20170049369335175,
            0.03236790746450424,
            -0.09224191308021545,
            -0.02276049554347992,
            0.01672956347465515,
            -0.21020574867725372,
            -0.09905346482992172,
            -0.03214790299534798,
            0.11525529623031616,
            0.07752404361963272,
            -0.0015817516250535846,
            -0.03199304640293121,
            0.11688966304063797,
            -0.018229689449071884,
            -0.04886436089873314,
            -0.08662217855453491,
            0.13339459896087646,
            -0.2450704723596573,
            0.23275554180145264,
            0.1321527361869812,
            0.028085779398679733,
            -0.031349170953035355,
            -0.029124511405825615,
            0.01669410429894924,
            -0.10951896756887436,
            -0.1259108930826187,
            0.22680383920669556,
            -0.15745411813259125,
            -0.12807460129261017,
            0.042602017521858215,
            -0.037478867918252945,
            -0.029718805104494095,
            -0.096359021961689,
            -0.32546788454055786,
            -0.1857639104127884,
            0.26696494221687317,
            0.17915278673171997,
            -0.06345148384571075,
            0.08173498511314392,
            0.10496167838573456,
            0.23924215137958527,
            0.21370019018650055,
            -0.05963557958602905,
            0.1504625529050827,
            0.03467738255858421,
            0.042451053857803345,
            -0.1815803498029709,
            -0.0005043428973294795,
            -0.16398698091506958,
            0.1389867663383484,
            -0.04839421808719635,
            -0.17807629704475403,
            0.024179944768548012,
            -0.20990866422653198,
            -0.04608159512281418,
            0.14337565004825592,
            -0.26310816407203674,
            -0.09342586994171143,
            -0.14639799296855927,
            -0.14433960616588593,
            0.19055044651031494,
            0.3286955952644348,
            0.05776691064238548,
            0.133614644408226,
            -0.14222830533981323,
            0.13722707331180573,
            -0.1056474894285202,
            -0.257453978061676,
            -0.13537681102752686,
            0.05067771300673485,
            -0.07450765371322632,
            0.31188690662384033,
            -0.12374450266361237,
            0.14661645889282227,
            0.03945823386311531,
            0.014742937870323658,
            0.013407752849161625,
            -0.033559173345565796,
            -0.01019770372658968,
            -0.021086862310767174,
            0.2731853723526001,
            -0.242280974984169,
            -0.06809431314468384,
            0.1977296769618988,
            -0.11905024945735931,
            0.059975288808345795,
            0.09760062396526337,
            0.23171046376228333,
            -0.12317316979169846,
            0.1365201622247696,
            0.23121683299541473,
            0.041396159678697586,
            0.031224941834807396,
            0.010995753109455109,
            0.05277610570192337,
            -0.20722784101963043,
            -0.4576404094696045,
            -0.07276994735002518,
            0.16250377893447876,
            0.07067045569419861,
            0.11243479698896408,
            0.08281219005584717,
            -0.3882719874382019,
            0.2575380504131317,
            0.12408025562763214,
            0.1894659399986267,
            -0.11038593202829361,
            -0.09390883892774582,
            0.17614060640335083,
            0.24337035417556763,
            -0.030854294076561928,
            0.04010185971856117,
            -0.40255749225616455,
            0.02466007135808468,
            0.041645597666502,
            -0.05355043336749077,
            0.016434742137789726,
            0.0393608994781971,
            0.024740250781178474,
            -0.25800633430480957,
            0.27584677934646606,
            -0.059639494866132736,
            -0.10672622919082642,
            0.18048562109470367,
            -0.36692196130752563,
            -0.09523364156484604,
            -0.33797502517700195,
            -0.12335539609193802,
            -0.035881176590919495,
            0.05520489811897278,
            0.16134338080883026,
            -0.08580457419157028,
            -0.46570920944213867,
            -0.011108538135886192,
            0.021208375692367554,
            0.04091417044401169,
            0.17589084804058075,
            0.09515953063964844,
            0.21386487782001495,
            -0.04053490608930588,
            0.07908660918474197,
            -0.5133475661277771,
            0.043147142976522446,
            0.11102529615163803,
            0.03603103384375572,
            -0.05492124333977699,
            0.15136182308197021,
            0.13271288573741913,
            -0.07837783545255661,
            -0.04573265090584755,
            0.043764788657426834,
            -0.14223679900169373,
            -0.14530469477176666,
            -0.09987804293632507,
            -0.0969846323132515,
            -0.06526705622673035,
            0.05959252640604973,
            -0.1733224242925644,
            -0.0934445858001709,
            0.06309612840414047,
            -0.08611586689949036,
            0.306809663772583,
            0.11928233504295349,
            0.17132335901260376,
            -0.14462532103061676,
            0.18210561573505402,
            0.0332082062959671,
            0.014334962703287601,
            0.4037320613861084,
            0.14598020911216736,
            0.41909274458885193,
            0.03616476431488991,
            0.026603590697050095,
            0.1359923630952835,
            0.11134342104196548,
            -0.18185295164585114,
            -0.056797467172145844,
            -0.057249780744314194,
            0.038215670734643936,
            0.07270900160074234,
            -0.037476975470781326,
            -0.280464768409729,
            -0.22589416801929474,
            0.1198091134428978,
            0.28385868668556213,
            -0.22598940134048462,
            -0.12270073592662811,
            0.01993807591497898,
            -0.010642203502357006,
            0.11118487268686295,
            0.10611313581466675,
            0.21788844466209412,
            -0.3329760432243347,
            -0.19278912246227264,
            0.12046515941619873,
            0.04623054713010788,
            0.15732498466968536,
            -0.05984042212367058,
            0.28989291191101074,
            -0.12992575764656067,
            -0.09610581398010254,
            -0.2706058919429779,
            -0.20362646877765656,
            -0.18134653568267822,
            0.2686949670314789,
            -0.1191253587603569,
            -0.04827496409416199,
            -0.2658253014087677,
            -0.010725521482527256,
            -0.10875183343887329,
            -0.1656905710697174,
            -0.2217603474855423,
            -0.13937614858150482,
            0.010268410667777061,
            0.08038247376680374,
            0.015154819935560226,
            -0.0048394110053777695,
            0.19054149091243744,
            -0.2254394292831421,
            -0.019678503274917603,
            -0.0501716248691082,
            -0.29043078422546387,
            -0.03577813506126404,
            0.02526903711259365,
            0.09404652565717697,
            0.10193780064582825,
            0.1682923138141632,
            0.03947548195719719,
            -0.15443681180477142,
            0.19619013369083405,
            0.20851464569568634,
            0.01521860621869564,
            0.14234302937984467,
            -0.2923848628997803,
            0.060247644782066345,
            -0.2046786993741989,
            0.008544010110199451,
            0.10584034770727158,
            0.3200282156467438,
            0.12086666375398636,
            0.04894246533513069,
            0.2235986888408661,
            -0.0010441284393891692,
            -0.2701297402381897,
            -0.045235320925712585,
            0.1018935889005661,
            -0.2806057929992676,
            -0.03757750242948532,
            -0.07452066242694855,
            -0.13173499703407288,
            0.019297104328870773,
            0.2135663479566574,
            0.12720096111297607,
            0.022565456107258797,
            -0.013163786381483078,
            -0.1594485193490982,
            0.01120300218462944,
            0.13045479357242584,
            0.07407910376787186,
            0.07765552401542664,
            -0.11692140996456146,
            -0.16947220265865326,
            -0.13402098417282104,
            0.042128078639507294,
            0.36554044485092163,
            -0.2557392716407776,
            -0.029633983969688416,
            -0.15891321003437042,
            0.07605969160795212,
            0.10385636985301971,
            -0.06198641657829285,
            0.24034826457500458,
            0.21114937961101532,
            0.0017537331441417336,
            -0.018881313502788544,
            -0.08513391017913818,
            -0.10707851499319077,
            -0.04578106850385666,
            0.1420532613992691,
            0.18176652491092682,
            0.05289299786090851,
            -0.11637602001428604,
            0.047343477606773376,
            0.2756427824497223,
            0.06739810109138489,
            -0.1475522518157959,
            0.10212743282318115,
            0.12688855826854706,
            0.13138660788536072,
            -0.05505393072962761,
            -0.3595028817653656,
            -0.13454823195934296,
            0.01849883235991001,
            -0.22950120270252228,
            0.06992799043655396,
            -0.18560482561588287,
            0.19198277592658997,
            0.16008837521076202,
            -0.05495612695813179,
            0.09438280016183853,
            -0.05159062147140503,
            -0.009366990998387337,
            -0.0881640762090683,
            -0.04710879176855087,
            0.30086344480514526,
            0.005962615367025137,
            0.10964082926511765,
            0.15997865796089172,
            0.16278928518295288,
            -0.20861408114433289,
            -0.004379997495561838,
            0.012114451266825199,
            -0.13691121339797974,
            -0.19057665765285492,
            -0.11423150449991226,
            0.22518682479858398,
            0.2704007625579834,
            0.13734783232212067,
            0.11278615891933441,
            0.003936759661883116,
            -0.05575311556458473,
            -0.054901883006095886,
            -0.00832813885062933,
            -0.2113841027021408,
            0.04348425194621086,
            -0.27190911769866943,
            0.04339150711894035,
            -0.09552818536758423,
            -0.15444128215312958,
            0.014140761457383633,
            -0.07174612581729889,
            0.056136440485715866,
            -0.057400379329919815,
            -0.025334954261779785,
            0.06848125159740448,
            -0.46644097566604614,
            0.03801435977220535,
            -0.0878969132900238,
            -0.2779521644115448,
            -0.19309261441230774,
            -0.10263916105031967,
            0.0063267722725868225,
            0.2160504311323166,
            -0.006403905339539051,
            -0.06973393261432648,
            -0.14194223284721375,
            -0.012162837199866772,
            -0.10077574849128723,
            0.035621851682662964,
            -0.01890987530350685,
            0.06977394223213196,
            0.2638676166534424,
            0.1778683215379715,
            0.3493833839893341,
            -0.1079992726445198,
            0.14062438905239105,
            -0.10985799878835678,
            0.05107660964131355,
            0.05337218940258026,
            0.09667553007602692,
            0.1556401401758194,
            0.011482601054012775,
            0.15368719398975372,
            -0.31388360261917114,
            -0.004132355563342571,
            0.022311612963676453,
            0.20181572437286377,
            -0.04089163988828659,
            0.0064877672120928764,
            0.11968830972909927,
            0.06470654159784317,
            -0.1243416890501976,
            0.02254742570221424,
            0.1571836769580841,
            -0.14801907539367676,
            0.07553619146347046,
            -0.03127666190266609,
            -0.2859368324279785,
            -0.02032214216887951,
            0.2969772219657898,
            -0.030259259045124054,
            -0.09267766028642654,
            0.3023374676704407,
            -0.011578772217035294,
            -0.13790057599544525,
            0.16864223778247833,
            -0.1847567856311798,
            -0.12540508806705475,
            0.24960219860076904,
            0.04262923076748848,
            -0.10873610526323318,
            0.08711697906255722,
            0.38942912220954895,
            -0.11654512584209442,
            -0.27838778495788574,
            0.11176567524671555,
            -0.17739567160606384,
            0.1384296864271164,
            -0.016806654632091522,
            -0.19991032779216766,
            -0.10567502677440643,
            0.008787859231233597,
            -0.15686440467834473,
            0.10930895805358887,
            0.11914816498756409,
            0.046701423823833466,
            -0.013914428651332855,
            -0.3558013141155243,
            0.12453274428844452,
            0.06462158262729645,
            -0.031015051528811455,
            0.08801094442605972,
            -0.014706671237945557,
            -0.14204326272010803,
            -0.09389862418174744,
            -0.09501688182353973,
            -0.1574569195508957,
            0.02106945775449276,
            -0.103347048163414,
            0.06838526576757431,
            -0.3231784999370575,
            0.013426651246845722,
            0.05595805123448372,
            0.256899356842041,
            0.17752376198768616,
            0.08318361639976501,
            0.07185035198926926,
            -0.12204083800315857,
            0.0030009839683771133,
            -0.07236918061971664,
            0.1339898705482483,
            -0.30859652161598206,
            0.03589974716305733,
            -0.05488111451268196,
            0.05759020149707794,
            0.25277963280677795,
            0.1111195906996727,
            0.17396493256092072,
            -0.12263932824134827,
            0.12452615052461624,
            0.16346696019172668,
            -0.015314944088459015,
            -0.13136950135231018,
            -0.23737405240535736,
            0.22208969295024872,
            -0.22936861217021942,
            -0.22199854254722595,
            -0.01006483193486929,
            -0.12363462895154953,
            0.0021026814356446266,
            0.16863863170146942,
            0.09487376362085342,
            -0.17238616943359375,
            0.037144869565963745,
            0.02992420829832554,
            -0.04508615657687187,
            0.10853592306375504,
            0.12168490886688232,
            0.01184371393173933,
            -0.023351261392235756,
            0.14483267068862915,
            -0.03813781589269638,
            -0.029396679252386093,
            -0.10570158809423447,
            -0.06951655447483063,
            -0.18553537130355835,
            -0.000935576215852052,
            -0.055626146495342255,
            0.0743028074502945,
            -0.2885519564151764,
            -0.13101010024547577,
            0.23176470398902893,
            -0.12175798416137695,
            -0.05610610544681549,
            -0.20155967772006989,
            -0.2604619562625885,
            0.09880559891462326,
            0.10593561083078384,
            0.005805970635265112,
            0.3110209107398987,
            0.15572258830070496,
            0.07374297827482224,
            0.0431448258459568,
            -0.03802335262298584,
            -0.265731543302536,
            -0.08887051790952682,
            -0.016871053725481033,
            0.024775344878435135,
            0.09783935546875,
            -0.08686435222625732,
            -0.06198446825146675,
            0.10562268644571304,
            0.13742375373840332,
            0.027896370738744736,
            0.06508433818817139,
            -0.12358414381742477,
            0.09583649039268494,
            -0.186517134308815,
            -0.12024060636758804,
            -0.02781156823039055,
            0.2111741453409195,
            0.00799141451716423,
            -0.2526702284812927,
            0.13243211805820465,
            0.18102620542049408,
            0.1115364357829094,
            -0.12758465111255646,
            0.021818121895194054,
            0.3121747374534607,
            -0.21749915182590485,
            0.1000746414065361,
            0.04033166542649269,
            -0.014054173603653908,
            -0.00580171775072813,
            0.004592963494360447,
            0.3274785578250885,
            -0.03867798298597336,
            0.05118130147457123,
            0.33305615186691284,
            -0.14288051426410675,
            0.0814373642206192,
            -0.1567169576883316,
            0.08729550987482071,
            -0.11189435422420502,
            0.12725917994976044,
            0.14798381924629211,
            0.0857478454709053,
            0.04273495450615883,
            -0.06889941543340683,
            -0.11095496267080307,
            0.12867914140224457,
            -0.03922412544488907,
            0.1380292922258377,
            -0.07840485125780106,
            0.052897728979587555,
            0.08502567559480667,
            0.052538659423589706,
            0.039522916078567505,
            0.037906426936388016,
            0.051817506551742554,
            0.08219972252845764,
            0.13751941919326782,
            -0.08296362310647964,
            -0.1865391880273819,
            -0.0751933827996254,
            -0.18341758847236633,
            -0.12230636924505234,
            -0.044275783002376556,
            0.06004660949110985,
            -0.07877659052610397,
            -0.09303683042526245,
            0.12998999655246735,
            -0.08141042292118073,
            0.16760875284671783,
            0.07603995501995087,
            -0.17248374223709106,
            -0.1085083857178688,
            -0.17804965376853943,
            0.002899202750995755,
            -0.09288021922111511,
            0.0020522745326161385,
            0.24618229269981384,
            -0.06572521477937698,
            0.013184240087866783,
            -0.10909903794527054,
            0.0751250833272934,
            0.060835037380456924,
            0.026644419878721237,
            -0.09602975100278854,
            0.13390286266803741,
            0.12082376331090927,
            0.023380877450108528,
            0.3560345470905304,
            0.11507049202919006,
            0.019923632964491844,
            0.00585319846868515,
            0.08158081024885178,
            0.04499274492263794,
            -0.07331637293100357,
            0.07626300305128098,
            0.04741007089614868,
            -0.022160228341817856,
            -0.03349290415644646,
            0.15313318371772766,
            0.05328178033232689,
            0.16224347054958344,
            0.017350677400827408,
            -0.33987629413604736,
            -0.11029722541570663,
            -0.04723276197910309,
            -0.028159968554973602,
            0.04992345720529556,
            0.19007422029972076,
            -0.26426854729652405,
            -0.3565203845500946,
            -0.028493093326687813,
            0.0666273906826973,
            0.10798512399196625,
            -0.13508982956409454,
            0.2581104040145874,
            -0.02170022763311863,
            0.13251052796840668,
            -0.08554177731275558,
            0.11407076567411423,
            -0.009882604703307152,
            0.0005617880960926414,
            0.12475819140672684,
            0.12181006371974945,
            -0.08463113754987717,
            -0.15766862034797668,
            -0.04241169989109039,
            0.3077763319015503,
            -0.06916546821594238,
            -0.09967613220214844,
            0.169684037566185,
            -0.019083581864833832,
            0.06927288323640823,
            -0.12454795837402344,
            0.14138361811637878,
            -0.23620182275772095,
            0.20048336684703827,
            0.11686823517084122,
            0.08081267774105072,
            -0.023503240197896957,
            -0.13542650640010834,
            -0.015603863634169102,
            -0.10748891532421112,
            0.027982797473669052,
            -0.03505489230155945,
            -0.0086329635232687,
            -0.207759827375412,
            0.08345154672861099,
            -0.07814543694257736,
            -0.023273123428225517,
            0.12169798463582993,
            0.10198833048343658,
            0.528627872467041,
            -0.059104159474372864,
            0.18501824140548706,
            -0.12271304428577423,
            -0.024319427087903023,
            0.0005544810555875301,
            -0.07516894489526749,
            0.1023496463894844,
            0.08458108454942703,
            -0.22622516751289368,
            -0.22363178431987762,
            -0.007588282227516174,
            -0.18895341455936432,
            -0.028851481154561043,
            -0.11555685847997665,
            -0.14877964556217194,
            0.14655731618404388,
            0.07382529228925705,
            -0.21932673454284668,
            -0.04200229048728943,
            -0.07011081278324127,
            0.19498120248317719,
            0.16297245025634766,
            -0.027080200612545013,
            -0.15354539453983307,
            -0.18979869782924652,
            0.1622561365365982,
            0.04587197303771973,
            0.1641726940870285,
            -0.036729246377944946,
            -0.16581296920776367,
            0.007868023589253426,
            -0.05251651629805565,
            -0.16273510456085205,
            0.029640082269906998,
            -0.019073089584708214,
            0.18142877519130707,
            0.12552441656589508,
            0.2126886248588562,
            -0.1798894703388214,
            -0.2035703808069229,
            -0.012558192946016788,
            0.04969360679388046,
            0.08646518737077713,
            0.1449250429868698,
            0.0011410044971853495,
            -0.029900062829256058,
            0.006202933378517628,
            0.13180214166641235,
            0.1804480254650116,
            0.05300415679812431,
            -0.026179390028119087,
            0.3317851126194,
            -0.12144412845373154,
            0.2941986620426178,
            -0.08509573340415955,
            0.14043404161930084,
            -0.2979070246219635,
            -0.21488447487354279,
            -0.21987535059452057,
            0.20839351415634155,
            0.1726406067609787,
            -0.10558591783046722,
            0.0013217719970270991,
            0.05156465247273445,
            0.05545688793063164,
            -0.2699353098869324,
            0.07209412753582001,
            -0.1627444177865982,
            0.021482428535819054,
            -0.1221788302063942,
            -0.0457327626645565,
            0.09428340941667557,
            -0.242212176322937,
            -0.1367955058813095,
            0.13011658191680908,
            -0.20230531692504883,
            0.0661744773387909,
            -0.01579006016254425,
            0.06602776795625687,
            0.08383069932460785,
            0.146077498793602,
            0.020773835480213165,
            0.015787284821271896,
            0.0696968361735344,
            0.3009636402130127,
            0.34737950563430786,
            -0.08746791630983353,
            0.054105427116155624,
            -0.0393981970846653,
            0.10331745445728302,
            -0.07475825399160385,
            0.06262695044279099,
            -0.013902341015636921,
            -0.14292708039283752,
            -0.1906840205192566,
            -0.196072518825531,
            0.2335961014032364,
            0.07655799388885498,
            -0.056945011019706726,
            0.14710798859596252,
            -0.09246349334716797,
            0.12338551878929138,
            0.26118865609169006,
            -0.07412545382976532,
            -0.10611113905906677,
            0.14079198241233826,
            0.13325832784175873,
            0.013378872536122799,
            -0.051346395164728165,
            -0.35870489478111267,
            0.1649763286113739,
            0.010549127124249935,
            0.1425592601299286,
            -0.14111647009849548,
            -0.17916274070739746,
            -0.22040989995002747,
            -0.09818069636821747,
            0.019515015184879303,
            0.0798366591334343,
            0.0949406623840332,
            -0.0020327463280409575,
            0.26656532287597656,
            -0.21232447028160095,
            -0.12175793200731277,
            0.0527447871863842,
            -0.1288326531648636,
            0.12327339500188828,
            0.23167604207992554,
            0.017648538574576378,
            -0.06881661713123322,
            0.08244509994983673,
            0.1237860843539238,
            0.09211381524801254,
            -0.11183004081249237,
            0.0062674544751644135,
            -0.02815094217658043,
            -0.07356207072734833,
            -0.1949327290058136,
            0.1321423500776291,
            0.04030480980873108,
            -0.07862865924835205,
            -0.07161939889192581,
            0.06284848600625992,
            0.25546136498451233,
            0.1633480191230774,
            -0.050266750156879425,
            0.03224189206957817,
            -0.13554731011390686,
            0.18155232071876526,
            0.23233087360858917,
            0.00991026684641838,
            0.10217683762311935,
            0.009299516677856445,
            0.13709048926830292,
            -0.16326524317264557,
            0.18884214758872986,
            -0.17638728022575378,
            -0.09546294808387756,
            0.01693442091345787,
            -0.1311836540699005,
            -0.09364177286624908,
            0.020843505859375,
            -0.024027761071920395,
            0.22830741107463837,
            0.21280400454998016,
            -0.018363816663622856,
            -0.03608761355280876,
            0.04567933827638626,
            -0.023623734712600708,
            0.0014734852593392134,
            -0.1698342114686966,
            0.028292285278439522,
            0.01022729929536581,
            0.05576523393392563,
            -0.09984049201011658,
            0.020214315503835678,
            -0.14272260665893555,
            -0.09450892359018326,
            -0.10023761540651321,
            -0.14113874733448029,
            0.05588342994451523,
            -0.12573516368865967,
            -0.11987502872943878,
            -0.1499958634376526,
            -0.03877205774188042,
            -0.03991924226284027,
            -0.03275632485747337,
            -0.25182798504829407,
            0.07468702644109726,
            0.03850327059626579,
            -0.0035944548435509205,
            0.10115530341863632,
            -0.030676499009132385,
            -0.14851585030555725,
            -0.06829285621643066,
            -0.16455687582492828,
            0.2477792352437973,
            -0.17542509734630585,
            0.19664688408374786,
            0.14118467271327972,
            -0.027589334174990654,
            0.004196478519588709,
            -0.07646238058805466,
            0.1936921626329422,
            0.10365840047597885,
            0.00798252783715725,
            -0.006531999446451664,
            0.18663689494132996,
            0.0012190390843898058,
            0.07244625687599182,
            0.05845220014452934,
            -0.1266978681087494,
            0.43519121408462524,
            -0.024677187204360962,
            0.034128688275814056,
            -0.21161425113677979,
            -0.11408742517232895,
            0.17160683870315552,
            -0.13020780682563782,
            0.09387444704771042,
            0.16229011118412018,
            -0.18322502076625824,
            0.08721974492073059,
            0.10361028462648392,
            -0.12698672711849213,
            -0.12495686858892441,
            0.23850618302822113,
            0.041714686900377274,
            0.019541794434189796,
            0.18481674790382385,
            0.0707978755235672,
            -0.25801339745521545,
            0.09178276360034943,
            0.04699890315532684,
            0.11227620393037796,
            0.02142251841723919,
            0.029933910816907883,
            0.03399717062711716,
            -0.020212143659591675,
            0.031744614243507385,
            0.00672313803806901,
            -0.09541703015565872,
            -0.23961281776428223,
            -0.0345260314643383,
            0.003093771869316697,
            -0.0970003679394722,
            -0.003974378574639559,
            -0.02330973371863365,
            0.0025882120244205,
            0.07968544214963913,
            -0.04045151174068451,
            -0.020751848816871643,
            0.0061876606196165085,
            0.03348962962627411,
            -0.0884450227022171,
            0.28666213154792786,
            -0.17570145428180695,
            0.04262929782271385,
            0.00821450725197792,
            0.24525322020053864,
            0.07567191123962402,
            -0.13554483652114868,
            0.01249634474515915,
            0.2109968215227127,
            -0.19898171722888947,
            0.042148713022470474,
            0.0072319284081459045,
            0.15129965543746948,
            -0.18568961322307587,
            -0.0016378696309402585,
            -0.018560130149126053,
            0.2175174206495285,
            0.16551673412322998,
            -0.030813587829470634,
            -0.14337103068828583,
            0.12725187838077545,
            0.16899944841861725,
            0.07544159889221191,
            0.09179508686065674,
            0.04636624455451965,
            -0.021530339494347572,
            0.24047724902629852,
            0.019264036789536476,
            0.0562567263841629,
            -0.038492169231176376,
            0.023624276742339134,
            -0.02794790267944336,
            0.11676787585020065,
            -0.004517469555139542,
            0.13944046199321747,
            0.013161676935851574,
            0.26421862840652466,
            -0.29691454768180847,
            -0.2371668815612793,
            0.019185256212949753,
            -0.22868534922599792,
            0.09513221681118011,
            -0.12507309019565582,
            0.23274825513362885,
            -0.06381184607744217,
            0.18811851739883423,
            0.03694085776805878,
            -0.1397966891527176,
            0.17344695329666138,
            -0.05689593777060509,
            -0.18607056140899658,
            -0.01940115913748741,
            0.11026347428560257,
            0.15375369787216187,
            0.1877092868089676,
            0.1170792356133461,
            -0.11553069204092026,
            0.08083033561706543,
            -0.05467453971505165,
            -0.033390991389751434,
            0.035700149834156036,
            -0.02775214985013008,
            0.16610993444919586,
            -0.056551743298769,
            -0.08448754996061325,
            0.018188899382948875,
            -0.15872406959533691,
            -0.016049956902861595,
            0.3748359978199005,
            0.06879361718893051,
            -0.08129716664552689,
            -0.0752965658903122,
            0.4186270833015442,
            -0.04326724261045456,
            0.018707411363720894,
            -0.10145451128482819,
            0.08333606272935867,
            0.07064109295606613,
            0.0029528248123824596,
            -0.19737234711647034,
            0.17607951164245605,
            -0.11048204451799393,
            0.016158396378159523,
            -0.09113527834415436,
            -0.05697061866521835,
            0.27612221240997314,
            -0.019434377551078796,
            0.044934213161468506,
            -0.037734657526016235,
            -0.13624975085258484,
            -0.02976829744875431,
            0.2630218267440796,
            0.07169420272111893,
            0.13926368951797485,
            0.0580563023686409,
            0.04640123248100281,
            0.01792331412434578,
            0.06670619547367096,
            -0.03667018190026283,
            0.2061479091644287,
            -0.07196862250566483,
            -0.10628825426101685,
            0.04083436727523804,
            0.04173874109983444,
            -0.005345559678971767,
            -0.11689933389425278,
            -0.04523142799735069,
            0.08961432427167892,
            0.09150628745555878,
            0.0601523295044899,
            0.2666439116001129,
            -0.042092081159353256,
            0.04474647715687752,
            -0.12743496894836426,
            -0.045663513243198395,
            -0.011245189234614372,
            0.005553539842367172,
            0.16526077687740326,
            0.18157707154750824,
            0.1275830864906311,
            -0.13221421837806702,
            -0.010706159286201,
            -0.21415944397449493,
            -0.06008472293615341,
            0.1200903132557869,
            0.041024841368198395,
            -0.12418834120035172,
            -0.0669872835278511,
            -0.05522394925355911,
            0.11707914620637894,
            -0.2549784779548645,
            -0.17872630059719086,
            -0.034375932067632675,
            0.18744470179080963,
            -0.22810299694538116,
            0.13192519545555115,
            -0.0016724502202123404,
            0.02336505986750126,
            -0.09257908165454865,
            0.008656958118081093,
            -0.012236200273036957,
            -0.1472439467906952,
            -0.032766226679086685,
            0.12091425061225891,
            0.2816588878631592,
            0.10274793207645416,
            -0.2035822719335556,
            -0.0017246375791728497,
            -0.0652112141251564,
            -0.33936911821365356,
            -0.07758326828479767,
            0.14436249434947968,
            0.10944113880395889,
            -0.21275001764297485,
            -0.007330027874559164,
            -0.13653425872325897,
            0.10468948632478714,
            0.13242323696613312,
            -0.21370172500610352,
            -0.07744449377059937,
            -0.12126364558935165,
            -0.05283508449792862,
            -0.05567626282572746,
            0.13131006062030792,
            -0.14878927171230316,
            0.3082624077796936,
            0.35301512479782104,
            0.07355953752994537,
            0.00853588804602623,
            0.08594273775815964,
            -0.2948029041290283,
            0.1575474590063095,
            -0.09844128042459488,
            0.022447576746344566,
            0.11851777136325836,
            -0.2424851506948471,
            0.03525954484939575,
            -0.12381760776042938,
            0.058615900576114655,
            -0.1932501494884491,
            -0.002554401522502303,
            -0.03906385600566864,
            -0.050018612295389175,
            0.29419946670532227,
            0.060795433819293976,
            -0.12348747253417969,
            -0.14525896310806274,
            0.1179000586271286,
            0.2430540919303894,
            -0.06826065480709076,
            0.2973187267780304,
            0.14191938936710358,
            0.10765909403562546,
            -0.17199257016181946,
            -0.1448260247707367,
            0.08255427330732346,
            0.02777346596121788,
            -0.06713414937257767,
            -0.04129350930452347,
            0.24209822714328766,
            0.1772686094045639,
            0.07504002749919891,
            -0.09005515277385712,
            -0.01847316138446331,
            0.09705059975385666,
            -0.1093309223651886,
            -0.10232504457235336,
            0.05804188549518585,
            0.11792180687189102,
            -0.22383517026901245,
            -0.2800115942955017,
            0.1376020610332489,
            -0.08755247294902802,
            -0.08441074192523956,
            0.0017108926549553871,
            0.001284019323065877,
            -0.005024883896112442,
            0.1514233499765396,
            0.13016125559806824,
            0.10425923764705658,
            0.1069771870970726,
            -0.07035353034734726,
            -0.03215081989765167,
            -0.043872226029634476,
            0.07914190739393234,
            -0.10416220873594284,
            -0.040182925760746,
            0.027897972613573074,
            0.0012269036378711462,
            0.07513369619846344,
            -0.11478477716445923,
            0.03950434923171997,
            0.0791642889380455,
            -0.10123157501220703,
            -0.11957180500030518,
            0.03544365242123604,
            -0.0815298855304718,
            -0.06668560206890106,
            0.15112225711345673,
            0.06984291225671768
        ]
    },
    "discriminator": {
        "num_inputs": 28,
        "num_outputs": 1,
        "num_hidden_layers": 1,
        "neurons_per_hidden_layer": 64,
        "hidden_layer_activation_function": "relu",
        "final_layer_activation_function": "sigmoid",
        "bias": true,
        "weights": [
            -0.1151428371667862,
            -0.1921243816614151,
            -0.09390775859355927,
            -0.007416161242872477,
            0.2692249119281769,
            0.3571688234806061,
            0.2668777108192444,
            0.476477712392807,
            0.06530962884426117,
            -0.013600832782685757,
            -0.07407427579164505,
            -0.054743412882089615,
            -0.14420351386070251,
            0.03811654448509216,
            0.02742624841630459,
            0.042301926761865616,
            0.13153693079948425,
            0.25654491782188416,
            0.18237857520580292,
            0.29992279410362244,
            -0.005260932259261608,
            -0.13981828093528748,
            0.08104601502418518,
            -0.026440788060426712,
            -0.1588355153799057,
            0.2658003270626068,
            -0.20128972828388214,
            -0.04984990507364273,
            0.1021297350525856,
            -0.10461170971393585,
            -0.11736081540584564,
            0.06290138512849808,
            -0.22795040905475616,
            0.009817847050726414,
            0.3201892375946045,
            0.11721722781658173,
            0.1251637041568756,
            -0.1931990385055542,
            -0.17909392714500427,
            -0.21929596364498138,
            -0.11600612103939056,
            0.2370113581418991,
            0.01898135431110859,
            0.7211671471595764,
            -0.0967688262462616,
            0.11159849911928177,
            0.3542923927307129,
            0.1568741798400879,
            -0.05650791898369789,
            -0.15710580348968506,
            -0.09098564088344574,
            -0.08275356888771057,
            0.1808004081249237,
            -0.19236958026885986,
            0.2959844172000885,
            -0.041461359709501266,
            0.13138124346733093,
            0.35605013370513916,
            -0.12661460041999817,
            0.1860571950674057,
            -0.16103564202785492,
            -0.4460909068584442,
            0.3340732753276825,
            0.044146500527858734,
            0.0027256603352725506,
            -0.7066398859024048,
            -0.48536416888237,
            -0.41868919134140015,
            0.6740368604660034,
            0.14822182059288025,
            -0.3024742305278778,
            0.2853734493255615,
            -0.05031207576394081,
            0.4442208409309387,
            0.34280651807785034,
            -0.012996516190469265,
            -0.03669993579387665,
            0.06625804305076599,
            0.13642096519470215,
            -0.42829471826553345,
            0.5989717841148376,
            -0.26952534914016724,
            0.1353330910205841,
            0.1827791929244995,
            -0.07698206603527069,
            -0.0901411846280098,
            0.22909821569919586,
            -0.20746208727359772,
            -0.04746110364794731,
            -0.22797200083732605,
            -0.08968374133110046,
            -0.01733999326825142,
            0.023862449452280998,
            -0.01293142233043909,
            0.12733124196529388,
            0.19405947625637054,
            -0.30274108052253723,
            0.3236389756202698,
            -0.1639288067817688,
            -0.2793305516242981,
            -0.23620985448360443,
            0.027604063972830772,
            0.01127285324037075,
            -0.14002805948257446,
            0.18896585702896118,
            0.252277672290802,
            -0.31896209716796875,
            0.023401372134685516,
            0.0007984723197296262,
            0.2861504554748535,
            -0.11811650544404984,
            0.02546512708067894,
            0.096263088285923,
            0.052722297608852386,
            0.1985786259174347,
            0.203058123588562,
            0.27897629141807556,
            -0.29931139945983887,
            -0.5300859808921814,
            -0.5590479969978333,
            -0.11713158339262009,
            0.3247808814048767,
            -0.08335509151220322,
            -0.009405787102878094,
            0.2852409780025482,
            -0.11760828644037247,
            0.009774486534297466,
            -0.3404259979724884,
            0.06943442672491074,
            -0.6753254532814026,
            -0.1937532275915146,
            0.008250719867646694,
            -0.03097553178668022,
            0.1964339166879654,
            -0.25715285539627075,
            0.1504368633031845,
            0.11715257912874222,
            -0.05984901636838913,
            0.4385179281234741,
            0.20818983018398285,
            -0.17056171596050262,
            0.07294731587171555,
            0.014952123165130615,
            0.008041598834097385,
            -0.04391340911388397,
            -0.048550739884376526,
            0.02758573554456234,
            0.3403351604938507,
            0.1350328028202057,
            -0.6920658946037292,
            -0.05850065499544144,
            0.3544609546661377,
            -0.2485135793685913,
            -0.10785531997680664,
            0.28651195764541626,
            -0.1491774022579193,
            0.13206984102725983,
            -0.07955405861139297,
            -0.28172236680984497,
            -0.4340464174747467,
            0.09070130437612534,
            -0.2518155872821808,
            -0.1962159126996994,
            -0.28940510749816895,
            -0.15768881142139435,
            0.08303549140691757,
            0.011945606209337711,
            -0.11763276904821396,
            -0.3625343143939972,
            0.11092396080493927,
            0.2373497486114502,
            -0.587705671787262,
            -0.23011602461338043,
            -0.06765363365411758,
            -0.4588155448436737,
            0.291874498128891,
            0.6744909286499023,
            0.13522756099700928,
            0.286659836769104,
            -0.056764207780361176,
            -0.03486109897494316,
            -0.030979925766587257,
            -0.13153503835201263,
            -0.45628079771995544,
            -0.28814929723739624,
            -0.09156980365514755,
            0.1993473768234253,
            0.18927313387393951,
            0.29870134592056274,
            0.20035892724990845,
            0.15582014620304108,
            0.46102216839790344,
            -0.17193618416786194,
            -0.06477391719818115,
            -0.4055592119693756,
            -0.418120414018631,
            0.04651321470737457,
            0.1451716423034668,
            0.12828709185123444,
            0.25200068950653076,
            0.09946296364068985,
            -0.15874099731445312,
            -0.11838264018297195,
            0.11310120671987534,
            0.07905052602291107,
            0.255830317735672,
            -0.1464068591594696,
            -0.40754008293151855,
            0.43777409195899963,
            0.025363048538565636,
            0.28865188360214233,
            -0.01852882280945778,
            -0.10995887219905853,
            -0.26509150862693787,
            0.0692424327135086,
            0.10037565231323242,
            -0.41792306303977966,
            0.018404142931103706,
            0.2492450475692749,
            -0.18505029380321503,
            -0.27209049463272095,
            0.2081785500049591,
            -0.5172137022018433,
            0.0803472176194191,
            0.07978895306587219,
            0.06966529786586761,
            -0.14322549104690552,
            -0.2267434000968933,
            0.07129720598459244,
            0.15103590488433838,
            0.06599563360214233,
            0.8352140784263611,
            0.09756419062614441,
            -0.09755638986825943,
            0.004821049980819225,
            -0.10471688210964203,
            -0.2023026943206787,
            0.015333891846239567,
            0.34224733710289,
            -0.21794413030147552,
            0.008015932515263557,
            0.3017238676548004,
            -0.2601037323474884,
            0.3071281611919403,
            -0.3058176040649414,
            -0.4010036289691925,
            -0.3321213722229004,
            0.06257785111665726,
            -0.16659903526306152,
            0.14359305799007416,
            0.14962972700595856,
            0.39453333616256714,
            -0.021429596468806267,
            -0.10729235410690308,
            0.03376016765832901,
            -0.011971525847911835,
            0.1583859771490097,
            0.08669114112854004,
            -0.1493058055639267,
            0.061046063899993896,
            0.11294960975646973,
            -0.22233769297599792,
            -0.20998021960258484,
            0.04208998382091522,
            0.08189373463392258,
            0.023849984630942345,
            -0.06673705577850342,
            0.057827480137348175,
            0.026574794203042984,
            -0.058182500302791595,
            0.1964910328388214,
            0.15313930809497833,
            -0.06203623116016388,
            0.02788155898451805,
            -0.08897817134857178,
            -0.1798202395439148,
            -0.04002603143453598,
            0.10456886142492294,
            -0.01495471689850092,
            -0.04618462175130844,
            -0.2563807964324951,
            0.13946203887462616,
            0.1354607492685318,
            -0.09631863236427307,
            0.6303741931915283,
            0.13332700729370117,
            0.14563171565532684,
            0.29229164123535156,
            -0.2695109248161316,
            -0.06222189962863922,
            -0.563122034072876,
            -0.015241174027323723,
            -0.16694176197052002,
            -0.16394715011119843,
            0.40909215807914734,
            0.1738162785768509,
            -0.18444408476352692,
            0.208522230386734,
            -0.11413551867008209,
            0.022069834172725677,
            0.3377097547054291,
            0.11730843782424927,
            0.185708150267601,
            -0.02700832672417164,
            -0.28550994396209717,
            0.3878653645515442,
            -0.8878796100616455,
            0.6584641933441162,
            0.32990583777427673,
            -0.09914491325616837,
            0.026386655867099762,
            0.059915393590927124,
            -0.05029965564608574,
            -0.055193960666656494,
            0.05959479883313179,
            0.027720559388399124,
            0.028512945398688316,
            0.2273862063884735,
            -0.35377171635627747,
            -0.18474631011486053,
            -0.03223349526524544,
            -0.11894294619560242,
            0.02756469137966633,
            -0.19838912785053253,
            0.03736606985330582,
            0.0833074301481247,
            0.019112130627036095,
            -0.10820543766021729,
            0.0752127543091774,
            0.1990022212266922,
            -0.016807887703180313,
            0.12905406951904297,
            0.09770112484693527,
            -0.006590400356799364,
            -0.39106303453445435,
            0.27803492546081543,
            -0.22695787250995636,
            0.014455312862992287,
            0.3118516206741333,
            -0.30752238631248474,
            0.16716060042381287,
            0.3661133050918579,
            0.49491679668426514,
            0.6430158019065857,
            -0.5799819827079773,
            0.6030188202857971,
            -0.3861238658428192,
            0.06282847374677658,
            -0.01248580776154995,
            0.6040169596672058,
            -0.14975374937057495,
            -0.45366162061691284,
            0.1400778740644455,
            0.08977395296096802,
            0.12325704842805862,
            0.08711814880371094,
            0.16088849306106567,
            0.5008866190910339,
            -0.20263133943080902,
            -0.4861745834350586,
            0.32510820031166077,
            0.06927327066659927,
            0.028710469603538513,
            -0.6416904926300049,
            -0.041702140122652054,
            -0.15723258256912231,
            0.03481429070234299,
            0.03700133413076401,
            0.15882068872451782,
            0.0808379054069519,
            -0.13701537251472473,
            0.08064337819814682,
            0.07765405625104904,
            -0.295005202293396,
            -0.223929300904274,
            0.06878974288702011,
            0.08294558525085449,
            0.012291857972741127,
            -0.06009460985660553,
            0.05875425785779953,
            0.06110381707549095,
            -0.022947978228330612,
            0.2193136364221573,
            0.19766703248023987,
            -0.09890696406364441,
            -0.019988639280200005,
            -0.06967770308256149,
            -0.17349646985530853,
            -0.05532445013523102,
            0.16378623247146606,
            -0.012858403846621513,
            -0.0712026059627533,
            0.10743950307369232,
            -0.09502308815717697,
            0.04299825429916382,
            -0.16914160549640656,
            -0.21232013404369354,
            0.25184735655784607,
            0.3417055010795593,
            0.22347800433635712,
            -0.31510403752326965,
            0.44078728556632996,
            -0.33288201689720154,
            -0.2508692741394043,
            0.025792332366108894,
            0.417465478181839,
            -0.16260641813278198,
            -0.21682539582252502,
            0.14585088193416595,
            -0.06284192204475403,
            0.18746446073055267,
            -0.2786250412464142,
            0.40817537903785706,
            0.20697028934955597,
            0.16089516878128052,
            -0.24605655670166016,
            -0.1321985125541687,
            -0.016640227288007736,
            -0.12391602247953415,
            -0.8135724067687988,
            -0.1022440493106842,
            -0.3261431157588959,
            -0.09333402663469315,
            0.3198212683200836,
            -0.031028760597109795,
            -0.10902811586856842,
            -0.21983619034290314,
            0.31376880407333374,
            0.09655016660690308,
            -0.15705586969852448,
            -0.23882073163986206,
            -0.1521032452583313,
            -0.024934090673923492,
            0.014475686475634575,
            -0.06424134224653244,
            -0.3681299388408661,
            0.0933033674955368,
            0.07659266144037247,
            0.29767322540283203,
            0.5735604166984558,
            -0.13147810101509094,
            -0.05305520072579384,
            -0.03772975131869316,
            -0.2037268429994583,
            0.16451536118984222,
            -0.10505817085504532,
            0.27809157967567444,
            0.1277204304933548,
            -0.39597728848457336,
            -0.36990466713905334,
            -0.5568577647209167,
            -0.1955443024635315,
            0.10297804325819016,
            -0.24605335295200348,
            0.0033964994363486767,
            0.3279627561569214,
            0.2509520351886749,
            -0.06698953360319138,
            0.04194319248199463,
            -0.3786042332649231,
            0.09727583825588226,
            -0.1803242415189743,
            -0.3773922324180603,
            0.1886826902627945,
            -0.2411004602909088,
            0.48688238859176636,
            0.29088205099105835,
            0.2162272185087204,
            -0.4368475675582886,
            -0.2044227421283722,
            0.29354128241539,
            0.48122814297676086,
            0.09942296892404556,
            0.06969817727804184,
            0.199297696352005,
            0.22953619062900543,
            0.00346679356880486,
            -0.02055289037525654,
            0.15947377681732178,
            0.06154041737318039,
            0.41204071044921875,
            -0.01853269338607788,
            -0.309367835521698,
            -0.24521172046661377,
            -0.20251986384391785,
            0.02134205400943756,
            -0.2489643096923828,
            0.1851150393486023,
            -0.09412013739347458,
            -0.0990358218550682,
            -0.17894281446933746,
            -0.004944681189954281,
            -0.005559917539358139,
            0.2256278544664383,
            -0.19640026986598969,
            0.24546979367733002,
            0.11213894188404083,
            0.0828322023153305,
            0.09967546164989471,
            -0.1360524445772171,
            0.07457917928695679,
            -0.07452880591154099,
            0.006703218910843134,
            0.28962817788124084,
            -0.10018134117126465,
            -0.18140865862369537,
            0.10031239688396454,
            0.05660032480955124,
            0.08131629228591919,
            0.23772183060646057,
            -0.116584911942482,
            -0.2663114070892334,
            -0.07907804101705551,
            -0.016847889870405197,
            -0.24736478924751282,
            0.17198406159877777,
            0.0022752333898097277,
            0.18963870406150818,
            -0.06484828144311905,
            -0.10234790295362473,
            0.18659602105617523,
            -0.06537146121263504,
            0.12415418773889542,
            0.2598596215248108,
            0.000134184374473989,
            -0.2743585705757141,
            -0.047708526253700256,
            -0.1589827537536621,
            0.20273953676223755,
            0.19008786976337433,
            0.3201979994773865,
            -0.054972514510154724,
            0.14966809749603271,
            -0.17890876531600952,
            -0.005782415624707937,
            0.1840677261352539,
            0.3197530210018158,
            0.40937134623527527,
            -0.1808435320854187,
            -0.1637316197156906,
            -0.28506118059158325,
            -0.0645272359251976,
            0.03297806531190872,
            0.3269707262516022,
            -0.14461705088615417,
            0.35857605934143066,
            -0.14630211889743805,
            0.14432816207408905,
            0.08990978449583054,
            0.04619632288813591,
            -0.22994644939899445,
            0.07369585335254669,
            0.0054956525564193726,
            0.5206272006034851,
            -0.13572654128074646,
            0.0041532390750944614,
            -0.5264180898666382,
            -0.14399027824401855,
            -0.01592963933944702,
            -0.45644238591194153,
            -0.03119824081659317,
            0.20324060320854187,
            -0.250440388917923,
            -0.1060183197259903,
            -0.05574846267700195,
            -0.3024597764015198,
            -0.09507212787866592,
            -0.08666756749153137,
            -0.06505540013313293,
            -0.41709548234939575,
            -0.11131547391414642,
            0.04948268458247185,
            0.26169681549072266,
            0.051049042493104935,
            -0.35204970836639404,
            0.08460834622383118,
            -0.3483784794807434,
            0.331470251083374,
            0.1862475425004959,
            -0.10096060484647751,
            -0.0008143621380440891,
            -0.38976195454597473,
            0.0783742219209671,
            0.015070086345076561,
            0.5955397486686707,
            -0.07319986075162888,
            0.17451894283294678,
            -0.271014541387558,
            0.007944785989820957,
            0.24513259530067444,
            -0.050948113203048706,
            -0.08722440898418427,
            0.4637718200683594,
            0.2914167642593384,
            -0.25165700912475586,
            0.21648192405700684,
            -0.2829015851020813,
            -0.1251779943704605,
            -0.2992326319217682,
            -0.00334927043877542,
            0.023961739614605904,
            -0.27335888147354126,
            -0.06130162626504898,
            0.2016797512769699,
            0.0020270978566259146,
            0.24457566440105438,
            0.0069243405014276505,
            0.05179153382778168,
            0.011746053583920002,
            -0.08579839020967484,
            0.23327337205410004,
            -0.07346262037754059,
            -0.14441345632076263,
            -0.0255170539021492,
            -0.1465391218662262,
            0.0824090838432312,
            -0.08012360334396362,
            -0.2915719747543335,
            0.2086574286222458,
            -0.08250954747200012,
            -0.49703285098075867,
            -0.005558868870139122,
            0.08411982655525208,
            -0.2961040139198303,
            0.10171957314014435,
            -0.32148048281669617,
            -0.2597414553165436,
            0.5862042307853699,
            -0.24374748766422272,
            -0.053118929266929626,
            -0.1484093815088272,
            -0.02857089787721634,
            0.6020682454109192,
            -0.22510434687137604,
            0.09963805228471756,
            -0.34564152359962463,
            0.548555314540863,
            -0.08743289858102798,
            -0.1485852301120758,
            -0.17686645686626434,
            -0.39839497208595276,
            0.23979364335536957,
            0.3406074643135071,
            0.2003968358039856,
            -0.029293660074472427,
            0.021337997168302536,
            -0.10798978060483932,
            -0.4496811628341675,
            0.47202444076538086,
            0.46492308378219604,
            0.06740742921829224,
            0.25266313552856445,
            -0.10910739004611969,
            0.12861274182796478,
            0.14834502339363098,
            0.2224382907152176,
            0.06896445900201797,
            -0.026406873017549515,
            -0.35906681418418884,
            0.13976812362670898,
            0.0886194184422493,
            -0.034934815019369125,
            -0.034015342593193054,
            0.04642593860626221,
            -0.002228898461908102,
            0.08212891966104507,
            0.16886991262435913,
            0.5922891497612,
            -0.18919949233531952,
            0.08974660187959671,
            -0.037321608513593674,
            0.37016183137893677,
            0.2500861585140228,
            0.29386430978775024,
            -0.13300709426403046,
            -0.07747191935777664,
            -0.24922284483909607,
            -0.04986444488167763,
            -0.07021651417016983,
            0.3880751430988312,
            -0.13988791406154633,
            -0.19349859654903412,
            -0.08201704174280167,
            0.23381690680980682,
            -0.06031731888651848,
            0.14459280669689178,
            0.08970111608505249,
            -0.06728148460388184,
            -0.12884390354156494,
            -0.22948305308818817,
            -0.05016032233834267,
            0.06986960768699646,
            -0.1067047193646431,
            -0.10945244878530502,
            -0.40716493129730225,
            0.0033894875086843967,
            -0.04434606432914734,
            -0.21324026584625244,
            -0.13572603464126587,
            0.3786449730396271,
            -0.0005373796448111534,
            0.14251743257045746,
            -0.37802353501319885,
            0.2246648669242859,
            0.31121447682380676,
            0.26851511001586914,
            -0.3480946123600006,
            -0.44605523347854614,
            -0.31523770093917847,
            0.23351739346981049,
            0.021178336814045906,
            0.5986002683639526,
            0.32026955485343933,
            0.17070606350898743,
            -0.5327439904212952,
            -0.4800569713115692,
            0.30665352940559387,
            0.32601433992385864,
            -0.22857730090618134,
            -0.2190563827753067,
            0.021387489512562752,
            -1.027156114578247,
            0.21180520951747894,
            -0.47025245428085327,
            0.24422697722911835,
            0.2874923348426819,
            0.4828583002090454,
            0.05244046077132225,
            0.07955232262611389,
            -0.02054845541715622,
            -0.03746800497174263,
            0.18948525190353394,
            -0.3296796381473541,
            -0.30273813009262085,
            -0.06296998262405396,
            -0.2532493472099304,
            0.0470009483397007,
            -0.13879835605621338,
            -0.20426659286022186,
            -0.05415640398859978,
            0.40174946188926697,
            -0.5395975112915039,
            -0.6545026898384094,
            -0.06868527829647064,
            0.1535806506872177,
            0.2896397113800049,
            0.5489303469657898,
            -0.5921331644058228,
            0.25147098302841187,
            -0.254761278629303,
            0.30369311571121216,
            0.10315500199794769,
            0.2854365408420563,
            -0.08356960862874985,
            0.00017394404858350754,
            -0.35355159640312195,
            0.08547676354646683,
            0.10378561913967133,
            0.11079121381044388,
            -0.12654198706150055,
            0.2724320590496063,
            -0.13732706010341644,
            0.1753993183374405,
            0.15562088787555695,
            0.20295628905296326,
            -0.5336308479309082,
            0.04891391098499298,
            -0.33403244614601135,
            0.18928708136081696,
            0.024361539632081985,
            0.17912228405475616,
            0.16624850034713745,
            0.12859420478343964,
            0.020962746813893318,
            -0.22288797795772552,
            0.182462677359581,
            -0.2192678600549698,
            -0.23098412156105042,
            0.12947216629981995,
            0.02534663863480091,
            -0.02254948951303959,
            0.13086938858032227,
            -0.05462457612156868,
            -0.18216374516487122,
            0.2184230387210846,
            -0.030467292293906212,
            -0.2575211226940155,
            0.6353073716163635,
            -0.26144155859947205,
            -0.2850455641746521,
            -0.5725252032279968,
            -0.44981876015663147,
            0.0005464109126478434,
            -0.09408144652843475,
            -0.16722825169563293,
            -0.3070641756057739,
            0.4240601062774658,
            0.07555712014436722,
            -0.4305686354637146,
            0.11810319125652313,
            -0.09904584288597107,
            0.029898565262556076,
            -0.23070302605628967,
            -0.2023938000202179,
            -0.38433611392974854,
            -0.05781899392604828,
            -0.214050754904747,
            -0.7452093362808228,
            0.04398082569241524,
            -0.2539416253566742,
            0.6353762149810791,
            -0.009968836791813374,
            -0.3086119592189789,
            0.1301925629377365,
            0.29027241468429565,
            -0.24039238691329956,
            0.24884527921676636,
            -0.03489559143781662,
            0.29316246509552,
            0.31037840247154236,
            0.26812049746513367,
            0.010398667305707932,
            -0.06271987408399582,
            -0.5096137523651123,
            0.1966763436794281,
            -0.21970756351947784,
            0.333051860332489,
            0.2766673266887665,
            -0.09895586967468262,
            -0.2275327742099762,
            0.27898600697517395,
            0.5606264472007751,
            0.16551482677459717,
            0.8817601203918457,
            0.036837127059698105,
            0.5953969359397888,
            0.20799289643764496,
            -0.11629592627286911,
            -0.6709849834442139,
            -0.4962199330329895,
            0.014709167182445526,
            -0.003869149135425687,
            -0.09289561212062836,
            0.27723267674446106,
            -0.14395076036453247,
            -0.05969788879156113,
            0.1699201911687851,
            0.14988942444324493,
            0.40522387623786926,
            -0.4821893870830536,
            0.219034805893898,
            -0.4311477243900299,
            0.06972361356019974,
            -0.09972430020570755,
            0.1872396469116211,
            0.6485676765441895,
            -0.07014664262533188,
            0.08536040037870407,
            0.5603010654449463,
            0.13735219836235046,
            -0.5352142453193665,
            -0.019481448456645012,
            0.15001463890075684,
            0.05073628947138786,
            -0.24898739159107208,
            -0.16214843094348907,
            -0.43123966455459595,
            -0.491338849067688,
            0.08768748492002487,
            -0.1469845473766327,
            -0.5503029823303223,
            0.4830707013607025,
            -0.037204284220933914,
            -0.017518628388643265,
            0.3061128854751587,
            -0.024001935496926308,
            0.10188226401805878,
            -0.12173658609390259,
            0.10224883258342743,
            -0.5582711696624756,
            0.2122313231229782,
            0.17367053031921387,
            -0.3831034302711487,
            -0.33941948413848877,
            -0.008222810924053192,
            -0.08308818191289902,
            0.3396141827106476,
            -0.24148862063884735,
            -0.18698734045028687,
            0.014002091251313686,
            0.2659274637699127,
            -0.427343487739563,
