{
    "num_epochs": 40000,
    "batch_size": 1000,
    "final_loss": 96.3942642211914,
    "learning_rate": 0.001,
    "train_data_exp_dir_paths": [
        "/app/data/bpw_configs/bpw_train_data/knee_speed_2.0",
        "/app/data/bpw_configs/bpw_train_data/knee_speed_4.0",
        "/app/data/bpw_configs/bpw_train_data/knee_speed_6.0"
    ],
    "encoder": {
        "num_inputs": 100,
        "num_outputs": 2,
        "num_hidden_layers": 1,
        "neurons_per_hidden_layer": 64,
        "hidden_layer_activation_function": "relu",
        "final_layer_activation_function": null,
        "bias": true,
        "weights": [
            -0.0034469228703528643,
            -0.03308732807636261,
            0.03159003332257271,
            0.026319464668631554,
            0.100094735622406,
            0.14046993851661682,
            -0.030687829479575157,
            0.009950542822480202,
            0.07758346199989319,
            -0.032492659986019135,
            -0.06485513597726822,
            -0.06734029948711395,
            0.026975465938448906,
            -0.0985676497220993,
            0.0619882196187973,
            -0.05814328044652939,
            -0.015933411195874214,
            -0.03482525423169136,
            -0.0297329593449831,
            -0.03798917308449745,
            -0.05070912837982178,
            0.05581381171941757,
            -0.07654395699501038,
            -0.007287261541932821,
            -0.0828888937830925,
            0.03198438510298729,
            -0.045089125633239746,
            -0.024477114900946617,
            0.00767854368314147,
            0.038182809948921204,
            -0.004438739735633135,
            -0.09237159043550491,
            -0.016348350793123245,
            -0.04090722277760506,
            0.001483473228290677,
            -0.05262317135930061,
            -0.1950565129518509,
            0.09430388361215591,
            0.008769605308771133,
            0.08815550804138184,
            0.02378627471625805,
            -0.057009920477867126,
            0.15699778497219086,
            0.12457282096147537,
            0.06520703434944153,
            0.015419868752360344,
            -0.04124852642416954,
            0.1810145229101181,
            -0.07514587044715881,
            0.11966080218553543,
            -0.16001065075397491,
            0.1643587350845337,
            -0.06844767183065414,
            -0.023678407073020935,
            -0.0200190432369709,
            0.0732303336262703,
            0.08214442431926727,
            -0.023300042375922203,
            -0.006617060396820307,
            0.061972327530384064,
            0.026229428127408028,
            -0.006307755131274462,
            0.03329393267631531,
            -0.024675505235791206,
            -0.03178730979561806,
            0.04269915446639061,
            0.04864326864480972,
            -0.08467362821102142,
            -0.011812655255198479,
            -0.028804190456867218,
            -0.06895081698894501,
            -0.09129531681537628,
            0.029943857342004776,
            0.09353189170360565,
            0.03860457241535187,
            -0.01672602817416191,
            -0.012394433841109276,
            0.018678925931453705,
            -0.016707932576537132,
            -0.1830977201461792,
            0.13975565135478973,
            0.0524139329791069,
            0.03445792943239212,
            -0.01651551015675068,
            -0.09037624299526215,
            0.011238167062401772,
            0.03750477358698845,
            0.03331602364778519,
            -0.0017404495738446712,
            0.02902800589799881,
            -0.03641156852245331,
            -0.07848687469959259,
            0.07425364851951599,
            0.11144404858350754,
            0.12068087607622147,
            -0.04024483636021614,
            0.15371906757354736,
            -0.07100610435009003,
            -0.12315602600574493,
            0.013564519584178925,
            0.10655957460403442,
            -0.08360793441534042,
            -0.10249326378107071,
            0.05186993256211281,
            0.12296044826507568,
            0.11908173561096191,
            -0.029828976839780807,
            0.1109783872961998,
            -0.06495415419340134,
            0.05354025959968567,
            0.06977824866771698,
            0.08559511601924896,
            -0.10679645091295242,
            0.15823118388652802,
            0.04143765941262245,
            0.06992360204458237,
            -0.11219735443592072,
            0.014494786970317364,
            0.07550938427448273,
            0.07001980394124985,
            0.006724896840751171,
            0.059587132185697556,
            0.08644223213195801,
            -0.10662292689085007,
            -0.024804430082440376,
            0.10020285099744797,
            0.21108846366405487,
            -0.09559854865074158,
            -0.09399750828742981,
            0.02991865947842598,
            -0.047594521194696426,
            -0.13584020733833313,
            -0.013551289215683937,
            -0.05263935774564743,
            0.13227351009845734,
            -0.03962542489171028,
            0.11176489293575287,
            -0.11006725579500198,
            -0.06363442540168762,
            0.11062824726104736,
            0.010527340695261955,
            -0.04624420404434204,
            0.02638876438140869,
            -0.006573598366230726,
            0.11225170642137527,
            0.14745518565177917,
            0.0825466588139534,
            -0.09491744637489319,
            -0.05433278530836105,
            -0.012174554169178009,
            0.011116387322545052,
            -0.02265734039247036,
            -0.05955764278769493,
            0.02547283284366131,
            0.01273281779140234,
            0.04717874154448509,
            -0.06788855791091919,
            0.032658785581588745,
            0.05628397688269615,
            -0.1265241950750351,
            -0.05762288346886635,
            0.10862583667039871,
            0.02368571236729622,
            -0.1442064344882965,
            -0.08894675970077515,
            -0.05253492668271065,
            -0.08990482985973358,
            -0.10697425901889801,
            -0.097500279545784,
            -0.009213916957378387,
            -0.12963999807834625,
            0.04536566883325577,
            0.02098054066300392,
            0.028614237904548645,
            0.04047482833266258,
            -0.09146224707365036,
            0.05130251124501228,
            -0.06269843131303787,
            0.04881763085722923,
            -0.1741369664669037,
            0.07195895165205002,
            -0.055995695292949677,
            -0.13979314267635345,
            -0.0943305715918541,
            0.05716756731271744,
            -0.044667381793260574,
            0.07971511036157608,
            0.031131811439990997,
            -0.11176658421754837,
            0.24480627477169037,
            0.03458726406097412,
            -0.041638586670160294,
            0.046577274799346924,
            -0.1296764463186264,
            0.04358578100800514,
            0.059298381209373474,
            0.04303307831287384,
            -0.0010690785711631179,
            -0.05865619331598282,
            -0.08842096477746964,
            -0.1356167197227478,
            -0.04318598657846451,
            -0.07662039250135422,
            -0.06070493534207344,
            0.158487468957901,
            0.16230995953083038,
            0.06213647499680519,
            -0.021978439763188362,
            -0.03849765658378601,
            0.029717320576310158,
            -8.766818791627884e-05,
            0.04955263063311577,
            0.06013557314872742,
            -0.08171705156564713,
            -0.07533476501703262,
            0.07988492399454117,
            0.051360294222831726,
            -0.13604672253131866,
            -0.13823795318603516,
            0.08023449033498764,
            -0.03950967267155647,
            -0.019696103408932686,
            0.10154365748167038,
            0.033982377499341965,
            -0.00943649560213089,
            -0.0005268300301395357,
            -0.052816711366176605,
            0.0496864952147007,
            -0.02743298001587391,
            -0.011380577459931374,
            0.10678069293498993,
            0.0024934434331953526,
            -0.1340184211730957,
            -0.15214742720127106,
            0.051437024027109146,
            0.00015385643928311765,
            0.05038820207118988,
            0.01904316619038582,
            -0.0033783067483454943,
            0.21992912888526917,
            -0.07866118848323822,
            -0.06023009866476059,
            0.12439887225627899,
            0.19758886098861694,
            0.10473331063985825,
            0.02072918228805065,
            -0.0005994418752379715,
            -0.009622679091989994,
            -0.0157404113560915,
            0.15536214411258698,
            0.019420381635427475,
            0.018283767625689507,
            0.07930909097194672,
            0.0671989694237709,
            -0.0350627601146698,
            0.018250886350870132,
            -0.058622829616069794,
            0.15325933694839478,
            -0.015229889191687107,
            -0.09484905749559402,
            0.23514772951602936,
            -0.08327140659093857,
            0.047310199588537216,
            0.10280191898345947,
            -0.04424852877855301,
            0.05241779237985611,
            -0.051764972507953644,
            -0.028525741770863533,
            0.08997085690498352,
            0.03274473920464516,
            -0.07569732517004013,
            -0.052676357328891754,
            0.007692378014326096,
            0.16571329534053802,
            -0.1459810733795166,
            0.19346383213996887,
            0.10477905720472336,
            -0.12025370448827744,
            0.1485542356967926,
            -0.13554218411445618,
            -0.011485474184155464,
            -0.08576111495494843,
            -0.037356261163949966,
            0.04916520044207573,
            -0.042367737740278244,
            -0.07061918824911118,
            0.06364069879055023,
            -0.07265224307775497,
            0.040178753435611725,
            -0.009617600589990616,
            0.08646565675735474,
            0.12477514892816544,
            0.0482383631169796,
            0.02926446497440338,
            0.11309339106082916,
            -0.008624798618257046,
            -0.08193181455135345,
            -0.16384465992450714,
            -0.09162014722824097,
            0.1926322728395462,
            -0.04921445623040199,
            0.057770706713199615,
            -0.04223925992846489,
            -0.05724083259701729,
            0.06494130194187164,
            0.06890612095594406,
            -0.04404483363032341,
            -0.04137205332517624,
            0.17413730919361115,
            0.07113592326641083,
            -0.11062829941511154,
            -0.14522115886211395,
            0.009445504285395145,
            0.016314517706632614,
            -0.09185323119163513,
            0.14289307594299316,
            -0.05940201133489609,
            -0.09215208888053894,
            -0.11670143157243729,
            0.06174882873892784,
            0.008822621777653694,
            -0.1974475085735321,
            -0.08602084219455719,
            -0.22800478339195251,
            0.009562005288898945,
            0.10465752333402634,
            -0.005226784851402044,
            -0.05211520940065384,
            0.018419543281197548,
            0.02591000869870186,
            0.14118589460849762,
            -0.0736827626824379,
            -0.0827224999666214,
            -0.08473704755306244,
            -0.025898491963744164,
            0.09707961231470108,
            -0.1142709031701088,
            -0.051014285534620285,
            -0.0906720981001854,
            0.150973841547966,
            -0.03063800558447838,
            0.143169566988945,
            -0.04882311448454857,
            -0.05565322935581207,
            0.08819141983985901,
            -0.07081197947263718,
            0.04671734571456909,
            0.09004632383584976,
            -0.07986782491207123,
            -0.07472456246614456,
            0.027117690071463585,
            -0.08151546120643616,
            -0.1349329799413681,
            0.12226060777902603,
            0.01723141223192215,
            0.06665541231632233,
            -0.05749758705496788,
            -0.0580831840634346,
            0.04388329014182091,
            -0.04179896414279938,
            0.04800890013575554,
            0.04496348276734352,
            -0.05737260729074478,
            -0.08237618207931519,
            0.1735782027244568,
            0.06430743634700775,
            -0.02165033668279648,
            -0.18915998935699463,
            -0.03733997419476509,
            0.039518002420663834,
            -0.144491046667099,
            0.02585791051387787,
            -0.07431018352508545,
            0.07282472401857376,
            0.04181675612926483,
            0.2387726604938507,
            0.06010042503476143,
            -0.03988244757056236,
            -0.015538273379206657,
            -0.13195720314979553,
            -0.044856805354356766,
            -0.08525673300027847,
            -0.0559481643140316,
            0.03384844586253166,
            -0.03217974677681923,
            -0.05387522652745247,
            0.055136919021606445,
            0.07361819595098495,
            0.06348150223493576,
            0.05721966177225113,
            -0.058219995349645615,
            -0.011048913933336735,
            0.054196469485759735,
            -0.05139714479446411,
            0.16423827409744263,
            0.03546711429953575,
            0.04163441061973572,
            0.07819917052984238,
            -0.07301802933216095,
            -0.08524623513221741,
            0.18893499672412872,
            -0.1966738998889923,
            -0.128922700881958,
            -0.10550789535045624,
            -0.02759193815290928,
            0.05320534482598305,
            -0.08916281163692474,
            -0.04131476581096649,
            0.15720461308956146,
            -0.08346844464540482,
            0.11260879039764404,
            -0.06628409028053284,
            0.007556989323347807,
            0.06424665451049805,
            0.14654222130775452,
            -0.04786808043718338,
            -0.0072956811636686325,
            -0.1528588831424713,
            -0.016817640513181686,
            -0.18661105632781982,
            -0.18535056710243225,
            -0.04517611488699913,
            -0.10744363069534302,
            0.033461276441812515,
            0.022479640319943428,
            0.017293604090809822,
            0.08858691900968552,
            -0.07657349109649658,
            -0.12681153416633606,
            -0.057665999978780746,
            0.018202556297183037,
            -0.21140238642692566,
            -0.03160303086042404,
            -0.004497137386351824,
            0.04212968423962593,
            0.19550904631614685,
            -0.036578696221113205,
            -0.0005467758746817708,
            -0.01798577979207039,
            -0.08162889629602432,
            0.11155726760625839,
            0.009060746990144253,
            -0.19570161402225494,
            0.06489165872335434,
            -0.037404898554086685,
            -0.14563025534152985,
            0.0472801998257637,
            0.09119928628206253,
            0.05116754770278931,
            -0.004482193384319544,
            0.1704079508781433,
            0.04848099872469902,
            0.06654484570026398,
            -0.015659809112548828,
            0.22840937972068787,
            0.035447731614112854,
            -0.19718174636363983,
            -0.10233163833618164,
            -0.039525408297777176,
            -0.11603614687919617,
            -0.19842751324176788,
            0.056613873690366745,
            -0.003960815258324146,
            -0.2012382596731186,
            0.03562966734170914,
            0.04435446485877037,
            0.154800683259964,
            0.13816490769386292,
            -0.21225391328334808,
            0.06539961695671082,
            0.04247845336794853,
            0.1441209614276886,
            -0.11166463047266006,
            -0.07699110358953476,
            -0.07679574191570282,
            0.11248975992202759,
            -0.0727333351969719,
            0.09971599280834198,
            -0.027057668194174767,
            -0.017900733277201653,
            -0.07100452482700348,
            -0.15619269013404846,
            0.12718285620212555,
            -0.044161900877952576,
            0.002031577518209815,
            0.1687682718038559,
            -0.1366497427225113,
            0.03799671679735184,
            0.04422427713871002,
            -0.025552595034241676,
            -0.11303802579641342,
            -0.07259391993284225,
            0.036107681691646576,
            -0.22321002185344696,
            0.11798322945833206,
            0.1468730866909027,
            -0.07579080760478973,
            -0.02965407818555832,
            -0.2109331488609314,
            0.222967728972435,
            0.1740066409111023,
            0.03829314187169075,
            -0.0918569564819336,
            0.0349491685628891,
            0.02263741008937359,
            0.07787025719881058,
            -0.035554297268390656,
            -0.09923703968524933,
            0.08665145933628082,
            -0.14136551320552826,
            0.028841644525527954,
            0.1061733067035675,
            -0.08742911368608475,
            -0.018971877172589302,
            0.027108807116746902,
            -0.03321446478366852,
            0.07807986438274384,
            0.07733923941850662,
            0.1367924064397812,
            0.04224236309528351,
            0.04761725291609764,
            0.030362213030457497,
            -0.04065611958503723,
            -0.010937334969639778,
            -0.05503346771001816,
            0.013434546999633312,
            0.13332217931747437,
            0.019003406167030334,
            0.14697659015655518,
            0.037497565150260925,
            0.07938221096992493,
            0.04429345205426216,
            -0.024513578042387962,
            -0.29379400610923767,
            0.07144712656736374,
            0.10399503260850906,
            -0.030328555032610893,
            -0.0005287703825160861,
            0.057060737162828445,
            0.17640072107315063,
            0.04904653877019882,
            0.006914505735039711,
            -0.15633301436901093,
            0.19294492900371552,
            -0.009461992420256138,
            -0.05177704989910126,
            -0.04960816726088524,
            0.09583590179681778,
            0.11425919085741043,
            -0.12858551740646362,
            -0.1470893919467926,
            -0.10571986436843872,
            0.08360816538333893,
            0.0902278944849968,
            0.020469065755605698,
            -0.11854241788387299,
            -0.06724387407302856,
            0.10589250177145004,
            -0.0794975534081459,
            -0.10643786191940308,
            0.015037111937999725,
            -0.028770610690116882,
            0.049993846565485,
            -0.1340779960155487,
            0.013301918283104897,
            0.026844467967748642,
            0.054148994386196136,
            -0.11395841091871262,
            -0.01526077464222908,
            -0.18258292973041534,
            -0.04695550352334976,
            0.02722085826098919,
            -0.027569480240345,
            0.02283431403338909,
            0.08902261406183243,
            0.06689275801181793,
            0.11058855801820755,
            0.129271999001503,
            0.04967270419001579,
            -0.03036877140402794,
            0.05193164944648743,
            0.014244599267840385,
            -0.11702621728181839,
            0.13877750933170319,
            -0.016748087480664253,
            -0.016931863501667976,
            0.05452985689043999,
            0.03219570219516754,
            -0.1350134015083313,
            0.023830587044358253,
            -0.010495544411242008,
            0.07985781133174896,
            0.031249238178133965,
            0.006714710034430027,
            -0.1250080168247223,
            0.09752585738897324,
            -0.17508812248706818,
            0.0892476961016655,
            -0.042959101498126984,
            -0.011326603591442108,
            -0.031612541526556015,
            -0.08348606526851654,
            -0.04271940886974335,
            0.08446916937828064,
            0.07871922105550766,
            0.1148797944188118,
            -0.08506260812282562,
            -0.054560258984565735,
            -0.037985362112522125,
            -0.13216114044189453,
            0.036782536655664444,
            0.04858095943927765,
            -0.040231820195913315,
            0.036366056650877,
            0.0129266157746315,
            0.01913314312696457,
            -0.04747653007507324,
            0.10659264028072357,
            -0.06594268232584,
            0.0063432492315769196,
            -0.08029323816299438,
            -0.0434291735291481,
            -0.05784924328327179,
            -0.11624572426080704,
            -0.08898532390594482,
            0.044731300324201584,
            0.06627689301967621,
            0.05550115928053856,
            0.10168557614088058,
            0.021454334259033203,
            0.13428205251693726,
            -0.059524208307266235,
            0.06859276443719864,
            0.02063898555934429,
            -0.019757578149437904,
            -0.13625837862491608,
            -0.1089421883225441,
            0.11337768286466599,
            0.08554820716381073,
            0.13665655255317688,
            0.028727293014526367,
            0.021014763042330742,
            0.1257481873035431,
            0.09245795756578445,
            0.06618969887495041,
            -0.007782863453030586,
            -0.037548597902059555,
            -0.011983000673353672,
            -0.017033647745847702,
            0.06265908479690552,
            0.023595521226525307,
            -0.09307948499917984,
            0.043489303439855576,
            0.024196447804570198,
            -0.0720079243183136,
            -0.016564298421144485,
            -0.043779000639915466,
            0.13621963560581207,
            -0.018250025808811188,
            0.034738048911094666,
            0.15263430774211884,
            -0.0036509670317173004,
            -0.020563919097185135,
            -0.10226821154356003,
            -0.10525253415107727,
            -0.055638812482357025,
            -0.053707290440797806,
            -0.11575816571712494,
            -0.04169958084821701,
            -0.11169437319040298,
            -0.06668619066476822,
            -0.10236277431249619,
            -0.0823371484875679,
            0.11031219363212585,
            -0.041159793734550476,
            -0.002055288292467594,
            0.013557380065321922,
            0.02095731720328331,
            -0.019557656720280647,
            -0.07663951069116592,
            0.10809414833784103,
            -0.08509083092212677,
            0.04708711430430412,
            0.10490253567695618,
            -0.11905472725629807,
            -0.014267025515437126,
            -0.05037006735801697,
            0.0019737165421247482,
            0.09916649013757706,
            -0.041258249431848526,
            0.02010166458785534,
            -0.02963443472981453,
            0.025341946631669998,
            0.12447177618741989,
            0.02750561572611332,
            0.08268754184246063,
            -0.10752537101507187,
            -0.014870359562337399,
            -0.13313661515712738,
            0.05644119530916214,
            -0.01407593209296465,
            0.024499693885445595,
            -0.15302947163581848,
            0.047673024237155914,
            0.01503122877329588,
            0.04153823480010033,
            -0.1403910517692566,
            0.059524547308683395,
            -0.013521105982363224,
            0.01108336728066206,
            0.06298463046550751,
            -0.09934181720018387,
            -0.21772992610931396,
            0.22214020788669586,
            -0.04241686686873436,
            -0.13926734030246735,
            0.1573680192232132,
            -0.030442673712968826,
            0.04380330070853233,
            0.024360934272408485,
            0.006219406146556139,
            -0.01698334515094757,
            -0.24884973466396332,
            0.04161256179213524,
            -0.012833905406296253,
            -0.03566109389066696,
            -0.12147071957588196,
            0.05165737122297287,
            0.23767204582691193,
            0.14427262544631958,
            0.1162809208035469,
            -0.07259969413280487,
            0.13965262472629547,
            -0.001404255861416459,
            0.17060142755508423,
            -0.05287263169884682,
            0.0104704350233078,
            0.003510149894282222,
            -0.06072104722261429,
            0.01881387270987034,
            -0.21544797718524933,
            0.21070262789726257,
            -0.07158011198043823,
            0.01667190156877041,
            0.054594654589891434,
            0.06947154551744461,
            0.08639811724424362,
            0.14835917949676514,
            -0.053708262741565704,
            0.02090419828891754,
            0.2067699432373047,
            -0.01431463472545147,
            0.048495300114154816,
            0.056338120251894,
            -0.09217225015163422,
            0.08351420611143112,
            -0.21311575174331665,
            0.02594813145697117,
            0.005814309697598219,
            -0.013829612173140049,
            0.04083903878927231,
            -0.007601414807140827,
            0.024621088057756424,
            0.08123040944337845,
            -0.04836078733205795,
            -0.037748079746961594,
            0.045375075191259384,
            -0.12661507725715637,
            -0.04482460021972656,
            -0.0017126217717304826,
            -0.043221235275268555,
            -0.16783057153224945,
            0.11430280655622482,
            0.04440932720899582,
            0.046575162559747696,
            0.12210918217897415,
            -0.03132365271449089,
            0.09992647916078568,
            0.004581691697239876,
            0.08528537303209305,
            -0.027190620079636574,
            0.05700221285223961,
            -0.15638737380504608,
            0.10875874757766724,
            0.043686363846063614,
            -0.08875302225351334,
            0.02625155821442604,
            0.13981236517429352,
            -0.0706038698554039,
            -0.03878694772720337,
            0.05188821256160736,
            0.2520376741886139,
            0.1449619084596634,
            0.13468965888023376,
            0.01956300437450409,
            -0.0539553239941597,
            0.05905762314796448,
            -0.042800117284059525,
            0.029518624767661095,
            -0.13328424096107483,
            -0.08910811692476273,
            -0.006453387439250946,
            -0.09399622678756714,
            -0.06322357803583145,
            -0.030238188803195953,
            -0.12100617587566376,
            -0.06809286028146744,
            -0.06389342248439789,
            0.048792269080877304,
            0.045220669358968735,
            -0.07276582717895508,
            0.1754307597875595,
            -0.17764364182949066,
            0.025952430441975594,
            -0.0929696336388588,
            -0.06133471801877022,
            0.1262938231229782,
            0.039520736783742905,
            0.026278618723154068,
            0.19377169013023376,
            0.010968667455017567,
            -0.10663191974163055,
            -0.30886340141296387,
            -0.05451158061623573,
            -0.0466352179646492,
            0.04191870987415314,
            0.004739700350910425,
            0.17199112474918365,
            -0.0287520419806242,
            0.0039609321393072605,
            0.03169570490717888,
            -0.046141620725393295,
            -0.05662236735224724,
            -0.12943735718727112,
            -0.10613278299570084,
            -0.07180249691009521,
            -0.1655588448047638,
            0.05918189510703087,
            -0.0738404169678688,
            0.0506221242249012,
            -0.03315771371126175,
            0.24670064449310303,
            -0.10823801159858704,
            -0.11858318001031876,
            0.04983428493142128,
            0.2597838044166565,
            0.04833220690488815,
            -0.059513695538043976,
            0.04108757898211479,
            -0.042381688952445984,
            -0.020214030519127846,
            0.11936778575181961,
            -0.07003747671842575,
            0.14208507537841797,
            0.04928821325302124,
            -0.041812118142843246,
            -0.20811894536018372,
            0.18037958443164825,
            -0.1473596692085266,
            -0.10791102796792984,
            -0.08134430646896362,
            0.16161702573299408,
            0.11132750660181046,
            0.049430977553129196,
            -0.13004335761070251,
            -0.05396785959601402,
            0.20233219861984253,
            0.005790062248706818,
            -0.04217543825507164,
            -0.1878364533185959,
            -0.06536467373371124,
            0.10031285136938095,
            0.04779761657118797,
            0.18441879749298096,
            -0.23883666098117828,
            0.08262889087200165,
            0.04001859575510025,
            0.13755100965499878,
            -0.011380438692867756,
            0.05539783835411072,
            0.0006800551200285554,
            0.05355675518512726,
            0.028121862560510635,
            0.16927409172058105,
            -0.10508839786052704,
            0.05703691765666008,
            -0.058268047869205475,
            0.1698770374059677,
            0.003112608101218939,
            0.11429684609174728,
            -0.058840177953243256,
            0.0045574563555419445,
            -0.22429963946342468,
            -0.04195050522685051,
            0.026721589267253876,
            0.018078014254570007,
            0.1579204946756363,
            0.19971264898777008,
            -0.09030769020318985,
            0.0008230443927459419,
            0.022412026301026344,
            -0.04023478180170059,
            -0.1260242462158203,
            -0.0350908562541008,
            0.09344293177127838,
            -0.048344094306230545,
            -0.0825163796544075,
            -0.07310114055871964,
            0.15464287996292114,
            -0.08943581581115723,
            -0.03983172029256821,
            0.033213939517736435,
            0.10841227322816849,
            0.1264968067407608,
            -0.034751567989587784,
            -0.13220414519309998,
            -0.04725340008735657,
            0.1412714123725891,
            -0.1297713816165924,
            -0.03089219518005848,
            0.26628315448760986,
            0.06108812242746353,
            0.029589587822556496,
            -0.09946954250335693,
            -0.04436161369085312,
            0.021155690774321556,
            -0.051224011927843094,
            0.03829488530755043,
            0.057352520525455475,
            0.146749809384346,
            0.19598372280597687,
            -0.023962052538990974,
            -0.016926836222410202,
            0.018495038151741028,
            -0.024344855919480324,
            -0.12058468163013458,
            0.01662454381585121,
            0.04724883288145065,
            0.08122558146715164,
            0.06299755722284317,
            0.027438340708613396,
            -0.10689759254455566,
            0.05298811197280884,
            0.037011466920375824,
            0.08548357337713242,
            -0.0073654791340231895,
            0.024386361241340637,
            0.11361520737409592,
            0.05121798813343048,
            -0.1310771107673645,
            0.01141138095408678,
            0.06214138865470886,
            0.12321244925260544,
            -0.16192279756069183,
            -0.08328338712453842,
            0.02512853965163231,
            0.07536012679338455,
            0.1085120216012001,
            0.12757951021194458,
            0.0491335503757,
            0.1308855414390564,
            -0.0631723552942276,
            0.10603111982345581,
            0.017062518745660782,
            0.0023134949151426554,
            -0.055942289531230927,
            -0.037945475429296494,
            0.005439792759716511,
            0.06946977972984314,
            0.08281858265399933,
            -0.15196222066879272,
            -0.015680352225899696,
            -0.0034749708138406277,
            0.06722251325845718,
            -0.10650401562452316,
            0.1227557435631752,
            0.006511952728033066,
            0.08447109907865524,
            -0.015033594332635403,
            -0.05831476300954819,
            0.09407024085521698,
            0.061997946351766586,
            -0.11478163301944733,
            0.186754047870636,
            -0.06117181479930878,
            -0.01782212033867836,
            0.03648710995912552,
            0.0003728850279003382,
            -0.02590867690742016,
            -0.016254236921668053,
            0.06957646459341049,
            0.18255089223384857,
            0.10639318078756332,
            0.19139426946640015,
            0.10746528953313828,
            -0.14254741370677948,
            -0.023735636845231056,
            -0.04603566229343414,
            -0.10779332369565964,
            0.08030155301094055,
            -0.05204245448112488,
            0.0448610782623291,
            -0.1782560646533966,
            0.08056008070707321,
            0.022642068564891815,
            0.004551785998046398,
            0.06777258962392807,
            -0.05826522037386894,
            -0.017173685133457184,
            -0.07695724070072174,
            -0.09915114939212799,
            -0.17763036489486694,
            0.04173089936375618,
            -0.028747471049427986,
            0.0631060004234314,
            0.058876872062683105,
            -0.027546366676688194,
            -0.011791574768722057,
            -0.07618382573127747,
            0.17037801444530487,
            -0.19205982983112335,
            -0.09529994428157806,
            0.15666621923446655,
            -0.0915626809000969,
            0.01278556790202856,
            0.012378551065921783,
            0.04868160933256149,
            0.06913071870803833,
            -0.05793839693069458,
            0.006783825345337391,
            0.10358212888240814,
            0.10045737773180008,
            -0.017132911831140518,
            -0.01486792229115963,
            -0.04033324122428894,
            -0.01514867041260004,
            0.03658789023756981,
            -0.05298857390880585,
            -0.023867039009928703,
            -0.08604152500629425,
            -0.02056373842060566,
            0.05217637121677399,
            0.1737852692604065,
            -0.018828971311450005,
            -0.006677187979221344,
            0.19956043362617493,
            0.06869180500507355,
            -0.11127666383981705,
            -0.02602977864444256,
            -0.036369651556015015,
            -0.023750271648168564,
            0.13748390972614288,
            0.06922955811023712,
            -0.04368908703327179,
            -0.0010422146879136562,
            0.023037726059556007,
            -0.12474279850721359,
            0.045324862003326416,
            0.1123029887676239,
            0.11542686820030212,
            -0.06965547800064087,
            -0.03699379414319992,
            -0.021393362432718277,
            0.09124565869569778,
            -0.0825028121471405,
            -0.12845751643180847,
            -0.05027049034833908,
            -0.14822037518024445,
            0.18254417181015015,
            0.013785178773105145,
            -0.0945885181427002,
            -0.09553292393684387,
            -0.09822244942188263,
            0.015713585540652275,
            0.09672042727470398,
            0.03573975712060928,
            -0.004703865852206945,
            0.16608786582946777,
            -0.02342250384390354,
            -0.00015605834778398275,
            -0.07987048476934433,
            -0.09525496512651443,
            -0.08089571446180344,
            0.09553297609090805,
            -0.0015840154374018312,
            0.020158106461167336,
            0.03940563276410103,
            -0.033687978982925415,
            -0.030643995851278305,
            0.12565161287784576,
            0.06109123304486275,
            -0.007233729120343924,
            0.0988595113158226,
            -0.10016726702451706,
            0.019936243072152138,
            -0.128363236784935,
            -0.003292299807071686,
            0.0835205614566803,
            -0.034608494490385056,
            0.01798274740576744,
            -0.18178637325763702,
            -0.1997492015361786,
            -0.006485875230282545,
            -0.04678069427609444,
            -0.11110325157642365,
            -0.09802038967609406,
            -0.10118531435728073,
            0.1392366588115692,
            0.1712975949048996,
            -0.030358167365193367,
            -0.08197620511054993,
            -0.04574570059776306,
            -0.09271901100873947,
            -0.029154522344470024,
            -0.036925919353961945,
            -0.0481337271630764,
            -0.1414603441953659,
            0.11080265790224075,
            0.054530590772628784,
            -0.047518450766801834,
            0.05947310850024223,
            0.0018143662018701434,
            0.03889528289437294,
            0.015612266957759857,
            -0.004491623491048813,
            -0.03051588125526905,
            -0.02968755178153515,
            0.23738794028759003,
            -0.0538104884326458,
            0.1458161622285843,
            0.02178065851330757,
            -0.05150563269853592,
            -0.0815076157450676,
            -0.04389561712741852,
            -0.016849352046847343,
            0.05490637570619583,
            -0.1377166360616684,
            0.01164763793349266,
            -0.03344639390707016,
            -0.0490197017788887,
            -0.10917988419532776,
            -0.03434070199728012,
            -0.006711186841130257,
            -0.06850992888212204,
            -0.04697103425860405,
            -0.00884923618286848,
            -0.04418264329433441,
            0.028013208881020546,
            0.007737731095403433,
            -0.10663707554340363,
            -0.026916833594441414,
            0.08304118365049362,
            -0.07544367760419846,
            0.06809037178754807,
            0.10817275941371918,
            -0.09069831669330597,
            -0.03639182820916176,
            -0.1514711081981659,
            -0.06217188015580177,
            0.07845991104841232,
            -0.03141643851995468,
            0.02948162332177162,
            0.013712006621062756,
            -0.09811625629663467,
            0.12956300377845764,
            -0.11674889177083969,
            -0.026405686512589455,
            -0.04197368398308754,
            -0.034473855048418045,
            -0.04697277024388313,
            -0.008286970667541027,
            -0.008198951371014118,
            -0.031053820624947548,
            0.03240370377898216,
            -0.015786636620759964,
            0.09361238032579422,
            0.10128585249185562,
            -0.018199624493718147,
            -0.11150689423084259,
            0.004250700585544109,
            0.08983352780342102,
            0.10696159303188324,
            0.007872764021158218,
            -0.023865150287747383,
            0.005775660742074251,
            0.03360768035054207,
            0.039461661130189896,
            0.10305313020944595,
            0.08810987323522568,
            0.04037628695368767,
            -0.03246999904513359,
            0.07518598437309265,
            0.0029612293001264334,
            -0.050037823617458344,
            0.05495184287428856,
            0.1027255654335022,
            -0.10043304413557053,
            -0.03047206811606884,
            -0.020955100655555725,
            -0.022730553522706032,
            -0.14595013856887817,
            0.0903564915060997,
            -0.13956645131111145,
            -0.03606739640235901,
            -0.11417382210493088,
            -0.2310161143541336,
            -0.025112353265285492,
            0.11326640844345093,
            0.1006879061460495,
            0.0598604641854763,
            -0.07221043109893799,
            -0.048311419785022736,
            -0.0670362338423729,
            0.06305041909217834,
            0.04369833692908287,
            -0.07639801502227783,
            0.02772524021565914,
            -0.03903001546859741,
            -0.10635976493358612,
            -6.781084812246263e-05,
            0.0371740497648716,
            0.010456966236233711,
            0.17294025421142578,
            0.12500499188899994,
            -0.015090769156813622,
            -0.08123158663511276,
            -0.010511773638427258,
            -0.0651838481426239,
            0.019057216122746468,
            -0.050531111657619476,
            -0.075198695063591,
            0.10864831507205963,
            0.18484488129615784,
            0.008209903724491596,
            0.08219680190086365,
            0.09865473210811615,
            3.802459832513705e-05,
            0.053773727267980576,
            -0.02589581161737442,
            0.17193008959293365,
            0.06014726683497429,
            -0.14685554802417755,
            -0.010765066370368004,
            0.10814137011766434,
            -0.05848649516701698,
            -0.11890170723199844,
            0.02613239362835884,
            0.014553903602063656,
            0.06794171035289764,
            0.07447102665901184,
            -0.0332893505692482,
            -0.03167335316538811,
            -0.08967778086662292,
            0.11635582894086838,
            0.03820016607642174,
            0.03579992428421974,
            -0.0014124882873147726,
            -0.14246930181980133,
            -0.04785516858100891,
            0.11973893642425537,
            -0.08141864091157913,
            0.029302474111318588,
            0.02879200130701065,
            -0.01958814263343811,
            0.0487082377076149,
            0.09363962709903717,
            -0.022579925134778023,
            -0.03481310233473778,
            -0.12543028593063354,
            0.011062726378440857,
            -0.07770539820194244,
            -0.03869650140404701,
            -0.1457531452178955,
            -0.010575219988822937,
            0.002082156715914607,
            -0.15365004539489746,
            0.05234899744391441,
            0.06972426921129227,
            -0.06200949102640152,
            -0.13032647967338562,
            -0.024774784222245216,
            -0.06121824309229851,
            -0.002309061586856842,
            0.11173487454652786,
            -0.1875302493572235,
            0.014698914252221584,
            0.05481817200779915,
            -0.0003502880863379687,
            -0.04689759388566017,
            -0.01753692887723446,
            0.09344732016324997,
            -0.0032560040708631277,
            0.08983587473630905,
            -0.02793501317501068,
            0.06534334272146225,
            -0.08240996301174164,
            0.04077543690800667,
            0.009717466309666634,
            -0.08940207958221436,
            -0.14301729202270508,
            -0.0017105508595705032,
            0.17937780916690826,
            -0.0835583508014679,
            0.06234489381313324,
            0.020685385912656784,
            -0.007588730193674564,
            -0.04786805808544159,
            0.05272243544459343,
            0.2302083820104599,
            -0.05401000380516052,
            0.014277737587690353,
            -0.08010881394147873,
            -0.1123606339097023,
            -0.029561981558799744,
            -0.09156611561775208,
            0.017778459936380386,
            -0.10705253481864929,
            0.06981939822435379,
            0.047022849321365356,
            0.13601839542388916,
            0.09235522896051407,
            -0.008951032534241676,
            0.001643244526349008,
            -0.15268398821353912,
            0.057789064943790436,
            -0.12200814485549927,
            0.017505928874015808,
            0.08381634950637817,
            -0.13556894659996033,
            0.06970451772212982,
            0.12660062313079834,
            -0.019094789400696754,
            -0.0246737040579319,
            0.12985382974147797,
            0.019609825685620308,
            0.074005626142025,
            -0.11526384204626083,
            0.044322725385427475,
            0.09110338985919952,
            0.11741117388010025,
            -0.11696144938468933,
            -0.13019587099552155,
            -0.15273258090019226,
            0.12648941576480865,
            -0.07933446019887924,
            0.06468524783849716,
            -0.09127402305603027,
            0.010681540705263615,
            -0.09570003300905228,
            0.16220028698444366,
            0.007219749037176371,
            0.16632601618766785,
            -0.14816026389598846,
            0.12757565081119537,
            -0.0755714550614357,
            0.07850492000579834,
            -0.06806408613920212,
            0.018259532749652863,
            -0.038043275475502014,
            0.04149702191352844,
            -0.04526562988758087,
            0.09813950210809708,
            0.0648307055234909,
            0.009698400273919106,
            0.0008644087356515229,
            0.18195730447769165,
            -0.04139906167984009,
            -0.017215289175510406,
            -0.014004520140588284,
            -0.06740222871303558,
            -0.04747801274061203,
            -0.20614071190357208,
            -0.17414253950119019,
            0.059773627668619156,
            0.06944075971841812,
            0.17100314795970917,
            -0.11156318336725235,
            0.12221845984458923,
            -0.17272379994392395,
            -0.023616252467036247,
            0.00031875501736067235,
            -0.18204186856746674,
            -0.1926046758890152,
            0.10435090214014053,
            -0.0922677218914032,
            0.07849552482366562,
            -0.09556284546852112,
            0.0470333956182003,
            0.28273287415504456,
            0.019291609525680542,
            0.0881441980600357,
            -0.12057719379663467,
            -0.01913760043680668,
            0.0061838580295443535,
            -0.010279313661158085,
            0.04070909321308136,
            -0.21635331213474274,
            -0.002330239862203598,
            0.08525293320417404,
            -0.1054387018084526,
            -0.1047714427113533,
            -0.027847513556480408,
            0.06963001936674118,
            0.08017894625663757,
            0.21115806698799133,
            0.09388767182826996,
            0.09289047122001648,
            0.11110515892505646,
            -0.06653835624456406,
            0.012138060294091702,
            0.06507658213376999,
            0.022435618564486504,
            -0.050615593791007996,
            0.054161522537469864,
            0.06291507184505463,
            -0.02394724451005459,
            -0.02370576187968254,
            0.14883720874786377,
            0.04248795285820961,
            0.05008309334516525,
            0.027746405452489853,
            0.08947514742612839,
            0.15359990298748016,
            -0.060173869132995605,
            -0.0005937342066317797,
            0.1112779974937439,
            0.04251915588974953,
            -0.04718485102057457,
            -0.026955166831612587,
            -0.00010485490201972425,
            0.18365120887756348,
            -0.09037840366363525,
            -0.13541074097156525,
            0.10606502741575241,
            -0.04784296080470085,
            -0.09185746312141418,
            -0.0792340412735939,
            0.0434388667345047,
            -0.047646574676036835,
            -0.004803118295967579,
            0.1268063634634018,
            0.0821051225066185,
            0.01328594982624054,
            -0.048780109733343124,
            -0.06658890098333359,
            -0.06369562447071075,
            0.14037470519542694,
            0.17908073961734772,
            -0.06581584364175797,
            0.024994779378175735,
            0.03966435045003891,
            0.006593138445168734,
            -0.1572769582271576,
            -0.07095449417829514,
            0.052785445004701614,
            -0.1954939365386963,
            -0.10465741902589798,
            0.06562419980764389,
            0.05859241262078285,
            0.04443518817424774,
            0.15401892364025116,
            -0.025561202317476273,
            0.06848723441362381,
            -0.06982284039258957,
            -0.025739608332514763,
            -0.08880031108856201,
            0.056315772235393524,
            -0.030562857165932655,
            -0.06659342348575592,
            -0.1694512516260147,
            -0.08828826993703842,
            -0.3224351406097412,
            -0.03400380536913872,
            -0.041646409779787064,
            0.08278226107358932,
            0.07944867014884949,
            0.08067429810762405,
            0.04315821826457977,
            0.09757057577371597,
            -0.13586968183517456,
            -0.07664798945188522,
            0.02768521010875702,
            -0.07377152889966965,
            0.15162283182144165,
            -0.18444041907787323,
            0.06668475270271301,
            -0.058334335684776306,
            -0.05260656028985977,
            0.026357844471931458,
            0.05967704951763153,
            0.11715421825647354,
            0.037176236510276794,
            0.06407848000526428,
            -0.0014348534168675542,
            0.06445609033107758,
            -0.015604228712618351,
            -0.07841422408819199,
            0.07349168509244919,
            0.11788725107908249,
            0.0391949787735939,
            0.02685478888452053,
            0.07421515882015228,
            -0.11593781411647797,
            0.0715889111161232,
            0.02722289226949215,
            0.07700654119253159,
            -0.15870104730129242,
            0.07977232336997986,
            -0.06305152922868729,
            -0.088783398270607,
            -0.046107217669487,
            0.010726023465394974,
            -0.12424781173467636,
            -0.10174407064914703,
            -0.07105600833892822,
            0.012773364782333374,
            -0.04853520914912224,
            0.1811617910861969,
            -0.0878702774643898,
            -0.1260160356760025,
            -0.011973608285188675,
            0.0049272216856479645,
            -0.10068102180957794,
            0.0013978270580992103,
            -0.02827511727809906,
            0.08986017107963562,
            -0.08356372267007828,
            -0.07319612056016922,
            0.07148481905460358,
            0.054825376719236374,
            0.0961478129029274,
            -0.09443240612745285,
            -0.05823894962668419,
            0.1419408768415451,
            -0.05426207557320595,
            -0.11811823397874832,
            -0.06776951998472214,
            -0.018832122907042503,
            -0.012834271416068077,
            -0.0018973747501149774,
            -0.060196101665496826,
            0.029348179697990417,
            -0.005497511476278305,
            0.024526996538043022,
            -0.005064773838967085,
            0.14313869178295135,
            0.21347081661224365,
            -0.14398528635501862,
            0.012572240084409714,
            0.027956828474998474,
            -0.05888683348894119,
            0.17760801315307617,
            0.041396364569664,
            -0.005200133193284273,
            0.015385624952614307,
            0.07119709253311157,
            -0.03264994919300079,
            -0.08687951415777206,
            0.14860595762729645,
            0.011329625733196735,
            0.020657002925872803,
            0.02324380911886692,
            0.10899429768323898,
            -0.11133585125207901,
            -0.036286674439907074,
            -0.03205109387636185,
            -0.07132959365844727,
            -0.09715338051319122,
            -0.04806658625602722,
            -0.011074366047978401,
            -0.07082729041576385,
            -0.04199524223804474,
            -0.04785357788205147,
            0.04871726781129837,
            -0.005154237151145935,
            0.05322011932730675,
            -0.03224626183509827,
            0.09039311110973358,
            0.02183692902326584,
            -0.07781954109668732,
            -0.03757321834564209,
            0.0875694528222084,
            0.058126773685216904,
            0.04599534347653389,
            0.021215422078967094,
            -0.07257168740034103,
            -0.0736064463853836,
            -0.10434353351593018,
            0.036628492176532745,
            -0.08201982080936432,
            0.02847696840763092,
            0.12006103992462158,
            0.06376996636390686,
            0.025591081008315086,
            -0.043601587414741516,
            0.11439753323793411,
            -0.10983986407518387,
            -0.14418300986289978,
            -0.13749031722545624,
            -0.04671524837613106,
            -0.004260456655174494,
            -0.020242467522621155,
            -0.1835894137620926,
            -0.06968101114034653,
            0.06022487208247185,
            0.02192041650414467,
            -0.12211090326309204,
            0.044020697474479675,
            -0.04781440645456314,
            0.024054137989878654,
            -0.22455991804599762,
            0.020699646323919296,
            -0.08475522696971893,
            -0.11113843321800232,
            -0.09379738569259644,
            0.1572352945804596,
            0.01447436586022377,
            0.10760588943958282,
            -0.0002128134947270155,
            -0.11805786937475204,
            0.07414766401052475,
            -0.12808215618133545,
            0.005424800328910351,
            0.024296188727021217,
            -0.009209265932440758,
            0.13110724091529846,
            -0.011977826245129108,
            -0.0773308128118515,
            -0.12283609807491302,
            -0.023376839235424995,
            0.028435299172997475,
            -0.0267095435410738,
            0.12278173118829727,
            0.03913901746273041,
            -0.07447777688503265,
            0.00604488980025053,
            0.15199489891529083,
            0.03625538572669029,
            0.0580688938498497,
            0.039973873645067215,
            0.07951900362968445,
            -0.03722319006919861,
            0.07621578872203827,
            0.0733492374420166,
            0.002397652715444565,
            0.11565124243497849,
            0.22419247031211853,
            -0.0018029821803793311,
            0.03164248913526535,
            -0.050307970494031906,
            -0.03559722751379013,
            0.17432551085948944,
            -0.18779954314231873,
            -0.026499293744564056,
            0.17783769965171814,
            -0.06631907820701599,
            0.1670263558626175,
            0.07956654578447342,
            -0.012306313961744308,
            0.00820651650428772,
            0.03920571506023407,
            -0.09917721152305603,
            -0.012949339114129543,
            -0.016493679955601692,
            -0.08113114535808563,
            0.13042548298835754,
            0.01016179472208023,
            0.09677750617265701,
            0.06110970303416252,
            -0.20996755361557007,
            -0.007444350514560938,
            0.023883096873760223,
            -0.03878670558333397,
            -0.0743853822350502,
            0.027377882972359657,
            0.05920037254691124,
            0.032098330557346344,
            0.09729383140802383,
            -0.009693984873592854,
            -0.1544078141450882,
            -0.02945702336728573,
            0.015877578407526016,
            -0.11367347836494446,
            0.022804895415902138,
            -0.059377215802669525,
            0.11268892139196396,
            0.08862815797328949,
            -0.011290539987385273,
            -0.012726879678666592,
            0.13113489747047424,
            -0.012053452432155609,
            0.12222541123628616,
            0.0659249946475029,
            0.11457332968711853,
            -0.013772090896964073,
            -0.01845664717257023,
            0.1387641280889511,
            0.007119182497262955,
            0.0022110319696366787,
            -0.025468913838267326,
            0.21079730987548828,
            0.07830427587032318,
            -0.10705707222223282,
            0.05256696045398712,
            0.07474466413259506,
            -0.02247876301407814,
            0.035688869655132294,
            -0.030599690973758698,
            0.07113905251026154,
            0.051302939653396606,
            0.08433661609888077,
            -0.15970149636268616,
            -0.05724127218127251,
            0.15480712056159973,
            -0.08842804282903671,
            0.09341128915548325,
            0.09173064678907394,
            -6.836517422925681e-05,
            -0.034133430570364,
            0.12777280807495117,
            0.049765460193157196,
            -0.0400908961892128,
            -0.13471826910972595,
            -0.1199001744389534,
            0.034167882055044174,
            0.03573206067085266,
            -0.01775236986577511,
            -0.04440108686685562,
            -0.028896640986204147,
            -0.11738003045320511,
            -0.07993199676275253,
            -0.07976086437702179,
            0.04424498602747917,
            -0.03301459923386574,
            0.0411485992372036,
            -0.05473967269062996,
            -0.058785147964954376,
            -0.045525774359703064,
            -0.07006336003541946,
            -0.16277754306793213,
            -0.11319801956415176,
            -0.011853470467031002,
            0.05903700739145279,
            0.1490684151649475,
            0.10597515851259232,
            -0.08555514365434647,
            0.09279430657625198,
            0.15072600543498993,
            0.05716743320226669,
            -0.04003749415278435,
            -0.04131816700100899,
            0.08798813819885254,
            0.07638265937566757,
            -0.0817158967256546,
            0.021297572180628777,
            -0.07422229647636414,
            -0.03915216401219368,
            -0.007754310965538025,
            0.1283242255449295,
            0.010216878727078438,
            -0.06930134445428848,
            0.024400997906923294,
            0.05086817964911461,
            -0.007361716590821743,
            0.1601184606552124,
            -0.09861788898706436,
            -0.13331471383571625,
            -0.08923929184675217,
            0.03455987945199013,
            -0.0025122365914285183,
            -0.013343517668545246,
            -0.21866708993911743,
            -0.24837687611579895,
            -0.12554699182510376,
            0.004318039398640394,
            0.10804083943367004,
            -0.12051984667778015,
            0.22352159023284912,
            -0.07061193883419037,
            -0.01753896474838257,
            0.059195756912231445,
            -0.06723915040493011,
            -0.005999828223139048,
            0.07261346280574799,
            -0.007627290207892656,
            0.07327612489461899,
            -0.05455800145864487,
            0.236625537276268,
            0.005184650886803865,
            -0.026409469544887543,
            -0.04019780457019806,
            -0.03353111073374748,
            0.048237916082143784,
            0.08881649374961853,
            0.025018345564603806,
            -0.09248661249876022,
            0.014054163359105587,
            0.05724461376667023,
            -0.12917955219745636,
            -0.06507116556167603,
            0.04523540288209915,
            -0.031116684898734093,
            0.020708054304122925,
            0.16642838716506958,
            0.14337584376335144,
            0.0016655910294502974,
            -0.13519920408725739,
            -0.03218942880630493,
            0.026593513786792755,
            -0.15883605182170868,
            0.1142718717455864,
            0.08966993540525436,
            -0.025238748639822006,
            0.13801665604114532,
            -0.044198933988809586,
            0.33931031823158264,
            -0.1613186150789261,
            0.01667969301342964,
            0.1536150723695755,
            0.18087998032569885,
            -0.12262745946645737,
            0.06963972747325897,
            -0.1025739535689354,
            0.004218498710542917,
            -0.10509074479341507,
            -0.04624132439494133,
            -0.041422855108976364,
            -0.05571676418185234,
            0.15984967350959778,
            -0.004608062095940113,
            0.016965726390480995,
            0.024309150874614716,
            0.06002869829535484,
            0.0682869479060173,
            -0.1253071278333664,
            -0.004919025581330061,
            -0.046834204345941544,
            0.08476094156503677,
            -0.05821562930941582,
            0.1688448190689087,
            -0.02129186876118183,
            -0.08847472816705704,
            0.07996291667222977,
            -0.08317344635725021,
            0.04425405338406563,
            0.2141128033399582,
            -0.11240659654140472,
            0.0024140910245478153,
            0.048702940344810486,
            -0.03883090242743492,
            -0.0927545502781868,
            0.10260337591171265,
            -0.06113256514072418,
            -0.00047813449054956436,
            0.009712055325508118,
            -0.12597757577896118,
            -0.04144283011555672,
            0.11271438747644424,
            -0.0013465299271047115,
            -0.022641921415925026,
            0.07954244315624237,
            -0.14471536874771118,
            0.03146198019385338,
            0.09953349828720093,
            -0.042275309562683105,
            -0.03326710686087608,
            -0.17206992208957672,
            -0.06100573390722275,
            0.02794606424868107,
            0.04149135574698448,
            0.003030242631211877,
            -0.008768638595938683,
            -0.004253081977367401,
            -0.041072819381952286,
            0.05329647287726402,
            0.07331690937280655,
            0.05827350169420242,
            -0.0002806838892865926,
            -0.09819065779447556,
            -0.03506164252758026,
            -0.0309901162981987,
            0.0044747693464159966,
            0.05546629801392555,
            -0.009973256848752499,
            -0.11681501567363739,
            0.23464494943618774,
            -0.02662312425673008,
            0.14806029200553894,
            -0.07088074088096619,
            0.0833861231803894,
            0.04070369526743889,
            -0.09584437310695648,
            0.011747298762202263,
            0.07458571344614029,
            -0.0020341079216450453,
            0.2054450660943985,
            0.1168736070394516,
            0.055659450590610504,
            0.017837557941675186,
            -0.07906700670719147,
            0.12087970227003098,
            -0.18386372923851013,
            -0.23616085946559906,
            -0.18264248967170715,
            -0.017871297895908356,
            -0.07783543318510056,
            0.00754757272079587,
            -0.03955189511179924,
            0.02098296582698822,
            -0.030188364908099174,
            -0.22060085833072662,
            0.0001968666911125183,
            -0.08858932554721832,
            0.03110724687576294,
            -0.06749844551086426,
            0.08004806935787201,
            -0.18426424264907837,
            0.024790208786725998,
            0.05885566398501396,
            0.019952137023210526,
            0.000182974137715064,
            -0.022381361573934555,
            0.009049857966601849,
            0.13199977576732635,
            0.057984691113233566,
            0.16890142858028412,
            -0.01872696354985237,
            0.02764236181974411,
            -0.006920913700014353,
            -0.02844386361539364,
            0.06613493710756302,
            -0.15007556974887848,
            0.09141167998313904,
            0.038416795432567596,
            -0.05619633197784424,
            0.07511115074157715,
            0.017966706305742264,
            -0.011301921680569649,
            0.14317993819713593,
            -0.08858699351549149,
            0.2625866234302521,
            -0.07912129163742065,
            -0.06858384609222412,
            -0.059248123317956924,
            -0.03656713292002678,
            0.2266697883605957,
            0.18351420760154724,
            0.03433152660727501,
            0.017257094383239746,
            -0.003152338322252035,
            -0.03653145954012871,
            0.15876425802707672,
            -0.08265236765146255,
            -0.012965335510671139,
            0.011017316952347755,
            -0.16344888508319855,
            -0.11575621366500854,
            -0.00772015331313014,
            -0.0697253867983818,
            -0.03154246136546135,
            -0.05609810724854469,
            0.02559611387550831,
            -0.09166141599416733,
            0.06849481910467148,
            -0.034964315593242645,
            0.1310812383890152,
            -0.23129352927207947,
            -0.03023056872189045,
            -0.10999514907598495,
            0.18749520182609558,
            0.0037039995659142733,
            -0.09047301113605499,
            -0.0017429618164896965,
            0.14621631801128387,
            -0.20589444041252136,
            0.021918147802352905,
            0.0642111673951149,
            0.06136251240968704,
            0.011547480709850788,
            0.06242470070719719,
            -0.024630004540085793,
            0.09867255389690399,
            0.047281086444854736,
            0.11149244010448456,
            0.049109261482954025,
            0.012124103493988514,
            0.22955557703971863,
            -0.09590355306863785,
            -0.06433229148387909,
            0.08304163068532944,
            -0.12652261555194855,
            -0.026693815365433693,
            0.05746650695800781,
            -0.12839938700199127,
            0.1192416325211525,
            -0.08246441185474396,
            0.07587344944477081,
            0.022680919617414474,
            0.008455940522253513,
            0.1574445366859436,
            -0.02539166249334812,
            0.07177179306745529,
            0.05869188904762268,
            0.013484411872923374,
            0.12692387402057648,
            0.01963997446000576,
            -0.029806720092892647,
            0.06755954027175903,
            -0.06721773743629456,
            -0.09406857192516327,
            0.03992793709039688,
            0.08859015256166458,
            -0.11558430641889572,
            -0.0048952652141451836,
            -0.07099219411611557,
            -0.008988176472485065,
            -0.07169734686613083,
            -0.12041166424751282,
            0.040818337351083755,
            0.1006195917725563,
            -0.023378821089863777,
            0.04244805499911308,
            -0.046960946172475815,
            -0.04086797684431076,
            0.05375784635543823,
            0.011404921300709248,
            0.017071101814508438,
            -0.04475540295243263,
            0.08442645519971848,
            0.06586552411317825,
            0.016587112098932266,
            0.025156984105706215,
            0.004227982368320227,
            0.007804029155522585,
            -0.010748239234089851,
            0.009908763691782951,
            0.03661419823765755,
            0.14610141515731812,
            -0.10702089965343475,
            0.06797180324792862,
            -0.04283512756228447,
            0.01716848649084568,
            0.060255784541368484,
            0.11036539077758789,
            -0.005201519932597876,
            -0.043023716658353806,
            0.07580636441707611,
            -0.06414485722780228,
            -0.040865834802389145,
            -0.11330546438694,
            -0.061433397233486176,
            0.05338987335562706,
            -0.0009772669291123748,
            -0.08631295710802078,
            -0.014684882946312428,
            -0.23386013507843018,
            -0.010228891856968403,
            0.02538672834634781,
            0.07485314458608627,
            0.02078256756067276,
            -0.019786780700087547,
            0.08095534890890121,
            0.07080092281103134,
            -0.0060842204838991165,
            -0.05099539831280708,
            -0.0301767960190773,
            -0.011193986982107162,
            -0.07964875549077988,
            0.018327949568629265,
            0.05405020713806152,
            -0.03195761516690254,
            -0.10043209046125412,
            0.0065090409480035305,
            0.07527714967727661,
            0.03343638405203819,
            0.14810803532600403,
            -0.017690924927592278,
            -0.05872274935245514,
            0.04130769148468971,
            0.010321592912077904,
            0.04354218393564224,
            0.008518589660525322,
            -0.1364581435918808,
            0.09968994557857513,
            -0.0014731398550793529,
            0.0004335091798566282,
            0.07024594396352768,
            0.1200607642531395,
            -0.08237932622432709,
            -0.12929967045783997,
            -0.08033941686153412,
            0.01317994762212038,
            -0.03314630314707756,
            0.03343776986002922,
            -0.01175164058804512,
            0.12298263609409332,
            -0.013604652136564255,
            -0.0481538400053978,
            0.008038235828280449,
            0.14003176987171173,
            -0.02431924268603325,
            0.03961024805903435,
            -0.18534715473651886,
            0.13054518401622772,
            0.13478228449821472,
            -0.059810712933540344,
            -0.1288575977087021,
            -0.001657299930229783,
            -0.06544099003076553,
            -0.04565687105059624,
            0.02914234809577465,
            -0.019367560744285583,
            -0.04718705639243126,
            0.05580880865454674,
            0.14503557980060577,
            0.1645653396844864,
            -0.094469353556633,
            -0.0691905990242958,
            -0.02590927667915821,
            0.04347122088074684,
            -0.01737520471215248,
            -0.00998672191053629,
            0.004651282448321581,
            -0.07038180530071259,
            0.027274951338768005,
            -0.03640960156917572,
            0.06332217156887054,
            0.013406823389232159,
            -0.09292902052402496,
            -0.06114879995584488,
            0.10033854097127914,
            -0.04763174057006836,
            -0.06479959934949875,
            0.011934892274439335,
            -0.07013395428657532,
            0.01589854620397091,
            -0.0038183405995368958,
            0.1037798672914505,
            0.05432288348674774,
            0.0030416257213801146,
            -0.07058954983949661,
            -0.04922957718372345,
            0.014260955154895782,
            0.0562351755797863,
            0.0852823331952095,
            0.07024507224559784,
            0.05706198886036873,
            -0.0038255760446190834,
            -0.06519535183906555,
            0.009453808888792992,
            -0.07411747425794601,
            0.04058319702744484,
            -0.018551716580986977,
            -0.045272283256053925,
            -0.07764232903718948,
            0.08221527934074402,
            -0.060452647507190704,
            -0.01612856052815914,
            -0.01383820828050375,
            -0.026749320328235626,
            -0.05243484675884247,
            -0.04068556800484657,
            -0.17587214708328247,
            0.014500612393021584,
            0.09185861051082611,
            0.006077921949326992,
            -0.13446103036403656,
            0.13697496056556702,
            0.05322972312569618,
            -0.09550757706165314,
            -0.16244608163833618,
            -0.06501392275094986,
            0.016674451529979706,
            -0.02874166890978813,
            -0.0212444756180048,
            0.14646130800247192,
            0.06084844097495079,
            -0.08509066700935364,
            0.015782414004206657,
            -0.16121724247932434,
            0.03058360144495964,
            0.0517321452498436,
            -0.1341284215450287,
            0.01752391830086708,
            -0.2816515862941742,
            0.08486447483301163,
            0.1360100954771042,
            0.03579043224453926,
            -0.04604056105017662,
            0.10222770273685455,
            -0.06426805257797241,
            -0.03386794030666351,
            0.04075055196881294,
            -0.10203065723180771,
            -0.11326027661561966,
            -0.052827272564172745,
            -0.1157694086432457,
            0.06909879297018051,
            -0.07713618874549866,
            0.0009947522776201367,
            -0.10354474931955338,
            0.011851197108626366,
            0.05583256855607033,
            0.0338054858148098,
            0.17253263294696808,
            0.06962020695209503,
            0.06281187385320663,
            0.09751620888710022,
            0.01934710144996643,
            -0.0500960610806942,
            -0.06629519164562225,
            0.0843481495976448,
            0.14186237752437592,
            -0.003202961292117834,
            -0.09417733550071716,
            -0.07659850269556046,
            0.23063233494758606,
            -0.05412901192903519,
            -0.07476555556058884,
            0.01692347042262554,
            -0.08278656005859375,
            0.016841817647218704,
            0.05611824244260788,
            -0.111205093562603,
            -0.09446165710687637,
            -0.061084259301424026,
            0.08883005380630493,
            0.04549168422818184,
            -0.03415805473923683,
            0.13640452921390533,
            0.07329768687486649,
            0.01715395227074623,
            -0.08429418504238129,
            -0.04785418510437012,
            -0.09695052355527878,
            0.023619361221790314,
            -0.008135153912007809,
            0.15123337507247925,
            -0.08394356071949005,
            0.026476189494132996,
            -0.09253037720918655,
            -0.033231448382139206,
            -0.03619857877492905,
            0.07509569823741913,
            0.060228124260902405,
            0.029450252652168274,
            0.05241827294230461,
            -0.02580522559583187,
            0.0349104218184948,
            -0.07126007974147797,
            -0.10307911038398743,
            0.04908280819654465,
            0.035836368799209595,
            -0.06520680338144302,
            0.059136804193258286,
            0.05952630937099457,
            0.05492861941456795,
            0.043500836938619614,
            0.013467160984873772,
            0.0792609378695488,
            0.08493561297655106,
            -0.13696438074111938,
            0.17335790395736694,
            0.03933010995388031,
            0.004957625642418861,
            -0.0688229352235794,
            -0.08848659694194794,
            0.09551496058702469,
            0.052730027586221695,
            0.0069115557707846165,
            -0.10122903436422348,
            -0.03653919696807861,
            0.0797613337635994,
            0.05489729344844818,
            0.004105477128177881,
            0.002697904594242573,
            0.013125457800924778,
            0.12262258678674698,
            -0.03897551819682121,
            -0.05880475416779518,
            -0.09731734544038773,
            0.11591003090143204,
            0.16893251240253448,
            -0.0034178795758634806,
            -0.10404831916093826,
            -0.07132665812969208,
            0.050855766981840134,
            -0.17480364441871643,
            -0.10433436185121536,
            -0.12290287762880325,
            0.08153501898050308,
            0.0833108201622963,
            0.05588638409972191,
            -0.05697079747915268,
            0.11966067552566528,
            0.19751915335655212,
            -0.039622001349925995,
            -0.05240585282444954,
            -0.0010942379012703896,
            -0.010753436014056206,
            0.11990351229906082,
            0.09194764494895935,
            -0.13324107229709625,
            0.03608212620019913,
            0.10205160826444626,
            -0.10701219737529755,
            -0.11420825123786926,
            0.12466207146644592,
            0.06757397949695587,
            0.014267952181398869,
            0.1526331752538681,
            -0.012761436402797699,
            -0.0561465248465538,
            -0.09411375969648361,
            0.021245576441287994,
            0.11895636469125748,
            0.05739710479974747,
            0.03015526570379734,
            -0.11979290843009949,
            0.11909808218479156,
            -0.1885063350200653,
            0.12125131487846375,
            -0.04849490150809288,
            -0.11638859659433365,
            -0.052231315523386,
            -0.09063053876161575,
            -0.05390144884586334,
            0.1500457525253296,
            -0.12040199339389801,
            -0.04040759429335594,
            0.0004727362538687885,
            0.014606273733079433,
            -0.06265691667795181,
            -0.05597032979130745,
            -0.021137116476893425,
            0.03519313409924507,
            -0.06887101382017136,
            -0.04221764951944351,
            0.07017850130796432,
            -0.08582405745983124,
            -0.19871775805950165,
            -0.10496073961257935,
            0.013480850495398045,
            -0.09973771125078201,
            0.11406674236059189,
            0.10164012014865875,
            0.008427686989307404,
            -0.049275923520326614,
            -0.050131410360336304,
            0.053341880440711975,
            -0.10815157741308212,
            -0.01797081157565117,
            -0.1757846176624298,
            0.11551625281572342,
            -0.1424597054719925,
            -0.13687418401241302,
            0.10107570141553879,
            0.030313482508063316,
            0.07632122188806534,
            -0.0677126869559288,
            -0.0753306970000267,
            0.0408625565469265,
            -0.233351469039917,
            -0.032863982021808624,
            0.004270288627594709,
            -0.0170320775359869,
            0.07633349299430847,
            -0.04793136566877365,
            0.006192093715071678,
            0.06023671105504036,
            -0.1798352301120758,
            0.03928946703672409,
            0.030959639698266983,
            0.22492475807666779,
            -0.22309879958629608,
            -0.14675851166248322,
            0.03236278146505356,
            0.07837686687707901,
            0.02890879474580288,
            0.0020477687940001488,
            -0.055590372532606125,
            0.0875052660703659,
            0.10350135713815689,
            0.024974770843982697,
            0.06559595465660095,
            0.09180624783039093,
            0.16806742548942566,
            -0.05070558935403824,
            0.11761445552110672,
            0.1592489331960678,
            -0.1217438280582428,
            0.1290382593870163,
            0.08715733885765076,
            0.158528670668602,
            0.146615669131279,
            -0.2640640437602997,
            -0.043307650834321976,
            -0.1125941276550293,
            -0.0009617960313335061,
            0.34045860171318054,
            0.20545892417430878,
            -0.13930246233940125,
            0.06638218462467194,
            -0.030619792640209198,
            -0.19501596689224243,
            -0.058667633682489395,
            -0.06975224614143372,
            0.020645035430788994,
            0.141022726893425,
            -0.03968878090381622,
            0.07708311080932617,
            -0.11422090977430344,
            -0.04308002069592476,
            -0.004524845164269209,
            -0.03393065929412842,
            0.05611983686685562,
            -0.11023318767547607,
            0.04014960676431656,
            0.1785440891981125,
            0.21270698308944702,
            -0.07336872071027756,
            -0.08945156633853912,
            -0.013267291709780693,
            -0.06942107528448105,
            0.18029215931892395,
            -0.11614205688238144,
            -0.04085638374090195,
            -0.028146877884864807,
            -0.010025744326412678,
            -0.1675923764705658,
            -0.1498335599899292,
            -0.16003882884979248,
            -0.00312038604170084,
            0.08579162508249283,
            0.02669381909072399,
            -0.16557517647743225,
            -0.07647930830717087,
            0.000690822082106024,
            -0.03740805387496948,
            -0.015987779945135117,
            0.05920705199241638,
            0.13850761950016022,
            -0.27138155698776245,
            0.03837018460035324,
            0.13654379546642303,
            -0.029188010841608047,
            0.1588747799396515,
            0.13096864521503448,
            -0.08075893670320511,
            0.04841693118214607,
            0.14096768200397491,
            0.03132404386997223,
            0.06496026366949081,
            0.1589241623878479,
            -0.07137858122587204,
            -0.04791730269789696,
            0.041173871606588364,
            -0.13039228320121765,
            -0.16287769377231598,
            -0.010474983602762222,
            0.008881470188498497,
            0.008609320968389511,
            -0.0064092776738107204,
            0.12864862382411957,
            -0.1245088204741478,
            -0.07970689237117767,
            -0.26618093252182007,
            0.0182020403444767,
            0.12193632125854492,
            -0.02373332343995571,
            -0.14317820966243744,
            -0.1704733967781067,
            0.043495506048202515,
            -0.03602342680096626,
            0.042501017451286316,
            0.12028247117996216,
            -0.11444997042417526,
            0.1142469123005867,
            0.04059569537639618,
            -0.062295712530612946,
            -0.027416782453656197,
            0.004250871948897839,
            0.01656927913427353,
            0.01358276978135109,
            -0.09144389629364014,
            0.09299653023481369,
            0.015312841162085533,
            -0.11825105547904968,
            0.07177168875932693,
            0.04937858507037163,
            -0.05754456669092178,
            -0.09712106734514236,
            -0.05780986696481705,
            -0.22701619565486908,
            -0.12966322898864746,
            0.07609465718269348,
            0.12000072747468948,
            -0.04331624135375023,
            -0.0004550044541247189,
            0.07051859050989151,
            -0.07920748740434647,
            0.002740456024184823,
            -0.0005541875725612044,
            0.017726896330714226,
            -0.06806803494691849,
            0.15267276763916016,
            0.04804316163063049,
            0.1517246961593628,
            0.01458433736115694,
            0.12215401977300644,
            -0.08966676890850067,
            -0.12061234563589096,
            -0.04076606035232544,
            -0.09051042795181274,
            0.16532404720783234,
            0.029177313670516014,
            -0.02173207513988018,
            -0.14889439940452576,
            -0.12617871165275574,
            0.0006495552370324731,
            -0.13675951957702637,
            -0.0238046832382679,
            -0.030705681070685387,
            0.004137484822422266,
            -0.06160734221339226,
            -0.08834093809127808,
            0.03962905332446098,
            0.05874006450176239,
            -0.06428388506174088,
            0.1120840385556221,
            0.09044352173805237,
            0.08769059926271439,
            0.10918239504098892,
            -0.017439652234315872,
            -0.05942371487617493,
            0.0671629086136818,
            0.07790225744247437,
            -0.07102864235639572,
            -0.08907417207956314,
            0.09169848263263702,
            -0.023019367828965187,
            0.08117518573999405,
            -0.026416905224323273,
            0.030239280313253403,
            -0.027759341523051262,
            -0.0562368668615818,
            0.033547647297382355,
            -0.09250936657190323,
            -0.056303270161151886,
            -0.0756489485502243,
            0.017200767993927002,
            0.03749232366681099,
            -0.05788648501038551,
            0.07205884158611298,
            0.03297936171293259,
            0.10187774896621704,
            -0.13618479669094086,
            0.05627631023526192,
            0.0002795563777908683,
            -0.02022036351263523,
            -0.008500438183546066,
            0.0682881698012352,
            -0.08019139617681503,
            -0.029891779646277428,
            -0.004774321801960468,
            0.057116925716400146,
            0.08477313071489334,
            -0.22141866385936737,
            0.06959286332130432,
            -0.019768817350268364,
            -0.09168508648872375,
            -0.15749892592430115,
            0.01421734131872654,
            0.037271320819854736,
            0.08013425767421722,
            -0.03846763074398041,
            0.12359891831874847,
            -0.06616625934839249,
            -0.1246361956000328,
            -0.04412512853741646,
            0.004616746678948402,
            0.0756600871682167,
            0.09161925315856934,
            0.08578412979841232,
            0.03848867118358612,
            0.04079804942011833,
            -0.045821573585271835,
            0.14245425164699554,
            -0.003605213714763522,
            0.03509478643536568,
            0.04911113157868385,
            -0.1730290651321411,
            -0.0118099981918931,
            -0.09256256371736526,
            0.07930880784988403,
            -0.11649263650178909,
            0.0011674378765746951,
            0.053604792803525925,
            0.07914130389690399,
            0.033547528088092804,
            -0.002141224918887019,
            -0.044053491204977036,
            -0.12477365881204605,
            0.196285679936409,
            -0.1042088121175766,
            0.03476816043257713,
            -0.07041372358798981,
            -0.038366492837667465,
            0.1792265921831131,
            -0.02448384277522564,
            0.04530961439013481,
            -0.17388679087162018,
            -0.07367859780788422,
            0.07637044787406921,
            -0.15166284143924713,
            -0.11500352621078491,
            -0.24270565807819366,
            0.08842533081769943,
            -0.07084940373897552,
            0.08396187424659729,
            0.24893490970134735,
            0.014196576550602913,
            0.14579026401042938,
            0.08329189568758011,
            0.0056542083621025085,
            0.08445329964160919,
            0.04793791472911835,
            0.032727647572755814,
            0.027646400034427643,
            0.15347038209438324,
            0.006367714609950781,
            -0.06900666654109955,
            0.11194473505020142,
            -0.03649628907442093,
            -0.11591684073209763,
            0.0904846116900444,
            -0.04345105215907097,
            0.004567757714539766,
            0.16656887531280518,
            0.01740644872188568,
            -0.017555203288793564,
            -0.013353937305510044,
            0.17414185404777527,
            -0.028350217267870903,
            -0.1506352424621582,
            0.09353917092084885,
            0.020154014229774475,
            -0.0790095329284668,
            0.07140945643186569,
            -0.03914881870150566,
            0.037695471197366714,
            0.17414182424545288,
            -0.09224832057952881,
            -0.08440154790878296,
            -0.043349239975214005,
            -0.13896095752716064,
            -0.05074377730488777,
            -0.1234377846121788,
            0.06031723693013191,
            0.12452109903097153,
            -0.092027947306633,
            -0.07924900203943253,
            -0.1965179592370987,
            -0.20359784364700317,
            0.14926820993423462,
            -0.02950899861752987,
            -0.009316329844295979,
            -0.038195908069610596,
            0.024803394451737404,
            -0.05000998079776764,
            -0.06726440042257309,
            -0.12213089317083359,
            -0.11358729749917984,
            0.05507349967956543,
            0.011047491803765297,
            0.005907737649977207,
            0.011755856685340405,
            0.20039281249046326,
            0.0437128022313118,
            -0.14540643990039825,
            0.0004598809464368969,
            -0.08287712931632996,
            0.20506542921066284,
            0.009456668980419636,
            -0.0920291543006897,
            -0.020398620516061783,
            -0.036675043404102325,
            0.07523331046104431,
            0.019043536856770515,
            0.12106861174106598,
            0.093507319688797,
            -0.04747018963098526,
            0.017984306439757347,
            0.05986131727695465,
            0.22092868387699127,
            0.11289114505052567,
            -0.20640091598033905,
            0.11281205713748932,
            -0.04757154360413551,
            0.05253954231739044,
            0.07779449224472046,
            -0.04761061817407608,
            -0.01827150583267212,
            0.060700707137584686,
            -0.07715512812137604,
            0.061044540256261826,
            0.12652774155139923,
            -0.048495061695575714,
            0.0017128350446000695,
            0.019009225070476532,
            0.08818167448043823,
            0.10377809405326843,
            -0.04615478962659836,
            0.045733291655778885,
            -0.09232701361179352,
            0.0319148451089859,
            -0.009955313988029957,
            -0.04135836288332939,
            0.16445745527744293,
            -0.11781802773475647,
            0.11009965091943741,
            -0.011062802746891975,
            -0.05137378349900246,
            0.029025644063949585,
            -0.06662232428789139,
            -0.062300730496644974,
            -0.019064489752054214,
            -0.10750344395637512,
            -0.0582849383354187,
            -0.08761131018400192,
            0.05922062322497368,
            -0.02276298590004444,
            0.04816320911049843,
            0.12009536474943161,
            0.0224903617054224,
            0.0986579954624176,
            -0.09894174337387085,
            -0.09854567050933838,
            0.05061399191617966,
            0.06905147433280945,
            0.02078002691268921,
            0.02079932764172554,
            -0.009937959723174572,
            -0.0669151097536087,
            -0.007347696460783482,
            0.04983033612370491,
            -0.08839153498411179,
            0.13074401021003723,
            0.03444940969347954,
            0.032606519758701324,
            0.011441748589277267,
            -0.16354762017726898,
            0.02435426414012909,
            0.06202328950166702,
            0.10409849882125854,
            -0.007064810488373041,
            -0.10685407370328903,
            0.1079360619187355,
            0.12221766263246536,
            -0.05874188244342804,
            -0.05755653977394104,
            0.03541252017021179,
            -0.031026234850287437,
            -8.221754978876561e-05,
            -0.08676835894584656,
            0.091096431016922,
            0.05002502724528313,
            -0.05719698965549469,
            0.0739789679646492,
            -0.03793235868215561,
            0.09741862863302231,
            -0.07512733340263367,
            0.054138537496328354,
            0.09242073446512222,
            0.10719725489616394,
            0.06977768242359161,
            0.03685427084565163,
            -0.004373553674668074,
            0.017563292756676674,
            -0.051917221397161484,
            0.12998166680335999,
            0.06495142728090286,
            0.05069335922598839,
            -0.062467336654663086,
            0.02655261754989624,
            0.011379057541489601,
            0.06622682511806488,
            -0.00314348260872066,
            0.06863235682249069,
            -0.032305486500263214,
            -0.06336009502410889,
            0.08158276975154877,
            -0.026540927588939667,
            -0.07664987444877625,
            0.08217800408601761,
            0.12921038269996643,
            -0.06541240960359573,
            0.09963566809892654,
            0.07697171717882156,
            0.09361477196216583,
            0.03628288581967354,
            -0.10224253684282303,
            0.013189489021897316,
            0.12072894722223282,
            0.03730496019124985,
            0.09166157245635986,
            0.024885904043912888,
            0.009009021334350109,
            -0.04081675037741661,
            -0.07887762784957886,
            -0.10956443846225739,
            0.1144496351480484,
            0.038119543343782425,
            0.1701166331768036,
            -0.01191716454923153,
            -0.1348014622926712,
            0.0952264666557312,
            -0.12950564920902252,
            0.12569266557693481,
            0.07216132432222366,
            -0.15715982019901276,
            0.13346083462238312,
            0.048156894743442535,
            -0.08946548402309418,
            0.0452042855322361,
            -0.08792811632156372,
            0.028073225170373917,
            0.012413665652275085,
            0.04176807031035423,
            -0.06374265998601913,
            0.024163290858268738,
            -0.016403360292315483,
            -0.0831635519862175,
            -0.09975989162921906,
            0.09760832041501999,
            -0.11217471212148666,
            0.0943736881017685,
            0.14491210877895355,
            -0.03228381648659706,
            0.2514925003051758,
            0.0610346719622612,
            0.02537505328655243,
            -0.09672611951828003,
            0.056368160992860794,
            -0.06604224443435669,
            0.05122945085167885,
            0.06306542456150055,
            -0.009561537764966488,
            -0.07726213335990906,
            -0.08013756573200226,
            -0.1103135496377945,
            -0.04015408456325531,
            -0.359366238117218,
            0.05820993334054947,
            -0.14029401540756226,
            -0.057657476514577866,
            -0.001123832305893302,
            0.13620835542678833,
            0.04189208522439003,
            -0.05360996723175049,
            0.03026132844388485,
            0.1559554934501648,
            0.13603264093399048,
            0.007500132080167532,
            0.043958477675914764,
            -0.0006355094956234097,
            0.15740594267845154,
            -0.04630335792899132,
            -0.021645979955792427,
            0.11710034310817719,
            0.10682214796543121,
            -0.10574646294116974,
            0.0008636208367533982,
            0.11428394913673401,
            0.048567935824394226,
            -0.06677746772766113,
            0.12077375501394272,
            -0.016462447121739388,
            -0.05880643427371979,
            -0.0021969445515424013,
            0.11810437589883804,
            0.00728498725220561,
            -0.12802310287952423,
            0.1553700566291809,
            0.026668202131986618,
            0.12174122035503387,
            0.12920553982257843,
            0.20855389535427094,
            -0.2755952775478363,
            -0.031020820140838623,
            -0.09035564213991165,
            -0.0691087618470192,
            0.0794171541929245,
            -0.100163035094738,
            -0.035479433834552765,
            0.0034602892119437456,
            -0.05035381764173508,
            -0.012360252439975739,
            -0.12387116998434067,
            0.07415907084941864,
            0.045930515974760056,
            -0.049014341086149216,
            0.10813036561012268,
            0.05769110471010208,
            -0.08980805426836014,
            -0.12194331735372543,
            -0.21717886626720428,
            0.06660146266222,
            -0.023753078654408455,
            -0.10425940155982971,
            -0.010606705211102962,
            -0.027316169813275337,
            0.06166258454322815,
            0.018414173275232315,
            -0.00512809120118618,
            -0.04503124579787254,
            -0.16695813834667206,
            -0.040421225130558014,
            -0.09847542643547058,
            0.028470518067479134,
            0.016570772975683212,
            -0.05705435574054718,
            0.23438552021980286,
            -0.02404153347015381,
            -0.02397937700152397,
            -0.023830847814679146,
            0.028689172118902206,
            0.01813262514770031,
            -0.1631331592798233,
            0.051635537296533585,
            0.05738044157624245,
            0.011797741055488586,
            0.04206279665231705,
            -0.20012639462947845,
            -0.005331345368176699,
            0.0064589399844408035,
            -0.07698260247707367,
            0.020937681198120117,
            0.0020800663623958826,
            0.027636945247650146,
            0.23795080184936523,
            -0.1672753095626831,
            0.10640272498130798,
            -0.04870197921991348,
            0.10943509638309479,
            -0.12822549045085907,
            0.159469872713089,
            0.13584649562835693,
            -0.16460056602954865,
            -0.020515156909823418,
