{
    "num_epochs": 40000,
    "batch_size": 1000,
    "final_g_loss": 6.526750087738037,
    "final_d_loss": 0.018419353291392326,
    "generator_learning_rate": 0.0002,
    "discriminator_learning_rate": 0.0005,
    "train_data_exp_dir_path": [
        "/app/data/bpw_configs/bpw_train_data/knee_speed_2.0",
        "/app/data/bpw_configs/bpw_train_data/knee_speed_4.0",
        "/app/data/bpw_configs/bpw_train_data/knee_speed_6.0"
    ],
    "generator": {
        "num_inputs": 2,
        "num_outputs": 100,
        "num_hidden_layers": 1,
        "neurons_per_hidden_layer": 64,
        "hidden_layer_activation_function": "relu",
        "final_layer_activation_function": null,
        "bias": true,
        "weights": [
            1.482865810394287,
            -1.6569734811782837,
            -1.2973980903625488,
            1.4455877542495728,
            1.4944801330566406,
            -1.6575034856796265,
            1.0978093147277832,
            -1.2234609127044678,
            0.1325286477804184,
            -0.14332115650177002,
            -0.6111786961555481,
            -0.3845767676830292,
            1.2828543186187744,
            -1.4102619886398315,
            0.06488222628831863,
            -0.41449299454689026,
            1.0299042463302612,
            -1.1495848894119263,
            1.016574501991272,
            -1.1259779930114746,
            1.6184312105178833,
            -1.796555519104004,
            -0.9006400108337402,
            1.0040826797485352,
            0.24603106081485748,
            -0.21244341135025024,
            1.3607385158538818,
            -1.5134966373443604,
            -1.6733098030090332,
            1.8465532064437866,
            -0.6479642987251282,
            0.7208901047706604,
            1.3490920066833496,
            -1.5013482570648193,
            0.8609300851821899,
            -0.9604178667068481,
            0.16451013088226318,
            -0.6346251964569092,
            0.1476709395647049,
            -0.2277587354183197,
            -0.7668213844299316,
            0.8520673513412476,
            0.21887531876564026,
            -0.1927233636379242,
            1.0776647329330444,
            -1.2026795148849487,
            -0.635193943977356,
            0.7250788807868958,
            1.2586859464645386,
            -1.401951789855957,
            0.583052933216095,
            -0.13371813297271729,
            -1.8297570943832397,
            2.024949312210083,
            0.03982139378786087,
            -0.16724005341529846,
            -0.7656537890434265,
            0.8480202555656433,
            -1.5838251113891602,
            1.7514926195144653,
            1.6189038753509521,
            -1.795122504234314,
            1.730271816253662,
            -1.922968864440918,
            0.8690706491470337,
            -0.9688391089439392,
            2.3151800632476807,
            -2.567953586578369,
            -1.0311812162399292,
            1.1459486484527588,
            -0.6722105741500854,
            0.7413532733917236,
            -1.386269211769104,
            1.5296248197555542,
            -0.4344105124473572,
            0.4813799262046814,
            -0.869858980178833,
            0.967731773853302,
            -0.7262178063392639,
            0.8081733584403992,
            -0.6243057250976562,
            0.6976615786552429,
            0.07262035459280014,
            -0.46322524547576904,
            -0.8203250765800476,
            0.9072614312171936,
            1.3111767768859863,
            -1.4577569961547852,
            -1.1134458780288696,
            1.2388031482696533,
            1.0064926147460938,
            -1.1192951202392578,
            -0.6671057939529419,
            0.7384451031684875,
            -0.6879957318305969,
            0.7619171142578125,
            -0.16723071038722992,
            0.041597630828619,
            -0.8401167392730713,
            0.9315760731697083,
            0.1917431354522705,
            -0.5494766235351562,
            -0.5523787140846252,
            0.6076675653457642,
            -0.8679522275924683,
            0.9614111185073853,
            0.1937335878610611,
            0.2954380512237549,
            -0.08877799659967422,
            0.32774245738983154,
            -0.9643963575363159,
            1.0734118223190308,
            1.365965723991394,
            -1.5257923603057861,
            2.762848138809204,
            -3.0551793575286865,
            0.2985539734363556,
            -0.18597351014614105,
            -0.6936596035957336,
            0.2812885642051697,
            0.45493680238723755,
            0.3137890696525574,
            0.18987061083316803,
            -0.27930083870887756,
            -1.1681467294692993,
            1.2958768606185913,
            -0.6333988308906555,
            0.8962013721466064,
            -0.12727616727352142,
            0.679607093334198,
            -0.015382559970021248,
            -0.04652265086770058,
            0.6308716535568237,
            -0.7140271663665771,
            0.037257272750139236,
            0.4933983087539673,
            -0.051481179893016815,
            -0.07817269116640091,
            -0.0754220187664032,
            0.47120872139930725,
            0.8763574361801147,
            -0.08644139021635056,
            -0.004477298818528652,
            0.3287964463233948,
            -0.08311285823583603,
            0.01184117142111063,
            0.7458342909812927,
            0.8711599111557007,
            0.36391857266426086,
            0.9214798808097839,
            -0.0874122604727745,
            -0.1955750584602356,
            0.006656617391854525,
            0.44150879979133606,
            -0.2372845560312271,
            0.5805397033691406,
            0.34723588824272156,
            -0.017899231985211372,
            -0.05451306328177452,
            -0.12756603956222534,
            -0.45404887199401855,
            -1.3168503046035767,
            0.5329573750495911,
            0.2818954288959503,
            0.017387257888913155,
            0.2126748263835907,
            0.415737509727478,
            0.3525713384151459,
            0.31905317306518555,
            1.1155781745910645,
            0.3923693895339966,
            -0.09783528745174408,
            0.5690595507621765,
            -0.01947966404259205,
            0.2971085011959076,
            0.35489168763160706,
            0.4951464533805847,
            0.443205326795578,
            1.5524402856826782,
            0.2760031819343567,
            0.44280165433883667,
            1.2567315101623535,
            1.085866928100586,
            0.48946133255958557,
            0.02943481132388115,
            -1.5857964754104614,
            0.8074340224266052,
            -0.4181823134422302,
            0.5322462320327759,
            1.007670283317566,
            0.5748583078384399,
            -0.488968163728714,
            -0.30941998958587646,
            0.17478498816490173,
            -0.5799895524978638,
            -0.4911455512046814,
            0.12012280523777008,
            -0.008196315728127956,
            -0.20028911530971527,
            0.047563668340444565,
            -0.3468390107154846,
            -0.1698528230190277,
            -0.509077250957489,
            0.24310588836669922,
            0.0856691300868988,
            -0.4574717879295349,
            -0.5436491966247559,
            0.10713524371385574,
            -0.48833993077278137,
            -0.2646990120410919,
            -0.03661804273724556,
            -0.03606105595827103,
            0.15175564587116241,
            -0.2641822397708893,
            -0.12155736982822418,
            -0.01142720878124237,
            -0.23794905841350555,
            0.11498425900936127,
            -0.09075075387954712,
            0.011764805763959885,
            0.24264581501483917,
            -0.3548194468021393,
            -0.4333212375640869,
            -0.5328496098518372,
            0.16366425156593323,
            1.1658364534378052,
            0.1660120189189911,
            -0.012592037208378315,
            -0.3675615191459656,
            0.13359513878822327,
            0.20798026025295258,
            0.07349032163619995,
            0.04232437536120415,
            0.06066481024026871,
            0.26991695165634155,
            -0.32989490032196045,
            0.07899438589811325,
            -0.15986423194408417,
            0.038049787282943726,
            0.03682968020439148,
            -0.060159649699926376,
            0.26776158809661865,
            0.089947909116745,
            0.01393620390444994,
            0.09666921198368073,
            -0.1690714955329895,
            -0.1654505580663681,
            0.16614574193954468,
            -0.31909528374671936,
            1.6725715398788452,
            0.12951163947582245,
            0.0246351957321167,
            0.0729542076587677,
            -0.0188763290643692,
            0.015180855058133602,
            0.06083206459879875,
            -0.009394537657499313,
            0.1272805780172348,
            -0.26504644751548767,
            -0.10929953306913376,
            -0.14032799005508423,
            -0.11062226444482803,
            -0.27722659707069397,
            0.10889676213264465,
            -0.2078857123851776,
            -0.02321586385369301,
            -0.3293173909187317,
            0.12354126572608948,
            0.055966705083847046,
            -0.23075005412101746,
            -0.40047702193260193,
            0.01984664797782898,
            -0.2733951807022095,
            -0.29642656445503235,
            0.0475492961704731,
            0.05899488553404808,
            0.07113629579544067,
            -0.006145762745290995,
            0.15926170349121094,
            -0.058916475623846054,
            -0.22084857523441315,
            0.24831156432628632,
            -0.3667522668838501,
            -0.1376926153898239,
            0.09379849582910538,
            -0.3911539316177368,
            -0.45433539152145386,
            -0.17399103939533234,
            0.08272039890289307,
            0.5206904411315918,
            0.2996610701084137,
            -0.05731622874736786,
            -0.15242354571819305,
            0.10086017847061157,
            0.17060942947864532,
            0.018981268629431725,
            0.08005329966545105,
            0.04958823323249817,
            0.2533343434333801,
            0.06774041801691055,
            0.2955000102519989,
            -0.1523677557706833,
            0.16279035806655884,
            -0.019267909228801727,
            0.02295616827905178,
            0.09648795425891876,
            0.08645011484622955,
            0.09930732101202011,
            0.126909539103508,
            -0.15348730981349945,
            -0.10488338023424149,
            0.2483837604522705,
            -0.20623932778835297,
            0.8720893859863281,
            0.14987866580486298,
            -0.013802732340991497,
            -0.023267284035682678,
            0.07491449266672134,
            0.1843334585428238,
            0.1511051505804062,
            0.12738585472106934,
            -0.05212898924946785,
            0.3662469685077667,
            0.27281197905540466,
            -0.08644832670688629,
            0.05764210969209671,
            0.2929384708404541,
            -0.10407356917858124,
            0.25923457741737366,
            0.1688128113746643,
            0.35027700662612915,
            -0.0563850924372673,
            -0.16573193669319153,
            0.4117580056190491,
            0.32542845606803894,
            -0.13311661779880524,
            0.5149857401847839,
            0.06942447274923325,
            -0.04092281684279442,
            -0.05721438676118851,
            -0.3130919337272644,
            0.03756864741444588,
            -0.13767845928668976,
            0.1275276392698288,
            0.4776283800601959,
            -0.2805931568145752,
            0.47836562991142273,
            0.041577279567718506,
            -0.24841813743114471,
            0.4884392023086548,
            0.3140832185745239,
            0.3696993291378021,
            -0.15844698250293732,
            -0.8110606670379639,
            -0.21405063569545746,
            -0.20538634061813354,
            0.2917163074016571,
            -0.2283596694469452,
            -0.3049490451812744,
            -0.10848190635442734,
            -0.17751780152320862,
            -0.17253439128398895,
            -0.2075512409210205,
            0.27031412720680237,
            -0.3117789030075073,
            0.38174575567245483,
            -0.19166868925094604,
            -0.007872327230870724,
            -0.07628937810659409,
            -0.14544151723384857,
            -0.18229492008686066,
            -0.13168199360370636,
            -0.13014060258865356,
            -0.04419063776731491,
            0.025677509605884552,
            -0.2192518413066864,
            0.334364116191864,
            -1.4460161924362183,
            -0.16665993630886078,
            0.19888052344322205,
            -0.0043828049674630165,
            -0.07509278506040573,
            -0.26263776421546936,
            -0.07675262540578842,
            -0.622272789478302,
            0.2023279070854187,
            -0.18322737514972687,
            -0.3741113245487213,
            -0.1885656863451004,
            0.036695096641778946,
            -0.04682490602135658,
            -0.08236856013536453,
            -0.1872176229953766,
            -0.32723718881607056,
            -0.37512800097465515,
            0.08362972736358643,
            -0.25360220670700073,
            -0.3521752953529358,
            -0.3556867837905884,
            0.2578732967376709,
            -0.5090137124061584,
            0.020854713395237923,
            -0.1098615750670433,
            -0.1570805013179779,
            -0.09788211435079575,
            -0.06147262081503868,
            -0.23866774141788483,
            -0.07859360426664352,
            -0.3372792899608612,
            0.07694737613201141,
            0.09680970013141632,
            0.19559118151664734,
            -0.18335695564746857,
            -0.3093484342098236,
            -0.3560362756252289,
            -0.5611255764961243,
            0.07518180459737778,
            1.0014376640319824,
            0.15207453072071075,
            -0.06058516725897789,
            -0.27838924527168274,
            0.16285575926303864,
            -0.08238346874713898,
            0.19936341047286987,
            -0.0218681450933218,
            -0.06964350491762161,
            -0.07685771584510803,
            -0.33243462443351746,
            0.03674694150686264,
            -0.20542338490486145,
            0.12823346257209778,
            0.15211251378059387,
            0.15916503965854645,
            0.11934546381235123,
            -0.15493477880954742,
            0.054882775992155075,
            0.16790947318077087,
            -0.14534655213356018,
            -0.22380255162715912,
            0.19379392266273499,
            -0.15857450664043427,
            1.5937671661376953,
            0.08449125289916992,
            0.017555875703692436,
            -0.1233324259519577,
            -0.04865821823477745,
            -0.011056983843445778,
            -0.03655116260051727,
            -0.797935962677002,
            0.11014547199010849,
            -0.41588664054870605,
            -0.4709621071815491,
            -0.21445398032665253,
            0.0687035322189331,
            -0.6722678542137146,
            0.04298185929656029,
            -0.3716273009777069,
            -0.4616723954677582,
            -0.5380087494850159,
            0.25960689783096313,
            0.05472162365913391,
            -0.7769923806190491,
            -0.25491178035736084,
            0.18070079386234283,
            -0.5609404444694519,
            -0.6861016154289246,
            -0.07652932405471802,
            -0.16720743477344513,
            0.1582295447587967,
            0.07175992429256439,
            -0.5644782185554504,
            -0.0012502563185989857,
            -0.2819455862045288,
            0.06924822926521301,
            -0.23009561002254486,
            -0.3418094217777252,
            0.10783368349075317,
            -0.441682368516922,
            -0.6577993631362915,
            -0.7034980654716492,
            0.2854108512401581,
            2.282379150390625,
            0.007211637683212757,
            -0.02213684841990471,
            -0.22993174195289612,
            0.10218317061662674,
            -0.0976431593298912,
            0.24149656295776367,
            -0.03555954992771149,
            -0.022753987461328506,
            -0.09395690262317657,
            -0.7177528738975525,
            0.2460777759552002,
            -0.8223181962966919,
            0.06286769360303879,
            0.20690922439098358,
            0.06897463649511337,
            0.18050651252269745,
            0.03478003293275833,
            0.05508561059832573,
            0.27103307843208313,
            -0.09988714009523392,
            -0.17900881171226501,
            0.18176232278347015,
            -0.8947482109069824,
            2.7169008255004883,
            -0.0580720491707325,
            -0.13257759809494019,
            -0.05733659118413925,
            -0.07338270545005798,
            0.047951679676771164,
            0.03427429869771004,
            -0.21780206263065338,
            -0.07477068901062012,
            -0.09710567444562912,
            -0.13716648519039154,
            -0.07991661131381989,
            -0.10581263899803162,
            -0.03951529413461685,
            -0.11680567264556885,
            -0.21171991527080536,
            -0.22071266174316406,
            -0.14322687685489655,
            0.10505775362253189,
            0.014363505877554417,
            -0.24883313477039337,
            -0.18613894283771515,
            0.10278917849063873,
            -0.15670104324817657,
            0.08786141127347946,
            0.05806737765669823,
            -0.02456449158489704,
            0.14785316586494446,
            0.05916542932391167,
            -0.17192140221595764,
            -0.05686011165380478,
            -0.031825240701436996,
            0.25662311911582947,
            -0.23416081070899963,
            0.05693287402391434,
            -0.050390761345624924,
            -0.1533566266298294,
            -0.05352077633142471,
            -0.10865476727485657,
            0.17368733882904053,
            0.3415403366088867,
            0.1801893711090088,
            0.049983154982328415,
            -0.13357651233673096,
            0.09049205482006073,
            -0.06264535337686539,
            0.17615297436714172,
            -0.020260972902178764,
            0.04471585527062416,
            0.09375085681676865,
            -0.3372863829135895,
            0.21284843981266022,
            -0.18666449189186096,
            0.09982246905565262,
            0.09533524513244629,
            0.05833755433559418,
            0.15241238474845886,
            -0.07564401626586914,
            0.08373899012804031,
            -0.0734560638666153,
            0.04277627170085907,
            -0.1529327780008316,
            0.1675889790058136,
            -0.1005278006196022,
            0.6998167037963867,
            -0.01658717915415764,
            0.04205523058772087,
            0.001802282640710473,
            0.10515756160020828,
            0.1369587481021881,
            -0.047618892043828964,
            -0.18864041566848755,
            -0.08854632824659348,
            0.038472916930913925,
            -0.016703573986887932,
            -0.052983179688453674,
            0.175541490316391,
            0.13843660056591034,
            0.007013594266027212,
            0.28411754965782166,
            0.04435229301452637,
            0.1675264537334442,
            -0.09119752049446106,
            -0.04102258011698723,
            -0.08796387910842896,
            0.23013213276863098,
            -0.20597699284553528,
            0.08885027468204498,
            0.049685049802064896,
            0.14789849519729614,
            -0.16405820846557617,
            -0.18813012540340424,
            -0.15966393053531647,
            0.03234076127409935,
            0.24553269147872925,
            0.24845284223556519,
            -0.018236950039863586,
            0.5202078223228455,
            -0.08426718413829803,
            -0.25507786870002747,
            0.2906220555305481,
            0.16175426542758942,
            -0.029479119926691055,
            0.050469525158405304,
            -0.15526379644870758,
            -0.2532138228416443,
            -0.18303997814655304,
            0.19839662313461304,
            -0.04903605952858925,
            -0.2002570927143097,
            -0.24621759355068207,
            -0.1099313274025917,
            0.01550807524472475,
            0.01516668125987053,
            0.12362975627183914,
            -0.16037122905254364,
            0.11272627115249634,
            -0.36599403619766235,
            -0.20326247811317444,
            -0.08526267856359482,
            -0.02640576846897602,
            -0.20736438035964966,
            -0.06668318063020706,
            -0.2650867998600006,
            0.09818555414676666,
            0.058469321578741074,
            -0.08026456832885742,
            0.025929944589734077,
            -0.3769974410533905,
            -0.05189494043588638,
            0.17608331143856049,
            -0.10732775181531906,
            -0.20621782541275024,
            -0.2814487814903259,
            0.34116852283477783,
            0.022554222494363785,
            -0.09054422378540039,
            -0.05758027359843254,
            -0.11174114793539047,
            0.005377680063247681,
            0.0437009334564209,
            0.1510964334011078,
            0.022069474682211876,
            -0.08243048936128616,
            0.13309836387634277,
            0.20333313941955566,
            -0.13046696782112122,
            0.029592756181955338,
            0.20568931102752686,
            0.027886517345905304,
            -0.12111740559339523,
            0.02089023031294346,
            0.004496792796999216,
            -0.06720377504825592,
            -0.13700272142887115,
            -0.03834662213921547,
            0.029251547530293465,
            0.040303103625774384,
            0.18795841932296753,
            0.08794642984867096,
            -0.03096460923552513,
            0.19224976003170013,
            -0.021116673946380615,
            -0.14329755306243896,
            -0.011343746446073055,
            0.14798380434513092,
            0.13186754286289215,
            0.04714309796690941,
            -0.2226925939321518,
            -0.05329945310950279,
            -0.0030013893265277147,
            0.062295202165842056,
            -0.065871462225914,
            0.03359244391322136,
            -0.17746345698833466,
            -0.012845662422478199,
            -0.11011508107185364,
            -0.04663703963160515,
            0.1781367063522339,
            -0.05266895517706871,
            0.049874741584062576,
            -0.06200091168284416,
            -0.05880318582057953,
            -0.04277919605374336,
            0.03606480360031128,
            -0.04739314317703247,
            -0.0706033930182457,
            0.07260183244943619,
            0.03322272002696991,
            -0.008100459352135658,
            -0.021938208490610123,
            -0.010585056617856026,
            -0.32718178629875183,
            -0.09852338582277298,
            0.022183362394571304,
            -0.10190484672784805,
            -0.2422625869512558,
            0.01035420224070549,
            0.040306150913238525,
            -0.10784938931465149,
            -0.13063380122184753,
            0.2878529727458954,
            -0.09477349370718002,
            -0.0606238953769207,
            0.05351323261857033,
            0.08210834115743637,
            0.08196797966957092,
            0.036746054887771606,
            0.017908690497279167,
            0.11885944753885269,
            -0.005156744737178087,
            -0.095699742436409,
            0.09459146112203598,
            0.061154164373874664,
            -0.026135915890336037,
            0.027449116110801697,
            -0.07028205692768097,
            -0.09628394991159439,
            -0.2573765516281128,
            -0.08137939870357513,
            -0.09733876585960388,
            -0.2777627408504486,
            0.0017666833009570837,
            0.17568592727184296,
            -0.04298550263047218,
            0.13405050337314606,
            -0.05160406604409218,
            -0.15081027150154114,
            0.2597291171550751,
            0.18164175748825073,
            -0.06641911715269089,
            -0.1181788519024849,
            -0.10393322259187698,
            -0.09096553176641464,
            -0.06254342943429947,
            0.15043628215789795,
            -0.07503584027290344,
            0.05044269189238548,
            -0.1113383024930954,
            0.027014276012778282,
            -0.03282422199845314,
            0.05914990231394768,
            -0.23659740388393402,
            -0.15649008750915527,
            0.18060822784900665,
            -0.1970357596874237,
            -0.012236593291163445,
            -0.09227172285318375,
            -0.028148850426077843,
            0.04009727016091347,
            -0.15384966135025024,
            0.09767075628042221,
            -0.03942714259028435,
            -0.09430814534425735,
            -0.15348072350025177,
            0.27746325731277466,
            -0.1788589060306549,
            -0.0757300853729248,
            0.026822272688150406,
            -0.06410679221153259,
            -0.12224321812391281,
            -0.12221783399581909,
            -0.005526630207896233,
            0.00022216964862309396,
            -0.24244646728038788,
            0.2160140573978424,
            0.1851523220539093,
            0.02810090035200119,
            -0.04618185758590698,
            0.3612416088581085,
            0.03085605800151825,
            0.21445098519325256,
            0.23602089285850525,
            0.22343508899211884,
            -0.004343034233897924,
            -0.09626075625419617,
            -0.02609296143054962,
            0.31438371539115906,
            -0.1201293021440506,
            0.1834966093301773,
            -0.03330139443278313,
            0.05081838741898537,
            -0.04017238691449165,
            -0.07775086909532547,
            -0.02349698916077614,
            -0.116364024579525,
            0.059359654784202576,
            0.3650702238082886,
            0.0459747277200222,
            0.35170677304267883,
            0.09269249439239502,
            -0.059316761791706085,
            0.33893463015556335,
            0.2190639227628708,
            0.07565940171480179,
            -0.10539520531892776,
            -0.5124105215072632,
            -0.2313997745513916,
            -0.34814542531967163,
            0.1942729949951172,
            -0.2629382610321045,
            -0.1885441541671753,
            -0.05474276840686798,
            -0.06030520424246788,
            -0.17110593616962433,
            -0.04981089383363724,
            0.06655678898096085,
            -0.14785577356815338,
            0.21488581597805023,
            -0.24703003466129303,
            -0.0836956799030304,
            0.03437948226928711,
            -0.08171838521957397,
            -0.07055586576461792,
            -0.20458514988422394,
            -0.04631906747817993,
            -0.007174655795097351,
            -0.09049548208713531,
            -0.062066491693258286,
            0.3071022033691406,
            -0.775006890296936,
            -0.1582404226064682,
            0.035917978733778,
            -0.00019207624427508563,
            -0.07523044943809509,
            -0.18965905904769897,
            -0.06645052880048752,
            0.1282094269990921,
            -0.20963776111602783,
            0.043533820658922195,
            0.25894278287887573,
            -0.20060250163078308,
            -0.004672266077250242,
            0.20003417134284973,
            -0.06464672088623047,
            0.3300040662288666,
            0.10985253751277924,
            0.09682390838861465,
            -0.2301691174507141,
            -0.022959908470511436,
            0.07293295115232468,
            0.27706414461135864,
            -0.010076611302793026,
            0.14313936233520508,
            0.03349902108311653,
            -0.07801783829927444,
            -0.05223013088107109,
            -0.2751290798187256,
            -0.15764407813549042,
            0.11685434728860855,
            0.2503960132598877,
            0.07054494321346283,
            -0.01796584576368332,
            0.29286959767341614,
            -0.021824993193149567,
            -0.12402790039777756,
            0.22390416264533997,
            0.11322727799415588,
            0.2168138474225998,
            -0.007981820963323116,
            -0.4875939190387726,
            -0.07874053716659546,
            0.07100628316402435,
            0.18992489576339722,
            -0.042328428477048874,
            -0.16598951816558838,
            0.01084474753588438,
            -0.0772467702627182,
            -0.14541488885879517,
            -0.22479276359081268,
            0.19837231934070587,
            -0.2696037292480469,
            0.09414505958557129,
            -0.19144600629806519,
            -0.05028652772307396,
            0.06655178219079971,
            -0.23838795721530914,
            -0.17983268201351166,
            -0.11330276727676392,
            0.02024594321846962,
            0.007474718615412712,
            -0.04316587746143341,
            -0.08089908212423325,
            0.1847325712442398,
            -0.6187929511070251,
            0.005027677398175001,
            0.09425531327724457,
            -0.0633731260895729,
            -0.10117360949516296,
            -0.11154898256063461,
            0.029329607263207436,
            0.015221258625388145,
            -0.033677615225315094,
            0.14900629222393036,
            -0.04125561565160751,
            0.02351674996316433,
            0.11620362102985382,
            0.19430391490459442,
            -0.0037666845601052046,
            0.1490020602941513,
            0.1556931883096695,
            0.27139148116111755,
            0.05265698954463005,
            -0.08543824404478073,
            0.17959272861480713,
            0.1086244285106659,
            -0.10953513532876968,
            0.15407738089561462,
            0.3107348084449768,
            -0.1692289412021637,
            -0.07039086520671844,
            -0.2759445011615753,
            0.03138492628931999,
            0.1553187072277069,
            0.1611207127571106,
            0.03188307210803032,
            -0.18566815555095673,
            0.3797418773174286,
            -0.01094506960362196,
            -0.026595713570713997,
            0.23760627210140228,
            0.08022445440292358,
            0.03261720389127731,
            -0.032875608652830124,
            -0.32041773200035095,
            -0.05385657772421837,
            -0.18266259133815765,
            0.23211026191711426,
            -0.10450094938278198,
            -0.4137047529220581,
            -0.05458831787109375,
            -0.16585367918014526,
            -0.19323399662971497,
            -0.17229002714157104,
            0.3463052213191986,
            -0.1066712886095047,
            0.05101766064763069,
            -0.290630042552948,
            -0.07352610677480698,
            -0.009481698274612427,
            -0.060189567506313324,
            -0.1594131886959076,
            -0.08512269705533981,
            0.0781283974647522,
            0.03688579425215721,
            0.09984678030014038,
            -0.2861282229423523,
            0.23565591871738434,
            -0.8043602705001831,
            -0.057090528309345245,
            0.045250363647937775,
            -0.13552646338939667,
            -0.14937204122543335,
            -0.22824378311634064,
            0.1672794073820114,
            -0.07877067476511002,
            -0.1127442717552185,
            0.022305050864815712,
            0.11065030097961426,
            -0.09722176939249039,
            0.022283881902694702,
            0.08626867085695267,
            0.025747720152139664,
            0.11645454168319702,
            0.061833713203668594,
            -0.00221870350651443,
            0.04523785039782524,
            0.049072619527578354,
            -0.05995442345738411,
            -0.10269184410572052,
            0.009791076183319092,
            0.019111141562461853,
            0.19801181554794312,
            0.06456590443849564,
            -0.05243588984012604,
            -0.0722113847732544,
            -0.029288625344634056,
            -0.12012064456939697,
            0.21557028591632843,
            0.06297740340232849,
            0.04506504535675049,
            0.21870504319667816,
            0.0841483399271965,
            0.03816485032439232,
            0.1425008624792099,
            0.19171282649040222,
            -0.0881853774189949,
            -0.019560078158974648,
            -0.008725865744054317,
            -0.10961958020925522,
            -0.2411615252494812,
            -0.0604868121445179,
            0.06960063427686691,
            -0.011817666701972485,
            0.041758421808481216,
            -0.1109657809138298,
            -0.023748325183987617,
            -0.13849817216396332,
            -0.050723787397146225,
            -0.0934520810842514,
            0.1981685906648636,
            -0.1668480485677719,
            -0.03545575588941574,
            0.1157873272895813,
            0.05279270187020302,
            -0.11047340929508209,
            0.07970280945301056,
            0.07251972705125809,
            0.009872106835246086,
            0.019020041450858116,
            0.02001454308629036,
            0.14214269816875458,
            -0.2760733664035797,
            0.011716495268046856,
            -0.1244998574256897,
            -0.052407968789339066,
            -0.12185303866863251,
            0.025284823030233383,
            0.012079658918082714,
            -0.06559329479932785,
            0.08106116205453873,
            -0.02313718944787979,
            0.10504357516765594,
            -0.06988244503736496,
            -0.09309413284063339,
            0.057376015931367874,
            -0.004761759657412767,
            -0.07443942874670029,
            0.09012404084205627,
            0.0022421509493142366,
            -0.09537012875080109,
            -0.046998292207717896,
            0.023182358592748642,
            0.11771465837955475,
            0.08933941274881363,
            0.1284729242324829,
            0.08777093142271042,
            -0.039216093719005585,
            0.11868061125278473,
            -0.07863875478506088,
            -0.06432870030403137,
            -0.07091472297906876,
            -0.12322691082954407,
            0.07538994401693344,
            -0.09852472692728043,
            -0.08621874451637268,
            -0.001077669090591371,
            0.1304093301296234,
            -0.07361455261707306,
            -0.1331571787595749,
            -0.03579844534397125,
            0.07725701481103897,
            -0.0629725530743599,
            -0.07569653540849686,
            -0.12010367959737778,
            0.1388506442308426,
            0.0854821726679802,
            -0.10530073940753937,
            -0.022303692996501923,
            0.0698225274682045,
            0.026765648275613785,
            0.0012115567224100232,
            0.15391580760478973,
            -0.06498342752456665,
            0.06595920026302338,
            0.06734482198953629,
            -0.04642097279429436,
            -0.13985352218151093,
            -0.05247506871819496,
            -0.0067522721365094185,
            0.1267687976360321,
            0.022358059883117676,
            0.02752636931836605,
            0.10514192283153534,
            0.05634140595793724,
            -0.1270839422941208,
            -0.01721353642642498,
            0.015431661158800125,
            0.12032617628574371,
            0.02592349424958229,
            -0.06355751305818558,
            -0.09032103419303894,
            0.04024636000394821,
            0.09952091425657272,
            0.19263137876987457,
            -0.1976986527442932,
            -0.15266889333724976,
            0.09855800122022629,
            0.18886803090572357,
            -0.2362722009420395,
            -0.022312205284833908,
            -0.0963827446103096,
            -0.1297241896390915,
            -0.09663256257772446,
            0.05526930093765259,
            0.20451049506664276,
            0.0723041221499443,
            -0.2762052118778229,
            0.15437452495098114,
            0.04937296360731125,
            -0.08080204576253891,
            0.05161124840378761,
            -0.008108552545309067,
            0.15439610183238983,
            0.20235145092010498,
            -0.03962060436606407,
            -0.38240212202072144,
            -0.18412582576274872,
            0.10102574527263641,
            -0.2603675127029419,
            -0.0140161644667387,
            0.15444564819335938,
            -0.18015310168266296,
            -0.1585671305656433,
            0.041144903749227524,
            0.1529010534286499,
            0.12874941527843475,
            0.0508880689740181,
            0.24012397229671478,
            -0.06950657814741135,
            0.1101229190826416,
            -0.0045824008993804455,
            0.150705024600029,
            0.10482832044363022,
            0.12158223986625671,
            -0.09639623016119003,
            -0.04472111538052559,
            0.0043075839057564735,
            -0.1470627635717392,
            0.16315795481204987,
            0.0305570587515831,
            -0.010486824437975883,
            0.11410127580165863,
            -0.00023977317323442549,
            0.142769917845726,
            0.09195157885551453,
            -0.0863148421049118,
            0.10455331206321716,
            0.10025788843631744,
            -0.07139303535223007,
            0.365940660238266,
            0.07175031304359436,
            -0.05125398933887482,
            0.06828085333108902,
            0.20667630434036255,
            0.27608439326286316,
            -0.2129344493150711,
            -0.12341724336147308,
            0.12285254150629044,
            0.1413828283548355,
            0.06861074268817902,
            0.13518065214157104,
            -0.0763435959815979,
            0.020012177526950836,
            0.048416685312986374,
            0.1584569215774536,
            -0.21181538701057434,
            -0.19106917083263397,
            0.010134398005902767,
            -0.051100607961416245,
            -0.1384240686893463,
            -0.07008258253335953,
            0.09052462130784988,
            -0.07137150317430496,
            -0.1348572075366974,
            0.15462727844715118,
            0.07278243452310562,
            0.10287141054868698,
            0.0033151323441416025,
            -0.230611190199852,
            -0.09122539311647415,
            0.037415701895952225,
            0.1021919921040535,
            -0.17781655490398407,
            0.30503037571907043,
            0.04583565518260002,
            -0.11334658414125443,
            -0.12217450886964798,
            -0.22779762744903564,
            0.028560100123286247,
            0.11613529175519943,
            0.024328220635652542,
            0.23872010409832,
            -0.02203652635216713,
            0.040466733276844025,
            0.027993787080049515,
            0.20692454278469086,
            0.09608355909585953,
            0.12436876446008682,
            0.014946834184229374,
            -0.21608249843120575,
            -0.0748203843832016,
            0.09255853295326233,
            0.013140006922185421,
            0.08314336836338043,
            0.052623555064201355,
            -0.06955967098474503,
            0.04070540890097618,
            0.014930165372788906,
            0.11723902821540833,
            0.09280692040920258,
            -0.07634475827217102,
            0.0379960723221302,
            0.138280987739563,
            0.3620753884315491,
            0.13894158601760864,
            -0.020330440253019333,
            0.16395418345928192,
            -0.006794826593250036,
            0.09495151042938232,
            -0.09469189494848251,
            0.10825514048337936,
            0.24416323006153107,
            -0.16857562959194183,
            -0.13396207988262177,
            -0.10436789691448212,
            -0.07170871645212173,
            -0.05358245223760605,
            -0.08307711780071259,
            -0.12147009372711182,
            -0.12287558615207672,
            -0.257272332906723,
            0.10354512929916382,
            0.06975182890892029,
            -0.18766647577285767,
            -0.32032209634780884,
            0.025386180728673935,
            -0.08815326541662216,
            0.08030238002538681,
            -0.05311615392565727,
            0.07661937177181244,
            0.01123572327196598,
            -0.04047580435872078,
            0.09511510282754898,
            -0.049453746527433395,
            -0.10163281857967377,
            -0.04641774296760559,
            -0.28567343950271606,
            0.015948256477713585,
            -0.051850199699401855,
            -0.3624976873397827,
            -0.10433416068553925,
            -0.20930048823356628,
            0.06535336375236511,
            0.22749629616737366,
            0.13024820387363434,
            -0.0769953802227974,
            -0.05337192490696907,
            0.1311420053243637,
            0.2673674523830414,
            0.029439009726047516,
            0.026428326964378357,
            0.0700482428073883,
            0.1036880612373352,
            0.1016945093870163,
            0.1414506584405899,
            -0.10357783734798431,
            0.15842096507549286,
            0.006588732358068228,
            0.03572052717208862,
            0.04765412583947182,
            -0.07324979454278946,
            0.09669723361730576,
            0.052987147122621536,
            -0.09237507730722427,
            -0.02513798698782921,
            0.20067651569843292,
            -0.21107536554336548,
            0.5247339606285095,
            0.11772274971008301,
            0.00440792553126812,
            0.016214055940508842,
            -0.0629928857088089,
            0.07681725919246674,
            0.09596748650074005,
            -0.03264398127794266,
            0.24136148393154144,
            -0.27613362669944763,
            -0.31749728322029114,
            0.05373968929052353,
            0.046568337827920914,
            -0.2279033064842224,
            0.07841368019580841,
            -0.2614312171936035,
            -0.24000903964042664,
            -0.09418632090091705,
            0.15341541171073914,
            0.15311750769615173,
            -0.17370057106018066,
            -0.18473917245864868,
            0.16640157997608185,
            -0.15743839740753174,
            -0.14235465228557587,
            0.05887460336089134,
            0.15164388716220856,
            0.1496255248785019,
            0.09474912285804749,
            0.07138596475124359,
            -0.2711959481239319,
            -0.16252529621124268,
            -0.09138629585504532,
            -0.43498700857162476,
            -0.0799732357263565,
            0.10028669238090515,
            -0.34830623865127563,
            -0.3146786391735077,
            -0.05580642446875572,
            0.022324375808238983,
            0.6695773005485535,
            0.0814952552318573,
            0.06401827931404114,
            -0.11770714819431305,
            0.0035574142821133137,
            0.1558174043893814,
            0.1140747219324112,
            0.06054670736193657,
            0.0012848193291574717,
            0.1709853708744049,
            -0.037927884608507156,
            0.2719746530056,
            -0.009201987646520138,
            0.24855975806713104,
            0.06627067923545837,
            0.1133631244301796,
            0.05979102477431297,
            -0.02857738547027111,
            0.1463378220796585,
            0.005615427624434233,
            0.13910561800003052,
            0.1469651162624359,
            0.11141398549079895,
            -0.3099678158760071,
            0.6821718811988831,
            0.05684501677751541,
            0.009098369628190994,
            0.045477524399757385,
            0.06265673786401749,
            0.16501453518867493,
            -0.1543266773223877,
            -0.06658068299293518,
            -0.17925336956977844,
            0.20309273898601532,
            0.06801130622625351,
            -0.08327054977416992,
            -0.04475704953074455,
            0.11974400281906128,
            -0.08175908774137497,
            0.2672975957393646,
            -0.08651028573513031,
            0.261544793844223,
            0.006314866244792938,
            -0.11438159644603729,
            -0.10898831486701965,
            0.24292440712451935,
            -0.07238419353961945,
            0.2537038028240204,
            -0.06077761948108673,
            -0.21227054297924042,
            -0.05183600261807442,
            -0.10848119854927063,
            -0.14167355000972748,
            -0.07918249815702438,
            0.09353674203157425,
            0.27601146697998047,
            -0.08407633751630783,
            0.19186124205589294,
            0.11205174773931503,
            -0.08832190930843353,
            0.29413703083992004,
            0.3187698423862457,
            0.11068082600831985,
            -0.15583014488220215,
            -0.3186287581920624,
            -0.12999227643013,
            -0.13435548543930054,
            0.08000761270523071,
            -0.03927486389875412,
            -0.07498088479042053,
            0.09971054643392563,
            0.028484825044870377,
            -0.06920012831687927,
            -0.06655570864677429,
            -0.06220463290810585,
            -0.04011429473757744,
            0.20539987087249756,
            -0.217828631401062,
            -0.14356033504009247,
            -0.084356889128685,
            -0.2235099971294403,
            -0.1668725311756134,
            -0.08447597920894623,
            -0.13920482993125916,
            -0.07372221350669861,
            -0.04059169813990593,
            -0.06962998956441879,
            0.10865555703639984,
            -0.4201630651950836,
            -0.15257924795150757,
            0.01841358281672001,
            -0.009892852045595646,
            0.03234444558620453,
            -0.12450797110795975,
            -0.007386838085949421,
            -0.1426304578781128,
            -0.14356037974357605,
            0.2526830732822418,
            0.014534288085997105,
            0.13553006947040558,
            -0.038256898522377014,
            0.1428394615650177,
            -0.11295568197965622,
            0.08382607996463776,
            0.025286074727773666,
            0.26164036989212036,
            0.08821463584899902,
            -0.11024099588394165,
            -0.14262142777442932,
            0.017952261492609978,
            0.04435528442263603,
            -0.03389499709010124,
            0.0325528159737587,
            0.04335165023803711,
            0.045427415519952774,
            0.04770314320921898,
            0.06245584413409233,
            -0.2387329787015915,
            -0.031176168471574783,
            0.25504305958747864,
            -0.07570578157901764,
            0.03614891692996025,
            0.12416818737983704,
            0.04199885576963425,
            0.08385166525840759,
            0.12000240385532379,
            -0.06755740195512772,
            -0.0010670364135876298,
            -0.1980154812335968,
            0.04440109804272652,
            0.05854341760277748,
            -0.004894043784588575,
            -0.1259700357913971,
            -0.1056722104549408,
            -0.13082924485206604,
            -0.01799151487648487,
            0.0026174550876021385,
            -0.0724204033613205,
            -0.173355370759964,
            0.056118883192539215,
            0.1617795079946518,
            -0.1558331847190857,
            -0.017286745831370354,
            -0.12751616537570953,
            -0.024730972945690155,
            -0.00014585410826839507,
            0.0017007599817588925,
            0.011584463529288769,
            -0.05935011804103851,
            -0.032591428607702255,
            0.04868543520569801,
            0.1235167533159256,
            -0.1785891205072403,
            0.06777137517929077,
            -0.0036006581503897905,
            0.13756607472896576,
            -0.08958643674850464,
            0.04878794774413109,
            -0.08181009441614151,
            -0.058172594755887985,
            0.07783572375774384,
            -0.34654390811920166,
            -0.28251826763153076,
            0.13193145394325256,
            0.01418414618819952,
            -0.5275542140007019,
            0.03382927179336548,
            -0.2210126668214798,
            0.1157229095697403,
            -0.19066058099269867,
            0.18188853561878204,
            0.118964284658432,
            -0.25686511397361755,
            -0.4821893572807312,
            0.3134128451347351,
            -0.34958145022392273,
            -0.17012380063533783,
            -0.01991036906838417,
            -0.09198635071516037,
            0.1921275407075882,
            0.09121046960353851,
            0.00506547000259161,
            -0.26100146770477295,
            -0.4152027666568756,
            0.047703418880701065,
            -0.4282230734825134,
            -0.003425843780860305,
            0.22197744250297546,
            -0.3872984051704407,
            -0.37413081526756287,
            -0.14219217002391815,
            0.1463870108127594,
            1.0020174980163574,
            0.0822376012802124,
            0.26441681385040283,
            -0.16124486923217773,
            -0.07849247753620148,
            0.17734307050704956,
            0.10624153912067413,
            -0.0023929572198539972,
            0.0503012090921402,
            0.12480877339839935,
            0.083343006670475,
            0.2354660928249359,
            -0.38096484541893005,
            0.15246902406215668,
            0.004149627406150103,
            -0.03924616053700447,
            0.21923072636127472,
            0.08841776847839355,
            0.21551275253295898,
            0.2324247807264328,
            0.06901762634515762,
            0.08317378908395767,
            0.21720480918884277,
            -0.4598082900047302,
            0.9371576905250549,
            0.14154425263404846,
            -0.06860855966806412,
            -0.021719368174672127,
            -0.039866793900728226,
            0.27632004022598267,
            -0.19485583901405334,
            0.0199098140001297,
            -0.05132018029689789,
            -0.2060474157333374,
            -0.06616099178791046,
            0.08499413728713989,
            -0.0809018686413765,
            -0.14724911749362946,
            -0.0317707285284996,
            -0.03234610706567764,
            -0.08368095010519028,
            -0.1318807452917099,
            0.023581065237522125,
            0.08723535388708115,
            -0.06843804568052292,
            0.0016348937060683966,
            -0.0800175815820694,
            -0.23482964932918549,
            0.1003522202372551,
            0.03874274715781212,
            -0.09631131589412689,
            -0.025798875838518143,
            -0.10894054919481277,
            -0.0218434389680624,
            -0.012992220930755138,
            -0.149908646941185,
            0.07273556292057037,
            -0.1559901088476181,
            -0.15667828917503357,
            -0.027865281328558922,
            -0.2707570791244507,
            -0.28899553418159485,
            -0.10109543800354004,
            0.09794273972511292,
            0.3657792806625366,
            0.11702772229909897,
            0.04517313465476036,
            -0.1806488037109375,
            0.01617383025586605,
            0.0965140238404274,
            0.13713134825229645,
            0.10676213353872299,
            0.08539150655269623,
            -0.00769024109467864,
            -0.232941672205925,
            0.09652363508939743,
            -0.1279631108045578,
            0.11565684527158737,
            -0.07578043639659882,
            -0.005998183973133564,
            0.1799415647983551,
            0.07123515009880066,
            0.16005049645900726,
            0.1351691633462906,
            0.0722426101565361,
            -0.06878998875617981,
            0.0091401357203722,
            -0.017406979575753212,
            0.5601466298103333,
            0.013298802077770233,
            -0.009148974902927876,
            0.0430435985326767,
            -0.04313426464796066,
            0.1431090086698532,
            0.05730488523840904,
            0.04460682347416878,
            0.19828252494335175,
            -0.3144257962703705,
            -0.2898823022842407,
            -0.07864310592412949,
            0.043874070048332214,
            -0.2382572740316391,
            0.0581558421254158,
            -0.10801345854997635,
            -0.11738163232803345,
            -0.19822318851947784,
            -0.07929246127605438,
            0.20947404205799103,
            -0.09302052110433578,
            -0.3946349024772644,
            0.138851597905159,
            -0.3018621802330017,
            -0.1167810708284378,
            0.13617946207523346,
            0.04501383379101753,
            0.2744998037815094,
            0.08919428288936615,
            -0.13148300349712372,
            -0.2755155563354492,
            -0.30953043699264526,
            0.2918552756309509,
            -0.37448665499687195,
            0.023203169927001,
            0.22452174127101898,
            -0.4350886642932892,
            -0.32582274079322815,
            -0.023051859810948372,
            0.04682369530200958,
            0.651430070400238,
            0.22263279557228088,
            0.22827620804309845,
            -0.3708912134170532,
            0.26314079761505127,
            0.27608931064605713,
            0.19540877640247345,
            0.12662772834300995,
            0.10821624845266342,
            0.14884920418262482,
            -0.2640285789966583,
            0.17645639181137085,
            -0.2327246367931366,
            0.430077463388443,
            0.16606470942497253,
            0.049081530421972275,
            0.05238630995154381,
            0.07225082069635391,
            0.024793755263090134,
            0.06966394931077957,
            -0.07761137187480927,
            -0.04845285788178444,
            0.1917903572320938,
            -0.1260634958744049,
            0.7484034299850464,
            0.096660315990448,
            0.0027876750100404024,
            0.2002882957458496,
            0.2845189869403839,
            0.341472327709198,
            0.07208238542079926,
            0.23914633691310883,
            -0.003062834031879902,
            0.039739057421684265,
            -0.16818255186080933,
            0.20322082936763763,
            -0.1997700035572052,
            -0.16494467854499817,
            -0.035920318216085434,
            -0.21240709722042084,
            0.26525336503982544,
            -0.04131271690130234,
            -0.10458728671073914,
            0.21132856607437134,
            0.19008810818195343,
            0.09139467775821686,
            -0.1355752795934677,
            0.11944443732500076,
            0.009288559667766094,
            -0.06998950988054276,
            0.10056903213262558,
            0.11385499686002731,
            0.028530636802315712,
            0.14598608016967773,
            -0.05331689864397049,
            -0.1731172651052475,
            -0.030626090243458748,
            0.02613173797726631,
            -0.1627485454082489,
            -0.012823022902011871,
            -0.11970254778862,
            -0.13649515807628632,
            0.00958542712032795,
            0.030382078140974045,
            -0.15475985407829285,
            0.1270536482334137,
            -0.011243809014558792,
            0.13139553368091583,
            -0.07747514545917511,
            -0.002516795415431261,
            -0.08105473220348358,
            0.020465785637497902,
            0.08698708564043045,
            0.11160743236541748,
            0.17223608493804932,
            0.06592565029859543,
            -0.03171471878886223,
            0.04012656211853027,
            0.13185229897499084,
            0.07294797897338867,
            0.05137355253100395,
            0.08138595521450043,
            0.14390629529953003,
            -0.026527782902121544,
            0.0035428572446107864,
            -0.005301518365740776,
            0.09755493700504303,
            -0.06970427185297012,
            -0.021226458251476288,
            0.10748819261789322,
            -0.04095872491598129,
            0.07014019787311554,
            0.15003204345703125,
            -0.06659957021474838,
            -0.13482029736042023,
            0.17877286672592163,
            -0.07664667069911957,
            0.12895996868610382,
            0.10864166170358658,
            0.11576826870441437,
            0.13854984939098358,
            -0.03579939529299736,
            -0.10138467699289322,
            0.16481797397136688,
            0.1361265480518341,
            0.012505926191806793,
            -0.025709515437483788,
            -0.029808221384882927,
            0.08824948966503143,
            0.19058844447135925,
            -0.15711431205272675,
            0.01188135240226984,
            0.07786934822797775,
            -0.005432178266346455,
            0.044194545596838,
            -0.024121273308992386,
            0.02958367019891739,
            0.23337991535663605,
            0.09849613159894943,
            -0.04312504455447197,
            -0.0053920079953968525,
            0.12553943693637848,
            -0.01370267104357481,
            -0.032461147755384445,
            0.09424462169408798,
            -0.06401475518941879,
            0.10266663879156113,
            -0.08051740378141403,
            -0.23532544076442719,
            -0.10307779908180237,
            -0.11227519065141678,
            0.06748074293136597,
            -0.1259555071592331,
            0.01267449650913477,
            0.07116173952817917,
            -0.12832891941070557,
            0.023090504109859467,
            -0.03174104169011116,
            0.17456519603729248,
            -0.14123713970184326,
            0.15053509175777435,
            -0.18306095898151398,
            -0.03472300246357918,
            0.04620110243558884,
            0.059366799890995026,
            -0.16247697174549103,
            -0.09227873384952545,
            0.008109075017273426,
            0.0666998103260994,
            -0.10997563600540161,
            -0.02078024484217167,
            -0.09800026565790176,
            -0.31380465626716614,
            -0.14442352950572968,
            0.02445029467344284,
            -0.007891855202615261,
            -0.0994345098733902,
            -0.06743428111076355,
            0.0153025658801198,
            -0.6185582280158997,
            0.11105848848819733,
            -0.09321465343236923,
            -0.40251877903938293,
            0.07953688502311707,
            0.041798125952482224,
            -0.016567468643188477,
            -0.09003868699073792,
            -0.2868284583091736,
            -0.38066592812538147,
            -0.4066886007785797,
            0.15312083065509796,
            0.011601659469306469,
            -0.6429266929626465,
            -0.505930483341217,
            0.21499019861221313,
            -0.6779590845108032,
            -0.05332263559103012,
            0.12449315935373306,
            -0.1635379195213318,
            0.23816193640232086,
            -0.12215970456600189,
            -0.39487773180007935,
            0.06588377803564072,
            -0.1477183997631073,
            0.08724051713943481,
            -0.07620032131671906,
            -0.16766847670078278,
            0.008836030028760433,
            -0.18631064891815186,
            -0.5359012484550476,
            -0.5831981897354126,
            0.18011321127414703,
            1.5937734842300415,
            0.08183998614549637,
            -0.08350895345211029,
            -0.3434484302997589,
            -0.06776756048202515,
            0.11041539907455444,
            0.18859271705150604,
            0.0916571319103241,
            0.06302087754011154,
            0.05998310074210167,
            -0.45617568492889404,
            0.030227039009332657,
            -0.4943241477012634,
            -0.17077890038490295,
            0.21016104519367218,
            -0.14265727996826172,
            0.15731988847255707,
            -0.16965988278388977,
            0.19236469268798828,
            0.1941683292388916,
            -0.03147168084979057,
            -0.1463569700717926,
            0.23959974944591522,
            -0.13289092481136322,
            1.6053946018218994,
            -0.10388094186782837,
            0.005369744263589382,
            -0.12432412058115005,
            -0.08719208091497421,
            0.0597115233540535,
            -0.017340771853923798,
            0.07727104425430298,
            -0.09393094480037689,
            -0.06125799939036369,
            0.11073140799999237,
            0.08414539694786072,
            -0.1691526621580124,
            -0.23511938750743866,
            -0.002000454580411315,
            0.09219283610582352,
            -0.026391535997390747,
            -0.08896981924772263,
            0.10962308198213577,
            0.2702687382698059,
            0.0029125839937478304,
            -0.08761302381753922,
            -0.030556444078683853,
            0.13056306540966034,
            -0.14172573387622833,
            0.07131583988666534,
            0.2581237256526947,
            0.08282432705163956,
            0.2426675260066986,
            0.019493218511343002,
            -0.19678713381290436,
            -0.07696639746427536,
            0.0607953816652298,
            -0.2644597291946411,
            0.3221021294593811,
            0.3730222284793854,
            -0.020970050245523453,
            -0.06513550132513046,
            0.07489895820617676,
            0.15573464334011078,
            -0.025332801043987274,
            0.020126406103372574,
            0.22516241669654846,
            0.06858769804239273,
            0.1710701882839203,
            0.1078495979309082,
            0.05082652345299721,
            -0.04726354032754898,
            0.11297653615474701,
            0.13448689877986908,
            0.17169101536273956,
            0.11747071146965027,
            0.1514446884393692,
            0.1922154426574707,
            -0.12841835618019104,
            0.07064129412174225,
            0.07047446072101593,
            0.1448214054107666,
            0.10233322530984879,
            -0.058242350816726685,
            0.20211161673069,
            -0.021723449230194092,
            0.11251229792833328,
            -0.08246992528438568,
            -0.08036200702190399,
            -0.07788670063018799,
            -0.09611046314239502,
            0.08583638817071915,
            0.21618923544883728,
            0.19691719114780426,
            -0.1751190423965454,
            0.07954413443803787,
            -0.1358184665441513,
            0.42706406116485596,
            0.27463796734809875,
            -0.11542925238609314,
            0.027616126462817192,
            0.406425416469574,
            -0.0648994967341423,
            0.21805855631828308,
            0.08556320518255234,
            0.2452419102191925,
            -0.09001043438911438,
            -0.1588253527879715,
            0.137121319770813,
            0.3952380418777466,
            -0.26108023524284363,
            0.3193894624710083,
            0.2415318638086319,
            -0.02697819098830223,
            -0.14012396335601807,
            -0.26546743512153625,
            -0.1389521360397339,
            0.005321952980011702,
            0.2844170033931732,
            0.22755038738250732,
            -0.023067783564329147,
            0.5672451257705688,
            0.04814350605010986,
            -0.18875187635421753,
            0.45049166679382324,
            0.34390226006507874,
            0.07982362061738968,
            -0.17364540696144104,
            -0.8443741798400879,
            -0.22325658798217773,
            -0.24370436370372772,
            0.24518287181854248,
            0.015491718426346779,
            -0.3076319694519043,
            -0.07331439107656479,
            0.08626320213079453,
            -0.1909584254026413,
            -0.35640662908554077,
            0.11943479627370834,
            -0.2337087094783783,
            0.1955176591873169,
            -0.24246351420879364,
            -0.11216089129447937,
            -0.06788792461156845,
            -0.2500782907009125,
            -0.14250779151916504,
            -0.20454253256320953,
            -0.2108602225780487,
            -0.18430399894714355,
            0.0008759637712500989,
            -0.21629448235034943,
            0.4828190803527832,
            -0.8924962282180786,
            -0.1390988826751709,
            0.2513262629508972,
            0.02691511996090412,
            -0.06200886890292168,
            -0.2582867741584778,
            0.31886613368988037,
            -0.4189790189266205,
            0.2906928062438965,
            -0.5170220136642456,
            -0.47990185022354126,
            0.15437637269496918,
            0.051640842109918594,
            -0.2790961265563965,
            0.08412473648786545,
            -0.453823059797287,
            -0.2668079435825348,
            -0.501359760761261,
            0.21072793006896973,
            0.0668536126613617,
            -0.43320590257644653,
            -0.5295883417129517,
            0.12026858329772949,
            -0.6108406782150269,
            -0.17081521451473236,
            -0.06933072954416275,
            -0.14594411849975586,
            0.16349555552005768,
            -0.08556506037712097,
            0.1439516842365265,
            -0.03795493766665459,
            -0.4954144060611725,
            -0.02622055448591709,
            -0.5263462066650391,
            -0.044317081570625305,
            0.12926732003688812,
            -0.4869140088558197,
            -0.46747004985809326,
            -0.4470230042934418,
            0.1279185563325882,
            1.3643752336502075,
            0.19418977200984955,
            0.22966887056827545,
            -0.3710636496543884,
            0.20318351686000824,
            0.21457143127918243,
            0.10192325711250305,
            0.28699591755867004,
            -0.02316286228597164,
            0.1587735265493393,
            -0.25464928150177,
            0.2361653447151184,
            -0.4086938798427582,
            0.1385665386915207,
            0.09908247739076614,
            -0.10467144846916199,
            0.23672392964363098,
            -0.05725304037332535,
            0.23269206285476685,
            0.10090886801481247,
            -0.09576895833015442,
            -0.0011282018385827541,
            0.11659715324640274,
            -0.2152169644832611,
            1.7767096757888794,
            0.1846431940793991,
            0.04611651599407196,
            0.06001494452357292,
            0.07053323835134506,
            0.28852322697639465,
            0.14250454306602478,
            0.3661291301250458,
            -0.014647525735199451,
            0.04652853310108185,
            0.3651595115661621,
            0.12834833562374115,
            0.04276462644338608,
            0.07152606546878815,
            -0.04973525181412697,
            0.23539325594902039,
            0.28091010451316833,
            0.10801099985837936,
            -0.036084674298763275,
            -0.02263273298740387,
            0.24842283129692078,
            0.14756429195404053,
            -0.12688994407653809,
            0.3223155438899994,
            0.06645797193050385,
            0.043532367795705795,
            -0.038632411509752274,
            -0.006510360632091761,
            0.01572185382246971,
            0.37080106139183044,
            0.04875599965453148,
            0.010203416459262371,
            -0.06352977454662323,
            0.174000084400177,
            -0.021336697041988373,
            -0.056296151131391525,
            0.2931310832500458,
            0.21213233470916748,
            0.2662063539028168,
            0.029848739504814148,
            -0.6695390939712524,
            0.040864165872335434,
            -0.1036405861377716,
            0.1179109513759613,
            -0.038940154016017914,
            -0.03464068844914436,
            -0.008181081153452396,
            -0.0607219859957695,
            0.02357650361955166,
            -0.09143158793449402,
            0.28627124428749084,
            -0.23889999091625214,
            0.0703580379486084,
            0.09702672064304352,
            0.0039937156252563,
            0.1092490553855896,
            -0.10727345198392868,
            -0.04619073495268822,
            -0.14396943151950836,
            -0.0316859595477581,
            0.1110796257853508,
            0.11655481159687042,
            -0.24011780321598053,
            0.14511951804161072,
            -0.9719316959381104,
            0.048320744186639786,
            0.010798662900924683,
            -0.10655664652585983,
            0.01906629465520382,
            -0.19398169219493866,
            0.026484835892915726,
            -0.4353555738925934,
            -0.05832962691783905,
            -0.08776555955410004,
            -0.10970380157232285,
            -0.22463908791542053,
            -0.03499965742230415,
            -0.0341913066804409,
            0.008547295816242695,
            0.033164892345666885,
            0.025574127212166786,
            -0.25909656286239624,
            -0.004406181164085865,
            -0.23355568945407867,
            -0.35522791743278503,
            -0.05349290743470192,
            0.17661640048027039,
            -0.2673182189464569,
            -0.11235397309064865,
            -0.14906136691570282,
            -0.23809479176998138,
            -0.07643549144268036,
            -0.044306449592113495,
            -0.2888525426387787,
            0.06259214133024216,
            -0.008115666918456554,
            -0.059309687465429306,
            0.2659701108932495,
            -0.3225002884864807,
            -0.19764986634254456,
            -0.015586351044476032,
            -0.08565918356180191,
            -0.34698784351348877,
            0.04385139048099518,
            1.0533026456832886,
            -0.027905713766813278,
            -0.3485085964202881,
            -0.2561005651950836,
            -0.05679245665669441,
            -0.10275796055793762,
            -0.061005834490060806,
            -0.016907913610339165,
            -0.10023447871208191,
            -0.007849284447729588,
            -0.31719064712524414,
            0.11624540388584137,
            -0.43019959330558777,
            -0.03568852320313454,
            0.1333877593278885,
            0.059957992285490036,
            0.05492555722594261,
            -0.23806388676166534,
            0.0378548800945282,
            -0.004919986706227064,
            -0.1500001847743988,
            -0.14246466755867004,
            -0.12616179883480072,
            -0.30390027165412903,
            0.7952657341957092,
            0.04392416030168533,
            0.06194283068180084,
            0.012280594557523727,
            -0.2605765759944916,
            0.014242894016206264,
            0.2016662210226059,
            0.04678497835993767,
            -0.06169264391064644,
            0.05681782215833664,
            0.2302880883216858,
            0.1774471551179886,
            0.030591001734137535,
            -0.15647003054618835,
            -0.04244950786232948,
            0.4062841534614563,
            -0.06771364063024521,
            0.09000956267118454,
            0.05743972212076187,
            -0.03232114017009735,
            -0.04175536707043648,
            -0.02484479546546936,
            -0.07589217275381088,
            0.30536994338035583,
            -0.16143164038658142,
            0.15330900251865387,
            0.03175386041402817,
            0.02500181645154953,
            0.027668893337249756,
            0.08437404781579971,
            -0.08405239135026932,
            0.06887552887201309,
            -0.029241446405649185,
            0.09328772127628326,
            0.24192149937152863,
            0.05354059860110283,
            -0.017400935292243958,
            0.1549627035856247,
            0.15448199212551117,
            0.1628844141960144,
            -0.3117636442184448,
            -0.1156761571764946,
            0.11320748180150986,
            0.0346195288002491,
            -0.02237377129495144,
            0.04780189320445061,
            0.12100398540496826,
            0.029230894520878792,
            0.159934401512146,
            0.07024071365594864,
            -0.07325366884469986,
            0.060106273740530014,
            -0.0888846218585968,
            0.05555145815014839,
            0.04445340484380722,
            0.0055740694515407085,
            -0.1467856764793396,
            0.022962411865592003,
            0.09977816045284271,
            -0.1276741623878479,
            0.06308893114328384,
            0.07483693957328796,
            0.08299428969621658,
            0.07893256098031998,
            -0.343043714761734,
            0.06825418770313263,
            -0.1096436083316803,
            -0.12371271103620529,
            0.11312838643789291,
            -0.01650873012840748,
            -0.13479924201965332,
            0.23516489565372467,
            0.020564062520861626,
            0.06750914454460144,
            0.05045654624700546,
            -0.05302510783076286,
            0.10963888466358185,
            -0.20733226835727692,
            -0.019380299374461174,
            0.25329822301864624,
            0.08640182018280029,
            -0.08196038007736206,
            -0.10379575192928314,
            -0.023268423974514008,
            0.21773424744606018,
            0.09935827553272247,
            0.03061635047197342,
            0.1901528537273407,
            -0.005215401761233807,
            -0.04677281528711319,
            -0.03791748732328415,
            -0.03283972665667534,
            -0.19988441467285156,
            0.373918354511261,
            0.005616740323603153,
            -0.030501719564199448,
            0.04357117787003517,
            0.15339772403240204,
            -0.0912194699048996,
            -0.12248383462429047,
            0.17854826152324677,
            -0.01428650226444006,
            0.05858609080314636,
            0.03405578061938286,
            -0.10236886888742447,
            -0.012200433760881424,
            -0.054593004286289215,
            0.09097476303577423,
            0.027267886325716972,
            -0.035637252032756805,
            -0.07284235954284668,
            -0.02327411063015461,
            0.011911033652722836,
            -0.19511504471302032,
            0.26215633749961853,
            -0.1727275252342224,
            -0.05155819654464722,
            -0.1395871788263321,
            -0.08282611519098282,
            0.014832042157649994,
            -0.20253893733024597,
            -0.02183428592979908,
            0.07983433455228806,
            -0.018350010737776756,
            0.013910080306231976,
            -0.029210925102233887,
            -0.010888463817536831,
            -0.21262821555137634,
            -0.40556982159614563,
            -0.005040901247411966,
            0.05623161420226097,
            -0.021728355437517166,
            -0.0493963249027729,
            -0.04697554185986519,
            0.05619869381189346,
            0.14017026126384735,
            -0.22451622784137726,
            0.12883365154266357,
            0.25628232955932617,
            -0.0264991894364357,
            -0.01593499816954136,
            0.11550204455852509,
            0.02137458138167858,
            0.10260836035013199,
            0.11061757802963257,
            0.23391765356063843,
            -0.23632556200027466,
            -0.14819219708442688,
            0.1003117635846138,
            0.37517696619033813,
            -0.18783879280090332,
            0.27451568841934204,
            0.21510916948318481,
            -0.0639658123254776,
            -0.12762956321239471,
            -0.35667312145233154,
            -0.06127209588885307,
            0.058363787829875946,
            0.1198812946677208,
            0.3508835732936859,
            0.016199033707380295,
            0.5192192196846008,
            -0.20252439379692078,
            -0.20865748822689056,
            0.458999902009964,
            0.1999972015619278,
            0.21509243547916412,
            -0.14878733456134796,
            -0.6276028156280518,
            -0.18950840830802917,
            -0.12619905173778534,
            0.2693844735622406,
            0.032817307859659195,
            -0.3283613920211792,
            -0.042869288474321365,
            -0.08948700875043869,
            -0.12116850912570953,
            -0.2813757658004761,
            0.23952007293701172,
            -0.20907023549079895,
            0.34268805384635925,
            -0.11823514848947525,
            -0.04037037864327431,
            0.13399747014045715,
            -0.1451195925474167,
            -0.22509290277957916,
            -0.09882856160402298,
            -0.14445844292640686,
            -0.1358640491962433,
            -0.015201759524643421,
            -0.21747808158397675,
            0.036380816251039505,
            -0.7447372674942017,
            -0.12055712938308716,
            0.08819858729839325,
            -0.10873463749885559,
            -0.16867250204086304,
            -0.19323019683361053,
            -0.18093588948249817,
            -0.14151981472969055,
            -0.13298383355140686,
            -0.023781191557645798,
            0.2114579826593399,
            -0.14627520740032196,
            -0.008657938800752163,
            0.10282107442617416,
            0.08309952914714813,
            0.06161035597324371,
            0.11977597326040268,
            0.05577507242560387,
            -0.008960243314504623,
            -0.08549156785011292,
            0.030591582879424095,
            0.181333988904953,
            -0.13702203333377838,
            0.17091792821884155,
            -0.022811798378825188,
            0.010976605117321014,
            -0.15202634036540985,
            -0.17408135533332825,
            -0.04979516193270683,
            0.13326972723007202,
            0.04418928921222687,
            0.0690043568611145,
            -0.007045276463031769,
            0.3076387345790863,
            -0.12357548624277115,
            0.04365507513284683,
            0.16837123036384583,
            0.028622709214687347,
            -0.10723880678415298,
            -0.16845589876174927,
            -0.1351676732301712,
            -0.05574094131588936,
            -0.20024217665195465,
            0.18883053958415985,
            -0.014860720373690128,
            -0.2147909700870514,
            0.10434789210557938,
            -0.15778227150440216,
            -0.025162847712635994,
            0.0894509106874466,
            -0.002119951881468296,
            -0.19548052549362183,
            0.013002350926399231,
            -0.3132554292678833,
            0.04164625704288483,
            -0.021727703511714935,
            -0.10746560245752335,
            -0.17201516032218933,
            0.05600301921367645,
            -0.20888850092887878,
            -0.10439746081829071,
            0.086998350918293,
            -0.05050348490476608,
            -0.09779462963342667,
            -0.008994822390377522,
            -0.1812002956867218,
            0.15903544425964355,
            -0.03567324951291084,
            -0.1544056087732315,
            -0.22569867968559265,
            0.1241956278681755,
            0.15950684249401093,
            0.1473485380411148,
            -0.06650543957948685,
            0.057927459478378296,
            0.13934899866580963,
            0.0991082563996315,
            -0.12606599926948547,
            0.030216103419661522,
            0.12472253292798996,
            0.182139053940773,
            0.010008423589169979,
            -0.04442500323057175,
            0.11209190636873245,
            0.2386929988861084,
            -0.18902046978473663,
            -0.06334643065929413,
            -0.01347412634640932,
            -0.09211790561676025,
            0.062494996935129166,
            -0.004744917619973421,
            -0.15036289393901825,
            0.011186196468770504,
            0.03656650707125664,
            -0.16857831180095673,
            -0.09134835749864578,
            -0.03420952707529068,
            -0.002606550697237253,
            -0.015030063688755035,
            0.14574159681797028,
            -0.06386857479810715,
            0.02066497504711151,
            0.17622528970241547,
            -0.0526757538318634,
            -0.15866678953170776,
            0.10390986502170563,
            0.136121466755867,
            0.013314533978700638,
            -0.06019149720668793,
            0.04843076691031456,
            0.029278060421347618,
            -0.06134195625782013,
            0.1044069156050682,
            -0.015070144087076187,
            0.053608156740665436,
            -0.03809452801942825,
            0.11020150780677795,
            0.15157856047153473,
            -0.07843591272830963,
            -0.0006489554652944207,
            0.051087602972984314,
            -0.01010771095752716,
            0.2241896390914917,
            -0.005688286852091551,
            0.05993204191327095,
            0.10860121995210648,
            0.06639379262924194,
            -0.23884141445159912,
            -0.07614383101463318,
            -0.06449846923351288,
            0.05920156463980675,
            0.029373764991760254,
            -0.08829452097415924,
            -0.08285144716501236,
            -0.017494192346930504,
            -0.08384916931390762,
            0.11730440706014633,
            -0.3728554844856262,
            -0.022605717182159424,
            0.13712093234062195,
            -0.048947274684906006,
            -0.2367241382598877,
            0.10613314807415009,
            -0.17773641645908356,
            0.004039399325847626,
            -0.21624484658241272,
            0.10573607683181763,
            0.16771529614925385,
            -0.23779727518558502,
            -0.22002919018268585,
            0.07497519254684448,
            -0.30870380997657776,
            -0.22332343459129333,
            0.05738334357738495,
            0.252169668674469,
            0.21376121044158936,
            0.22286784648895264,
            -0.04874565079808235,
            -0.193997323513031,
            -0.11211304366588593,
            0.01571466401219368,
            -0.23148496448993683,
            0.03474251925945282,
            0.15264932811260223,
            -0.5060105919837952,
            -0.24845124781131744,
            -0.25683340430259705,
            0.1525610238313675,
            0.7046682834625244,
            0.15822114050388336,
            0.051792290061712265,
            -0.19486768543720245,
            0.21281300485134125,
            0.19847486913204193,
            0.09367372840642929,
            0.14736497402191162,
            0.10388655960559845,
            0.07011877000331879,
            0.017829781398177147,
            0.1683034896850586,
            -0.24062201380729675,
            0.2770676910877228,
            0.05413222312927246,
            0.15409721434116364,
            0.04369734600186348,
            0.12269733846187592,
            0.2827959358692169,
            -0.024721987545490265,
            0.06576351076364517,
            0.024894101545214653,
            0.26057109236717224,
            -0.35489407181739807,
            0.7564714550971985,
            0.21822591125965118,
            -0.04149486869573593,
            0.11255691200494766,
            0.031693290919065475,
            0.2860281765460968,
            -0.03125321492552757,
            -0.13116733729839325,
            -0.1185513436794281,
            0.044453926384449005,
            0.10595276206731796,
            -0.11800801753997803,
            -0.06051159277558327,
            0.040481340140104294,
            0.07108261436223984,
            0.047310225665569305,
            0.05988270416855812,
            -0.09382797032594681,
            -0.1398100107908249,
            0.038426656275987625,
            0.010938315652310848,
            -0.016423527151346207,
            -0.034151770174503326,
            0.12404155731201172,
            0.19563443958759308,
            -0.06955880671739578,
            -0.08214510977268219,
            0.10302767902612686,
            0.022093387320637703,
            -0.05793791264295578,
            0.07025182247161865,
            0.04967760294675827,
            0.06982195377349854,
            0.028060689568519592,
            0.014684246852993965,
            -0.025956887751817703,
            0.04663712531328201,
            -0.07773438841104507,
            -0.1323467344045639,
            0.022994056344032288,
            0.018934259191155434,
            -0.08787921071052551,
            0.10936436802148819,
            0.09701398015022278,
            -0.050969865173101425,
            0.06195450946688652,
            -0.05502285808324814,
            -0.00916478130966425,
            -0.009807644411921501,
            0.05751289054751396,
            0.08474352955818176,
            0.06625764816999435,
            0.047090038657188416,
            0.038747478276491165,
            0.05223510041832924,
            -0.03300398588180542,
            0.0030106869526207447,
            -0.0951901376247406,
            0.016215898096561432,
            -0.03956006094813347,
            -0.08820595592260361,
            -0.020013535395264626,
            -0.11845459789037704,
            0.05219463258981705,
            -0.11836188286542892,
            -0.056086547672748566,
            -0.013403368182480335,
            -0.002405421808362007,
            0.09204549342393875,
            -0.10534606873989105,
            0.09335211664438248,
            -0.14455164968967438,
            0.05133286863565445,
            -0.15728621184825897,
            -0.23233486711978912,
            -0.07851260155439377,
            -0.025746768340468407,
            -0.23002244532108307,
            0.03355354070663452,
            -0.21915610134601593,
            -0.05152323842048645,
            -0.24292871356010437,
            -0.058765310794115067,
            -0.010076607577502728,
            -0.13148730993270874,
            -0.1774696409702301,
            0.1290099173784256,
            -0.2931307554244995,
            0.07276315242052078,
            -0.030203932896256447,
            -0.04174814745783806,
            0.1278305947780609,
            0.11461103707551956,
            0.20606514811515808,
            -0.08197838068008423,
            -0.1255859136581421,
            0.14553022384643555,
            -0.3413267135620117,
            -0.16218158602714539,
            0.17380188405513763,
            -0.2026195228099823,
            -0.2918945550918579,
            -0.08573505282402039,
            0.12001484632492065,
            0.3527640998363495,
            0.15530945360660553,
            0.016154389828443527,
            -0.1362123340368271,
            0.10309979319572449,
            0.07726172357797623,
            0.23026248812675476,
            0.14831140637397766,
            0.18033289909362793,
            0.0005897462833672762,
            -0.06679333001375198,
            0.10160312801599503,
            0.005481167230755091,
            0.14151161909103394,
            0.004722879268229008,
            -0.11831960827112198,
            0.22005067765712738,
            -0.027488943189382553,
            0.17464300990104675,
            0.09237150847911835,
            -0.10311640053987503,
            -0.07533325254917145,
            0.10137227177619934,
            -0.20442095398902893,
            0.712616503238678,
            0.12846118211746216,
            0.01936046965420246,
            -0.07770475745201111,
            0.07805764675140381,
            0.23619262874126434,
            -0.0808834582567215,
            -0.6118836402893066,
            0.07894428819417953,
            -0.20040522515773773,
            -0.22965826094150543,
            -0.0036236413288861513,
            0.05214960128068924,
            -0.14298215508460999,
            -0.010731051675975323,
            -0.21295806765556335,
            -0.2905031442642212,
            -0.31155386567115784,
            0.0450708270072937,
            0.008364505134522915,
            -0.37055283784866333,
            -0.02320508472621441,
            0.05647958815097809,
            -0.2136194258928299,
            -0.20172010362148285,
            0.1287279576063156,
            -0.1585431843996048,
            0.08937717229127884,
            -0.02398369461297989,
            -0.4361650347709656,
            -0.010548836551606655,
            -0.1104198545217514,
            0.07958371192216873,
            -0.0929747000336647,
            -0.04217422753572464,
            -0.03895515203475952,
            -0.0019056338351219893,
            -0.23060420155525208,
            -0.4896005094051361,
            0.2874167263507843,
            0.9910426735877991,
            -0.030343394726514816,
            -0.04983217641711235,
            -0.04647909849882126,
            -0.2036072164773941,
            -0.014287831261754036,
            0.038015346974134445,
            0.09136912226676941,
            0.003232142422348261,
            0.08306926488876343,
            -0.5856397151947021,
            -0.010883543640375137,
            0.006459055468440056,
            -0.08953330665826797,
            -0.012343822978436947,
            0.0759226456284523,
            0.18325036764144897,
            -0.10161425173282623,
            -0.13082146644592285,
            0.08322855830192566,
            -0.1243891641497612,
            -0.24810469150543213,
            -0.0006582278292626143,
            0.053458377718925476,
            1.146236538887024,
            0.08192680031061172,
            -0.009365200996398926,
            -0.01304881926625967,
            -0.05540980026125908,
            0.03853302448987961,
            -0.15523399412631989,
            0.448823481798172,
            -0.011314270086586475,
            -0.07050652801990509,
            -0.11654393374919891,
            0.032562125474214554,
            -0.19593209028244019,
            -0.0918319821357727,
            0.11208728700876236,
            -0.054384153336286545,
            0.14920270442962646,
            -0.008699333295226097,
            0.06506120413541794,
            0.22902800142765045,
            0.0877896398305893,
            -0.12571823596954346,
            -0.02813049592077732,
            0.03664654865860939,
            -0.2612244188785553,
            0.03259321302175522,
            0.044953394681215286,
            -0.029941251501441002,
            0.17015181481838226,
            0.30214959383010864,
            -0.008293946273624897,
            -0.14606750011444092,
            0.047211144119501114,
            -0.2513323724269867,
            -0.07961440831422806,
            0.06351727247238159,
            -0.23537194728851318,
            -0.1948600709438324,
            0.04588724300265312,
            0.002699973527342081,
            -0.2870273292064667,
            0.130981907248497,
            0.04011448100209236,
            -0.12491151690483093,
            0.1332942694425583,
            0.18103790283203125,
            -0.09047810733318329,
            0.15266203880310059,
            0.012002040632069111,
            0.16023434698581696,
            0.25402235984802246,
            0.16555394232273102,
            -0.06389285624027252,
            -0.008991404436528683,
            0.1569332629442215,
            0.12542270123958588,
            0.16690728068351746,
            0.09859442710876465,
            0.35767191648483276,
            0.1814509630203247,
            -0.014177816919982433,
            0.01870807260274887,
            0.03126762807369232,
            -0.14125464856624603,
            0.08261885493993759,
            0.09805727750062943,
            0.011338473297655582,
            0.0485585480928421,
            0.22303138673305511,
            0.11628025025129318,
            0.03396470472216606,
            0.132438063621521,
            0.17076799273490906,
            -0.1969418227672577,
            -0.15679419040679932,
            -0.11430177092552185,
            -0.04064701497554779,
            -0.20821823179721832,
            -0.13883084058761597,
            -0.12532734870910645,
            -0.07911756634712219,
            -0.23935551941394806,
            0.0529886893928051,
            0.11194544285535812,
            -0.14025725424289703,
            -0.2737635374069214,
            0.06462924182415009,
            -0.1350625902414322,
            -0.10591732710599899,
            0.006553622428327799,
            0.042781610041856766,
            0.19867080450057983,
            0.11282292008399963,
            0.115021251142025,
            -0.026836669072508812,
            -0.19422121345996857,
            0.20248083770275116,
            -0.19180871546268463,
            0.0025859596207737923,
            0.0815948024392128,
            -0.2056015133857727,
            -0.1469271183013916,
            -0.14687466621398926,
            0.004792286083102226,
            0.4273812174797058,
            0.0086358105763793,
            0.1155254989862442,
            -0.03344159573316574,
            -0.03751517832279205,
            0.24114304780960083,
            -0.030168823897838593,
            0.1071200743317604,
            0.15152180194854736,
            -0.025961240753531456,
            0.07183749973773956,
            -0.028720280155539513,
            -0.1775456666946411,
            0.35792115330696106,
            0.06894826889038086,
            -0.2740570604801178,
            -0.049564022570848465,
            0.1897677183151245,
            0.21605217456817627,
            0.053458601236343384,
            -0.016044680029153824,
            -0.09952767938375473,
            0.1016925573348999,
            -0.21413569152355194,
            0.4299100935459137,
            0.025762390345335007,
            -0.22257450222969055,
            -0.07863393425941467,
            0.09703090041875839,
            0.15220598876476288,
            0.011201749555766582,
            0.1152484193444252,
            0.03555605188012123,
            0.06143562123179436,
            0.11839055269956589,
            -0.03434455022215843,
            0.06532032042741776,
            0.14568261802196503,
            0.07627835869789124,
            0.16093710064888,
            -0.1491839438676834,
            0.17516084015369415,
            -0.20731934905052185,
            0.04495600610971451,
            0.0687067061662674,
            0.22940170764923096,
            -9.478120773565024e-05,
            0.28906530141830444,
            0.21292239427566528,
            0.020607272163033485,
            0.03950444981455803,
            -0.21260251104831696,
            0.09630902111530304,
            0.029113851487636566,
            0.23046459257602692,
            0.005526680499315262,
            -0.08291583508253098,
            0.168788880109787,
            0.017794648185372353,
            -0.07606338709592819,
            0.24690881371498108,
            0.2660633623600006,
            0.1954478919506073,
            -0.03329094126820564,
            -0.4565279483795166,
            -0.21164952218532562,
            -0.12278266251087189,
            0.18587608635425568,
            -0.06730089336633682,
            -0.16297805309295654,
            0.10657882690429688,
            -0.12412428110837936,
            0.06771136820316315,
            -0.02704613097012043,
            0.1726999580860138,
            -0.21986494958400726,
            0.060715191066265106,
            -0.06610943377017975,
            -0.05533551424741745,
            0.004608002956956625,
            -0.09966998547315598,
            -0.09231248497962952,
            -0.08425381034612656,
            -0.05480829253792763,
            0.1251934915781021,
            0.1159752756357193,
            -0.07468950003385544,
            0.1426047384738922,
            -0.5888049602508545,
            -0.012471236288547516,
            0.1676696538925171,
            -0.06931859254837036,
            0.060460783541202545,
            -0.08859114348888397,
            -0.03445770591497421,
            0.021547313779592514,
            0.13447722792625427,
            0.019069509580731392,
            -0.017196644097566605,
            0.04930450767278671,
            -0.044581230729818344,
            -0.11918888241052628,
            -0.05634481459856033,
            0.06113100051879883,
            0.017793169245123863,
            0.06464958935976028,
            -0.1471918821334839,
            -0.03083590418100357,
            -0.07098224759101868,
            -0.04329126700758934,
            0.022604016587138176,
            -0.06837017089128494,
            -0.007130780722945929,
            -0.05110558122396469,
            -0.08503688871860504,
            -0.06594283878803253,
            0.1659763604402542,
            -0.0806545540690422,
            -0.05191762000322342,
            0.005087820813059807,
            -0.08134161680936813,
            0.029191548004746437,
            -0.09558980911970139,
            0.02335239388048649,
            0.007329677697271109,
