{
    "num_epochs": 40000,
    "batch_size": 1000,
    "final_g_loss": 11.085780143737793,
    "final_d_loss": 0.006346330977976322,
    "generator_learning_rate": 0.0002,
    "discriminator_learning_rate": 0.0005,
    "train_data_exp_dir_path": [
        "/app/data/bpw_configs/bpw_train_data/knee_speed_2.0",
        "/app/data/bpw_configs/bpw_train_data/knee_speed_4.0",
        "/app/data/bpw_configs/bpw_train_data/knee_speed_6.0"
    ],
    "generator": {
        "num_inputs": 2,
        "num_outputs": 100,
        "num_hidden_layers": 1,
        "neurons_per_hidden_layer": 64,
        "hidden_layer_activation_function": "relu",
        "final_layer_activation_function": null,
        "bias": true,
        "weights": [
            -0.7640324234962463,
            -0.5837523937225342,
            -0.5506505370140076,
            1.1255995035171509,
            0.9591048955917358,
            0.7015838623046875,
            -1.596369981765747,
            0.14553233981132507,
            -0.14613038301467896,
            0.6504406929016113,
            -0.6222781538963318,
            -0.12075048685073853,
            0.24077540636062622,
            1.216156005859375,
            1.028519868850708,
            1.8546022176742554,
            -0.931006133556366,
            0.5792696475982666,
            2.493616819381714,
            0.8243676424026489,
            -2.4286577701568604,
            0.6041048169136047,
            2.6358530521392822,
            0.6167078018188477,
            0.1729610711336136,
            0.1640835702419281,
            -0.8888413906097412,
            0.344829261302948,
            1.0009843111038208,
            -1.9150770902633667,
            1.2162433862686157,
            -0.5519381761550903,
            -2.198162317276001,
            -0.6932467818260193,
            -0.33190101385116577,
            -0.4697059094905853,
            -0.2661120593547821,
            0.7762230038642883,
            1.698986291885376,
            -2.0456042289733887,
            -1.345352292060852,
            2.159339666366577,
            1.7874691486358643,
            1.0940626859664917,
            -1.9625725746154785,
            -0.21379785239696503,
            -0.0072561041451990604,
            -0.21610453724861145,
            1.0727633237838745,
            1.7404727935791016,
            -0.13731451332569122,
            0.13830479979515076,
            -0.9631381630897522,
            1.5880082845687866,
            0.10296452790498734,
            0.30368074774742126,
            -1.2453125715255737,
            0.784123420715332,
            -0.4816340506076813,
            -1.8569086790084839,
            -0.40992411971092224,
            -0.22005507349967957,
            1.208242654800415,
            0.4940946400165558,
            -0.9298092722892761,
            0.3965848684310913,
            -1.1934109926223755,
            0.26109078526496887,
            -0.6740100383758545,
            0.7783833146095276,
            -0.9932311177253723,
            2.562110424041748,
            1.8976118564605713,
            1.3517770767211914,
            -0.4660884439945221,
            0.16768358647823334,
            -1.4448955059051514,
            1.0352712869644165,
            1.0526212453842163,
            1.2831059694290161,
            0.08634207397699356,
            1.566178560256958,
            -0.9250222444534302,
            0.7463327646255493,
            1.4358657598495483,
            1.7845098972320557,
            1.6608176231384277,
            0.9832977652549744,
            -1.116328239440918,
            0.7008951306343079,
            -1.6737443208694458,
            1.7043852806091309,
            -0.4367293119430542,
            0.511774480342865,
            -1.6320576667785645,
            -0.008953958749771118,
            -0.3120652735233307,
            -3.226827621459961,
            -1.1186785697937012,
            -1.686807632446289,
            -0.033399857580661774,
            -0.3036925494670868,
            -1.6993592977523804,
            -0.4077655076980591,
            -0.7958431243896484,
            0.360549658536911,
            0.7900910377502441,
            0.20568405091762543,
            -1.8534270524978638,
            -1.1729787588119507,
            -1.3398245573043823,
            1.646036982536316,
            0.9107733964920044,
            1.8725504875183105,
            -0.04530657082796097,
            -0.2957414388656616,
            1.6693522930145264,
            -3.3589069843292236,
            -0.2114904373884201,
            0.43134602904319763,
            -1.7277287244796753,
            -2.1778783798217773,
            -0.5205087661743164,
            1.1241872310638428,
            -1.2036569118499756,
            -0.08001687377691269,
            -0.03736838325858116,
            1.583558201789856,
            2.4400439262390137,
            2.633607864379883,
            0.8218562602996826,
            1.6535720825195312,
            2.9949846267700195,
            2.229861259460449,
            1.4815901517868042,
            0.7885991334915161,
            1.9697415828704834,
            1.1085522174835205,
            1.511694312095642,
            0.9879732728004456,
            2.2168407440185547,
            1.6121305227279663,
            2.2828028202056885,
            0.9370241761207581,
            1.5884251594543457,
            1.1622663736343384,
            1.8135851621627808,
            2.17802357673645,
            0.7743990421295166,
            2.4670848846435547,
            1.6720341444015503,
            2.033545732498169,
            1.3213380575180054,
            2.292490243911743,
            1.6339695453643799,
            2.0939459800720215,
            2.06089186668396,
            1.1017506122589111,
            1.8324334621429443,
            1.7466765642166138,
            1.8676490783691406,
            2.056046485900879,
            1.6334929466247559,
            1.0313752889633179,
            1.720428466796875,
            2.129940986633301,
            1.6683825254440308,
            1.36891770362854,
            1.7007702589035034,
            1.9298644065856934,
            2.1078357696533203,
            0.2942669987678528,
            1.1958506107330322,
            0.0832647755742073,
            1.7662880420684814,
            1.8613067865371704,
            2.330681562423706,
            1.5892482995986938,
            2.435710906982422,
            0.9902399182319641,
            2.1778461933135986,
            2.334113836288452,
            1.3696229457855225,
            -0.02768833376467228,
            1.1923290491104126,
            1.9547423124313354,
            2.3354697227478027,
            2.1776890754699707,
            1.7403837442398071,
            2.1812145709991455,
            1.2366273403167725,
            1.7908860445022583,
            -0.015948208048939705,
            -0.22011101245880127,
            0.07298664003610611,
            0.1162518709897995,
            0.007300558499991894,
            -0.17587175965309143,
            -0.14050717651844025,
            -0.2312789261341095,
            -0.22366546094417572,
            0.05733343958854675,
            0.029577083885669708,
            0.10658562183380127,
            -0.08432986587285995,
            0.02366689220070839,
            -0.35559552907943726,
            0.0512494258582592,
            0.18351849913597107,
            0.33031409978866577,
            0.1268915832042694,
            -0.3462289869785309,
            -0.3476960361003876,
            -0.06213604658842087,
            0.28589576482772827,
            -0.023297850042581558,
            0.028425293043255806,
            -0.3576493263244629,
            0.024031557142734528,
            -0.4490776062011719,
            -0.07334493845701218,
            0.052353836596012115,
            -0.15216656029224396,
            -0.15947969257831573,
            -0.03705762326717377,
            0.17208144068717957,
            -0.33980870246887207,
            -0.25095295906066895,
            -0.04405573382973671,
            -0.14660124480724335,
            0.22293785214424133,
            -0.04535231366753578,
            -0.2169901579618454,
            -0.054943397641181946,
            0.017707712948322296,
            0.2135421484708786,
            -0.0896761417388916,
            0.07375628501176834,
            -0.17663061618804932,
            -0.0871284082531929,
            -0.010099705308675766,
            -0.011830095201730728,
            -0.29216378927230835,
            0.139227494597435,
            -0.04008246958255768,
            -0.17200317978858948,
            0.09420441836118698,
            -0.05457253381609917,
            -0.2530573010444641,
            0.06664443761110306,
            -0.29300549626350403,
            0.01478029415011406,
            -0.011581526137888432,
            -0.11752185970544815,
            0.15489859879016876,
            -0.20622658729553223,
            -0.1983441263437271,
            -0.055415406823158264,
            0.01353265717625618,
            0.06445643305778503,
            0.023314673453569412,
            0.10241835564374924,
            0.11864874511957169,
            0.11439021676778793,
            -0.1740240901708603,
            0.10213729739189148,
            0.13708747923374176,
            -0.16903071105480194,
            -0.29185450077056885,
            -0.0604068897664547,
            -0.049486737698316574,
            -0.07004860788583755,
            0.12323574721813202,
            0.10113499313592911,
            0.0016215015202760696,
            -0.1033136248588562,
            -0.14982250332832336,
            -0.1747635155916214,
            0.000779425841756165,
            -0.14649643003940582,
            -0.06350918114185333,
            -0.06362579017877579,
            -0.01637742668390274,
            0.11274638772010803,
            0.24335581064224243,
            0.02054421976208687,
            0.12533116340637207,
            -0.021736990660429,
            0.03945016488432884,
            0.0732271820306778,
            0.1565021127462387,
            -0.08496353030204773,
            -0.08669165521860123,
            0.3534475862979889,
            -0.1075514703989029,
            0.12204519659280777,
            -0.08680453151464462,
            -0.07682335376739502,
            0.16646964848041534,
            0.11669992655515671,
            0.033445682376623154,
            -0.049493029713630676,
            0.024621156975626945,
            0.2687526047229767,
            0.10738413035869598,
            -0.03236379846930504,
            -0.09920035302639008,
            0.021722227334976196,
            0.015782982110977173,
            -0.23008935153484344,
            0.1193387433886528,
            -0.15532411634922028,
            0.15330016613006592,
            -0.04030192270874977,
            -0.024429459124803543,
            -0.08110182732343674,
            0.09209239482879639,
            0.03396504744887352,
            -0.02868194319307804,
            0.11618569493293762,
            0.05257721617817879,
            0.14095640182495117,
            -0.14763887226581573,
            -0.005104673095047474,
            0.14183171093463898,
            0.10613527148962021,
            0.042640239000320435,
            0.029694577679038048,
            0.059938810765743256,
            -0.05002352222800255,
            -0.025638476014137268,
            -0.09636096656322479,
            0.13681893050670624,
            -0.09957803040742874,
            0.15046343207359314,
            0.09769415110349655,
            0.054750800132751465,
            -0.18951965868473053,
            -0.15343715250492096,
            0.31120800971984863,
            0.16362139582633972,
            0.10503904521465302,
            0.12968961894512177,
            0.009412483312189579,
            -0.05851505696773529,
            -0.11962002515792847,
            -0.1321982443332672,
            0.03373436629772186,
            0.04718780890107155,
            0.009760521352291107,
            0.04773229360580444,
            -0.03137316554784775,
            0.09972260147333145,
            0.021586772054433823,
            -0.06094978377223015,
            0.003409905359148979,
            0.038623373955488205,
            0.20767280459403992,
            0.023772776126861572,
            -0.08946564048528671,
            -0.06309133768081665,
            -0.03364625200629234,
            -0.05190657079219818,
            -0.0006132174748927355,
            0.0081042954698205,
            0.17849430441856384,
            0.145356222987175,
            0.11405893415212631,
            0.1499841809272766,
            0.06831181794404984,
            0.08379276841878891,
            -0.04868507385253906,
            -0.04068782925605774,
            0.138639435172081,
            0.2111775428056717,
            0.07361376285552979,
            0.02098010666668415,
            0.19410771131515503,
            0.3954535722732544,
            0.010541494004428387,
            0.06740136444568634,
            0.007101668044924736,
            0.05395127087831497,
            -0.01909731887280941,
            -0.16359858214855194,
            0.0006134412251412868,
            -0.038614388555288315,
            -0.0388580784201622,
            -0.15189076960086823,
            -0.15232670307159424,
            0.07626614719629288,
            -0.21278885006904602,
            0.13727375864982605,
            0.22702114284038544,
            0.002125608269125223,
            0.10217668861150742,
            -0.11191478371620178,
            -0.003469623625278473,
            -0.06885169446468353,
            0.12569506466388702,
            -0.031075721606612206,
            0.1571841984987259,
            -0.1340332329273224,
            0.11452765762805939,
            -0.3231542706489563,
            0.2513519823551178,
            0.08224237710237503,
            0.17393280565738678,
            -0.07868904620409012,
            -0.1442655324935913,
            -0.224196657538414,
            -0.1310950368642807,
            -0.12598787248134613,
            -0.02729504182934761,
            0.011588333174586296,
            0.15636365115642548,
            0.11545319110155106,
            0.0643477812409401,
            -0.02006879448890686,
            -0.34299224615097046,
            0.07615754753351212,
            0.20697461068630219,
            -0.05414538457989693,
            -0.17024299502372742,
            -0.17907114326953888,
            -0.04160474240779877,
            0.08368746936321259,
            -0.019125405699014664,
            -0.14878107607364655,
            -0.19693754613399506,
            -0.15121197700500488,
            0.13421615958213806,
            0.11646033078432083,
            -0.1974363476037979,
            -0.27476564049720764,
            -0.0924939215183258,
            -0.04665135592222214,
            -0.12659502029418945,
            -0.04690402373671532,
            -0.24489451944828033,
            0.018012797459959984,
            0.1846645176410675,
            -0.031254205852746964,
            -0.12732483446598053,
            -0.12652915716171265,
            0.03962832689285278,
            0.20027075707912445,
            0.0064528994262218475,
            -0.6305355429649353,
            -0.182433620095253,
            -0.229805588722229,
            -0.28219130635261536,
            -0.358653724193573,
            -0.5073841214179993,
            -0.3258923292160034,
            -0.12826897203922272,
            -0.2137824445962906,
            0.23956038057804108,
            -0.15265396237373352,
            0.18761976063251495,
            -0.3314795196056366,
            -0.19154204428195953,
            -0.42882174253463745,
            0.14667457342147827,
            -0.33387506008148193,
            -0.33897852897644043,
            -0.2558700740337372,
            -0.36347490549087524,
            -0.14625661075115204,
            0.0609654001891613,
            -0.028665989637374878,
            -0.6374687552452087,
            -0.16113774478435516,
            -0.601802408695221,
            -0.1090669333934784,
            -0.7339911460876465,
            -0.0648622065782547,
            0.06722550839185715,
            -0.41904574632644653,
            -0.38619428873062134,
            -0.19556143879890442,
            -0.14733631908893585,
            -0.12410767376422882,
            -0.22895745933055878,
            0.22489330172538757,
            -0.2941572070121765,
            0.06453830003738403,
            -0.24357201159000397,
            -0.125470831990242,
            -0.0829840749502182,
            -0.1678999960422516,
            0.25470009446144104,
            -0.21783120930194855,
            -0.12816281616687775,
            -0.1347002387046814,
            -0.5390380620956421,
            -0.5686147809028625,
            -0.39633843302726746,
            -0.4698326587677002,
            -0.06347271054983139,
            -0.2044822722673416,
            -0.05147077143192291,
            -0.5157628655433655,
            -0.07735306024551392,
            -0.13777320086956024,
            -0.4465722441673279,
            -0.45846039056777954,
            -0.10296700894832611,
            -0.46985864639282227,
            -0.21777577698230743,
            -0.2336166948080063,
            0.026081446558237076,
            -0.17950916290283203,
            0.0827697291970253,
            -0.2427312135696411,
            -0.012431527487933636,
            -0.13604453206062317,
            -0.21460087597370148,
            -0.2113298773765564,
            -0.05442459508776665,
            0.3701702356338501,
            -0.03388684242963791,
            0.20299509167671204,
            -0.05529911071062088,
            -0.13533349335193634,
            0.03959188237786293,
            0.15151987969875336,
            -0.10784248262643814,
            -0.048202771693468094,
            0.14883795380592346,
            0.06996738165616989,
            -0.023108884692192078,
            -0.033942271023988724,
            -0.06832791864871979,
            -0.028304623439908028,
            -0.3211521506309509,
            -0.009278961457312107,
            -0.05780550837516785,
            0.03659513220191002,
            -0.21932139992713928,
            -0.0934707447886467,
            0.17415276169776917,
            -0.10438387095928192,
            -0.21612802147865295,
            0.1516035944223404,
            0.05940573662519455,
            0.3076794743537903,
            0.003431471297517419,
            0.069473996758461,
            -0.07510513812303543,
            0.14235834777355194,
            -0.20756328105926514,
            0.10156147181987762,
            -0.009686851873993874,
            -0.05857538431882858,
            0.09759105741977692,
            0.05749978870153427,
            -0.24755823612213135,
            -0.08650053292512894,
            0.03502799570560455,
            0.1212347000837326,
            0.20530909299850464,
            -0.0026319040916860104,
            0.08290821313858032,
            -0.23749667406082153,
            -0.12643343210220337,
            0.021588459610939026,
            -0.0683230385184288,
            -0.2654969394207001,
            -0.010609624907374382,
            0.1142447292804718,
            -0.23123949766159058,
            0.03912670910358429,
            -0.08911263197660446,
            0.04587216302752495,
            -0.12377756088972092,
            -0.10819146037101746,
            -0.12080030143260956,
            -0.23678115010261536,
            0.09069010615348816,
            -0.008335404098033905,
            0.019983407109975815,
            -0.001478034071624279,
            -0.2673902213573456,
            -0.05964045599102974,
            -0.07933017611503601,
            0.08578186482191086,
            -0.08212600648403168,
            -0.05421365052461624,
            -0.029286203905940056,
            -0.03827928379178047,
            -0.18769571185112,
            0.08107054233551025,
            0.0302553903311491,
            -0.04710771143436432,
            -0.09541584551334381,
            0.00481692748144269,
            -0.01690400205552578,
            0.06007625162601471,
            0.0037932218983769417,
            -0.13399581611156464,
            -0.008382449857890606,
            -0.24580985307693481,
            -0.08655146509408951,
            0.04385720565915108,
            0.12389203906059265,
            0.09519605338573456,
            -0.18852372467517853,
            -0.008999940007925034,
            0.018149742856621742,
            0.05203955993056297,
            -0.050202589482069016,
            -0.21632030606269836,
            0.26672399044036865,
            0.05157221481204033,
            -0.0816982313990593,
            -0.12194616347551346,
            -0.06848816573619843,
            -0.18645203113555908,
            -0.2921503782272339,
            0.15498870611190796,
            0.029697779566049576,
            0.2762446403503418,
            0.33163982629776,
            0.07556899636983871,
            0.18133844435214996,
            0.07014815509319305,
            0.042669668793678284,
            0.02475874498486519,
            -0.010349911637604237,
            0.2535954415798187,
            -0.07137729972600937,
            0.04715577885508537,
            0.03473206236958504,
            -0.06222100183367729,
            -0.07036426663398743,
            0.10247018188238144,
            0.08359342068433762,
            0.15861675143241882,
            0.03103143908083439,
            -0.1434231549501419,
            -0.05441911518573761,
            0.03051362745463848,
            0.04056853428483009,
            -0.04893258586525917,
            -0.08043987303972244,
            0.3000763952732086,
            -0.09729091823101044,
            0.24402360618114471,
            -0.10764142125844955,
            -0.159992054104805,
            -0.10717842727899551,
            -0.20310699939727783,
            -0.03502121567726135,
            -0.06831743568181992,
            -0.1702246367931366,
            -0.0071689109317958355,
            -0.01166681107133627,
            0.040441952645778656,
            -0.015043124556541443,
            -0.04917315021157265,
            0.017932167276740074,
            0.036733005195856094,
            -0.21320931613445282,
            -0.013255945406854153,
            0.06307912617921829,
            0.1860942840576172,
            0.07778824120759964,
            0.009045298211276531,
            -0.07748941332101822,
            0.06358972191810608,
            -0.06129474937915802,
            -0.007402245886623859,
            0.10689147561788559,
            0.01842545159161091,
            0.17202025651931763,
            -0.005587985273450613,
            -0.2588084042072296,
            0.0029023049864917994,
            0.07296913117170334,
            0.08851392567157745,
            -0.04671155661344528,
            0.13905030488967896,
            0.15734758973121643,
            0.05571416765451431,
            -0.11734616756439209,
            -0.21483023464679718,
            0.13206273317337036,
            -0.16653387248516083,
            -0.006679525598883629,
            -0.03844159469008446,
            -0.17384429275989532,
            0.006576939485967159,
            -0.0032341484911739826,
            0.10091543942689896,
            -0.1490354984998703,
            0.009798509068787098,
            0.039183832705020905,
            -0.12950637936592102,
            -0.08199276775121689,
            0.028564509004354477,
            -0.1374625861644745,
            0.06437624990940094,
            0.13113991916179657,
            -0.12062926590442657,
            0.007378830574452877,
            -0.002601402811706066,
            0.19738389551639557,
            -0.12374470382928848,
            0.12050371617078781,
            0.009374016895890236,
            0.06914924830198288,
            -0.01157222781330347,
            -0.04858604818582535,
            -0.005292827263474464,
            0.03516886383295059,
            -0.051104411482810974,
            0.02645595371723175,
            0.10643692314624786,
            -0.03224071487784386,
            0.04635810852050781,
            -0.034327369183301926,
            -0.05935419350862503,
            0.23360100388526917,
            0.09350066632032394,
            0.0034929721150547266,
            0.035849105566740036,
            0.022170202806591988,
            -0.16392962634563446,
            -0.08598001301288605,
            -0.13972772657871246,
            0.09770017117261887,
            0.0417681485414505,
            0.0881030485033989,
            0.07717074453830719,
            -0.1713300198316574,
            -0.10019026696681976,
            0.06003690883517265,
            0.10305287688970566,
            0.03861337527632713,
            0.08179497718811035,
            0.16237300634384155,
            -0.011662582866847515,
            -0.09066358208656311,
            0.019064899533987045,
            -0.007232109550386667,
            -0.15596529841423035,
            -0.05569934472441673,
            0.028611095622181892,
            0.003517693607136607,
            -0.09631644934415817,
            0.15147587656974792,
            -0.12543635070323944,
            -0.018584636971354485,
            0.020024532452225685,
            0.09638872742652893,
            -0.17907756567001343,
            -0.109830342233181,
            0.01638447493314743,
            0.14048835635185242,
            -0.019991356879472733,
            0.026737447828054428,
            0.12980850040912628,
            -0.02053888887166977,
            0.019694481045007706,
            -0.08376618474721909,
            -0.18646825850009918,
            -0.18290340900421143,
            0.17158716917037964,
            0.08520115911960602,
            -0.09456475079059601,
            -0.05302082747220993,
            0.09559345245361328,
            0.047797881066799164,
            -0.12129192054271698,
            0.05633489042520523,
            -0.1190042570233345,
            -0.13592617213726044,
            0.030948195606470108,
            -0.11641409993171692,
            0.007556809112429619,
            0.1530762016773224,
            0.05363498628139496,
            0.03278530016541481,
            -0.07244904339313507,
            -0.1547643095254898,
            -0.04321269318461418,
            0.12332496047019958,
            0.2149205207824707,
            -0.15954555571079254,
            0.08429587632417679,
            -0.017691362649202347,
            -0.23526185750961304,
            0.11301294714212418,
            0.01728271134197712,
            0.0004918523482047021,
            -0.049410078674554825,
            -0.29722604155540466,
            0.06706371903419495,
            -0.026122646406292915,
            -0.1040281429886818,
            -0.060335490852594376,
            0.17646491527557373,
            0.004799642134457827,
            -0.23042108118534088,
            0.1225498765707016,
            -0.011953884735703468,
            -0.17552809417247772,
            0.0680057629942894,
            -0.0934339091181755,
            0.012433773837983608,
            -0.3432539403438568,
            -0.0891021117568016,
            0.10757969319820404,
            -0.04219180345535278,
            0.028638429939746857,
            0.3003855049610138,
            0.142389178276062,
            0.05273023247718811,
            -0.05248165875673294,
            -0.07626296579837799,
            -0.06571974605321884,
            0.1932702660560608,
            0.13785558938980103,
            -0.03343867138028145,
            0.009718612767755985,
            0.13650433719158173,
            -0.020183930173516273,
            -0.020684337243437767,
            -0.10837336629629135,
            -0.016290633007884026,
            0.08943919837474823,
            -0.03862757608294487,
            -0.03507010266184807,
            -0.12773075699806213,
            -0.05664030835032463,
            0.12934131920337677,
            -0.13101555407047272,
            -0.05995173379778862,
            0.11381638050079346,
            -0.07059060037136078,
            -0.12878161668777466,
            -0.06005728989839554,
            -0.14821405708789825,
            -0.006906992290169001,
            -0.032937660813331604,
            0.03723003715276718,
            -0.23674653470516205,
            -0.09401735663414001,
            0.01906123384833336,
            -0.05234770104289055,
            -0.035992804914712906,
            0.13000966608524323,
            -0.1088428944349289,
            -0.06052008271217346,
            -0.20015937089920044,
            0.06991792470216751,
            0.14134438335895538,
            0.07755835354328156,
            0.11488630622625351,
            0.09189953655004501,
            0.03602612763643265,
            0.07572925090789795,
            -0.016105186194181442,
            -0.06948503106832504,
            -0.01484941877424717,
            0.003354007378220558,
            0.24341021478176117,
            -0.05333045497536659,
            0.05039980262517929,
            0.020140981301665306,
            0.0944022387266159,
            0.18996404111385345,
            -0.008102867752313614,
            -0.02917271852493286,
            -0.08376613259315491,
            -0.16762521862983704,
            -0.02255137637257576,
            -0.023924347013235092,
            0.08067725598812103,
            0.01632586307823658,
            -0.009402178227901459,
            0.019041448831558228,
            -0.07522844523191452,
            -0.04601357877254486,
            -0.1198570728302002,
            0.07183890789747238,
            0.1755324751138687,
            0.021186795085668564,
            -0.11824068427085876,
            0.10796298831701279,
            0.28382405638694763,
            0.011617968790233135,
            0.11333995312452316,
            -0.13874666392803192,
            0.17815981805324554,
            0.027216637507081032,
            -0.1557542085647583,
            -0.05336291342973709,
            -0.06439199298620224,
            -0.17618826031684875,
            -0.1735564023256302,
            0.010157200507819653,
            0.032890528440475464,
            -0.17170605063438416,
            0.053523655980825424,
            0.03807767480611801,
            0.00135684828273952,
            -0.019291063770651817,
            -0.011028197593986988,
            0.04128344729542732,
            0.0851367712020874,
            -0.040215492248535156,
            0.1053740605711937,
            -0.06209523230791092,
            -0.14221931993961334,
            -0.023311443626880646,
            -0.1698279082775116,
            -0.1338951289653778,
            -0.17547090351581573,
            0.16000041365623474,
            -0.03271562233567238,
            0.10554050654172897,
            0.09598267823457718,
            -0.007799265440553427,
            -0.12193579226732254,
            -0.08665879815816879,
            -0.16036128997802734,
            0.054183073341846466,
            0.009291859343647957,
            0.05638784170150757,
            0.20628120005130768,
            0.01023411937057972,
            -0.02991030178964138,
            -0.031132230535149574,
            -0.0428629107773304,
            0.07745099812746048,
            0.08713924884796143,
            -0.025206102058291435,
            0.15754270553588867,
            0.16961641609668732,
            0.2333773821592331,
            -0.08135214447975159,
            -0.0952892079949379,
            -0.18466629087924957,
            -0.13955359160900116,
            0.07725511491298676,
            -0.12912142276763916,
            -0.2627646327018738,
            -0.08278079330921173,
            0.037388697266578674,
            0.13186946511268616,
            -0.15578553080558777,
            0.08354999125003815,
            -0.10506893694400787,
            -0.05029492452740669,
            0.021599695086479187,
            -0.10592950135469437,
            -0.026356957852840424,
            0.007312614470720291,
            -0.23526997864246368,
            -0.08667038381099701,
            0.07106228917837143,
            -0.044492319226264954,
            0.0444655604660511,
            -0.08608250319957733,
            -0.216396763920784,
            0.2045019119977951,
            0.00785151869058609,
            0.22742816805839539,
            -0.08649321645498276,
            -0.0626174584031105,
            0.10600124299526215,
            0.0465816929936409,
            -0.0019518276676535606,
            0.05455825850367546,
            0.010511542670428753,
            -0.07147305458784103,
            0.14296524226665497,
            0.11559797078371048,
            -0.023242272436618805,
            0.226297989487648,
            -0.22322900593280792,
            0.01576061174273491,
            -0.034498851746320724,
            0.10241276025772095,
            0.1510513871908188,
            0.04717624932527542,
            -0.09194020926952362,
            0.035610899329185486,
            -0.08802593499422073,
            0.081026092171669,
            0.026173971593379974,
            0.0930304080247879,
            -0.117251455783844,
            0.10100608319044113,
            -0.0032351408153772354,
            -0.09715154767036438,
            -0.10564424842596054,
            0.0989757850766182,
            0.02242269739508629,
            0.1885487288236618,
            0.2635001838207245,
            -0.10975182801485062,
            0.03833571821451187,
            -0.035903215408325195,
            0.03311114385724068,
            -0.16884024441242218,
            0.05088353529572487,
            0.216059148311615,
            0.13453435897827148,
            0.05836000666022301,
            -0.05190103128552437,
            0.0861751139163971,
            -0.12917247414588928,
            0.032673437148332596,
            0.10391400754451752,
            -0.06533122062683105,
            0.1945638507604599,
            0.07345066964626312,
            0.24522830545902252,
            0.1997082233428955,
            -0.02213757298886776,
            0.1577678918838501,
            0.11668524891138077,
            -0.08694334328174591,
            0.2380463033914566,
            -0.0813593715429306,
            -0.1394565999507904,
            -0.00871364213526249,
            -0.013081114739179611,
            0.06271500140428543,
            -0.027298616245388985,
            0.06931738555431366,
            -0.06632378697395325,
            0.13409917056560516,
            -0.019220931455492973,
            -0.045595720410346985,
            0.25200557708740234,
            0.06582163274288177,
            -0.06380682438611984,
            -0.07848762720823288,
            0.11687356978654861,
            0.1984345018863678,
            -0.13380379974842072,
            0.03748207166790962,
            0.032607655972242355,
            -0.048988766968250275,
            0.060500193387269974,
            0.15497839450836182,
            0.06691465526819229,
            -0.07582717388868332,
            0.0014789532870054245,
            0.1423037201166153,
            -0.03807325288653374,
            -0.25746461749076843,
            0.025109825655817986,
            0.00844885129481554,
            -0.02541208267211914,
            -0.03212498873472214,
            0.08370212465524673,
            -0.0036682120990008116,
            -0.05240318179130554,
            -0.012556562200188637,
            -0.015939148142933846,
            -0.09212949126958847,
            -0.06656931340694427,
            0.00255535333417356,
            0.055912695825099945,
            -0.10808862745761871,
            -0.12275274097919464,
            -0.027119837701320648,
            0.027961045503616333,
            0.21755839884281158,
            0.09529036283493042,
            0.06708324700593948,
            0.017344260588288307,
            0.13170577585697174,
            0.03852177411317825,
            0.0842960998415947,
            0.10165747255086899,
            0.08446837961673737,
            0.1912391036748886,
            -0.0701390728354454,
            0.09207311272621155,
            -0.038550034165382385,
            0.03117072582244873,
            -0.0747363492846489,
            0.27305078506469727,
            0.3055145740509033,
            0.11169850081205368,
            -0.11433326452970505,
            0.2526727020740509,
            0.169796884059906,
            -0.0776357650756836,
            0.2524559199810028,
            0.14195849001407623,
            0.1429194211959839,
            -0.06591516733169556,
            0.1028587743639946,
            0.15911610424518585,
            -0.009692966938018799,
            -0.0696844756603241,
            -0.3448426127433777,
            0.31899160146713257,
            -0.06205315515398979,
            0.2164391428232193,
            -0.28298065066337585,
            -0.24739067256450653,
            0.06608360260725021,
            -0.15611699223518372,
            0.13297931849956512,
            0.018282240256667137,
            0.040522050112485886,
            -0.21642321348190308,
            -0.12808053195476532,
            -0.11838911473751068,
            -0.09326895326375961,
            0.06067126989364624,
            -0.021397380158305168,
            -0.05309067666530609,
            0.12906821072101593,
            0.13946117460727692,
            -0.22653250396251678,
            0.029203183948993683,
            0.23810522258281708,
            -0.27517059445381165,
            0.3465844392776489,
            0.19259348511695862,
            -0.19930164515972137,
            0.13658873736858368,
            0.1333387941122055,
            0.05261218175292015,
            -0.22163847088813782,
            0.08328980207443237,
            0.2949892282485962,
            -0.022357624024152756,
            0.01108213048428297,
            0.06662631779909134,
            -0.09405022859573364,
            0.20185838639736176,
            0.1497698277235031,
            0.19387033581733704,
            -0.21763141453266144,
            -0.04189874231815338,
            0.2692720293998718,
            0.05821756646037102,
            0.2760656177997589,
            0.12277307361364365,
            0.20308193564414978,
            -0.1594693511724472,
            0.201959028840065,
            -0.009236381389200687,
            0.023102309554815292,
            0.059834107756614685,
            -0.10306403785943985,
            0.05893260985612869,
            -0.18698127567768097,
            -0.25348514318466187,
            -0.19159838557243347,
            -0.11812727153301239,
            0.2211952954530716,
            -0.1389797180891037,
            0.19739077985286713,
            0.016471954062581062,
            -0.08478312194347382,
            -0.08201510459184647,
            0.0912335216999054,
            0.11739283800125122,
            0.019463131204247475,
            0.02798910066485405,
            -0.033035386353731155,
            -0.07007472217082977,
            0.05826637148857117,
            -0.0599885955452919,
            0.30259570479393005,
            0.05421328917145729,
            0.0327291265130043,
            0.0006737530929967761,
            -0.07885271310806274,
            0.0725545734167099,
            0.01831774413585663,
            0.015304571948945522,
            0.36396604776382446,
            0.02219398319721222,
            -0.12772409617900848,
            0.016855210065841675,
            -0.10261023789644241,
            -0.033868208527565,
            0.013136572204530239,
            -0.11462212353944778,
            0.28719863295555115,
            0.010199016891419888,
            -0.07993237674236298,
            0.2243519127368927,
            0.07963670790195465,
            -0.16500259935855865,
            0.052117593586444855,
            0.037263453006744385,
            -0.10298437625169754,
            -0.09120433777570724,
            -0.010041679255664349,
            -0.11512546986341476,
            0.24952366948127747,
            -0.039171092212200165,
            -0.05188358202576637,
            0.05648716166615486,
            -0.003112382721155882,
            0.18507732450962067,
            0.02973148599267006,
            -0.07500253617763519,
            -0.08320257812738419,
            -0.04290631785988808,
            -0.12998640537261963,
            -0.06519389897584915,
            -0.00023818036424927413,
            0.1785074919462204,
            0.10894010215997696,
            -0.275570273399353,
            0.2792356312274933,
            0.18279525637626648,
            0.07800208777189255,
            0.06638894975185394,
            -0.31077682971954346,
            0.119599848985672,
            -0.2584212124347687,
            0.10244309157133102,
            -0.3837352991104126,
            0.11837390810251236,
            0.16568300127983093,
            0.0906154066324234,
            0.030758189037442207,
            0.1458515077829361,
            0.07332158833742142,
            -0.09708824008703232,
            -0.09442918002605438,
            -0.0382666140794754,
            0.05532758682966232,
            0.09008492529392242,
            0.12980437278747559,
            -0.31743666529655457,
            0.21427613496780396,
            -0.0005346820689737797,
            0.0003342283598612994,
            0.11696553975343704,
            0.3376798629760742,
            0.26111531257629395,
            -0.06030312553048134,
            0.18671321868896484,
            0.08278404921293259,
            0.13038192689418793,
            0.12677134573459625,
            -0.06491372734308243,
            0.13051258027553558,
            0.017129432410001755,
            0.015356871299445629,
            0.06582430750131607,
            0.03802884742617607,
            0.06152946129441261,
            -0.30017220973968506,
            0.18329082429409027,
            -0.21844293177127838,
            0.17049503326416016,
            0.016616063192486763,
            0.03587545081973076,
            0.33395713567733765,
            0.03621716424822807,
            0.3499130308628082,
            0.2073315680027008,
            0.15695464611053467,
            0.10756815969944,
            -0.23822465538978577,
            0.01263057254254818,
            0.024246983230113983,
            -0.019464807584881783,
            0.06346961110830307,
            0.05217933654785156,
            0.03666527941823006,
            0.14351189136505127,
            -0.052364759147167206,
            -0.08517914265394211,
            0.15839272737503052,
            -0.011123108677566051,
            0.099007248878479,
            0.06082656607031822,
            -0.13048076629638672,
            -0.09253233671188354,
            -0.0684022307395935,
            0.09482526034116745,
            0.03125704824924469,
            -0.290536493062973,
            0.04362643137574196,
            0.283937931060791,
            0.09545162320137024,
            0.2143922746181488,
            0.23255221545696259,
            -0.162112757563591,
            -0.12464195489883423,
            0.10118047893047333,
            -0.049105867743492126,
            0.0174550823867321,
            0.4102727472782135,
            -0.1520957052707672,
            0.10362563282251358,
            -0.08978400379419327,
            0.32027122378349304,
            0.1294233798980713,
            -0.15007178485393524,
            0.06113944947719574,
            -0.15931950509548187,
            0.12737518548965454,
            0.07603142410516739,
            0.05434007570147514,
            0.09746190160512924,
            -0.02791956067085266,
            -0.006723607890307903,
            0.24612575769424438,
            -0.12502029538154602,
            0.0762299969792366,
            -0.09402573853731155,
            0.08023862540721893,
            0.1684873402118683,
            0.14283022284507751,
            -0.30849194526672363,
            -0.14638543128967285,
            -0.19869275391101837,
            0.0693439245223999,
            -0.07381230592727661,
            0.06687352806329727,
            0.043706946074962616,
            0.13497023284435272,
            0.02861732989549637,
            -0.21307870745658875,
            0.14981327950954437,
            -0.23870515823364258,
            0.014291675761342049,
            0.10340837389230728,
            0.07307698577642441,
            -0.03970731422305107,
            -0.071525938808918,
            -0.17756593227386475,
            0.33491769433021545,
            0.0268669705837965,
            0.14984020590782166,
            -0.10081043094396591,
            0.031235765665769577,
            -0.004411893431097269,
            -0.1809285432100296,
            0.03756140172481537,
            0.026369094848632812,
            0.003218026366084814,
            -0.15307478606700897,
            -0.26715055108070374,
            0.22749800980091095,
            -0.30139869451522827,
            -0.253393292427063,
            0.14861571788787842,
            -0.178004190325737,
            -0.03643545135855675,
            0.020475437864661217,
            -0.0925794392824173,
            0.038876429200172424,
            -0.040624894201755524,
            -0.10325974225997925,
            -0.07605282962322235,
            0.03786668926477432,
            -0.16296818852424622,
            0.2411942183971405,
            -0.24422283470630646,
            0.013886012136936188,
            -0.32802945375442505,
            -0.12541446089744568,
            -0.1594025045633316,
            -0.033785756677389145,
            0.202995166182518,
            0.2927739918231964,
            -0.2276444286108017,
            -0.14388051629066467,
            -0.2859627306461334,
            -0.08630609512329102,
            -0.11763395369052887,
            -0.24907375872135162,
            -0.11550082266330719,
            -0.16164113581180573,
            -0.12979085743427277,
            -0.06438056379556656,
            0.022037342190742493,
            -0.1236177310347557,
            -0.40215402841567993,
            -0.13350149989128113,
            -0.04617796465754509,
            -0.09020280838012695,
            -0.05437254533171654,
            0.160271555185318,
            -0.13634945452213287,
            -0.09373495727777481,
            -0.07036600261926651,
            0.22053579986095428,
            -0.036037858575582504,
            -0.2289396971464157,
            -0.033894483000040054,
            0.08492370694875717,
            -0.05848907306790352,
            -0.06853976100683212,
            0.09290414303541183,
            -0.08300746977329254,
            -0.23395559191703796,
            -0.21582648158073425,
            0.035628873854875565,
            -0.12437774240970612,
            0.013565992936491966,
            0.12778112292289734,
            -0.19757993519306183,
            -0.17504045367240906,
            -0.0617813915014267,
            -0.2187010943889618,
            -0.21883171796798706,
            0.07140517234802246,
            0.06345442682504654,
            -0.06796368956565857,
            -0.05224189534783363,
            -0.10497446358203888,
            -0.05849871039390564,
            -0.08788583427667618,
            0.1716228425502777,
            0.17354990541934967,
            -0.22896042466163635,
            0.09708663076162338,
            0.15695418417453766,
            -0.049234360456466675,
            0.06969225406646729,
            -0.07563753426074982,
            -0.10354918241500854,
            -0.18005965650081635,
            -0.20828194916248322,
            -0.21505624055862427,
            -0.17858023941516876,
            -0.055957045406103134,
            -0.07334702461957932,
            0.06795889884233475,
            -0.07088606059551239,
            -0.15415947139263153,
            -0.1304929256439209,
            0.049773991107940674,
            -0.014335419051349163,
            -0.09737846255302429,
            -0.04063430801033974,
            -0.0656282901763916,
            0.18435421586036682,
            0.12814463675022125,
            -0.15781264007091522,
            -0.10471655428409576,
            0.06625506281852722,
            0.06937844306230545,
            -0.1297060251235962,
            -0.1316426694393158,
            -0.14142172038555145,
            -0.024349957704544067,
            -0.29676276445388794,
            0.05129772797226906,
            -0.14247506856918335,
            0.028177479282021523,
            0.1730765551328659,
            -0.15900330245494843,
            -0.03098004311323166,
            0.0015318087534978986,
            -0.03955517336726189,
            -0.04763616621494293,
            0.10888009518384933,
            -0.10865475982427597,
            0.14909090101718903,
            0.0072466107085347176,
            0.09945780783891678,
            -0.029542747884988785,
            0.05223479121923447,
            0.04851802811026573,
            0.1425485461950302,
            0.12343663722276688,
            -0.010163772851228714,
            0.15167734026908875,
            0.04529082402586937,
            -0.004074105527251959,
            0.029905691742897034,
            0.03442467376589775,
            0.09948502480983734,
            -0.06817524135112762,
            -0.07820329815149307,
            0.15250229835510254,
            0.1522889882326126,
            0.35475966334342957,
            0.1951100379228592,
            0.21528805792331696,
            -0.15463441610336304,
            -0.13693857192993164,
            0.18031802773475647,
            0.0582876019179821,
            -0.10410909354686737,
            -0.08012516796588898,
            0.006324967835098505,
            -0.07757832854986191,
            0.03008314222097397,
            0.30834582448005676,
            -0.12633651494979858,
            0.020243164151906967,
            -0.06109270080924034,
            0.151896134018898,
            0.13635869324207306,
            0.028572065755724907,
            0.04481719806790352,
            0.009720418602228165,
            0.06031554937362671,
            0.13672365248203278,
            -0.15533679723739624,
            -0.12951035797595978,
            0.10496052354574203,
            0.3555890917778015,
            0.025001978501677513,
            -0.22172828018665314,
            -0.11827520281076431,
            0.14487212896347046,
            0.21678446233272552,
            -0.18452855944633484,
            -0.14210939407348633,
            -0.10242610424757004,
            0.10339975357055664,
            -0.07689441740512848,
            0.18805262446403503,
            -0.28325170278549194,
            -0.012478912249207497,
            -0.05700455233454704,
            -0.12888875603675842,
            0.01452512014657259,
            0.045566413551568985,
            0.04236137866973877,
            0.09567916393280029,
            -0.10656655579805374,
            -0.12475395947694778,
            0.007610999513417482,
            0.10962990671396255,
            0.044972725212574005,
            -0.18704484403133392,
            -0.0377773717045784,
            0.06969247758388519,
            0.04314473643898964,
            0.11767926812171936,
            0.25263670086860657,
            -0.05964899808168411,
            -0.013852539472281933,
            0.01495051383972168,
            -0.025548186153173447,
            0.019184330478310585,
            -0.1101766973733902,
            -0.03119014762341976,
            0.0918496772646904,
            0.1268414556980133,
            -0.018353329971432686,
            -0.20544429123401642,
            0.29053130745887756,
            0.012846116907894611,
            -0.07483530044555664,
            0.020323576405644417,
            0.03556402772665024,
            -0.17325808107852936,
            0.12222777307033539,
            0.054742369800806046,
            -0.2175104022026062,
            0.05887746065855026,
            0.13820187747478485,
            0.13731208443641663,
            -0.1101829931139946,
            -0.17511610686779022,
            -0.27717316150665283,
            0.16781704127788544,
            0.053696636110544205,
            0.051419734954833984,
            0.1154799535870552,
            -0.11876162141561508,
            0.11480274796485901,
            0.02874167077243328,
            -0.052347902208566666,
            -0.16418614983558655,
            -0.28356194496154785,
            -0.0906040146946907,
            -0.17545635998249054,
            -0.05774460732936859,
            -0.0726599469780922,
            0.10026469826698303,
            -0.11287733167409897,
            0.02758793905377388,
            0.12720316648483276,
            -0.11071359366178513,
            -0.3522609770298004,
            -0.08627274632453918,
            0.05169513821601868,
            -0.17194826900959015,
            0.07181907445192337,
            -0.11005605757236481,
            -0.016002248972654343,
            0.021416980773210526,
            0.0512496642768383,
            -0.11510682106018066,
            0.030957384034991264,
            0.13007785379886627,
            0.09901897609233856,
            0.019720222800970078,
            -0.048413876444101334,
            0.23780302703380585,
            0.00722492067143321,
            0.1063971295952797,
            -0.1625490039587021,
            -0.14829662442207336,
            -0.17467783391475677,
            -0.06309531629085541,
            -0.13198186457157135,
            -0.1384233832359314,
            -0.2805805802345276,
            0.34792765974998474,
            0.33251726627349854,
            -0.05495110899209976,
            -0.03271377086639404,
            -0.014753373339772224,
            0.02573377825319767,
            -0.005710142198950052,
            0.07028000801801682,
            0.21799829602241516,
            0.25324633717536926,
            -0.32786262035369873,
            0.09769006818532944,
            -0.07253485918045044,
            -5.8170175179839134e-05,
            0.12454555928707123,
            0.17267963290214539,
            -0.0504346564412117,
            0.11777692288160324,
            0.09919282048940659,
            -0.015639035031199455,
            -0.06373385339975357,
            -0.032456040382385254,
            -0.1012144535779953,
            0.15951848030090332,
            -0.04246729984879494,
            0.04851863533258438,
            -0.06486400216817856,
            -0.13239555060863495,
            -0.111556276679039,
            -0.20063452422618866,
            -0.046761639416217804,
            0.03822597861289978,
            -0.14601552486419678,
            -0.062294915318489075,
            0.1469118744134903,
            0.23817823827266693,
            -0.2823089361190796,
            -0.056069254875183105,
            0.04845017194747925,
            -0.13040365278720856,
            0.2211877405643463,
            0.13198550045490265,
            -0.0039031794294714928,
            -0.2434820830821991,
            0.0782652497291565,
            -0.0056512863375246525,
            0.18463565409183502,
            0.09725760668516159,
            0.046243760734796524,
            -0.08196115493774414,
            0.03830942139029503,
            -0.3259113132953644,
            0.07397159934043884,
            -0.1195884421467781,
            -0.20797565579414368,
            0.15098901093006134,
            -0.027249982580542564,
            0.13879995048046112,
            0.023061249405145645,
            -0.01885988377034664,
            0.12275449931621552,
            -0.14842069149017334,
            0.11990144103765488,
            -0.05040249601006508,
            -0.1268572211265564,
            -0.09425587207078934,
            0.20861682295799255,
            0.17925207316875458,
            -0.10610222816467285,
            0.05523703247308731,
            -0.2343873530626297,
            -0.024896780028939247,
            -0.09730447828769684,
            -0.1164710596203804,
            0.023878730833530426,
            -0.048494838178157806,
            -0.15266214311122894,
            -0.2403702735900879,
            -0.10392305254936218,
            0.16411080956459045,
            -0.11703906953334808,
            -0.1401330530643463,
            -0.17148864269256592,
            -0.09216225892305374,
            0.002439868403598666,
            -0.15895380079746246,
            -0.18471208214759827,
            0.15175117552280426,
            -0.009303733706474304,
            -0.2513652443885803,
            0.17854684591293335,
            0.09981529414653778,
            0.2119639366865158,
            -0.12187561392784119,
            -0.16666199266910553,
            -0.09051506966352463,
            0.0779537484049797,
            -0.09546102583408356,
            0.04928124323487282,
            -0.2166757434606552,
            0.029985498636960983,
            0.13947872817516327,
            -0.24087320268154144,
            0.1790492981672287,
            0.3157195746898651,
            0.07946062833070755,
            0.1097123846411705,
            -0.01033420767635107,
            0.003379449713975191,
            0.01898500882089138,
            -0.16596679389476776,
            -0.1160249188542366,
            0.029888277873396873,
            -0.03878306970000267,
            -0.03582483530044556,
            -0.36901891231536865,
            0.07765442132949829,
            0.15318764746189117,
            -0.07299236953258514,
            0.08709627389907837,
            -0.1368996500968933,
            -0.2163374423980713,
            -0.0463789664208889,
            0.13816571235656738,
            -0.017827317118644714,
            0.003472812008112669,
            0.446453332901001,
            0.5832098722457886,
            -0.26954835653305054,
            -0.2922106385231018,
            -0.09374642372131348,
            0.6733118295669556,
            0.05168718844652176,
            -0.06639046967029572,
            -0.056934110820293427,
            0.15499848127365112,
            0.04832551255822182,
            0.017221543937921524,
            0.06385119259357452,
            0.10216014832258224,
            -0.006420684512704611,
            0.012289473786950111,
            0.036040470004081726,
            -0.13358265161514282,
            0.024084074422717094,
            -0.10898249596357346,
            0.03097403235733509,
            0.1218998059630394,
            0.0032924972474575043,
            0.14134284853935242,
            0.009804744273424149,
            0.06699159741401672,
            0.1340426206588745,
            -0.008577052503824234,
            -0.17412850260734558,
            -0.0782819539308548,
            -0.0949154645204544,
            0.07857649773359299,
            -0.1610265076160431,
            -0.1822899878025055,
            0.3373967111110687,
            -0.03838606923818588,
            0.39548394083976746,
            -0.3522167503833771,
            -0.029682163149118423,
            0.10347077995538712,
            -0.2756524980068207,
            0.0459141880273819,
            -0.17591145634651184,
            0.08005757629871368,
            0.47948649525642395,
            0.07288935035467148,
            -0.10247135907411575,
            0.00795383658260107,
            -0.3919644057750702,
            -0.02317977324128151,
            -0.2225697934627533,
            -0.12842561304569244,
            0.16085511445999146,
            0.12348365783691406,
            -0.022403867915272713,
            -0.28124186396598816,
            0.37161752581596375,
            0.2069908082485199,
            0.0989324226975441,
            -0.008789562620222569,
            0.35835036635398865,
            0.09664536267518997,
            -0.08059154450893402,
            0.06290905177593231,
            -0.18530233204364777,
            0.015290139243006706,
            -0.00017048408335540444,
            -0.115120530128479,
            -0.14728517830371857,
            -0.1983744353055954,
            0.4366190731525421,
            0.09129148721694946,
            -0.04164518415927887,
            -0.4757457971572876,
            0.26109009981155396,
            0.057329751551151276,
            0.146137073636055,
            -0.048327915370464325,
            -0.09005311131477356,
            -0.11711806058883667,
            0.1503164917230606,
            -0.4010998606681824,
            0.11366907507181168,
            0.06474122405052185,
            0.3206477761268616,
            0.37789857387542725,
            0.032595712691545486,
            -0.2533892095088959,
            -0.03802754729986191,
            -0.07345506548881531,
            0.15227743983268738,
            0.11335469782352448,
            -0.08693462610244751,
            0.0698123425245285,
            0.08967573195695877,
            0.4212750196456909,
            -0.09684602171182632,
            -0.05382411926984787,
            -0.19862480461597443,
            -0.1345205157995224,
            -0.318876177072525,
            0.025392739102244377,
            -0.12494831532239914,
            -0.21011675894260406,
            -0.24831809103488922,
            0.2764282822608948,
            -0.06127219274640083,
            -0.21790263056755066,
            -0.16105414927005768,
            -0.15089105069637299,
            -0.10221344232559204,
            -0.1498444676399231,
            0.16060909628868103,
            0.09006650000810623,
            -0.008780441246926785,
            0.013026097789406776,
            0.07408658415079117,
            0.34479594230651855,
            0.2587224245071411,
            -0.07785329967737198,
            0.03362269699573517,
            -0.2151654213666916,
            0.09869422763586044,
            0.022720439359545708,
            -0.2622810900211334,
            -0.16899970173835754,
            0.025989266112446785,
            0.0818520188331604,
            -0.24408943951129913,
            0.00841440912336111,
            0.12113425880670547,
            0.21692802011966705,
            0.31164756417274475,
            0.031573519110679626,
            -0.30240991711616516,
            -0.2672637104988098,
            0.12563371658325195,
            0.43932417035102844,
            -0.12550218403339386,
            0.2821645736694336,
            -0.20497407019138336,
            -0.027730152010917664,
            -0.09404705464839935,
            0.3791670501232147,
            0.0463111437857151,
            0.1376563310623169,
            0.019099611788988113,
            0.20471303164958954,
            -0.04045402258634567,
            -0.24078398942947388,
            -0.40355223417282104,
            0.015456433407962322,
            0.0396401509642601,
            -0.038441114127635956,
            -0.09470462054014206,
            0.04522823542356491,
            0.11658143252134323,
            -0.3281049430370331,
            -0.24004784226417542,
            -0.46224725246429443,
            -0.18706081807613373,
            0.06358309090137482,
            -0.0748315155506134,
            0.19215603172779083,
            -0.08902931213378906,
            0.2865307629108429,
            0.03128506615757942,
            -0.07039814442396164,
            0.3454066514968872,
            -0.4468323290348053,
            0.15351209044456482,
            0.2574373185634613,
            -0.09349273145198822,
            0.1558336466550827,
            0.14076027274131775,
            0.0537538155913353,
            0.19172914326190948,
            -0.011123054660856724,
            0.08993446826934814,
            -0.10897684842348099,
            0.17220772802829742,
            -0.0341670997440815,
            0.13391178846359253,
            0.12818433344364166,
            0.09188875555992126,
            -0.0951000228524208,
            0.07714040577411652,
            -0.012355489656329155,
            0.20752403140068054,
            0.18991461396217346,
            -0.18340760469436646,
            0.13263501226902008,
            0.1462930291891098,
            0.18210378289222717,
            -0.07583505660295486,
            0.0135069964453578,
            -0.056899648159742355,
            0.2455574870109558,
            0.2611776888370514,
            0.30875521898269653,
            0.0566914901137352,
            -0.14202351868152618,
            0.25053390860557556,
            -0.2601189911365509,
            0.2271791249513626,
            0.023937508463859558,
            -0.07106588035821915,
            -0.07641004025936127,
            0.03604651242494583,
            -0.18528568744659424,
            0.16938388347625732,
            0.11477348208427429,
            -0.06938573718070984,
            0.2659323513507843,
            0.19400009512901306,
            0.07752765715122223,
            0.36866235733032227,
            -0.14019730687141418,
            0.004482437390834093,
            0.058856915682554245,
            -0.11203792691230774,
            0.09098359942436218,
            -0.1971208155155182,
            0.28912875056266785,
            -0.12152953445911407,
            0.064763642847538,
            0.23340989649295807,
            -0.06779371947050095,
            0.029429258778691292,
            -0.32771968841552734,
            0.008987121284008026,
            0.130741149187088,
            -0.13212989270687103,
            0.2803609371185303,
            -0.2477477341890335,
            -0.0156437736004591,
            0.278630793094635,
            0.0889841765165329,
            -0.11333959549665451,
            0.026375574991106987,
            0.03279709070920944,
            -0.09137978404760361,
            -0.20153282582759857,
            -0.06535231322050095,
            -0.20635448396205902,
            -0.151567280292511,
            -0.07927460223436356,
            -0.22155912220478058,
            -0.1428195834159851,
            -0.2586810886859894,
            0.13841348886489868,
            -0.28907260298728943,
            -0.2203490436077118,
            0.0034034131094813347,
            -0.06114070862531662,
            -0.1710415780544281,
            -0.2292586714029312,
            -0.029039431363344193,
            -0.16749711334705353,
            -0.09519877284765244,
            -0.10299307107925415,
            -0.12998895347118378,
            -0.17334754765033722,
            -0.04648269712924957,
            -0.24883338809013367,
            -0.15066994726657867,
            -0.08287770301103592,
            -0.22277937829494476,
            0.09719013422727585,
            -0.20958799123764038,
            -0.04092436283826828,
            -0.21736548840999603,
            -0.17110653221607208,
            -0.05167938396334648,
            -0.28814059495925903,
            -0.1869031935930252,
            -0.06757459789514542,
            -0.0296026524156332,
            -0.06547200679779053,
            -0.26996931433677673,
            0.03559865802526474,
            -0.027979731559753418,
            -0.1345808506011963,
            -0.0042439973913133144,
            0.0310518741607666,
            -0.1508045643568039,
            -0.16283568739891052,
            -0.2585187256336212,
            -0.24943289160728455,
            -0.385405957698822,
            -0.2075241357088089,
            -0.03458721563220024,
            -0.15249782800674438,
            -0.05253711715340614,
            0.0918130949139595,
            -0.11821259558200836,
            -0.15481697022914886,
            -0.12470373511314392,
            -0.19918106496334076,
            -0.23545461893081665,
            -0.21777541935443878,
            -0.21181915700435638,
            -0.18099668622016907,
            -0.02193794772028923,
            -0.06887025386095047,
            -0.09266702085733414,
            0.11231271177530289,
            0.009782186709344387,
            0.2932227551937103,
            0.13149896264076233,
            0.08433283120393753,
            0.0028213756158947945,
            0.2235095202922821,
            0.15899355709552765,
            0.07211606949567795,
            0.14568793773651123,
            -0.2721746563911438,
            0.1062525287270546,
            0.18752026557922363,
            0.05147040635347366,
            -0.027092013508081436,
            -0.0006803437718190253,
            -0.19366110861301422,
            0.009738010354340076,
            0.03227619454264641,
            -0.08796878159046173,
            0.12758685648441315,
            0.2026868760585785,
            -0.15155671536922455,
            -0.16371893882751465,
            0.28920939564704895,
            0.22696155309677124,
            0.14929074048995972,
            -0.14784343540668488,
            -0.09145187586545944,
            0.08767934888601303,
            0.05469328165054321,
            0.07208075374364853,
            -0.28175416588783264,
            0.01278887689113617,
            -0.11690361052751541,
            0.13455110788345337,
            0.2895732820034027,
            0.1524331420660019,
            0.0053229061886668205,
            0.11657308042049408,
            0.11133215576410294,
            -0.019938236102461815,
            0.06270437687635422,
            0.19803942739963531,
            -0.19563591480255127,
            0.02259111776947975,
            0.10565492510795593,
            -0.06307104229927063,
            -0.146656796336174,
            0.012754247523844242,
            0.13194601237773895,
            0.03264695778489113,
            -0.013020568527281284,
            0.28206413984298706,
            0.05597247555851936,
            -0.15254317224025726,
            0.2962000370025635,
            0.10807693749666214,
            0.0026990643236786127,
            0.10339193791151047,
            -0.04510382190346718,
            -0.01693478412926197,
            -0.14642924070358276,
            0.10325708240270615,
            0.17894741892814636,
            -0.1851758509874344,
            -0.26345932483673096,
            -0.22277992963790894,
            -0.03901788592338562,
            -0.02134038880467415,
            -0.2623778283596039,
            0.06320419162511826,
            -0.21472357213497162,
            -0.03950720280408859,
            -0.42421454191207886,
            -0.2466920018196106,
            0.028826186433434486,
            0.02015565149486065,
            -0.01769699715077877,
            -0.08070750534534454,
            -0.21688507497310638,
            0.014628848992288113,
            0.27744004130363464,
            -0.24268193542957306,
            -0.2096860557794571,
            -0.06768915802240372,
            0.1080617681145668,
            -0.23259317874908447,
            -0.27657127380371094,
            0.018089205026626587,
            0.105143241584301,
            -0.47796958684921265,
            0.0480194129049778,
            -0.2813061773777008,
            -0.28367307782173157,
            0.11997255682945251,
            -0.10875124484300613,
            0.25444722175598145,
            -0.07704759389162064,
            -0.19643272459506989,
            0.1032625213265419,
            -0.03668350726366043,
            -0.01582498289644718,
            -0.34620678424835205,
            -0.015872051939368248,
            -0.031990695744752884,
            0.23085947334766388,
            -0.2363172322511673,
            -0.13987718522548676,
            -0.09534209966659546,
            0.2741489112377167,
            -0.15058349072933197,
            -0.07654836773872375,
            -0.19086435437202454,
            -0.032125066965818405,
            -0.2949373126029968,
            -0.047182001173496246,
            -0.10752727091312408,
            -0.25845572352409363,
            -0.11335398256778717,
            -0.09113968908786774,
            -0.019945384934544563,
            -0.1085168793797493,
            -0.011787919327616692,
            -0.126727893948555,
            0.2563954293727875,
            -0.22242145240306854,
            0.2122783362865448,
            -0.08114394545555115,
            0.16076704859733582,
            0.004639443941414356,
            0.05999705195426941,
            0.2277725636959076,
            0.2483055740594864,
            0.03475220873951912,
            -0.18109644949436188,
            -0.027722055092453957,
            0.051729846745729446,
            0.11172913014888763,
            0.23138730227947235,
            0.0461101308465004,
            -0.2687112092971802,
            0.2697302997112274,
            0.1944207400083542,
            -0.009857690893113613,
            0.007952026091516018,
            -0.08853105455636978,
            0.33507630228996277,
            0.007427418138831854,
            0.11686649173498154,
            -0.04456322267651558,
            0.3845556080341339,
            0.05830537527799606,
            0.1350996494293213,
            -0.22927281260490417,
            0.26941096782684326,
            -0.07960805296897888,
            -0.2181670069694519,
            0.09413650631904602,
            0.26947101950645447,
            -0.11961904913187027,
            -0.1964782178401947,
            -0.014986524358391762,
            -0.022126277908682823,
            -0.08007395267486572,
            0.058996882289648056,
            -0.04537544026970863,
            0.1204933226108551,
            -0.1182684525847435,
            -0.17331929504871368,
            0.23942038416862488,
            -0.16511572897434235,
            -0.03882830962538719,
            0.04298589006066322,
            0.17128458619117737,
            0.028368517756462097,
            0.22343064844608307,
            0.09889199584722519,
            0.268616646528244,
            0.0435488224029541,
            0.18490801751613617,
            0.12409316748380661,
            -0.028069043532013893,
            0.011677034199237823,
            0.0720195546746254,
            0.1502486914396286,
            0.27791622281074524,
            -0.04377646744251251,
            -0.07913351058959961,
            0.08307377249002457,
            0.07146832346916199,
            0.05555599927902222,
            0.0577474869787693,
            0.01139526255428791,
            -0.023178791627287865,
            -0.09071145951747894,
            0.044639281928539276,
            -0.011297153308987617,
            0.10255802422761917,
            0.11981692910194397,
            -0.06748354434967041,
            -0.1177499070763588,
            -0.19763894379138947,
            -0.08882752060890198,
            0.15165379643440247,
            0.1063729003071785,
            -0.05190028250217438,
            0.07314717769622803,
            -0.039319466799497604,
            -0.1395978480577469,
            -0.13132983446121216,
            0.1079384833574295,
            -0.0654323399066925,
            0.09293614327907562,
            0.02727859653532505,
            -0.12749101221561432,
            -0.0524747408926487,
            0.15059404075145721,
            -0.028095027431845665,
            0.141923725605011,
            0.04787705838680267,
            0.08579438924789429,
            0.03457487374544144,
            0.03347301483154297,
            0.24075107276439667,
            0.003826618194580078,
            -0.022795723751187325,
            -0.12545999884605408,
            -0.023645829409360886,
            0.11561687290668488,
            -0.13879616558551788,
            0.1720399409532547,
            -0.05791335925459862,
            0.06808574497699738,
            0.027697881683707237,
            -0.04874200373888016,
            -0.12835054099559784,
            -0.0832691490650177,
            0.04951736703515053,
            -0.0052917590364813805,
            -0.08516325801610947,
            0.02008078247308731,
            0.10483099520206451,
            -0.1481461226940155,
            0.055056583136320114,
            0.08692879229784012,
            0.08594170212745667,
            -0.19459354877471924,
            -0.18590901792049408,
            0.1390036642551422,
            0.042231883853673935,
            0.1222059428691864,
            0.12767356634140015,
            0.18971703946590424,
            -0.00013013705029152334,
            -0.0299871526658535,
            0.03218137100338936,
            -0.13149280846118927,
            -0.22094318270683289,
            -0.06240236014127731,
            -0.05119651183485985,
            0.014318738132715225,
            -0.18191054463386536,
            -0.11692840605974197,
            -0.24742643535137177,
            0.1122126579284668,
            0.1646963357925415,
            0.22130952775478363,
            0.10293534398078918,
            -0.06247672066092491,
            0.2790676951408386,
            0.25924065709114075,
            -0.14894989132881165,
            -0.2506471574306488,
            -0.08297618478536606,
            0.3644828498363495,
            0.11386415362358093,
            -0.10224263370037079,
            -0.23233579099178314,
            0.22254906594753265,
            -0.10632266104221344,
            0.14778690040111542,
            -0.12961246073246002,
            0.2563316822052002,
            -0.05529440939426422,
            -0.2938285171985626,
            -0.12313421070575714,
            0.04855022206902504,
            0.1623983234167099,
            -0.25818145275115967,
            0.02102755196392536,
            0.07131087779998779,
            -0.16631324589252472,
            0.10485614836215973,
            -0.23693227767944336,
            -0.08095446974039078,
            -0.025479545816779137,
            -0.04728058725595474,
            -0.06406563520431519,
            -0.05089392140507698,
            0.11437775194644928,
            0.01317600067704916,
            -0.07306580990552902,
            0.171841561794281,
            0.05357978492975235,
            0.04075256362557411,
            -0.039052486419677734,
            -0.2828410565853119,
            -0.047347839921712875,
            0.10853426903486252,
            -0.006557237356901169,
            0.1662168800830841,
            -0.2994716167449951,
            0.1594247817993164,
            0.20772936940193176,
            0.007810886017978191,
            0.003283844096586108,
            -0.20725569128990173,
            0.24486148357391357,
            -0.22385993599891663,
            0.12162574380636215,
            -0.09140052646398544,
            0.06807704269886017,
            -0.1295500099658966,
            -0.069521464407444,
            -0.020331749692559242,
            -0.1444409191608429,
            0.10579837113618851,
            -0.07706555724143982,
            0.046963438391685486,
            0.08187008649110794,
            -0.052019890397787094,
            -0.23787520825862885,
            -0.018473951146006584,
            0.17093323171138763,
            -0.039147865027189255,
            -0.06199371814727783,
            -0.021177999675273895,
            -0.16022329032421112,
            0.16097450256347656,
            -0.15801402926445007,
            -0.03781622648239136,
            -0.06242311745882034,
            -0.052745066583156586,
            0.0262831449508667,
            0.07674402743577957,
            0.03545742854475975,
            0.23851391673088074,
            -0.08367399126291275,
            -0.08232618868350983,
            -0.07523366063833237,
            0.09220362454652786,
            0.28048017621040344,
            0.10637139528989792,
            -0.14068931341171265,
            -0.008338497951626778,
            -0.11732078343629837,
            -0.06467842310667038,
            0.18323947489261627,
            -0.0358811616897583,
            0.09181977808475494,
            0.1450972557067871,
            0.10731422901153564,
            0.024457214400172234,
            -0.00552626047283411,
            -0.011554274708032608,
            0.0460771881043911,
            -0.12470237910747528,
            0.08850470930337906,
            0.008992902003228664,
            0.09670376032590866,
            0.01311301440000534,
            -0.10389402508735657,
            -0.19401586055755615,
            0.054321493953466415,
            -0.12745918333530426,
            0.008549350313842297,
            0.11115658283233643,
            0.04960520938038826,
            0.018305407837033272,
            -0.022281691431999207,
            0.11215938627719879,
            -0.02693762816488743,
            0.20146407186985016,
            0.5211888551712036,
            0.11003497242927551,
            -0.2531803548336029,
            0.23881711065769196,
            0.23221507668495178,
            0.37295669317245483,
            -0.18381085991859436,
            -0.18679289519786835,
            -0.14526042342185974,
            -0.07229237258434296,
            -0.02313828282058239,
            -0.004405026324093342,
            0.17620447278022766,
            0.17122343182563782,
            0.4590892791748047,
            -0.06953421980142593,
            0.18770503997802734,
            0.15716123580932617,
            0.3241216540336609,
            0.3400883078575134,
            -0.14305280148983002,
            -0.1454852819442749,
            0.2589125335216522,
            0.15904547274112701,
            -0.21197710931301117,
            0.11707491427659988,
            -0.34266990423202515,
            -0.26296210289001465,
            -0.05261102691292763,
            0.31352585554122925,
            0.4580249786376953,
            0.00992798712104559,
            -0.04480738565325737,
            0.17356877028942108,
            -0.1856081634759903,
            -0.10008107870817184,
            -0.16346681118011475,
            -0.03934444114565849,
            -0.14976103603839874,
            0.013630572706460953,
            0.007147893775254488,
            -0.10515239834785461,
            0.09872408956289291,
            -0.16174910962581635,
            -0.08775489032268524,
            -0.12036355584859848,
            0.18071947991847992,
            0.189517542719841,
            -0.08417049795389175,
            0.292927622795105,
            0.14753851294517517,
            0.41934770345687866,
            0.05871216952800751,
            0.022523006424307823,
            0.4073883295059204,
            -0.21270036697387695,
            -0.030786752700805664,
            0.046414732933044434,
            0.31691768765449524,
            -0.026944078505039215,
            0.3307475745677948,
            0.08942235261201859,
            0.20025232434272766,
            0.008599754422903061,
            0.1716083288192749,
            0.06721162050962448,
            0.35837647318840027,
            -0.10015933215618134,
            0.06946831941604614,
            0.061692409217357635,
            0.14701561629772186,
            0.10036342591047287,
            0.20686353743076324,
            0.12797942757606506,
            -0.16532348096370697,
            0.3208288848400116,
            0.018525732681155205,
            0.03699836507439613,
            0.06817259639501572,
            0.5751504898071289,
            -0.10108279436826706,
            0.24350310862064362,
            -0.06692273914813995,
            0.16434243321418762,
            0.022541066631674767,
            0.12883242964744568,
            -0.06803271174430847,
            0.035481829196214676,
            0.23256386816501617,
            0.16159242391586304,
            0.07401341944932938,
            0.05833763629198074,
            0.044390082359313965,
            0.09099355340003967,
            0.33139222860336304,
            -0.0037344694137573242,
            -0.16966496407985687,
            -0.18098998069763184,
            0.17145709693431854,
            0.07373008131980896,
            0.05470126122236252,
            0.07225460559129715,
            0.00862946081906557,
            0.2372405230998993,
            0.14883776009082794,
            0.0029305885545909405,
            0.007736030966043472,
            0.5031964778900146,
            -0.10188000649213791,
            -0.004279973451048136,
            0.01152037177234888,
            -0.053511690348386765,
            -0.010600565932691097,
            0.14924944937229156,
            0.03778696060180664,
            -0.022036824375391006,
            0.13335630297660828,
            -0.00827505812048912,
            -0.12348940968513489,
            -0.07103817909955978,
            0.13791221380233765,
            0.03713878244161606,
            0.05475497245788574,
            0.05733020603656769,
            -0.12102241069078445,
            -0.018735943362116814,
            -0.04185470566153526,
            -0.19128422439098358,
            0.13598190248012543,
            0.023054614663124084,
            0.027375997975468636,
            -0.30883079767227173,
            -0.04173484444618225,
            -0.06672543287277222,
            0.02437925711274147,
            0.07265204936265945,
            0.03443434089422226,
            -0.11733001470565796,
            0.08279161900281906,
            -0.22858135402202606,
            -0.09064605087041855,
            -0.015927471220493317,
            -0.04646209999918938,
            -0.2676965296268463,
            -0.03145603835582733,
            -0.26464104652404785,
            0.13961029052734375,
            -0.228380024433136,
            -0.056375373154878616,
            0.10480481386184692,
            0.14454348385334015,
            0.1528601050376892,
            -0.1463087797164917,
            -0.28222110867500305,
            0.06384819000959396,
            0.019818536937236786,
            0.058188941329717636,
            -0.07559973746538162,
            -0.10773003101348877,
            0.05298701301217079,
            0.0700279027223587,
            0.07723480463027954,
            0.026991182938218117,
            0.036098662763834,
            0.004527658689767122,
            0.09922338277101517,
            0.15939372777938843,
            0.13872817158699036,
            0.029342971742153168,
            0.1468452662229538,
            0.023702282458543777,
            -0.04609882831573486,
            0.04277060180902481,
            -0.08318737894296646,
            -0.12617884576320648,
            -0.1496341973543167,
            0.07765960693359375,
            -0.15281109511852264,
            0.09864430874586105,
            -0.22203169763088226,
            -0.06163093447685242,
            0.08303231745958328,
            -0.10024861991405487,
            0.03759212791919708,
            -0.20965774357318878,
            -0.16531801223754883,
            -0.10522090643644333,
            -0.04606122151017189,
            0.01254988182336092,
            0.036465585231781006,
            -0.10309503227472305,
            0.061377618461847305,
            -0.06223674491047859,
            -0.16017989814281464,
            -0.12049205601215363,
            -0.27507656812667847,
            0.05787122994661331,
            0.05713319033384323,
            -0.08780749887228012,
            0.06527652591466904,
            0.04408734664320946,
            -0.20853447914123535,
            -0.015731392428278923,
            -0.19903059303760529,
            0.025512726977467537,
            0.07707671076059341,
            -0.279827743768692,
            -0.34040671586990356,
            0.05854484438896179,
            -0.35784515738487244,
            -0.023704925552010536,
            -0.3352236747741699,
            0.071600541472435,
            -0.2813419997692108,
            0.2690971791744232,
            -0.16794145107269287,
            -0.11195534467697144,
            -0.11495154350996017,
            0.07667947560548782,
            -0.2234208583831787,
            0.11120704561471939,
            0.11207245290279388,
            -0.046091604977846146,
            -0.19995753467082977,
            -0.137069970369339,
            0.06406581401824951,
            -0.11996573209762573,
            -0.03588901460170746,
            -0.2088232934474945,
            0.06791242957115173,
            -0.13505157828330994,
            -0.08081655949354172,
            -0.06430894881486893,
            -0.04974222555756569,
            -0.17568883299827576,
            0.19509606063365936,
            -0.16262370347976685,
            0.05585643649101257,
            0.08274955302476883,
            0.0826282799243927,
            0.025821924209594727,
            -0.15549123287200928,
            -0.11004691570997238,
            -0.005772580858319998,
            -0.05250716209411621,
            -0.3089425265789032,
            0.08247841149568558,
            -0.026161128655076027,
            -0.044764336198568344,
            -0.08461468666791916,
            -0.25464847683906555,
            0.27963027358055115,
            0.12136077135801315,
            0.12191949784755707,
            -0.10233335196971893,
            -0.11879166215658188,
            -0.17792627215385437,
            0.10298836976289749,
            0.039786968380212784,
            0.05892374366521835,
            0.17058591544628143,
            -0.1515464335680008,
            0.07027455419301987,
            -0.03417763113975525,
            -0.29840657114982605,
            0.3549954295158386,
            -0.01079798024147749,
            0.18351398408412933,
            -0.15079596638679504,
            -0.11703936010599136,
            -0.198481947183609,
            0.24047152698040009,
            0.15898340940475464,
            -0.20925477147102356,
            0.08581474423408508,
            -0.27011752128601074,
            0.05082347244024277,
            -0.015863530337810516,
            0.04127076640725136,
            0.08612121641635895,
            0.0065885973162949085,
            -0.14792722463607788,
            -0.06416931003332138,
            -0.18273501098155975,
            -0.14045773446559906,
            -0.5820092558860779,
            -0.16890329122543335,
            0.3234797716140747,
            0.07766850292682648,
            0.026874933391809464,
            -0.33581891655921936,
            -0.24590124189853668,
            0.1218523234128952,
            -0.11238852888345718,
            -0.0886843204498291,
            -0.17893362045288086,
            -0.2759569585323334,
            -0.04899754747748375,
            0.2743520140647888,
            0.2388172745704651,
            -0.33694684505462646,
            -0.11674272269010544,
            -0.1072973757982254,
            0.1592857539653778,
            -0.3824697434902191,
            -0.37485745549201965,
            -0.20483094453811646,
            0.033461544662714005,
            -0.24725386500358582,
            -0.0029729953967034817,
            0.00604323111474514,
            -0.15955452620983124,
            0.10455727577209473,
            0.09841382503509521,
            -0.4964585304260254,
            0.2429511845111847,
            -0.20527878403663635,
            0.23968222737312317,
            -0.03879064321517944,
            0.152507483959198,
            -0.03305449336767197,
            -0.13730160892009735,
            0.03570626303553581,
            0.1779792755842209,
            -0.10434447228908539,
            -0.005930012091994286,
            0.13821832835674286,
            -0.04786180332303047,
            0.1651764065027237,
            0.0024575551506131887,
            0.00259208376519382,
            -0.11919215321540833,
            -0.2736123502254486,
            -0.17422111332416534,
            -0.23990438878536224,
            0.024592828005552292,
            -0.14319786429405212,
            0.17702455818653107,
            -0.040930766612291336,
            -0.3278346061706543,
            -0.07644513249397278,
            -0.047696735709905624,
            -0.04845888167619705,
            -0.16457462310791016,
            0.05790198966860771,
            -0.08489757031202316,
            -0.12749601900577545,
            0.039528168737888336,
            -0.12873554229736328,
            0.013968534767627716,
            0.1954323649406433,
            0.06895756721496582,
            0.06393875181674957,
            -0.09698798507452011,
            -0.09219863265752792,
            -0.13288190960884094,
            -0.12923964858055115,
            -0.1444871574640274,
            0.07278691232204437,
            -0.02609446831047535,
            0.09781689941883087,
            0.04661049693822861,
            -0.15008056163787842,
            -0.04585118591785431,
            -0.12254589051008224,
            -0.2743733823299408,
            -0.32371780276298523,
            0.051156505942344666,
            -0.21986813843250275,
            -0.12495163083076477,
            -0.024468209594488144,
            0.011954599991440773,
            -0.31648311018943787,
            -0.15474197268486023,
            -0.11377979815006256,
            -0.2426755726337433,
            0.12814019620418549,
            0.1750224083662033,
            -0.36076968908309937,
            -0.17887713015079498,
            -0.07755376398563385,
            0.07775060087442398,
            0.049815986305475235,
            0.12328261137008667,
            0.10220210254192352,
            -0.06375256180763245,
            -0.014221439138054848,
            0.026798348873853683,
            -0.015408349223434925,
            0.022869937121868134,
            0.13355500996112823,
            -0.01047272514551878,
            0.14568187296390533,
            -0.08951908349990845,
            0.002467115642502904,
            -0.12183333933353424,
            -0.09361063688993454,
            0.21430905163288116,
            -0.1669803261756897,
            -0.014441002160310745,
            -0.035923510789871216,
            -0.18248523771762848,
            0.17025664448738098,
            -0.09038428962230682,
            -0.07446003705263138,
            0.0334622748196125,
            0.11183858662843704,
            -0.19787056744098663,
            0.03505893796682358,
            -0.04580450803041458,
            0.3009757399559021,
            -0.41345569491386414,
            0.006244230549782515,
            0.22663213312625885,
            -0.12503103911876678,
            -0.09267564117908478,
            -0.13018105924129486,
            0.022278882563114166,
            0.03553786873817444,
            0.06874704360961914,
            0.1658640056848526,
            -0.13805967569351196,
            0.11097107827663422,
            -0.2132410854101181,
            -0.15277360379695892,
            0.07456041127443314,
            -0.09649254381656647,
            0.16190370917320251,
            0.08228709548711777,
            -0.15259385108947754,
            -0.0912717953324318,
            -0.02069912664592266,
            -0.1760159730911255,
            -0.10756320506334305,
            -0.016287911683321,
            -0.15984830260276794,
            0.059835027903318405,
            -0.1454259157180786,
            0.062288761138916016,
            0.04659527540206909,
            -0.20804084837436676,
            -0.01686251163482666,
            -0.22906392812728882,
            0.01359670702368021,
            -0.0779389888048172,
            -0.061526015400886536,
            -0.0671299621462822,
            -0.15598702430725098,
            -0.14374743402004242,
            -0.06291776150465012,
            0.07328960299491882,
            -0.2373199611902237,
            -0.13755816221237183,
            -0.2425938844680786,
            -0.027256935834884644,
            -0.0355694480240345,
            -0.1529255211353302,
            -0.08438548445701599,
            -0.31480637192726135,
            0.029332995414733887,
            0.07929393649101257,
            -0.1446811854839325,
            -0.1153622567653656,
            0.07456542551517487,
            -0.06572126597166061,
            0.08004090189933777,
            0.09381086379289627,
            0.00011110352352261543,
            0.020934782922267914,
            0.00469109695404768,
            -0.002823882969096303,
            0.060944944620132446,
            -0.3289634883403778,
            0.09581363946199417,
            0.1730281263589859,
            -0.16483408212661743,
            0.029604243114590645,
            0.08513480424880981,
            -0.03184659406542778,
            0.233088418841362,
            0.17635805904865265,
            0.10053540021181107,
            0.19991503655910492,
            0.015367483720183372,
            -0.0280341487377882,
            0.08292288333177567,
            -0.044950637966394424,
            -0.023430462926626205,
            -0.1154870018362999,
            0.011599070392549038,
            0.09127897769212723,
            0.06531143188476562,
            -0.17151695489883423,
            -0.06714801490306854,
            -0.2349242866039276,
            -0.08725244551897049,
            -0.0268595889210701,
            0.021150395274162292,
            -0.12627921998500824,
            -0.2740112245082855,
            0.09251142293214798,
            -0.02101817913353443,
            -0.02488894760608673,
            -0.021328439936041832,
            0.04377784952521324,
            0.10771618038415909,
            0.0068977996706962585,
            0.23535479605197906,
            0.2622411251068115,
            0.09302113950252533,
            -0.24580912292003632,
            0.3209494650363922,
            0.07597368210554123,
            -0.010370933450758457,
            -0.05342942476272583,
            0.05298585072159767,
            0.003908367361873388,
            -0.04871645197272301,
            0.18086141347885132,
            -0.09558762609958649,
            -0.3685700297355652,
            -0.583156406879425,
            -0.04349519684910774,
            -0.33664634823799133,
            -0.10463981330394745,
            -0.014133453369140625,
            -0.09806327521800995,
            -0.4541492462158203,
            0.1527090221643448,
            0.16027873754501343,
            -0.09873423725366592,
            -0.37984487414360046,
            -0.03938497602939606,
            -0.3564399778842926,
            -0.029271746054291725,
            -0.09111273288726807,
            -0.023773057386279106,
            0.018983211368322372,
