{
    "num_epochs": 40000,
    "batch_size": 1000,
    "final_g_loss": 12.032649040222168,
    "final_d_loss": 0.007411861792206764,
    "generator_learning_rate": 0.0002,
    "discriminator_learning_rate": 0.0005,
    "train_data_exp_dir_path": [
        "/app/data/bpw_configs/bpw_train_data/knee_speed_2.0",
        "/app/data/bpw_configs/bpw_train_data/knee_speed_4.0",
        "/app/data/bpw_configs/bpw_train_data/knee_speed_6.0"
    ],
    "generator": {
        "num_inputs": 3,
        "num_outputs": 100,
        "num_hidden_layers": 1,
        "neurons_per_hidden_layer": 64,
        "hidden_layer_activation_function": "relu",
        "final_layer_activation_function": null,
        "bias": true,
        "weights": [
            1.2008447647094727,
            -0.6503197550773621,
            -0.5079220533370972,
            -0.0049663749523460865,
            0.02859540283679962,
            0.179172545671463,
            -0.1399616301059723,
            0.7427205443382263,
            -0.3563957214355469,
            -1.1469076871871948,
            -2.4519519805908203,
            0.25904446840286255,
            0.183097705245018,
            -0.8323398232460022,
            1.6154146194458008,
            -1.6318198442459106,
            -0.7998288869857788,
            -1.4077069759368896,
            0.19301050901412964,
            -0.22669380903244019,
            -0.37445172667503357,
            -0.5333672761917114,
            -0.4968271255493164,
            -2.088222026824951,
            1.1947710514068604,
            0.4846005439758301,
            0.08290618658065796,
            1.4314115047454834,
            1.305472731590271,
            -1.0946400165557861,
            0.5809156894683838,
            1.6812137365341187,
            -1.150272250175476,
            0.4788181483745575,
            -1.2604401111602783,
            -0.8824803829193115,
            -0.2635197043418884,
            0.3416667878627777,
            0.09000609815120697,
            -1.2443033456802368,
            0.9144304394721985,
            0.15613088011741638,
            -1.6418471336364746,
            -0.3653632700443268,
            2.2252933979034424,
            -0.5147879719734192,
            0.8080754280090332,
            2.7222375869750977,
            0.37607094645500183,
            0.27153682708740234,
            -0.20655538141727448,
            0.4661840498447418,
            0.20145216584205627,
            0.9601648449897766,
            -0.15085063874721527,
            -0.6286135315895081,
            -2.1059963703155518,
            0.8945919275283813,
            -0.8509426712989807,
            -0.8435158729553223,
            0.11187798529863358,
            -2.416132688522339,
            2.529857873916626,
            0.30144116282463074,
            -0.5214729905128479,
            -0.633752703666687,
            -0.8671438097953796,
            0.24428445100784302,
            -1.773697853088379,
            2.1186490058898926,
            -0.37754806876182556,
            -0.9101799726486206,
            0.9416379332542419,
            0.585409939289093,
            -0.8414508104324341,
            -0.6412709951400757,
            -1.6911014318466187,
            -2.485837936401367,
            1.5127017498016357,
            -0.3048202395439148,
            0.47727179527282715,
            1.2216397523880005,
            -1.1402829885482788,
            -0.9645405411720276,
            -1.0279792547225952,
            2.0716230869293213,
            1.6784336566925049,
            0.04556076601147652,
            0.3617449104785919,
            -0.37848079204559326,
            0.0028118204791098833,
            -0.06561245024204254,
            -0.5478060245513916,
            0.25467008352279663,
            2.479541063308716,
            -1.0741039514541626,
            0.07004837691783905,
            -0.15626707673072815,
            -0.4312191903591156,
            0.5469020009040833,
            -0.012556836009025574,
            -0.6477368474006653,
            0.3106325566768646,
            -0.8845488429069519,
            0.028542935848236084,
            0.028746766969561577,
            0.6904597878456116,
            -0.3495277464389801,
            0.2867273986339569,
            -0.0692460760474205,
            -1.2133280038833618,
            -0.5027140378952026,
            -0.781076192855835,
            -0.44312766194343567,
            -1.1540344953536987,
            -1.5782990455627441,
            -0.04422592744231224,
            -1.433782935142517,
            -0.04300704598426819,
            -1.1928273439407349,
            0.829077422618866,
            0.39071089029312134,
            -0.6098589897155762,
            0.3483351469039917,
            0.49063730239868164,
            0.07071536779403687,
            1.4850353002548218,
            -0.38405171036720276,
            0.30965036153793335,
            1.013087511062622,
            1.0613341331481934,
            -0.9228848218917847,
            -0.21618102490901947,
            -1.892492413520813,
            0.8387951254844666,
            -0.05930338054895401,
            -0.7377309799194336,
            -1.8364049196243286,
            0.298508882522583,
            0.40831518173217773,
            -0.031007446348667145,
            0.44770097732543945,
            1.5581679344177246,
            -0.20682750642299652,
            2.320439100265503,
            0.6935757994651794,
            0.1167619526386261,
            1.743281364440918,
            -0.14713294804096222,
            0.7085613012313843,
            0.09273970127105713,
            -1.0837637186050415,
            -1.7538233995437622,
            1.51798677444458,
            -0.11527946591377258,
            0.5820237994194031,
            0.617497444152832,
            2.0273613929748535,
            1.0081897974014282,
            0.8815768361091614,
            1.13715398311615,
            -0.5431804656982422,
            0.7402351498603821,
            1.2890748977661133,
            0.8751790523529053,
            -2.799408435821533,
            1.9652739763259888,
            2.0532338619232178,
            -0.9048969745635986,
            -0.007021013181656599,
            -0.27363455295562744,
            1.49112868309021,
            1.6203914880752563,
            -1.3703714609146118,
            -0.6521092057228088,
            -1.3655602931976318,
            0.46273332834243774,
            -0.009314320050179958,
            -0.9641422033309937,
            -2.1789119243621826,
            0.35298964381217957,
            0.3443167209625244,
            -0.5356143712997437,
            0.5870766043663025,
            -0.3848291039466858,
            -0.041368432343006134,
            -2.2473208904266357,
            -1.3218387365341187,
            -0.44364577531814575,
            -0.05936652794480324,
            -1.1764379739761353,
            -1.6059132814407349,
            0.8550612926483154,
            1.1135255098342896,
            1.56304132938385,
            1.2907030582427979,
            1.568703293800354,
            1.6091935634613037,
            2.1240429878234863,
            1.1673341989517212,
            2.549299716949463,
            1.4301146268844604,
            0.9551568627357483,
            1.9450693130493164,
            1.6320194005966187,
            1.8247430324554443,
            1.7508478164672852,
            1.3858925104141235,
            1.595481514930725,
            2.37916898727417,
            1.3995662927627563,
            1.4088603258132935,
            1.3097366094589233,
            1.6616034507751465,
            1.4205344915390015,
            1.14475417137146,
            1.6971919536590576,
            0.8263589143753052,
            1.3128100633621216,
            0.6269904971122742,
            1.789825677871704,
            1.5269068479537964,
            1.9792847633361816,
            0.8743577599525452,
            1.6112604141235352,
            2.044391393661499,
            2.3141114711761475,
            1.6981663703918457,
            1.1959446668624878,
            1.4713590145111084,
            0.8470041155815125,
            1.3297396898269653,
            1.0380175113677979,
            1.8905447721481323,
            1.403078317642212,
            1.0993908643722534,
            0.8011109232902527,
            0.9309007525444031,
            1.735185146331787,
            2.0052502155303955,
            0.6224285364151001,
            0.837645411491394,
            0.6883347034454346,
            1.6720510721206665,
            1.3917759656906128,
            1.6325844526290894,
            0.48638099431991577,
            1.31813383102417,
            1.7746766805648804,
            0.7739856243133545,
            1.9647542238235474,
            0.9322822690010071,
            1.4548903703689575,
            2.188340425491333,
            1.4241033792495728,
            0.4607948362827301,
            0.1779031902551651,
            -0.07808925211429596,
            0.034852005541324615,
            -0.34387674927711487,
            -0.22619763016700745,
            0.056572139263153076,
            -0.10089518129825592,
            0.040595944970846176,
            0.13969896733760834,
            -0.06473635882139206,
            -0.06884798407554626,
            -0.18307113647460938,
            0.1976722627878189,
            -0.0586404986679554,
            0.12454698979854584,
            0.22226758301258087,
            0.1477297693490982,
            -0.051667023450136185,
            -0.22811205685138702,
            -0.16582810878753662,
            -0.40114694833755493,
            0.08847228437662125,
            -0.30189087986946106,
            -0.015002163127064705,
            -0.02303348481655121,
            0.04335351660847664,
            0.20323780179023743,
            0.05411254242062569,
            -0.19412539899349213,
            -0.14948241412639618,
            -0.14701028168201447,
            -0.5011613368988037,
            -0.12988939881324768,
            0.24826368689537048,
            0.12975439429283142,
            -0.062289003282785416,
            -0.27990642189979553,
            -0.3412138521671295,
            0.05511186271905899,
            -0.35854822397232056,
            -0.1475372612476349,
            0.29813194274902344,
            -0.037226878106594086,
            0.08830717951059341,
            0.11769694089889526,
            -0.09236864000558853,
            0.0815047100186348,
            0.35042062401771545,
            0.2601364254951477,
            -0.16422827541828156,
            0.06034022197127342,
            0.3109075725078583,
            0.3683113157749176,
            0.34557852149009705,
            -0.2157350480556488,
            0.08306892216205597,
            -0.15494224429130554,
            0.0319947823882103,
            0.047292158007621765,
            -0.33448347449302673,
            0.008381346240639687,
            -0.17969121038913727,
            -0.23476313054561615,
            -0.060377392917871475,
            0.18582646548748016,
            -0.21347303688526154,
            -0.31699836254119873,
            -0.0568704754114151,
            -0.1478462666273117,
            0.1967610865831375,
            -0.0973941758275032,
            0.30134907364845276,
            -0.026303404942154884,
            0.13148854672908783,
            0.01137617975473404,
            0.01754108816385269,
            0.1539318710565567,
            0.012351293116807938,
            0.03577597439289093,
            0.1694520115852356,
            -0.05191617086529732,
            0.2120162397623062,
            0.07815539091825485,
            -0.08888754993677139,
            0.029646171256899834,
            0.11366860568523407,
            -0.23987579345703125,
            -0.023465830832719803,
            0.04928586632013321,
            0.3983975052833557,
            0.07535095512866974,
            0.260092556476593,
            0.20148687064647675,
            -0.06432446092367172,
            -0.15499944984912872,
            -0.17418989539146423,
            -0.15903986990451813,
            0.08349558711051941,
            -0.4459514617919922,
            -0.4572097361087799,
            -0.22870178520679474,
            -0.11274203658103943,
            0.2437724471092224,
            -0.07403922080993652,
            -0.29928332567214966,
            -0.11168797314167023,
            -0.08303363621234894,
            -0.10233105719089508,
            0.016023147851228714,
            0.28225016593933105,
            -0.2664356231689453,
            0.09699301421642303,
            0.2793368995189667,
            0.12340082973241806,
            0.2936144173145294,
            0.18092697858810425,
            0.4484352767467499,
            0.21833591163158417,
            0.3754741847515106,
            -0.10937367379665375,
            -0.2803061306476593,
            -0.11848162859678268,
            -0.1359083354473114,
            -0.162698432803154,
            -0.21990638971328735,
            -0.207625612616539,
            -0.1535097062587738,
            0.5198896527290344,
            -0.04300900176167488,
            -0.008502760902047157,
            -0.05638853833079338,
            -0.12873367965221405,
            -0.36015191674232483,
            0.1419759839773178,
            0.3263126313686371,
            0.07441652566194534,
            0.14080838859081268,
            0.09540046751499176,
            0.02646726369857788,
            0.05092991515994072,
            -0.025619564577937126,
            -0.062245287001132965,
            -0.18287494778633118,
            0.19122034311294556,
            -0.027132704854011536,
            0.07233677059412003,
            -0.17069236934185028,
            0.18229129910469055,
            -0.1562982201576233,
            0.18744707107543945,
            0.3181766867637634,
            0.19049318134784698,
            0.15039320290088654,
            -0.11321616172790527,
            0.27497026324272156,
            -0.019003793597221375,
            0.28976741433143616,
            0.17469549179077148,
            0.17651642858982086,
            -0.037068456411361694,
            0.0957389548420906,
            0.16252657771110535,
            0.22502979636192322,
            0.22118216753005981,
            0.1710195541381836,
            0.2231694608926773,
            -0.08627278357744217,
            0.43276897072792053,
            -0.3581991493701935,
            0.1510782688856125,
            -0.046504486352205276,
            0.30824604630470276,
            0.01999197155237198,
            0.03498624265193939,
            0.22478121519088745,
            -0.12320595979690552,
            0.09753867983818054,
            -0.07096816599369049,
            -0.04903063550591469,
            -0.05121135711669922,
            0.061683814972639084,
            0.03791937977075577,
            0.2189062386751175,
            0.08691702038049698,
            0.20302319526672363,
            0.014232909306883812,
            0.19837431609630585,
            -0.05742480233311653,
            0.39671826362609863,
            0.2579902112483978,
            0.25104036927223206,
            -0.2849593162536621,
            -0.08107168227434158,
            0.09368617832660675,
            0.005863935686647892,
            0.03212738409638405,
            -0.11376120150089264,
            0.057446423918008804,
            -0.10538836568593979,
            0.10759897530078888,
            0.0795278325676918,
            -0.15002191066741943,
            0.010299576446413994,
            -0.028257615864276886,
            -0.06092400848865509,
            0.009082741104066372,
            0.16177459061145782,
            0.1852063238620758,
            -0.057762376964092255,
            -0.2952704429626465,
            -0.395135760307312,
            0.14240263402462006,
            0.09867435693740845,
            0.29667359590530396,
            -0.21873784065246582,
            0.0652904063463211,
            0.061673231422901154,
            0.19167061150074005,
            -0.09314823150634766,
            0.2820855379104614,
            0.11300723999738693,
            -0.13949713110923767,
            -0.2515231966972351,
            -0.14569324254989624,
            -0.20822809636592865,
            0.031209208071231842,
            0.05483115091919899,
            -0.06868914514780045,
            0.2206413596868515,
            -0.28684869408607483,
            0.484794020652771,
            -0.22095662355422974,
            0.21035988628864288,
            0.27157512307167053,
            -0.23239904642105103,
            0.12876258790493011,
            0.7062763571739197,
            -0.10147707164287567,
            -0.055216848850250244,
            -0.16869117319583893,
            -0.11999066174030304,
            -0.4997331500053406,
            0.2691808044910431,
            -0.08109476417303085,
            0.21286548674106598,
            -0.23162135481834412,
            -0.12195104360580444,
            0.10561419278383255,
            -0.26365309953689575,
            -0.09011249244213104,
            -0.0707247406244278,
            -0.48505699634552,
            -0.27892839908599854,
            0.0513254851102829,
            -0.24539810419082642,
            -0.09318631142377853,
            0.05480058863759041,
            0.5627256631851196,
            0.06524679064750671,
            -0.42487654089927673,
            -0.27190592885017395,
            0.07120431959629059,
            -0.0678931251168251,
            -0.6401247978210449,
            -0.02379339188337326,
            0.10440855473279953,
            -0.4704039394855499,
            -0.10097916424274445,
            -0.15878717601299286,
            -0.12818631529808044,
            -0.16608116030693054,
            -0.3270668387413025,
            0.06295322626829147,
            0.2160620540380478,
            -0.0012967416550964117,
            -0.11325816065073013,
            -0.6119932532310486,
            -0.009077558293938637,
            -0.1541782021522522,
            -0.10576198995113373,
            -0.2003566473722458,
            -0.4117682874202728,
            -0.2838461399078369,
            -0.5768938660621643,
            -0.26139676570892334,
            0.04637923464179039,
            0.06693299859762192,
            -0.33167433738708496,
            0.006110703106969595,
            -0.11601539701223373,
            0.12050376832485199,
            0.18220701813697815,
            -0.1907035857439041,
            -0.18112514913082123,
            -0.26858702301979065,
            -0.37825313210487366,
            -0.07356008887290955,
            0.18036684393882751,
            0.021752463653683662,
            -0.2152341604232788,
            -0.5332844257354736,
            -0.303296834230423,
            0.30244317650794983,
            -0.05741184949874878,
            -0.3742538094520569,
            0.06327974796295166,
            -0.4994657337665558,
            -0.1340547651052475,
            -0.041159894317388535,
            -0.19875779747962952,
            0.05691846087574959,
            -0.21752411127090454,
            -0.14426201581954956,
            -0.18440546095371246,
            0.19812878966331482,
            -0.08751015365123749,
            -0.42903098464012146,
            0.024464299902319908,
            0.02395525574684143,
            -0.21769531071186066,
            0.10324041545391083,
            0.28485560417175293,
            0.03160282224416733,
            -0.39402395486831665,
            0.012781637720763683,
            -0.19970190525054932,
            0.23969098925590515,
            -0.0771041139960289,
            -0.01835848204791546,
            -0.3593730330467224,
            -0.1864835023880005,
            0.017466990277171135,
            -0.16456422209739685,
            0.19411149621009827,
            0.11053120344877243,
            -0.18863114714622498,
            0.15189819037914276,
            0.20721670985221863,
            0.03602434694766998,
            0.16953657567501068,
            -0.5053855776786804,
            -0.2945605516433716,
            0.08385971188545227,
            -0.1349620372056961,
            -0.16691924631595612,
            -0.21553082764148712,
            0.07997050136327744,
            0.0005918662645854056,
            0.11447590589523315,
            0.028651027008891106,
            0.17685121297836304,
            -0.1071070060133934,
            0.15345323085784912,
            -0.2637483477592468,
            -0.1302454173564911,
            0.32947221398353577,
            0.28099533915519714,
            0.17792634665966034,
            -0.25476202368736267,
            -0.15693697333335876,
            -0.016844969242811203,
            -0.056402914226055145,
            -0.009935431182384491,
            -0.2233451008796692,
            -0.5045397281646729,
            0.0010204861173406243,
            0.024072516709566116,
            -0.19199277460575104,
            -0.0889773890376091,
            0.1376897096633911,
            -0.23056478798389435,
            0.015962963923811913,
            -0.05329250916838646,
            -0.22888557612895966,
            -0.05453617498278618,
            0.07502629607915878,
            0.2947695851325989,
            -0.13654057681560516,
            -0.03104138933122158,
            0.033585622906684875,
            0.030485311523079872,
            0.32355785369873047,
            0.03965989872813225,
            -0.030911242589354515,
            -0.03690413013100624,
            0.08420059084892273,
            -0.17454136908054352,
            -0.008141671307384968,
            0.07854998856782913,
            -0.12403341382741928,
            0.28040608763694763,
            -0.009509493596851826,
            -0.07169552892446518,
            -0.0062671927735209465,
            0.128614142537117,
            0.0381891205906868,
            0.18125003576278687,
            -0.020600207149982452,
            0.2078912854194641,
            0.2716831862926483,
            0.38883090019226074,
            0.042939212173223495,
            0.006327766925096512,
            0.0945993959903717,
            -0.09955527633428574,
            -0.06665950268507004,
            0.08877525478601456,
            0.05211474001407623,
            0.2468244433403015,
            0.06909731775522232,
            -0.037075258791446686,
            0.05137825012207031,
            0.2677338123321533,
            -0.09120617061853409,
            0.08025271445512772,
            0.0983368456363678,
            -0.1067282035946846,
            0.05203620716929436,
            0.06146756932139397,
            -0.004293047823011875,
            -0.20285442471504211,
            -0.06135141849517822,
            0.06316158175468445,
            -0.15822231769561768,
            0.09143137186765671,
            0.13644728064537048,
            -0.005726811476051807,
            0.05993843078613281,
            0.1423966884613037,
            0.03573392331600189,
            -0.0289162565022707,
            0.13306431472301483,
            -0.10779694467782974,
            -0.036203328520059586,
            -0.0013893276918679476,
            -0.14997105300426483,
            -0.004716262221336365,
            0.11973228305578232,
            -0.03584883362054825,
            0.12360821664333344,
            0.21886666119098663,
            0.22811445593833923,
            0.07055294513702393,
            -0.2009778618812561,
            -0.06360422819852829,
            0.052379850298166275,
            -0.43566614389419556,
            0.07454900443553925,
            0.40537121891975403,
            0.11063245683908463,
            0.21232382953166962,
            0.08921345323324203,
            0.23244862258434296,
            -0.29674264788627625,
            0.35254713892936707,
            -0.3076149523258209,
            0.061167649924755096,
            0.10955168306827545,
            -0.3771446943283081,
            0.06732377409934998,
            -0.13721315562725067,
            0.11663316935300827,
            -0.009924942627549171,
            -0.1713571846485138,
            0.2227136343717575,
            0.012816566973924637,
            -0.04904858022928238,
            0.021953003481030464,
            0.1476849615573883,
            -0.03242218494415283,
            0.14561276137828827,
            0.21582962572574615,
            -0.0493914820253849,
            -0.329658567905426,
            -0.20369023084640503,
            -0.08033998310565948,
            -0.030270200222730637,
            0.16720253229141235,
            0.03861676901578903,
            -0.3515392243862152,
            0.24629513919353485,
            -0.3270622491836548,
            0.3225706219673157,
            -0.09923342615365982,
            0.04313821345567703,
            -0.06025242060422897,
            -0.24022051692008972,
            0.2138947993516922,
            0.2706526517868042,
            0.09250427037477493,
            0.05453932285308838,
            -0.16835789382457733,
            -0.07275380194187164,
            -0.17990532517433167,
            0.11519388109445572,
            -0.2545792758464813,
            -0.10733149945735931,
            0.156581312417984,
            -0.11570301651954651,
            -0.1507127583026886,
            -0.3995628356933594,
            -0.5344805121421814,
            0.030933057889342308,
            -0.15344467759132385,
            0.05861431732773781,
            0.12798944115638733,
            0.10142111033201218,
            -0.08072452992200851,
            -0.037840429693460464,
            0.11788143217563629,
            0.017132587730884552,
            -0.08001367747783661,
            0.20184631645679474,
            -0.02066747285425663,
            0.17840483784675598,
            -0.14609524607658386,
            -0.03925135359168053,
            -0.030230674892663956,
            -0.021118352189660072,
            -0.041913945227861404,
            -0.10630793869495392,
            -0.15581528842449188,
            0.12847387790679932,
            0.1694079339504242,
            -0.04648629203438759,
            0.044381048530340195,
            -0.012724882923066616,
            -0.028135202825069427,
            0.010092935524880886,
            0.08565826714038849,
            -0.03722048178315163,
            0.20467829704284668,
            0.08606747537851334,
            0.037320930510759354,
            0.07480887323617935,
            0.08173920959234238,
            -0.013788572512567043,
            0.00042135757394135,
            -0.0860716849565506,
            0.059132982045412064,
            0.049811072647571564,
            -0.21716520190238953,
            0.008274504914879799,
            0.07768256962299347,
            -0.0056869592517614365,
            -0.006624084431678057,
            0.1626749485731125,
            -0.09754675626754761,
            -0.060768116265535355,
            0.04300469905138016,
            -0.07997464388608932,
            -0.04795350134372711,
            -0.2325408160686493,
            0.16907383501529694,
            -0.054729945957660675,
            0.1325487494468689,
            -0.07816290110349655,
            -0.0041766841895878315,
            0.019158080220222473,
            -0.06203962862491608,
            -0.31337276101112366,
            -0.18166205286979675,
            -0.1640782207250595,
            -0.11298839747905731,
            -0.1678452491760254,
            -0.01256114523857832,
            -0.31797724962234497,
            -0.0993991568684578,
            0.10443786531686783,
            0.00922476127743721,
            0.038068871945142746,
            -0.006767205893993378,
            0.10645926743745804,
            0.10986488312482834,
            -0.09437091648578644,
            -0.1213146299123764,
            -0.0769481360912323,
            0.030812764540314674,
            0.025065407156944275,
            0.18086153268814087,
            0.048040200024843216,
            -0.15612399578094482,
            0.15794923901557922,
            0.16796603798866272,
            0.11826367676258087,
            -0.004468022380024195,
            0.2120010405778885,
            0.17267389595508575,
            0.14453408122062683,
            0.0920763686299324,
            0.035510580986738205,
            0.06949210911989212,
            0.23311950266361237,
            -0.05170474201440811,
            0.21066604554653168,
            0.20982058346271515,
            -0.023317057639360428,
            -0.22076676785945892,
            0.11506994068622589,
            -0.34657806158065796,
            -0.1356305032968521,
            0.12461016327142715,
            0.13757002353668213,
            -0.18024098873138428,
            0.12463381141424179,
            -0.05428167060017586,
            0.16730497777462006,
            -0.014418074861168861,
            -0.04747907817363739,
            -0.03821992874145508,
            -0.1352941393852234,
            -0.06704544275999069,
            0.02004418708384037,
            -0.011027025990188122,
            0.023037949576973915,
            0.009382913820445538,
            0.0657050833106041,
            0.01777399517595768,
            -0.014651338569819927,
            -0.19174838066101074,
            0.22881220281124115,
            0.28715890645980835,
            0.16272348165512085,
            0.17699521780014038,
            -0.19575154781341553,
            -0.03881259262561798,
            -0.20905712246894836,
            0.16196554899215698,
            -0.03265742212533951,
            0.16722089052200317,
            0.09744937717914581,
            0.04890073463320732,
            0.0929630920290947,
            -0.0670943632721901,
            -0.20706519484519958,
            -0.07066970318555832,
            -0.15375451743602753,
            0.1761580854654312,
            -0.23874962329864502,
            0.3726736903190613,
            -0.08605396002531052,
            -0.009560950100421906,
            0.11722265183925629,
            0.14897190034389496,
            -0.07024365663528442,
            -0.0067351385951042175,
            0.07086178660392761,
            0.01411787886172533,
            0.0494084469974041,
            0.06768468022346497,
            -0.10985410958528519,
            0.07754438370466232,
            -0.061140868812799454,
            0.1252886801958084,
            -0.07672212272882462,
            -0.09430162608623505,
            0.19963952898979187,
            -0.05719175562262535,
            -0.004601288121193647,
            0.1054169088602066,
            0.0800611674785614,
            0.053701117634773254,
            -0.09417123347520828,
            -0.006605036556720734,
            0.029008807614445686,
            0.017901813611388206,
            -0.0895867794752121,
            0.035632338374853134,
            0.1104767769575119,
            -0.0887160450220108,
            0.16566255688667297,
            0.09586983919143677,
            -0.0640101432800293,
            0.037550561130046844,
            0.0414605513215065,
            0.009860687889158726,
            0.09225573390722275,
            0.08287134021520615,
            -0.01686987839639187,
            0.08771722763776779,
            0.213322252035141,
            -0.02237340435385704,
            -0.19072817265987396,
            0.08151409029960632,
            -0.010928422212600708,
            -0.041354700922966,
            0.17222552001476288,
            -0.18635107576847076,
            0.07096309959888458,
            -0.14604084193706512,
            0.007220935542136431,
            -0.09523636847734451,
            0.122959665954113,
            0.02387542836368084,
            0.20217262208461761,
            0.20562118291854858,
            0.006864107679575682,
            -0.06331849843263626,
            0.044660784304142,
            -0.0845419317483902,
            0.11463310569524765,
            0.19454507529735565,
            0.07433252781629562,
            0.09340643137693405,
            0.14290866255760193,
            0.2362976372241974,
            0.01308506354689598,
            -0.12283472716808319,
            0.012161278165876865,
            -0.10919024050235748,
            0.17194558680057526,
            -0.0886484757065773,
            0.18836699426174164,
            -0.09353616833686829,
            -0.19609291851520538,
            -0.10982329398393631,
            0.08310183137655258,
            0.18649140000343323,
            0.28965744376182556,
            0.02649395540356636,
            0.014382203109562397,
            0.30171695351600647,
            0.11823727190494537,
            -0.20683203637599945,
            -0.19648097455501556,
            -0.18741224706172943,
            0.3284861445426941,
            0.07769256830215454,
            -0.14719748497009277,
            -0.14822253584861755,
            0.12292133271694183,
            -0.13164880871772766,
            0.062156181782484055,
            0.10844825208187103,
            0.1921602338552475,
            -0.2564608156681061,
            0.07340606302022934,
            -0.049555666744709015,
            -0.11324696987867355,
            0.24076321721076965,
            0.09122302383184433,
            0.15103468298912048,
            -0.047035835683345795,
            0.29401448369026184,
            0.020266763865947723,
            0.00262840767391026,
            -0.0939716324210167,
            0.05912191420793533,
            -0.13834863901138306,
            -0.13330568373203278,
            -0.023671722039580345,
            -0.029200337827205658,
            0.034079890698194504,
            0.04490537568926811,
            -0.18007171154022217,
            -0.12765741348266602,
            -0.2526725232601166,
            0.030878877267241478,
            -0.2741107940673828,
            0.3336673378944397,
            0.2231784462928772,
            -0.15204760432243347,
            -0.13517586886882782,
            0.17134174704551697,
            -0.11820013076066971,
            0.005490632262080908,
            0.3211224377155304,
            0.09669151157140732,
            0.04475446417927742,
            0.2973880469799042,
            0.26099130511283875,
            -0.10924812406301498,
            -0.14859214425086975,
            -0.07656887173652649,
            -0.014041189104318619,
            0.1787920892238617,
            0.2077627032995224,
            0.006163806654512882,
            0.030975084751844406,
            0.09677447378635406,
            0.11229551583528519,
            -0.0847996398806572,
            0.16341914236545563,
            0.16964159905910492,
            -0.0619877427816391,
            0.09508288651704788,
            0.05760427191853523,
            -0.18599621951580048,
            -0.10998065024614334,
            0.13417424261569977,
            -0.10800445824861526,
            0.14194682240486145,
            -0.0629286915063858,
            -0.1627403050661087,
            0.10829956084489822,
            -0.09839694947004318,
            0.11371278017759323,
            0.14672739803791046,
            -0.08359307050704956,
            -0.20697139203548431,
            -0.005842217709869146,
            -0.012199582532048225,
            -0.28329741954803467,
            0.1220180094242096,
            0.014463391155004501,
            -0.2770392894744873,
            -0.02904009260237217,
            -0.17808333039283752,
            0.142918661236763,
            0.08455836027860641,
            0.12226565927267075,
            -0.11742142587900162,
            0.01413746178150177,
            0.06389405578374863,
            0.21513231098651886,
            0.07779892534017563,
            0.18735314905643463,
            0.23236683011054993,
            0.0749812051653862,
            0.18158550560474396,
            0.3593269884586334,
            0.05483747273683548,
            -0.019506966695189476,
            -0.004575853701680899,
            -0.14461401104927063,
            0.038931481540203094,
            -0.1971713751554489,
            -0.25375425815582275,
            0.08868415653705597,
            0.1597168892621994,
            -0.1278747320175171,
            0.1270294338464737,
            -0.025516092777252197,
            0.2628016471862793,
            0.29331517219543457,
            0.0509764738380909,
            0.002956935903057456,
            -0.07486521452665329,
            -0.1405320018529892,
            -0.0602012500166893,
            0.020634757354855537,
            -0.23718909919261932,
            -0.39761286973953247,
            0.07990898936986923,
            -0.018173297867178917,
            -0.05313475802540779,
            0.05546925961971283,
            0.16481442749500275,
            0.015233815647661686,
            0.09026045352220535,
            -0.002712931949645281,
            -0.032376501709222794,
            -0.12434228509664536,
            -0.05151772126555443,
            0.16883857548236847,
            0.026454884558916092,
            -0.07217275351285934,
            -0.07496634870767593,
            0.11371837556362152,
            -0.027293924242258072,
            -0.05104300007224083,
            0.10415096580982208,
            0.09322713315486908,
            -0.2794794738292694,
            -0.06405091285705566,
            0.062102172523736954,
            -0.24761298298835754,
            0.027442272752523422,
            0.1183839812874794,
            -0.12114375829696655,
            -0.12775327265262604,
            -0.0596909336745739,
            0.014414846897125244,
            0.19835074245929718,
            -0.10793343931436539,
            -0.07759399712085724,
            0.005186178255826235,
            0.14414778351783752,
            0.0697876513004303,
            0.10826187580823898,
            0.21298864483833313,
            0.07354874163866043,
            0.026109546422958374,
            -0.14845816791057587,
            0.16174942255020142,
            0.0387817807495594,
            0.01957661099731922,
            0.16571277379989624,
            0.00934012234210968,
            0.13959868252277374,
            0.1907091587781906,
            -0.01941165141761303,
            0.03592827171087265,
            -0.04857824370265007,
            0.15731486678123474,
            0.06624097377061844,
            -0.04179111868143082,
            0.33236363530158997,
            -0.07605069130659103,
            -0.21270804107189178,
            0.14225055277347565,
            -0.14810654520988464,
            -0.2019321322441101,
            0.1555303931236267,
            -0.09009362012147903,
            -0.013447356410324574,
            0.10249292850494385,
            -0.03294609114527702,
            -0.009518150240182877,
            -0.04366534203290939,
            0.04629892110824585,
            0.31472206115722656,
            -0.15313224494457245,
            0.16059374809265137,
            0.048276305198669434,
            -0.13918577134609222,
            0.20567207038402557,
            0.22299504280090332,
            0.020306965336203575,
            0.23866567015647888,
            -0.13269808888435364,
            0.14282214641571045,
            0.08105340600013733,
            0.44777756929397583,
            -0.029526343569159508,
            -0.13027435541152954,
            -0.19360560178756714,
            -0.11044155806303024,
            0.0552404448390007,
            0.03967971354722977,
            -0.04628521949052811,
            -0.03080165386199951,
            -0.11980830878019333,
            -0.23581746220588684,
            0.08663937449455261,
            0.0006456492119468749,
            -0.36992889642715454,
            0.02698030136525631,
            0.0906844362616539,
            -0.04636886343359947,
            0.18148358166217804,
            0.06867650896310806,
            -0.09217797219753265,
            0.0005384217947721481,
            0.3661591410636902,
            0.2454768717288971,
            0.03212698921561241,
            0.43830645084381104,
            0.2094198316335678,
            0.1209932416677475,
            0.053165920078754425,
            0.03986391797661781,
            -0.020758789032697678,
            -0.24942176043987274,
            0.27334916591644287,
            0.12490109354257584,
            -0.08279883116483688,
            -0.2259330153465271,
            0.25288116931915283,
            -0.06348586082458496,
            0.08642582595348358,
            -0.19871404767036438,
            0.07742704451084137,
            -0.22444655001163483,
            0.12812507152557373,
            -0.010770915076136589,
            -0.02031024359166622,
            0.13108418881893158,
            0.09089970588684082,
            -0.26281800866127014,
            0.20186176896095276,
            0.07477227598428726,
            0.056749604642391205,
            0.16455921530723572,
            0.1368531882762909,
            0.2734019458293915,
            -0.07073933631181717,
            0.24496082961559296,
            -0.21307025849819183,
            -0.1405821591615677,
            0.09333876520395279,
            0.09531283378601074,
            -0.25415337085723877,
            -0.08432503789663315,
            -0.035783831030130386,
            -0.07666797190904617,
            -0.044182635843753815,
            -0.04455180838704109,
            0.12112177908420563,
            -0.02791021391749382,
            0.08067043125629425,
            0.1738356500864029,
            -0.020846694707870483,
            0.05031223222613335,
            -0.0011969032930210233,
            0.04896649345755577,
            -0.17806629836559296,
            -0.18334047496318817,
            -0.1230737641453743,
            -0.16537734866142273,
            -0.13475292921066284,
            -0.07311950623989105,
            0.0055066440254449844,
            0.20312277972698212,
            0.16039924323558807,
            0.019253704696893692,
            0.06998545676469803,
            0.11816518753767014,
            -0.27896803617477417,
            -0.12488430738449097,
            -0.16123946011066437,
            0.15713690221309662,
            -0.007899251766502857,
            0.22798694670200348,
            -0.13668233156204224,
            0.15480032563209534,
            -0.1699141412973404,
            0.0038360999897122383,
            -0.16466134786605835,
            -0.24239961802959442,
            0.18837739527225494,
            -0.047492362558841705,
            -0.18240612745285034,
            0.038139842450618744,
            -0.3751591444015503,
            0.024785324931144714,
            0.035707466304302216,
            -0.1619068831205368,
            -0.01767825521528721,
            -0.17326705157756805,
            -0.03554448112845421,
            -0.15965689718723297,
            0.23675677180290222,
            0.04876881465315819,
            0.0017142530996352434,
            0.037561118602752686,
            0.11722809821367264,
            0.09938815236091614,
            0.0077926600351929665,
            0.23743747174739838,
            0.0746879056096077,
            0.0006071582320146263,
            -0.0020692916586995125,
            -0.18149703741073608,
            -0.016660749912261963,
            -0.1662464141845703,
            -0.18781238794326782,
            -0.15408433973789215,
            0.026404907926917076,
            -0.166905477643013,
            0.15702222287654877,
            -0.41712233424186707,
            -0.07545070350170135,
            0.06143030896782875,
            0.10719253122806549,
            0.13801763951778412,
            0.058405764400959015,
            -0.043294940143823624,
            -0.20404209196567535,
            -0.06610659509897232,
            -0.18192875385284424,
            -0.10086803883314133,
            0.013858308084309101,
            -0.21159334480762482,
            0.11296869814395905,
            -0.07085994631052017,
            -0.22187019884586334,
            -0.006902451626956463,
            -0.26322945952415466,
            -0.20995409786701202,
            0.09604791551828384,
            0.10809361189603806,
            -0.012726129963994026,
            0.11031823605298996,
            -0.21416939795017242,
            0.10819042474031448,
            0.11790280789136887,
            0.18536490201950073,
            -0.0014282285701483488,
            -0.06560397893190384,
            -0.23928086459636688,
            0.04995599016547203,
            -0.19596336781978607,
            -0.1303846538066864,
            0.32322320342063904,
            0.09573937207460403,
            -0.06303375214338303,
            -0.11737756431102753,
            -0.09768685698509216,
            0.09636228531599045,
            0.17924144864082336,
            -0.2836328148841858,
            -0.01030421257019043,
            0.019175857305526733,
            0.04211297258734703,
            0.15167556703090668,
            -0.13757719099521637,
            -0.02869298681616783,
            0.05205057933926582,
            -0.023818334564566612,
            0.08905553817749023,
            0.0953788161277771,
            -0.010962408035993576,
            -0.29048672318458557,
            -0.2506023049354553,
            -0.2257276177406311,
            0.05034247785806656,
            -0.07494957745075226,
            -0.07587829232215881,
            0.18154801428318024,
            0.24777129292488098,
            -0.30836382508277893,
            0.16333679854869843,
            -0.10314850509166718,
            -0.03592999652028084,
            -0.11109268665313721,
            0.054155055433511734,
            0.2526576519012451,
            -0.03245553746819496,
            0.08134762942790985,
            0.07408489286899567,
            0.12317351251840591,
            -0.19515971839427948,
            0.1424349546432495,
            0.061735689640045166,
            -0.28705066442489624,
            0.12111113965511322,
            0.01576555334031582,
            -0.14993849396705627,
            -0.07963316887617111,
            -0.004869944415986538,
            0.11730341613292694,
            -0.04612913355231285,
            -0.0780554711818695,
            -0.07022734731435776,
            0.1932220309972763,
            -0.07947249710559845,
            -0.24117407202720642,
            0.05147342383861542,
            0.04593179374933243,
            -0.08764965832233429,
            0.07738080620765686,
            0.03527175262570381,
            0.14059127867221832,
            0.1682405322790146,
            -0.03638335317373276,
            -0.1227402314543724,
            -0.029201850295066833,
            -0.002040263032540679,
            0.04642656072974205,
            -0.053019408136606216,
            -0.1913425624370575,
            0.024934684857726097,
            -0.05409955233335495,
            0.12305457890033722,
            0.0015128978993743658,
            0.27479222416877747,
            -0.04852400720119476,
            0.10440356284379959,
            -0.12114129215478897,
            0.1473229080438614,
            -0.12009857594966888,
            -0.2555592954158783,
            -0.03027392365038395,
            0.11652515828609467,
            -0.08198298513889313,
            -0.07090964913368225,
            -0.12739750742912292,
            0.1237410455942154,
            0.12299555540084839,
            0.023187056183815002,
            -0.14643977582454681,
            0.055165018886327744,
            0.19629427790641785,
            -0.1467629075050354,
            -0.00048794763279147446,
            0.008840063586831093,
            -0.1348177194595337,
            0.2873564660549164,
            0.07645051181316376,
            -0.10028139501810074,
            0.030231308192014694,
            -0.1334277093410492,
            -0.08348947018384933,
            0.0773531123995781,
            -0.05077516660094261,
            0.05942373350262642,
            -0.0810113251209259,
            -0.2987706661224365,
            -0.12250389903783798,
            -0.10993214696645737,
            -0.2687171995639801,
            0.022825896739959717,
            -0.05172146111726761,
            0.08134517073631287,
            0.12710271775722504,
            -0.09361816197633743,
            0.02023228071630001,
            -0.06876111775636673,
            0.14868682622909546,
            0.24541212618350983,
            0.32019394636154175,
            -0.16890540719032288,
            0.05045859515666962,
            0.28522810339927673,
            0.13493269681930542,
            -0.07380291819572449,
            -0.14232589304447174,
            -0.08795692771673203,
            -0.1496315896511078,
            0.16822002828121185,
            0.12188336998224258,
            -0.11289484053850174,
            0.07439687103033066,
            -0.07338359951972961,
            -0.13158167898654938,
            0.17511124908924103,
            -0.056989636272192,
            0.0841822698712349,
            -0.06566742807626724,
            0.4062134325504303,
            -0.11965449899435043,
            -0.01870035007596016,
            -0.09812314808368683,
            0.1364193707704544,
            0.14190225303173065,
            0.1023252010345459,
            0.005891951732337475,
            -0.13882337510585785,
            0.09091026335954666,
            -0.008953271433711052,
            -0.087607242166996,
            -0.040983933955430984,
            0.06831309199333191,
            -0.1888563334941864,
            0.3453238010406494,
            0.09850562363862991,
            -0.06565587967634201,
            0.10387303680181503,
            -0.032415587455034256,
            0.15453161299228668,
            -0.03996019810438156,
            0.18204300105571747,
            -0.14628775417804718,
            0.06306006759405136,
            -0.1654047966003418,
            -0.11386231333017349,
            0.11796148121356964,
            -0.0649917870759964,
            0.13284234702587128,
            -0.02889407053589821,
            -0.08047842234373093,
            -0.1391746550798416,
            -0.14567185938358307,
            0.0003924845368601382,
            0.14835061132907867,
            0.1452549546957016,
            0.01624204032123089,
            0.16641490161418915,
            0.011735806241631508,
            0.2172146737575531,
            0.00031430108356289566,
            0.2893887162208557,
            0.024993794038891792,
            -0.10438737273216248,
            0.20501042902469635,
            -0.252186119556427,
            0.058677081018686295,
            0.05611831322312355,
            0.17705073952674866,
            0.020764121785759926,
            -0.29391932487487793,
            -0.3888718783855438,
            -0.013795152306556702,
            -0.14589513838291168,
            0.09719626605510712,
            0.19193780422210693,
            0.07284332066774368,
            -0.1495935171842575,
            -0.16016122698783875,
            0.044354069977998734,
            0.13422240316867828,
            -0.04923120513558388,
            0.02367064170539379,
            0.019861850887537003,
            0.0014903619885444641,
            0.04173985868692398,
            -0.35094594955444336,
            -0.0033720426727086306,
            0.1542302966117859,
            0.049852337688207626,
            -0.028454598039388657,
            -0.046746645122766495,
            -0.1702934354543686,
            -0.016867106780409813,
            0.09837406873703003,
            -0.007344633806496859,
            0.03316616639494896,
            -0.14052271842956543,
            -0.19122467935085297,
            -0.03865736350417137,
            -0.001694649225100875,
            0.04760144278407097,
            0.006263541057705879,
            -0.05445238575339317,
            -0.3231752812862396,
            0.10258816927671432,
            -0.24316902458667755,
            -0.30461499094963074,
            -0.005008527543395758,
            0.17982906103134155,
            -0.0957331508398056,
            0.13975434005260468,
            0.04981764405965805,
            0.24499325454235077,
            -0.04684876278042793,
            -0.049651313573122025,
            0.10181629657745361,
            0.04330206289887428,
            0.06667374074459076,
            -0.2292422354221344,
            0.16270701587200165,
            -0.24324242770671844,
            0.245461568236351,
            0.1860399842262268,
            -0.2510063052177429,
            0.15674185752868652,
            -0.03829514607787132,
            -0.13545763492584229,
            -0.13656708598136902,
            -0.15307943522930145,
            0.05137760564684868,
            -0.1317039281129837,
            0.09273876994848251,
            -0.3708052933216095,
            -0.29280975461006165,
            0.002877236809581518,
            0.1514853835105896,
            0.3551744520664215,
            -0.11104525625705719,
            -0.15237228572368622,
            0.03317359834909439,
            0.031562600284814835,
            -0.3843088448047638,
            -0.2779313623905182,
            0.18662334978580475,
            -0.0239808801561594,
            -0.14214277267456055,
            -0.334474116563797,
            -0.07691878080368042,
            -0.374277800321579,
            0.05155840888619423,
            0.21577797830104828,
            -0.12394298613071442,
            -0.11658073961734772,
            -0.054149579256772995,
            -0.021106034517288208,
            0.049265626817941666,
            -0.34765470027923584,
            -0.04631931707262993,
            -0.17991620302200317,
            -0.08630885183811188,
            -0.471391499042511,
            -0.004762202966958284,
            -0.16978015005588531,
            -0.12693533301353455,
            -0.28003767132759094,
            -0.12227519601583481,
            0.08780639618635178,
            0.1501530408859253,
            0.07590159773826599,
            0.39387816190719604,
            -0.13203489780426025,
            0.14965832233428955,
            -0.2708621025085449,
            0.14748162031173706,
            -0.1696712076663971,
            0.32426944375038147,
            0.00970837939530611,
            -0.05997946858406067,
            0.10440383106470108,
            -0.23476946353912354,
            0.059276219457387924,
            0.1149166002869606,
            0.24720355868339539,
            0.0706842839717865,
            -0.0975201353430748,
            0.12371949106454849,
            0.04467347264289856,
            -0.02257283218204975,
            -0.04384878650307655,
            0.25304606556892395,
            -0.0168945100158453,
            -0.160707026720047,
            0.3105022609233856,
            0.10910707712173462,
            0.2921406626701355,
            0.06728175282478333,
            0.3124465048313141,
            0.04293534904718399,
            -0.16578298807144165,
            -0.44880950450897217,
            -0.01047549583017826,
            -0.394807368516922,
            0.12496757507324219,
            0.18284043669700623,
            -0.1613440066576004,
            -0.061189718544483185,
            -0.07309074699878693,
            0.04107186943292618,
            -0.2434612214565277,
            0.207824245095253,
            -0.07576914876699448,
            -0.17873497307300568,
            -0.22061946988105774,
            0.1721685379743576,
            -0.11046142131090164,
            -0.0882594957947731,
            -0.021402087062597275,
            0.11957003176212311,
            -0.013522332534193993,
            -0.06431379169225693,
            -0.07152379304170609,
            0.09261283278465271,
            -0.23953111469745636,
            0.11366628110408783,
            -0.1145610436797142,
            -0.1360851228237152,
            0.29096952080726624,
            -0.051005102694034576,
            -0.3934420943260193,
            -0.07820960879325867,
            -0.1068425104022026,
            0.25709328055381775,
            0.15691415965557098,
            0.27591651678085327,
            -0.31170201301574707,
            -0.21556156873703003,
            -0.2541442811489105,
            -0.01563999615609646,
            -0.3353571593761444,
            -0.06794452667236328,
            -0.035693638026714325,
            -0.1725967526435852,
            -0.21762503683567047,
            -0.027413373813033104,
            0.46208301186561584,
            -0.34396669268608093,
            -0.0014740426559001207,
            -0.14527453482151031,
            0.00045570352813228965,
            -0.19189295172691345,
            0.4575507640838623,
            -0.06755832582712173,
            -0.06376084685325623,
            -0.12375377118587494,
            0.03725680708885193,
            0.13172009587287903,
            0.2801150977611542,
            0.013502626679837704,
            -0.001706432201899588,
            0.0038575362414121628,
            -0.17875739932060242,
            -0.01367118488997221,
            -0.052474167197942734,
            -0.011391330510377884,
            0.1361377239227295,
            -0.20434431731700897,
            0.017175007611513138,
            -0.02330617792904377,
            -0.02983309142291546,
            0.000492681807372719,
            0.16557028889656067,
            -0.4132102131843567,
            0.07432550191879272,
            0.151127889752388,
            0.05507928133010864,
            0.10270503163337708,
            -0.00018247985281050205,
            -0.034227024763822556,
            0.04923975467681885,
            0.2535444498062134,
            0.2826833426952362,
            -0.14381054043769836,
            -0.1915414184331894,
            0.055006902664899826,
            0.005645267199724913,
            -0.09951325505971909,
            0.15685045719146729,
            0.09680373966693878,
            -0.2579759657382965,
            0.04938574880361557,
            0.20834679901599884,
            0.05764772742986679,
            0.20427370071411133,
            0.027742983773350716,
            0.04474366456270218,
            -0.18864315748214722,
            -0.32837986946105957,
            -0.43066564202308655,
            0.04687611386179924,
            -0.07054844498634338,
            -0.15665282309055328,
            0.4490545094013214,
            0.05815897136926651,
            -0.14304405450820923,
            0.022275129333138466,
            -0.22020363807678223,
            0.043806783854961395,
            0.08745859563350677,
            -0.07996927946805954,
            -0.0439663790166378,
            0.09357146173715591,
            0.2477661818265915,
            -0.2522471249103546,
            0.37022289633750916,
            0.22677341103553772,
            -0.017833996564149857,
            -0.24617749452590942,
            -0.01735561713576317,
            0.05581861361861229,
            -0.22368700802326202,
            -0.15574808418750763,
            -0.26636406779289246,
            -0.023095032200217247,
            -0.17650793492794037,
            -0.10030177980661392,
            0.055033888667821884,
            0.16089744865894318,
            -0.03706945478916168,
            0.13492931425571442,
            -0.15909667313098907,
            0.11293209344148636,
            0.14514967799186707,
            -0.05740136280655861,
            -0.23097611963748932,
            0.1518721580505371,
            -0.24100570380687714,
            -0.13250017166137695,
            -0.43404412269592285,
            0.018206818029284477,
            -0.4522288739681244,
            0.16849806904792786,
            -0.3778398931026459,
            0.17555281519889832,
            -0.04399125650525093,
            -0.2094457447528839,
            0.2199261337518692,
            -0.3229299485683441,
            0.30702024698257446,
            0.4073837399482727,
            0.13619810342788696,
            -0.16170184314250946,
            0.17144626379013062,
            0.28622591495513916,
            0.15213629603385925,
            -0.06155558302998543,
            -0.05161594599485397,
            0.03086262010037899,
            0.21893557906150818,
            0.09720280021429062,
            -0.32650846242904663,
            0.23728929460048676,
            -0.022890495136380196,
            0.23778459429740906,
            -0.21574194729328156,
            0.2304280549287796,
            -0.27825927734375,
            0.1536552906036377,
            -0.1872679591178894,
            0.33609139919281006,
            -0.17185144126415253,
            0.15622098743915558,
            0.06385399401187897,
            -0.6910590529441833,
            -0.12895570695400238,
            0.2006029337644577,
            -0.11661442369222641,
            -0.05288855358958244,
            0.1847812384366989,
            -0.13753032684326172,
            -0.14563825726509094,
            0.1146499440073967,
            -0.09167884290218353,
            0.01665051281452179,
            -0.02215590327978134,
            -0.20310881733894348,
            0.16841229796409607,
            -0.26967164874076843,
            -0.2067149579524994,
            -0.4003639817237854,
            0.334685355424881,
            0.05037861317396164,
            0.14982978999614716,
            0.11339552700519562,
            0.22578094899654388,
            0.003280414268374443,
            0.021558603271842003,
            0.3612625002861023,
            -0.2612484395503998,
            -0.029566999524831772,
            -0.08740892261266708,
            -0.27844783663749695,
            -0.539272665977478,
            -0.5033376812934875,
            0.05771419405937195,
            -0.14624550938606262,
            -0.14665073156356812,
            0.032103635370731354,
            -0.22821646928787231,
            -0.37319886684417725,
            -0.07406792789697647,
            -0.09940846264362335,
            -0.15170864760875702,
            0.10251279175281525,
            -0.28974565863609314,
            0.11127327382564545,
            -0.1295487880706787,
            0.06373736262321472,
            -0.13120007514953613,
            -0.48223623633384705,
            -0.13285686075687408,
            -0.32420799136161804,
            0.2534398138523102,
            0.1414417028427124,
            0.1299625188112259,
            -0.009742595255374908,
            -0.08864585310220718,
            -0.36183297634124756,
            0.10486453026533127,
            -0.10193171352148056,
            -0.5690751075744629,
            0.08367500454187393,
            0.10478290915489197,
            0.17520007491111755,
            0.06651079654693604,
            -0.07491244375705719,
            0.14085327088832855,
            -0.34195172786712646,
            0.05325067415833473,
            -0.055440500378608704,
            -0.05816669389605522,
            -0.12323576211929321,
            0.019760163500905037,
            -0.413666695356369,
            -0.1094721332192421,
            0.19864515960216522,
            -0.2521430253982544,
            0.08783458918333054,
            -0.11739233136177063,
            0.030263062566518784,
            0.07352156192064285,
            -0.21599262952804565,
            -0.2554579973220825,
            -0.02434486895799637,
            -0.060794100165367126,
            0.020520349964499474,
            -0.1261637955904007,
            0.04948582127690315,
            -0.0011401905212551355,
            -0.09851948171854019,
            0.006934089586138725,
            0.32505932450294495,
            0.0008244937635026872,
            -0.2412106990814209,
            0.26600566506385803,
            0.016988098621368408,
            0.4044356942176819,
            0.3294326961040497,
            0.1653333455324173,
            -0.01094844937324524,
            -0.0010124014224857092,
            -0.06359848380088806,
            0.03529750183224678,
            0.362008661031723,
            -0.13874715566635132,
            -0.17677552998065948,
            -0.13537199795246124,
            0.009089148603379726,
            0.2157328575849533,
            0.02448730356991291,
            -0.05956766754388809,
            -0.08499912917613983,
            -0.2526480555534363,
            0.3908565938472748,
            0.0071114832535386086,
            -0.21141251921653748,
            -0.17813339829444885,
            -0.02282492257654667,
            0.10294091701507568,
            0.20670893788337708,
            0.15162579715251923,
            -0.17440317571163177,
            -0.23456408083438873,
            -0.2615811228752136,
            0.17929378151893616,
            -0.20635108649730682,
            0.024157250300049782,
            -0.2881810665130615,
            -0.21974508464336395,
            -0.13651497662067413,
            -0.2659190595149994,
            0.317307710647583,
            -0.2751229405403137,
            -0.11846780776977539,
            0.07080961763858795,
            0.06314381211996078,
            -0.12400955706834793,
            0.17585842311382294,
            -0.13015145063400269,
            -0.1978834718465805,
            0.3172228932380676,
            -0.09625031799077988,
            0.06176837161183357,
            0.2355288565158844,
            0.1673780232667923,
            -0.0974755585193634,
            0.19703038036823273,
            -0.1730380654335022,
            -0.2920576333999634,
            0.20711550116539001,
            0.20015592873096466,
            0.1572456657886505,
            -0.24938596785068512,
            -0.2424563765525818,
            -0.2820349931716919,
            -0.03342048451304436,
            0.16659945249557495,
            -0.1306314319372177,
            -0.0154031440615654,
            0.1572837084531784,
            0.26522547006607056,
            0.33896851539611816,
            -0.19223818182945251,
            0.39264583587646484,
            -0.13303864002227783,
            0.04036955535411835,
            0.008100899867713451,
            -0.4037041962146759,
            0.15250584483146667,
            0.20271173119544983,
            0.15730221569538116,
            -0.055300891399383545,
            -0.05227818340063095,
            0.14356566965579987,
            0.030875951051712036,
            0.1672988384962082,
            0.0524769201874733,
            0.35761311650276184,
            -0.044419337064027786,
            0.10128136724233627,
            -0.16924428939819336,
            -0.01175776869058609,
            -0.0446246899664402,
            -0.0680994987487793,
            -0.2835005223751068,
            0.12115238606929779,
            0.1598934531211853,
            0.09697061032056808,
            -0.25682052969932556,
            0.4948323369026184,
            -0.229756698012352,
            0.19067415595054626,
            0.1823427826166153,
            -0.3427407443523407,
            0.22667822241783142,
            -0.03570806235074997,
            0.19448427855968475,
            0.01607212983071804,
            -0.049186963587999344,
            0.3715437948703766,
            -0.3032287359237671,
            -0.11081954091787338,
            -0.1208048090338707,
            0.24455372989177704,
            -0.2946881055831909,
            -0.46497321128845215,
            0.08283504843711853,
            -0.09367282688617706,
            0.1253696233034134,
            -0.17599205672740936,
            -0.4143350124359131,
            -0.031145332381129265,
            -0.1383877396583557,
            0.07933636754751205,
            0.002564375987276435,
            0.06857690960168839,
            -0.07376188784837723,
            -0.10589199513196945,
            0.3264674246311188,
            -0.13825465738773346,
            0.23992761969566345,
            -0.0521664060652256,
            0.041976962238550186,
            -0.150252565741539,
            -0.2300702929496765,
            -0.13098858296871185,
            -0.0030829834286123514,
            -0.2773790955543518,
            -0.24421684443950653,
            -0.07302895933389664,
            -0.04520278051495552,
            -0.33572810888290405,
            -0.1040467917919159,
            -0.2642285227775574,
            -0.14671240746974945,
            -0.11275224387645721,
            -0.1909957230091095,
            -0.10089032351970673,
            -0.014899729751050472,
            -0.054796457290649414,
            -0.1702975332736969,
            -0.2643485963344574,
            0.3256826102733612,
            -0.06515336036682129,
            0.08302895724773407,
            0.18530993163585663,
            -0.3249126672744751,
            -0.07822525501251221,
            -0.02875361032783985,
            0.00359020521864295,
            -0.10638676583766937,
            -0.009415720589458942,
            -0.4528687000274658,
            -0.026385117322206497,
            -0.09584037214517593,
            -0.05755787715315819,
            0.11189858615398407,
            0.05671136826276779,
            -0.06310143321752548,
            -0.23990046977996826,
            -0.014015554450452328,
            0.14397256076335907,
            0.1242910698056221,
            -0.24656438827514648,
            0.07052042335271835,
            0.0010668616741895676,
            -0.5226425528526306,
            0.14349624514579773,
            -0.17346611618995667,
            -0.16748110949993134,
            -0.2513187825679779,
            -0.23001983761787415,
            0.0008066429290920496,
            -0.16088777780532837,
            -0.3724757134914398,
            -0.27197277545928955,
            0.0992688238620758,
            -0.17529281973838806,
            -0.1388329565525055,
            0.0704428032040596,
            0.0918063297867775,
            -0.15892332792282104,
            0.07010702043771744,
            -0.19444282352924347,
            -0.41557085514068604,
            0.019043507054448128,
            0.21707886457443237,
            0.33271560072898865,
            0.6140139698982239,
            0.14762456715106964,
            0.006490644998848438,
            0.0820273756980896,
            0.028251197189092636,
            0.14088557660579681,
            0.30694180727005005,
            0.3006473779678345,
            -0.005286887753754854,
            0.1841742843389511,
            0.1688033789396286,
            0.08393854647874832,
            -0.060754187405109406,
            0.17439135909080505,
            0.045883044600486755,
            -0.07637351751327515,
            0.13310636579990387,
            0.36507683992385864,
            -0.221891388297081,
            0.2350219041109085,
            -0.08906932175159454,
            0.27036887407302856,
            -0.008640306070446968,
            -0.20712192356586456,
            -0.03593849763274193,
            0.13524004817008972,
            0.16782911121845245,
            0.022377386689186096,
            0.34059059619903564,
            0.1739281862974167,
            -0.16153210401535034,
            0.24494287371635437,
            0.4231918454170227,
            0.10710208117961884,
            0.09801328927278519,
            0.10531923919916153,
            -0.0013584456173703074,
            0.15319639444351196,
            0.022053144872188568,
            0.1156824380159378,
            -0.11057723313570023,
            0.1809157133102417,
            0.2471841424703598,
            0.17729300260543823,
            0.02818375453352928,
            -0.24997587502002716,
            0.021833106875419617,
            -0.009366107173264027,
            -0.14971403777599335,
            0.08988779038190842,
            -0.005623373668640852,
            0.24246226251125336,
            -0.0692746713757515,
            0.1676793098449707,
            0.11805829405784607,
            -0.10716955363750458,
            -0.22902704775333405,
            0.17292426526546478,
            0.21558281779289246,
            -0.023344768211245537,
            0.1583351045846939,
            -0.035415519028902054,
            0.061862390488386154,
            0.03668804466724396,
            -0.04212087020277977,
            -0.10233796387910843,
            -0.02767747826874256,
            -0.07138890027999878,
            0.10622454434633255,
            -0.07097337394952774,
            0.04643258452415466,
            -0.3574908971786499,
            -0.18483099341392517,
            -0.09513965249061584,
            -0.3666956424713135,
            -0.3740219473838806,
            -0.34660324454307556,
            -0.007828091271221638,
            -0.16352693736553192,
            -0.298849880695343,
            0.02317824400961399,
            -0.007231317460536957,
            -0.02495928853750229,
            -0.11673292517662048,
            -0.07316002249717712,
            0.20990607142448425,
            -0.3096006512641907,
            -0.23749177157878876,
            -0.09647700190544128,
            -0.33584064245224,
            0.12403807789087296,
            -0.11043474823236465,
            -0.2982349097728729,
            -0.229013592004776,
            -0.1833701729774475,
            -0.03135038912296295,
            -0.17716176807880402,
            0.13925901055335999,
            -0.4180339276790619,
            -0.23631171882152557,
            -0.12488940358161926,
            0.021122382953763008,
            0.012009955011308193,
            0.01465004775673151,
            -0.14768239855766296,
            -0.14891618490219116,
            0.11895295232534409,
            0.13740891218185425,
            -0.28143182396888733,
            -0.3162328004837036,
            -0.11607895791530609,
            -0.25595661997795105,
            -0.2421456128358841,
            -0.4242849051952362,
            -0.29963573813438416,
            -0.07769125699996948,
            -0.405465692281723,
            -0.18008612096309662,
            -0.027929870411753654,
            -0.24424846470355988,
            -0.28625449538230896,
            -0.02546604536473751,
            0.04876374453306198,
            -0.4649686813354492,
            0.04231233894824982,
            -0.15598249435424805,
            0.10908415913581848,
            -0.16138051450252533,
            0.23413734138011932,
            0.43084681034088135,
            0.014769521541893482,
            0.030878564342856407,
            -0.09622789174318314,
            0.14515729248523712,
            0.044618066400289536,
            -0.08243980258703232,
            -0.033820219337940216,
            0.012006753124296665,
            0.05858022719621658,
            0.1970159262418747,
            0.27505427598953247,
            0.2504592537879944,
            0.3348281681537628,
            0.0583183579146862,
            0.22869327664375305,
            0.5855088233947754,
            -0.1152971163392067,
            -0.0410120002925396,
            -0.04745062440633774,
            0.11430776864290237,
            -0.0020794356241822243,
            0.31067031621932983,
            -0.004217162728309631,
            0.07916898280382156,
            0.2642724812030792,
            -0.2371656596660614,
            0.0997547134757042,
            -0.16675983369350433,
            0.02285783924162388,
            0.1264887899160385,
            -0.013240263797342777,
            -0.026577772572636604,
            -0.2582748234272003,
            0.1324051320552826,
            -0.16126549243927002,
            0.12038449198007584,
            -0.025653379037976265,
            0.30277159810066223,
            -0.3237658143043518,
            0.29977861046791077,
            0.006269507575780153,
            -0.16081246733665466,
            -0.15516901016235352,
            0.12562930583953857,
            0.48066842555999756,
            -0.15473875403404236,
            0.0947992280125618,
            -0.0640874132514,
            -0.042671628296375275,
            0.3363148868083954,
            0.13755957782268524,
            0.08887246996164322,
            -0.10075709223747253,
            0.08264623582363129,
            -0.14236629009246826,
            0.039394866675138474,
            -0.1041446328163147,
            0.18878406286239624,
            -0.12245923280715942,
            -0.15744872391223907,
            -0.07351505756378174,
            -0.06201397627592087,
            -0.03317714482545853,
            0.09235656261444092,
            -0.19660601019859314,
            0.2889128029346466,
            0.16339972615242004,
            -0.06329923868179321,
            0.13930055499076843,
            0.41140228509902954,
            -0.05802449956536293,
            -0.0533338338136673,
            0.020115677267313004,
            -0.1213081106543541,
            -0.06584960967302322,
            -0.03264475613832474,
            0.062251873314380646,
            0.09709315747022629,
            0.14647366106510162,
            -0.005355663597583771,
            -0.36105549335479736,
            -0.016364438459277153,
            -0.1708635687828064,
            0.05091216787695885,
            0.3707992732524872,
            0.01615210250020027,
            0.085151806473732,
            -0.023505335673689842,
            0.0003457668935880065,
            0.11402725428342819,
            0.3205758333206177,
            0.18819543719291687,
            -0.13757535815238953,
            0.12618403136730194,
            -0.06777103990316391,
            0.2037728726863861,
            0.1326158344745636,
            0.1942172795534134,
            -0.2848237156867981,
            0.30203232169151306,
            -0.14604000747203827,
            0.10713040828704834,
            0.16662946343421936,
            0.016295788809657097,
            0.29567965865135193,
            -0.02680271305143833,
            -0.05911185219883919,
            0.2821398079395294,
            0.13581474125385284,
            -0.0579247772693634,
            0.07247952371835709,
            0.10076696425676346,
            0.06607522815465927,
            0.14849309623241425,
            -0.08041702210903168,
            -0.19377350807189941,
            0.18535645306110382,
            -0.07603088766336441,
            -0.11993344128131866,
            -0.2021913379430771,
            -0.048024531453847885,
            -0.059229202568531036,
            0.31449615955352783,
            -0.020452773198485374,
            0.15329475700855255,
            0.252670019865036,
            -0.17348478734493256,
            0.06208856403827667,
            -0.11076590418815613,
            -0.1359521746635437,
            0.07792821526527405,
            -0.09252067655324936,
            -0.2746414244174957,
            -0.15469831228256226,
            0.15238037705421448,
            -0.04178650677204132,
            0.023872869089245796,
            0.05715273320674896,
            0.177326500415802,
            -0.3349184989929199,
            -0.03549708053469658,
            0.0836094468832016,
            0.049256935715675354,
            -0.1358678638935089,
            -0.13528603315353394,
            0.012539013288915157,
            0.08959037065505981,
            -0.008557889610528946,
            0.10408690571784973,
            0.12532241642475128,
            0.07634895294904709,
            0.028093872591853142,
            -0.2697942852973938,
            -0.1417541354894638,
            -0.25440269708633423,
            0.14009734988212585,
            0.20116674900054932,
            0.13795654475688934,
            0.38160523772239685,
            0.2733839452266693,
            0.1263909935951233,
            0.0180027037858963,
            0.3450641632080078,
            -0.16886374354362488,
            -0.16113947331905365,
            0.0265677347779274,
            0.19932560622692108,
            0.01975272037088871,
            0.2152612805366516,
            0.1199745386838913,
            0.04682299122214317,
            0.1092035248875618,
            0.09708693623542786,
            -0.09216498583555222,
            -0.041798997670412064,
            0.15203207731246948,
            0.07578622549772263,
            -0.11822421848773956,
            0.1912461668252945,
            0.09146514534950256,
            -0.21835815906524658,
            0.04998317360877991,
            0.30317747592926025,
            0.11063677817583084,
            -0.0664026066660881,
            0.14362971484661102,
            0.19197224080562592,
            0.09223796427249908,
            0.021019678562879562,
            -0.05002141743898392,
            -0.14912422001361847,
            0.012932498939335346,
            0.050124917179346085,
            0.2622411549091339,
            -0.12962959706783295,
            0.1808312088251114,
            0.08664549142122269,
            0.013548736460506916,
            -0.23253867030143738,
            0.0845203697681427,
            0.07483857125043869,
            0.13685469329357147,
            -0.11068964004516602,
            0.07709306478500366,
            -0.07109057903289795,
            -0.2197980135679245,
            0.19539159536361694,
            -0.07920829951763153,
            -0.08170339465141296,
            0.1842971295118332,
            0.28016090393066406,
            0.08489442616701126,
            -0.03987054154276848,
            0.019733842462301254,
            0.19155336916446686,
            -0.001033717766404152,
            0.050898853689432144,
            0.008724727667868137,
            0.111683189868927,
            -0.12292096763849258,
            0.08244603872299194,
            -0.09987560659646988,
            0.03140885382890701,
            -0.3537036180496216,
            -0.10735867917537689,
            -0.059619080275297165,
            0.23759543895721436,
            0.12341820448637009,
            0.106269471347332,
            0.0052115763537585735,
            0.07530847191810608,
            0.05912343040108681,
            -0.12311621010303497,
            -0.1357058882713318,
            -0.21948757767677307,
            -0.04895301163196564,
            -0.08398457616567612,
            -0.0899842157959938,
            -0.2593625783920288,
            0.09329568594694138,
            -0.16388393938541412,
            0.08361981809139252,
            -0.15845581889152527,
            0.020739568397402763,
            0.048265449702739716,
            -0.05832904949784279,
            -0.1786317080259323,
            -0.09389194846153259,
            0.03928685933351517,
            -0.034091029316186905,
            -0.0855497270822525,
            -0.2677953839302063,
            -0.3013305366039276,
            -0.20012928545475006,
            0.4759909212589264,
            0.03442717716097832,
            0.08904188871383667,
            -0.19713729619979858,
            0.42011815309524536,
            0.014784859493374825,
            -0.004333242308348417,
            0.39421218633651733,
            -0.04039686173200607,
            0.06892342865467072,
            -0.3263305723667145,
            -0.16371195018291473,
            0.1372041255235672,
            -0.19374175369739532,
            -0.013623329810798168,
            0.039643723517656326,
            -0.21674038469791412,
            0.255623459815979,
            0.1989048570394516,
            -0.3772628605365753,
            -0.12446023523807526,
            -0.3162902891635895,
            0.354498028755188,
            0.47084710001945496,
            0.06696828454732895,
            -0.19469502568244934,
            -0.23492254316806793,
            -0.24928325414657593,
            0.6108582019805908,
            -0.2192484587430954,
            0.060767851769924164,
            0.03861800953745842,
            -0.2701300382614136,
            -0.22192290425300598,
            -0.12403518706560135,
            0.650319516658783,
            -0.26606568694114685,
            -0.5043632984161377,
            -0.07365499436855316,
            -0.014262865297496319,
            0.1026448979973793,
            0.38573354482650757,
            0.20558249950408936,
            -0.4212411940097809,
            0.2955881655216217,
            0.5333318114280701,
            0.09947746247053146,
            0.10148991644382477,
            0.4488097131252289,
            0.2376154065132141,
            0.2686004638671875,
            0.20644345879554749,
            -0.1868991255760193,
            -0.28295257687568665,
            0.032646551728248596,
            0.1377181112766266,
            0.14197900891304016,
            -0.0731690302491188,
            -0.05947404354810715,
            0.08126091957092285,
            0.3297480046749115,
            -0.06236104667186737,
            0.037477437406778336,
            -0.16997064650058746,
            0.08864013850688934,
            0.035795096307992935,
            -0.025236576795578003,
            -0.036181896924972534,
            -0.09188482165336609,
            0.006079761777073145,
            -0.17565691471099854,
            -0.08628489822149277,
            -0.017526764422655106,
            -0.04008428379893303,
            -0.22390322387218475,
            0.060800403356552124,
            0.049594469368457794,
            -0.0543658472597599,
            0.05909333750605583,
            -0.13746055960655212,
            -0.1459105908870697,
            0.19234547019004822,
            -0.023304559290409088,
            -0.2120385468006134,
            -0.10763012617826462,
            -0.04745858907699585,
            0.01838473416864872,
            -0.02414809912443161,
            -0.1779397577047348,
            -0.1525644063949585,
            0.15736404061317444,
            -0.0037205286789685488,
            0.026708083227276802,
            0.020027685910463333,
            0.013700802810490131,
            0.17933113873004913,
            -0.006061520427465439,
            0.0021577549632638693,
            -0.05233852565288544,
            0.07262499630451202,
            -0.1349775195121765,
            -0.06393937766551971,
            0.26408714056015015,
            -0.14617782831192017,
            0.025064146146178246,
            0.0033560118172317743,
            -0.1569739431142807,
            -0.12367100268602371,
            0.12586165964603424,
            0.07983321696519852,
            0.12809006869792938,
            -0.12826530635356903,
            0.027603741735219955,
            0.02507960796356201,
            0.01796780899167061,
            0.031161881983280182,
            0.011213412508368492,
            0.032367948442697525,
            -0.14768081903457642,
            0.3445187509059906,
            -0.12193625420331955,
            -0.02669471502304077,
            0.09325525164604187,
            0.06279073655605316,
            -0.3049677610397339,
            -0.0628582090139389,
            -0.08072866499423981,
            0.11722966283559799,
            0.0763716995716095,
            -0.016727019101381302,
            0.27329251170158386,
            0.178511381149292,
            0.10002782940864563,
            -0.1436818540096283,
            -0.04317428916692734,
            -0.22495464980602264,
            -0.10780355334281921,
            -0.010195281356573105,
            0.2258635014295578,
            0.275204062461853,
            -0.07633597403764725,
            -0.08405575901269913,
            -0.1240178570151329,
            0.08882910013198853,
            -0.07050824165344238,
            -0.1564796417951584,
            -0.11995483934879303,
            0.19191913306713104,
            -0.22433263063430786,
            0.05249488726258278,
            -0.029098311439156532,
            -0.3906208872795105,
            0.038473110646009445,
            0.1105143129825592,
            0.13345137238502502,
            0.1525065153837204,
            -0.20616240799427032,
            0.08675463497638702,
            -0.031795114278793335,
            0.15026211738586426,
            0.5088006854057312,
            0.06996569037437439,
            -0.08031495660543442,
            -0.34568026661872864,
            0.19120164215564728,
            0.07001359760761261,
            0.20342521369457245,
            -0.030031690374016762,
            -0.14181111752986908,
            -0.4189149737358093,
            -0.30752691626548767,
            0.1413305103778839,
            -0.2501148283481598,
            -0.44393467903137207,
            -0.11996223032474518,
            0.16823479533195496,
            -0.30599355697631836,
            -0.211920827627182,
            -0.0701616108417511,
            -0.10592535138130188,
            0.11176557093858719,
            -0.005137001164257526,
            0.14438357949256897,
            -0.14453186094760895,
            0.05434117466211319,
            -0.23001335561275482,
            -0.032369114458560944,
            -0.19088923931121826,
            -0.2356075644493103,
            0.019720885902643204,
            0.12411148846149445,
            0.06362567096948624,
            0.1113838255405426,
            0.15220987796783447,
            0.050525784492492676,
            -0.0267530158162117,
            -0.3291017413139343,
            0.0034235212951898575,
            -0.15175417065620422,
            0.1841004341840744,
            0.13939730823040009,
            -0.08378378301858902,
            -0.34032025933265686,
            -0.29667311906814575,
            -0.4298529624938965,
            0.2889518737792969,
            0.031218400225043297,
            0.16364772617816925,
            0.2443484365940094,
            -0.2143506556749344,
            -0.11646284908056259,
            0.040446687489748,
            -0.18902435898780823,
            0.13808861374855042,
            -0.3430551588535309,
            0.035991936922073364,
            -0.3072377145290375,
            -0.28951790928840637,
            0.0482359305024147,
            0.07149513065814972,
            -0.042897146195173264,
            0.023649031296372414,
            0.02658246085047722,
            0.16096092760562897,
            0.02569601498544216,
            -0.06460916996002197,
            -0.008548757992684841,
            -0.027668356895446777,
            -0.0936136543750763,
            0.04511069133877754,
            0.2292650043964386,
            0.011533082462847233,
            0.02720520831644535,
            -0.11921194195747375,
            -0.24424494802951813,
            0.037381891161203384,
            -0.050590742379426956,
            -0.14185450971126556,
            -0.16451750695705414,
            -0.045779913663864136,
            0.009583323262631893,
            -0.15191225707530975,
            0.0185999795794487,
            -0.4209669232368469,
            -0.26455071568489075,
            -0.1978822648525238,
            -0.263587087392807,
            0.07942209392786026,
            0.11365523934364319,
            -0.014772545546293259,
            -0.10744265466928482,
            0.07257944345474243,
            -0.12470343708992004,
            -0.21814224123954773,
            0.23024816811084747,
            0.20946712791919708,
            -0.17977093160152435,
            -0.0805794969201088,
            -0.36994874477386475,
            -0.09313564747571945,
            -0.05286098271608353,
            -0.07242000848054886,
            -0.014345685951411724,
            -0.35277804732322693,
            0.20337247848510742,
            -0.25773823261260986,
            -0.04988682270050049,
            -0.06343811750411987,
            0.015032568946480751,
            0.2691052258014679,
            0.08975263684988022,
            -0.26542431116104126,
            -0.19621074199676514,
            -0.21643854677677155,
            -0.09357979148626328,
            -0.14639954268932343,
            -0.01514110155403614,
            0.0453137643635273,
            -0.1995321363210678,
            0.00519712595269084,
            0.11227889358997345,
            -0.023303868249058723,
            -0.13830502331256866,
            0.022438768297433853,
            -0.1735984981060028,
            -0.09479327499866486,
            0.04248577728867531,
            -0.10650873184204102,
            0.33128371834754944,
            0.15750668942928314,
            -0.452825129032135,
            -0.30188125371932983,
            -0.277529776096344,
            0.13136395812034607,
            0.20015788078308105,
            -0.032637473195791245,
            -0.03499140217900276,
            -0.4587748050689697,
            -0.1817464828491211,
            0.08953556418418884,
            0.12274081259965897,
            0.07139286398887634,
            0.15104347467422485,
            -0.05502833425998688,
            0.07642959803342819,
            0.22797445952892303,
            0.1992192417383194,
            0.06750404834747314,
            -0.04030774161219597,
            -0.14208923280239105,
            0.17403142154216766,
            -0.19550453126430511,
            -0.24287083745002747,
            -0.12960824370384216,
            0.07407696545124054,
            -0.5192931890487671,
            0.029064925387501717,
            0.13168171048164368,
            -0.2260521799325943,
            -0.10719809681177139,
            -0.0809803381562233,
            -0.11957354843616486,
            0.18270406126976013,
            -0.016923826187849045,
            0.020132487639784813,
            -0.006823292002081871,
            0.01044367253780365,
            -0.08157955855131149,
            -0.1499679535627365,
            0.10551042854785919,
            -0.012907699681818485,
            -0.042357753962278366,
            -0.000305145513266325,
            -0.19174812734127045,
            -0.3492835760116577,
            0.011094212532043457,
            -0.06323888152837753,
            -0.13229407370090485,
            0.11586083471775055,
            0.13942056894302368,
            0.02622455172240734,
            -0.00444397609680891,
            -0.024064064025878906,
            -0.25075486302375793,
            -0.007299636956304312,
            -0.06649873405694962,
            0.055301181972026825,
            0.07113555818796158,
            0.017308730632066727,
            0.04554152488708496,
            0.22893720865249634,
            -0.17267856001853943,
            0.05255698040127754,
            0.06859244406223297,
            -0.08762593567371368,
            -0.25391465425491333,
            -0.15525123476982117,
            0.06746194511651993,
            0.2211330533027649,
            0.08468781411647797,
            0.2148895263671875,
            -0.06330050528049469,
            -0.04736120253801346,
            -0.20196257531642914,
            0.17078928649425507,
            0.2588009536266327,
            0.290260374546051,
            -0.09024084359407425,
            -0.11313364654779434,
            0.003942874260246754,
            0.02698725089430809,
            -0.0902298241853714,
            -0.05022098124027252,
            0.12796375155448914,
            0.04460833594202995,
            -0.10773663967847824,
            0.025871913880109787,
            0.020853115245699883,
            0.057275716215372086,
            -0.2139746993780136,
            -0.12216125428676605,
            -0.19090376794338226,
            0.11816427856683731,
            0.2556763291358948,
            -0.29673197865486145,
            0.047524694353342056,
            -0.30626577138900757,
            0.15809503197669983,
            -0.17854765057563782,
            0.07851758599281311,
            -0.14540010690689087,
            -0.10648876428604126,
            -0.08654537796974182,
            0.0961591899394989,
            0.006804193835705519,
            0.2518714964389801,
            0.02962515316903591,
            0.15915079414844513,
            0.14235447347164154,
            -0.03168884292244911,
            -0.036278218030929565,
            0.13663367927074432,
            -0.4406569302082062,
            -0.08506070077419281,
            -0.18300072848796844,
            0.026943903416395187,
            -0.34735003113746643,
            -0.16262541711330414,
            -0.14685913920402527,
            -0.15782369673252106,
            0.023711277171969414,
            0.021059054881334305,
            -0.11165264993906021,
            0.2387930005788803,
            -0.17774032056331635,
            0.1291675865650177,
            0.01748868077993393,
            0.1590680629014969,
            -0.009874864481389523,
            -0.24987545609474182,
            -0.06841778755187988,
            -0.02870055101811886,
            0.11165159940719604,
            0.09981458634138107,
            -0.0936097651720047,
            -0.040275122970342636,
            -0.05254035443067551,
            0.37608614563941956,
            -0.1288728266954422,
            -0.36597827076911926,
            -0.021520527079701424,
            -0.3239201307296753,
            -0.006808307021856308,
            -0.24248388409614563,
            -0.013779021799564362,
            -0.11462840437889099,
            0.11549003422260284,
            0.06493257731199265,
            0.17793670296669006,
            -0.00964097399264574,
            -0.10077723115682602,
            0.17042583227157593,
            0.059951022267341614,
            -0.18275976181030273,
            -0.04469212517142296,
            0.15174919366836548,
            0.0019457472953945398,
            0.012877929955720901,
            0.12233228981494904,
            0.19657856225967407,
            -0.11163222044706345,
            0.27407804131507874,
            -0.20970655977725983,
            0.018062172457575798,
            0.1163669154047966,
            -0.242544025182724,
            0.24037910997867584,
            0.1994520127773285,
            -0.25652623176574707,
            -0.06369386613368988,
            -0.11319912225008011,
            0.3426657021045685,
            -0.35146453976631165,
            0.2088717222213745,
            0.11985434591770172,
            0.3581418991088867,
            -0.2224000245332718,
            0.3720153570175171,
            0.1373298317193985,
            0.06481757014989853,
            -0.05714165046811104,
            -0.1439194679260254,
            -0.03819919377565384,
            -0.18670839071273804,
            -0.03672758862376213,
            0.26519814133644104,
            -0.369136244058609,
