{
    "num_epochs": 10000,
    "batch_size": 1000,
    "final_loss": 0.4291938543319702,
    "train_data_exp_dir_path": "data/scp_train_data_non_norm",
    "encoder": {
        "num_inputs": 2,
        "num_outputs": 2,
        "num_hidden_layers": 1,
        "neurons_per_hidden_layer": 64,
        "hidden_layer_activation_function": "relu",
        "final_layer_activation_function": null,
        "bias": true,
        "weights": [
            0.6442981362342834,
            -0.2814263105392456,
            -0.3748757243156433,
            0.3186800181865692,
            -0.5338819622993469,
            0.45133233070373535,
            0.3824175000190735,
            -0.043015897274017334,
            -0.19063833355903625,
            0.14773313701152802,
            -0.022971391677856445,
            -0.0019444823265075684,
            0.5333896279335022,
            -0.29695799946784973,
            -0.12023941427469254,
            0.03969015181064606,
            -0.1203954815864563,
            -0.43538975715637207,
            0.453582227230072,
            -0.43987518548965454,
            0.5149435997009277,
            0.31056728959083557,
            -0.4729938507080078,
            0.5001901388168335,
            -0.030652744695544243,
            0.5648874044418335,
            0.26752063632011414,
            0.34726762771606445,
            0.036501266062259674,
            0.149807870388031,
            0.5388607382774353,
            0.4462939500808716,
            0.7928650379180908,
            0.07115110754966736,
            0.25052502751350403,
            0.05234256759285927,
            -0.4254039227962494,
            0.05960221216082573,
            0.12481898069381714,
            -0.059266746044158936,
            -0.6102484464645386,
            -0.04793901368975639,
            0.7026222348213196,
            -0.09768164157867432,
            0.6683275103569031,
            -0.14560574293136597,
            -0.3747665584087372,
            -0.40522220730781555,
            -0.41693928837776184,
            -0.26437392830848694,
            0.572055995464325,
            -0.5948778390884399,
            0.6818993091583252,
            0.1674816906452179,
            0.6956488490104675,
            -0.30255672335624695,
            -0.2621316611766815,
            0.5442583560943604,
            -0.21230673789978027,
            -0.5334718823432922,
            -0.21896187961101532,
            0.1692732870578766,
            -0.6456190943717957,
            0.5654053092002869,
            -0.2423272728919983,
            -0.20344007015228271,
            0.6654863357543945,
            0.522031307220459,
            -0.06370028853416443,
            -0.022451264783740044,
            0.23646099865436554,
            0.646338701248169,
            -0.0322803258895874,
            -0.1959841251373291,
            -0.20966395735740662,
            0.2612149715423584,
            0.02379879355430603,
            0.6301306486129761,
            -0.175076425075531,
            0.2661798894405365,
            -0.21579250693321228,
            0.17836879193782806,
            0.23125159740447998,
            -0.6213347315788269,
            0.5002189874649048,
            0.45988142490386963,
            -0.1785765141248703,
            0.5088309645652771,
            0.6288745999336243,
            0.050624072551727295,
            -0.35265034437179565,
            -0.37697792053222656,
            0.18076978623867035,
            0.576842188835144,
            -0.3049229085445404,
            0.097268246114254,
            -0.34472399950027466,
            0.636370837688446,
            0.573872983455658,
            -0.4851485788822174,
            0.6205524206161499,
            0.4857190251350403,
            0.21603262424468994,
            -0.1007261872291565,
            -0.3912716805934906,
            -0.22626233100891113,
            0.28546980023384094,
            0.15280327200889587,
            -0.016310155391693115,
            0.17279697954654694,
            0.05625627189874649,
            0.04069880396127701,
            0.058891892433166504,
            -0.1622830033302307,
            -0.12705790996551514,
            -0.42016157507896423,
            -0.7010737061500549,
            0.5750627517700195,
            -0.665303111076355,
            -0.2387790083885193,
            0.34693074226379395,
            0.4042515158653259,
            -0.2961246073246002,
            0.39935317635536194,
            0.21603715419769287,
            0.1831996589899063,
            0.32488885521888733,
            0.5473777651786804,
            -0.6226169466972351,
            -1.1655325889587402,
            1.1270761489868164,
            -0.5765089988708496,
            0.6881087422370911,
            -0.6319405436515808,
            -0.1965356469154358,
            -1.0961167812347412,
            -0.6299552917480469,
            0.5399608016014099,
            -1.147262454032898,
            0.9466231465339661,
            0.8634220957756042,
            -0.2614157795906067,
            0.5383726358413696,
            -0.3858778774738312,
            -0.8343288898468018,
            0.6525924205780029,
            1.2400516271591187,
            -0.31246426701545715,
            0.9374779462814331,
            0.09503227472305298,
            0.4415362477302551,
            -0.4735864996910095,
            -0.4719659686088562,
            0.25767427682876587,
            0.23276804387569427,
            0.4114084839820862,
            -1.2665441036224365,
            -0.247266948223114,
            -0.7174985408782959,
            -0.8470920324325562,
            0.47216707468032837,
            -0.05804009735584259,
            0.3626995384693146,
            0.8784313201904297,
            0.057672739028930664,
            0.09145285934209824,
            1.033219814300537,
            -0.6806721091270447,
            -0.5691444873809814,
            0.022168636322021484,
            -0.7452259659767151,
            0.6862198710441589,
            0.4423946440219879,
            0.0313946008682251,
            0.5343921184539795,
            -0.38653942942619324,
            -0.8623295426368713,
            -0.2763097584247589,
            1.033624291419983,
            -0.11958569288253784,
            -0.49169304966926575,
            -1.095712423324585,
            1.0441107749938965,
            -0.6692944765090942,
            -0.4617789089679718,
            0.6019688248634338,
            -0.535243809223175,
            -0.04008066654205322,
            0.9980407953262329,
            -0.431873619556427,
            -1.0797452926635742,
            -0.7927476167678833,
            0.09738568961620331,
            0.09387311339378357,
            -0.11254969239234924,
            -0.10596202313899994,
            0.02828400582075119,
            0.11924676597118378,
            0.07482936978340149,
            0.22950321435928345,
            -0.0011439323425292969,
            0.07268032431602478,
            0.12618598341941833,
            -0.02809353731572628,
            -0.14003945887088776,
            0.05727485939860344,
            -0.02821781113743782,
            0.059862930327653885,
            0.21863827109336853,
            -0.23127280175685883,
            -0.04539680480957031,
            0.07464443147182465,
            -0.06829940527677536,
            0.07105281949043274,
            0.07780365645885468,
            0.002322778105735779,
            0.0066558122634887695,
            0.04593244194984436,
            0.005415411200374365,
            -0.007877364754676819,
            0.020282212644815445,
            -0.08436369895935059,
            0.04778100922703743,
            -0.021257782354950905,
            -0.11217610538005829,
            0.012357533909380436,
            0.02521035261452198,
            0.0742439478635788,
            0.01956610381603241,
            0.05749795585870743,
            -0.014469457790255547,
            0.10417693108320236,
            -0.025293508544564247,
            -0.11884596943855286,
            0.003184785833582282,
            -0.10638292133808136,
            -0.2018890678882599,
            0.04869025945663452,
            0.04355703294277191,
            0.03576858714222908,
            0.04886031895875931,
            -0.0821961909532547,
            -0.16454587876796722,
            0.023676201701164246,
            0.1159081757068634,
            0.12681053578853607,
            -0.15415619313716888,
            0.19721569120883942,
            0.015418469905853271,
            -0.11513899266719818,
            -0.02247728779911995,
            -0.03863289952278137,
            0.061560459434986115,
            0.06066712737083435,
            0.026742294430732727,
            0.019339555874466896,
            0.053960785269737244,
            0.27332717180252075,
            -0.10513197630643845,
            -0.09043139219284058,
            -0.15682414174079895,
            -0.12390738725662231,
            -0.10965311527252197,
            0.5707703232765198,
            -0.00549335777759552,
            -0.0751066505908966,
            0.13743913173675537,
            -0.045434173196554184,
            -0.11058377474546432,
            -0.06934366375207901,
            -0.07720036059617996,
            0.021045247092843056,
            0.690007209777832,
            -0.3442506790161133,
            -0.5871277451515198,
            0.058381885290145874,
            -0.4492122232913971,
            -0.09820778667926788,
            -0.09931212663650513,
            0.049171850085258484,
            -0.04671035706996918,
            0.023330852389335632,
            -0.09856557846069336,
            0.03378951549530029,
            0.14514558017253876,
            0.07002802193164825,
            0.0832882970571518,
            0.17319785058498383,
            -0.036828458309173584,
            -0.04848712682723999,
            -0.043022580444812775,
            -0.1858595609664917,
            -0.035387083888053894,
            -0.058440711349248886,
            -0.1346115618944168,
            0.10782253742218018,
            0.20062866806983948,
            0.10038529336452484,
            0.1393309235572815,
            0.07633647322654724,
            -0.5234598517417908,
            -0.09705981612205505,
            -0.11663652956485748,
            0.07150191068649292,
            0.07228635996580124,
            0.05532775819301605,
            -0.10389750450849533,
            0.09024310111999512,
            0.031320780515670776,
            0.1757202297449112,
            -0.2463351935148239,
            0.4690846800804138,
            0.0530218780040741,
            0.09910695254802704,
            0.12644734978675842,
            -0.12201015651226044,
            -0.15674751996994019,
            0.07383596897125244,
            0.18104177713394165,
            0.06096038594841957,
            -0.4633321464061737,
            -0.4952709674835205
        ]
    },
    "decoder": {
        "num_inputs": 2,
        "num_outputs": 2,
        "num_hidden_layers": 1,
        "neurons_per_hidden_layer": 64,
        "hidden_layer_activation_function": "relu",
        "final_layer_activation_function": null,
        "bias": true,
        "weights": [
            0.1666438728570938,
            -0.806833803653717,
            0.6096101999282837,
            1.26837956905365,
            1.5186107158660889,
            1.094449520111084,
            1.4378550052642822,
            1.3037867546081543,
            -0.10421651601791382,
            -0.6799914240837097,
            1.3778403997421265,
            -0.8920362591743469,
            1.2924448251724243,
            -0.7261099815368652,
            -1.7862188816070557,
            1.4737861156463623,
            0.7366904020309448,
            1.5741550922393799,
            1.4287810325622559,
            1.553687572479248,
            0.7916154861450195,
            1.2495509386062622,
            0.06498992443084717,
            -0.5633525848388672,
            0.09577685594558716,
            -0.04131418466567993,
            -0.22110363841056824,
            -0.40070515871047974,
            0.8238421678543091,
            -1.1092615127563477,
            -0.6921578645706177,
            0.5219395756721497,
            1.6482563018798828,
            1.5817511081695557,
            1.8006792068481445,
            1.2541993856430054,
            1.6968995332717896,
            1.4411466121673584,
            -0.5635183453559875,
            -1.9298866987228394,
            1.683107852935791,
            0.8571110367774963,
            1.4925334453582764,
            1.0864629745483398,
            -0.21593338251113892,
            -0.15986275672912598,
            1.7451941967010498,
            0.9000096917152405,
            0.06194627285003662,
            0.019440650939941406,
            -0.2580603361129761,
            -0.413372665643692,
            -0.532921552658081,
            0.554006040096283,
            0.12499656528234482,
            0.44580695033073425,
            -0.08530402183532715,
            0.22286003828048706,
            1.1811803579330444,
            0.6450826525688171,
            1.3042346239089966,
            0.4695068597793579,
            1.0316330194473267,
            1.0812612771987915,
            1.4875743389129639,
            1.5841448307037354,
            -0.6368149518966675,
            -0.39319172501564026,
            1.3841346502304077,
            1.2956314086914062,
            1.3881889581680298,
            -0.7008064985275269,
            -1.691473126411438,
            1.3198111057281494,
            -0.1948552280664444,
            -0.7914031744003296,
            0.9513320922851562,
            1.0956610441207886,
            0.8824747800827026,
            1.250093936920166,
            0.9060770869255066,
            1.643242597579956,
            0.9057095646858215,
            0.9193983674049377,
            -0.6147854328155518,
            0.03593844175338745,
            -0.33978375792503357,
            -0.23323780298233032,
            1.4830411672592163,
            -0.416154146194458,
            -0.45024093985557556,
            0.09444129467010498,
            0.9852361083030701,
            1.1829828023910522,
            1.2383662462234497,
            1.367921233177185,
            1.6278198957443237,
            1.148100733757019,
            0.1916375458240509,
            -0.44772210717201233,
            0.40299245715141296,
            1.2853409051895142,
            0.808127224445343,
            1.2148847579956055,
            -0.18013453483581543,
            0.155830979347229,
            1.6577463150024414,
            1.6666263341903687,
            -0.590532124042511,
            -0.3787366449832916,
            0.8380890488624573,
            1.3466222286224365,
            1.5479745864868164,
            1.1525168418884277,
            -2.148446798324585,
            1.5125638246536255,
            0.3957073390483856,
            1.5661119222640991,
            0.20754864811897278,
            1.6437245607376099,
            -0.5836932063102722,
            0.3028829097747803,
            0.9674012660980225,
            0.752693772315979,
            -0.6027016639709473,
            0.3165965676307678,
            1.4717098474502563,
            0.941012978553772,
            0.6719737648963928,
            1.4457600116729736,
            1.5711944103240967,
            0.8317341208457947,
            -0.46287792921066284,
            0.2560134530067444,
            0.19009362161159515,
            0.4350586235523224,
            1.5617755651474,
            0.5494920015335083,
            1.5399973392486572,
            -0.14144086837768555,
            -0.15717631578445435,
            -0.07312029600143433,
            0.644390344619751,
            -0.6589583158493042,
            0.6523799896240234,
            0.41737574338912964,
            1.266454815864563,
            0.8710450530052185,
            0.7395913004875183,
            1.6386996507644653,
            -0.38286280632019043,
            0.8128848671913147,
            -0.6591228246688843,
            -0.07429307699203491,
            -0.5671835541725159,
            -0.5833448171615601,
            -0.3070131540298462,
            1.6597470045089722,
            1.643308401107788,
            1.5518951416015625,
            0.7841302156448364,
            -0.670418381690979,
            0.2611500918865204,
            0.10685865581035614,
            1.8759897947311401,
            0.8556686639785767,
            1.4186278581619263,
            1.2703766822814941,
            1.5901198387145996,
            1.4364182949066162,
            -0.3811764419078827,
            -0.46847814321517944,
            -0.11310621351003647,
            -0.3532414138317108,
            1.0478003025054932,
            1.5413964986801147,
            0.49973347783088684,
            -0.19892331957817078,
            1.534180760383606,
            1.431274652481079,
            -0.6245589852333069,
            0.41671544313430786,
            -0.46905791759490967,
            1.8037453889846802,
            0.6736357808113098,
            0.6939977407455444,
            1.2489681243896484,
            1.2306349277496338,
            -0.19339387118816376,
            1.7003629207611084,
            -0.5675100088119507,
            0.9967783093452454,
            0.7113494277000427,
            -0.9653283953666687,
            0.24962614476680756,
            0.5734842419624329,
            0.08303874731063843,
            1.861210584640503,
            2.661811113357544,
            -2.138068914413452,
            -0.9210762977600098,
            0.7464178800582886,
            -0.9819797873497009,
            -0.10416030883789062,
            0.1238163411617279,
            0.01926635205745697,
            1.8588374853134155,
            0.09932109713554382,
            0.6781938672065735,
            1.1061421632766724,
            0.5309769511222839,
            2.10848069190979,
            1.1972259283065796,
            0.1419311761856079,
            -0.03986838459968567,
            1.090165376663208,
            0.07066124677658081,
            -0.012828513979911804,
            0.11976656317710876,
            -0.008559194393455982,
            0.003938466310501099,
            0.009214414283633232,
            0.3971047103404999,
            -0.4364532232284546,
            0.491875559091568,
            0.07182617485523224,
            0.8834127187728882,
            2.1385297775268555,
            -1.8729920387268066,
            -0.4809492826461792,
            -0.5218353271484375,
            -0.591313898563385,
            -0.9899031519889832,
            -0.5340117812156677,
            0.034790873527526855,
            0.08411857485771179,
            1.9683072566986084,
            0.0578526109457016,
            -0.1959097534418106,
            -0.24690492451190948,
            0.9162302613258362,
            -0.0633532777428627,
            -1.1342684030532837,
            -0.7404873967170715,
            -0.004409179091453552,
            0.7266398072242737,
            0.05090680718421936,
            -0.8370553255081177,
            0.9711212515830994,
            -1.9385945796966553,
            -1.1925300359725952,
            -1.3989636898040771,
            0.010342339053750038,
            -0.372556209564209,
            0.07093462347984314,
            0.886197566986084,
            -0.935975968837738,
            1.0159789323806763,
            0.8538519740104675,
            0.9282737374305725,
            -0.12185539305210114,
            -0.9991000890731812,
            0.2311837524175644,
            1.448470950126648,
            0.8895413279533386,
            0.849465012550354,
            0.931998610496521,
            0.09272950887680054,
            -0.018015146255493164,
            0.10904935002326965,
            -1.0239665508270264,
            0.1075277179479599,
            0.8689321875572205,
            0.9641993641853333,
            0.7605857253074646,
            -2.2171666622161865,
            1.019472599029541,
            0.745218813419342,
            0.10165998339653015,
            0.9768125414848328,
            0.07675403356552124,
            0.11159740388393402,
            0.08218154311180115,
            -0.03444962948560715,
            -0.00800815224647522,
            0.9589287042617798,
            0.9193422198295593,
            0.9148256778717041,
            0.8910982608795166,
            -0.014498874545097351,
            1.115781307220459,
            -1.0463587045669556,
            1.190487265586853,
            -0.9082730412483215,
            0.8224692344665527,
            0.9955214262008667,
            0.83473801612854,
            1.0356122255325317,
            -0.06208696961402893,
            -0.014694243669509888,
            -1.0598926544189453,
            0.04820379614830017,
            1.0224429368972778,
            0.8553615808486938,
            0.9972999691963196,
            0.04256056994199753,
            1.0255712270736694,
            0.9790741205215454,
            0.07679244875907898,
            0.8890120983123779,
            -0.08066490292549133,
            0.8586151599884033,
            0.972604513168335,
            1.4972282648086548,
            1.0263224840164185,
            1.07844078540802,
            0.07468169927597046,
            0.9753451943397522,
            -0.08689901232719421,
            0.9760774970054626,
            -0.9947230815887451,
            0.48401981592178345
        ]
    }
}