{
    "num_epochs": 20000,
    "batch_size": 256,
    "final_loss": 11.781891345977783,
    "learning_rate": 0.001,
    "train_data_exp_dir_paths": [
        "/app/data/cmc_configs/cmc_train_data"
    ],
    "encoder": {
        "num_inputs": 2,
        "num_outputs": 1,
        "num_hidden_layers": 1,
        "neurons_per_hidden_layer": 64,
        "hidden_layer_activation_function": "relu",
        "final_layer_activation_function": null,
        "bias": true,
        "weights": [
            -0.41261568665504456,
            -0.5189672112464905,
            0.151204451918602,
            0.5949166417121887,
            -0.21899931132793427,
            0.27319517731666565,
            0.5050942301750183,
            -0.25498852133750916,
            0.4675968587398529,
            -0.6776430606842041,
            0.7375452518463135,
            0.05740576609969139,
            -0.6948373317718506,
            0.343587726354599,
            0.6065835952758789,
            -0.49151062965393066,
            -0.18174731731414795,
            0.5858630537986755,
            -0.5529723763465881,
            -0.29914265871047974,
            0.03783838078379631,
            0.06419681012630463,
            0.28258296847343445,
            -0.05554094910621643,
            -0.6970443725585938,
            0.26938891410827637,
            -0.046845994889736176,
            0.06543637067079544,
            -0.1668591946363449,
            -0.17113812267780304,
            -0.5263209939002991,
            0.6849318742752075,
            0.6314969062805176,
            0.5229674577713013,
            -0.46574145555496216,
            -0.1632058322429657,
            -0.33775341510772705,
            0.20463092625141144,
            0.13580748438835144,
            0.3739274740219116,
            -0.16011789441108704,
            0.65016770362854,
            0.5156599283218384,
            0.20036537945270538,
            -0.6062869429588318,
            -0.23063741624355316,
            0.05984422564506531,
            -0.37962180376052856,
            0.2416505515575409,
            -0.2299279123544693,
            0.16701346635818481,
            0.29388827085494995,
            0.6600813269615173,
            0.5386624336242676,
            -0.346828430891037,
            -0.4960256516933441,
            0.6481533050537109,
            -0.6338984370231628,
            -0.05649886652827263,
            0.4090588092803955,
            0.5168319344520569,
            0.10264838486909866,
            0.16696439683437347,
            -0.2649790942668915,
            0.3666083812713623,
            -0.33405980467796326,
            0.25323930382728577,
            0.4241575002670288,
            -0.5653576254844666,
            -0.2266819328069687,
            -0.017116256058216095,
            -0.6512960195541382,
            0.42972850799560547,
            -0.4061734676361084,
            -0.016269104555249214,
            -0.08128921687602997,
            0.11463605612516403,
            -0.3739188313484192,
            -0.5925885438919067,
            -0.36364907026290894,
            0.32608991861343384,
            -0.5720320343971252,
            0.1869416981935501,
            0.12102347612380981,
            0.3101237714290619,
            0.13267867267131805,
            -0.004740845877677202,
            -0.04533466696739197,
            0.20652347803115845,
            0.49706876277923584,
            0.21507500112056732,
            0.029514482244849205,
            -0.42448189854621887,
            -0.4864027798175812,
            -0.634235680103302,
            0.35223785042762756,
            0.2143208533525467,
            -0.3180975317955017,
            -0.1953592300415039,
            0.06465727090835571,
            0.6253157258033752,
            -0.13446108996868134,
            -0.569026529788971,
            -0.4413693845272064,
            -0.33174988627433777,
            -0.31511789560317993,
            -0.46782824397087097,
            -0.28690648078918457,
            -0.21766865253448486,
            -0.49909916520118713,
            0.0853709727525711,
            0.6121319532394409,
            0.07283464819192886,
            0.24293476343154907,
            -0.6489870548248291,
            -0.16373316943645477,
            0.47730663418769836,
            -0.6763361692428589,
            0.10728573799133301,
            0.502755343914032,
            -0.6709467768669128,
            0.0475509874522686,
            -0.3243659436702728,
            -0.6727546453475952,
            0.03353272005915642,
            0.17970025539398193,
            -0.014567289501428604,
            0.09202811866998672,
            -0.6598846912384033,
            1.4007830619812012,
            0.9621010422706604,
            -0.23887282609939575,
            -0.46852415800094604,
            0.06129177287220955,
            0.7599638104438782,
            0.31008633971214294,
            1.5459402799606323,
            -0.18449412286281586,
            -2.321086883544922,
            0.33155468106269836,
            0.9156826138496399,
            -0.5005309581756592,
            -0.6016628742218018,
            -1.3136118650436401,
            -0.6393377184867859,
            0.6873466372489929,
            1.2609935998916626,
            0.3141949772834778,
            0.4773730933666229,
            1.5593957901000977,
            0.021129226312041283,
            -0.3301827907562256,
            0.20450738072395325,
            -0.5993220210075378,
            -1.0225094556808472,
            -0.012660744599997997,
            -0.47713157534599304,
            -0.547770082950592,
            1.5425949096679688,
            -0.06966536492109299,
            -0.43224796652793884,
            1.213826298713684,
            -0.6177014112472534,
            -0.335636168718338,
            -0.6488794684410095,
            -0.250959187746048,
            0.4958450198173523,
            0.6274762153625488,
            -0.49983513355255127,
            -1.172634243965149,
            0.9131513833999634,
            0.0034449147060513496,
            -0.5570766925811768,
            -1.236301064491272,
            -0.496981143951416,
            1.3873038291931152,
            -0.515156626701355,
            0.41793984174728394,
            0.4198543429374695,
            0.4504271447658539,
            -0.4437393844127655,
            0.05499497801065445,
            -0.6284348964691162,
            -0.9239478707313538,
            -2.102485179901123,
            0.3889167010784149,
            0.08732633292675018,
            -0.6655269861221313,
            -1.1021008491516113,
            0.011771361343562603,
            1.027015209197998,
            -0.14783217012882233,
            0.0005319118499755859,
            0.11821112036705017,
            0.03835806995630264,
            -0.05780789256095886,
            -0.11272194981575012,
            -0.0741274356842041,
            0.07182535529136658,
            0.08163250982761383,
            0.07557141035795212,
            0.10914047062397003,
            -0.39962059259414673,
            -0.07162812352180481,
            0.08468003571033478,
            -0.07354003936052322,
            -0.06707878410816193,
            -0.13045455515384674,
            -0.03506704047322273,
            -0.0766819417476654,
            0.06368769705295563,
            0.04693036526441574,
            0.06156359240412712,
            0.048634570091962814,
            0.12032108008861542,
            0.12086887657642365,
            0.002419382333755493,
            -0.10723583400249481,
            -0.06734421849250793,
            0.04482544958591461,
            0.06447520852088928,
            -0.044526148587465286,
            0.11237364262342453,
            -0.028919890522956848,
            0.04248824715614319,
            0.13294534385204315,
            0.03075927495956421,
            0.051039159297943115,
            0.00926196575164795,
            -0.07824733853340149,
            0.0341983437538147,
            0.11520278453826904,
            0.07034720480442047,
            -0.05793158710002899,
            0.05130303278565407,
            0.005276888608932495,
            -0.12136618047952652,
            0.2466999590396881,
            0.11909204721450806,
            0.022001154720783234,
            0.10191139578819275,
            0.05571335181593895,
            -0.029260963201522827,
            0.07869313657283783,
            0.07277020812034607,
            -0.09864300489425659,
            -0.0860627144575119,
            -0.10594231635332108,
            -0.08074776828289032,
            0.2323111593723297,
            -0.025561943650245667,
            -0.027591044083237648,
            -0.1758524477481842,
            -0.12252475321292877,
            0.02513912133872509,
            0.0018822342390194535,
            1.1474727392196655
        ]
    },
    "decoder": {
        "num_inputs": 1,
        "num_outputs": 2,
        "num_hidden_layers": 1,
        "neurons_per_hidden_layer": 64,
        "hidden_layer_activation_function": "relu",
        "final_layer_activation_function": null,
        "bias": true,
        "weights": [
            -0.8306489586830139,
            0.26193320751190186,
            0.5751423835754395,
            1.294790267944336,
            -0.9657766819000244,
            -0.6792572140693665,
            2.0249805450439453,
            -1.10454523563385,
            -2.024080276489258,
            -1.7848219871520996,
            0.03038012981414795,
            -0.745971143245697,
            0.447798490524292,
            -2.0029661655426025,
            0.6879903078079224,
            1.5554691553115845,
            -1.3083535432815552,
            1.2734516859054565,
            -1.767366647720337,
            -2.1896443367004395,
            -1.0892455577850342,
            -0.12214076519012451,
            0.23914837837219238,
            -1.0270243883132935,
            0.2538219690322876,
            -0.4738125801086426,
            -1.740397572517395,
            0.385878324508667,
            -1.4259517192840576,
            -0.45489978790283203,
            -1.0163509845733643,
            1.2866454124450684,
            1.6667989492416382,
            -0.8181250691413879,
            0.1419997215270996,
            0.8444417715072632,
            -1.957842469215393,
            -1.2497332096099854,
            -0.6788213849067688,
            -1.8075580596923828,
            -0.9399717450141907,
            -2.1188156604766846,
            -0.3809148073196411,
            -1.495131254196167,
            -0.6994147896766663,
            -2.0766544342041016,
            -0.3394343852996826,
            -2.3152525424957275,
            -1.7102142572402954,
            0.1286543607711792,
            -2.0699501037597656,
            -1.1892515420913696,
            -1.3580589294433594,
            -0.5841359496116638,
            -2.2790093421936035,
            -0.7188477516174316,
            -1.2508201599121094,
            -2.201392889022827,
            -0.8349284529685974,
            -0.6343215703964233,
            -0.08384084701538086,
            -0.9722108840942383,
            1.7066131830215454,
            0.21498346328735352,
            2.3282296657562256,
            -0.5423965454101562,
            -0.7089990377426147,
            -0.9766528606414795,
            -0.5048673152923584,
            1.8138929605484009,
            -0.2366873174905777,
            2.276949882507324,
            1.772737979888916,
            2.2805702686309814,
            -0.9224966764450073,
            2.1312413215637207,
            -0.9310123920440674,
            2.350059747695923,
            -0.7384301424026489,
            -1.1736674308776855,
            2.516042470932007,
            -0.1562228500843048,
            2.5178236961364746,
            2.173430919647217,
            1.8817795515060425,
            -0.2088167667388916,
            -0.7591385841369629,
            2.5192625522613525,
            -0.335768461227417,
            -0.5569677352905273,
            2.1226816177368164,
            -0.8758443593978882,
            2.3134500980377197,
            -0.8214186429977417,
            2.4316048622131348,
            -0.9705468416213989,
            -1.2571845054626465,
            2.3364861011505127,
            -0.44374215602874756,
            -0.7865704894065857,
            2.182413101196289,
            2.3431999683380127,
            1.937949538230896,
            2.651000499725342,
            2.356710195541382,
            2.394272804260254,
            -0.06813323497772217,
            2.5558393001556396,
            1.8861756324768066,
            1.999541163444519,
            -0.3153914213180542,
            2.0275633335113525,
            2.338756561279297,
            -0.8198063373565674,
            1.8131781816482544,
            2.6625914573669434,
            2.1168034076690674,
            2.111468553543091,
            2.153808355331421,
            -0.7497625350952148,
            2.167962074279785,
            1.9481346607208252,
            2.645030975341797,
            -0.5361427068710327,
            -0.532896876335144,
            -0.7240715026855469,
            -0.22936449944972992,
            -0.8595180511474609,
            0.04771053045988083,
            0.008074834942817688,
            0.052886396646499634,
            -14.9922456741333,
            -0.06138536334037781,
            -0.002547735348343849,
            0.966121256351471,
            -0.14678342640399933,
            -0.29956889152526855,
            -0.17911334335803986,
            0.03145749866962433,
            -0.03618074581027031,
            0.09630134701728821,
            -0.2704704701900482,
            0.09528964757919312,
            -15.123404502868652,
            0.054655756801366806,
            0.599393904209137,
            -0.03019924834370613,
            -0.2685489058494568,
            0.054483767598867416,
            -0.06697970628738403,
            0.011147111654281616,
            0.04560212790966034,
            -0.11221843957901001,
            -0.041648849844932556,
            -0.02589837834239006,
            0.039949268102645874,
            0.025965524837374687,
            0.08612941205501556,
            -0.07901186496019363,
            -15.061805725097656,
            -14.514472007751465,
            0.023558994755148888,
            -0.015448197722434998,
            0.038980867713689804,
            -0.05104435980319977,
            0.07472919672727585,
            -0.006858362350612879,
            -0.0008081013802438974,
            -0.13654948770999908,
            -0.1928449422121048,
            -0.017422080039978027,
            -0.011758946813642979,
            -0.034443411976099014,
            -0.1330656260251999,
            0.008747965097427368,
            -0.17756956815719604,
            -0.19814862310886383,
            -0.03578279912471771,
            -0.057242251932621,
            -0.1151910349726677,
            -0.02787937968969345,
            -0.005555775482207537,
            -0.18950629234313965,
            0.045877620577812195,
            -0.03379868343472481,
            -0.3137921392917633,
            -0.11523392796516418,
            0.10028427839279175,
            0.07848861813545227,
            -0.06122651696205139,
            0.08130159229040146,
            -0.08078999817371368,
            1.2757691144943237,
            -0.09074987471103668,
            -0.11216193437576294,
            -6.768568515777588,
            0.09012383222579956,
            1.617640495300293,
            -1.0313355922698975,
            1.334204077720642,
            1.9428242444992065,
            1.4689723253250122,
            0.08024910092353821,
            1.448168158531189,
            -0.10369320213794708,
            1.468772292137146,
            0.08753848075866699,
            -5.387278079986572,
            1.2288761138916016,
            -1.2096766233444214,
            1.4210467338562012,
            1.6011732816696167,
            1.636730432510376,
            0.0013297051191329956,
            0.08409668505191803,
            1.2657434940338135,
            -0.11904260516166687,
            -0.04453963041305542,
            1.55276358127594,
            -0.05551880598068237,
            1.417380928993225,
            0.03935316205024719,
            1.2538697719573975,
            -6.451520919799805,
            -8.074007034301758,
            1.3574153184890747,
            0.019768953323364258,
            0.1237407922744751,
            1.5426461696624756,
            1.3633328676223755,
            1.5852388143539429,
            1.3156828880310059,
            1.363696575164795,
            1.3770251274108887,
            -0.107344850897789,
            1.3503992557525635,
            1.5836445093154907,
            1.6826138496398926,
            -0.09511640667915344,
            1.7293012142181396,
            1.4470300674438477,
            -0.03784668445587158,
            2.022737979888916,
            1.28524911403656,
            1.5026898384094238,
            1.4259456396102905,
            1.6135109663009644,
            -0.11993896961212158,
            1.4447367191314697,
            1.7850265502929688,
            1.2767791748046875,
            -0.1229010671377182,
            -0.07077915966510773,
            -0.09040805697441101,
            -0.7771093249320984,
            -0.10896673798561096,
            0.014764273539185524,
            0.9496676921844482
        ]
    }
}