{
    "num_epochs": 20000,
    "batch_size": 256,
    "final_loss": 12.076014041900635,
    "learning_rate": 0.001,
    "train_data_exp_dir_paths": [
        "/app/data/cmc_configs/cmc_train_data"
    ],
    "encoder": {
        "num_inputs": 2,
        "num_outputs": 1,
        "num_hidden_layers": 1,
        "neurons_per_hidden_layer": 64,
        "hidden_layer_activation_function": "relu",
        "final_layer_activation_function": null,
        "bias": true,
        "weights": [
            0.48697391152381897,
            0.2965732514858246,
            0.04124836251139641,
            -0.3490535318851471,
            -0.316266268491745,
            -0.0918273776769638,
            -0.21925298869609833,
            0.36027148365974426,
            -0.3609614074230194,
            0.10384213179349899,
            0.5468776822090149,
            -0.48274484276771545,
            0.45753732323646545,
            -0.2143433541059494,
            0.03278964385390282,
            0.21257111430168152,
            0.38968056440353394,
            0.6571360230445862,
            -0.5685157775878906,
            -0.6821106672286987,
            0.2831748127937317,
            -0.5173149704933167,
            0.16611607372760773,
            -0.5166997313499451,
            -0.261599600315094,
            0.09842753410339355,
            -0.23623502254486084,
            0.17200398445129395,
            -0.950519323348999,
            0.5348581075668335,
            -0.5334542393684387,
            -0.34082597494125366,
            0.128807932138443,
            -0.3822553753852844,
            0.3649304211139679,
            0.3240780234336853,
            -0.3142614960670471,
            0.31443944573402405,
            0.3994177579879761,
            0.08604864776134491,
            0.07165319472551346,
            0.13831020891666412,
            -0.2740420997142792,
            -0.32630670070648193,
            -0.6132965087890625,
            -0.40212324261665344,
            -0.58638995885849,
            -0.5767377018928528,
            -0.5805624127388,
            0.15987259149551392,
            0.3701223134994507,
            -0.6230274438858032,
            0.025461163371801376,
            -0.3921012282371521,
            0.8914704322814941,
            0.4872606098651886,
            0.18223825097084045,
            -0.5144571661949158,
            0.5755292177200317,
            -0.698525607585907,
            -0.3259057402610779,
            -0.2779291272163391,
            0.8163034915924072,
            0.46227535605430603,
            -0.39555633068084717,
            -0.3161972761154175,
            -0.7934059500694275,
            -0.08485045284032822,
            0.5473658442497253,
            -0.21316754817962646,
            -0.2042539119720459,
            0.29001176357269287,
            0.3580901622772217,
            -0.12547184526920319,
            -0.8630810379981995,
            0.047605421394109726,
            -0.4337604343891144,
            -0.15432649850845337,
            -0.30174902081489563,
            -0.18620342016220093,
            0.47661492228507996,
            -0.21686246991157532,
            -0.08700989186763763,
            -0.603225827217102,
            -0.3188072741031647,
            -0.08808349817991257,
            -0.2830890715122223,
            -0.41714581847190857,
            -0.10087787359952927,
            -0.029626619070768356,
            0.42581799626350403,
            0.5917166471481323,
            0.2067522257566452,
            0.5976985692977905,
            -0.13856884837150574,
            0.2187132090330124,
            0.09675183892250061,
            0.4533006250858307,
            0.44616442918777466,
            -0.6294988989830017,
            -0.016268594190478325,
            -0.04209471121430397,
            -0.17587655782699585,
            -0.05567287281155586,
            -0.45549508929252625,
            -0.15421408414840698,
            -0.39596837759017944,
            -0.38491830229759216,
            -0.3445785343647003,
            0.4085891842842102,
            -0.4281274974346161,
            -0.2618008852005005,
            -0.2319663017988205,
            -0.36499643325805664,
            -0.1475014090538025,
            -0.46693354845046997,
            -0.17464664578437805,
            0.2533918023109436,
            -0.3679209053516388,
            -0.5604554414749146,
            -0.10414724051952362,
            0.50564044713974,
            -0.2467416375875473,
            -0.6019101738929749,
            -0.2087356299161911,
            -0.27578839659690857,
            -0.011772396974265575,
            0.379069060087204,
            0.390670508146286,
            0.5675143599510193,
            -0.7298343181610107,
            -1.1805781126022339,
            -1.9308170080184937,
            -0.22512830793857574,
            -0.012938660569489002,
            0.9164162278175354,
            -1.1725300550460815,
            -0.5886110067367554,
            0.3054151237010956,
            0.4114411473274231,
            -0.9783661365509033,
            -0.6519725918769836,
            -0.791585385799408,
            -0.6259296536445618,
            0.6996495723724365,
            1.5642871856689453,
            -1.0430611371994019,
            0.8387371301651001,
            -1.5160757303237915,
            -0.5319106578826904,
            0.24141208827495575,
            0.24516147375106812,
            0.7147189974784851,
            0.6185746788978577,
            -0.6954475045204163,
            0.8853670954704285,
            -0.7016974687576294,
            -0.20443354547023773,
            0.11767062544822693,
            0.28276851773262024,
            -0.11438460648059845,
            1.2928780317306519,
            -0.5016743540763855,
            1.6309131383895874,
            -0.14563396573066711,
            0.5687100887298584,
            0.5802238583564758,
            -0.49475157260894775,
            0.6088699102401733,
            0.36199262738227844,
            0.7301805019378662,
            -0.12517555058002472,
            -0.38266465067863464,
            0.48279404640197754,
            -1.1952433586120605,
            0.7320340275764465,
            -1.6279290914535522,
            0.28654974699020386,
            -0.4386335611343384,
            0.3922622799873352,
            0.48911434412002563,
            0.5000061988830566,
            -1.1776440143585205,
            0.4523046314716339,
            0.5230363011360168,
            0.3900753855705261,
            -1.8369979858398438,
            0.023023895919322968,
            0.9238691926002502,
            -0.5093177556991577,
            -0.2961982786655426,
            -0.5026630163192749,
            -0.007763472851365805,
            -0.08936592936515808,
            0.07878658920526505,
            0.04366438463330269,
            0.21789659559726715,
            -0.07136832177639008,
            -0.10768181085586548,
            -0.09293623268604279,
            0.08833939582109451,
            -0.030758127570152283,
            -0.04827798902988434,
            0.0015181154012680054,
            0.1202799379825592,
            0.05646762624382973,
            0.0441228449344635,
            0.09893670678138733,
            0.029054313898086548,
            -0.10739491134881973,
            0.028317134827375412,
            -0.14726285636425018,
            0.07904885709285736,
            -0.10961312055587769,
            0.11027535796165466,
            0.05058020353317261,
            -0.02351471781730652,
            -0.0583004355430603,
            -0.052427127957344055,
            -0.04903586953878403,
            -0.06676784157752991,
            -0.050054848194122314,
            0.024116680026054382,
            -0.051685724407434464,
            -0.09524783492088318,
            -0.0032756486907601357,
            0.0969001054763794,
            -0.1186942383646965,
            0.0714067816734314,
            -0.28086885809898376,
            0.0010099858045578003,
            0.12465384602546692,
            0.014161661267280579,
            0.0667266845703125,
            -0.03691164031624794,
            -0.04440498352050781,
            -0.04105924814939499,
            -0.05490083992481232,
            0.11838168650865555,
            -0.46782150864601135,
            0.14218001067638397,
            0.04004712402820587,
            0.016351912170648575,
            0.018361760303378105,
            0.021242428570985794,
            0.03153619170188904,
            0.05380235239863396,
            0.009839430451393127,
            -0.012273654341697693,
            -0.04541084170341492,
            0.08835341036319733,
            0.08394531905651093,
            -0.0446355827152729,
            0.06582802534103394,
            0.08891251683235168,
            0.0971345603466034,
            -1.0569324493408203
        ]
    },
    "decoder": {
        "num_inputs": 1,
        "num_outputs": 2,
        "num_hidden_layers": 1,
        "neurons_per_hidden_layer": 64,
        "hidden_layer_activation_function": "relu",
        "final_layer_activation_function": null,
        "bias": true,
        "weights": [
            -0.9189755916595459,
            2.2005531787872314,
            1.7689449787139893,
            2.1481871604919434,
            -0.9397138953208923,
            1.6670581102371216,
            -1.2447673082351685,
            2.112273931503296,
            -0.898310661315918,
            2.377039670944214,
            1.2023096084594727,
            2.3991503715515137,
            -0.9059267640113831,
            -0.3132975101470947,
            -0.40511882305145264,
            1.786441445350647,
            0.3566458225250244,
            0.5859760046005249,
            -0.5139495134353638,
            -0.11477994918823242,
            -0.91845703125,
            -0.42937707901000977,
            0.10271322727203369,
            2.5460872650146484,
            2.349195718765259,
            1.9886415004730225,
            0.42841529846191406,
            0.22020280361175537,
            -0.6691664457321167,
            1.4106601476669312,
            -0.2563401460647583,
            1.100642442703247,
            1.7327988147735596,
            2.217069149017334,
            -0.5653247833251953,
            0.2974969148635864,
            -0.16614115238189697,
            2.1106297969818115,
            -0.7623815536499023,
            -0.8517134189605713,
            1.544643521308899,
            1.426809549331665,
            0.7669219970703125,
            -1.135116457939148,
            -0.24496078491210938,
            2.660331964492798,
            2.008781909942627,
            2.1276566982269287,
            1.8389610052108765,
            0.3759969472885132,
            1.5955926179885864,
            2.3289871215820312,
            2.4025561809539795,
            0.0817880630493164,
            1.571860671043396,
            -1.2266062498092651,
            -0.12097048759460449,
            -0.5531821250915527,
            2.723158836364746,
            1.544353723526001,
            1.3289767503738403,
            -0.38859128952026367,
            1.5832871198654175,
            -0.005533337593078613,
            -0.5262683629989624,
            0.33491969108581543,
            1.0822504758834839,
            0.8669982552528381,
            0.7449452877044678,
            1.2208449840545654,
            1.0137887001037598,
            1.4390043020248413,
            -0.2747136354446411,
            0.9319343566894531,
            1.8291075229644775,
            0.1761579066514969,
            0.7345361113548279,
            -0.7970379590988159,
            -0.07485198974609375,
            1.1944698095321655,
            -0.7922942638397217,
            -0.88724684715271,
            -0.11128151416778564,
            -0.34190142154693604,
            -0.8200365304946899,
            -0.4266319274902344,
            -0.3415236473083496,
            0.19544318318367004,
            1.6585291624069214,
            1.0360596179962158,
            -0.7305665016174316,
            -0.42475271224975586,
            -0.8477489948272705,
            1.8571760654449463,
            -0.059197425842285156,
            1.7799056768417358,
            1.589303970336914,
            1.4333914518356323,
            -0.41214287281036377,
            -0.45386803150177,
            -0.20997178554534912,
            1.8069093227386475,
            -0.15713465213775635,
            -0.1586742401123047,
            1.2516939640045166,
            1.4469540119171143,
            -0.9392479658126831,
            0.9176998138427734,
            -0.7463400363922119,
            0.4081730842590332,
            0.7117264270782471,
            1.155877947807312,
            1.8904340267181396,
            -0.7081106901168823,
            1.31866455078125,
            1.661656141281128,
            1.7928155660629272,
            -0.5702897310256958,
            1.5692636966705322,
            0.9976277351379395,
            -0.6514890193939209,
            -0.3905067443847656,
            0.3516004979610443,
            1.2751511335372925,
            1.7794965505599976,
            -0.10911381244659424,
            1.2139126062393188,
            -0.8713548183441162,
            -0.0003286898136138916,
            -0.16148501634597778,
            -0.10501408576965332,
            -0.1230292022228241,
            -0.2808177173137665,
            -0.09406920522451401,
            1.1871086359024048,
            -0.055560559034347534,
            0.03309817612171173,
            0.002696902258321643,
            0.0913034975528717,
            -0.07629896700382233,
            0.914230465888977,
            0.1029265820980072,
            0.06836958229541779,
            -0.1639762967824936,
            -0.11856275796890259,
            0.0810699462890625,
            0.0645660012960434,
            -0.03546935319900513,
            0.08543680608272552,
            0.09459860622882843,
            -0.12362173199653625,
            -0.06668606400489807,
            -0.17064781486988068,
            -0.038059137761592865,
            0.015028074383735657,
            0.06587298214435577,
            0.025498002767562866,
            -0.07937425374984741,
            0.11128434538841248,
            0.0646984651684761,
            0.04179491102695465,
            -0.0535891056060791,
            -0.11246494948863983,
            0.00825279951095581,
            -0.08368772268295288,
            -0.07312598824501038,
            0.014682799577713013,
            -0.0174875408411026,
            0.03435157611966133,
            0.11419087648391724,
            0.11093278229236603,
            0.1078220084309578,
            0.07168920338153839,
            -0.12422040104866028,
            -0.11240076273679733,
            -0.11724097281694412,
            -0.03929583355784416,
            0.09381040930747986,
            0.045785482972860336,
            0.045797813683748245,
            -0.06691218912601471,
            0.0096052885055542,
            0.05233124643564224,
            0.9225274920463562,
            -0.05845819413661957,
            -0.009502619504928589,
            -0.21461834013462067,
            -0.04539765790104866,
            -0.12090617418289185,
            0.029738962650299072,
            -0.0022061567287892103,
            0.11973218619823456,
            -0.008792221546173096,
            1.6182700395584106,
            1.2390888929367065,
            1.1003303527832031,
            -1.7934629917144775,
            1.2111984491348267,
            -2.2354440689086914,
            1.069007396697998,
            -0.09968574345111847,
            1.2229636907577515,
            1.0195587873458862,
            1.6509648561477661,
            -2.223942995071411,
            0.0708925724029541,
            0.007010176777839661,
            1.2029056549072266,
            0.07068230211734772,
            0.11175496876239777,
            -0.07766465842723846,
            0.054300740361213684,
            0.08486601710319519,
            0.06851464509963989,
            -0.029930591583251953,
            1.5843713283538818,
            0.8971426486968994,
            1.175281286239624,
            0.07312281429767609,
            0.10405798256397247,
            0.0259619802236557,
            0.9702427387237549,
            0.03682410717010498,
            1.0137089490890503,
            1.0837533473968506,
            1.0934661626815796,
            -0.12460820376873016,
            0.07201321423053741,
            -0.09065385162830353,
            1.0236701965332031,
            -0.10598546266555786,
            0.07163450121879578,
            1.2106456756591797,
            1.131325125694275,
            -0.039749786257743835,
            -1.8346072435379028,
            -0.09991900622844696,
            1.3875962495803833,
            1.4246867895126343,
            1.1333469152450562,
            0.9281932711601257,
            0.061632364988327026,
            1.065243124961853,
            1.0868983268737793,
            0.9287739396095276,
            -0.09788483381271362,
            1.0688416957855225,
            -2.1669890880584717,
            0.12124481797218323,
            0.11218327283859253,
            1.4010978937149048,
            1.1000853776931763,
            1.01704740524292,
            -0.010284423828125,
            1.2183177471160889,
            0.007321000099182129,
            -0.07008319348096848,
            0.5390107035636902
        ]
    }
}