{
    "num_epochs": 20000,
    "batch_size": 256,
    "final_loss": 74.86015892028809,
    "learning_rate": 0.001,
    "train_data_exp_dir_paths": [
        "/app/data/cmc_configs/cmc_train_data"
    ],
    "encoder": {
        "num_inputs": 2,
        "num_outputs": 1,
        "num_hidden_layers": 1,
        "neurons_per_hidden_layer": 64,
        "hidden_layer_activation_function": "relu",
        "final_layer_activation_function": null,
        "bias": true,
        "weights": [
            0.307151734828949,
            -0.02694625034928322,
            -0.2675522565841675,
            0.4234239161014557,
            -0.8436276316642761,
            0.17700494825839996,
            0.26593780517578125,
            0.38348323106765747,
            -0.08410368114709854,
            -0.03806913644075394,
            -0.14206816256046295,
            0.6426481008529663,
            -0.8523968458175659,
            0.13801360130310059,
            -0.29523515701293945,
            -0.0694950670003891,
            -0.6392818689346313,
            -0.38552960753440857,
            0.00491297198459506,
            0.382642537355423,
            -0.6647435426712036,
            0.5273609757423401,
            -0.5687202215194702,
            0.5133065581321716,
            0.22635385394096375,
            -0.454807311296463,
            -0.3373369574546814,
            -0.17761465907096863,
            -0.2680175304412842,
            0.4302835464477539,
            -0.6043928265571594,
            0.299347460269928,
            0.6510122418403625,
            0.064850814640522,
            -0.02675064094364643,
            0.3740476071834564,
            0.5955075621604919,
            -0.25169995427131653,
            0.19259095191955566,
            -0.033389490097761154,
            0.5000765919685364,
            -0.11611329764127731,
            -0.2947675585746765,
            -0.16403840482234955,
            0.02211681567132473,
            0.3090837001800537,
            -0.6965101957321167,
            0.1361243575811386,
            -0.3481786549091339,
            -0.33036866784095764,
            0.5482481122016907,
            -0.6908086538314819,
            0.15246203541755676,
            0.22990630567073822,
            0.13313116133213043,
            0.1405424326658249,
            -0.41571375727653503,
            -0.46287742257118225,
            0.20297756791114807,
            0.48909810185432434,
            0.3704761862754822,
            -0.06817732751369476,
            0.03038138709962368,
            -0.40148529410362244,
            0.5133649110794067,
            0.5818727016448975,
            -0.4294987916946411,
            -0.3684741258621216,
            0.018970564007759094,
            0.09029868245124817,
            -0.30812549591064453,
            0.4603859782218933,
            0.24050003290176392,
            -0.2758452892303467,
            0.33346882462501526,
            -0.2788615822792053,
            0.21178537607192993,
            -0.042950589209795,
            -0.21402287483215332,
            -0.4317905008792877,
            0.6994074583053589,
            0.4459875524044037,
            0.5933160781860352,
            0.4309314787387848,
            -0.3443220555782318,
            -0.3873485028743744,
            0.4387594759464264,
            -0.5313137173652649,
            -0.21733498573303223,
            0.13108542561531067,
            -0.17085978388786316,
            -0.09303571283817291,
            -0.5062768459320068,
            0.2396852821111679,
            -0.418138712644577,
            0.49447521567344666,
            0.15932396054267883,
            0.31189092993736267,
            -0.6424225568771362,
            0.5091657638549805,
            -0.0525393933057785,
            0.25348010659217834,
            0.6262925267219543,
            -0.14074821770191193,
            -0.5270132422447205,
            0.2757980525493622,
            0.6236199140548706,
            0.34797126054763794,
            -0.1381789594888687,
            0.3006017208099365,
            -0.42756780982017517,
            -0.7042591571807861,
            -0.23850098252296448,
            0.7237268686294556,
            -0.4702779948711395,
            -0.6865335702896118,
            -0.3809311091899872,
            0.3175513446331024,
            -0.1492287516593933,
            -0.38763120770454407,
            -0.28078150749206543,
            0.4266569912433624,
            -0.018213430419564247,
            0.48134323954582214,
            0.421933114528656,
            -0.6851709485054016,
            -0.36415955424308777,
            -0.09444156289100647,
            -0.08177769929170609,
            -0.526220977306366,
            -0.2191120982170105,
            -0.24988844990730286,
            -0.06607180088758469,
            -0.44656580686569214,
            0.1013890728354454,
            -0.8452054858207703,
            0.640902578830719,
            0.05131671205163002,
            -0.12463292479515076,
            -0.09830522537231445,
            -0.43046876788139343,
            -0.3039678633213043,
            -0.5947675108909607,
            -0.5649915337562561,
            0.00048638542648404837,
            -0.17084692418575287,
            -0.5835204124450684,
            -0.6922301054000854,
            0.2723936438560486,
            0.4619711637496948,
            0.5902597904205322,
            -0.7348403930664062,
            -0.5496850609779358,
            0.6253194808959961,
            0.37523308396339417,
            -0.24943417310714722,
            0.25014591217041016,
            -0.6441571712493896,
            -0.6675964593887329,
            0.09638360142707825,
            0.4555393159389496,
            -0.2747972905635834,
            -0.3164825439453125,
            -0.6884148120880127,
            0.47501274943351746,
            -0.4774234890937805,
            0.01057515013962984,
            0.24200627207756042,
            -0.18338510394096375,
            0.668423056602478,
            -0.536386251449585,
            0.27871599793434143,
            -0.30123478174209595,
            0.5018589496612549,
            0.6965010762214661,
            -0.6274304389953613,
            0.5956505537033081,
            -0.6679023504257202,
            -0.5195719003677368,
            0.3997134566307068,
            -0.44103214144706726,
            -0.28078263998031616,
            0.11485983431339264,
            -0.2552872598171234,
            0.38208359479904175,
            0.6240946650505066,
            -0.19022555649280548,
            0.5895524621009827,
            0.7000150680541992,
            0.25505173206329346,
            0.26863399147987366,
            -0.00784580409526825,
            0.01335376501083374,
            0.008387397043406963,
            0.04519020766019821,
            0.13573288917541504,
            -0.010852312669157982,
            0.06421571969985962,
            0.1206928938627243,
            -0.0045478446409106255,
            0.059458762407302856,
            -0.002389141358435154,
            0.10543394833803177,
            0.004632617812603712,
            -0.0030780136585235596,
            -0.034308478236198425,
            -0.022992011159658432,
            0.1605832278728485,
            -0.09344112128019333,
            0.1320316046476364,
            -0.07485660910606384,
            -0.1078723818063736,
            0.11879485845565796,
            -0.02926643192768097,
            -0.05261484533548355,
            0.15463562309741974,
            0.08941644430160522,
            -0.0998554527759552,
            0.11193449050188065,
            0.018748175352811813,
            -0.05104200541973114,
            0.05486685782670975,
            0.12056979537010193,
            -0.12420253455638885,
            -0.019348032772541046,
            -0.024047642946243286,
            0.06063731387257576,
            0.13394734263420105,
            0.024026721715927124,
            0.04106628894805908,
            -0.059323206543922424,
            0.0502568781375885,
            -0.01282536331564188,
            -0.00283167976886034,
            -0.056094780564308167,
            0.008556216955184937,
            -0.20010913908481598,
            -0.005857110023498535,
            -0.17997202277183533,
            -0.0002278517058584839,
            0.0006003208109177649,
            0.17059840261936188,
            0.022746985778212547,
            0.1136825680732727,
            -0.3350623846054077,
            -0.02718552015721798,
            0.16521698236465454,
            -0.10152620077133179,
            0.1733449399471283,
            0.02439473569393158,
            -0.036207959055900574,
            -0.07720156013965607,
            -0.03400174528360367,
            0.05922701954841614,
            -0.05568432807922363,
            -0.11370716989040375,
            -0.08586443960666656
        ]
    },
    "decoder": {
        "num_inputs": 1,
        "num_outputs": 2,
        "num_hidden_layers": 1,
        "neurons_per_hidden_layer": 64,
        "hidden_layer_activation_function": "relu",
        "final_layer_activation_function": null,
        "bias": true,
        "weights": [
            0.8922051191329956,
            1.7492657899856567,
            0.2509443759918213,
            0.6448163986206055,
            -0.3400990962982178,
            -0.8579513430595398,
            1.2017543315887451,
            0.7091376781463623,
            -0.4573558568954468,
            1.2993361949920654,
            0.967124879360199,
            1.6973609924316406,
            1.0905996561050415,
            1.6161415576934814,
            1.273050308227539,
            1.844731092453003,
            0.9692929983139038,
            -0.3098970651626587,
            0.5700827240943909,
            0.2995879650115967,
            1.6755728721618652,
            0.08809912204742432,
            0.2744148373603821,
            0.15273475646972656,
            -0.5298720598220825,
            0.8893459439277649,
            1.4374797344207764,
            0.20817041397094727,
            -0.36568427085876465,
            1.5228869915008545,
            -0.706663966178894,
            1.3308217525482178,
            -0.9835910201072693,
            0.05707893520593643,
            0.8597181439399719,
            -0.5733894109725952,
            1.135742425918579,
            1.2436758279800415,
            1.7225621938705444,
            1.6889541149139404,
            -0.6249476671218872,
            -0.2865128517150879,
            -0.6036497354507446,
            -0.5727200508117676,
            1.6399366855621338,
            -0.7430962324142456,
            1.402618408203125,
            0.048129916191101074,
            -0.8852497339248657,
            -0.8352734446525574,
            1.3344805240631104,
            1.789435625076294,
            1.7025068998336792,
            0.14838087558746338,
            -0.07924902439117432,
            -0.8804408311843872,
            0.3860487639904022,
            0.5393293499946594,
            1.526413917541504,
            1.0717334747314453,
            -0.13835501670837402,
            1.13517165184021,
            1.3751028776168823,
            1.7301474809646606,
            1.5552924871444702,
            1.4303748607635498,
            -0.30907130241394043,
            1.9054337739944458,
            -0.5374500751495361,
            0.8452239036560059,
            1.6437466144561768,
            1.3978346586227417,
            -0.5046459436416626,
            1.0636497735977173,
            1.0066499710083008,
            1.6877373456954956,
            1.4096883535385132,
            1.171051025390625,
            1.789746880531311,
            1.8981541395187378,
            1.2343398332595825,
            -0.935486912727356,
            1.565688967704773,
            -0.9970349073410034,
            1.5612454414367676,
            -0.795292854309082,
            1.6565752029418945,
            -0.7180284261703491,
            -0.773435115814209,
            1.3514554500579834,
            1.6443768739700317,
            -0.6488497257232666,
            -0.5377691984176636,
            1.3992940187454224,
            -0.2443985939025879,
            1.6065025329589844,
            0.5531447529792786,
            1.4542683362960815,
            1.1809492111206055,
            -0.3663860559463501,
            1.7039339542388916,
            1.1590238809585571,
            0.9810254573822021,
            1.6942832469940186,
            0.3693562150001526,
            -0.028964638710021973,
            -0.7014114856719971,
            0.513869047164917,
            0.7912061214447021,
            -0.3765561580657959,
            1.0533740520477295,
            -0.9231855869293213,
            -0.8920010328292847,
            0.8214929699897766,
            0.9014430642127991,
            1.5513008832931519,
            0.834113359451294,
            -0.3943895101547241,
            -0.7950299978256226,
            0.8757023215293884,
            1.9163576364517212,
            -0.5545021295547485,
            1.8353902101516724,
            1.7356475591659546,
            -0.1434100866317749,
            1.2917391061782837,
            1.9051188230514526,
            1.299362063407898,
            -0.13122476637363434,
            -0.07661446183919907,
            0.0029388368129730225,
            -0.14305289089679718,
            -0.0686277449131012,
            0.018347397446632385,
            0.08497945964336395,
            0.08547043055295944,
            -0.0771079808473587,
            0.025968804955482483,
            0.004789066966623068,
            0.09077517688274384,
            0.09475663304328918,
            -0.12067953497171402,
            -0.02722555212676525,
            0.0497080497443676,
            0.059210266917943954,
            0.03422200679779053,
            -0.0777030736207962,
            -0.08125762641429901,
            -0.11315588653087616,
            0.06763534247875214,
            -0.03100701980292797,
            0.030336767435073853,
            -0.09811945259571075,
            -0.11098316311836243,
            -0.02316144108772278,
            0.040758997201919556,
            -0.03285074234008789,
            -0.08818203210830688,
            0.012072384357452393,
            -0.02084958553314209,
            -0.005185173358768225,
            -0.0872124508023262,
            -0.015884602442383766,
            -0.07036733627319336,
            -0.007405165582895279,
            0.01078871637582779,
            -0.13231705129146576,
            0.04939389228820801,
            0.0671374574303627,
            0.04520149528980255,
            0.10017412900924683,
            -0.005432659760117531,
            -0.028860876336693764,
            -0.06814099848270416,
            0.09230293333530426,
            0.05370515584945679,
            -0.07590968906879425,
            -0.05035896599292755,
            -0.00718025304377079,
            0.04047732800245285,
            -0.12413863837718964,
            0.0600941926240921,
            0.11998991668224335,
            0.06866906583309174,
            -0.0924389511346817,
            -0.07899243384599686,
            -0.06716904044151306,
            -0.05137843266129494,
            0.11343400180339813,
            0.0773296058177948,
            0.04788292199373245,
            -0.1016264408826828,
            0.6206446290016174,
            0.7754033803939819,
            -0.0763738751411438,
            0.7066805958747864,
            0.07555180788040161,
            0.2700121998786926,
            0.686930239200592,
            0.8462714552879333,
            0.0731208473443985,
            0.8225618600845337,
            0.9188300967216492,
            0.5786156058311462,
            0.7743017673492432,
            0.7075769305229187,
            0.764937162399292,
            0.6733170747756958,
            0.8787644505500793,
            0.05894438922405243,
            0.7836329340934753,
            -0.12057644128799438,
            0.6025109887123108,
            -0.05820198357105255,
            0.8234231472015381,
            -0.0761503279209137,
            -0.1112021654844284,
            0.841724157333374,
            0.7166610956192017,
            -0.10350020229816437,
            0.02498483657836914,
            0.7440797090530396,
            -0.04174542427062988,
            0.7178695201873779,
            -0.0007875855662859976,
            0.42550697922706604,
            0.9056124091148376,
            -0.10606743395328522,
            0.6084666848182678,
            0.8309496641159058,
            0.7878209948539734,
            0.6993106007575989,
            0.24826401472091675,
            0.07303318381309509,
            0.03407613933086395,
            0.16091826558113098,
            0.7899840474128723,
            0.008638441562652588,
            0.7968673706054688,
            0.10146468877792358,
            0.12247708439826965,
            0.3036288917064667,
            0.8992843627929688,
            0.6857240200042725,
            0.8603299260139465,
            0.0024611055850982666,
            -0.06271152198314667,
            0.12043236196041107,
            0.6797969341278076,
            -0.020634127780795097,
            0.6926829218864441,
            0.7893922328948975,
            0.0036606192588806152,
            0.769182026386261,
            0.6963763236999512,
            0.7084985375404358,
            -0.09503088146448135,
            0.653186023235321
        ]
    }
}