{
    "num_epochs": 20000,
    "batch_size": 256,
    "final_loss": 11.528092384338379,
    "learning_rate": 0.001,
    "train_data_exp_dir_paths": [
        "/app/data/cmc_configs/cmc_train_data"
    ],
    "encoder": {
        "num_inputs": 2,
        "num_outputs": 1,
        "num_hidden_layers": 1,
        "neurons_per_hidden_layer": 64,
        "hidden_layer_activation_function": "relu",
        "final_layer_activation_function": null,
        "bias": true,
        "weights": [
            -0.5221413373947144,
            -0.45447418093681335,
            -0.2845764458179474,
            -0.3459411561489105,
            0.6435678601264954,
            -0.18677552044391632,
            0.14843273162841797,
            0.15947923064231873,
            -0.0009334904607385397,
            0.29608064889907837,
            -0.4245792627334595,
            0.4541015326976776,
            -0.3806622326374054,
            -0.3577103316783905,
            0.7245928645133972,
            0.03196706995368004,
            -0.6149968504905701,
            -0.3852987289428711,
            -0.5348060727119446,
            0.48670947551727295,
            0.37008607387542725,
            -0.6770967841148376,
            -0.3505181074142456,
            0.3456754982471466,
            -0.2884747087955475,
            -0.09518145769834518,
            0.22525078058242798,
            0.6456474661827087,
            0.2691839635372162,
            0.08469019085168839,
            0.557487964630127,
            -0.6095419526100159,
            -0.381066232919693,
            0.127801775932312,
            0.2503792643547058,
            -0.16828502714633942,
            -0.5601404905319214,
            0.04975622147321701,
            0.05058667063713074,
            -0.02706468291580677,
            0.38401272892951965,
            -0.25927165150642395,
            0.18096010386943817,
            -0.6663023829460144,
            0.2956904470920563,
            0.05027999356389046,
            0.7070979475975037,
            -0.16478624939918518,
            -0.1725524514913559,
            -0.011564280837774277,
            0.09179912507534027,
            0.40828171372413635,
            -0.20514468848705292,
            0.40978583693504333,
            -0.30190491676330566,
            0.07620776444673538,
            0.20870259404182434,
            -0.04531249776482582,
            0.22402328252792358,
            0.3574103116989136,
            -0.23382918536663055,
            0.16878639161586761,
            0.5327216386795044,
            -0.08418875187635422,
            0.3006361722946167,
            0.4769456088542938,
            0.26576724648475647,
            -0.13566496968269348,
            -0.26132816076278687,
            -0.22588813304901123,
            -0.26974013447761536,
            0.14456021785736084,
            0.448453426361084,
            0.10564135760068893,
            0.5219797492027283,
            0.032913170754909515,
            -0.2992905378341675,
            0.13669559359550476,
            -0.6018574237823486,
            -0.3268181085586548,
            -0.2211802452802658,
            -0.6732876896858215,
            -0.5551929473876953,
            -0.35716965794563293,
            0.5167376399040222,
            0.35366761684417725,
            0.28446874022483826,
            0.13905759155750275,
            -0.13208509981632233,
            -0.34802505373954773,
            -0.5615007281303406,
            -0.700127363204956,
            0.08707614988088608,
            -0.2118566930294037,
            0.5052207112312317,
            0.1539551317691803,
            -0.035112082958221436,
            0.6671596169471741,
            -0.02690320461988449,
            0.022379521280527115,
            -0.39151158928871155,
            -0.5795198082923889,
            -0.12780340015888214,
            -0.6833970546722412,
            -0.20631727576255798,
            0.2220018059015274,
            0.3802867829799652,
            -0.3051149249076843,
            -0.4093519449234009,
            0.20430807769298553,
            -0.36526551842689514,
            0.008494755253195763,
            -0.09281502664089203,
            -0.23739810287952423,
            0.520358145236969,
            -0.2741069197654724,
            -0.5296193361282349,
            -0.27355730533599854,
            -0.024598367512226105,
            0.03152840584516525,
            0.12270138412714005,
            0.06165114790201187,
            0.6237890124320984,
            -0.44128239154815674,
            -0.07250681519508362,
            0.653306782245636,
            0.09008568525314331,
            0.06440800428390503,
            0.5252170562744141,
            0.17564387619495392,
            0.014868396334350109,
            -1.2021596431732178,
            0.7741963863372803,
            -0.2645791172981262,
            0.17318713665008545,
            0.010255534201860428,
            0.16081391274929047,
            1.0332794189453125,
            0.525138258934021,
            0.6452931761741638,
            -0.018831629306077957,
            -1.3417104482650757,
            1.5602370500564575,
            0.5479951500892639,
            -1.2534632682800293,
            -0.586774468421936,
            -1.4832316637039185,
            -0.41721677780151367,
            0.24122191965579987,
            0.6953396201133728,
            -0.024977514520287514,
            0.09131434559822083,
            0.5864798426628113,
            -1.5561416149139404,
            -1.252516746520996,
            0.15952956676483154,
            0.3634498119354248,
            -1.512524962425232,
            1.4828077554702759,
            0.23722833395004272,
            1.351354718208313,
            -0.0028689359314739704,
            -0.3434657156467438,
            -1.3267931938171387,
            0.14939461648464203,
            0.2899460792541504,
            1.385516881942749,
            -0.32288581132888794,
            -0.47233515977859497,
            0.2327616959810257,
            -1.4888721704483032,
            1.2122383117675781,
            -0.4573941230773926,
            0.2509620487689972,
            -0.5356027483940125,
            0.37327060103416443,
            -0.16813679039478302,
            -1.3504029512405396,
            -0.22366371750831604,
            -0.06976314634084702,
            -1.525517225265503,
            0.20407739281654358,
            1.3125418424606323,
            1.1519016027450562,
            -0.24860461056232452,
            0.5124519467353821,
            0.09075725078582764,
            -1.8045411109924316,
            0.09717269986867905,
            0.6153625249862671,
            0.9403781890869141,
            -1.9038766622543335,
            -0.12028896808624268,
            -0.12293319404125214,
            0.057094573974609375,
            0.10740440338850021,
            -0.11978935450315475,
            0.11299539357423782,
            -0.04323036968708038,
            -0.09476447850465775,
            0.03763706982135773,
            -0.0791986957192421,
            -0.043536022305488586,
            -0.05021634325385094,
            0.019290005788207054,
            0.05712983012199402,
            -0.17342492938041687,
            0.03761456906795502,
            0.06312533468008041,
            0.06739151477813721,
            0.17798316478729248,
            -0.023544713854789734,
            -0.0008630901575088501,
            -0.0015333890914916992,
            0.025404751300811768,
            -0.025007665157318115,
            0.20314615964889526,
            0.11436835676431656,
            0.02638205513358116,
            -0.03526925668120384,
            0.014256417751312256,
            0.051076702773571014,
            -0.13011403381824493,
            -0.013805001974105835,
            -0.08177067339420319,
            0.05503213405609131,
            -0.11413383483886719,
            0.07506317645311356,
            -0.04248117282986641,
            0.06732849776744843,
            -0.13797155022621155,
            -0.07085169851779938,
            0.07856711745262146,
            -0.07649707794189453,
            0.09820374101400375,
            -0.09497463703155518,
            -0.04478348791599274,
            -0.1148163378238678,
            -0.042680755257606506,
            -0.06402695178985596,
            0.08931441605091095,
            0.1835799664258957,
            0.11238174140453339,
            -0.020536720752716064,
            0.10761620849370956,
            -0.12318241596221924,
            -0.1332816332578659,
            -0.2593761682510376,
            -0.03367762267589569,
            -0.059551358222961426,
            0.008586585521697998,
            0.7144912481307983,
            -0.03943898156285286,
            -0.04758650064468384,
            -0.0802973210811615,
            0.2492951899766922,
            -0.8210322856903076
        ]
    },
    "decoder": {
        "num_inputs": 1,
        "num_outputs": 2,
        "num_hidden_layers": 1,
        "neurons_per_hidden_layer": 64,
        "hidden_layer_activation_function": "relu",
        "final_layer_activation_function": null,
        "bias": true,
        "weights": [
            -0.3958648443222046,
            0.6435073614120483,
            -0.19560754299163818,
            -0.16906261444091797,
            1.8655383586883545,
            2.1261723041534424,
            1.5123789310455322,
            0.49135124683380127,
            -0.472098708152771,
            1.80012845993042,
            -0.015043139457702637,
            -4.034706115722656,
            1.3564642667770386,
            2.0167367458343506,
            1.9301519393920898,
            -0.46422088146209717,
            2.018364906311035,
            1.9885902404785156,
            2.1590633392333984,
            -6.2122979164123535,
            1.6045665740966797,
            1.7230521440505981,
            1.9928460121154785,
            -0.7743098735809326,
            2.2552695274353027,
            1.7432925701141357,
            -0.944772481918335,
            0.5587613582611084,
            0.9307466745376587,
            1.6598635911941528,
            -0.6121411323547363,
            2.0656161308288574,
            1.2909729480743408,
            0.11085307598114014,
            1.3276581764221191,
            2.1589505672454834,
            1.3888963460922241,
            0.13287892937660217,
            -0.09317731857299805,
            1.0573149919509888,
            -0.44419458508491516,
            0.2609543800354004,
            2.135270357131958,
            1.6937716007232666,
            -0.8944275379180908,
            -0.8278489112854004,
            -5.12220573425293,
            -4.89989709854126,
            -0.18388032913208008,
            0.08034712076187134,
            1.776987910270691,
            2.0225627422332764,
            0.4341663122177124,
            -0.5962948799133301,
            -0.9413658380508423,
            1.6664080619812012,
            -4.679006576538086,
            -0.24986450374126434,
            1.3616929054260254,
            1.6204533576965332,
            -0.21681392192840576,
            2.147505283355713,
            0.6843079328536987,
            1.4450223445892334,
            -0.4923419952392578,
            1.3729079961776733,
            -0.31441962718963623,
            -0.7606765031814575,
            1.358741044998169,
            1.0064060688018799,
            1.497600793838501,
            -0.764241099357605,
            -0.9752538204193115,
            1.282116413116455,
            -0.3547828197479248,
            1.1521612405776978,
            1.8705087900161743,
            1.5239442586898804,
            2.0186357498168945,
            -0.6916269063949585,
            0.7657037973403931,
            0.8071014285087585,
            1.9406589269638062,
            0.8396067023277283,
            1.9091577529907227,
            1.9622764587402344,
            1.2299093008041382,
            -0.5366214513778687,
            0.9994300007820129,
            1.8561428785324097,
            -0.9959357976913452,
            -0.9813836812973022,
            1.90668785572052,
            1.9738233089447021,
            -0.1233142614364624,
            0.5375188589096069,
            1.8909927606582642,
            -0.8755416870117188,
            2.146707534790039,
            1.4741160869598389,
            1.7288389205932617,
            -0.143287792801857,
            -0.5714315176010132,
            1.806871771812439,
            0.013973738998174667,
            -0.5291717052459717,
            0.7319641709327698,
            1.1158952713012695,
            -0.826263427734375,
            -0.07037985324859619,
            0.8187617659568787,
            0.6615054607391357,
            -0.009599924087524414,
            -0.08886262774467468,
            1.2091948986053467,
            1.2113171815872192,
            -0.939313530921936,
            -0.9166429042816162,
            -0.07756614685058594,
            1.2186946868896484,
            0.6323468685150146,
            0.011787228286266327,
            1.8797699213027954,
            2.0531320571899414,
            -0.8855632543563843,
            0.5703290104866028,
            -0.8515620231628418,
            2.0592782497406006,
            -0.11061520874500275,
            0.6623196005821228,
            -0.07873067259788513,
            -0.04856675863265991,
            -0.06592608988285065,
            0.015585224144160748,
            -0.016336480155587196,
            -0.011237531900405884,
            0.0410693883895874,
            -0.02398817241191864,
            -0.05358158051967621,
            7.776219367980957,
            -0.020140931010246277,
            -0.15398074686527252,
            -0.21229681372642517,
            -0.046957746148109436,
            0.05875295773148537,
            0.016939887776970863,
            -0.15342122316360474,
            -11.762372016906738,
            -0.04748932272195816,
            -0.007026121951639652,
            0.11392847448587418,
            0.07729236781597137,
            0.1110730916261673,
            -0.13551346957683563,
            -0.08734777569770813,
            0.06302116811275482,
            -0.16046582162380219,
            -0.19199976325035095,
            -0.0975487232208252,
            0.26127904653549194,
            -0.010127754881978035,
            -0.0191945880651474,
            -0.030237825587391853,
            -0.03288721665740013,
            -0.10534033179283142,
            -0.007057647220790386,
            0.11566939949989319,
            -0.1576155126094818,
            -0.02038518153131008,
            -0.12112410366535187,
            0.13592763245105743,
            -0.012038648128509521,
            -0.041154131293296814,
            -0.10155093669891357,
            -5.797811985015869,
            -11.091291427612305,
            -0.017658710479736328,
            -0.12411955744028091,
            -0.13217061758041382,
            -0.03928589075803757,
            -0.07596737146377563,
            0.10657738149166107,
            -0.11625874042510986,
            0.020767217501997948,
            -11.898736953735352,
            0.10645700991153717,
            -0.21946494281291962,
            -0.09142222255468369,
            0.07059894502162933,
            0.20398926734924316,
            -0.09755009412765503,
            -0.1245904341340065,
            0.11590409278869629,
            0.4135552942752838,
            0.04905974864959717,
            0.11649127304553986,
            1.1040284633636475,
            1.1041582822799683,
            1.1203076839447021,
            -0.08826252818107605,
            -0.0009661018848419189,
            1.1136666536331177,
            -0.06428487598896027,
            -5.935849666595459,
            1.0570114850997925,
            1.055060863494873,
            0.8815088272094727,
            0.02127958834171295,
            1.2068376541137695,
            1.2717970609664917,
            0.9348994493484497,
            -1.461939811706543,
            1.0122355222702026,
            1.0492970943450928,
            1.0797407627105713,
            0.006635189056396484,
            1.0726724863052368,
            0.9778110384941101,
            0.1089489758014679,
            0.003199473023414612,
            1.147111177444458,
            0.9431853294372559,
            0.08923514187335968,
            1.3047608137130737,
            1.0671546459197998,
            0.08418311178684235,
            1.0083699226379395,
            0.8868651390075684,
            1.0886833667755127,
            -0.033733077347278595,
            0.11993429064750671,
            1.1622843742370605,
            0.13072477281093597,
            -0.08366620540618896,
            1.1830941438674927,
            1.248443603515625,
            -0.10488127171993256,
            0.0968882143497467,
            -12.978246688842773,
            -4.385805606842041,
            -0.11788071691989899,
            -0.010155383497476578,
            1.1386973857879639,
            1.09421968460083,
            -0.09068751335144043,
            0.08465036749839783,
            0.010715171694755554,
            1.170963168144226,
            -3.345468521118164,
            0.05122949182987213,
            1.024073600769043,
            0.9743146300315857,
            -0.05990716814994812,
            1.4230061769485474,
            -0.033542945981025696,
            1.0258722305297852,
            -0.24133341014385223,
            0.7321991920471191
        ]
    }
}