{
    "num_epochs": 20000,
    "batch_size": 1000,
    "final_loss": 0.20288492739200592,
    "train_data_exp_dir_path": "data/scp_train_data_non_norm",
    "encoder": {
        "num_inputs": 2,
        "num_outputs": 2,
        "num_hidden_layers": 1,
        "neurons_per_hidden_layer": 64,
        "hidden_layer_activation_function": "relu",
        "final_layer_activation_function": null,
        "bias": true,
        "weights": [
            -0.6444491744041443,
            -0.17134344577789307,
            0.1320292353630066,
            -0.5970911979675293,
            -0.6256321668624878,
            -0.36120733618736267,
            -0.0719107985496521,
            -0.5628159046173096,
            0.3632025718688965,
            0.4145047962665558,
            -0.5287024974822998,
            0.031517721712589264,
            -0.5999652743339539,
            -0.3298531174659729,
            0.3737662434577942,
            -0.47932547330856323,
            -0.12256389111280441,
            0.43134230375289917,
            -0.48083239793777466,
            0.09317591786384583,
            -0.562495768070221,
            0.5208264589309692,
            -0.04092821478843689,
            0.6489686965942383,
            0.263084352016449,
            -0.616950273513794,
            -0.13219231367111206,
            0.1320817917585373,
            0.07181855291128159,
            0.019462760537862778,
            -0.5774235129356384,
            0.6878774166107178,
            -0.556889533996582,
            0.5019329190254211,
            -0.0667254626750946,
            0.16860733926296234,
            -0.6035873293876648,
            0.7074788808822632,
            -0.35227686166763306,
            0.2963176667690277,
            -0.042626917362213135,
            -0.43347981572151184,
            0.013408632017672062,
            0.2995198369026184,
            -0.608149528503418,
            -0.2076190710067749,
            0.45458152890205383,
            0.6836182475090027,
            0.0014739519683644176,
            0.5125141739845276,
            -0.4298519492149353,
            0.46565544605255127,
            -0.14423972368240356,
            -0.5153835415840149,
            -0.10819416493177414,
            0.22655662894248962,
            -0.6371700763702393,
            -0.22176146507263184,
            -0.7144427299499512,
            0.6442566514015198,
            -0.57066410779953,
            0.3825263977050781,
            -0.5889014601707458,
            -0.16190147399902344,
            -0.11538642644882202,
            -0.6416183114051819,
            0.3443611264228821,
            -0.13936275243759155,
            0.05314946547150612,
            0.18372388184070587,
            -0.4810672700405121,
            0.6624721884727478,
            -0.566673755645752,
            -0.20903310179710388,
            0.4325486421585083,
            0.2623664140701294,
            0.17214149236679077,
            -0.47184044122695923,
            -0.27035990357398987,
            -0.613085925579071,
            -0.3865486979484558,
            0.7008713483810425,
            -0.580253005027771,
            0.04060560464859009,
            -0.6116406917572021,
            -0.195950448513031,
            -0.5511077642440796,
            -0.4754413068294525,
            -0.5313017964363098,
            0.1940721869468689,
            0.49848324060440063,
            0.08527980744838715,
            -0.3167823851108551,
            0.05083445832133293,
            0.06048126518726349,
            0.6405978798866272,
            -0.38679200410842896,
            -0.22792357206344604,
            -0.32964473962783813,
            -0.6339948177337646,
            0.012142419815063477,
            -0.699676513671875,
            -0.661868155002594,
            0.21256615221500397,
            -0.2750416100025177,
            0.37017205357551575,
            0.6596711277961731,
            -0.4045366644859314,
            -0.7763981819152832,
            0.464592307806015,
            0.5412256717681885,
            0.34399232268333435,
            -0.2364492118358612,
            0.22205811738967896,
            -0.35652270913124084,
            0.6467766761779785,
            0.36092716455459595,
            -0.029016077518463135,
            0.11337888240814209,
            -0.3096781075000763,
            -0.49168065190315247,
            -0.446897029876709,
            -0.1788654923439026,
            -0.215307354927063,
            0.18713317811489105,
            0.48948362469673157,
            -0.5733696818351746,
            -0.5553575754165649,
            -0.4514313340187073,
            0.688621461391449,
            -0.6940284371376038,
            0.16137826442718506,
            -0.3153015673160553,
            1.4427441358566284,
            0.0018152594566345215,
            -0.43631941080093384,
            -0.6351245641708374,
            -0.8764171600341797,
            -0.18322917819023132,
            -0.8425061702728271,
            0.3445752263069153,
            0.43180450797080994,
            0.9855600595474243,
            -0.005228704772889614,
            0.6609526872634888,
            1.1191977262496948,
            0.15363624691963196,
            -0.7729456424713135,
            -0.22189506888389587,
            -1.6266958713531494,
            -0.203016459941864,
            0.349513441324234,
            0.17460334300994873,
            1.2416391372680664,
            0.025222599506378174,
            0.6222645044326782,
            -0.21163415908813477,
            0.21642877161502838,
            -0.32371047139167786,
            0.2537190318107605,
            0.27793610095977783,
            0.6557386517524719,
            -1.0017765760421753,
            -0.27099472284317017,
            0.34012240171432495,
            -1.208290696144104,
            -0.435274600982666,
            0.15617716312408447,
            0.5637875199317932,
            0.20339052379131317,
            0.6724657416343689,
            -0.6447591781616211,
            0.5622542500495911,
            0.31223785877227783,
            -0.7538167238235474,
            0.1394146829843521,
            -0.34766674041748047,
            0.46059030294418335,
            0.16995346546173096,
            -0.9265086054801941,
            0.33893221616744995,
            -0.6318477392196655,
            -1.6317720413208008,
            1.0012563467025757,
            -0.2898973226547241,
            1.124680519104004,
            -0.5200669169425964,
            -0.47498494386672974,
            0.5972368121147156,
            0.08650916814804077,
            1.242422103881836,
            -0.3005959689617157,
            0.08130927383899689,
            0.06713223457336426,
            0.09392555058002472,
            0.023846209049224854,
            0.06742588430643082,
            -0.18434953689575195,
            -0.10373528301715851,
            -0.051305919885635376,
            0.0548846460878849,
            0.02986973710358143,
            -0.10673445463180542,
            0.004622756969183683,
            -0.05663768947124481,
            0.05252061039209366,
            -0.08988429605960846,
            0.011002907529473305,
            0.018669044598937035,
            -0.04164416342973709,
            -0.05280676111578941,
            0.05556294694542885,
            -0.1132577657699585,
            0.09436272829771042,
            -0.02714630961418152,
            -0.0005975228850729764,
            0.1158706545829773,
            -0.1149534359574318,
            0.11882580816745758,
            -0.0736946389079094,
            -0.10971714556217194,
            0.026339689269661903,
            -0.10971207171678543,
            -0.013763830065727234,
            -0.03154213726520538,
            -0.05311870574951172,
            0.027213633060455322,
            0.09033743292093277,
            -0.08767035603523254,
            0.16210156679153442,
            -0.08313927054405212,
            -0.0223066508769989,
            -0.09725483506917953,
            0.0634380355477333,
            -0.12340670824050903,
            -0.07547163963317871,
            -0.03970186039805412,
            -0.1407950520515442,
            0.1900363266468048,
            0.031227564439177513,
            0.02531111240386963,
            0.11825321614742279,
            0.07026280462741852,
            0.11009744554758072,
            -0.09058189392089844,
            -0.12153176963329315,
            0.03929562494158745,
            0.015456406399607658,
            0.04448215290904045,
            -0.03056136891245842,
            0.05066005885601044,
            0.048605188727378845,
            -0.055617332458496094,
            -0.008613333106040955,
            -0.015637369826436043,
            -0.051332756876945496,
            0.10231028497219086,
            -0.11668169498443604,
            -0.06801283359527588,
            0.007739335298538208,
            0.0019823771435767412,
            0.6797088384628296,
            0.03847745060920715,
            -0.027767866849899292,
            -0.15026035904884338,
            -0.35959967970848083,
            -0.08022717386484146,
            -0.10045371949672699,
            -0.019548043608665466,
            0.1868189126253128,
            0.5665407776832581,
            -0.11888309568166733,
            0.09143872559070587,
            0.28029319643974304,
            -0.04270282760262489,
            -0.1473650336265564,
            0.08742529153823853,
            0.048074591904878616,
            0.08812323212623596,
            0.10831543058156967,
            0.12334822863340378,
            -0.05177854374051094,
            0.039442434906959534,
            -0.06606883555650711,
            -0.09324726462364197,
            0.053621113300323486,
            -0.08466701954603195,
            -0.11781562864780426,
            -0.07739880681037903,
            -0.015607848763465881,
            -0.285785973072052,
            0.04816127568483353,
            -0.03649374842643738,
            -0.11290030926465988,
            -0.07099562883377075,
            -0.0010092705488204956,
            -0.07046422362327576,
            0.35785162448883057,
            0.12425591051578522,
            -0.12026163935661316,
            0.109955795109272,
            0.0031054348219186068,
            -0.5015085935592651,
            -0.08076190203428268,
            0.033168330788612366,
            0.04133261740207672,
            -0.06724342703819275,
            -0.1244153380393982,
            0.08337527513504028,
            0.01770782470703125,
            0.02703867293894291,
            0.13222229480743408,
            -0.1374964565038681,
            0.1175745278596878,
            -0.02783508598804474,
            0.036467552185058594,
            0.09726893901824951,
            0.08594141900539398,
            0.13929830491542816,
            -0.016789019107818604,
            -0.5222969055175781,
            0.48324570059776306
        ]
    },
    "decoder": {
        "num_inputs": 2,
        "num_outputs": 2,
        "num_hidden_layers": 1,
        "neurons_per_hidden_layer": 64,
        "hidden_layer_activation_function": "relu",
        "final_layer_activation_function": null,
        "bias": true,
        "weights": [
            0.13269436359405518,
            -1.5523977279663086,
            -0.4842233657836914,
            -0.5963184833526611,
            -0.6720267534255981,
            0.09382479637861252,
            -0.17649632692337036,
            -0.6079199910163879,
            -0.15638601779937744,
            2.437565565109253,
            -0.32446548342704773,
            -1.4717986583709717,
            -0.42884859442710876,
            -1.5388767719268799,
            -0.3930579125881195,
            -1.5802279710769653,
            -0.41545841097831726,
            -0.40646985173225403,
            -0.009347246959805489,
            1.5780603885650635,
            -0.43120700120925903,
            -0.5514492392539978,
            1.8106305599212646,
            -0.459614634513855,
            0.3910793364048004,
            -0.8644899129867554,
            0.0754728615283966,
            -1.7163738012313843,
            -0.2912387251853943,
            -1.6870883703231812,
            0.07518583536148071,
            0.4997560381889343,
            1.5640050172805786,
            -0.6722817420959473,
            -0.5516327023506165,
            -0.3141743242740631,
            -0.4363739490509033,
            0.19340354204177856,
            -0.2403484582901001,
            0.10272306203842163,
            -0.326402485370636,
            -0.8258848190307617,
            0.3170178532600403,
            -0.2657924294471741,
            0.7891548275947571,
            -1.7642900943756104,
            0.22570781409740448,
            -1.3305808305740356,
            0.6935065388679504,
            -1.669974684715271,
            1.5957753658294678,
            0.6418523192405701,
            0.9903610944747925,
            -1.5857235193252563,
            -0.4017052948474884,
            -1.7100608348846436,
            0.19923794269561768,
            -0.18604159355163574,
            -0.34357041120529175,
            -0.4722272753715515,
            2.1173222064971924,
            1.691988468170166,
            2.33666729927063,
            1.6238998174667358,
            0.008438673801720142,
            -0.6934514045715332,
            1.448992133140564,
            -0.5894904136657715,
            0.3292006254196167,
            -0.5712628364562988,
            1.3302565813064575,
            -0.8536323308944702,
            1.7241847515106201,
            -0.33325400948524475,
            1.0056052207946777,
            -1.8736311197280884,
            1.6087923049926758,
            -0.8374471664428711,
            -0.3430315852165222,
            -0.25055214762687683,
            -2.8675260182353668e-05,
            -0.37896662950515747,
            1.27008056640625,
            -0.8014771938323975,
            1.1925709247589111,
            -1.1927242279052734,
            -0.2594139277935028,
            -0.566752016544342,
            0.5702058672904968,
            -0.862343966960907,
            1.2300571203231812,
            -0.7915605306625366,
            -0.4234304428100586,
            -1.717872977256775,
            -0.6176974773406982,
            -0.20710410177707672,
            -0.09673143923282623,
            -0.9867329001426697,
            0.13411438465118408,
            -0.6581025719642639,
            -0.577842652797699,
            -0.5240694284439087,
            1.360708236694336,
            -1.1695849895477295,
            -0.4573695659637451,
            -0.4278830587863922,
            1.3302571773529053,
            -0.7922393679618835,
            2.5587003231048584,
            1.4155383110046387,
            0.12463229894638062,
            -0.17561227083206177,
            2.201051712036133,
            1.3201193809509277,
            1.3817501068115234,
            -1.2954323291778564,
            -0.12297006696462631,
            1.8701072931289673,
            0.39423277974128723,
            -1.2031540870666504,
            -0.22022098302841187,
            0.21182018518447876,
            -0.06155296042561531,
            -0.5903433561325073,
            -0.11566969007253647,
            -1.5112395286560059,
            0.446942001581192,
            -1.4904104471206665,
            1.9991934299468994,
            1.9161877632141113,
            -0.10845941305160522,
            -0.27424725890159607,
            -0.7140876650810242,
            2.154838800430298,
            2.239853620529175,
            2.059412956237793,
            -0.09622985124588013,
            -0.12673430144786835,
            2.179486036300659,
            0.2919757664203644,
            2.2123682498931885,
            1.972489833831787,
            1.9165284633636475,
            -0.6842615604400635,
            0.38406601548194885,
            -0.30346953868865967,
            -0.5433599948883057,
            -0.2784285545349121,
            1.7646782398223877,
            -0.36889585852622986,
            1.7320010662078857,
            1.820910096168518,
            1.9498947858810425,
            -1.0526381731033325,
            1.9708278179168701,
            2.055535316467285,
            -0.3233645260334015,
            -0.37238603830337524,
            -0.6519562005996704,
            -0.6428707838058472,
            1.772497534751892,
            1.9924166202545166,
            2.2552130222320557,
            1.926187515258789,
            0.13527743518352509,
            1.7570496797561646,
            0.4784209728240967,
            -0.6853762865066528,
            2.125157594680786,
            2.1916894912719727,
            1.9233827590942383,
            -0.27166348695755005,
            1.6825122833251953,
            1.9233756065368652,
            2.0296785831451416,
            -0.003985927440226078,
            1.6405649185180664,
            -0.145499587059021,
            2.0469131469726562,
            2.1489877700805664,
            -0.5449054837226868,
            0.48150360584259033,
            -0.7202632427215576,
            -0.30198267102241516,
            -0.6290545463562012,
            1.6461360454559326,
            -0.11257229745388031,
            1.8268519639968872,
            -0.2707820236682892,
            2.1766700744628906,
            1.8608388900756836,
            1.5161436796188354,
            -0.7110280990600586,
            -1.0016084909439087,
            0.2268785983324051,
            0.11611281335353851,
            -1.3284854888916016,
            -1.1728417873382568,
            -1.1588033437728882,
            -1.290439248085022,
            -0.04889377951622009,
            -0.29372015595436096,
            -1.0164172649383545,
            1.5093504190444946,
            -0.5605823397636414,
            -0.8796847462654114,
            -1.0687949657440186,
            -0.03061486780643463,
            1.4092963933944702,
            0.0006151199340820312,
            -0.02238062024116516,
            -0.05753125250339508,
            -1.0617772340774536,
            0.0627593845129013,
            0.3462692201137543,
            -0.6942183971405029,
            -0.011917557567358017,
            -0.44254857301712036,
            0.3932332694530487,
            -1.2952512502670288,
            -0.10825993120670319,
            -0.03078344464302063,
            2.055793523788452,
            1.4436956644058228,
            -0.7692766189575195,
            0.5472186207771301,
            -0.5941793322563171,
            0.5010923147201538,
            1.7749886512756348,
            0.5128068923950195,
            1.6490827798843384,
            -0.0622333288192749,
            -0.6869713068008423,
            0.4245683550834656,
            0.4006768465042114,
            0.044099703431129456,
            -0.25142183899879456,
            0.4599171578884125,
            -1.1504967212677002,
            0.012808677740395069,
            -0.8012537956237793,
            -0.04030230641365051,
            -1.0280507802963257,
            0.5121476650238037,
            0.11610640585422516,
            1.3610891103744507,
            2.1231086254119873,
            -0.028294801712036133,
            2.0747179985046387,
            0.8260208368301392,
            -0.1846453696489334,
            -0.4783537983894348,
            -0.08524647355079651,
            -0.8451764583587646,
            -1.0182641744613647,
            -0.16189347207546234,
            1.4726613759994507,
            1.4360527992248535,
            0.01661272533237934,
            -0.022198259830474854,
            1.669531226158142,
            1.3776394128799438,
            1.3562284708023071,
            1.4272764921188354,
            0.09531834721565247,
            -1.052998423576355,
            1.3292484283447266,
            0.7849924564361572,
            1.277103066444397,
            1.470102071762085,
            1.5351314544677734,
            -0.07191261649131775,
            0.8265014290809631,
            -0.025191038846969604,
            0.07915425300598145,
            0.06150178611278534,
            1.5320110321044922,
            -0.06939694285392761,
            1.62272047996521,
            1.4813520908355713,
            1.5019302368164062,
            -2.597656726837158,
            1.4352991580963135,
            1.440028429031372,
            -0.049837782979011536,
            -0.07839903235435486,
            -0.9823946356773376,
            -0.7919527292251587,
            1.519059181213379,
            1.371663212776184,
            1.3043755292892456,
            1.4070829153060913,
            0.5146932601928711,
            1.6000434160232544,
            0.9108986854553223,
            0.11823301017284393,
            1.3247798681259155,
            1.257062315940857,
            1.4708142280578613,
            0.06924089789390564,
            1.5090128183364868,
            1.4099948406219482,
            1.4691137075424194,
            -0.03537565469741821,
            1.663106918334961,
            -0.12127625942230225,
            1.3282545804977417,
            1.3600542545318604,
            -0.02456626296043396,
            0.916983962059021,
            -0.8375680446624756,
            -0.021263569593429565,
            -0.28689444065093994,
            1.5959733724594116,
            -1.2047772407531738,
            1.4327936172485352,
            0.017469078302383423,
            1.2810472249984741,
            1.5234650373458862,
            1.834139347076416,
            -0.5485163927078247,
            1.0691213607788086
        ]
    }
}