{
    "num_epochs": 20000,
    "batch_size": 1000,
    "final_loss": 0.13256949186325073,
    "train_data_exp_dir_path": "data/scp_train_data_non_norm",
    "encoder": {
        "num_inputs": 2,
        "num_outputs": 2,
        "num_hidden_layers": 1,
        "neurons_per_hidden_layer": 64,
        "hidden_layer_activation_function": "relu",
        "final_layer_activation_function": null,
        "bias": true,
        "weights": [
            0.5120311975479126,
            0.15260306000709534,
            -0.5016626715660095,
            0.2912573516368866,
            0.3775478005409241,
            -0.5759907960891724,
            -0.2611447274684906,
            0.2585018575191498,
            0.2800109386444092,
            -0.32708609104156494,
            0.6852889657020569,
            -0.5205744504928589,
            0.3494628369808197,
            0.19771920144557953,
            0.19943682849407196,
            0.5556842684745789,
            0.6542178988456726,
            -0.5802595615386963,
            0.7466625571250916,
            0.3894904851913452,
            -0.6532320976257324,
            0.3381410837173462,
            0.12290728092193604,
            -0.3929669260978699,
            0.0697038397192955,
            0.04697813838720322,
            0.08146867156028748,
            0.6693927645683289,
            -0.19274663925170898,
            -0.6534690856933594,
            0.33315175771713257,
            -0.19616413116455078,
            -0.6849968433380127,
            -0.3595947027206421,
            0.010494771413505077,
            0.029529539868235588,
            -0.3325280249118805,
            -0.09999911487102509,
            -0.26914462447166443,
            0.14241398870944977,
            -0.06731384992599487,
            -0.004850667901337147,
            0.30462712049484253,
            0.6700186729431152,
            -0.2611894905567169,
            -0.15414410829544067,
            -0.6477386355400085,
            -0.6825020909309387,
            0.6605234742164612,
            0.18352487683296204,
            -0.5790680050849915,
            -0.6274728178977966,
            -0.4853307604789734,
            0.4765082001686096,
            -0.5783507823944092,
            0.44615134596824646,
            -0.43111535906791687,
            0.13411565124988556,
            -0.6479244232177734,
            -0.21862724423408508,
            0.24707305431365967,
            -0.04854846000671387,
            0.19178760051727295,
            -0.6689120531082153,
            -0.33679166436195374,
            -0.4190689027309418,
            0.5704789757728577,
            0.49580952525138855,
            -0.34937748312950134,
            -0.08875155448913574,
            0.5578861236572266,
            -0.040500275790691376,
            -0.6411861181259155,
            0.1977226585149765,
            0.4891055226325989,
            -0.21481800079345703,
            0.6959643959999084,
            -0.4748494029045105,
            -0.08587527275085449,
            -0.6229747533798218,
            0.006393959280103445,
            0.030918948352336884,
            -0.4049224257469177,
            0.09613880515098572,
            -0.5013430714607239,
            -0.4206758737564087,
            0.18260467052459717,
            -0.2068234086036682,
            0.516366183757782,
            -0.29724428057670593,
            -0.6047186851501465,
            -0.30863648653030396,
            0.11123454570770264,
            -0.2504384219646454,
            -0.46880099177360535,
            -0.48080700635910034,
            0.6654706597328186,
            -0.33476871252059937,
            0.1800794154405594,
            0.2921847403049469,
            0.5561510920524597,
            0.21290872991085052,
            0.1726282238960266,
            0.393310010433197,
            0.05438309535384178,
            0.6047373414039612,
            0.6584261059761047,
            -0.6608659625053406,
            0.6616303324699402,
            -0.24797779321670532,
            -0.39803004264831543,
            0.5893710255622864,
            0.1647813320159912,
            0.21853549778461456,
            0.0711902603507042,
            0.17367962002754211,
            0.5850486159324646,
            -0.36501944065093994,
            -0.08003081381320953,
            0.46940410137176514,
            -0.5491442680358887,
            -0.2541865408420563,
            0.26624882221221924,
            -0.36714547872543335,
            -0.28848031163215637,
            0.038998670876026154,
            -0.5630396604537964,
            -0.37021082639694214,
            0.5934250354766846,
            1.192373514175415,
            -0.14553910493850708,
            -0.035476550459861755,
            0.5924671292304993,
            0.5928172469139099,
            -0.26190468668937683,
            0.8527200818061829,
            0.40839558839797974,
            0.03095034882426262,
            -0.7228633165359497,
            -0.1871497631072998,
            -0.8848102688789368,
            -0.23493275046348572,
            0.2705942988395691,
            0.033671438694000244,
            0.49114125967025757,
            -0.7760497331619263,
            1.0884380340576172,
            1.2417171001434326,
            1.1333937644958496,
            -0.9534419775009155,
            -0.6467093825340271,
            0.23518675565719604,
            0.708439826965332,
            -0.17225545644760132,
            0.004792043939232826,
            0.353296160697937,
            -0.4888649880886078,
            0.5428363680839539,
            -0.04734557867050171,
            0.6552209258079529,
            -0.5756928324699402,
            -0.9356256723403931,
            -0.6808568835258484,
            0.1545887589454651,
            -0.15255078673362732,
            -0.5794267654418945,
            -0.25905290246009827,
            0.6861292719841003,
            -0.9300456643104553,
            0.8031532764434814,
            0.13706696033477783,
            -0.377731591463089,
            -0.3186572194099426,
            -0.34842032194137573,
            0.01066356897354126,
            -0.4734385013580322,
            -0.6156229972839355,
            -0.24370016157627106,
            -0.36910638213157654,
            0.5172246098518372,
            -0.48410025238990784,
            -0.4466296434402466,
            -0.5532032251358032,
            1.14412260055542,
            1.0665264129638672,
            -1.175233006477356,
            0.6063125729560852,
            1.3056961297988892,
            0.022522270679473877,
            0.07371097803115845,
            -0.5759173035621643,
            0.20053863525390625,
            -0.08251708000898361,
            -0.04269763082265854,
            -0.005688726902008057,
            0.08508160710334778,
            0.10711762309074402,
            -0.014802098274230957,
            0.056513652205467224,
            -0.038233090192079544,
            0.08388130366802216,
            -0.02599986270070076,
            0.008180363103747368,
            -0.12152871489524841,
            0.35138463973999023,
            -0.018938664346933365,
            0.05327220261096954,
            -0.07020008563995361,
            0.07226067781448364,
            0.2723969519138336,
            -0.13937897980213165,
            -0.048766862601041794,
            -0.5683045983314514,
            0.011602089740335941,
            -0.015360042452812195,
            -0.07642757892608643,
            -0.12100251019001007,
            0.04713444411754608,
            0.07695017009973526,
            0.04449798911809921,
            -0.011183802038431168,
            -0.12421736121177673,
            -0.023656994104385376,
            -0.0578811913728714,
            -0.046148329973220825,
            0.08867891132831573,
            -0.04988379776477814,
            -0.02715802937746048,
            0.05740002170205116,
            0.061878398060798645,
            -0.04291602969169617,
            0.07414339482784271,
            0.3579939305782318,
            -0.16429515182971954,
            -0.04046885669231415,
            0.07846374809741974,
            0.07490742206573486,
            0.0851319283246994,
            0.12443013489246368,
            0.06722083687782288,
            0.02893070876598358,
            -0.0033410778269171715,
            0.10697393864393234,
            -0.11144060641527176,
            0.08295783400535583,
            0.040003880858421326,
            -0.05663420259952545,
            -0.09692775458097458,
            -0.08821039646863937,
            0.1662886142730713,
            0.01537303626537323,
            -0.039522215723991394,
            -0.09848111867904663,
            0.12409244477748871,
            0.04848024249076843,
            -0.11014184355735779,
            -0.0810069739818573,
            0.21758416295051575,
            0.11729516088962555,
            0.2140704095363617,
            0.02421092987060547,
            0.022859737277030945,
            0.04764624685049057,
            0.05713758245110512,
            -0.019701451063156128,
            -0.07973283529281616,
            -0.18618817627429962,
            0.1103195995092392,
            -0.3509284257888794,
            -0.04900610074400902,
            0.02417612075805664,
            -0.08382008969783783,
            0.03166887164115906,
            -0.38145434856414795,
            0.6863569617271423,
            -0.09456802904605865,
            0.2170184999704361,
            -0.134822279214859,
            -0.06009684503078461,
            -0.04323822259902954,
            0.15981340408325195,
            0.004762515425682068,
            -0.05668073520064354,
            0.16275639832019806,
            -0.25568854808807373,
            0.03760141134262085,
            0.11154884099960327,
            0.1200961321592331,
            -0.056970953941345215,
            -0.12611572444438934,
            -0.0853835791349411,
            0.09505496174097061,
            -0.04643584415316582,
            0.029307737946510315,
            0.07271039485931396,
            0.040801480412483215,
            -0.18897631764411926,
            0.06021746248006821,
            0.11431756615638733,
            -0.0869327038526535,
            -0.12105722725391388,
            -0.039140403270721436,
            -0.03715752065181732,
            -0.014856800436973572,
            -0.06997951865196228,
            -0.15910181403160095,
            0.23719851672649384,
            0.04142481088638306,
            -0.058851458132267,
            0.05785377323627472,
            -0.039325177669525146,
            0.13763362169265747,
            0.24597260355949402,
            -0.27580857276916504,
            -0.1069755107164383,
            0.09059280157089233,
            0.07635733485221863,
            -0.060335323214530945,
            -0.30244672298431396,
            0.0593729168176651,
            -0.42919883131980896,
            0.32608187198638916
        ]
    },
    "decoder": {
        "num_inputs": 2,
        "num_outputs": 2,
        "num_hidden_layers": 1,
        "neurons_per_hidden_layer": 64,
        "hidden_layer_activation_function": "relu",
        "final_layer_activation_function": null,
        "bias": true,
        "weights": [
            1.5950983762741089,
            2.0116024017333984,
            -0.633684515953064,
            0.47493940591812134,
            2.155888080596924,
            -0.886023998260498,
            1.4356895685195923,
            -0.7347837090492249,
            0.6294512152671814,
            -0.3933192193508148,
            1.9129164218902588,
            -0.46916520595550537,
            1.0505332946777344,
            -0.9479952454566956,
            1.4315130710601807,
            -0.3081552982330322,
            0.3212476372718811,
            -0.38183602690696716,
            1.5584986209869385,
            -0.33807432651519775,
            1.089703917503357,
            -1.465032935142517,
            -0.3819485306739807,
            -0.6891213059425354,
            0.5227978229522705,
            -1.5457395315170288,
            1.5042787790298462,
            -0.19667403399944305,
            1.909260869026184,
            -0.9735402464866638,
            0.4098954498767853,
            -0.9084900617599487,
            -0.16045492887496948,
            0.4403325915336609,
            0.0031488537788391113,
            -0.44130977988243103,
            1.258242130279541,
            -0.41556504368782043,
            0.6908096075057983,
            1.2458221912384033,
            -0.05756467580795288,
            0.1589781641960144,
            0.9684358835220337,
            -0.18270103633403778,
            0.36692434549331665,
            -0.44914647936820984,
            0.9518869519233704,
            -1.3288335800170898,
            1.959041714668274,
            -1.1671898365020752,
            0.055058181285858154,
            -0.016294658184051514,
            0.690108597278595,
            -1.4285610914230347,
            1.1592527627944946,
            -0.4679848849773407,
            1.4209030866622925,
            -1.1981055736541748,
            1.2025890350341797,
            1.500025749206543,
            1.5292601585388184,
            -0.3068913519382477,
            1.5084447860717773,
            -0.6683706045150757,
            0.7184716463088989,
            -1.4891482591629028,
            2.1382079124450684,
            -1.0582581758499146,
            -0.0749310851097107,
            0.07113933563232422,
            -1.292919397354126,
            0.10748960822820663,
            1.2236241102218628,
            -0.2973606288433075,
            1.5234397649765015,
            -1.0824838876724243,
            2.113999128341675,
            1.685260534286499,
            0.8736813068389893,
            1.7360855340957642,
            1.3124996423721313,
            -1.2594155073165894,
            0.22054779529571533,
            -0.15411865711212158,
            -0.45682477951049805,
            -0.3786834478378296,
            1.9519222974777222,
            -0.3339361846446991,
            -1.1984134912490845,
            -0.7481042742729187,
            2.126958131790161,
            -0.45433157682418823,
            0.43991798162460327,
            -0.014335989952087402,
            0.28389865159988403,
            -0.6753671169281006,
            -0.5158904790878296,
            -0.041604816913604736,
            0.7930622100830078,
            -1.106666922569275,
            0.8069124221801758,
            -0.9972164034843445,
            1.772883415222168,
            -1.2912899255752563,
            2.258431911468506,
            -0.20145221054553986,
            1.604901671409607,
            -1.4823181629180908,
            0.9714672565460205,
            -0.14818745851516724,
            -0.6735546588897705,
            -0.11236745119094849,
            1.3163273334503174,
            -1.2682881355285645,
            1.4215284585952759,
            1.9328030347824097,
            -0.04418402910232544,
            -0.49180448055267334,
            0.21604615449905396,
            0.019340991973876953,
            0.42247891426086426,
            -0.15315811336040497,
            -0.8955849409103394,
            1.3652734756469727,
            2.2345011234283447,
            -0.4367216229438782,
            -0.3014947772026062,
            0.3032812476158142,
            -0.8422448039054871,
            -0.6417476534843445,
            0.7586421966552734,
            1.3155230283737183,
            1.5452735424041748,
            0.9663069844245911,
            1.785327434539795,
            1.7738076448440552,
            -0.6419795155525208,
            1.251621127128601,
            1.9266036748886108,
            0.12253277003765106,
            1.3934744596481323,
            1.786798119544983,
            1.4705860614776611,
            1.4253979921340942,
            -0.5451557636260986,
            -0.5901804566383362,
            1.34261155128479,
            -0.4170985221862793,
            -0.4677044749259949,
            1.1983692646026611,
            -0.6669203639030457,
            2.069465160369873,
            0.8429555296897888,
            -0.5605119466781616,
            1.2959052324295044,
            1.6126632690429688,
            1.8529075384140015,
            -0.6419934630393982,
            1.4743478298187256,
            1.456182599067688,
            1.367352843284607,
            0.7816624641418457,
            -0.157528817653656,
            0.9864218235015869,
            1.6060070991516113,
            1.9758816957473755,
            -0.855912983417511,
            -0.5299902558326721,
            1.1706764698028564,
            -0.5748399496078491,
            -0.40913841128349304,
            1.708986759185791,
            1.216430902481079,
            0.8009389638900757,
            -0.6412124633789062,
            1.8956857919692993,
            -0.2538084089756012,
            1.9066110849380493,
            1.9035186767578125,
            1.4434175491333008,
            0.8609029650688171,
            1.9051141738891602,
            1.3983256816864014,
            -0.09302246570587158,
            1.6501811742782593,
            -0.784657895565033,
            -0.6563571691513062,
            -0.5249671936035156,
            -0.46073678135871887,
            0.1739850640296936,
            0.4881942570209503,
            -0.5599658489227295,
            3.018223524093628,
            0.0009101331233978271,
            1.3965634107589722,
            0.35970547795295715,
            -1.467590570449829,
            1.7779290676116943,
            -1.4693127870559692,
            -0.344061017036438,
            0.12476310133934021,
            1.1192984580993652,
            -1.5714681148529053,
            0.03437177091836929,
            -2.301445960998535,
            -0.1500093638896942,
            0.720914900302887,
            -1.9684191942214966,
            0.04298165440559387,
            -0.11514541506767273,
            0.18045219779014587,
            2.3311374187469482,
            -0.06157144904136658,
            -0.2581099569797516,
            -0.03904281556606293,
            -1.7444721460342407,
            1.3326263427734375,
            -0.01115502417087555,
            -2.2084286212921143,
            -0.6634434461593628,
            -0.9550425410270691,
            2.6270241737365723,
            0.4754859209060669,
            0.30876225233078003,
            -2.278299570083618,
            1.2675997018814087,
            -0.1080060750246048,
            -2.2659823894500732,
            -0.41196614503860474,
            -0.8114681839942932,
            3.233686923980713,
            2.9119482040405273,
            -0.14470542967319489,
            0.09977704286575317,
            0.10864280164241791,
            0.8469293713569641,
            -3.503741502761841,
            2.0311129093170166,
            -0.02723182737827301,
            -1.6549999713897705,
            -0.09205886721611023,
            -1.6968809366226196,
            -1.7767715454101562,
            0.398749977350235,
            2.111375331878662,
            -0.8503748774528503,
            -0.5645231008529663,
            0.06677965819835663,
            -1.088781714439392,
            2.723238706588745,
            0.08794526755809784,
            0.06971414387226105,
            -0.07567236572504044,
            -2.8620712757110596,
            2.4029150009155273,
            -0.09500962495803833,
            -0.346160888671875,
            -0.0807984471321106,
            1.2771772146224976,
            1.3495978116989136,
            1.2362465858459473,
            1.2698880434036255,
            1.1483237743377686,
            1.1303631067276,
            0.074297696352005,
            1.243478775024414,
            1.1529695987701416,
            0.1112423911690712,
            1.4549285173416138,
            1.0492790937423706,
            1.1725190877914429,
            1.3317569494247437,
            -0.08424589037895203,
            0.05850490927696228,
            1.3262618780136108,
            -0.7324873208999634,
            0.0950881838798523,
            1.5037773847579956,
            -0.057592734694480896,
            1.0474237203598022,
            1.3413753509521484,
            0.020641222596168518,
            1.558748483657837,
            1.1286615133285522,
            1.1757475137710571,
            -0.6102950572967529,
            1.2194077968597412,
            1.1682547330856323,
            1.4848405122756958,
            1.2837450504302979,
            0.0956055074930191,
            0.12389490753412247,
            1.1354862451553345,
            1.111206293106079,
            0.43472734093666077,
            -0.41968151926994324,
            1.5406863689422607,
            -0.030112579464912415,
            0.09753976762294769,
            1.0162588357925415,
            -0.009565085172653198,
            1.2675501108169556,
            -0.10102234780788422,
            1.028120756149292,
            0.124871164560318,
            1.0271025896072388,
            1.0182408094406128,
            1.138089895248413,
            1.1853859424591064,
            1.1235158443450928,
            1.3144346475601196,
            -0.06270784139633179,
            1.2443238496780396,
            -0.733955979347229,
            0.12283031642436981,
            -0.044256359338760376,
            -0.028252147138118744,
            -0.6393650770187378,
            1.358763337135315,
            0.09737986326217651,
            -1.5218565464019775,
            0.7736253142356873
        ]
    }
}