{
    "num_epochs": 20000,
    "batch_size": 1000,
    "final_loss": 0.4510587453842163,
    "train_data_exp_dir_path": "data/scp_train_data_norm",
    "encoder": {
        "num_inputs": 2,
        "num_outputs": 2,
        "num_hidden_layers": 1,
        "neurons_per_hidden_layer": 64,
        "hidden_layer_activation_function": "relu",
        "final_layer_activation_function": null,
        "bias": true,
        "weights": [
            0.2658831477165222,
            -0.030110716819763184,
            -0.1806507110595703,
            -0.0005706324009224772,
            0.16748905181884766,
            -0.5750710964202881,
            -0.08616828173398972,
            0.6051612496376038,
            -0.6677165627479553,
            -0.811180055141449,
            -0.6607256531715393,
            -0.7810457944869995,
            -0.07832080125808716,
            0.22102105617523193,
            -0.6040234565734863,
            0.30558350682258606,
            -0.5408481955528259,
            -0.45038723945617676,
            0.3393363356590271,
            -0.6349771618843079,
            0.5003953576087952,
            -0.28328800201416016,
            0.24249929189682007,
            -0.1820628046989441,
            0.40215355157852173,
            -0.41684210300445557,
            -0.06171947717666626,
            -0.6024441719055176,
            -0.438106894493103,
            -0.3734947741031647,
            -0.6104023456573486,
            0.0498797632753849,
            -0.5577844381332397,
            0.43894144892692566,
            -0.2994298040866852,
            -0.24665650725364685,
            0.10342097282409668,
            -0.04036259651184082,
            0.019401133060455322,
            -0.5546323657035828,
            0.6085442900657654,
            0.05995523929595947,
            -0.5572130680084229,
            -0.4813492000102997,
            0.0747266411781311,
            -0.44860929250717163,
            0.07062751054763794,
            -0.5389385223388672,
            0.6289564371109009,
            0.7552212476730347,
            -0.21131683886051178,
            -0.17122970521450043,
            0.3554874658584595,
            0.6582069396972656,
            -0.12375549226999283,
            0.33986416459083557,
            -0.2935577929019928,
            0.16436558961868286,
            0.3026847541332245,
            0.6319472193717957,
            -0.4879717528820038,
            0.7034613490104675,
            0.054914530366659164,
            0.41850218176841736,
            0.2435203641653061,
            0.6977472305297852,
            -0.3517642319202423,
            -0.3302125334739685,
            -0.4322795867919922,
            0.6639594435691833,
            -0.7500913143157959,
            -0.30946364998817444,
            -0.08119965344667435,
            0.25436779856681824,
            -0.1398264318704605,
            0.042288437485694885,
            -0.031755030155181885,
            -0.394086092710495,
            -0.5330244898796082,
            -0.11252991855144501,
            0.5914705991744995,
            0.12804223597049713,
            0.6844026446342468,
            -0.08079338073730469,
            -0.39619961380958557,
            0.05501437932252884,
            -0.45109039545059204,
            0.10134165734052658,
            -0.1632143259048462,
            -0.3244519829750061,
            -0.2890472114086151,
            0.02375616319477558,
            -0.4906400442123413,
            0.7123557329177856,
            -0.00011595543037401512,
            0.5008344054222107,
            0.5197919011116028,
            -0.14890295267105103,
            -0.6676018834114075,
            0.5114184617996216,
            0.3761517405509949,
            -0.09549987316131592,
            0.7036729454994202,
            0.07534122467041016,
            -0.701083242893219,
            -0.1411086767911911,
            -0.6365476846694946,
            0.011249233968555927,
            -0.0053732795640826225,
            0.433491975069046,
            -0.4132612347602844,
            -0.048538438975811005,
            0.32161563634872437,
            -0.058391690254211426,
            -0.26800763607025146,
            0.4640282690525055,
            0.042107872664928436,
            0.7288982272148132,
            0.2784799337387085,
            0.1556277871131897,
            0.5844491124153137,
            -0.28893932700157166,
            0.6341963410377502,
            -0.685827910900116,
            0.5162786841392517,
            -0.12281298637390137,
            -0.4773772656917572,
            0.07465822249650955,
            -0.6053062081336975,
            -0.11170566827058792,
            -0.6540112495422363,
            0.697816014289856,
            0.8209924101829529,
            -0.9048412442207336,
            -0.19874002039432526,
            -0.5096309781074524,
            -0.4974612593650818,
            0.30311495065689087,
            0.542915403842926,
            0.35285264253616333,
            -0.5063757300376892,
            0.5422382950782776,
            -0.6243678331375122,
            -0.00826965644955635,
            0.3825334906578064,
            -0.9011842012405396,
            0.16822147369384766,
            0.11666077375411987,
            -0.395363986492157,
            0.6342146992683411,
            0.27749693393707275,
            0.39012235403060913,
            1.1400237083435059,
            -0.8376274704933167,
            0.9320646524429321,
            0.318208783864975,
            -0.4288991093635559,
            1.0416361093521118,
            0.10260674357414246,
            -0.6921775341033936,
            -0.12392572313547134,
            -0.2599250078201294,
            -0.33129870891571045,
            -0.4817214012145996,
            0.18774951994419098,
            0.3538147211074829,
            0.17278313636779785,
            -1.4316222667694092,
            2.0554099082946777,
            -0.12442117929458618,
            -0.5228371620178223,
            0.3435222804546356,
            0.3401697278022766,
            0.5241406559944153,
            -1.015363335609436,
            -0.03445706516504288,
            0.571306049823761,
            -0.18858976662158966,
            0.33899909257888794,
            0.2539600729942322,
            -1.402877926826477,
            -0.7521610260009766,
            -0.6161388158798218,
            0.03797260299324989,
            0.6594465374946594,
            1.912268042564392,
            -0.17535625398159027,
            2.9902899265289307,
            0.6726227402687073,
            -0.3478626310825348,
            0.35670870542526245,
            -0.30739590525627136,
            -0.11920405924320221,
            -0.29180586338043213,
            -0.00767180323600769,
            0.2382199913263321,
            -0.3520749509334564,
            0.5861794948577881,
            0.11362116038799286,
            0.15711469948291779,
            -0.3045426607131958,
            0.05705896019935608,
            0.009416267275810242,
            0.02678358554840088,
            -0.02362695336341858,
            0.01161414384841919,
            0.9132761359214783,
            0.22605714201927185,
            -0.20142464339733124,
            0.8264802098274231,
            0.09346038103103638,
            -0.0008300095796585083,
            0.048263415694236755,
            -0.5458375811576843,
            0.100115567445755,
            -0.01755666732788086,
            -0.2185806781053543,
            0.9344403147697449,
            -0.04407397657632828,
            -0.19861453771591187,
            0.381149023771286,
            -0.12409418076276779,
            -0.2072461098432541,
            0.20150834321975708,
            0.2448890507221222,
            -0.3574393689632416,
            0.4207628071308136,
            -0.11543155461549759,
            -0.16298511624336243,
            -0.3976348340511322,
            -0.10105331242084503,
            -0.6457242965698242,
            0.2662484645843506,
            0.0003387928009033203,
            0.2698139250278473,
            -0.38820791244506836,
            0.09888273477554321,
            -0.35888516902923584,
            -0.12683960795402527,
            -0.29834654927253723,
            -0.12040285766124725,
            0.1721581220626831,
            -0.0734749287366867,
            0.07734183967113495,
            -0.14812998473644257,
            -0.1652376353740692,
            0.38695845007896423,
            0.09832686930894852,
            0.08095180988311768,
            0.09593536704778671,
            -0.12760457396507263,
            -1.0367802381515503,
            0.06055060029029846,
            0.023134008049964905,
            -0.1130458414554596,
            0.1823509782552719,
            -0.025594428181648254,
            -0.0005552801885642111,
            -0.06997469067573547,
            0.09638941287994385,
            0.14391644299030304,
            -0.26468703150749207,
            -0.0987108051776886,
            -0.05412164703011513,
            0.12377072870731354,
            -0.0879017561674118,
            -0.012467101216316223,
            0.11528924107551575,
            -0.0946073979139328,
            -0.1231636255979538,
            0.21034172177314758,
            0.022253016009926796,
            0.05013782158493996,
            0.1145293340086937,
            0.03978191316127777,
            0.054615095257759094,
            -0.12029166519641876,
            0.10086429119110107,
            -0.0013715922832489014,
            -0.05155746638774872,
            0.11703801155090332,
            -0.21596097946166992,
            0.10407670587301254,
            0.1127079650759697,
            -0.04543092101812363,
            0.20755836367607117,
            0.07991348952054977,
            -0.19156691431999207,
            -0.021978681907057762,
            0.13232432305812836,
            0.05052414536476135,
            0.026377037167549133,
            0.03043912909924984,
            0.10030287504196167,
            -0.023149728775024414,
            -0.04715875908732414,
            1.0322750806808472,
            0.006911575794219971,
            -0.14081178605556488,
            0.01908031292259693,
            0.08363279700279236,
            0.11956063657999039,
            -0.07640597224235535,
            -0.04921547695994377,
            0.06729324162006378,
            -0.09444291889667511,
            -0.01120951771736145,
            0.00864461064338684,
            -0.11223799735307693,
            -0.04458716884255409,
            -0.10147684067487717,
            0.002015115227550268,
            -0.05735652148723602,
            0.0803767517209053,
            0.0063830153085291386,
            0.2895238399505615,
            -0.09842441976070404,
            -0.0839361697435379,
            -0.11691758036613464,
            -0.062174297869205475,
            0.03970664367079735,
            0.5975242257118225
        ]
    },
    "decoder": {
        "num_inputs": 2,
        "num_outputs": 2,
        "num_hidden_layers": 1,
        "neurons_per_hidden_layer": 64,
        "hidden_layer_activation_function": "relu",
        "final_layer_activation_function": null,
        "bias": true,
        "weights": [
            1.8706035614013672,
            -1.0938670635223389,
            0.7986430525779724,
            -1.0084915161132812,
            1.3965096473693848,
            -1.5796751976013184,
            -0.4021478593349457,
            -0.11921125650405884,
            -0.3413797616958618,
            -0.6581881046295166,
            1.1296710968017578,
            -1.0551398992538452,
            1.249670386314392,
            -1.692074179649353,
            -0.4135146141052246,
            -0.43182361125946045,
            -1.8905410766601562,
            1.0042046308517456,
            0.07620835304260254,
            -0.41672661900520325,
            0.8130690455436707,
            2.87774920463562,
            0.9912444353103638,
            -1.9415515661239624,
            1.327157974243164,
            -1.4718033075332642,
            0.6250138878822327,
            -0.22481460869312286,
            1.5523689985275269,
            -1.8555225133895874,
            -0.6139146089553833,
            -0.1688861846923828,
            1.703965425491333,
            -1.1928232908248901,
            0.9807296991348267,
            -1.879765272140503,
            -0.14972005784511566,
            0.1622759848833084,
            0.2506316900253296,
            -0.032304227352142334,
            0.046465396881103516,
            0.31002944707870483,
            -1.7567315101623535,
            0.9682955145835876,
            1.999285340309143,
            -0.904506504535675,
            1.6630500555038452,
            -1.4522429704666138,
            -0.14172065258026123,
            -0.2473202347755432,
            -0.5290292501449585,
            -0.06753861904144287,
            1.692294716835022,
            -1.4312807321548462,
            -0.18146765232086182,
            -0.669577956199646,
            -1.8894672393798828e-05,
            0.6562245488166809,
            -0.5170929431915283,
            0.1255306601524353,
            -1.7339909076690674,
            1.4361987113952637,
            1.6496518850326538,
            -0.8589863777160645,
            -0.3529713451862335,
            -0.38497933745384216,
            -0.034003399312496185,
            0.5112504959106445,
            -0.07043445110321045,
            0.48402470350265503,
            -0.595441460609436,
            -0.6525619029998779,
            0.20757877826690674,
            0.2273101955652237,
            0.45640093088150024,
            0.12313979864120483,
            0.10422719269990921,
            1.8497326374053955,
            1.7281949520111084,
            -1.521349549293518,
            1.554787278175354,
            -1.4610882997512817,
            1.1128612756729126,
            -1.634329080581665,
            1.7749022245407104,
            -1.5674711465835571,
            1.524023175239563,
            -1.6472193002700806,
            1.4797453880310059,
            -1.8921033143997192,
            1.1764516830444336,
            -1.8961260318756104,
            2.0232033729553223,
            -1.3667256832122803,
            -0.6976094841957092,
            0.33756810426712036,
            -0.3770175576210022,
            0.6077448725700378,
            1.6250500679016113,
            -0.6960082054138184,
            -0.5525240302085876,
            1.7184042930603027,
            -0.6160597801208496,
            -0.3861207664012909,
            0.8554595708847046,
            -2.0967941284179688,
            1.1248350143432617,
            -1.9664441347122192,
            1.6815156936645508,
            -0.5826150178909302,
            0.1385728120803833,
            0.2032691091299057,
            -1.185940146446228,
            1.2432533502578735,
            1.3265048265457153,
            -1.494503140449524,
            -0.03954392671585083,
            0.46359866857528687,
            4.794893264770508,
            5.4265241622924805,
            1.4393218755722046,
            -1.5991820096969604,
            1.7827956676483154,
            -1.1224457025527954,
            2.4781999588012695,
            2.7351224422454834,
            1.828357219696045,
            -1.191759467124939,
            1.9487117528915405,
            1.9421427249908447,
            1.5235108137130737,
            -0.3308049738407135,
            -0.6081445217132568,
            1.875341534614563,
            1.7464436292648315,
            -0.560836672782898,
            1.644741415977478,
            -0.4444301724433899,
            -0.6020094156265259,
            1.9676185846328735,
            1.4674307107925415,
            -0.6333538293838501,
            2.0199267864227295,
            -0.5224811434745789,
            1.267558217048645,
            1.9187363386154175,
            -0.17305433750152588,
            -0.452791690826416,
            -0.44350242614746094,
            1.4808241128921509,
            1.875036358833313,
            1.3896043300628662,
            -0.506550133228302,
            -0.44240179657936096,
            1.3681411743164062,
            -0.2615600526332855,
            -0.6814559698104858,
            -0.5034366846084595,
            -0.15135663747787476,
            1.9201457500457764,
            -0.1256566047668457,
            -0.5083484649658203,
            -0.5656681060791016,
            -0.36892619729042053,
            -0.4264442026615143,
            -0.6007429361343384,
            -0.22395963966846466,
            1.8183889389038086,
            1.4014216661453247,
            2.0945491790771484,
            1.5005903244018555,
            1.6423410177230835,
            1.9410160779953003,
            2.1137475967407227,
            1.2945921421051025,
            -0.6655575633049011,
            -0.6726698279380798,
            1.5648691654205322,
            -0.030101126059889793,
            -0.37288278341293335,
            2.150418758392334,
            1.925058126449585,
            2.1410067081451416,
            -0.332258939743042,
            0.7837570905685425,
            1.7772722244262695,
            -0.5751621723175049,
            -2.2510898113250732,
            1.815891981124878,
            1.800831913948059,
            -1.0717073678970337,
            1.1271677017211914,
            -1.347800850868225,
            -1.818527340888977,
            -1.613892912864685,
            0.06840460002422333,
            -0.04561927914619446,
            -1.4550665616989136,
            -1.6078187227249146,
            0.05988866090774536,
            -1.0580946207046509,
            -0.049907296895980835,
            2.223054885864258,
            -1.576238989830017,
            -1.5794917345046997,
            0.030720097944140434,
            -1.357331395149231,
            0.009887322783470154,
            -1.462594747543335,
            -1.6312894821166992,
            -0.037801533937454224,
            -0.06269986927509308,
            0.04160997271537781,
            -1.0784647464752197,
            -1.1484853029251099,
            -1.4933267831802368,
            0.10325992107391357,
            -0.013855516910552979,
            -1.5138107538223267,
            0.006082639098167419,
            0.02772921323776245,
            0.12280836701393127,
            -0.2393886297941208,
            -1.3598377704620361,
            -0.028998643159866333,
            0.02886882610619068,
            0.1083279401063919,
            0.03991176187992096,
            0.004674349911510944,
            -0.11021915078163147,
            1.7527737617492676,
            -1.42414391040802,
            -1.4732747077941895,
            -1.5031620264053345,
            -1.5023380517959595,
            -1.4520981311798096,
            -1.353082537651062,
            -1.4033352136611938,
            -1.3577439785003662,
            0.11007706820964813,
            -0.05823881924152374,
            -1.3660738468170166,
            0.7646859288215637,
            -0.1237550675868988,
            -1.6974234580993652,
            -2.1329967975616455,
            -1.1490299701690674,
            -0.09457235783338547,
            -0.4253466725349426,
            -1.4950389862060547,
            -0.12143424153327942,
            2.405000686645508,
            -1.367617130279541,
            -1.2904391288757324,
            2.1751253604888916,
            -1.5232691764831543,
            0.7787107229232788,
            1.059186339378357,
            1.072399377822876,
            -0.09594587981700897,
            0.0554942786693573,
            1.1364619731903076,
            1.0651682615280151,
            0.0867726057767868,
            -2.4263131618499756,
            -0.033132970333099365,
            0.9242831468582153,
            1.1428186893463135,
            1.2248749732971191,
            -0.05037115141749382,
            0.9104843139648438,
            0.04634791612625122,
            1.1244782209396362,
            1.072763204574585,
            -0.007094185333698988,
            0.11428284645080566,
            0.12387366592884064,
            -2.9503841400146484,
            0.9703483581542969,
            1.1481600999832153,
            -0.012417957186698914,
            -0.10440154373645782,
            1.037457823753357,
            -0.11755649745464325,
            -0.014056533575057983,
            -0.05325065553188324,
            -2.833698272705078,
            0.8437168598175049,
            0.09602071344852448,
            -0.04404051974415779,
            -0.09052926301956177,
            0.10556676983833313,
            -0.03836854174733162,
            0.12332916259765625,
            0.00720967398956418,
            0.8370894193649292,
            1.1673113107681274,
            0.9891024231910706,
            0.9379394054412842,
            1.0245742797851562,
            0.9911693334579468,
            1.0193098783493042,
            1.0417555570602417,
            0.10856814682483673,
            -0.05776165425777435,
            1.0921251773834229,
            -0.7577229738235474,
            -0.02982303500175476,
            1.0110037326812744,
            1.0390641689300537,
            0.9663615226745605,
            -0.029139842838048935,
            -2.2903130054473877,
            1.0117416381835938,
            -0.01503455638885498,
            2.358553171157837,
            1.0507081747055054,
            0.9346798062324524,
            3.234816789627075,
            1.137752890586853,
            -1.0123298168182373,
            0.4546931982040405
        ]
    }
}