{
    "num_epochs": 20000,
    "batch_size": 1000,
    "final_loss": 0.3872218728065491,
    "train_data_exp_dir_path": "data/scp_train_data_norm",
    "encoder": {
        "num_inputs": 2,
        "num_outputs": 2,
        "num_hidden_layers": 1,
        "neurons_per_hidden_layer": 64,
        "hidden_layer_activation_function": "relu",
        "final_layer_activation_function": null,
        "bias": true,
        "weights": [
            -0.02512354776263237,
            0.4087478220462799,
            1.3424922227859497,
            0.09589913487434387,
            -0.6986595988273621,
            -0.04403330385684967,
            0.09969423711299896,
            0.25416135787963867,
            -0.14940518140792847,
            -0.028482848778367043,
            -0.1424858272075653,
            -0.020769748836755753,
            0.6945104002952576,
            -0.4069365859031677,
            0.21778669953346252,
            0.44785675406455994,
            0.7066811919212341,
            -0.33332762122154236,
            0.18428820371627808,
            -0.6606155037879944,
            0.10128974914550781,
            -0.10360312461853027,
            0.015900731086730957,
            -0.1501702070236206,
            -0.6352241039276123,
            -0.023412026464939117,
            -0.29297128319740295,
            0.3308410346508026,
            -0.11657935380935669,
            -0.690237820148468,
            -0.3884952962398529,
            0.4084870517253876,
            -0.17163601517677307,
            0.123389333486557,
            -0.019490063190460205,
            -0.09052091836929321,
            -0.260686993598938,
            -0.24867454171180725,
            -0.17823314666748047,
            0.5903535485267639,
            -0.5943840146064758,
            0.6353423595428467,
            0.5326387286186218,
            -0.0639042854309082,
            0.5470991730690002,
            0.2586142420768738,
            -0.669204831123352,
            0.14317958056926727,
            -0.05363667011260986,
            -0.08808135986328125,
            -0.10174441337585449,
            -0.39640477299690247,
            0.2603782117366791,
            0.09376873821020126,
            0.5730070471763611,
            -0.40510690212249756,
            -0.7612185478210449,
            -0.5987633466720581,
            0.46108973026275635,
            0.3842087984085083,
            0.6724948287010193,
            0.19908535480499268,
            0.21541666984558105,
            0.08417713642120361,
            -0.25769659876823425,
            -0.21340322494506836,
            -0.11871519684791565,
            0.13446705043315887,
            0.07717413455247879,
            0.4521036148071289,
            -0.44049862027168274,
            0.18877726793289185,
            -0.22024501860141754,
            0.2851938307285309,
            -0.048457324504852295,
            -0.1759081482887268,
            -0.5915282964706421,
            0.7062707543373108,
            0.40714317560195923,
            0.5488263368606567,
            -0.36521023511886597,
            0.5039650201797485,
            0.39333921670913696,
            0.4553520083427429,
            0.31001046299934387,
            -0.2236914336681366,
            -0.037951648235321045,
            -0.4457297921180725,
            0.27793610095977783,
            0.054150938987731934,
            -0.1320478618144989,
            0.39918527007102966,
            -0.4798075258731842,
            0.1562582403421402,
            -0.2619308531284332,
            -0.5990903973579407,
            -0.002646327018737793,
            -0.1273757815361023,
            0.5902692675590515,
            -0.3435695469379425,
            0.3290546238422394,
            0.5654071569442749,
            0.32349830865859985,
            0.007632613182067871,
            -0.39992642402648926,
            0.03993950039148331,
            -0.3261377215385437,
            0.04666493460536003,
            -0.6258448362350464,
            -0.29228630661964417,
            0.15670093894004822,
            0.5975676774978638,
            -0.6159589886665344,
            0.28036797046661377,
            -0.611890435218811,
            -0.009568615816533566,
            -0.2709716558456421,
            0.36381158232688904,
            0.22505146265029907,
            -0.558824360370636,
            -0.339641809463501,
            -0.5485994219779968,
            0.6156575083732605,
            -0.19770961999893188,
            0.21845471858978271,
            -0.061203956604003906,
            0.4874998927116394,
            -0.029207348823547363,
            0.36923035979270935,
            1.8298735618591309,
            -0.32933309674263,
            1.0495574474334717,
            0.5656323432922363,
            1.1552642583847046,
            -0.5571354627609253,
            -0.8421370387077332,
            -0.7003738880157471,
            -0.2102164924144745,
            0.5341952443122864,
            -0.6634700894355774,
            -0.6519641280174255,
            0.3002840578556061,
            0.6085438132286072,
            -0.4785726070404053,
            -0.4002979099750519,
            0.1402319073677063,
            -0.4391029477119446,
            0.050591111183166504,
            0.46719539165496826,
            0.6771529316902161,
            -0.355526864528656,
            0.38005363941192627,
            -0.4023498296737671,
            0.1405385136604309,
            0.01800907403230667,
            0.31054407358169556,
            0.47875699400901794,
            1.2155163288116455,
            -0.5606991648674011,
            -0.24156245589256287,
            0.2839052081108093,
            -0.24921144545078278,
            0.026426056399941444,
            -0.13579116761684418,
            -0.10036768764257431,
            0.1373385190963745,
            -0.01852426491677761,
            0.34623247385025024,
            0.13936589658260345,
            1.0986294746398926,
            3.0821218490600586,
            0.6198857426643372,
            -0.27889883518218994,
            -0.37777307629585266,
            1.1485956907272339,
            0.3805437684059143,
            -0.5000466108322144,
            -0.38545501232147217,
            -0.00267504109069705,
            -0.4542730450630188,
            -0.484517365694046,
            -0.39561715722084045,
            -0.49462708830833435,
            0.320607990026474,
            -0.5994738936424255,
            -0.5408925414085388,
            0.361307829618454,
            0.6136100888252258,
            -1.5515981912612915,
            -0.6017317771911621,
            0.1317571997642517,
            -0.6527138948440552,
            -0.27720677852630615,
            -0.9763267636299133,
            -0.2962016761302948,
            -0.5452554225921631,
            -0.5767474174499512,
            0.18390651047229767,
            -0.02007630467414856,
            0.5383812189102173,
            0.050149425864219666,
            -0.08648473024368286,
            0.055414050817489624,
            -0.05561375617980957,
            0.41576850414276123,
            -0.4296066164970398,
            0.0332227498292923,
            0.3460664749145508,
            0.3902567923069,
            0.11409768462181091,
            -0.5104069709777832,
            0.038230713456869125,
            -0.2529197633266449,
            0.12450799345970154,
            0.12313780188560486,
            -0.1365530639886856,
            -0.10768437385559082,
            -0.08232583105564117,
            -0.07746909558773041,
            -0.10272446274757385,
            -0.29153525829315186,
            0.4687412977218628,
            0.1004151999950409,
            -0.004102244973182678,
            0.27381712198257446,
            0.09005104005336761,
            -0.25253012776374817,
            -0.34932082891464233,
            -0.11853978037834167,
            0.10519501566886902,
            0.26788485050201416,
            -0.29962852597236633,
            -0.0874236598610878,
            0.2758277952671051,
            -0.010539333336055279,
            0.11932508647441864,
            -0.009598642587661743,
            0.06876258552074432,
            0.08977815508842468,
            -0.0678785890340805,
            -0.02327527105808258,
            0.04799821972846985,
            -0.07521470636129379,
            0.08040806651115417,
            0.29949599504470825,
            0.3460998237133026,
            -0.19523081183433533,
            0.14798890054225922,
            0.3788084387779236,
            0.20232708752155304,
            -0.39948534965515137,
            0.05086411535739899,
            0.38248178362846375,
            0.09282982349395752,
            -0.11789214611053467,
            -0.12305963039398193,
            -0.10183936357498169,
            -0.9108995199203491,
            0.022234225645661354,
            -0.20756059885025024,
            -0.37399089336395264,
            -0.13398942351341248,
            -0.08362434804439545,
            0.4529355764389038,
            -0.07619862258434296,
            -0.06306159496307373,
            -0.00016769766807556152,
            -0.013235047459602356,
            0.18394596874713898,
            -0.13653017580509186,
            -0.025246724486351013,
            0.14005286991596222,
            0.04049401357769966,
            -0.09472882747650146,
            0.3259316384792328,
            0.010384739376604557,
            -0.09418570250272751,
            -0.012972623109817505,
            0.09888690710067749,
            -0.12252260744571686,
            0.04267483949661255,
            0.07829004526138306,
            0.026352668181061745,
            -0.1123795211315155,
            -0.02739676646888256,
            -0.9827057719230652,
            -0.013117209076881409,
            -0.011457666754722595,
            -0.1338651180267334,
            0.02951490320265293,
            -0.07896695286035538,
            0.03927164152264595,
            -0.0003502213512547314,
            -0.03867259621620178,
            -0.03381629288196564,
            0.00752926804125309,
            -0.0396822914481163,
            -0.005650530103594065,
            -2.0580224990844727,
            -0.05172544717788696,
            0.08116917312145233,
            0.17400453984737396,
            -0.05066181346774101,
            -0.11540929973125458,
            -0.06857207417488098,
            0.0027238279581069946,
            -0.13609002530574799,
            0.11552128195762634,
            0.03479369357228279,
            0.08073965460062027,
            0.0059819151647388935,
            0.020153449848294258,
            0.16144396364688873,
            0.025593791157007217,
            -0.08778119832277298,
            0.10219775140285492,
            3.987649440765381,
            0.02057705819606781,
            -0.1191190779209137,
            0.07228922843933105,
            -0.11299888789653778,
            -0.3422827124595642
        ]
    },
    "decoder": {
        "num_inputs": 2,
        "num_outputs": 2,
        "num_hidden_layers": 1,
        "neurons_per_hidden_layer": 64,
        "hidden_layer_activation_function": "relu",
        "final_layer_activation_function": null,
        "bias": true,
        "weights": [
            0.773807168006897,
            2.068774461746216,
            0.12788063287734985,
            1.5976649522781372,
            1.7246769666671753,
            0.8035458326339722,
            -0.3655877411365509,
            -0.2946072220802307,
            -0.558036744594574,
            -0.48214828968048096,
            0.054202139377593994,
            -0.3003857135772705,
            1.1241726875305176,
            1.505318522453308,
            -1.660338044166565,
            -0.806459903717041,
            0.493026465177536,
            2.331069231033325,
            1.588526725769043,
            -2.563390016555786,
            0.10444480180740356,
            -0.395107239484787,
            -0.30814260244369507,
            0.3302009701728821,
            1.697458267211914,
            -2.4722187519073486,
            -0.49256083369255066,
            -0.6702232360839844,
            0.35666704177856445,
            2.02011775970459,
            1.4106481075286865,
            2.2134783267974854,
            -0.1698906421661377,
            -0.7056451439857483,
            0.9047654867172241,
            1.757089614868164,
            0.049446165561676025,
            -0.38053226470947266,
            0.49742358922958374,
            2.1829471588134766,
            0.9383875131607056,
            -2.2315235137939453,
            -0.5690962076187134,
            -0.5715460777282715,
            1.1844311952590942,
            1.6736623048782349,
            1.1529335975646973,
            1.6736981868743896,
            0.00032150745391845703,
            -0.17639106512069702,
            0.3875677287578583,
            1.815895676612854,
            -1.8701683282852173,
            -0.7841879725456238,
            0.9425126314163208,
            1.5464550256729126,
            0.026729285717010498,
            -0.38246864080429077,
            1.1744637489318848,
            1.7519185543060303,
            0.16840362548828125,
            -0.582370400428772,
            1.3865242004394531,
            1.8983378410339355,
            -0.11476242542266846,
            -0.17719459533691406,
            1.128374695777893,
            -2.1355154514312744,
            1.2394834756851196,
            2.1843879222869873,
            -0.5355775952339172,
            -0.6367630362510681,
            0.12270908802747726,
            1.6778095960617065,
            1.2992067337036133,
            1.2690598964691162,
            1.2013109922409058,
            1.6790496110916138,
            1.147839903831482,
            1.8522952795028687,
            1.167267918586731,
            2.187277317047119,
            2.042954444885254,
            0.7013520002365112,
            -0.5895597338676453,
            -0.3904760479927063,
            1.1895443201065063,
            1.9808067083358765,
            -0.15224570035934448,
            0.41750019788742065,
            -0.041433632373809814,
            0.08774232864379883,
            0.017726361751556396,
            -0.2739686667919159,
            0.14245006442070007,
            -2.2122514247894287,
            1.1470098495483398,
            2.027111768722534,
            0.01893150806427002,
            -0.5788114070892334,
            0.1928880214691162,
            0.3583833575248718,
            -0.2782555818557739,
            -0.08984071016311646,
            1.699970006942749,
            1.2049565315246582,
            0.3122273087501526,
            -0.10781055688858032,
            1.793113350868225,
            1.5691598653793335,
            -0.778794527053833,
            -1.6129049062728882,
            0.42592373490333557,
            2.185046911239624,
            0.9234932065010071,
            2.0544047355651855,
            0.19839070737361908,
            1.8548095226287842,
            0.029162347316741943,
            0.0550498366355896,
            -0.8332760334014893,
            -1.5025544166564941,
            1.4890776872634888,
            1.3371391296386719,
            1.366235375404358,
            1.0841087102890015,
            1.734225869178772,
            1.736403226852417,
            0.45225411653518677,
            1.5095893144607544,
            1.0040894746780396,
            -0.23037129640579224,
            -0.6887784600257874,
            -0.6091296672821045,
            0.9079245328903198,
            2.1567790508270264,
            0.6032403111457825,
            2.3587377071380615,
            -0.4756622314453125,
            -0.49849241971969604,
            2.2635464668273926,
            -0.00019341023289598525,
            1.4884796142578125,
            0.47937682271003723,
            -0.12570279836654663,
            1.4241145849227905,
            -0.44914624094963074,
            1.0939279794692993,
            2.0839686393737793,
            -0.2785281240940094,
            1.188953161239624,
            0.8483815789222717,
            -0.693534791469574,
            0.8290338516235352,
            2.3410513401031494,
            1.483217477798462,
            -0.11852365732192993,
            0.2767666280269623,
            -0.19076764583587646,
            0.20518074929714203,
            -0.13334977626800537,
            1.9783955812454224,
            1.3666739463806152,
            -4.7822370106587186e-05,
            1.207716464996338,
            1.1219546794891357,
            1.111671805381775,
            1.5250098705291748,
            0.9063535928726196,
            0.5916990637779236,
            -0.5388381481170654,
            1.5013482570648193,
            -0.5168963670730591,
            -0.5157895088195801,
            -0.5570223331451416,
            2.120375871658325,
            1.095329999923706,
            -0.5061611533164978,
            -0.6244279146194458,
            -0.6618415713310242,
            0.993482232093811,
            -0.3452169895172119,
            0.5849796533584595,
            2.0537686347961426,
            0.9967626333236694,
            0.171995148062706,
            1.322993278503418,
            -0.46968185901641846,
            1.9961777925491333,
            0.6836128830909729,
            1.2946348190307617,
            0.13567930459976196,
            -1.5542196035385132,
            -1.455989956855774,
            -0.5940753817558289,
            -0.015351936221122742,
            -0.1234060525894165,
            -0.07879719138145447,
            -1.1221529245376587,
            0.7542713284492493,
            -1.586418628692627,
            2.982118606567383,
            0.03635053336620331,
            -0.050540804862976074,
            2.626943588256836,
            0.06017293408513069,
            -1.3093445301055908,
            -1.14292311668396,
            0.044958531856536865,
            -1.1440573930740356,
            0.048253729939460754,
            -1.3840447664260864,
            2.6034138202667236,
            0.07425591349601746,
            -1.0528664588928223,
            -1.146591067314148,
            -0.05943417549133301,
            -1.6322143077850342,
            0.3013213574886322,
            -1.0308310985565186,
            -0.01566682755947113,
            -1.3182330131530762,
            -0.07352010905742645,
            -1.188684105873108,
            -0.08988335728645325,
            2.4577887058258057,
            -1.041841983795166,
            0.02191578783094883,
            -1.619741439819336,
            -0.9540107846260071,
            -0.9835847020149231,
            -1.0328062772750854,
            -1.0857192277908325,
            -0.7070415019989014,
            -0.10286226868629456,
            -1.0076744556427002,
            -0.035140082240104675,
            0.07262624800205231,
            -0.01206137239933014,
            2.5698394775390625,
            -1.0871084928512573,
            -0.10244518518447876,
            -0.0018694698810577393,
            -0.018784284591674805,
            -0.8530060648918152,
            -0.01627574861049652,
            -0.9020295143127441,
            1.688995599746704,
            -1.4298502206802368,
            -1.4978878498077393,
            -1.4317965507507324,
            -0.061150744557380676,
            1.6684283018112183,
            -0.9954667687416077,
            -0.853174090385437,
            -1.1173791885375977,
            1.0912325382232666,
            0.451487272977829,
            1.2439613342285156,
            -0.05198448896408081,
            -0.10626442730426788,
            0.10061471164226532,
            1.0231640338897705,
            -3.585191249847412,
            0.7879787683486938,
            0.7299229502677917,
            0.03752423822879791,
            0.08279536664485931,
            1.0829033851623535,
            -0.038782745599746704,
            0.4454057514667511,
            0.9121881723403931,
            0.09952448308467865,
            0.6147440671920776,
            0.04517762362957001,
            0.5389655232429504,
            -0.22687652707099915,
            -0.08685463666915894,
            0.766692042350769,
            0.901832103729248,
            0.00253334641456604,
            0.7460772395133972,
            -3.3087615966796875,
            0.6921184659004211,
            0.005301222205162048,
            1.2662447690963745,
            0.06260760128498077,
            1.2655091285705566,
            0.11635306477546692,
            -0.21460962295532227,
            0.6322321891784668,
            -0.03904671221971512,
            0.559893012046814,
            1.0127052068710327,
            0.8618834018707275,
            0.5961880683898926,
            0.7615351676940918,
            1.6186699867248535,
            -0.011608928442001343,
            0.5913200974464417,
            0.11465950310230255,
            0.06432168185710907,
            -0.06952784955501556,
            -1.8598430156707764,
            0.783733069896698,
            -0.11812031269073486,
            -0.11911456286907196,
            0.0379636287689209,
            1.0578594207763672,
            0.07121886312961578,
            1.1529968976974487,
            -2.865065336227417,
            0.5307131409645081,
            1.1370415687561035,
            0.50620436668396,
            -0.11209194362163544,
            -2.9706244468688965,
            1.2250950336456299,
            1.017744541168213,
            1.383147120475769,
            -0.5430358648300171,
            0.08459793031215668
        ]
    }
}