{
    "num_epochs": 20000,
    "batch_size": 1000,
    "final_loss": 0.5717790722846985,
    "train_data_exp_dir_path": "data/scp_train_data_norm",
    "encoder": {
        "num_inputs": 2,
        "num_outputs": 2,
        "num_hidden_layers": 1,
        "neurons_per_hidden_layer": 64,
        "hidden_layer_activation_function": "relu",
        "final_layer_activation_function": null,
        "bias": true,
        "weights": [
            -0.41096895933151245,
            -0.04498249292373657,
            -0.5625020861625671,
            -0.2137097716331482,
            1.0151901245117188,
            0.47853323817253113,
            0.17372173070907593,
            -0.378864586353302,
            -0.0586281418800354,
            -0.16806131601333618,
            -0.47323933243751526,
            0.13747818768024445,
            0.04298102855682373,
            -0.4169565737247467,
            0.11311006546020508,
            0.029925942420959473,
            0.42152637243270874,
            -0.2588879466056824,
            -0.2391671985387802,
            -0.4040795862674713,
            0.5606595873832703,
            -0.4088823199272156,
            0.2195325493812561,
            0.02527463436126709,
            -0.08638657629489899,
            0.07094774395227432,
            -0.2948589026927948,
            0.5099148154258728,
            0.24401497840881348,
            0.5639315843582153,
            0.08186488598585129,
            0.6708310842514038,
            0.5705773234367371,
            -0.5426303148269653,
            0.6585864424705505,
            -0.3451196253299713,
            0.6576855778694153,
            -0.5927610993385315,
            0.0052220821380615234,
            -0.31620022654533386,
            0.09015387296676636,
            -0.5710983872413635,
            0.36240440607070923,
            -0.5683243274688721,
            -0.17318318784236908,
            0.5363448858261108,
            -0.5226510763168335,
            0.020578907802700996,
            0.4951797127723694,
            -0.6221973299980164,
            -0.373262494802475,
            0.11750929057598114,
            -0.1728987991809845,
            0.12538550794124603,
            -0.46811771392822266,
            -0.40557339787483215,
            -0.16557832062244415,
            -0.10487386584281921,
            -0.6139447689056396,
            -0.46156299114227295,
            0.6258601546287537,
            0.26407814025878906,
            0.5133560299873352,
            -0.24720895290374756,
            -0.47643980383872986,
            -0.03853588551282883,
            0.16114503145217896,
            -0.13158071041107178,
            0.32418328523635864,
            0.15128231048583984,
            -0.34638214111328125,
            -0.2689495384693146,
            0.37615805864334106,
            -0.12189990282058716,
            0.6436408162117004,
            -0.5678442120552063,
            0.10441652685403824,
            0.39578622579574585,
            -0.30907702445983887,
            0.42097029089927673,
            -0.61807781457901,
            -0.5589712262153625,
            -0.3818868398666382,
            -0.029049891978502274,
            0.4103468358516693,
            0.25194814801216125,
            0.09031295776367188,
            -0.23556023836135864,
            -0.6380723714828491,
            -0.2270514816045761,
            0.4236913323402405,
            -0.26952865719795227,
            -0.33906289935112,
            -0.20260664820671082,
            -0.46902334690093994,
            -0.3264128267765045,
            0.8459916114807129,
            0.7079958915710449,
            -0.1814318299293518,
            -0.6208750009536743,
            -0.24063850939273834,
            0.012639178894460201,
            0.4971986413002014,
            0.25962936878204346,
            -0.400662362575531,
            0.05005602538585663,
            -0.004567715339362621,
            0.2324013113975525,
            -0.6558417677879333,
            -0.49257582426071167,
            -0.6098541021347046,
            -0.2945910096168518,
            0.06006632372736931,
            0.6349166035652161,
            -0.2155715823173523,
            0.5293405652046204,
            0.1298096925020218,
            0.32622072100639343,
            0.14813098311424255,
            0.32803472876548767,
            0.7733906507492065,
            0.2918627858161926,
            0.19617199897766113,
            -0.014774501323699951,
            0.8324570059776306,
            0.5390795469284058,
            0.46131929755210876,
            0.7748825550079346,
            -0.18365265429019928,
            0.036000873893499374,
            1.345202922821045,
            0.6139833331108093,
            -0.652644693851471,
            0.6701056957244873,
            -0.32922783493995667,
            -0.17639148235321045,
            -0.3429355025291443,
            -0.28102782368659973,
            0.5287490487098694,
            -0.12996602058410645,
            -0.003822604427114129,
            -0.3153938353061676,
            0.6987451314926147,
            0.8398826122283936,
            0.3992549777030945,
            0.42033809423446655,
            -0.16074830293655396,
            0.7001683115959167,
            -0.027440190315246582,
            0.5543974041938782,
            -2.041944742202759,
            -0.6485602855682373,
            -0.5375690460205078,
            -0.6410261392593384,
            0.607767641544342,
            -0.4125835597515106,
            -0.7945230603218079,
            -0.5503764748573303,
            -0.38769790530204773,
            0.3049139380455017,
            -0.2571100890636444,
            0.43876582384109497,
            -0.488954097032547,
            0.7414814233779907,
            0.29873818159103394,
            -0.3791414201259613,
            0.06887809187173843,
            -0.43167850375175476,
            -0.8009545803070068,
            0.2396896630525589,
            -0.6872103810310364,
            -0.20104330778121948,
            -0.7249878644943237,
            0.07623350620269775,
            0.49090003967285156,
            -0.9236368536949158,
            2.0035722255706787,
            -0.03479510545730591,
            0.1311226785182953,
            -0.3559448719024658,
            -0.13336704671382904,
            -0.6028295159339905,
            0.7163909673690796,
            1.3859421014785767,
            1.9983012676239014,
            -0.348752498626709,
            0.9340648055076599,
            -0.751885712146759,
            -0.0070229582488536835,
            0.34640008211135864,
            -0.32798925042152405,
            0.8549163341522217,
            -0.09178977459669113,
            -0.07098910957574844,
            0.2395177036523819,
            -0.1146097481250763,
            -0.032560184597969055,
            0.12578020989894867,
            -0.10154472291469574,
            -0.0762130469083786,
            0.11837829649448395,
            0.038688093423843384,
            0.03422608971595764,
            0.10305622220039368,
            0.12023377418518066,
            -0.004542123526334763,
            0.16834373772144318,
            0.00563008151948452,
            0.012246638536453247,
            -0.06082218885421753,
            -0.06302046775817871,
            -0.10913971066474915,
            -0.03111952543258667,
            0.03964321315288544,
            -0.10941462963819504,
            -0.09873928129673004,
            0.013154566287994385,
            -0.10712318867444992,
            0.020432032644748688,
            0.1370704472064972,
            -0.36690494418144226,
            0.09182293713092804,
            0.1204875260591507,
            0.10226152837276459,
            -0.08546362072229385,
            0.0858599841594696,
            0.03922022879123688,
            0.056993115693330765,
            0.02198067307472229,
            -0.00698484480381012,
            -0.0013231383636593819,
            -0.08098412305116653,
            0.09831694513559341,
            -0.0630592554807663,
            0.02502184547483921,
            0.12310102581977844,
            -0.1321181058883667,
            -0.020648449659347534,
            0.2812335789203644,
            0.11202377825975418,
            0.30140623450279236,
            -0.06001758575439453,
            0.06161824241280556,
            0.013621076941490173,
            0.06510408222675323,
            -0.07163184881210327,
            0.08166847378015518,
            0.0388212576508522,
            0.05370120704174042,
            -0.016811715438961983,
            0.3360320031642914,
            -0.258767306804657,
            0.03164977207779884,
            -0.09329377114772797,
            0.6145951151847839,
            0.24668927490711212,
            0.14433680474758148,
            -0.31720131635665894,
            -0.14569973945617676,
            0.09382958710193634,
            0.08573214709758759,
            -0.24753187596797943,
            0.07718588411808014,
            -0.006601586937904358,
            -0.009530246257781982,
            0.7394622564315796,
            -0.08502589166164398,
            0.0886736661195755,
            -0.12457120418548584,
            0.2846418619155884,
            -0.11751902848482132,
            0.02219344861805439,
            0.02760384976863861,
            -0.08253715932369232,
            -0.11164131760597229,
            -0.0672546923160553,
            0.10674545168876648,
            0.10611087083816528,
            -0.08125796169042587,
            0.2437119334936142,
            -0.04523015022277832,
            0.3254554569721222,
            -0.37538379430770874,
            0.7539739012718201,
            0.6876757740974426,
            -0.2204047292470932,
            0.0018795132637023926,
            0.07526908814907074,
            0.43879434466362,
            0.03345462679862976,
            0.10715872049331665,
            -0.6283002495765686,
            0.10227058827877045,
            0.09093041718006134,
            0.22538821399211884,
            -0.14618897438049316,
            0.5378919839859009,
            -0.3835906684398651,
            -0.08494556695222855,
            0.09122180938720703,
            -0.1616164594888687,
            0.022863119840621948,
            -0.39926519989967346,
            -0.1926722228527069,
            -0.6168264746665955,
            0.07426793873310089,
            0.34915298223495483,
            0.09267571568489075,
            -0.13048167526721954,
            -0.19239714741706848,
            -0.4652775824069977,
            0.03549744188785553,
            0.0397464744746685,
            0.17866234481334686,
            -0.10675623267889023,
            0.2261432558298111,
            0.0349976122379303,
            0.06452754139900208,
            0.7465924620628357,
            -0.1768423318862915,
            0.5193405747413635,
            0.25786998867988586
        ]
    },
    "decoder": {
        "num_inputs": 2,
        "num_outputs": 2,
        "num_hidden_layers": 1,
        "neurons_per_hidden_layer": 64,
        "hidden_layer_activation_function": "relu",
        "final_layer_activation_function": null,
        "bias": true,
        "weights": [
            -0.5773833394050598,
            -0.4615193009376526,
            0.0036353468894958496,
            -0.28496190905570984,
            -1.3642750978469849,
            1.4595801830291748,
            3.679598569869995,
            2.7302207946777344,
            -1.4061133861541748,
            1.8440803289413452,
            -1.1894222497940063,
            1.2791377305984497,
            -1.5537410974502563,
            1.260295033454895,
            1.3698879480361938,
            -3.2851438522338867,
            -1.4770838022232056,
            1.8044309616088867,
            -1.2250924110412598,
            1.5097254514694214,
            -0.17869794368743896,
            -0.6508735418319702,
            -0.9745250940322876,
            1.909998893737793,
            2.4401590824127197,
            -2.5812807083129883,
            1.968245506286621,
            -0.4521656334400177,
            -0.21217457950115204,
            -0.5116444826126099,
            -0.3573427200317383,
            -0.24363666772842407,
            -1.7224947214126587,
            1.525387167930603,
            0.3542327284812927,
            -0.6805438995361328,
            -0.39393410086631775,
            -0.022575974464416504,
            -0.5820050835609436,
            -0.5371103286743164,
            -0.6746518015861511,
            1.2169333696365356,
            -1.3796000480651855,
            1.9853918552398682,
            0.20456381142139435,
            0.4744844436645508,
            -0.6725857853889465,
            -0.584476888179779,
            1.3703439235687256,
            -2.2349178791046143,
            -1.8964896202087402,
            0.7400738000869751,
            -0.033598028123378754,
            0.4843337833881378,
            0.072260282933712,
            -2.145197629928589,
            -1.3007416725158691,
            1.2224631309509277,
            0.6799135804176331,
            -0.6093373894691467,
            -1.2874507904052734,
            1.712320327758789,
            1.436879277229309,
            -2.828634738922119,
            -0.5816634893417358,
            -0.23861700296401978,
            1.2535818815231323,
            -2.9625275135040283,
            -0.9363272786140442,
            1.6219141483306885,
            -1.2272430658340454,
            1.9775981903076172,
            -0.866554319858551,
            -2.2716405391693115,
            1.2782257795333862,
            -2.9210219383239746,
            1.27445387840271,
            -2.6114134788513184,
            0.37498360872268677,
            -0.6359903812408447,
            -0.6406532526016235,
            0.333313524723053,
            -0.5894391536712646,
            0.552319347858429,
            -1.1135094165802002,
            1.920548677444458,
            -1.1349222660064697,
            1.845702886581421,
            -1.5503853559494019,
            1.048782467842102,
            -1.4386212825775146,
            1.909649133682251,
            -0.8042688369750977,
            1.7482701539993286,
            1.3353148698806763,
            -1.5499519109725952,
            -1.4579463005065918,
            1.5387122631072998,
            -1.4935976266860962,
            1.6298766136169434,
            -1.1308051347732544,
            1.758530855178833,
            -1.805819034576416,
            1.1536264419555664,
            -0.20938578248023987,
            -0.4318941831588745,
            -1.3340797424316406,
            1.471339225769043,
            5.655181884765625,
            4.380514144897461,
            -0.6781527400016785,
            1.868935227394104,
            -1.2625130414962769,
            1.3600621223449707,
            -0.4911068081855774,
            -0.653110682964325,
            -0.4593426585197449,
            -0.011927902698516846,
            -2.0044288635253906,
            1.8191553354263306,
            -1.477767825126648,
            1.7872726917266846,
            -0.9956569075584412,
            1.8203389644622803,
            0.6095371246337891,
            -1.7918633222579956,
            -1.0327273607254028,
            1.6779472827911377,
            -0.3174218237400055,
            -0.6028630137443542,
            1.835504174232483,
            -1.7247058153152466,
            1.6634246110916138,
            1.6639878749847412,
            1.6544686555862427,
            0.16442029178142548,
            1.7931824922561646,
            1.3147070407867432,
            -0.4408282935619354,
            2.140644073486328,
            -1.1647112369537354,
            -0.14628902077674866,
            0.018370846286416054,
            -0.3763764202594757,
            1.839971899986267,
            -0.4876841902732849,
            -0.3465288579463959,
            0.011730551719665527,
            1.9082950353622437,
            1.430909276008606,
            -0.533216118812561,
            -0.4386533498764038,
            -0.48229914903640747,
            2.2467989921569824,
            -0.4929138720035553,
            1.714592456817627,
            2.148320436477661,
            -0.6826524138450623,
            1.7880827188491821,
            -0.40459635853767395,
            -0.6498202681541443,
            0.024338949471712112,
            1.9587122201919556,
            1.2825963497161865,
            2.283606767654419,
            -0.2498631626367569,
            -0.33104273676872253,
            -0.382927805185318,
            -0.42447659373283386,
            -0.5868194103240967,
            1.6262588500976562,
            1.304659366607666,
            2.1949899196624756,
            2.0280847549438477,
            2.035141944885254,
            -0.43329134583473206,
            1.5442670583724976,
            1.891866683959961,
            0.9498067498207092,
            1.9130815267562866,
            -0.30389100313186646,
            1.4212727546691895,
            -2.798051357269287,
            0.9765222072601318,
            2.130506992340088,
            -0.3238369822502136,
            -0.6834511160850525,
            2.128293991088867,
            1.2929702997207642,
            1.4922441244125366,
            1.2792490720748901,
            2.0736849308013916,
            0.11296951770782471,
            0.06752428412437439,
            -1.4367436170578003,
            2.0443174839019775,
            -1.341756820678711,
            -1.5686115026474,
            -1.7506612539291382,
            2.731818675994873,
            -1.335203766822815,
            -1.6100460290908813,
            0.014840736985206604,
            -1.2583683729171753,
            0.9095255136489868,
            1.1446627378463745,
            0.04430488869547844,
            -0.02249753475189209,
            -1.3849269151687622,
            -0.06657089293003082,
            -0.029025837779045105,
            -0.016572266817092896,
            -1.4430534839630127,
            -1.4270224571228027,
            0.04347345232963562,
            0.020203784108161926,
            1.8253906965255737,
            -1.841306209564209,
            0.06630860269069672,
            -1.6199593544006348,
            -1.4317944049835205,
            0.0348004549741745,
            -1.33669114112854,
            2.1667399406433105,
            -0.10441918671131134,
            2.6828181743621826,
            -1.2829056978225708,
            -1.4442648887634277,
            -2.3373825550079346,
            2.4806923866271973,
            2.155876636505127,
            -0.0739256888628006,
            -0.1074213832616806,
            0.01442478597164154,
            -1.299055576324463,
            -1.4916242361068726,
            -1.6021487712860107,
            -1.222385287284851,
            -1.358712077140808,
            1.0171583890914917,
            -1.4780298471450806,
            -1.3728057146072388,
            -1.5822832584381104,
            -1.6594702005386353,
            -0.05847613513469696,
            -1.6872411966323853,
            3.299027919769287,
            -1.4544552564620972,
            -1.4606984853744507,
            -0.11321090161800385,
            -0.03739386796951294,
            -1.241992712020874,
            -1.5553193092346191,
            -1.361258864402771,
            -1.0838576555252075,
            -1.3312325477600098,
            0.11413922905921936,
            0.10216787457466125,
            1.023097276687622,
            1.6007050275802612,
            0.9775093197822571,
            1.1590656042099,
            1.0908653736114502,
            -2.7655115127563477,
            0.956682026386261,
            1.2740638256072998,
            0.12110300362110138,
            0.846433162689209,
            -3.043910026550293,
            0.1595902293920517,
            -0.09158828109502792,
            0.09614811837673187,
            1.0237040519714355,
            -0.01629236340522766,
            0.08651328086853027,
            0.10503622889518738,
            1.1357104778289795,
            0.9505397081375122,
            -0.028019826859235764,
            -0.010291948914527893,
            -2.1756303310394287,
            0.9071760773658752,
            -0.048140935599803925,
            -3.018960952758789,
            0.98326575756073,
            -0.11039730906486511,
            1.009314775466919,
            -1.8121168613433838,
            -0.02513715624809265,
            -2.2271108627319336,
            0.9722652435302734,
            1.056694746017456,
            -3.1265153884887695,
            -2.1129167079925537,
            -1.861232042312622,
            -0.0317867249250412,
            0.11702215671539307,
            0.09105712175369263,
            0.9976056218147278,
            1.10555899143219,
            0.9113081693649292,
            0.9720681309700012,
            0.8591447472572327,
            -0.3594552278518677,
            1.1116528511047363,
            0.9297739863395691,
            1.2725757360458374,
            0.9784510731697083,
            0.04839399456977844,
            1.1178226470947266,
            3.4152159690856934,
            1.3239409923553467,
            0.8874019384384155,
            0.06650958955287933,
            0.027731120586395264,
            0.9198874235153198,
            1.067851185798645,
            1.0536198616027832,
            -2.0306408405303955,
            0.9631192088127136,
            -1.076918363571167,
            0.4719606041908264
        ]
    }
}