{
    "num_epochs": 20000,
    "batch_size": 1000,
    "final_loss": 0.1368197798728943,
    "train_data_exp_dir_path": "data/scp_train_data_norm",
    "encoder": {
        "num_inputs": 2,
        "num_outputs": 2,
        "num_hidden_layers": 1,
        "neurons_per_hidden_layer": 64,
        "hidden_layer_activation_function": "relu",
        "final_layer_activation_function": null,
        "bias": true,
        "weights": [
            0.593018114566803,
            0.3085024356842041,
            0.11132947355508804,
            0.6551918387413025,
            -0.07703897356987,
            0.05032281205058098,
            -0.13041046261787415,
            0.2513071298599243,
            0.35881224274635315,
            0.6727463006973267,
            0.255115807056427,
            -0.2800210416316986,
            0.41868120431900024,
            -0.28553420305252075,
            -0.1890549510717392,
            0.5061575770378113,
            0.5413320660591125,
            -0.37051841616630554,
            -0.5641905665397644,
            -0.20941656827926636,
            0.4339393973350525,
            -0.5139079093933105,
            -0.23061221837997437,
            0.49266916513442993,
            -0.6620297431945801,
            0.5133228898048401,
            0.6229565739631653,
            -0.11171901226043701,
            0.5979251265525818,
            0.28214001655578613,
            0.46150487661361694,
            0.5461995005607605,
            -0.02336314134299755,
            0.27239152789115906,
            -0.6355950832366943,
            0.652980387210846,
            -0.17829042673110962,
            -0.5157456398010254,
            -0.20051294565200806,
            -0.5880477428436279,
            0.32125377655029297,
            -0.0009794385405257344,
            0.4964640736579895,
            0.14563733339309692,
            -0.33240237832069397,
            0.13302300870418549,
            -0.6080784797668457,
            -0.016623537987470627,
            0.4824276566505432,
            -0.08132994174957275,
            0.17972347140312195,
            0.6370182037353516,
            0.36223575472831726,
            0.7131825685501099,
            0.4997867941856384,
            -0.17696088552474976,
            0.5054909586906433,
            -0.19989067316055298,
            1.0439459085464478,
            0.18660485744476318,
            -0.05837952718138695,
            0.3550407588481903,
            -0.3544374108314514,
            0.4357903301715851,
            -0.33731913566589355,
            0.391422301530838,
            -0.3398299515247345,
            -0.1957094371318817,
            -0.2454117238521576,
            -0.6018743515014648,
            -0.32533326745033264,
            0.33592697978019714,
            -0.592079758644104,
            -0.10926830023527145,
            -0.3448462188243866,
            0.5585499405860901,
            0.47771817445755005,
            -0.5082764625549316,
            -0.4813444912433624,
            0.5141839385032654,
            0.10651087760925293,
            -0.15076887607574463,
            -0.483362078666687,
            0.5565186142921448,
            0.3376924395561218,
            -0.1379455327987671,
            -0.2149827778339386,
            -0.3725387156009674,
            -0.1731712818145752,
            -0.15499137341976166,
            0.7058778405189514,
            -0.19664406776428223,
            -0.19195868074893951,
            0.2928519546985626,
            -0.2363426387310028,
            0.06429360061883926,
            0.5207323431968689,
            -0.6834164261817932,
            -0.10037980228662491,
            0.5766997933387756,
            0.04708629846572876,
            -0.33544406294822693,
            -0.2504183351993561,
            0.6626168489456177,
            -0.520197868347168,
            -0.23771348595619202,
            -0.2080099880695343,
            0.37416011095046997,
            -0.3190167546272278,
            -0.29874521493911743,
            -0.47390255331993103,
            0.38426491618156433,
            0.27878060936927795,
            0.5974021553993225,
            0.19645309448242188,
            -0.6329700946807861,
            0.3617261052131653,
            0.012883186340332031,
            0.3074592053890228,
            0.34966039657592773,
            -0.30953776836395264,
            0.22309431433677673,
            0.7607080936431885,
            0.09649625420570374,
            -0.16239045560359955,
            -0.05647401511669159,
            -0.1534990817308426,
            0.12341900914907455,
            -0.40922877192497253,
            -0.8600949048995972,
            -0.05010177567601204,
            -0.5196571946144104,
            -0.16425125300884247,
            0.05002850294113159,
            0.013088226318359375,
            0.28880494832992554,
            0.5436131358146667,
            0.4916665554046631,
            -0.509164035320282,
            0.19072584807872772,
            -0.5088675022125244,
            -0.6013562083244324,
            -0.6405868530273438,
            1.179184913635254,
            0.9813968539237976,
            0.17803120613098145,
            -0.2490069568157196,
            -0.052561402320861816,
            2.2324953079223633,
            0.1801127791404724,
            -0.010205648839473724,
            -0.5754286646842957,
            0.3014664053916931,
            0.9500160813331604,
            -0.7856072187423706,
            0.2979878783226013,
            -0.19951379299163818,
            1.460024118423462,
            0.7233613133430481,
            -0.020230330526828766,
            0.8846116065979004,
            0.20366545021533966,
            0.05400848388671875,
            0.17804943025112152,
            0.1007661372423172,
            0.23305094242095947,
            -0.37173131108283997,
            0.6035970449447632,
            0.48335713148117065,
            0.43784016370773315,
            0.051686763763427734,
            -0.24167752265930176,
            0.9186660647392273,
            0.46513086557388306,
            -0.5109344124794006,
            -0.7535479068756104,
            -0.3879983127117157,
            1.1547249555587769,
            -0.14172416925430298,
            0.6882301568984985,
            0.29114648699760437,
            -0.5407410860061646,
            -1.2140116691589355,
            0.879973828792572,
            1.1677271127700806,
            0.6020981669425964,
            0.284853458404541,
            1.488450050354004,
            -1.1145086288452148,
            0.8458626866340637,
            1.3368167877197266,
            0.306100070476532,
            0.0467449389398098,
            0.08688272535800934,
            0.25719135999679565,
            0.15379935503005981,
            0.2298147827386856,
            0.09974145889282227,
            0.08144555985927582,
            0.050135161727666855,
            0.04728473722934723,
            0.07148297876119614,
            0.003650471568107605,
            0.0855138897895813,
            -0.023202311247587204,
            -0.012484714388847351,
            0.09113766252994537,
            -0.18465934693813324,
            -0.22946414351463318,
            -0.10001647472381592,
            -0.11575154960155487,
            -0.12439438700675964,
            -0.049929335713386536,
            0.11704334616661072,
            -0.1062726154923439,
            0.08570335805416107,
            0.12154051661491394,
            -0.20491231977939606,
            0.32204878330230713,
            -0.10472385585308075,
            -0.07564173638820648,
            -0.45485398173332214,
            -0.12001804262399673,
            -0.024619922041893005,
            -0.16420115530490875,
            -0.032960835844278336,
            -0.09486620128154755,
            0.02874068170785904,
            0.11958111077547073,
            0.11401902884244919,
            0.05652032792568207,
            0.10146026313304901,
            0.10142043232917786,
            -0.0932195633649826,
            0.06987273693084717,
            0.07019580155611038,
            -0.4972173571586609,
            0.07309260964393616,
            0.20899133384227753,
            0.22602225840091705,
            0.015031382441520691,
            -0.1375456303358078,
            0.1057123988866806,
            -0.12350019067525864,
            0.023134013637900352,
            0.08899550884962082,
            0.13873419165611267,
            -0.06029418110847473,
            -0.2830304503440857,
            -0.04517848789691925,
            0.02485869824886322,
            0.38660261034965515,
            0.26985809206962585,
            -0.10605201870203018,
            -0.3556046783924103,
            -0.15480051934719086,
            0.08036760985851288,
            -0.11999103426933289,
            0.016875380650162697,
            -0.11732400208711624,
            0.17836172878742218,
            -0.0021671056747436523,
            0.05531306564807892,
            -0.006543167866766453,
            0.10415785014629364,
            0.022767335176467896,
            -0.06679655611515045,
            -0.061348527669906616,
            -0.05226227268576622,
            0.09632478654384613,
            0.026562809944152832,
            0.10018958151340485,
            -0.01948077231645584,
            0.07272043079137802,
            0.09577223658561707,
            -0.02008412778377533,
            0.09141795337200165,
            0.0850653201341629,
            -0.07576055824756622,
            -0.1102512925863266,
            0.03900162875652313,
            0.2108178436756134,
            0.05522265285253525,
            -0.00433000922203064,
            -0.10443632304668427,
            -0.1440672129392624,
            0.11741386353969574,
            -0.0511813722550869,
            0.043736498802900314,
            0.03592456504702568,
            0.06678901612758636,
            -0.09469989687204361,
            0.045712534338235855,
            -0.008890886791050434,
            0.07731206715106964,
            0.06671972572803497,
            -0.04520963132381439,
            -0.005677721928805113,
            0.024735331535339355,
            0.07630826532840729,
            0.3713051676750183,
            -0.03719346225261688,
            -0.15192238986492157,
            0.192056804895401,
            -0.11848799884319305,
            0.08784373849630356,
            0.005973681807518005,
            -0.08205275982618332,
            0.04833896830677986,
            -0.11037470400333405,
            0.2026541829109192,
            0.05160050466656685,
            0.11344552040100098,
            -0.06684823334217072,
            -0.01241736114025116,
            -0.1138959601521492,
            -0.10687631368637085,
            0.8364536762237549,
            0.16615255177021027,
            -0.0023569215554744005,
            -0.26592564582824707,
            0.37538355588912964
        ]
    },
    "decoder": {
        "num_inputs": 2,
        "num_outputs": 2,
        "num_hidden_layers": 1,
        "neurons_per_hidden_layer": 64,
        "hidden_layer_activation_function": "relu",
        "final_layer_activation_function": null,
        "bias": true,
        "weights": [
            -0.4229384660720825,
            0.1664825677871704,
            -0.3756938874721527,
            0.05709075927734375,
            1.0244852304458618,
            -1.0133931636810303,
            0.44983360171318054,
            -0.5796368718147278,
            1.0630755424499512,
            -1.1167129278182983,
            -3.2807371616363525,
            -3.998730182647705,
            1.5957292318344116,
            -1.203606367111206,
            0.4402307868003845,
            0.05219674110412598,
            1.5717275142669678,
            -1.1609082221984863,
            1.6494840383529663,
            -0.7405126690864563,
            1.0034877061843872,
            -1.3566640615463257,
            0.9627849459648132,
            -2.0583322048187256,
            1.0416295528411865,
            -1.7561132907867432,
            1.8169611692428589,
            -1.328942060470581,
            -0.47021424770355225,
            -0.20277708768844604,
            -3.9817283153533936,
            1.3274673223495483,
            1.9819753170013428,
            -1.0970261096954346,
            -0.14487111568450928,
            -0.6786031723022461,
            1.8011702299118042,
            -1.4100838899612427,
            2.057425022125244,
            -0.672122597694397,
            -0.5006695985794067,
            0.11889827251434326,
            0.6869546175003052,
            3.559441089630127,
            -0.00486600399017334,
            -0.6954627633094788,
            1.6550686359405518,
            -0.9680278897285461,
            1.6175602674484253,
            -1.0453708171844482,
            -4.3562421798706055,
            0.8863168954849243,
            1.9390603303909302,
            -0.7709327340126038,
            1.7604995965957642,
            -1.6146413087844849,
            -0.5437663197517395,
            -0.21453648805618286,
            1.0233941078186035,
            -2.4833595752716064,
            -4.890797138214111,
            1.6220147609710693,
            -0.34061092138290405,
            0.22679799795150757,
            1.111567497253418,
            -1.9161540269851685,
            -3.95367693901062,
            1.7121907472610474,
            -0.1157529354095459,
            0.24547851085662842,
            1.8683890104293823,
            2.046858310699463,
            1.7323001623153687,
            -0.9505062699317932,
            -4.9455885887146,
            1.5197935104370117,
            1.3502106666564941,
            -0.7752334475517273,
            0.20184218883514404,
            -0.5252098441123962,
            -0.04701322317123413,
            0.19765228033065796,
            0.6785203218460083,
            -1.9236257076263428,
            0.8869377970695496,
            -0.9639487266540527,
            1.5212544202804565,
            -1.7727488279342651,
            -0.5978585481643677,
            0.03478825092315674,
            1.8171298503875732,
            -0.7239461541175842,
            1.4779987335205078,
            -1.3231379985809326,
            -0.4214448034763336,
            0.2445644736289978,
            1.7074073553085327,
            -1.57699453830719,
            1.6146076917648315,
            -1.3023754358291626,
            0.9337990283966064,
            -1.2802793979644775,
            1.9010590314865112,
            -0.8318778276443481,
            1.5034129619598389,
            -1.0718506574630737,
            1.3756322860717773,
            -0.9924799799919128,
            0.29807883501052856,
            -0.1750299334526062,
            -2.0899274349212646,
            -6.030375003814697,
            0.9600812792778015,
            -1.4959264993667603,
            -0.5510922074317932,
            0.12293905019760132,
            1.102816104888916,
            -1.5428273677825928,
            0.7829030156135559,
            -0.6488915681838989,
            1.1909852027893066,
            -1.0833219289779663,
            1.7653173208236694,
            -0.7758322358131409,
            -0.21328219771385193,
            0.08025258779525757,
            -4.745419025421143,
            1.9178614616394043,
            -0.4238007962703705,
            -0.5766234993934631,
            1.85250985622406,
            -0.4638311266899109,
            1.8070337772369385,
            4.28719425201416,
            1.1683076620101929,
            -0.4774109125137329,
            1.1884580850601196,
            0.8980818390846252,
            1.8607194423675537,
            1.8573858737945557,
            1.5865883827209473,
            1.308838963508606,
            -0.02993929386138916,
            -0.3046489655971527,
            1.3402912616729736,
            -0.6107823252677917,
            1.390372395515442,
            0.905515193939209,
            -0.4863532781600952,
            -0.1324414759874344,
            -0.03236269950866699,
            1.4701511859893799,
            1.4725327491760254,
            0.49545860290527344,
            1.0078407526016235,
            1.812867283821106,
            -0.3112435042858124,
            2.242206573486328,
            0.2310103476047516,
            -0.6211495995521545,
            2.0233585834503174,
            -0.5632003545761108,
            -0.47871941328048706,
            -0.6240541338920593,
            1.052665114402771,
            0.4464800953865051,
            1.3908156156539917,
            -0.4898040294647217,
            -0.4943850636482239,
            1.9022724628448486,
            1.7678606510162354,
            1.6497735977172852,
            -0.12171071767807007,
            0.9579988718032837,
            1.4279518127441406,
            -0.3017626702785492,
            1.5348539352416992,
            1.2932294607162476,
            1.794095754623413,
            0.8469510674476624,
            1.0747712850570679,
            1.4731706380844116,
            -0.49971479177474976,
            3.197840690612793,
            1.5549249649047852,
            -0.43512052297592163,
            1.4376403093338013,
            1.7356159687042236,
            1.8282389640808105,
            0.7989047169685364,
            -0.5404267907142639,
            -0.5824953317642212,
            -0.02221795916557312,
            0.08709128201007843,
            -1.248775839805603,
            0.0459623746573925,
            -1.2232880592346191,
            -3.5891058444976807,
            -1.3059215545654297,
            0.07113713026046753,
            -1.2100601196289062,
            -1.2260009050369263,
            -1.3401581048965454,
            -1.4747047424316406,
            -1.5269981622695923,
            -1.1256484985351562,
            0.12141396105289459,
            1.774774193763733,
            -0.9635448455810547,
            -0.04055921733379364,
            -1.1634106636047363,
            -0.9879869222640991,
            -0.023837879300117493,
            2.789750337600708,
            -0.011985912919044495,
            -1.1140803098678589,
            -1.183168649673462,
            1.5050561428070068,
            -1.1025810241699219,
            -1.0397765636444092,
            -0.09630632400512695,
            -1.964756727218628,
            1.2040497064590454,
            -0.06289364397525787,
            -1.3146286010742188,
            2.657212257385254,
            -0.12129046022891998,
            1.1340609788894653,
            -1.1487706899642944,
            0.863736093044281,
            -1.1608136892318726,
            -0.12193042039871216,
            -0.06826597452163696,
            -1.5635552406311035,
            -1.3505696058273315,
            -1.2546782493591309,
            0.09977114200592041,
            -1.0648216009140015,
            -1.2790714502334595,
            -0.0847197026014328,
            -1.102747917175293,
            -1.180964469909668,
            -1.40348482131958,
            -1.1858359575271606,
            -1.3323898315429688,
            -1.1644837856292725,
            0.03667713701725006,
            -3.264986038208008,
            -1.4805179834365845,
            0.1073286384344101,
            -1.5014121532440186,
            -1.3386404514312744,
            -1.2764010429382324,
            -1.3079355955123901,
            -0.09086094796657562,
            2.6430702209472656,
            -0.041335463523864746,
            -0.07635243237018585,
            0.9817465543746948,
            -0.0031246438156813383,
            0.967750608921051,
            -3.400516986846924,
            1.2182313203811646,
            0.006707042455673218,
            1.241830587387085,
            1.5587528944015503,
            0.8329337239265442,
            0.7819734215736389,
            0.8642894625663757,
            1.1201574802398682,
            -0.06212650239467621,
            -1.9013805389404297,
            1.1485731601715088,
            -0.034991368651390076,
            0.9518319368362427,
            1.4691321849822998,
            -0.03903517127037048,
            1.1961902379989624,
            0.0783558040857315,
            1.0564008951187134,
            0.9364129900932312,
            -3.221635341644287,
            1.2323181629180908,
            0.9284002780914307,
            0.09427568316459656,
            1.0314726829528809,
            -2.3087351322174072,
            -0.06541086733341217,
            0.7114141583442688,
            -1.9909148216247559,
            0.022181779146194458,
            1.1648880243301392,
            1.349278450012207,
            -2.502180814743042,
            1.1977283954620361,
            0.009692549705505371,
            0.03195019066333771,
            0.7338598370552063,
            0.9177630543708801,
            0.9451634287834167,
            -0.0740402489900589,
            1.4978606700897217,
            0.9453295469284058,
            -0.11753912270069122,
            1.0139907598495483,
            1.1525920629501343,
            0.8121698498725891,
            1.3136398792266846,
            1.323374629020691,
            1.0966627597808838,
            -0.052900463342666626,
            -4.407387733459473,
            0.9833130240440369,
            -0.08392131328582764,
            1.0844262838363647,
            0.9529904723167419,
            1.1060101985931396,
            1.4330594539642334,
            -0.07342341542243958,
            -2.2912487983703613,
            -0.9432259798049927,
            0.4661036729812622
        ]
    }
}