{
    "num_epochs": 20000,
    "batch_size": 1000,
    "final_g_loss": 1.0955647230148315,
    "final_d_loss": 0.48124104738235474,
    "train_data_exp_dir_path": "data/scp_train_data_norm",
    "generator": {
        "num_inputs": 2,
        "num_outputs": 2,
        "num_hidden_layers": 1,
        "neurons_per_hidden_layer": 64,
        "hidden_layer_activation_function": "relu",
        "final_layer_activation_function": null,
        "bias": true,
        "weights": [
            0.6278897523880005,
            0.5226544737815857,
            0.5806708335876465,
            1.1314585208892822,
            -0.8279126286506653,
            0.5365071892738342,
            -0.47639697790145874,
            -0.437179833650589,
            -0.5151950120925903,
            0.4823456406593323,
            -1.4889410734176636,
            0.8427948951721191,
            -0.5762631893157959,
            -0.4425392150878906,
            -0.8562259078025818,
            0.5268146395683289,
            -0.8912991285324097,
            -0.16851556301116943,
            -0.948652446269989,
            0.6978744268417358,
            0.2533037066459656,
            -0.46990785002708435,
            0.020058397203683853,
            -0.21298609673976898,
            1.0068172216415405,
            0.9023596048355103,
            -0.4553634226322174,
            -0.9154547452926636,
            -0.8023590445518494,
            -0.1599460393190384,
            0.19210506975650787,
            0.33475807309150696,
            1.3709558248519897,
            -0.6957216858863831,
            -0.9854479432106018,
            -0.13266633450984955,
            -0.8078511357307434,
            -0.381803959608078,
            0.2019408643245697,
            0.15976592898368835,
            -0.8860208988189697,
            0.47140729427337646,
            0.8146864175796509,
            -0.0005951892817392945,
            0.302764356136322,
            0.2396586686372757,
            -0.4349367320537567,
            -0.31597819924354553,
            -0.9801447987556458,
            -0.24267545342445374,
            -0.6951177716255188,
            -0.5246793627738953,
            0.3817160427570343,
            0.3937700092792511,
            -0.9367383122444153,
            0.5094037055969238,
            0.9807603359222412,
            -0.5210496783256531,
            1.1721800565719604,
            0.30038484930992126,
            -0.3099284768104553,
            1.4856204986572266,
            1.0627244710922241,
            -0.5162449479103088,
            -0.6107396483421326,
            -0.22300897538661957,
            0.15117835998535156,
            0.5234731435775757,
            -0.6626013517379761,
            0.3774251937866211,
            -0.8472611308097839,
            -0.4971676766872406,
            -0.8243899941444397,
            -0.0709512010216713,
            -1.0223357677459717,
            -0.13103385269641876,
            0.7802788615226746,
            0.705517053604126,
            0.8350154161453247,
            1.173119306564331,
            0.8628743290901184,
            1.3535290956497192,
            0.8014256358146667,
            0.20473147928714752,
            -1.6355533599853516,
            0.8928962349891663,
            -0.9624156951904297,
            0.19164742529392242,
            -0.24720589816570282,
            -0.7479909062385559,
            -0.11665487289428711,
            -0.3740817606449127,
            -0.4469107389450073,
            -0.28037065267562866,
            0.571495532989502,
            0.19138936698436737,
            0.664259672164917,
            0.6070166230201721,
            -1.1295783519744873,
            0.7232335209846497,
            0.717139720916748,
            0.9648825526237488,
            -0.8689829111099243,
            0.7908639311790466,
            1.219486951828003,
            -0.6444022059440613,
            -0.791602373123169,
            -0.41642284393310547,
            0.9695814251899719,
            -0.41737744212150574,
            -0.8973654508590698,
            -0.706128716468811,
            -0.9603527188301086,
            0.5348499417304993,
            -0.14004285633563995,
            0.21148017048835754,
            -1.042779803276062,
            0.6074638366699219,
            0.3522580564022064,
            -0.030355820432305336,
            1.0753517150878906,
            -0.5855017900466919,
            0.3111293613910675,
            0.16568590700626373,
            -1.4006057977676392,
            0.8140944838523865,
            1.1600227355957031,
            -0.618354320526123,
            1.3183397054672241,
            0.02971891313791275,
            0.8178326487541199,
            0.501600980758667,
            -1.605054497718811,
            -0.31043851375579834,
            0.6232771873474121,
            0.890696108341217,
            -0.2567935883998871,
            1.098624348640442,
            0.7221537828445435,
            0.7938112616539001,
            -1.0391179323196411,
            0.21541942656040192,
            -0.2266460806131363,
            1.0009037256240845,
            0.3375697433948517,
            -0.7070584297180176,
            0.6047190427780151,
            0.7061708569526672,
            0.6750450134277344,
            0.030021723359823227,
            1.048136591911316,
            0.4992959499359131,
            -0.1622036099433899,
            0.7581634521484375,
            1.3947644233703613,
            0.8570748567581177,
            0.2443477362394333,
            0.1960545927286148,
            -0.4558529555797577,
            -0.8739697933197021,
            0.7146327495574951,
            1.1974478960037231,
            0.664228618144989,
            -0.6560843586921692,
            0.09452296048402786,
            -0.4052121937274933,
            -0.8444872498512268,
            -0.6321473717689514,
            -0.5204529166221619,
            0.0957534909248352,
            -0.37546417117118835,
            -0.14006206393241882,
            0.7555928826332092,
            0.39189523458480835,
            -0.5685810446739197,
            1.0088766813278198,
            -0.7256885170936584,
            1.0263559818267822,
            -0.6156654953956604,
            0.8969286680221558,
            0.30242016911506653,
            0.6831666827201843,
            0.1907549351453781,
            0.43783038854599,
            0.8055075407028198,
            0.8893319964408875,
            0.95098876953125,
            1.1086101531982422,
            0.7630399465560913,
            0.9863734841346741,
            -0.8398714065551758,
            0.8359265923500061,
            -0.3548315465450287,
            -0.3724766969680786,
            -0.2816327214241028,
            -0.0948297381401062,
            -1.5284348726272583,
            -0.1803962141275406,
            -0.31186628341674805,
            -0.3183783292770386,
            0.206601083278656,
            -0.29858630895614624,
            -0.4177829623222351,
            0.01821890100836754,
            -0.37566354870796204,
            -0.35838133096694946,
            0.21230576932430267,
            -0.291757196187973,
            -0.27954086661338806,
            0.5820679068565369,
            -0.25912028551101685,
            -0.292484849691391,
            -0.03708745539188385,
            -0.4568359851837158,
            -0.11668071895837784,
            -0.3036244809627533,
            0.13753794133663177,
            -0.1790272742509842,
            -0.3431987464427948,
            -0.34110358357429504,
            -0.32302671670913696,
            -0.050052545964717865,
            0.22335201501846313,
            -0.2789333760738373,
            -0.12847569584846497,
            -0.2536492347717285,
            -0.3091670572757721,
            -0.28154048323631287,
            -0.5697826147079468,
            0.3531428873538971,
            -0.38102710247039795,
            -0.11455417424440384,
            -0.1832318902015686,
            0.03572768345475197,
            -0.3298025131225586,
            -0.1990877389907837,
            0.28798070549964905,
            0.21275413036346436,
            0.07320010662078857,
            0.11372631043195724,
            -0.2481977343559265,
            -0.12910045683383942,
            -0.24676266312599182,
            0.025439515709877014,
            -0.2367669641971588,
            -0.4575187861919403,
            -0.35742485523223877,
            0.15399780869483948,
            -0.18024225533008575,
            -0.2801487147808075,
            -0.2241734117269516,
            -0.010622872970998287,
            0.872035801410675,
            -0.19876405596733093,
            1.6873674392700195,
            0.7924819588661194,
            0.28015974164009094,
            0.04004900902509689,
            0.5172831416130066,
            0.3817999064922333,
            -1.3238786458969116,
            -1.2079650163650513,
            0.3563850522041321,
            0.3844326138496399,
            0.2646217942237854,
            0.4201073944568634,
            0.01090153306722641,
            0.08934184163808823,
            0.7529849410057068,
            0.2131326049566269,
            0.3724786043167114,
            0.23556555807590485,
            -0.4959959089756012,
            -0.5695353746414185,
            0.06722263991832733,
            0.22261109948158264,
            0.3260592222213745,
            -0.17261573672294617,
            0.19876471161842346,
            0.3090229034423828,
            0.25138556957244873,
            0.26985958218574524,
            0.3437764346599579,
            0.5062444806098938,
            -0.6795607805252075,
            0.4021456837654114,
            -1.2795870304107666,
            0.5699120163917542,
            0.19635392725467682,
            0.4178278148174286,
            0.34814587235450745,
            -0.6247963905334473,
            -0.16804440319538116,
            0.2501627206802368,
            0.8051869869232178,
            0.5605923533439636,
            0.6094968318939209,
            0.4592893123626709,
            -1.0873316526412964,
            -0.2685333788394928,
            0.0899130180478096,
            0.12834280729293823,
            -0.43390849232673645,
            0.37379276752471924,
            0.5752279162406921,
            0.456550270318985,
            0.6973965167999268,
            0.6547121405601501,
            -0.6025979518890381,
            0.09743361175060272,
            -0.3636576235294342,
            0.2845171391963959,
            0.5241700410842896,
            0.28311479091644287,
            0.42765259742736816,
            0.24826502799987793,
            0.599349856376648,
            0.3063763976097107,
            0.15961678326129913,
            0.5968785881996155,
            -0.03280048444867134,
            0.1782231479883194
        ]
    },
    "discriminator": {
        "num_inputs": 2,
        "num_outputs": 1,
        "num_hidden_layers": 1,
        "neurons_per_hidden_layer": 64,
        "hidden_layer_activation_function": "relu",
        "final_layer_activation_function": "sigmoid",
        "bias": true,
        "weights": [
            0.22173850238323212,
            0.3925575911998749,
            -0.15720191597938538,
            0.32605209946632385,
            -0.26497766375541687,
            0.08160929381847382,
            -0.023235034197568893,
            0.15811516344547272,
            0.49551165103912354,
            0.6450819969177246,
            -0.196679949760437,
            -0.4269208014011383,
            -0.2573888897895813,
            0.5534558296203613,
            0.21095499396324158,
            0.19035254418849945,
            -0.5916482210159302,
            0.06844279170036316,
            0.38013169169425964,
            0.5153495669364929,
            0.2755635380744934,
            0.4288138449192047,
            0.07763803750276566,
            0.3023318648338318,
            0.4800250232219696,
            0.665302038192749,
            0.6691169142723083,
            -0.6336401104927063,
            0.10695503652095795,
            0.28298550844192505,
            -0.4936436712741852,
            0.4614131450653076,
            -0.6104159355163574,
            0.22709812223911285,
            -0.368033230304718,
            -0.4564744532108307,
            -0.31417834758758545,
            -0.46936866641044617,
            0.21499121189117432,
            -0.48266226053237915,
            -0.38065171241760254,
            -0.4168374240398407,
            0.2252086102962494,
            0.36677756905555725,
            0.4103848934173584,
            -0.5195529460906982,
            -0.18394730985164642,
            -0.26631900668144226,
            -0.13005460798740387,
            0.42373111844062805,
            -0.886261522769928,
            -0.5113600492477417,
            0.27997255325317383,
            0.004153847694396973,
            0.7277222871780396,
            0.3268536627292633,
            -0.32383957505226135,
            -0.020113525912165642,
            -0.823983907699585,
            0.41187119483947754,
            0.38987967371940613,
            0.4747794568538666,
            0.07815642654895782,
            -0.5402464270591736,
            -0.3998868465423584,
            0.40188270807266235,
            -0.07639465481042862,
            0.33411136269569397,
            0.6582837104797363,
            0.3727934956550598,
            -0.5517305135726929,
            -0.42291250824928284,
            0.2633070945739746,
            -0.2916000485420227,
            0.09083742648363113,
            0.018432624638080597,
            0.34747427701950073,
            -0.638684868812561,
            0.09023243933916092,
            0.668800413608551,
            0.3052035868167877,
            0.3176368176937103,
            -0.08171296119689941,
            -0.6091431975364685,
            -0.5115441083908081,
            -0.5586857199668884,
            -0.40127381682395935,
            -0.020229222252964973,
            -0.46392762660980225,
            0.7157263159751892,
            -0.9929323792457581,
            -0.5801337957382202,
            0.391950786113739,
            0.5017973184585571,
            0.16061276197433472,
            -0.18473142385482788,
            0.37202802300453186,
            0.5127651691436768,
            -0.4794408679008484,
            -0.49863943457603455,
            0.17566989362239838,
            0.41500335931777954,
            -0.5373863577842712,
            0.35691365599632263,
            -0.026257233694195747,
            0.3947241008281708,
            -0.5835717916488647,
            0.0790124386548996,
            -0.7181132435798645,
            -0.4083441495895386,
            0.45880693197250366,
            -0.619870662689209,
            -0.3739532232284546,
            -0.6002135872840881,
            -0.7085506916046143,
            -0.544383704662323,
            -0.14998722076416016,
            0.7539295554161072,
            0.1739778369665146,
            0.14338327944278717,
            -0.4199155271053314,
            0.09584593772888184,
            -0.3576798141002655,
            -0.4086603820323944,
            0.4206703305244446,
            -0.3920777440071106,
            0.07807199656963348,
            0.15837764739990234,
            0.050519075244665146,
            -0.17546771466732025,
            -0.5642582774162292,
            -1.747073769569397,
            -0.07598668336868286,
            0.08552008122205734,
            -0.16204304993152618,
            0.6618809700012207,
            -2.023857593536377,
            -0.2830958366394043,
            -0.34488049149513245,
            -0.24737975001335144,
            -0.5208635330200195,
            -0.5967633128166199,
            -0.18022215366363525,
            -0.10121387243270874,
            -0.10344579070806503,
            1.1914657354354858,
            -0.6414137482643127,
            0.27220451831817627,
            1.6300270557403564,
            -0.12883372604846954,
            0.7275612354278564,
            -0.4772081673145294,
            -0.2644096910953522,
            -0.31680694222450256,
            -0.23210328817367554,
            1.7994790077209473,
            -2.7195088863372803,
            -0.018697241321206093,
            -0.0008474689675495028,
            -0.1843775063753128,
            -0.4734475314617157,
            -0.05560001730918884,
            -0.44180426001548767,
            0.8611156940460205,
            -0.05691653490066528,
            1.4111213684082031,
            -0.5853960514068604,
            0.34243956208229065,
            0.7081848382949829,
            0.07367512583732605,
            0.8243418335914612,
            0.02579483762383461,
            0.036622319370508194,
            -0.27482903003692627,
            0.028670918196439743,
            -0.5125530362129211,
            -0.3289940059185028,
            0.5037811994552612,
            -0.46557095646858215,
            0.440891295671463,
            -0.3630545735359192,
            0.035228099673986435,
            -0.32073190808296204,
            -0.2947964668273926,
            -0.26977741718292236,
            -0.19458141922950745,
            0.17662613093852997,
            0.7657000422477722,
            -1.2326536178588867,
            1.186057209968567,
            0.03296194598078728,
            0.00032779277535155416,
            0.20823466777801514,
            -0.1672224998474121,
            0.007962001487612724,
            -2.1453518867492676,
            0.46829089522361755,
            -0.07202252000570297,
            0.11780549585819244,
            0.052723340690135956,
            0.8042150139808655,
            0.24789497256278992,
            0.04838328808546066,
            0.22171702980995178,
            0.17750421166419983,
            0.07799503207206726,
            0.1822584867477417,
            0.12787732481956482,
            -0.23071105778217316,
            -1.932896614074707,
            -0.24524752795696259,
            -0.011738288216292858,
            2.1284804344177246,
            0.31089678406715393,
            -0.18840961158275604,
            -0.19317935407161713,
            0.02764601819217205,
            0.5165503025054932,
            0.11994801461696625,
            -1.7201255559921265,
            3.9467639923095703,
            -0.30327311158180237,
            0.03778062015771866,
            0.053253624588251114,
            0.06501378118991852,
            0.14746370911598206,
            -0.5041223764419556,
            -2.005033493041992,
            -0.043002620339393616,
            0.6597270965576172,
            -0.011999145150184631,
            -0.054597340524196625,
            0.21142275631427765,
            0.017093051224946976,
            -0.9671977162361145,
            -0.13867251574993134,
            -0.2060222029685974,
            0.7816704511642456,
            0.4471578001976013,
            0.030568882822990417,
            0.39024004340171814,
            -0.7416864633560181,
            0.08710040897130966,
            -0.20623168349266052,
            -0.03243204951286316,
            -0.14413738250732422,
            0.4973819851875305,
            0.007206335663795471,
            -0.2484261691570282,
            2.0243945121765137,
            -0.2526780366897583,
            0.13782504200935364,
            -0.6770796775817871,
            -2.115985155105591,
            0.0405033715069294,
            0.10483258962631226,
            0.1838582456111908
        ]
    }
}