{
    "num_epochs": 10000,
    "batch_size": 256,
    "final_g_loss": 0.8046677112579346,
    "final_d_loss": 0.6711179614067078,
    "generator_learning_rate": 0.0002,
    "discriminator_learning_rate": 0.0005,
    "train_data_exp_dir_path": [
        "/app/data/cmc_configs/cmc_train_data"
    ],
    "generator": {
        "num_inputs": 1,
        "num_outputs": 2,
        "num_hidden_layers": 1,
        "neurons_per_hidden_layer": 64,
        "hidden_layer_activation_function": "relu",
        "final_layer_activation_function": null,
        "bias": true,
        "weights": [
            -0.4011942744255066,
            0.5222389698028564,
            -2.3753039836883545,
            -1.0578457117080688,
            0.7378374934196472,
            -1.8825719356536865,
            2.256707191467285,
            -1.8610347509384155,
            1.46871018409729,
            -1.8535892963409424,
            -0.9887465834617615,
            -0.647805392742157,
            -0.5175141096115112,
            -2.0148708820343018,
            -1.740746259689331,
            -0.47503697872161865,
            0.020375370979309082,
            1.3285725116729736,
            1.6189100742340088,
            -2.0238986015319824,
            0.6357049345970154,
            0.0883915051817894,
            1.5633352994918823,
            -1.7449244260787964,
            -2.627318859100342,
            -0.63291996717453,
            -0.5985350608825684,
            1.8099623918533325,
            0.4541739523410797,
            1.2096112966537476,
            0.6543929576873779,
            1.9536064863204956,
            0.27555686235427856,
            -2.1730401515960693,
            1.2312347888946533,
            0.17905689775943756,
            -1.8874598741531372,
            0.555298388004303,
            1.3637181520462036,
            -0.6822502017021179,
            -1.7268763780593872,
            1.3926066160202026,
            2.273005247116089,
            0.5908393859863281,
            -2.048011302947998,
            -0.2888284921646118,
            2.046980381011963,
            -1.411085605621338,
            0.28080233931541443,
            1.8886209726333618,
            0.1577557623386383,
            -2.003922462463379,
            1.6771366596221924,
            0.7100077271461487,
            -0.04539373144507408,
            2.3823068141937256,
            0.14367078244686127,
            1.4684761762619019,
            -0.7028933763504028,
            1.2979031801223755,
            0.4310908019542694,
            1.5016705989837646,
            0.004255753476172686,
            -0.4044719338417053,
            1.5544843673706055,
            0.5119547843933105,
            0.7744025588035583,
            1.604995846748352,
            1.2122368812561035,
            -0.5787634253501892,
            0.24866804480552673,
            -0.5623069405555725,
            1.5990402698516846,
            0.5316259860992432,
            1.2763559818267822,
            1.6884071826934814,
            1.831663727760315,
            0.6259695887565613,
            0.44982200860977173,
            1.2328598499298096,
            -0.8486634492874146,
            0.8545056581497192,
            1.6314188241958618,
            0.6091509461402893,
            1.509692668914795,
            1.6278026103973389,
            1.699459433555603,
            0.4523499608039856,
            0.8540204167366028,
            1.638501763343811,
            1.7949812412261963,
            0.44262877106666565,
            1.2134414911270142,
            1.430525302886963,
            1.2658495903015137,
            0.4144095480442047,
            1.5364927053451538,
            0.6423348188400269,
            0.6952129006385803,
            1.5214967727661133,
            0.5334467887878418,
            1.5982308387756348,
            1.499642252922058,
            1.752139687538147,
            0.4539029896259308,
            1.5414528846740723,
            0.4248095452785492,
            1.6517598628997803,
            0.8411688804626465,
            1.3154491186141968,
            0.43580469489097595,
            -0.4306742250919342,
            0.8675682544708252,
            0.2829027771949768,
            1.6633741855621338,
            0.5966594815254211,
            0.4154805541038513,
            0.8134647607803345,
            1.2995036840438843,
            0.46508079767227173,
            1.2851067781448364,
            1.479866862297058,
            1.8918883800506592,
            1.341127634048462,
            1.2775119543075562,
            1.7294442653656006,
            -0.024555377662181854,
            1.4860197305679321,
            0.41353169083595276,
            -0.2716802954673767,
            -0.37876012921333313,
            0.11401337385177612,
            0.05031616613268852,
            1.0724689960479736,
            0.006759928539395332,
            0.8889338970184326,
            -0.05558932200074196,
            -0.5994021892547607,
            0.040690042078495026,
            0.5237621068954468,
            0.43184229731559753,
            -0.7559326887130737,
            -0.6490525603294373,
            0.5820015668869019,
            -0.04302096366882324,
            -0.24363373219966888,
            -0.23445624113082886,
            -0.35491055250167847,
            -0.4332638382911682,
            0.22616901993751526,
            -0.0966869592666626,
            -0.6602932810783386,
            -0.6336373686790466,
            0.28623247146606445,
            0.38643866777420044,
            0.42786258459091187,
            -0.37950578331947327,
            0.05616927519440651,
            -0.33528000116348267,
            0.27602022886276245,
            0.12232231348752975,
            -0.4830671548843384,
            -0.0548991933465004,
            0.1869794875383377,
            -0.6026606559753418,
            -0.4752907454967499,
            -0.0040488396771252155,
            0.30206918716430664,
            -0.5406551361083984,
            -0.013837974518537521,
            0.17672528326511383,
            -0.44020506739616394,
            -0.2569582164287567,
            0.2930356562137604,
            0.23743997514247894,
            1.0454949140548706,
            -0.44624897837638855,
            0.11731331050395966,
            0.2431199550628662,
            -0.6106804609298706,
            0.43673980236053467,
            -0.3632323741912842,
            0.23566588759422302,
            0.16063793003559113,
            0.1773403286933899,
            -0.1886882483959198,
            0.48233628273010254,
            0.006391133181750774,
            -0.3703382611274719,
            -0.11084513366222382,
            0.08793777972459793,
            0.4058569669723511,
            0.8101890683174133,
            0.4972180724143982,
            1.0815120935440063,
            0.5820208787918091,
            0.8609836101531982,
            0.9893425703048706,
            1.3944014310836792,
            1.0346442461013794,
            0.8746656179428101,
            1.2945390939712524,
            0.5749829411506653,
            0.6536837816238403,
            0.7720788717269897,
            1.3511576652526855,
            1.3648289442062378,
            0.616199254989624,
            -0.07015107572078705,
            0.6293905377388,
            0.9606174230575562,
            1.1348618268966675,
            0.8087685108184814,
            0.8262197971343994,
            0.9254783987998962,
            1.399951457977295,
            1.2637088298797607,
            0.649224579334259,
            0.7519021034240723,
            1.144747257232666,
            0.6234623193740845,
            1.0572195053100586,
            0.6308946013450623,
            1.250313401222229,
            0.6937167644500732,
            1.1328381299972534,
            0.899869978427887,
            0.7947757840156555,
            1.4220085144042969,
            0.5950387716293335,
            0.9920851588249207,
            0.5466307401657104,
            1.2762192487716675,
            0.9122390151023865,
            1.2304929494857788,
            0.6263784766197205,
            0.938284158706665,
            0.7848727703094482,
            1.078290581703186,
            1.0136315822601318,
            0.37222519516944885,
            1.3011223077774048,
            0.8523651957511902,
            1.257030725479126,
            1.0833429098129272,
            0.84378981590271,
            0.8799604177474976,
            1.244685173034668,
            0.9017680287361145,
            0.908717155456543,
            0.7623192667961121,
            0.8904303312301636,
            0.4373267590999603,
            0.9000257849693298,
            -0.05523540452122688,
            0.6263782978057861,
            0.3231230080127716,
            0.8381534218788147
        ]
    },
    "discriminator": {
        "num_inputs": 2,
        "num_outputs": 1,
        "num_hidden_layers": 1,
        "neurons_per_hidden_layer": 64,
        "hidden_layer_activation_function": "relu",
        "final_layer_activation_function": "sigmoid",
        "bias": true,
        "weights": [
            -0.26185789704322815,
            -0.018048767000436783,
            0.3454105854034424,
            0.6390290260314941,
            0.0022962656803429127,
            -0.001765865832567215,
            -0.017368795350193977,
            0.2862618863582611,
            0.294034481048584,
            0.08551030606031418,
            0.28329095244407654,
            -0.12086139619350433,
            -0.5000150203704834,
            -0.19139398634433746,
            0.47286757826805115,
            -0.46616536378860474,
            0.09737697243690491,
            0.3752368688583374,
            0.6441159248352051,
            -0.011225896887481213,
            0.3886769115924835,
            -0.19441308081150055,
            -0.02508934959769249,
            -0.57587069272995,
            -0.43787285685539246,
            0.6454785466194153,
            -0.5213558077812195,
            0.31670501828193665,
            -0.3538416922092438,
            0.515091598033905,
            0.17291125655174255,
            0.5569149851799011,
            -0.8899902701377869,
            0.28237971663475037,
            -0.7396036982536316,
            0.47487857937812805,
            -0.29905983805656433,
            0.017444493249058723,
            0.2090713381767273,
            0.05281079560518265,
            0.17995306849479675,
            -0.3760809302330017,
            0.006642491091042757,
            -0.0315568670630455,
            0.14141662418842316,
            0.043999988585710526,
            0.3047766089439392,
            0.9009588956832886,
            0.05189128220081329,
            -0.012490639463067055,
            -0.32524430751800537,
            0.2944760322570801,
            0.20047540962696075,
            0.060783736407756805,
            0.35438787937164307,
            -0.16246606409549713,
            0.2596605122089386,
            0.8713223338127136,
            -0.5364384055137634,
            -0.4190729558467865,
            -0.7218230366706848,
            -0.3045329749584198,
            0.5594109892845154,
            0.29686081409454346,
            -0.8016972541809082,
            -0.09766734391450882,
            0.6081713438034058,
            -0.005590320564806461,
            -0.7573726177215576,
            -0.012204091995954514,
            0.5636700391769409,
            -0.4906477630138397,
            0.27141162753105164,
            -0.6363950371742249,
            0.09594620019197464,
            -0.33303746581077576,
            -0.5193650126457214,
            -0.12773054838180542,
            -0.41476133465766907,
            -0.038916200399398804,
            -0.2269253432750702,
            -0.020417459309101105,
            -0.6312077641487122,
            -0.6241216063499451,
            -0.7077324986457825,
            0.12752601504325867,
            0.42109182476997375,
            0.0033914351370185614,
            -0.5178735256195068,
            -0.3152853548526764,
            -0.5971071124076843,
            -0.053606826812028885,
            0.324691504240036,
            0.20801812410354614,
            0.2486008107662201,
            0.6812074780464172,
            -0.04881582781672478,
            -0.11267934739589691,
            -0.2541305124759674,
            -0.6151854395866394,
            0.44456571340560913,
            0.11434480547904968,
            -0.08931843936443329,
            -0.12945370376110077,
            -0.030534004792571068,
            0.08171549439430237,
            0.31660139560699463,
            -0.1219087466597557,
            -0.8392428755760193,
            0.8738104104995728,
            0.015983937308192253,
            -0.030988212674856186,
            -0.49451303482055664,
            0.17897433042526245,
            0.0009918645955622196,
            -0.4502788782119751,
            -0.043920014053583145,
            -0.635689914226532,
            0.3712747097015381,
            -0.3797765374183655,
            0.422337144613266,
            0.3321570158004761,
            -0.2569434940814972,
            1.0002312660217285,
            -0.006869286764413118,
            -0.03371529281139374,
            0.28820666670799255,
            0.26482057571411133,
            0.5740232467651367,
            0.29916471242904663,
            -0.0688399225473404,
            0.3817165195941925,
            -0.026416489854454994,
            -0.6850234866142273,
            -0.5013116598129272,
            -0.6617939472198486,
            0.22980506718158722,
            1.191280484199524,
            1.0841233730316162,
            -0.3880821764469147,
            0.4766784608364105,
            -0.05043541267514229,
            -0.04064503684639931,
            0.203629270195961,
            0.3008852005004883,
            0.5824940800666809,
            0.5485566258430481,
            0.4864032566547394,
            1.1046940088272095,
            1.1104764938354492,
            0.19140353798866272,
            0.33539384603500366,
            -0.2917979657649994,
            0.5610364675521851,
            0.0663531944155693,
            -0.21834267675876617,
            0.3373580873012543,
            -0.02681352011859417,
            -0.3116920292377472,
            0.5795049071311951,
            1.949656367301941,
            -0.05331665277481079,
            0.04140058904886246,
            -0.2601018249988556,
            -0.5635719895362854,
            -0.4366540014743805,
            -0.052675578743219376,
            0.1421022117137909,
            0.3777516186237335,
            -0.4266345500946045,
            -0.07831984758377075,
            1.1621745824813843,
            -0.6209636926651001,
            0.00409691222012043,
            0.5260894298553467,
            0.5133402943611145,
            -0.46371328830718994,
            -0.03074832819402218,
            0.29145142436027527,
            -0.25246256589889526,
            0.48607057332992554,
            -0.19648607075214386,
            0.17164577543735504,
            1.711667776107788,
            -0.010222294367849827,
            -0.3536151945590973,
            -0.27753230929374695,
            -0.21172232925891876,
            0.29493647813796997,
            0.41893869638442993,
            1.2370011806488037,
            0.17089800536632538,
            0.9243026971817017,
            0.19007007777690887,
            0.0029156983364373446,
            -0.5113919377326965,
            -0.775741696357727,
            -0.070094034075737,
            0.05534586310386658,
            -0.10044538974761963,
            -0.4865858256816864,
            0.5859963893890381,
            -0.6596962213516235,
            0.0978325754404068,
            0.20630517601966858,
            -0.7543667554855347,
            0.09426761418581009,
            0.2757495641708374,
            0.31787940859794617,
            -0.5916754603385925,
            -0.3019565939903259,
            -0.45820680260658264,
            -0.47316262125968933,
            -0.765681266784668,
            -0.5598434209823608,
            0.29426077008247375,
            0.02789415419101715,
            0.3356819450855255,
            -0.6389343738555908,
            0.034067705273628235,
            0.272958904504776,
            -0.04190739616751671,
            -0.1320246309041977,
            -0.6425148844718933,
            4.6149444580078125,
            0.13576273620128632,
            -0.6407690644264221,
            -0.11552458256483078,
            0.12339405715465546,
            0.09045514464378357,
            -0.20993179082870483,
            -0.9398207068443298,
            1.1233755350112915,
            -0.04488465189933777,
            -0.7679532766342163,
            -0.6764270067214966,
            -0.02088434249162674,
            -1.563127875328064,
            -0.5165888071060181,
            0.27526506781578064,
            0.11143311858177185,
            -0.0017465520650148392,
            -0.6062183380126953,
            0.06335751712322235,
            -0.5237876772880554,
            0.07199876010417938,
            0.306804895401001,
            5.058029651641846,
            -0.7322610020637512,
            0.05262698233127594,
            -0.020579125732183456,
            0.02412576973438263,
            0.0884125754237175,
            0.20944727957248688,
            -0.6996534466743469,
            -0.6419857144355774,
            0.3809049129486084
        ]
    }
}