{
    "num_epochs": 20000,
    "batch_size": 1000,
    "final_g_loss": 0.9182964563369751,
    "final_d_loss": 0.7093549370765686,
    "train_data_exp_dir_path": "data/scp_train_data_non_norm",
    "generator": {
        "num_inputs": 2,
        "num_outputs": 2,
        "num_hidden_layers": 1,
        "neurons_per_hidden_layer": 64,
        "hidden_layer_activation_function": "relu",
        "final_layer_activation_function": null,
        "bias": true,
        "weights": [
            -0.7449647188186646,
            -0.664594829082489,
            1.0661636590957642,
            -0.6401659250259399,
            0.3450622260570526,
            0.21723096072673798,
            0.4591909945011139,
            0.6667199730873108,
            -1.0867919921875,
            1.1462647914886475,
            1.0720535516738892,
            -0.9001646041870117,
            -1.2252289056777954,
            -0.37198272347450256,
            0.1286652684211731,
            -0.8424676060676575,
            -0.9281725883483887,
            -0.6063895225524902,
            -0.41227567195892334,
            -0.45548000931739807,
            1.326385498046875,
            0.490885853767395,
            1.3356679677963257,
            -0.3661257326602936,
            0.5877558588981628,
            -1.052194595336914,
            0.18994857370853424,
            1.0524611473083496,
            0.493878036737442,
            0.12035665661096573,
            -1.3417245149612427,
            -0.42517489194869995,
            -0.9708440899848938,
            1.495971441268921,
            0.7691380977630615,
            -0.36778393387794495,
            0.2014724165201187,
            -0.7242708206176758,
            0.4476306438446045,
            0.09953052550554276,
            -0.12650735676288605,
            -0.610580563545227,
            0.779258668422699,
            0.558807909488678,
            1.149306058883667,
            -0.7998552918434143,
            0.7884525656700134,
            0.7579280138015747,
            -0.9433435797691345,
            0.8454676270484924,
            -1.7836613655090332,
            -0.7616074681282043,
            -0.15133661031723022,
            -0.8139732480049133,
            0.4698944389820099,
            -0.48630446195602417,
            0.7682331800460815,
            -0.9146183729171753,
            -1.6044842004776,
            -0.8093475103378296,
            0.6522009968757629,
            0.1660667508840561,
            0.9334367513656616,
            -1.4702202081680298,
            -1.4327994585037231,
            -0.39094704389572144,
            -0.2628845274448395,
            -0.7675237655639648,
            -0.0682981014251709,
            0.3681151568889618,
            -0.5385981798171997,
            1.2644978761672974,
            0.5495890974998474,
            0.9301682114601135,
            0.2241296023130417,
            0.6709232330322266,
            -1.3898338079452515,
            -0.7166702151298523,
            0.22445395588874817,
            -0.5111088156700134,
            -1.20310378074646,
            0.8754287958145142,
            -0.46123766899108887,
            0.4288065433502197,
            0.5711535215377808,
            0.2065752148628235,
            0.46746841073036194,
            -0.9500977993011475,
            -0.012716924771666527,
            -0.6284164190292358,
            -0.47064870595932007,
            -0.08710566908121109,
            -1.268658995628357,
            -0.31895968317985535,
            -1.2586407661437988,
            -0.7084172964096069,
            -0.228871151804924,
            0.15178465843200684,
            0.8927226662635803,
            -0.22526606917381287,
            -0.030366122722625732,
            -0.023678123950958252,
            0.5073425769805908,
            0.17398478090763092,
            0.17966027557849884,
            -0.5760658979415894,
            1.1561455726623535,
            -1.0259312391281128,
            0.8959343433380127,
            0.9839383363723755,
            -1.0525106191635132,
            1.063689947128296,
            -0.6446922421455383,
            0.3664649724960327,
            -0.08839055895805359,
            -0.6358524560928345,
            -0.4449167549610138,
            -0.07125430554151535,
            0.6365946531295776,
            -0.8185625672340393,
            1.4228352308273315,
            0.7072505950927734,
            0.6607208847999573,
            -1.0150270462036133,
            -1.319351077079773,
            -0.3769325315952301,
            -1.0660656690597534,
            -0.6226643919944763,
            0.8412491083145142,
            0.6562488079071045,
            1.0771597623825073,
            0.9811611771583557,
            0.8321841955184937,
            0.39116302132606506,
            0.6983495950698853,
            1.1951627731323242,
            0.48931485414505005,
            1.417857050895691,
            0.5529049634933472,
            1.2584502696990967,
            0.1571100652217865,
            0.9758466482162476,
            1.3731111288070679,
            0.7675259709358215,
            0.8689768314361572,
            1.3521252870559692,
            -0.186482235789299,
            1.2196133136749268,
            1.4355626106262207,
            0.8968265056610107,
            1.0611400604248047,
            0.8698814511299133,
            1.2023837566375732,
            0.6915740370750427,
            1.0957276821136475,
            -0.00280774082057178,
            0.11866527050733566,
            0.5579549670219421,
            1.7781033515930176,
            0.9902923107147217,
            0.864982545375824,
            1.784924030303955,
            1.1635578870773315,
            0.7520132064819336,
            0.884315550327301,
            1.4509952068328857,
            -0.2830224931240082,
            1.2522751092910767,
            0.8583852648735046,
            1.4516569375991821,
            1.655931830406189,
            0.5439170002937317,
            1.7602070569992065,
            1.6379960775375366,
            0.8936903476715088,
            0.699745774269104,
            1.1779844760894775,
            0.6304853558540344,
            -0.30005258321762085,
            1.4245001077651978,
            0.21870678663253784,
            0.06649207323789597,
            0.8310564756393433,
            1.0251498222351074,
            0.562255322933197,
            1.6652915477752686,
            1.4912875890731812,
            1.1280561685562134,
            0.30209213495254517,
            0.7861745953559875,
            1.3187124729156494,
            0.43381813168525696,
            -0.14209075272083282,
            0.05803019925951958,
            -0.1819428950548172,
            -0.08492754399776459,
            0.15014268457889557,
            -0.1650134027004242,
            -0.26452508568763733,
            0.07107150554656982,
            -0.3828721344470978,
            0.408979594707489,
            0.6440556049346924,
            0.10625432431697845,
            -0.14585046470165253,
            -0.2950690984725952,
            -0.1683051735162735,
            -0.6659256219863892,
            0.17330166697502136,
            0.08253214508295059,
            0.04142085835337639,
            -0.2478417158126831,
            0.2908560335636139,
            0.17636100947856903,
            -0.09815806895494461,
            0.16710661351680756,
            0.14329470694065094,
            -0.9066829085350037,
            0.2889576256275177,
            -0.24960871040821075,
            -0.33013781905174255,
            -0.8683021664619446,
            -0.2637752890586853,
            -0.06316906213760376,
            -0.5714414715766907,
            0.2674873471260071,
            -0.04185638949275017,
            0.15892294049263,
            -0.09288673847913742,
            -0.3495659828186035,
            1.2133458852767944,
            0.023503819480538368,
            0.12045316398143768,
            -0.010334745049476624,
            -0.1141294315457344,
            -0.06095588207244873,
            0.2524827718734741,
            0.16631464660167694,
            -0.5150749683380127,
            -0.607886791229248,
            0.015347657725214958,
            0.10981971770524979,
            0.12041229009628296,
            -0.2181151956319809,
            0.0025814350228756666,
            -0.2114395797252655,
            0.12561072409152985,
            0.05149974301457405,
            0.5480872392654419,
            0.2489217072725296,
            0.15369661152362823,
            0.00970770139247179,
            0.8783603310585022,
            -0.095298171043396,
            -0.24859978258609772,
            -0.6033670902252197,
            0.7488498091697693,
            1.0282622575759888,
            1.4027127027511597,
            1.3476217985153198,
            0.9976641535758972,
            0.9788970947265625,
            0.9138903021812439,
            0.9596182107925415,
            0.6840075254440308,
            1.3143197298049927,
            0.9397990703582764,
            0.9096588492393494,
            0.5538827180862427,
            1.2221773862838745,
            1.228969693183899,
            1.0691384077072144,
            1.0522444248199463,
            1.0613949298858643,
            0.3641749322414398,
            1.3509849309921265,
            1.1291459798812866,
            1.3012572526931763,
            0.8694021105766296,
            1.1521130800247192,
            1.1206903457641602,
            1.0608625411987305,
            0.9224012494087219,
            0.12132366746664047,
            0.6258843541145325,
            1.0134251117706299,
            1.3180502653121948,
            0.5655785202980042,
            0.9120391011238098,
            0.9856469035148621,
            1.0932509899139404,
            0.999311625957489,
            1.2749603986740112,
            1.1741007566452026,
            -0.09985414147377014,
            0.9892989993095398,
            1.0467725992202759,
            1.1517304182052612,
            1.406338095664978,
            0.3445005416870117,
            1.1373225450515747,
            1.1917644739151,
            1.0475993156433105,
            1.1173975467681885,
            1.1912862062454224,
            1.0933635234832764,
            -0.11633746325969696,
            1.215896487236023,
            0.32192784547805786,
            0.9726849794387817,
            1.2554588317871094,
            1.1240190267562866,
            0.7616599798202515,
            1.2585879564285278,
            1.2743171453475952,
            0.7175244092941284,
            0.7441815733909607,
            0.4696451425552368,
            1.158788800239563,
            0.9120017290115356,
            0.017112549394369125,
            1.029939889907837
        ]
    },
    "discriminator": {
        "num_inputs": 2,
        "num_outputs": 1,
        "num_hidden_layers": 1,
        "neurons_per_hidden_layer": 64,
        "hidden_layer_activation_function": "relu",
        "final_layer_activation_function": "sigmoid",
        "bias": true,
        "weights": [
            -0.33950844407081604,
            -0.8223235607147217,
            0.7391520738601685,
            0.4246075749397278,
            -0.9648073315620422,
            -0.8081992268562317,
            0.2993013858795166,
            0.31744006276130676,
            -0.36821210384368896,
            -0.10210078954696655,
            0.37799137830734253,
            0.20433686673641205,
            -0.6228927969932556,
            0.16305029392242432,
            -0.2728945016860962,
            0.39005061984062195,
            0.11327609419822693,
            -0.6498297452926636,
            0.20641805231571198,
            0.10142145305871964,
            -0.6982537508010864,
            0.09514104574918747,
            -0.12696309387683868,
            0.21308358013629913,
            -0.052328139543533325,
            0.32340946793556213,
            -0.28549614548683167,
            0.017250003293156624,
            0.8885901570320129,
            -0.9991401433944702,
            -0.00804981030523777,
            -0.007255378179252148,
            0.594869077205658,
            -0.275456041097641,
            -0.19054710865020752,
            -0.20730769634246826,
            0.0019534449093043804,
            -0.021551186218857765,
            0.0019035711884498596,
            -0.02773236110806465,
            -0.08195186406373978,
            0.48963481187820435,
            0.3848627209663391,
            -0.15922588109970093,
            -0.055757008492946625,
            -0.05910548195242882,
            0.22185809910297394,
            0.2489621490240097,
            0.0037175018806010485,
            -0.031676873564720154,
            -0.745474636554718,
            -0.19361530244350433,
            0.7665151357650757,
            0.026147766038775444,
            -0.4513606131076813,
            0.1265072077512741,
            -0.14512169361114502,
            -0.5988368391990662,
            -0.5390233993530273,
            0.07526835054159164,
            0.750731348991394,
            -0.780597448348999,
            -0.48633307218551636,
            -0.13701580464839935,
            0.2752164304256439,
            0.502394437789917,
            0.37626931071281433,
            0.1118762269616127,
            -0.5901424288749695,
            0.387587308883667,
            0.6350047588348389,
            -0.056752465665340424,
            0.3964502513408661,
            0.10919254273176193,
            -0.22501809895038605,
            -0.07850352674722672,
            -0.0942566990852356,
            -0.46329450607299805,
            -0.01443924754858017,
            0.00946268904954195,
            -0.40912923216819763,
            0.20721247792243958,
            0.4553721249103546,
            0.4495769143104553,
            0.23319914937019348,
            0.3805399537086487,
            0.17178693413734436,
            0.36127761006355286,
            -0.6432388424873352,
            -0.02102355845272541,
            0.013707475736737251,
            0.6379489898681641,
            -0.5182703733444214,
            0.43518418073654175,
            -0.060269296169281006,
            -0.13795024156570435,
            -0.6003135442733765,
            0.3090335428714752,
            0.1893433779478073,
            0.6645192503929138,
            0.27112218737602234,
            0.3102451264858246,
            0.8635390400886536,
            0.28925734758377075,
            -0.38758862018585205,
            0.5805162191390991,
            0.2354811280965805,
            0.011392556130886078,
            0.35020753741264343,
            0.35377103090286255,
            -0.05176583677530289,
            0.1363331526517868,
            0.06721669435501099,
            -0.3636956810951233,
            0.4619239270687103,
            0.18320851027965546,
            -0.04056930914521217,
            0.46982160210609436,
            0.4900835156440735,
            0.41624870896339417,
            -0.4913614094257355,
            0.08556027710437775,
            0.4295242130756378,
            -0.042380765080451965,
            -0.27378982305526733,
            0.31769073009490967,
            0.4833067059516907,
            0.675634503364563,
            -0.2776612639427185,
            0.31223157048225403,
            0.060458265244960785,
            -0.40038928389549255,
            0.8278022408485413,
            0.10049541294574738,
            0.47783371806144714,
            -0.527941882610321,
            -0.38630321621894836,
            0.3348352313041687,
            -0.12256284803152084,
            -0.3602854311466217,
            -0.49466419219970703,
            0.6392693519592285,
            0.1677844524383545,
            0.44740214943885803,
            -0.6659246683120728,
            -0.6402359008789062,
            0.7856985926628113,
            1.0134153366088867,
            0.6988986134529114,
            -0.48489660024642944,
            -0.086166150867939,
            -0.08016739785671234,
            1.1539475917816162,
            0.44098806381225586,
            0.8360052704811096,
            0.382587194442749,
            -0.6126413345336914,
            -0.6005393862724304,
            0.2909053862094879,
            1.0317085981369019,
            0.007971176877617836,
            -1.2940213680267334,
            -0.09889892488718033,
            0.9364274740219116,
            -0.01839732751250267,
            1.1456047296524048,
            -0.5640361905097961,
            -1.0306047201156616,
            0.08902592957019806,
            -0.4031409025192261,
            -0.2959907352924347,
            -0.46707507967948914,
            0.6250343918800354,
            -0.05537222698330879,
            -0.36802899837493896,
            -0.483207643032074,
            0.1705016940832138,
            0.12828592956066132,
            -0.18796902894973755,
            0.14780248701572418,
            -0.39321979880332947,
            -0.9506415128707886,
            0.39244145154953003,
            0.24998429417610168,
            -0.4976407289505005,
            0.1197553277015686,
            0.2692127227783203,
            0.5082431435585022,
            -0.14452752470970154,
            0.6393640041351318,
            -0.3545617163181305,
            -0.6513868570327759,
            -0.2871837615966797,
            -0.27297744154930115,
            -0.41960078477859497,
            0.3404177725315094,
            -1.2902311086654663,
            0.22325484454631805,
            -0.44119346141815186,
            -0.05655226483941078,
            -0.032677650451660156,
            -0.5187963843345642,
            -0.5622043609619141,
            -0.0780336931347847,
            -0.15948140621185303,
            0.000655711512081325,
            -0.41899529099464417,
            0.3581024408340454,
            -0.06982533633708954,
            0.004223093390464783,
            -2.2700042724609375,
            -2.297393321990967,
            0.062278009951114655,
            0.0024287402629852295,
            0.11259898543357849,
            0.3017442226409912,
            -2.3608617782592773,
            -0.7170655131340027,
            -0.17019501328468323,
            0.159426748752594,
            0.03466484695672989,
            -0.045690082013607025,
            -0.6025006175041199,
            -1.1841126680374146,
            0.04407878592610359,
            -0.09416111558675766,
            0.15192754566669464,
            -0.6084984540939331,
            -0.6133997440338135,
            -1.5812956094741821,
            0.019882097840309143,
            -2.243579149246216,
            0.42271947860717773,
            0.1574912816286087,
            0.26894357800483704,
            0.2565305829048157,
            0.4452139437198639,
            -0.12676621973514557,
            0.20600564777851105,
            0.07158951461315155,
            0.04457869380712509,
            -0.15405018627643585,
            0.2622964084148407,
            0.010722832754254341,
            -0.10169550776481628,
            -0.7022448778152466,
            0.0194409042596817,
            -0.4280661940574646,
            0.10506698489189148,
            0.30069684982299805,
            -0.22606652975082397,
            -0.2816295325756073,
            -0.3527534604072571,
            -0.9773983359336853,
            0.33101651072502136,
            -0.06276366114616394,
            0.2695569694042206
        ]
    }
}