{
    "num_epochs": 10000,
    "batch_size": 256,
    "final_g_loss": 0.7996009588241577,
    "final_d_loss": 0.6980509757995605,
    "generator_learning_rate": 0.0002,
    "discriminator_learning_rate": 0.0005,
    "train_data_exp_dir_path": [
        "/app/data/cmc_configs/cmc_train_data"
    ],
    "generator": {
        "num_inputs": 1,
        "num_outputs": 2,
        "num_hidden_layers": 1,
        "neurons_per_hidden_layer": 64,
        "hidden_layer_activation_function": "relu",
        "final_layer_activation_function": null,
        "bias": true,
        "weights": [
            0.8332682847976685,
            -0.29711318016052246,
            0.872910737991333,
            1.1135830879211426,
            -0.9078929424285889,
            -1.2726596593856812,
            0.9280603528022766,
            0.6344130039215088,
            -0.4210752248764038,
            -0.9954548478126526,
            0.6970540881156921,
            -0.0006374759250320494,
            -1.1088625192642212,
            1.2459486722946167,
            -0.5752339363098145,
            0.6390877962112427,
            -1.7584805488586426,
            -2.2465970516204834,
            0.909329891204834,
            0.7949195504188538,
            0.8635528683662415,
            0.8146501183509827,
            0.11332762241363525,
            1.8788180351257324,
            -0.08328504860401154,
            -2.0840377807617188,
            1.017603874206543,
            0.686735987663269,
            0.7829345464706421,
            -0.17491888999938965,
            0.7572247385978699,
            -2.2200732231140137,
            -0.011899606324732304,
            0.03450426459312439,
            0.6948636770248413,
            -1.8968342542648315,
            -1.0509142875671387,
            0.8405671715736389,
            1.3026341199874878,
            -1.368330717086792,
            -1.7824161052703857,
            -0.6761029958724976,
            -0.4675128161907196,
            -1.7039741277694702,
            -1.7094467878341675,
            -1.2751407623291016,
            0.15832757949829102,
            0.4560689926147461,
            -1.5665030479431152,
            -0.030262470245361328,
            0.7826464772224426,
            -1.8863215446472168,
            -1.6822530031204224,
            -1.4581860303878784,
            -1.8281676769256592,
            -1.2294856309890747,
            -1.3455662727355957,
            1.7564442157745361,
            -1.7191836833953857,
            -1.576393723487854,
            0.7216651439666748,
            0.5193674564361572,
            -1.670580506324768,
            -0.31988441944122314,
            1.4119983911514282,
            1.8637357950210571,
            1.4763470888137817,
            1.8723853826522827,
            -1.132330298423767,
            0.6120768785476685,
            1.2227622270584106,
            1.0706751346588135,
            1.2337071895599365,
            0.4981516897678375,
            -0.008449668064713478,
            1.2132517099380493,
            -1.3096187114715576,
            2.1080284118652344,
            1.8622589111328125,
            1.050018072128296,
            0.7794030904769897,
            -0.1985141783952713,
            1.2069889307022095,
            1.3322532176971436,
            -0.6441679000854492,
            1.0914180278778076,
            -0.7116503715515137,
            0.12565720081329346,
            1.9417864084243774,
            1.009191870689392,
            1.7248401641845703,
            0.9153920412063599,
            1.3265280723571777,
            1.805490255355835,
            1.2389960289001465,
            -0.1590961217880249,
            1.7685850858688354,
            2.1470937728881836,
            0.9086676239967346,
            1.208377480506897,
            0.4603411555290222,
            1.419143795967102,
            2.194258689880371,
            0.6287301182746887,
            0.8341567516326904,
            0.401681125164032,
            1.5955867767333984,
            0.7153794169425964,
            1.1874643564224243,
            -1.3217566013336182,
            -0.9862145185470581,
            -0.2586653232574463,
            0.6569161415100098,
            -0.6134841442108154,
            1.3146651983261108,
            1.0186245441436768,
            0.5141873359680176,
            0.826077401638031,
            0.8230674862861633,
            1.42006254196167,
            -1.6557419300079346,
            0.10763771831989288,
            0.9417014718055725,
            0.8631960153579712,
            1.2148122787475586,
            0.8731945753097534,
            0.9808822870254517,
            1.5114699602127075,
            0.2608412802219391,
            0.1385413110256195,
            0.21539999544620514,
            0.11812631040811539,
            -1.350341558456421,
            -0.4034730792045593,
            -0.47702139616012573,
            0.09215165674686432,
            -0.05003901943564415,
            -0.5222113132476807,
            0.34162819385528564,
            0.1514323204755783,
            -1.6509844064712524,
            0.31314578652381897,
            0.15968455374240875,
            -0.14368291199207306,
            -0.24821513891220093,
            0.9941504597663879,
            -0.4267503619194031,
            0.014919125474989414,
            -1.3043124675750732,
            -0.42991727590560913,
            0.040312111377716064,
            0.533285915851593,
            0.10078883171081543,
            -0.29918116331100464,
            0.26478421688079834,
            -0.34973791241645813,
            0.2536343038082123,
            0.049079522490501404,
            -0.12083621323108673,
            0.9384041428565979,
            -0.03420872241258621,
            -0.023278580978512764,
            -0.5481470227241516,
            -0.0530763640999794,
            -0.7161375284194946,
            0.13788582384586334,
            0.19860607385635376,
            -0.30254071950912476,
            -0.3685985505580902,
            -0.5107832551002502,
            0.02535928040742874,
            -0.052074771374464035,
            -0.161258727312088,
            -1.612743854522705,
            0.08556459844112396,
            -0.7059463262557983,
            -0.06904871761798859,
            0.051129356026649475,
            0.04148191586136818,
            -0.2214335799217224,
            0.25331249833106995,
            -0.26146355271339417,
            -0.20999647676944733,
            -0.13016322255134583,
            -1.7367204427719116,
            0.40636277198791504,
            -0.3617037534713745,
            -0.3645806908607483,
            0.07576332986354828,
            0.00710251135751605,
            -0.28891536593437195,
            0.0949362963438034,
            1.3935270309448242,
            1.3699712753295898,
            1.3646824359893799,
            1.3160394430160522,
            -0.0810595452785492,
            0.4823751747608185,
            0.9023345112800598,
            1.1959705352783203,
            1.0612126588821411,
            0.3873421251773834,
            0.41418156027793884,
            1.2583949565887451,
            -0.4017992317676544,
            1.4092963933944702,
            1.1335424184799194,
            1.1870975494384766,
            0.9000505805015564,
            0.6325624585151672,
            0.9407374262809753,
            1.0255563259124756,
            0.29722923040390015,
            1.1065751314163208,
            0.09013697504997253,
            0.5216513276100159,
            1.3611496686935425,
            0.6581630110740662,
            1.1616085767745972,
            0.8332169651985168,
            1.4526616334915161,
            1.205603003501892,
            0.99314945936203,
            0.7417111396789551,
            1.2422640323638916,
            1.322087287902832,
            0.8744686245918274,
            0.7826443314552307,
            1.3064767122268677,
            1.1908084154129028,
            1.4197137355804443,
            0.49470293521881104,
            0.6236593127250671,
            0.29860109090805054,
            1.0836530923843384,
            0.9500397443771362,
            0.6945116519927979,
            -1.4190963506698608,
            -0.02382713556289673,
            0.38741225004196167,
            0.8826662302017212,
            -0.02144688367843628,
            1.1558172702789307,
            0.5619011521339417,
            0.8467206358909607,
            0.5958694815635681,
            0.7005625367164612,
            0.8027225732803345,
            -0.16418488323688507,
            0.5802598595619202,
            0.6052471995353699,
            0.6650755405426025,
            1.564968228340149,
            1.2640860080718994,
            0.6434096097946167,
            1.3360018730163574,
            0.012947172857820988,
            1.2945021390914917
        ]
    },
    "discriminator": {
        "num_inputs": 2,
        "num_outputs": 1,
        "num_hidden_layers": 1,
        "neurons_per_hidden_layer": 64,
        "hidden_layer_activation_function": "relu",
        "final_layer_activation_function": "sigmoid",
        "bias": true,
        "weights": [
            0.23091918230056763,
            0.6823679804801941,
            -0.5119170546531677,
            0.2815816104412079,
            -0.7069916725158691,
            -0.0038575788494199514,
            0.5479863286018372,
            -0.8394795060157776,
            -0.5210245251655579,
            0.008509548380970955,
            0.2798669934272766,
            0.7354661822319031,
            0.7297034859657288,
            0.4174679219722748,
            0.4403740167617798,
            0.10913350433111191,
            0.6577039361000061,
            -0.11358628422021866,
            -0.10253430902957916,
            -0.05205763131380081,
            -0.6322934627532959,
            0.007643147371709347,
            0.13160669803619385,
            0.6538766622543335,
            -0.08638513088226318,
            -0.007705381140112877,
            0.45301419496536255,
            -0.4772099554538727,
            -0.2322206348180771,
            -0.9986753463745117,
            1.2998639345169067,
            -0.044952914118766785,
            -0.4280841052532196,
            0.7713478207588196,
            -0.6200693845748901,
            -0.0030246530659496784,
            -0.19330593943595886,
            0.005759361200034618,
            -0.32517844438552856,
            0.18091797828674316,
            -0.08748826384544373,
            0.35381120443344116,
            0.18433037400245667,
            0.4280427098274231,
            0.8024417161941528,
            0.08995158225297928,
            0.2154613584280014,
            -0.2558544874191284,
            0.6494204998016357,
            0.07490400224924088,
            0.6627255082130432,
            -0.06422673910856247,
            -0.5811562538146973,
            -0.14524906873703003,
            0.5733279585838318,
            0.7056396007537842,
            -0.1499856859445572,
            0.6666882634162903,
            0.011337501928210258,
            -0.020441221073269844,
            0.38994479179382324,
            0.06157802790403366,
            0.1931341588497162,
            0.5584208369255066,
            0.12024511396884918,
            0.4866337180137634,
            0.39390403032302856,
            0.6451883316040039,
            0.03831981122493744,
            -0.005720294546335936,
            -0.506574273109436,
            -0.0027807201258838177,
            0.5261695384979248,
            0.606675386428833,
            0.211740642786026,
            0.04979213699698448,
            0.8854196667671204,
            -0.01367770042270422,
            0.7029080390930176,
            0.07621268928050995,
            0.7628201246261597,
            0.521751344203949,
            0.3614916503429413,
            -0.25081902742385864,
            0.21806298196315765,
            0.05232077091932297,
            -0.6103361248970032,
            -0.4251740276813507,
            0.7364245057106018,
            0.6351837515830994,
            0.0070401947014033794,
            0.7141934633255005,
            0.03647000342607498,
            -0.007320570293813944,
            -0.6507610082626343,
            0.5997227430343628,
            0.017813002690672874,
            0.015649138018488884,
            -0.44319647550582886,
            -0.0055238124914467335,
            -0.2895999550819397,
            -0.0027823520358651876,
            -0.1593811959028244,
            0.5746099352836609,
            -0.18992753326892853,
            0.0006402569706551731,
            -0.5805555582046509,
            0.000255519466008991,
            -0.1623118370771408,
            -0.001636990811675787,
            0.17373988032341003,
            0.048783354461193085,
            0.6255714297294617,
            -0.05929342657327652,
            -0.35620078444480896,
            -0.14594736695289612,
            0.13400688767433167,
            0.5481565594673157,
            0.35943353176116943,
            -0.725014328956604,
            -0.5739319920539856,
            0.19432300329208374,
            0.19845077395439148,
            -0.6564714908599854,
            -0.1273392140865326,
            -0.0037267061416059732,
            -0.4737367331981659,
            0.5459012985229492,
            -0.2685354948043823,
            0.35266736149787903,
            0.7403208613395691,
            0.5501818656921387,
            0.0151984803378582,
            0.07728898525238037,
            -0.06233248859643936,
            -0.1522325724363327,
            -0.2804357409477234,
            1.2424012422561646,
            0.21120572090148926,
            -7.787707727402449e-05,
            1.3272556066513062,
            -0.36032480001449585,
            0.24945707619190216,
            1.831925630569458,
            0.2869655191898346,
            0.5851725935935974,
            0.4502098262310028,
            0.4891340434551239,
            0.3267715871334076,
            -0.24573878943920135,
            -0.09210831671953201,
            -0.40530842542648315,
            -0.2443075329065323,
            1.1604253053665161,
            0.2680971622467041,
            -0.6188690066337585,
            -0.4653756022453308,
            -0.1647452861070633,
            0.29880449175834656,
            -0.08886891603469849,
            -0.013971179723739624,
            -0.3144855201244354,
            0.13773944973945618,
            0.5161148905754089,
            -0.8348018527030945,
            0.11325763911008835,
            -0.18409742414951324,
            0.10203926265239716,
            -0.5952209234237671,
            -0.23125815391540527,
            0.039655815809965134,
            0.8693044185638428,
            0.11144648492336273,
            0.17886929214000702,
            -0.1390763372182846,
            0.2178899645805359,
            -1.0333282947540283,
            0.625529944896698,
            -1.8246561288833618,
            0.3571731150150299,
            0.7119906544685364,
            0.4625602066516876,
            0.8114564418792725,
            -0.4696626663208008,
            1.0385360717773438,
            -0.6376389861106873,
            0.19334296882152557,
            0.4089835286140442,
            -0.46152496337890625,
            -0.4370596408843994,
            0.7967420220375061,
            0.057851411402225494,
            -0.3347865045070648,
            0.5405060648918152,
            -0.2974212169647217,
            -0.5688945651054382,
            -0.2096293419599533,
            0.3046192228794098,
            -0.26840439438819885,
            -0.3361476957798004,
            0.016436828300356865,
            -0.966291606426239,
            -0.43788018822669983,
            -0.3454589247703552,
            0.5387552380561829,
            -0.01731177233159542,
            -0.6052378416061401,
            1.071832537651062,
            0.4244118630886078,
            -0.35829490423202515,
            -1.4675265550613403,
            0.4349372088909149,
            0.36109042167663574,
            -0.25818389654159546,
            0.26897507905960083,
            0.012353206984698772,
            0.1646091490983963,
            -1.050055742263794,
            -2.7094693183898926,
            -0.35414573550224304,
            -0.31329846382141113,
            -0.08834666013717651,
            -0.2297186553478241,
            -0.22277073562145233,
            0.49191024899482727,
            -0.2850303649902344,
            0.00135710253380239,
            -0.3291192650794983,
            -0.0705116018652916,
            -0.16829432547092438,
            -0.2444186955690384,
            0.14841338992118835,
            -0.1617508977651596,
            0.037004537880420685,
            -0.10261751711368561,
            -0.6425238847732544,
            -0.33165356516838074,
            0.2836564779281616,
            0.060871779918670654,
            0.4842149019241333,
            2.990513324737549,
            -0.13362695276737213,
            -1.030311942100525,
            0.43091022968292236,
            -0.9171543121337891,
            -0.3016972243785858,
            -1.349267601966858,
            -0.4737602472305298,
            -0.6052297353744507,
            -0.08701372146606445,
            -0.2798437774181366,
            -0.8137058615684509,
            -0.3720892369747162,
            -0.07819697260856628,
            -0.08629049360752106,
            0.32299700379371643,
            0.589824378490448
        ]
    }
}