{
    "num_epochs": 20000,
    "batch_size": 1000,
    "final_g_loss": 0.5272100567817688,
    "final_d_loss": 0.7045055627822876,
    "train_data_exp_dir_path": "data/scp_train_data_non_norm",
    "generator": {
        "num_inputs": 2,
        "num_outputs": 2,
        "num_hidden_layers": 1,
        "neurons_per_hidden_layer": 64,
        "hidden_layer_activation_function": "relu",
        "final_layer_activation_function": null,
        "bias": true,
        "weights": [
            0.7456466555595398,
            1.1253349781036377,
            -1.305519700050354,
            -1.4579652547836304,
            1.4476324319839478,
            -1.4894686937332153,
            1.0233162641525269,
            1.2744956016540527,
            1.2472238540649414,
            -1.3230103254318237,
            -1.3280689716339111,
            1.245656967163086,
            1.2553001642227173,
            1.1261327266693115,
            -1.7006889581680298,
            1.3469713926315308,
            -1.7592273950576782,
            -1.5845791101455688,
            -1.0712101459503174,
            1.314896821975708,
            1.419196605682373,
            -1.4021748304367065,
            0.9871308207511902,
            -1.2531217336654663,
            -1.1200857162475586,
            -1.4165536165237427,
            -1.3293098211288452,
            -1.4615962505340576,
            1.3663616180419922,
            1.3909934759140015,
            -1.6824586391448975,
            -1.2681411504745483,
            -1.3398776054382324,
            1.1281160116195679,
            -1.138263463973999,
            1.2347851991653442,
            1.1000477075576782,
            1.157842993736267,
            1.2537404298782349,
            0.9277085661888123,
            -1.1591334342956543,
            -1.4691435098648071,
            -1.2987817525863647,
            0.8960399627685547,
            -1.6082314252853394,
            -0.643406093120575,
            0.9177068471908569,
            -1.455305576324463,
            -1.474113941192627,
            1.1650543212890625,
            1.1198457479476929,
            1.049567461013794,
            -1.2320642471313477,
            -1.3433973789215088,
            1.363561749458313,
            1.4227944612503052,
            -1.4876152276992798,
            -1.5033047199249268,
            -0.3502006530761719,
            0.3968699872493744,
            -1.205869197845459,
            1.1245629787445068,
            0.9453628063201904,
            1.3851300477981567,
            0.06902360171079636,
            0.048124730587005615,
            -1.3984771966934204,
            -1.2857807874679565,
            0.653267502784729,
            1.313706398010254,
            0.49435457587242126,
            0.7264511585235596,
            1.059376835823059,
            -1.5555981397628784,
            -1.7143120765686035,
            -1.59526789188385,
            -1.3464937210083008,
            -1.1460163593292236,
            1.3170390129089355,
            -1.011469841003418,
            0.7373097538948059,
            1.2039825916290283,
            1.2781428098678589,
            -1.5870411396026611,
            -0.25209107995033264,
            -0.5686722993850708,
            1.1930782794952393,
            0.8098401427268982,
            -0.20667847990989685,
            0.25798115134239197,
            -1.6122283935546875,
            1.4502793550491333,
            1.132703185081482,
            -1.2983970642089844,
            -1.7127766609191895,
            0.8854530453681946,
            0.0642947256565094,
            0.005253005772829056,
            0.8228784799575806,
            -1.452091097831726,
            1.1411763429641724,
            0.8788626194000244,
            1.304081678390503,
            -1.0312299728393555,
            -1.5342965126037598,
            0.8298733830451965,
            -1.2238301038742065,
            -1.0854510068893433,
            -1.4561136960983276,
            1.3448007106781006,
            1.3832138776779175,
            -0.8162726759910583,
            1.4372437000274658,
            -1.6734808683395386,
            1.3635400533676147,
            0.7900300621986389,
            1.43623948097229,
            0.803311288356781,
            -1.1089342832565308,
            1.4233644008636475,
            -1.0067256689071655,
            -1.4354256391525269,
            -1.4326398372650146,
            1.0384916067123413,
            -1.606446623802185,
            0.9361191391944885,
            1.3352141380310059,
            -1.6399815082550049,
            0.6256247162818909,
            0.7897216081619263,
            0.9772810935974121,
            0.5668883323669434,
            0.4030599296092987,
            0.43162280321121216,
            1.3210328817367554,
            0.5997276902198792,
            1.30987548828125,
            1.531247615814209,
            0.8265491127967834,
            0.538012683391571,
            0.7399724721908569,
            0.7169404625892639,
            0.9255455732345581,
            1.33425772190094,
            0.6063066124916077,
            1.3646751642227173,
            0.8542026877403259,
            0.8792185187339783,
            1.2836476564407349,
            1.3299039602279663,
            1.543260097503662,
            1.1765724420547485,
            1.0524582862854004,
            0.7302111983299255,
            1.1794663667678833,
            1.0808643102645874,
            0.9865047335624695,
            -0.4388221800327301,
            1.556815266609192,
            1.6527388095855713,
            -0.38778653740882874,
            1.2493780851364136,
            0.8341037034988403,
            1.2080153226852417,
            1.238926887512207,
            1.084564208984375,
            0.6717847585678101,
            0.40317362546920776,
            1.2585954666137695,
            0.43720632791519165,
            1.5498919486999512,
            0.4676811397075653,
            -0.16109098494052887,
            0.35191863775253296,
            0.9375403523445129,
            1.2425533533096313,
            -0.2943299114704132,
            1.143782138824463,
            0.5446556806564331,
            1.250452995300293,
            1.0900626182556152,
            0.79139643907547,
            0.45668572187423706,
            1.088445782661438,
            0.3935367166996002,
            1.2878761291503906,
            1.1139246225357056,
            0.86613529920578,
            1.1001486778259277,
            0.3652983009815216,
            0.264629989862442,
            0.4284003973007202,
            0.09418852627277374,
            -0.3049513101577759,
            0.08785935491323471,
            -0.006682245060801506,
            0.024973450228571892,
            0.08127182722091675,
            0.05934000760316849,
            0.008214929141104221,
            -0.20968113839626312,
            0.23395836353302002,
            -0.04441489279270172,
            -0.053044963628053665,
            -0.339656800031662,
            -0.2571762800216675,
            -0.037435177713632584,
            -0.20382748544216156,
            0.05537084490060806,
            0.05951324477791786,
            0.0758623406291008,
            0.02604193240404129,
            -0.04958963021636009,
            -0.01976388320326805,
            -0.039079587906599045,
            0.031845979392528534,
            -0.024147793650627136,
            -0.0738072469830513,
            -0.15895280241966248,
            -0.046786338090896606,
            -0.27140411734580994,
            -0.35893940925598145,
            0.027872012928128242,
            0.12288910150527954,
            0.03934716433286667,
            -0.12692998349666595,
            -0.01101386733353138,
            0.17668862640857697,
            -0.07481405884027481,
            -0.28864553570747375,
            -0.4166841208934784,
            -0.09571642428636551,
            0.11560288071632385,
            0.08864450454711914,
            0.20265795290470123,
            0.07964947819709778,
            -0.011648441664874554,
            0.06651348620653152,
            0.055220458656549454,
            -0.08907248079776764,
            -0.006563946604728699,
            0.09327063709497452,
            -0.11606002599000931,
            0.1765621155500412,
            -0.14077769219875336,
            -0.39360082149505615,
            -0.000680094410199672,
            0.04843831807374954,
            -0.007704663556069136,
            0.043153706938028336,
            0.09029527753591537,
            -0.0071923513896763325,
            -0.08614339679479599,
            0.0756114050745964,
            -0.1654803305864334,
            0.030199609696865082,
            0.9749289155006409,
            0.9084579944610596,
            1.031497597694397,
            0.7685744166374207,
            1.047057032585144,
            0.8314449191093445,
            0.8771440982818604,
            1.0115066766738892,
            1.0459388494491577,
            0.8816070556640625,
            0.9976208209991455,
            0.9438977241516113,
            1.0518169403076172,
            1.0841482877731323,
            0.8240671157836914,
            1.0431346893310547,
            0.9617828726768494,
            0.9344492554664612,
            0.9150601029396057,
            0.7449167370796204,
            1.0023884773254395,
            1.0386065244674683,
            0.9111465215682983,
            0.9956048130989075,
            0.9177542924880981,
            0.8877207636833191,
            0.9849691390991211,
            0.9245603084564209,
            0.908547043800354,
            -0.17165003716945648,
            1.0414092540740967,
            0.9029374122619629,
            -0.09359746426343918,
            0.8481920957565308,
            0.8985922336578369,
            0.757865309715271,
            1.0015606880187988,
            0.996462881565094,
            1.054067611694336,
            0.8150402307510376,
            0.7536541819572449,
            0.9972350597381592,
            0.9914400577545166,
            0.8384498357772827,
            -0.2758100628852844,
            1.0411012172698975,
            0.9673589468002319,
            0.900153636932373,
            -0.09430116415023804,
            1.065946102142334,
            0.8850537538528442,
            0.8237883448600769,
            0.897459089756012,
            1.106907844543457,
            0.8934313654899597,
            0.9090281128883362,
            0.944628119468689,
            0.8192803263664246,
            0.8968555331230164,
            1.0189155340194702,
            0.9171568155288696,
            0.893703043460846,
            0.9505136013031006,
            1.028509259223938,
            0.2111511528491974,
            0.8939682841300964
        ]
    },
    "discriminator": {
        "num_inputs": 2,
        "num_outputs": 1,
        "num_hidden_layers": 1,
        "neurons_per_hidden_layer": 64,
        "hidden_layer_activation_function": "relu",
        "final_layer_activation_function": "sigmoid",
        "bias": true,
        "weights": [
            0.5182999968528748,
            0.19534581899642944,
            0.24261248111724854,
            0.0590064562857151,
            -0.20719648897647858,
            0.2343134731054306,
            0.1636524349451065,
            0.03953379765152931,
            0.26466768980026245,
            -0.666742205619812,
            0.24721752107143402,
            0.13279631733894348,
            0.4805021584033966,
            0.13113239407539368,
            0.5780313611030579,
            0.6038205623626709,
            0.350397527217865,
            -0.23197144269943237,
            -0.16858325898647308,
            0.49446234107017517,
            -0.5861490964889526,
            0.1318625807762146,
            -0.17475134134292603,
            0.4939737319946289,
            0.37929102778434753,
            0.4105619192123413,
            0.47705116868019104,
            0.01599695533514023,
            0.6478888988494873,
            0.5390517115592957,
            0.5484382510185242,
            0.13914497196674347,
            0.43227002024650574,
            0.09985054284334183,
            0.5095905065536499,
            -0.0031885122880339622,
            -0.6010013818740845,
            -0.49707022309303284,
            0.5160155892372131,
            -0.3695737421512604,
            -0.24836885929107666,
            -0.43180912733078003,
            -0.026857968419790268,
            0.14395563304424286,
            0.2549382448196411,
            -0.6899778842926025,
            -0.02989874593913555,
            0.24969768524169922,
            0.46939948201179504,
            0.3838311731815338,
            -0.4127374291419983,
            -0.1193200945854187,
            -0.7248838543891907,
            0.0341179221868515,
            -0.650335431098938,
            0.5622900128364563,
            -0.6574731469154358,
            -0.5426020622253418,
            0.5320246815681458,
            0.47169220447540283,
            0.27700504660606384,
            0.13630108535289764,
            0.415689617395401,
            0.6236911416053772,
            -0.2665405869483948,
            0.4220775067806244,
            -0.46657130122184753,
            -0.33072003722190857,
            0.011169949546456337,
            -0.03485911339521408,
            0.9148081541061401,
            0.09445694833993912,
            -0.106149822473526,
            0.25328952074050903,
            0.19211935997009277,
            0.14760635793209076,
            0.3128507137298584,
            0.3082553744316101,
            0.0066232457756996155,
            0.0008142835577018559,
            0.06454527378082275,
            -0.2359984815120697,
            0.5814893841743469,
            -0.4579162299633026,
            -0.3050921857357025,
            0.013255988247692585,
            0.6441354155540466,
            0.2158253937959671,
            -0.6988653540611267,
            0.33486369252204895,
            -0.44962960481643677,
            -0.5101325511932373,
            -0.12199413776397705,
            0.13694389164447784,
            -0.6786438822746277,
            -0.2637595236301422,
            -0.1685764044523239,
            0.5268704295158386,
            -0.4812230169773102,
            -0.5750315189361572,
            0.6290852427482605,
            0.6432691216468811,
            0.057135459035634995,
            0.42515671253204346,
            -0.16278718411922455,
            -0.004788890480995178,
            -0.36403900384902954,
            0.26735496520996094,
            0.5712041258811951,
            0.13409508764743805,
            0.2317841649055481,
            0.42666521668434143,
            -0.07580041885375977,
            -0.2026209831237793,
            -0.7442178130149841,
            -0.290091335773468,
            0.00697352597489953,
            -0.0359593965113163,
            -0.34923577308654785,
            0.09685821831226349,
            0.3470667898654938,
            -0.4906250536441803,
            0.6525737643241882,
            -0.3346734941005707,
            0.13851091265678406,
            0.22078435122966766,
            0.230383038520813,
            -0.362071692943573,
            -0.636256754398346,
            0.21703505516052246,
            -0.09979575127363205,
            0.14437967538833618,
            -0.2997352182865143,
            0.16022703051567078,
            -0.17353102564811707,
            0.11988560855388641,
            -0.6029956936836243,
            0.2858498692512512,
            0.4822290241718292,
            -0.2521809935569763,
            0.3437891900539398,
            0.5119904279708862,
            0.8645532131195068,
            0.5781102776527405,
            0.4068400263786316,
            0.722457766532898,
            -0.06970727443695068,
            -0.31232956051826477,
            -0.2732035517692566,
            0.5106240510940552,
            -0.15346086025238037,
            -0.23402215540409088,
            -0.2956852912902832,
            -0.5564095377922058,
            0.09463870525360107,
            0.18397894501686096,
            0.48249831795692444,
            0.4888836443424225,
            -0.573553204536438,
            -0.01674903742969036,
            -0.4528521001338959,
            0.37712448835372925,
            1.256869912147522,
            0.702803373336792,
            -0.7781444787979126,
            0.033694613724946976,
            0.12925100326538086,
            0.031077716499567032,
            -0.22269350290298462,
            -0.5095765590667725,
            0.1273874044418335,
            -0.20118263363838196,
            0.1678425818681717,
            0.1762242466211319,
            -0.28363731503486633,
            -0.22274163365364075,
            0.3296884596347809,
            -0.2731344997882843,
            0.31942716240882874,
            -0.0841023251414299,
            -0.26263830065727234,
            0.5897966623306274,
            0.38242122530937195,
            0.007803227752447128,
            -0.38846883177757263,
            0.519390881061554,
            1.3069711923599243,
            0.22711338102817535,
            0.49518606066703796,
            -0.26215851306915283,
            -0.10080241411924362,
            -0.40598878264427185,
            -0.03585313633084297,
            -0.4666752815246582,
            0.15248146653175354,
            -0.326337069272995,
            0.10959941148757935,
            -0.3058900833129883,
            0.11819528043270111,
            0.11779994517564774,
            -0.0643167495727539,
            0.03616978973150253,
            -0.17921015620231628,
            0.23016279935836792,
            -0.19900085031986237,
            -0.1780843883752823,
            0.10452347248792648,
            -0.20839598774909973,
            -0.25888288021087646,
            0.10437819361686707,
            0.06354659795761108,
            -0.05236516892910004,
            -0.076651930809021,
            -0.20414948463439941,
            0.07461518049240112,
            -0.17334027588367462,
            -0.09838943183422089,
            -0.0005674511194229126,
            -0.20854409039020538,
            -0.12902504205703735,
            -0.14573368430137634,
            0.08677338808774948,
            -0.03865031525492668,
            0.09330745041370392,
            -0.11850538849830627,
            -0.18603883683681488,
            -1.040208101272583,
            0.10588931292295456,
            -0.0323563888669014,
            -0.2036973088979721,
            0.04350414499640465,
            -0.0028013132978230715,
            -0.07202531397342682,
            -0.07899463176727295,
            -0.36495229601860046,
            0.11809290200471878,
            -0.1848745346069336,
            0.040758561342954636,
            -0.1933072805404663,
            0.10159918665885925,
            0.07338900119066238,
            -0.1249687522649765,
            -0.11630405485630035,
            0.14663192629814148,
            -0.0582316517829895,
            0.11508727073669434,
            -0.3174973130226135,
            0.19624705612659454,
            -0.11931155622005463,
            -0.194845050573349,
            -0.6124406456947327,
            0.3338540494441986,
            -0.07912403345108032,
            0.007957658730447292,
            0.2045404016971588,
            0.07956132292747498,
            0.42383116483688354
        ]
    }
}