{
    "num_epochs": 20000,
    "batch_size": 1000,
    "final_loss": 5.558846950531006,
    "train_data_exp_dir_path": "data/scp_train_data_non_norm",
    "encoder": {
        "num_inputs": 2,
        "num_outputs": 2,
        "num_hidden_layers": 1,
        "neurons_per_hidden_layer": 64,
        "hidden_layer_activation_function": "relu",
        "final_layer_activation_function": null,
        "bias": true,
        "weights": [
            -0.499475359916687,
            -0.6232397556304932,
            0.3634095788002014,
            -0.18046337366104126,
            0.3104211688041687,
            -0.23647668957710266,
            -0.34404194355010986,
            -0.6299095153808594,
            0.1946951448917389,
            -0.008596209809184074,
            -0.43498706817626953,
            0.49385881423950195,
            0.7021231055259705,
            -0.2598899304866791,
            -0.16021795570850372,
            0.6847738027572632,
            0.5451745390892029,
            0.13121558725833893,
            -0.24773216247558594,
            0.5061846971511841,
            -0.3379848599433899,
            0.5519602298736572,
            0.15821892023086548,
            -0.16397738456726074,
            0.5718141198158264,
            -0.5133025050163269,
            0.19319337606430054,
            -0.2612472474575043,
            0.46344223618507385,
            0.5041722655296326,
            0.0085640549659729,
            -0.558361291885376,
            -0.6247104406356812,
            -0.1946600079536438,
            0.4980248510837555,
            0.3007384240627289,
            -0.5529313087463379,
            0.24874550104141235,
            -0.27185314893722534,
            -0.6264339685440063,
            -0.43177759647369385,
            0.16876330971717834,
            0.9477502107620239,
            0.047636426985263824,
            0.10890527814626694,
            0.23722295463085175,
            0.1424274891614914,
            0.553611159324646,
            -0.2275722771883011,
            0.2931276261806488,
            -0.3957725167274475,
            -0.08360490202903748,
            -0.5198920965194702,
            -0.40490037202835083,
            0.07015639543533325,
            0.2896851897239685,
            -0.26431453227996826,
            0.6256924271583557,
            0.6863971948623657,
            0.33696579933166504,
            -0.6064619421958923,
            -0.6232978701591492,
            -0.29163649678230286,
            0.3172498643398285,
            0.02175585925579071,
            0.007004987448453903,
            0.2019580602645874,
            -0.6147360801696777,
            0.1340201497077942,
            -0.29531294107437134,
            -0.0045510404743254185,
            0.3769066035747528,
            0.08875149488449097,
            -0.5431599020957947,
            -0.24325594305992126,
            0.66634601354599,
            0.05897962674498558,
            0.03268739953637123,
            0.22259627282619476,
            0.2674148976802826,
            -0.2438591867685318,
            0.2619151175022125,
            0.5103080868721008,
            -0.10079306364059448,
            -0.24248391389846802,
            0.35952228307724,
            0.0769534632563591,
            0.4807014763355255,
            -0.3103400766849518,
            0.3096722662448883,
            -0.2683418095111847,
            0.34670203924179077,
            -0.25560471415519714,
            0.3506092131137848,
            -0.6056690216064453,
            0.26748040318489075,
            0.4089760184288025,
            -0.36967092752456665,
            -0.5786439180374146,
            0.6057630181312561,
            -0.48193109035491943,
            -0.20308458805084229,
            -0.3404049873352051,
            -0.5848079323768616,
            0.4419838786125183,
            -0.1456877589225769,
            0.22032520174980164,
            0.1261085867881775,
            -0.2999609112739563,
            0.2976072132587433,
            -0.18235085904598236,
            0.21269088983535767,
            0.06437599658966064,
            -0.6624347567558289,
            -0.5064694285392761,
            0.23330989480018616,
            -0.07592611014842987,
            0.5445549488067627,
            0.3958285450935364,
            -0.6768330335617065,
            0.39088746905326843,
            0.06136143207550049,
            0.22869932651519775,
            -0.17318224906921387,
            -0.5547518134117126,
            -0.141356959939003,
            0.09485890716314316,
            0.2853521406650543,
            -0.17440170049667358,
            -0.5596676468849182,
            0.5685253739356995,
            -0.17276042699813843,
            -0.07730887830257416,
            0.22864599525928497,
            0.629052460193634,
            0.7441838979721069,
            -0.6414694786071777,
            -0.6013098359107971,
            0.04902799054980278,
            -0.6662276387214661,
            -0.34110715985298157,
            0.18695777654647827,
            -0.5854945182800293,
            0.03301882743835449,
            0.10904401540756226,
            0.19237206876277924,
            -0.31625330448150635,
            0.3147810101509094,
            0.5855535864830017,
            -0.22368070483207703,
            0.47538384795188904,
            0.10504688322544098,
            -0.15704549849033356,
            -0.01154056005179882,
            -0.6096570491790771,
            0.3810698091983795,
            -0.22415485978126526,
            0.49537044763565063,
            0.5232658982276917,
            0.18759769201278687,
            0.652316153049469,
            -0.5517616868019104,
            -0.6295756101608276,
            -0.14907896518707275,
            0.2645643353462219,
            -0.07691532373428345,
            -0.8290035128593445,
            -0.0370052196085453,
            0.09118540585041046,
            -0.1915411353111267,
            -0.29105955362319946,
            -0.8646586537361145,
            0.23814214766025543,
            -1.0608999729156494,
            0.2666192948818207,
            0.1980086714029312,
            -0.2159760296344757,
            -0.8281700611114502,
            0.08725327253341675,
            -0.20601826906204224,
            -0.6158125400543213,
            0.5295282006263733,
            -0.4535209834575653,
            -0.17103666067123413,
            0.6773237586021423,
            -0.21993722021579742,
            -0.17259520292282104,
            0.45738834142684937,
            0.5546479821205139,
            -0.2655378580093384,
            0.4393691122531891,
            0.00985146313905716,
            0.08061440289020538,
            0.08042250573635101,
            -0.11523182690143585,
            -0.04848413169384003,
            0.08877106010913849,
            -0.06284414231777191,
            -0.06534631550312042,
            0.08092847466468811,
            -0.03738817572593689,
            0.07325413078069687,
            -0.04880784824490547,
            -0.04123254120349884,
            0.1066460907459259,
            -0.07754844427108765,
            -0.022892815992236137,
            -0.0696820616722107,
            0.05321550369262695,
            0.05773306265473366,
            0.051534831523895264,
            0.06085804104804993,
            -0.2438143789768219,
            0.09437566995620728,
            -0.08497354388237,
            -0.06907127797603607,
            0.0555754192173481,
            -0.06627383083105087,
            0.0791916698217392,
            0.03335389867424965,
            0.09812220931053162,
            0.08682262152433395,
            -0.06849518418312073,
            0.07493214309215546,
            0.06807068735361099,
            0.0013178437948226929,
            -0.08226515352725983,
            -0.03793471306562424,
            0.03141108155250549,
            -0.10347156971693039,
            0.028453268110752106,
            0.07991661876440048,
            0.0059424275532364845,
            0.05314972996711731,
            -0.10308219492435455,
            0.03265487402677536,
            0.10839039087295532,
            0.0721641406416893,
            0.06190619245171547,
            -0.1143217608332634,
            -0.09421597421169281,
            0.036530010402202606,
            -0.04915952682495117,
            -0.03176407516002655,
            -0.1223810464143753,
            -0.06874411553144455,
            0.026673337444663048,
            0.012440248392522335,
            0.05688485503196716,
            -0.12073241919279099,
            -0.10276264697313309,
            -0.10332842171192169,
            -0.015151445753872395,
            0.039881736040115356,
            0.08142947405576706,
            -0.05238429084420204,
            0.09153038263320923,
            0.06252753734588623,
            0.015682101249694824,
            0.048288166522979736,
            -0.021215839311480522,
            0.03720143809914589,
            -0.008022665977478027,
            0.09976004809141159,
            -0.10182078182697296,
            0.006312682759016752,
            -0.08453824371099472,
            -0.052822962403297424,
            -0.013744726777076721,
            0.04310111701488495,
            0.007414148189127445,
            0.09138047695159912,
            -0.00038820505142211914,
            -0.1224299818277359,
            -0.04111805930733681,
            0.08477623760700226,
            0.24922581017017365,
            -0.034966081380844116,
            0.11309687793254852,
            -0.08095128834247589,
            -0.07292240113019943,
            -0.050947584211826324,
            0.035190775990486145,
            0.11917285621166229,
            0.08656631410121918,
            0.019886182621121407,
            0.03259590268135071,
            0.05335744097828865,
            0.09576063603162766,
            -0.052404388785362244,
            0.10356518626213074,
            -0.12488068640232086,
            0.03358294069766998,
            0.10880488157272339,
            -0.0809539258480072,
            -0.09493696689605713,
            0.05919904261827469,
            -0.033722832798957825,
            0.04100747033953667,
            -0.05939871445298195,
            -0.08178793638944626,
            -0.1134178563952446,
            0.07618068158626556,
            -0.03307332471013069,
            0.007940039038658142,
            -0.12592998147010803,
            0.07593734562397003,
            0.04684959352016449,
            0.02357494831085205,
            0.03080313466489315,
            -0.0903673842549324,
            0.10797175019979477,
            0.09340846538543701,
            -0.012734788469970226,
            -0.09486938267946243,
            -0.06832821667194366,
            0.10894405841827393,
            0.08482988178730011,
            -0.00678239855915308,
            -0.07552417367696762,
            -0.019353380426764488,
            0.3701056241989136
        ]
    },
    "decoder": {
        "num_inputs": 2,
        "num_outputs": 2,
        "num_hidden_layers": 1,
        "neurons_per_hidden_layer": 64,
        "hidden_layer_activation_function": "relu",
        "final_layer_activation_function": null,
        "bias": true,
        "weights": [
            -0.4158915877342224,
            -0.617473840713501,
            -0.557288408279419,
            0.5866090655326843,
            -0.7933939695358276,
            0.3253251016139984,
            1.077475666999817,
            -0.017854325473308563,
            0.9120820164680481,
            -1.2087575197219849,
            0.6000244617462158,
            -0.2649342715740204,
            1.29807448387146,
            -0.4684293568134308,
            0.9674372673034668,
            0.9837422966957092,
            0.6797434091567993,
            -0.7006329298019409,
            -0.7856556177139282,
            0.8095609545707703,
            1.6571789979934692,
            0.012513183988630772,
            0.7809359431266785,
            0.2318800836801529,
            0.2456725388765335,
            -0.18008297681808472,
            -0.10391782224178314,
            -0.3556806743144989,
            0.9442189931869507,
            -0.33462733030319214,
            0.6576239466667175,
            -0.6904350519180298,
            -0.45839205384254456,
            0.16615590453147888,
            0.5121377110481262,
            0.25549837946891785,
            -0.2530549168586731,
            0.2431054413318634,
            0.6093961596488953,
            -1.1112854480743408,
            1.551683783531189,
            -0.2270352989435196,
            -1.1731494665145874,
            1.2326641082763672,
            -1.2350419759750366,
            1.4869991540908813,
            0.7727536559104919,
            -0.738690197467804,
            1.29384446144104,
            -0.7243164777755737,
            -0.3102509677410126,
            0.037481650710105896,
            1.2130261659622192,
            0.08944903314113617,
            1.5933970212936401,
            0.2555576264858246,
            1.506033182144165,
            0.1127266064286232,
            -0.997306227684021,
            0.40632787346839905,
            -0.6951145529747009,
            0.6471204161643982,
            1.6980496644973755,
            -0.5470512509346008,
            1.109768271446228,
            -0.6194603443145752,
            0.9242587685585022,
            -0.30474379658699036,
            -1.1168808937072754,
            0.3036462962627411,
            -0.8411175012588501,
            0.7800114750862122,
            1.6462310552597046,
            0.9665579199790955,
            1.2337602376937866,
            1.4398497343063354,
            -0.6770687699317932,
            0.7790661454200745,
            1.849927306175232,
            -0.1503562331199646,
            0.7367585301399231,
            -0.4205986559391022,
            1.0398253202438354,
            -0.5224411487579346,
            0.7875892519950867,
            -0.6593367457389832,
            0.8855170607566833,
            1.4428538084030151,
            1.1079860925674438,
            -1.131901741027832,
            0.35555434226989746,
            -0.3527859151363373,
            0.8967283368110657,
            -0.19517241418361664,
            0.31300267577171326,
            0.12624871730804443,
            1.1700549125671387,
            -0.2779003381729126,
            -0.7249591946601868,
            0.7528640627861023,
            0.9130927920341492,
            -1.0303758382797241,
            0.95442134141922,
            -0.5887358784675598,
            -1.0231000185012817,
            1.1090996265411377,
            0.04814811050891876,
            -0.7375259399414062,
            0.3630540370941162,
            -0.26980188488960266,
            -0.9750971794128418,
            0.9906309247016907,
            2.092900514602661,
            0.16945306956768036,
            1.5877535343170166,
            0.19374419748783112,
            0.618864893913269,
            -1.1008453369140625,
            -0.4799332022666931,
            0.03698068484663963,
            0.3523002564907074,
            -0.9786267876625061,
            -0.6104852557182312,
            0.6388702392578125,
            0.576888382434845,
            -0.31280845403671265,
            -0.15325932204723358,
            0.5435075163841248,
            0.917147696018219,
            -0.5350988507270813,
            0.04773099720478058,
            1.391770601272583,
            -0.14140309393405914,
            1.4115941524505615,
            2.032498359680176,
            1.2858047485351562,
            1.860577940940857,
            -0.7293775081634521,
            2.880465030670166,
            1.0417022705078125,
            1.3714206218719482,
            1.219871163368225,
            1.0962780714035034,
            0.9434680342674255,
            -0.33623793721199036,
            1.4676555395126343,
            -0.674923300743103,
            0.04610263183712959,
            1.8992218971252441,
            -0.5126197338104248,
            -0.7364012002944946,
            0.9909195303916931,
            0.5115782618522644,
            -0.37832027673721313,
            2.4847300052642822,
            2.7802176475524902,
            2.5856454372406006,
            0.06626119464635849,
            -0.8887651562690735,
            1.5588356256484985,
            0.8141414523124695,
            1.2173724174499512,
            -0.08954762667417526,
            -1.0693306922912598,
            1.2479275465011597,
            0.2707756459712982,
            -0.36666834354400635,
            2.0382938385009766,
            0.7975940704345703,
            1.1885414123535156,
            0.4802483022212982,
            0.24206550419330597,
            0.6562190651893616,
            0.9464544057846069,
            0.6755053400993347,
            1.0892993211746216,
            0.47750526666641235,
            -0.6846105456352234,
            0.4116553068161011,
            1.0460916757583618,
            -0.4839535057544708,
            0.777042806148529,
            0.3096548318862915,
            -0.8853275179862976,
            2.0423662662506104,
            1.4785085916519165,
            0.026051055639982224,
            -0.6940752267837524,
            0.18623396754264832,
            -0.5833485126495361,
            1.201296091079712,
            1.3771626949310303,
            -0.8755614161491394,
            3.1655335426330566,
            -0.6536248922348022,
            -0.20591706037521362,
            1.2537736892700195,
            0.2645896375179291,
            -0.2564544677734375,
            0.7185465097427368,
            0.07931184768676758,
            3.184462070465088,
            -0.3526150584220886,
            0.3752388656139374,
            0.21156203746795654,
            0.06708692759275436,
            -0.12514165043830872,
            -0.11978329718112946,
            0.217859148979187,
            0.347213476896286,
            -0.06367688626050949,
            1.067103385925293,
            -0.08863691985607147,
            -1.9836463928222656,
            -2.6744508743286133,
            -0.11937836557626724,
            -0.11378468573093414,
            0.01406020112335682,
            0.5754860043525696,
            0.1645241230726242,
            0.1675364226102829,
            -1.0106256008148193,
            -2.773892641067505,
            -0.3065047264099121,
            -0.01958882249891758,
            0.19890999794006348,
            0.9078636169433594,
            -2.7626969814300537,
            -0.21873106062412262,
            -1.9103866815567017,
            -1.8410487174987793,
            -0.3602667450904846,
            0.06338117271661758,
            0.07292426377534866,
            -0.052623212337493896,
            -1.374049425125122,
            -0.18200159072875977,
            -0.4826429784297943,
            0.1651260256767273,
            0.20266403257846832,
            -0.5492733716964722,
            2.670318126678467,
            -0.7400063276290894,
            0.11261887848377228,
            -1.7450495958328247,
            -0.3706507384777069,
            -0.11083044856786728,
            2.5884616374969482,
            -0.19963595271110535,
            0.02515566535294056,
            0.9044413566589355,
            -0.021685399115085602,
            0.9265674352645874,
            3.073976993560791,
            0.12060966342687607,
            0.6205973029136658,
            0.2989630103111267,
            -1.014416217803955,
            -0.009236164391040802,
            0.9535134434700012,
            -0.0842621847987175,
            0.44712841510772705,
            0.8675568699836731,
            1.7179367542266846,
            0.32741695642471313,
            -0.44776859879493713,
            1.7032476663589478,
            0.5822840929031372,
            0.4935276210308075,
            0.40039873123168945,
            0.6395204067230225,
            0.2867874205112457,
            0.03565606474876404,
            0.3293784558773041,
            0.0841461718082428,
            0.12420494854450226,
            1.2138646841049194,
            -0.1151006668806076,
            0.1196088045835495,
            0.2112167328596115,
            0.2560723125934601,
            0.09124325215816498,
            1.4617408514022827,
            1.7699722051620483,
            1.7502415180206299,
            0.08111599832773209,
            -0.1973455548286438,
            1.0350855588912964,
            0.3838711082935333,
            0.36798903346061707,
            0.14705756306648254,
            -0.03665338084101677,
            1.6107555627822876,
            0.5244314670562744,
            -0.16643908619880676,
            1.4062573909759521,
            0.41205403208732605,
            0.40946128964424133,
            0.2864179015159607,
            -0.09850609302520752,
            0.3059592843055725,
            0.5988081097602844,
            0.4880375266075134,
            0.34099510312080383,
            0.8492955565452576,
            0.09762641042470932,
            0.3191366195678711,
            0.39635786414146423,
            -0.05940859764814377,
            0.15709255635738373,
            0.1020669937133789,
            0.010139492340385914,
            1.4431191682815552,
            1.8727850914001465,
            -0.012613239698112011,
            -0.10191994905471802,
            0.2014678716659546,
            -0.14461460709571838,
            0.40711838006973267,
            0.6739321947097778,
            0.37071850895881653,
            0.5418989658355713
        ]
    }
}