{
    "num_epochs": 20000,
    "batch_size": 1000,
    "final_loss": 5.765649318695068,
    "train_data_exp_dir_path": "data/scp_train_data_non_norm",
    "encoder": {
        "num_inputs": 2,
        "num_outputs": 2,
        "num_hidden_layers": 1,
        "neurons_per_hidden_layer": 64,
        "hidden_layer_activation_function": "relu",
        "final_layer_activation_function": null,
        "bias": true,
        "weights": [
            -0.5879376530647278,
            0.10794205218553543,
            -0.36112362146377563,
            -0.6622369289398193,
            -0.6452990770339966,
            -0.6370667219161987,
            -0.24913212656974792,
            -0.5470662713050842,
            -0.6319783926010132,
            0.15847857296466827,
            -0.541115403175354,
            -0.13591618835926056,
            0.666888415813446,
            -0.6435526609420776,
            -0.016384482383728027,
            -0.17434972524642944,
            0.534381091594696,
            -0.6596307158470154,
            -0.6161571741104126,
            0.2728709876537323,
            -0.2124195545911789,
            0.4332333207130432,
            -0.5468530654907227,
            0.35130372643470764,
            -0.07064566761255264,
            0.01999330334365368,
            -0.06506535410881042,
            0.46117162704467773,
            0.3725777268409729,
            -0.6204790472984314,
            0.2948167026042938,
            0.09541356563568115,
            0.679722785949707,
            0.1520591825246811,
            -0.5637155175209045,
            0.6631933450698853,
            -0.5969220399856567,
            0.28569817543029785,
            -0.33265620470046997,
            -0.4312821328639984,
            -0.3460370898246765,
            -0.4545046091079712,
            -0.5676496624946594,
            -0.5622140765190125,
            0.36666226387023926,
            0.5166094899177551,
            0.5146613717079163,
            0.3888518512248993,
            -0.24514275789260864,
            -0.301620215177536,
            -0.14726412296295166,
            -0.5764389634132385,
            -0.14373695850372314,
            -0.03675442934036255,
            -0.1578739434480667,
            0.4707058072090149,
            -0.17877404391765594,
            0.14434878528118134,
            -0.34767454862594604,
            0.06250309199094772,
            0.5653749108314514,
            -0.5135043859481812,
            -0.6292908191680908,
            0.06948215514421463,
            0.6672986149787903,
            -0.5336323976516724,
            -0.22125524282455444,
            0.20315510034561157,
            -0.3472404181957245,
            0.5612258315086365,
            -0.2601148188114166,
            0.37956130504608154,
            0.42025601863861084,
            0.6359079480171204,
            -0.6520344018936157,
            -0.22012656927108765,
            0.351634681224823,
            -0.25855565071105957,
            -0.528792142868042,
            -0.33138135075569153,
            0.4435964524745941,
            0.10325346887111664,
            0.2729310989379883,
            0.5678906440734863,
            -0.2232811152935028,
            -0.6429139375686646,
            -0.35467228293418884,
            0.6073223948478699,
            0.26507219672203064,
            0.2642274498939514,
            -0.0018997739534825087,
            0.010296805761754513,
            0.03178393840789795,
            -0.4907286465167999,
            0.6088832020759583,
            0.20104336738586426,
            0.28026750683784485,
            0.6996406316757202,
            0.2695990800857544,
            -0.05800950527191162,
            -0.17399340867996216,
            -0.18725311756134033,
            -0.4357947111129761,
            0.22177556157112122,
            0.11292501538991928,
            0.4267037510871887,
            -0.6988888382911682,
            0.08105488866567612,
            -0.0851585641503334,
            0.06051260232925415,
            0.27918559312820435,
            0.6185956597328186,
            0.3211992383003235,
            -0.012618238106369972,
            0.16590464115142822,
            -0.5844327807426453,
            0.3273342251777649,
            -0.15628987550735474,
            -0.32601219415664673,
            -0.21938419342041016,
            -0.1524091362953186,
            -0.5468010902404785,
            0.73707115650177,
            0.523345947265625,
            -0.3654213547706604,
            0.2467915117740631,
            -0.7271910905838013,
            0.645190954208374,
            0.8616849780082703,
            0.3979117274284363,
            0.19578039646148682,
            0.11663252115249634,
            -0.743395209312439,
            -0.08713288605213165,
            0.12083065509796143,
            -0.279180645942688,
            0.1923251748085022,
            -0.5741611123085022,
            0.8688703775405884,
            -0.01889454945921898,
            0.1719551533460617,
            0.5472724437713623,
            0.4166944622993469,
            0.3869140148162842,
            -0.8918346166610718,
            0.5459510087966919,
            0.3760508894920349,
            0.14549410343170166,
            -0.5545107126235962,
            -0.6348893046379089,
            -0.49631068110466003,
            -0.08993428945541382,
            0.0034332871437072754,
            0.22889643907546997,
            -0.6360304951667786,
            -0.7356681823730469,
            0.03470343351364136,
            0.6758452653884888,
            -0.6577298045158386,
            -0.3165756165981293,
            0.041401684284210205,
            0.3729674220085144,
            -0.8021631836891174,
            0.3836858868598938,
            0.09085360914468765,
            -0.4462215006351471,
            0.49488312005996704,
            0.5252702832221985,
            0.36207059025764465,
            -0.09615453332662582,
            -0.5588668584823608,
            0.3844366669654846,
            0.2531430125236511,
            -0.4085613191127777,
            -0.5325679779052734,
            -0.3486311137676239,
            -0.3264142572879791,
            0.3340446352958679,
            -0.07157444953918457,
            -0.03149731457233429,
            -0.19984732568264008,
            0.4710860848426819,
            -0.37865695357322693,
            -0.01832525059580803,
            -0.24635329842567444,
            -0.29160863161087036,
            0.32769614458084106,
            -0.13962823152542114,
            0.5915594696998596,
            0.29532110691070557,
            0.189727321267128,
            0.4402485191822052,
            0.04040263220667839,
            -0.08192650973796844,
            0.09541404247283936,
            -0.06089398264884949,
            -0.07709260284900665,
            0.01598392426967621,
            0.06043316423892975,
            -0.0004962235689163208,
            -0.05841720104217529,
            0.05046997591853142,
            0.09817662835121155,
            0.02737470343708992,
            -0.13363543152809143,
            -0.1301693618297577,
            -0.053068533539772034,
            0.1347808837890625,
            0.11854183673858643,
            0.00027045048773288727,
            0.004862876608967781,
            -0.11449496448040009,
            -0.04961062967777252,
            0.0808425098657608,
            -0.02224399521946907,
            -0.015298709273338318,
            -0.12460348010063171,
            -0.07462954521179199,
            0.06583572924137115,
            0.09703286737203598,
            -0.03382284939289093,
            -0.10095170140266418,
            0.046933114528656006,
            -0.062433548271656036,
            0.00016456842422485352,
            -0.1145176962018013,
            -0.12231363356113434,
            0.04692362993955612,
            0.07420261949300766,
            -0.057465001940727234,
            0.10394084453582764,
            -0.1184830516576767,
            0.015358740463852882,
            0.07989723980426788,
            0.056866541504859924,
            0.04106040671467781,
            -0.003932974301278591,
            -0.04096619039773941,
            0.0025134682655334473,
            0.04679654538631439,
            -0.08655168861150742,
            -0.012748390436172485,
            0.09426921606063843,
            0.0065253800712525845,
            -0.07179544121026993,
            -0.10614949464797974,
            -0.05522516369819641,
            -0.06576572358608246,
            -0.04793038219213486,
            0.014712482690811157,
            0.04792347550392151,
            -0.06348156929016113,
            -0.022003740072250366,
            0.00446475762873888,
            0.025327159091830254,
            -0.07016603648662567,
            0.034286901354789734,
            0.0678657591342926,
            -0.07655349373817444,
            0.015745535492897034,
            -0.0409599170088768,
            -0.07478388398885727,
            0.03680139780044556,
            0.011675804853439331,
            -0.05794800817966461,
            -0.04766751453280449,
            0.11875896155834198,
            -0.08919750899076462,
            0.12985222041606903,
            0.022912226617336273,
            0.04716576635837555,
            -0.04341205582022667,
            -0.03711709380149841,
            0.022553108632564545,
            0.018527861684560776,
            0.09308616816997528,
            -0.12359361350536346,
            0.09076181054115295,
            -0.013968853279948235,
            0.009867800399661064,
            0.06075093150138855,
            -0.045626357197761536,
            0.04976701736450195,
            -0.09457472711801529,
            -0.0068244319409132,
            0.06478732824325562,
            0.11278782784938812,
            -0.04245144873857498,
            0.07648773491382599,
            0.12813444435596466,
            -0.09861589223146439,
            -0.022730495780706406,
            0.010339608415961266,
            0.05592639744281769,
            0.03173062205314636,
            0.1169576644897461,
            -0.039849258959293365,
            0.09767511487007141,
            0.11023315787315369,
            0.06553533673286438,
            -0.040586281567811966,
            -0.13262715935707092,
            0.0706285685300827,
            -0.06364790350198746,
            -0.08517161011695862,
            -0.03637295961380005,
            -0.12369249761104584,
            0.000650260248221457,
            -0.03564341738820076,
            0.02313178777694702,
            -0.07913436740636826,
            0.09516917169094086,
            0.022498684003949165,
            0.12292522192001343,
            -0.08630019426345825,
            -0.06906014680862427,
            0.1227099746465683,
            -0.08367369323968887,
            -0.07121502608060837,
            0.05284683406352997,
            -0.03676125407218933,
            0.34984371066093445
        ]
    },
    "decoder": {
        "num_inputs": 2,
        "num_outputs": 2,
        "num_hidden_layers": 1,
        "neurons_per_hidden_layer": 64,
        "hidden_layer_activation_function": "relu",
        "final_layer_activation_function": null,
        "bias": true,
        "weights": [
            -0.5706391334533691,
            0.5647871494293213,
            -0.5507326722145081,
            -0.9457289576530457,
            -0.4618578255176544,
            -0.49150657653808594,
            -0.4574263095855713,
            -1.1590768098831177,
            0.12684816122055054,
            1.5232226848602295,
            -0.3643946051597595,
            0.45174089074134827,
            0.12582992017269135,
            -1.6754509210586548,
            0.7363243699073792,
            -0.7644030451774597,
            -0.5017557740211487,
            -0.7496848702430725,
            -0.6596794128417969,
            -0.7140834927558899,
            0.39698103070259094,
            -1.3829554319381714,
            -0.962457537651062,
            0.9002028703689575,
            -0.791089653968811,
            -0.8710018992424011,
            -0.3099178373813629,
            -1.2566838264465332,
            -0.14974777400493622,
            0.4073578417301178,
            0.8179258108139038,
            -1.0851469039916992,
            1.7961504459381104,
            1.123734712600708,
            -0.396450936794281,
            -1.0455244779586792,
            -0.1631501317024231,
            0.34695401787757874,
            -0.4637625217437744,
            1.9418606758117676,
            -0.5028856992721558,
            -1.0424352884292603,
            -0.24037261307239532,
            -1.071676254272461,
            1.0925439596176147,
            1.0812864303588867,
            -0.5079501271247864,
            0.3469061851501465,
            -0.40449896454811096,
            -1.443402647972107,
            0.5977022647857666,
            0.2294614464044571,
            -0.6877985000610352,
            -0.9235792756080627,
            -0.7169853448867798,
            0.598519504070282,
            -0.16889916360378265,
            0.2873689532279968,
            0.8824856281280518,
            -1.1649036407470703,
            -0.8470927476882935,
            0.5873648524284363,
            0.18485133349895477,
            -1.6574970483779907,
            0.27192604541778564,
            -0.9278015494346619,
            -0.5085301399230957,
            -1.298009991645813,
            -0.5834794044494629,
            -1.3350751399993896,
            0.8819296956062317,
            0.8145266175270081,
            -0.43466728925704956,
            -1.6215565204620361,
            0.29400062561035156,
            0.47407686710357666,
            0.6989535093307495,
            -1.0768595933914185,
            -0.39096778631210327,
            -1.3022122383117676,
            -0.7101287841796875,
            1.1726453304290771,
            0.6882324814796448,
            -0.8486385941505432,
            0.967317521572113,
            0.8035048842430115,
            -0.6872843503952026,
            -1.1095486879348755,
            -0.33702486753463745,
            -1.5004504919052124,
            -0.22829128801822662,
            -1.3328994512557983,
            -0.6080220341682434,
            -1.2936638593673706,
            0.8623142838478088,
            0.8910430073738098,
            0.5936620235443115,
            -1.2621307373046875,
            -0.5383695960044861,
            0.5000109672546387,
            -0.39619454741477966,
            -1.1801353693008423,
            -0.041817255318164825,
            -1.2874195575714111,
            0.023753948509693146,
            -0.9736897945404053,
            -0.8310408592224121,
            0.6993605494499207,
            -0.2355748862028122,
            -1.2878419160842896,
            -0.0809703916311264,
            -1.6262775659561157,
            0.11799391359090805,
            -1.589054822921753,
            -0.2291753590106964,
            0.3892122805118561,
            -0.5443091988563538,
            -0.8887065052986145,
            0.5100486874580383,
            -1.3687713146209717,
            0.8337106704711914,
            -0.4315800964832306,
            0.7441763877868652,
            -1.2198011875152588,
            1.0798866748809814,
            -0.6787518262863159,
            -0.40980640053749084,
            -0.42575469613075256,
            -0.10919705778360367,
            1.4931201934814453,
            1.1235477924346924,
            2.4745676517486572,
            0.01766284741461277,
            -0.6015325784683228,
            1.6258149147033691,
            1.7602399587631226,
            1.9161838293075562,
            1.5889172554016113,
            1.2310941219329834,
            -0.18167822062969208,
            0.7833999395370483,
            1.2944821119308472,
            -0.410209983587265,
            1.3817886114120483,
            0.26127010583877563,
            2.237358808517456,
            -0.5931527614593506,
            0.7422860264778137,
            1.4568684101104736,
            1.3263319730758667,
            -0.3191640377044678,
            -0.30164584517478943,
            1.9307767152786255,
            1.7155252695083618,
            1.954094648361206,
            -0.14693297445774078,
            0.9924667477607727,
            1.64393949508667,
            -0.19184894859790802,
            1.9908939599990845,
            1.400275468826294,
            1.7601004838943481,
            2.469752311706543,
            -0.2919398844242096,
            1.0960938930511475,
            -0.6138021349906921,
            1.9744617938995361,
            1.2102972269058228,
            -0.0637352243065834,
            1.4239321947097778,
            -0.37073132395744324,
            1.696657419204712,
            2.530580520629883,
            1.9734852313995361,
            1.0440354347229004,
            -0.8894097208976746,
            2.0954933166503906,
            -0.58201003074646,
            1.9073460102081299,
            1.253143310546875,
            2.1071739196777344,
            -0.16654805839061737,
            1.4907336235046387,
            1.6571766138076782,
            2.0062878131866455,
            -0.47427523136138916,
            1.424583911895752,
            1.691575288772583,
            1.9627782106399536,
            2.5228404998779297,
            0.5473664999008179,
            1.014382004737854,
            -1.8281642198562622,
            0.23525694012641907,
            0.23539184033870697,
            0.15559884905815125,
            -0.7935124635696411,
            0.0512184202671051,
            -0.02236037515103817,
            -0.4958178997039795,
            0.1769668310880661,
            0.02742740884423256,
            -0.45700034499168396,
            -1.1952682733535767,
            0.211552694439888,
            0.11361908167600632,
            0.03145904093980789,
            -0.5700263381004333,
            2.8850581645965576,
            0.15995654463768005,
            0.09565004706382751,
            1.8848426342010498,
            0.22386492788791656,
            0.20863030850887299,
            -2.4185216426849365,
            0.12401660531759262,
            0.14938460290431976,
            1.2018417119979858,
            0.06980794668197632,
            -0.7323035597801208,
            -0.32963424921035767,
            -0.5352734327316284,
            -0.8521986603736877,
            -0.13181596994400024,
            -0.7558422088623047,
            0.23269031941890717,
            0.058098204433918,
            -2.0889036655426025,
            0.08268263190984726,
            1.3571891784667969,
            -0.5070070028305054,
            0.1514643281698227,
            -1.410034418106079,
            -0.4428759515285492,
            -1.648520588874817,
            0.1330113559961319,
            0.274238258600235,
            0.2972096800804138,
            0.21777735650539398,
            2.6349356174468994,
            -0.47699975967407227,
            -0.04169382154941559,
            0.288688063621521,
            -0.01945328712463379,
            0.28056320548057556,
            -1.1398128271102905,
            0.3505856394767761,
            0.14517530798912048,
            -0.06953136622905731,
            -0.10358710587024689,
            0.2618911564350128,
            -0.6554975509643555,
            -0.33007556200027466,
            -0.6008415818214417,
            -1.234642744064331,
            0.12254758179187775,
            -0.11893025040626526,
            0.6555635929107666,
            0.48312604427337646,
            0.6943999528884888,
            -0.24004675447940826,
            0.19224567711353302,
            0.8122433423995972,
            0.7651617527008057,
            0.4910871386528015,
            0.6011826992034912,
            0.754540741443634,
            -0.03550275042653084,
            0.5699069499969482,
            0.43530118465423584,
            0.14162108302116394,
            0.7059342265129089,
            0.29888424277305603,
            0.7155194878578186,
            -0.024188309907913208,
            0.41975340247154236,
            0.5475106239318848,
            0.7876524329185486,
            -0.3293705880641937,
            -0.0991552397608757,
            0.7290705442428589,
            0.7495933771133423,
            0.6162042021751404,
            -0.12728913128376007,
            0.4731426239013672,
            0.7471193671226501,
            -0.17979203164577484,
            0.7654826641082764,
            1.093722939491272,
            0.650438129901886,
            0.6428002119064331,
            -0.22488635778427124,
            0.48604658246040344,
            -0.07798954099416733,
            0.8462556004524231,
            0.6664194464683533,
            -0.04637650400400162,
            0.8173220753669739,
            -0.25446879863739014,
            0.6768825054168701,
            0.7197727560997009,
            0.8184683322906494,
            0.5688547492027283,
            0.26853787899017334,
            0.8061317801475525,
            -0.019000299274921417,
            0.726445198059082,
            0.7813315987586975,
            0.9797408580780029,
            -0.15824900567531586,
            0.9650267958641052,
            0.7633888721466064,
            0.8320854306221008,
            0.07145767658948898,
            0.6686276197433472,
            0.8198615312576294,
            0.6813918948173523,
            0.9626818895339966,
            0.2835063636302948,
            0.47983744740486145,
            0.01531547587364912,
            0.715155303478241
        ]
    }
}