{
    "num_epochs": 20000,
    "batch_size": 1000,
    "final_loss": 5.036874294281006,
    "train_data_exp_dir_path": "data/scp_train_data_norm",
    "encoder": {
        "num_inputs": 2,
        "num_outputs": 2,
        "num_hidden_layers": 1,
        "neurons_per_hidden_layer": 64,
        "hidden_layer_activation_function": "relu",
        "final_layer_activation_function": null,
        "bias": true,
        "weights": [
            0.2432957887649536,
            -0.10062634944915771,
            0.3023274540901184,
            -0.3254524767398834,
            0.06643184274435043,
            0.38045448064804077,
            -0.17856308817863464,
            0.20969660580158234,
            -0.028316199779510498,
            -0.3531566858291626,
            -0.32268112897872925,
            0.43346497416496277,
            0.4325804114341736,
            -0.14108330011367798,
            0.3525542616844177,
            0.604012131690979,
            0.36667507886886597,
            -0.09901255369186401,
            -0.016213655471801758,
            -0.04356878995895386,
            -0.387757807970047,
            -0.24761483073234558,
            0.23225069046020508,
            0.3910455107688904,
            0.05906945466995239,
            -0.3597400486469269,
            -0.40727725625038147,
            -0.00979476235806942,
            -0.6823223233222961,
            -0.07428653538227081,
            0.2112947702407837,
            0.7600253820419312,
            -0.36669793725013733,
            0.11040458083152771,
            0.3158983290195465,
            0.5282925367355347,
            -0.08255929499864578,
            0.4906551241874695,
            0.7616895437240601,
            0.3152408301830292,
            0.07222896069288254,
            0.019645312801003456,
            -0.48767393827438354,
            0.5935436487197876,
            -0.09331946074962616,
            -0.15618999302387238,
            -0.39213594794273376,
            -0.17697851359844208,
            -0.6208030581474304,
            -0.2715977430343628,
            -0.4005630612373352,
            -0.26635369658470154,
            0.2058658003807068,
            -0.6195264458656311,
            -0.33873215317726135,
            -0.3695743680000305,
            0.7689122557640076,
            0.8594889044761658,
            -0.20536917448043823,
            -0.20335276424884796,
            0.3202472925186157,
            0.6685943603515625,
            0.38415151834487915,
            -0.5506947040557861,
            -0.5905745029449463,
            -0.48891234397888184,
            -0.6567580103874207,
            -0.06364915519952774,
            -0.2790642976760864,
            -0.47402238845825195,
            0.37479448318481445,
            0.622660756111145,
            0.6188147664070129,
            -0.33324864506721497,
            -0.11985114216804504,
            0.24286219477653503,
            0.6181569695472717,
            0.26334166526794434,
            0.11815550923347473,
            -0.07365188002586365,
            0.4405108094215393,
            -0.20422905683517456,
            -0.2502508759498596,
            0.3225833475589752,
            -0.09172586351633072,
            0.13287493586540222,
            -0.08144216984510422,
            0.6376543045043945,
            0.010266901925206184,
            0.015336518175899982,
            0.019664527848362923,
            0.22584949433803558,
            -0.6943785548210144,
            -0.0763368085026741,
            -0.035481203347444534,
            0.409631609916687,
            -0.13555005192756653,
            0.342978835105896,
            0.6764892935752869,
            -0.4264220893383026,
            0.4495471119880676,
            -0.40901103615760803,
            0.3720242381095886,
            -0.20083075761795044,
            -0.732201874256134,
            -0.5159202218055725,
            0.37877315282821655,
            -0.12703365087509155,
            -0.3894277811050415,
            -0.3857457935810089,
            -0.449077308177948,
            -0.502130389213562,
            -0.25679871439933777,
            -0.6075482368469238,
            0.09403157234191895,
            -0.6687214374542236,
            -0.6508352756500244,
            0.34980642795562744,
            0.213736891746521,
            -0.36775949597358704,
            0.01900908723473549,
            0.5166828036308289,
            -0.6424102187156677,
            -0.07902278751134872,
            -0.12191253900527954,
            -0.6578498482704163,
            -0.054368674755096436,
            -0.4511246979236603,
            -0.5192879438400269,
            0.6780927777290344,
            -0.8224712610244751,
            0.747173011302948,
            -0.14516985416412354,
            0.3483359217643738,
            -0.21651393175125122,
            -0.6942950487136841,
            0.1753062605857849,
            -0.30885496735572815,
            -0.0002991925284732133,
            0.13588331639766693,
            -0.07503098249435425,
            0.8499643206596375,
            0.1896803230047226,
            0.20091046392917633,
            -0.1001289039850235,
            0.8339053988456726,
            -0.33966028690338135,
            -0.13655789196491241,
            0.015061057172715664,
            -0.44562819600105286,
            -0.6663353443145752,
            -0.32871297001838684,
            0.08476540446281433,
            0.04978857561945915,
            0.5396018624305725,
            0.29611384868621826,
            0.6055771708488464,
            0.5408870577812195,
            0.02748570404946804,
            0.08735913038253784,
            -1.1043829917907715,
            0.9760083556175232,
            -0.18150970339775085,
            0.5852607488632202,
            -0.06352746486663818,
            -0.05143413320183754,
            -0.3891236484050751,
            1.8673137426376343,
            0.18466466665267944,
            -0.07212774455547333,
            0.9270012974739075,
            0.43319544196128845,
            0.15813671052455902,
            -0.5532153248786926,
            0.05234887823462486,
            -0.14417685568332672,
            -0.48766371607780457,
            -0.03695863485336304,
            -0.26076170802116394,
            0.616956889629364,
            -0.9257953763008118,
            -0.288539856672287,
            0.9266542196273804,
            -0.5049949884414673,
            -0.2835994064807892,
            0.1248931884765625,
            -0.36279919743537903,
            -0.3489640951156616,
            0.261395126581192,
            0.7723967432975769,
            -0.23541408777236938,
            -0.11411130428314209,
            -0.04699639976024628,
            0.09211583435535431,
            0.0648340955376625,
            -0.4131219685077667,
            -0.08238442242145538,
            -0.12231460958719254,
            -0.014670565724372864,
            -0.16193781793117523,
            0.009792059659957886,
            0.04810178279876709,
            -0.039231788367033005,
            -0.17916010320186615,
            -0.07075721025466919,
            -0.0407378114759922,
            0.045802172273397446,
            -0.08679304271936417,
            0.02109561488032341,
            -0.26603639125823975,
            -0.006316971033811569,
            0.08545349538326263,
            -0.08599396795034409,
            0.06867559999227524,
            0.0932692289352417,
            -0.07162120938301086,
            0.12436699867248535,
            -0.09359477460384369,
            0.11854107677936554,
            0.004689858295023441,
            -0.7505417466163635,
            0.12811248004436493,
            0.04379715770483017,
            -0.06208494305610657,
            -0.003334048902615905,
            -0.04028468579053879,
            0.06728635728359222,
            -0.05893194302916527,
            -0.0066735148429870605,
            -0.13012440502643585,
            -0.021930009126663208,
            1.2549511194229126,
            -0.05908633768558502,
            -0.0066076964139938354,
            -0.1673613339662552,
            -0.04233724996447563,
            -0.01823516935110092,
            -0.12158135324716568,
            0.015193761326372623,
            0.014291897416114807,
            0.0032460056245326996,
            0.11048763990402222,
            -0.04723884165287018,
            -0.033664509654045105,
            0.19491367042064667,
            -0.012289345264434814,
            -0.0396423414349556,
            0.14392293989658356,
            -0.041169777512550354,
            0.09080830216407776,
            0.008107292465865612,
            0.104204922914505,
            -0.026735521852970123,
            -0.10419032722711563,
            0.00818413496017456,
            0.005736693739891052,
            0.04110240936279297,
            -0.010541021823883057,
            0.13616134226322174,
            -0.1416969895362854,
            -0.030783608555793762,
            0.12552814185619354,
            0.03281740844249725,
            0.19899696111679077,
            0.08628813922405243,
            -0.11120109260082245,
            -0.01436986867338419,
            0.14995309710502625,
            -0.027259260416030884,
            -0.12192665040493011,
            0.009123186580836773,
            0.022810613736510277,
            -0.027111712843179703,
            -0.07679134607315063,
            0.12053167074918747,
            0.008000037632882595,
            0.08286844938993454,
            -0.1000075563788414,
            -0.07339902222156525,
            -0.048876289278268814,
            0.08197125047445297,
            0.010226240381598473,
            0.0754188746213913,
            0.07282967865467072,
            0.3162291944026947,
            0.11551424115896225,
            -0.009838863275945187,
            0.11497510969638824,
            -0.06434129923582077,
            -0.011477217078208923,
            -0.04345666617155075,
            0.10853874683380127,
            -0.03577929735183716,
            -0.041283976286649704,
            0.12266230583190918,
            -1.729303002357483,
            0.11932992935180664,
            -0.09934553503990173,
            -0.05142376199364662,
            0.11385699361562729,
            0.009229939430952072,
            0.1217861920595169,
            0.0398062989115715,
            -0.04619849845767021,
            0.12311374396085739,
            -0.025923117995262146,
            -0.07020232081413269,
            -0.021974176168441772,
            -0.14121705293655396,
            0.07878512144088745,
            0.12381988018751144,
            0.033669613301754,
            0.08800588548183441,
            0.027463257312774658,
            0.08077545464038849,
            0.062484338879585266,
            0.05753842741250992,
            0.11016491800546646,
            0.09851941466331482,
            -0.11556658148765564,
            -0.514365017414093,
            -0.0841456800699234
        ]
    },
    "decoder": {
        "num_inputs": 2,
        "num_outputs": 2,
        "num_hidden_layers": 1,
        "neurons_per_hidden_layer": 64,
        "hidden_layer_activation_function": "relu",
        "final_layer_activation_function": null,
        "bias": true,
        "weights": [
            -0.3467954397201538,
            2.0605530738830566,
            0.3269704580307007,
            -1.4068596363067627,
            -0.11267223209142685,
            2.5274174213409424,
            -0.30035078525543213,
            -0.44611603021621704,
            0.023386718705296516,
            -1.6193633079528809,
            -0.25986427068710327,
            1.983745813369751,
            -1.1582741737365723,
            1.666918158531189,
            -0.1781337559223175,
            1.9333083629608154,
            -0.15583857893943787,
            -0.4404938519001007,
            -0.39717721939086914,
            0.7616935968399048,
            0.10871127247810364,
            0.21317192912101746,
            0.05947320908308029,
            -1.6166857481002808,
            -1.1159194707870483,
            -0.21990244090557098,
            -0.13379281759262085,
            -1.0736199617385864,
            -0.03767168149352074,
            1.639306902885437,
            -0.5284426212310791,
            -0.9574500322341919,
            1.1769263744354248,
            -1.79566490650177,
            -0.3389146625995636,
            -0.42373427748680115,
            -0.17578324675559998,
            -1.4283584356307983,
            -0.09447499364614487,
            -0.7888222336769104,
            -0.7677158117294312,
            -1.0344958305358887,
            -0.3946649730205536,
            -0.8266899585723877,
            -0.4055187702178955,
            -0.994699239730835,
            -0.4273625612258911,
            -1.4424046277999878,
            -0.4967539310455322,
            -0.9068625569343567,
            0.01240455824881792,
            1.716336727142334,
            -0.21599559485912323,
            -0.948670506477356,
            -0.142019122838974,
            -0.5459350347518921,
            -0.8500024080276489,
            -0.32867974042892456,
            -0.2295118272304535,
            -0.3637550473213196,
            0.01821403205394745,
            -1.2998260259628296,
            -0.3380521237850189,
            -0.6536586284637451,
            -0.15189896523952484,
            -1.2698605060577393,
            0.015171363949775696,
            -1.784602403640747,
            -0.08936953544616699,
            2.4531023502349854,
            -0.1300273835659027,
            -0.2933191657066345,
            -0.9600905179977417,
            0.5390384793281555,
            -0.3103529214859009,
            1.5732388496398926,
            0.033587608486413956,
            -2.0165443420410156,
            -0.008258780464529991,
            -0.6099391579627991,
            1.1051777601242065,
            0.9534069895744324,
            0.32860392332077026,
            2.439136028289795,
            1.8288627862930298,
            -0.43094348907470703,
            1.2968658208847046,
            0.7373374700546265,
            0.27789953351020813,
            2.1353354454040527,
            1.0015212297439575,
            1.591444730758667,
            -0.008938259445130825,
            -1.435747742652893,
            -0.11451460421085358,
            -0.9189296960830688,
            -0.24398671090602875,
            -1.6578505039215088,
            -0.10250614583492279,
            -0.9772432446479797,
            -0.05695262923836708,
            -1.0001397132873535,
            -0.9781851172447205,
            0.6014090180397034,
            0.19531317055225372,
            -1.8591188192367554,
            0.3879564702510834,
            0.7604835629463196,
            -1.0460318326950073,
            -0.029268549755215645,
            -0.035136062651872635,
            1.7064917087554932,
            -0.27141615748405457,
            -0.378875195980072,
            0.34243321418762207,
            2.542224407196045,
            -0.9450554847717285,
            0.1603320688009262,
            -0.12695997953414917,
            -0.9976609349250793,
            -0.18395927548408508,
            -1.0366759300231934,
            -0.5729495286941528,
            -1.1817525625228882,
            0.3193828761577606,
            -1.8481833934783936,
            -0.3652110695838928,
            -0.6848647594451904,
            -0.8723431825637817,
            1.9065170288085938,
            1.105711817741394,
            0.4114995300769806,
            1.9237401485443115,
            -0.6766247749328613,
            -1.251301884651184,
            -0.546653151512146,
            0.7107878923416138,
            -1.0687938928604126,
            0.3194649815559387,
            1.9860576391220093,
            -0.04624411463737488,
            0.3372824490070343,
            -0.25500795245170593,
            0.36705446243286133,
            1.3662374019622803,
            -0.12970101833343506,
            0.4479365050792694,
            0.24260489642620087,
            1.0249885320663452,
            1.231514573097229,
            0.8947234749794006,
            0.6943232417106628,
            0.21136559545993805,
            -1.0681382417678833,
            0.7568921446800232,
            1.3554468154907227,
            0.2855844497680664,
            1.2891541719436646,
            1.700246810913086,
            -0.08505870401859283,
            0.4177979528903961,
            2.2409842014312744,
            -2.3005528450012207,
            1.2250893115997314,
            -1.8190176486968994,
            -0.7994104027748108,
            1.697141408920288,
            0.818449079990387,
            -0.8955167531967163,
            -0.9238405227661133,
            2.818964719772339,
            0.6508617997169495,
            -0.8617796301841736,
            1.0074430704116821,
            1.9934808015823364,
            0.309651643037796,
            0.9477836489677429,
            0.32288992404937744,
            0.8253868818283081,
            -0.946967363357544,
            1.6251647472381592,
            1.1604758501052856,
            0.13947568833827972,
            -0.26533013582229614,
            1.0172656774520874,
            -0.960872232913971,
            -0.4704968333244324,
            0.29881587624549866,
            0.2849302291870117,
            0.9957907795906067,
            0.6250676512718201,
            0.8005963563919067,
            -0.41420966386795044,
            -1.4214571714401245,
            1.7976516485214233,
            -0.13353674113750458,
            -0.8660778403282166,
            -1.0204097032546997,
            2.116239309310913,
            -0.8863619565963745,
            -0.4386775493621826,
            0.7752503156661987,
            0.7955182790756226,
            -1.1408418416976929,
            -0.35187819600105286,
            -0.46790647506713867,
            -1.6807026863098145,
            -0.395375519990921,
            -1.444000005722046,
            -0.6766588091850281,
            -0.46260368824005127,
            -0.4204925000667572,
            -0.3605195879936218,
            -0.27864837646484375,
            -0.4293147623538971,
            -0.39398911595344543,
            -0.3059251606464386,
            1.0856705904006958,
            -0.4756661653518677,
            -0.29104211926460266,
            -0.1904023289680481,
            -0.17914925515651703,
            -1.089686393737793,
            -0.4756004810333252,
            -0.5469720959663391,
            -1.5585099458694458,
            3.866140365600586,
            -0.10067687183618546,
            -0.4088636040687561,
            0.5531983375549316,
            -1.7233407497406006,
            -0.26581665873527527,
            1.289706826210022,
            -2.740556240081787,
            0.4559729993343353,
            0.3234839141368866,
            -2.517400026321411,
            0.9377782940864563,
            -1.2527759075164795,
            -0.5206689238548279,
            -0.5976936221122742,
            -0.34741702675819397,
            -0.5495854616165161,
            0.2400510013103485,
            -1.7624553442001343,
            2.1398425102233887,
            -0.5546010136604309,
            -1.2954230308532715,
            -0.31822922825813293,
            -2.0183353424072266,
            -0.240284264087677,
            -0.5463306903839111,
            -0.48150646686553955,
            -0.33300936222076416,
            -1.62673819065094,
            -0.3162481486797333,
            1.8689020872116089,
            1.791032075881958,
            -1.5154787302017212,
            0.07898574322462082,
            0.47035035490989685,
            2.2107512950897217,
            -1.5486278533935547,
            1.5935132503509521,
            0.21446353197097778,
            -2.649016857147217,
            0.0223277285695076,
            0.7219840288162231,
            -0.2648305892944336,
            0.024297336116433144,
            1.4591103792190552,
            0.11662808805704117,
            1.7924431562423706,
            -0.19644641876220703,
            0.09811288118362427,
            0.06302499771118164,
            0.0346858911216259,
            0.24314914643764496,
            0.21652789413928986,
            0.0601489394903183,
            -0.049291353672742844,
            2.116610527038574,
            0.2007438838481903,
            0.29127198457717896,
            0.2995063364505768,
            0.2593926191329956,
            0.6237707138061523,
            0.11678720265626907,
            0.07894095033407211,
            1.4781428575515747,
            -5.686158657073975,
            0.29125675559043884,
            -1.12660813331604,
            1.6819608211517334,
            1.0099976062774658,
            0.2826905846595764,
            -0.9084771275520325,
            -0.12206599116325378,
            2.308516263961792,
            -1.8984416723251343,
            0.8441817760467529,
            -1.610710859298706,
            0.39162948727607727,
            -0.011198123916983604,
            0.09165199846029282,
            0.17982415854930878,
            0.19743229448795319,
            0.5212424397468567,
            1.202776312828064,
            -0.4353523254394531,
            -0.2614233195781708,
            1.2325291633605957,
            0.21048079431056976,
            -0.11397803574800491,
            0.5318670868873596,
            0.05259675160050392,
            0.07892009615898132,
            0.1704900562763214,
            1.7000786066055298,
            0.052400875836610794,
            -0.3649221956729889,
            0.533685564994812
        ]
    }
}