{
    "num_epochs": 10000,
    "batch_size": 256,
    "final_loss": 14.185367107391357,
    "learning_rate": 0.001,
    "train_data_exp_dir_path": [
        "/app/data/cmc_configs/cmc_train_data"
    ],
    "encoder": {
        "num_inputs": 2,
        "num_outputs": 1,
        "num_hidden_layers": 1,
        "neurons_per_hidden_layer": 64,
        "hidden_layer_activation_function": "relu",
        "final_layer_activation_function": null,
        "bias": true,
        "weights": [
            0.3958846628665924,
            0.5902394652366638,
            0.5576589703559875,
            0.6385324597358704,
            0.08824993669986725,
            -0.10531646013259888,
            0.1126159280538559,
            0.6079084277153015,
            0.0035940303932875395,
            -0.5198639035224915,
            -0.47367528080940247,
            -0.6247578263282776,
            -0.4289616346359253,
            0.2595118582248688,
            0.1562550961971283,
            0.5314506888389587,
            -0.3008718490600586,
            -0.27726876735687256,
            -0.5648141503334045,
            -0.17903634905815125,
            -0.060878001153469086,
            -0.5100878477096558,
            0.045624300837516785,
            -0.2603808641433716,
            -0.6949567794799805,
            -0.6643881797790527,
            0.15492956340312958,
            0.2089342325925827,
            0.008037617430090904,
            -0.0029856774490326643,
            -0.6767392754554749,
            -0.5326749682426453,
            0.3326765298843384,
            -0.6238687634468079,
            0.0630316212773323,
            -0.45050057768821716,
            0.24575002491474152,
            -0.006515638902783394,
            0.5450748205184937,
            0.3526487946510315,
            -0.5321323871612549,
            -0.4645419716835022,
            0.701582670211792,
            0.5454332232475281,
            0.05184644088149071,
            -0.3598048686981201,
            -0.5805076956748962,
            -0.6403524279594421,
            -0.2790467143058777,
            -0.0799894779920578,
            -0.46734312176704407,
            -0.5938673615455627,
            0.0988330990076065,
            0.014770157635211945,
            -0.5909993052482605,
            -0.44301074743270874,
            0.008096493780612946,
            -0.4330219328403473,
            -0.3539421558380127,
            0.2232653796672821,
            0.5789198279380798,
            0.500761866569519,
            -0.5063195824623108,
            0.39355602860450745,
            -0.017320601269602776,
            0.012623223476111889,
            0.0600891150534153,
            0.055307537317276,
            0.6042315363883972,
            0.60586017370224,
            0.6197465658187866,
            -0.10450344532728195,
            -0.2447047382593155,
            0.4530600309371948,
            -0.36638298630714417,
            0.21218495070934296,
            0.2250928431749344,
            0.659197211265564,
            0.5609480738639832,
            0.2078835666179657,
            0.6858394145965576,
            0.2411562204360962,
            0.5657062530517578,
            0.2687039375305176,
            0.1428462713956833,
            0.017698585987091064,
            -0.17689529061317444,
            0.5968353748321533,
            -0.6766354441642761,
            0.17484942078590393,
            0.22565515339374542,
            0.19131022691726685,
            -0.20345903933048248,
            0.40042978525161743,
            -0.67076575756073,
            -0.1489153504371643,
            0.09587520360946655,
            0.13289004564285278,
            -0.28764286637306213,
            -0.4492010176181793,
            0.029304787516593933,
            -0.5279764533042908,
            0.009245838038623333,
            -0.20003636181354523,
            -0.1832956224679947,
            0.3569278120994568,
            -0.3358471691608429,
            -0.2642616629600525,
            -0.1380845308303833,
            -0.3187394142150879,
            -0.056278105825185776,
            -0.021019067615270615,
            0.4789772033691406,
            0.5587698221206665,
            -0.1838270127773285,
            -0.5630706548690796,
            -0.4709637463092804,
            0.05450371280312538,
            0.12833669781684875,
            0.04977577552199364,
            -0.08883577585220337,
            -0.309781014919281,
            0.21355310082435608,
            -0.020382890477776527,
            0.636240541934967,
            -0.6564728021621704,
            0.3638826012611389,
            0.17883552610874176,
            -1.3926746845245361,
            -1.2352865934371948,
            0.06956177204847336,
            1.5492967367172241,
            -0.6698724627494812,
            0.20932897925376892,
            1.418590784072876,
            -0.5267332196235657,
            0.08484421670436859,
            -0.20116353034973145,
            0.581802487373352,
            0.06065327674150467,
            0.2517003118991852,
            0.9049673080444336,
            0.7223973274230957,
            0.18358787894248962,
            -0.2583942413330078,
            -0.10735215246677399,
            -0.4438774287700653,
            0.8968409299850464,
            0.5601446628570557,
            -0.7412890791893005,
            -0.5602265000343323,
            -0.3925841450691223,
            0.26122957468032837,
            -0.2953588664531708,
            0.7846619486808777,
            -0.5449879169464111,
            0.27209094166755676,
            -1.0903949737548828,
            0.6702075004577637,
            1.5738639831542969,
            -0.7838624119758606,
            1.0420769453048706,
            1.0012714862823486,
            -0.20635788142681122,
            -0.6357513070106506,
            0.5511134266853333,
            -0.8896756172180176,
            1.4700897932052612,
            -0.5001915693283081,
            -0.24004943668842316,
            1.642374038696289,
            -0.9019545912742615,
            -1.569318413734436,
            0.13906045258045197,
            -1.4429820775985718,
            -0.7983177304267883,
            -0.4574483036994934,
            0.6103851199150085,
            -0.4678395390510559,
            -0.30512893199920654,
            1.5718801021575928,
            -0.457722932100296,
            -0.6119892001152039,
            0.23702748119831085,
            1.4364956617355347,
            -0.3585295081138611,
            1.6441376209259033,
            1.1089835166931152,
            -0.6955490112304688,
            -0.14783799648284912,
            -0.47906678915023804,
            -0.78721684217453,
            -0.09633608162403107,
            -0.0732489600777626,
            0.09240731596946716,
            0.11106092482805252,
            0.03643400967121124,
            0.018467888236045837,
            0.11357897520065308,
            -0.09735537320375443,
            0.031312599778175354,
            -0.11086168885231018,
            -0.00405314564704895,
            0.09061340987682343,
            -0.1026725023984909,
            0.03666936233639717,
            0.23340804874897003,
            -0.06304451823234558,
            -0.10293638706207275,
            -0.029870063066482544,
            -0.20413370430469513,
            0.08515836298465729,
            0.09625470638275146,
            -0.11461048573255539,
            -0.0829613208770752,
            0.11260433495044708,
            0.08775528520345688,
            -0.12068642675876617,
            0.18807759881019592,
            0.021663010120391846,
            0.08959528803825378,
            -0.07976889610290527,
            0.11734943836927414,
            0.06263510882854462,
            -0.8430190086364746,
            0.08277202397584915,
            0.04857834428548813,
            0.06896770000457764,
            -0.012050723657011986,
            0.0831126868724823,
            -0.11110532283782959,
            0.03767881169915199,
            -0.07661907374858856,
            -0.029007762670516968,
            0.40713101625442505,
            -0.07854918390512466,
            -0.15394295752048492,
            0.06593932956457138,
            -0.1105310246348381,
            0.7109525203704834,
            -0.051926080137491226,
            0.07314850389957428,
            -0.09457802772521973,
            0.062175020575523376,
            0.11221569776535034,
            0.01542779803276062,
            -0.021729424595832825,
            0.09828294813632965,
            0.09559745341539383,
            -0.07172366976737976,
            0.20037059485912323,
            0.128753200173378,
            0.03610485792160034,
            -0.06018561124801636,
            0.028072386980056763,
            -0.06577552109956741,
            0.9412941932678223
        ]
    },
    "decoder": {
        "num_inputs": 1,
        "num_outputs": 2,
        "num_hidden_layers": 1,
        "neurons_per_hidden_layer": 64,
        "hidden_layer_activation_function": "relu",
        "final_layer_activation_function": null,
        "bias": true,
        "weights": [
            -0.49698227643966675,
            1.1036328077316284,
            0.03376001864671707,
            -0.7274537086486816,
            -0.6751224994659424,
            -0.8298952579498291,
            1.3625096082687378,
            1.0626989603042603,
            0.9383202791213989,
            -0.5693311095237732,
            1.1909005641937256,
            -0.8679630160331726,
            -0.4168665111064911,
            0.8993346095085144,
            -0.2600412964820862,
            -0.5519574880599976,
            -0.8230533003807068,
            0.1200815886259079,
            0.8583215475082397,
            -0.4070932865142822,
            0.2425461709499359,
            -0.9470694065093994,
            0.5714852809906006,
            0.6201660633087158,
            1.4198230504989624,
            0.9496201276779175,
            -0.9144062995910645,
            -0.4124278724193573,
            -0.12352442741394043,
            -0.4260036051273346,
            -0.8433577418327332,
            -0.33096781373023987,
            -0.18579021096229553,
            -0.9887528419494629,
            -0.7304093837738037,
            -0.671893835067749,
            -0.48840492963790894,
            1.0652644634246826,
            1.749318242073059,
            -0.7924047112464905,
            -0.703969419002533,
            -0.954429030418396,
            -0.5232283473014832,
            0.5561841130256653,
            0.9378826022148132,
            1.6144200563430786,
            1.030465841293335,
            -0.8845728039741516,
            -0.29066944122314453,
            0.6231691837310791,
            2.265773296356201,
            0.9544243216514587,
            1.215486764907837,
            1.0052030086517334,
            0.9894875884056091,
            -1.8024667501449585,
            -0.4173775911331177,
            0.8925514221191406,
            -0.046156782656908035,
            -0.40823909640312195,
            1.4361917972564697,
            0.750882089138031,
            0.9189313054084778,
            -0.7673842310905457,
            2.805147647857666,
            -2.094358205795288,
            -0.4714428782463074,
            1.3707542419433594,
            1.079388976097107,
            1.3221399784088135,
            2.5393643379211426,
            -2.022733211517334,
            -1.786381483078003,
            3.206571102142334,
            -2.247621536254883,
            1.3810756206512451,
            2.4804065227508545,
            -1.6900736093521118,
            2.1013402938842773,
            1.287266492843628,
            2.3916218280792236,
            1.3647336959838867,
            -1.7116285562515259,
            1.7109994888305664,
            -0.9051817655563354,
            2.6588659286499023,
            2.3793859481811523,
            -1.645108699798584,
            -2.297602891921997,
            -1.5455825328826904,
            2.617703914642334,
            3.065096378326416,
            2.8039004802703857,
            2.8054287433624268,
            2.833796739578247,
            2.352916717529297,
            2.5775725841522217,
            2.7294838428497314,
            2.7498340606689453,
            3.141406774520874,
            1.6642487049102783,
            -2.0177464485168457,
            0.193706676363945,
            1.7333838939666748,
            1.1245105266571045,
            1.642224669456482,
            2.9843599796295166,
            -1.477858304977417,
            -1.5277670621871948,
            -2.5152571201324463,
            -1.679756760597229,
            1.4110431671142578,
            2.916088581085205,
            -1.6543298959732056,
            -0.3063637614250183,
            -1.8181346654891968,
            -1.9775044918060303,
            -1.6346899271011353,
            -1.8833812475204468,
            -0.7981034517288208,
            1.8032070398330688,
            -1.7624967098236084,
            2.1906967163085938,
            2.5143771171569824,
            -2.305739402770996,
            -1.6236555576324463,
            -1.4961557388305664,
            1.460607647895813,
            -0.055825430899858475,
            3.4335763454437256,
            0.15667620301246643,
            -0.18812450766563416,
            -0.16122901439666748,
            -0.23767293989658356,
            -2.3024067878723145,
            3.2925875186920166,
            2.4145991802215576,
            0.14472487568855286,
            3.250812530517578,
            -0.24533024430274963,
            0.04422978311777115,
            3.85811448097229,
            -0.01931026391685009,
            -0.07551981508731842,
            0.01302778534591198,
            0.16765768826007843,
            3.326122522354126,
            -0.0754883736371994,
            -0.073967844247818,
            -0.1495671570301056,
            0.5307759642601013,
            6.470739841461182,
            -3.4477624893188477,
            -3.532642126083374,
            -0.14668220281600952,
            0.06472699344158173,
            0.24695247411727905,
            -0.01837218925356865,
            0.10129660367965698,
            0.16027195751667023,
            0.16729499399662018,
            -0.06133022531867027,
            0.11643528938293457,
            0.060078591108322144,
            0.012089427560567856,
            3.4164862632751465,
            0.3687252402305603,
            -0.10538885742425919,
            -0.19381850957870483,
            -0.16724447906017303,
            0.000808662676718086,
            7.993040561676025,
            -2.6999785900115967,
            -3.0647871494293213,
            -4.127747535705566,
            -0.062363509088754654,
            0.18111541867256165,
            7.71309232711792,
            2.021474838256836,
            3.3990535736083984,
            -3.34867000579834,
            -3.078655481338501,
            3.5836455821990967,
            -1.213155746459961,
            0.019091516733169556,
            3.4415221214294434,
            0.21942013502120972,
            0.04666461795568466,
            -3.294471025466919,
            3.7942731380462646,
            -3.1099863052368164,
            -0.14133082330226898,
            1.0145777463912964,
            -0.3160450756549835,
            -0.0493091344833374,
            0.6427081227302551,
            0.558775007724762,
            0.4299603998661041,
            1.225649356842041,
            -0.2768482267856598,
            -0.2272447943687439,
            1.026163935661316,
            -0.5088660717010498,
            0.38957837224006653,
            0.9926697611808777,
            -1.2817703485488892,
            1.220133662223816,
            0.6435050368309021,
            0.7602249979972839,
            0.5837723016738892,
            -0.12242249399423599,
            0.8776462078094482,
            0.03152785077691078,
            0.7463316321372986,
            1.5002832412719727,
            -1.6877219676971436,
            0.13244099915027618,
            -0.1268608719110489,
            0.6228281855583191,
            1.3086607456207275,
            0.9953232407569885,
            1.2918076515197754,
            0.8074739575386047,
            1.1413323879241943,
            1.2351070642471313,
            0.7500770092010498,
            0.6313299536705017,
            0.927659809589386,
            0.8077537417411804,
            -0.4165003001689911,
            0.42326799035072327,
            0.652998685836792,
            0.4299030601978302,
            0.5791376233100891,
            1.116675853729248,
            -0.8735613226890564,
            -0.2575788199901581,
            -0.1060953214764595,
            -0.55495285987854,
            0.4200029969215393,
            1.0419470071792603,
            -1.038557767868042,
            -0.15081824362277985,
            -0.29310181736946106,
            -0.17539489269256592,
            -0.006439266260713339,
            -0.32890957593917847,
            -0.7821730971336365,
            0.8487880825996399,
            -0.1368063986301422,
            0.710343599319458,
            1.0095431804656982,
            0.11247296631336212,
            -0.9882320165634155,
            -0.2229110151529312,
            0.5975127220153809,
            0.39571473002433777,
            1.2268991470336914
        ]
    }
}