{
    "num_epochs": 20000,
    "batch_size": 1000,
    "final_loss": 5.675755500793457,
    "train_data_exp_dir_path": "data/scp_train_data_non_norm",
    "encoder": {
        "num_inputs": 2,
        "num_outputs": 2,
        "num_hidden_layers": 1,
        "neurons_per_hidden_layer": 64,
        "hidden_layer_activation_function": "relu",
        "final_layer_activation_function": null,
        "bias": true,
        "weights": [
            0.7440187931060791,
            0.28508827090263367,
            -0.3360922038555145,
            -0.2591063380241394,
            0.5897852778434753,
            -0.10929512977600098,
            0.6221902966499329,
            -0.42622897028923035,
            0.540184497833252,
            0.46122103929519653,
            -0.7066656351089478,
            -0.34168922901153564,
            -0.43330898880958557,
            0.217197448015213,
            0.6727641224861145,
            0.4658024311065674,
            -0.03395911678671837,
            0.5613371729850769,
            -0.6154356598854065,
            -0.1573311686515808,
            0.6271714568138123,
            -0.1927475929260254,
            0.5918692946434021,
            -0.5471550822257996,
            1.151631236076355,
            0.04216056689620018,
            -0.06637047231197357,
            0.2075367420911789,
            -0.3211566209793091,
            -0.17136847972869873,
            -0.19585293531417847,
            0.3088339865207672,
            0.45454877614974976,
            -0.3564203679561615,
            0.4317418932914734,
            -0.6421375870704651,
            0.6232721209526062,
            -0.4154384434223175,
            0.5927577614784241,
            -0.6571017503738403,
            0.597612738609314,
            0.16693010926246643,
            -0.4537211060523987,
            0.6753181219100952,
            -0.5781312584877014,
            0.34543389081954956,
            -0.10825365781784058,
            -0.38795050978660583,
            0.9223052263259888,
            0.23921777307987213,
            0.16898590326309204,
            -0.18518024682998657,
            -0.5230277180671692,
            0.02435460314154625,
            -0.4255395233631134,
            -0.10401704162359238,
            -0.20453521609306335,
            0.44842809438705444,
            0.02541404403746128,
            0.3991677463054657,
            -0.38395413756370544,
            0.16491222381591797,
            -0.6422631740570068,
            -0.2445322871208191,
            -0.29260867834091187,
            0.3623526394367218,
            0.6127400994300842,
            0.3870766758918762,
            0.45999079942703247,
            -0.11084580421447754,
            0.6372702717781067,
            -0.2621142864227295,
            0.4719300866127014,
            -0.6761085987091064,
            -0.6731504797935486,
            -0.18776798248291016,
            -0.4350547194480896,
            0.2918247878551483,
            0.14133644104003906,
            -0.05377441644668579,
            -0.3002047836780548,
            -0.07347984611988068,
            0.3199703097343445,
            -0.24307656288146973,
            -0.25618186593055725,
            0.2174830138683319,
            -0.6871490478515625,
            0.7124314308166504,
            0.519797682762146,
            0.2853401005268097,
            -0.22284412384033203,
            -0.0581088662147522,
            -0.44842055439949036,
            -0.6698555946350098,
            -0.7513777613639832,
            0.03374564275145531,
            0.3592427372932434,
            -0.2499164640903473,
            0.46147724986076355,
            0.12065812945365906,
            0.7052949070930481,
            0.23851832747459412,
            -0.49820661544799805,
            0.020954038947820663,
            0.44219380617141724,
            -0.3529413342475891,
            0.32400745153427124,
            -0.6886256337165833,
            -0.4849882423877716,
            -0.3388693332672119,
            0.5226594805717468,
            -0.08148771524429321,
            -0.6772135496139526,
            -0.6469751000404358,
            -0.6927860379219055,
            0.13480018079280853,
            0.6999743580818176,
            -0.0871802568435669,
            0.10897642374038696,
            -0.5482834577560425,
            -0.09760427474975586,
            -0.4577596187591553,
            0.3799278140068054,
            -0.10696280002593994,
            0.5076290965080261,
            -0.19187641143798828,
            -0.3408362865447998,
            0.5398893356323242,
            0.0014039567904546857,
            -0.5833407640457153,
            -0.32022181153297424,
            -0.17211616039276123,
            0.2251521646976471,
            -0.0917208194732666,
            -0.3267916440963745,
            0.6969122290611267,
            -0.9580554366111755,
            0.29187583923339844,
            0.6248745322227478,
            0.35215550661087036,
            0.2808704972267151,
            0.9522165656089783,
            -0.10661929845809937,
            0.08173293620347977,
            -0.19378143548965454,
            0.5975884795188904,
            0.22814923524856567,
            0.36986249685287476,
            0.7613704204559326,
            -0.16788870096206665,
            -0.7860501408576965,
            0.2529332637786865,
            -0.8725156784057617,
            0.05336993932723999,
            0.5433963537216187,
            -0.39469438791275024,
            -0.9846401810646057,
            0.216039776802063,
            -0.25577348470687866,
            -0.6196281909942627,
            0.8539711833000183,
            -0.48202887177467346,
            -0.6292813420295715,
            0.44826608896255493,
            0.1520606279373169,
            0.6353525519371033,
            0.006191906984895468,
            -0.4844602346420288,
            -0.24821214377880096,
            0.3832927346229553,
            -0.43216291069984436,
            0.3390211760997772,
            -1.0078707933425903,
            0.03182154893875122,
            -0.6087456345558167,
            0.6044579148292542,
            0.6261542439460754,
            -0.17881062626838684,
            -0.42442822456359863,
            -0.14389289915561676,
            -0.5149165391921997,
            -0.667247474193573,
            -0.013311564922332764,
            -0.3861945867538452,
            -0.004385948181152344,
            -0.32272598147392273,
            0.42751044034957886,
            0.17137229442596436,
            0.3262963891029358,
            0.272122323513031,
            -0.6631446480751038,
            0.09139346331357956,
            0.11050041764974594,
            -0.08570799231529236,
            -0.08889628946781158,
            -0.08088670670986176,
            0.07078433036804199,
            0.00467345118522644,
            0.003936164081096649,
            0.026894526556134224,
            -0.06895842403173447,
            0.09632758796215057,
            -0.04419328272342682,
            0.11861622333526611,
            0.2500529885292053,
            0.075067900121212,
            -0.06124415993690491,
            -0.044190406799316406,
            -0.07142198085784912,
            0.03571377694606781,
            0.031961992383003235,
            0.10662952065467834,
            -0.019724832847714424,
            0.033662836998701096,
            -0.08499427139759064,
            -0.08419230580329895,
            0.18305568397045135,
            -0.10722732543945312,
            -0.14939166605472565,
            -0.045123711228370667,
            -0.05330216884613037,
            0.03657657280564308,
            0.05331018567085266,
            -0.08469344675540924,
            0.08516653627157211,
            -0.05959169566631317,
            -0.1212453544139862,
            0.025516539812088013,
            0.11417858302593231,
            -0.0006249547004699707,
            -0.029206616804003716,
            -0.021901622414588928,
            0.03514523804187775,
            -0.02967582643032074,
            0.06181436404585838,
            0.03911304101347923,
            0.021457623690366745,
            0.08947747945785522,
            0.054009273648262024,
            -0.15539607405662537,
            0.10107916593551636,
            0.04628394544124603,
            0.0077583626843988895,
            -0.2801930606365204,
            0.017674297094345093,
            -0.034164682030677795,
            0.045551493763923645,
            -0.06380601227283478,
            0.009565234184265137,
            0.03695444390177727,
            0.052044108510017395,
            0.11372274160385132,
            -0.01294746994972229,
            0.04101027548313141,
            -0.00010596215724945068,
            0.04997820034623146,
            -0.02630607783794403,
            0.010204777121543884,
            -0.06214684247970581,
            -0.11535350978374481,
            -0.1256769448518753,
            -0.10994449257850647,
            0.04782916605472565,
            0.11493594199419022,
            -0.04930885508656502,
            -0.0908445417881012,
            0.02826465666294098,
            0.09648019075393677,
            -0.021071558818221092,
            0.1042315661907196,
            0.07149983942508698,
            0.05653698742389679,
            0.07195645570755005,
            -0.005253717303276062,
            -0.10624814033508301,
            0.015028908848762512,
            0.0750679299235344,
            0.121553935110569,
            -0.09915488213300705,
            0.08282338082790375,
            -0.025303786620497704,
            -0.05639497935771942,
            0.1128542348742485,
            -0.06013674661517143,
            -0.042922377586364746,
            -0.10466652363538742,
            -0.3212817907333374,
            0.06892257928848267,
            0.12467201054096222,
            -0.03700834885239601,
            0.08690789341926575,
            -0.09602285921573639,
            0.11837802827358246,
            -0.008851349353790283,
            0.09987547248601913,
            -0.052482619881629944,
            -0.08753468841314316,
            0.08340676128864288,
            -0.1088004931807518,
            -0.03824644908308983,
            -0.08419602364301682,
            0.001567646861076355,
            0.017032265663146973,
            0.15577815473079681,
            0.09209249913692474,
            0.04249657690525055,
            -0.0009482873720116913,
            0.06851793080568314,
            -0.08793585002422333,
            -0.01756976544857025,
            0.10937660932540894,
            -0.11295273900032043,
            -0.08026160299777985,
            -0.1936761438846588,
            -0.061381176114082336,
            0.06131361424922943,
            0.07123447954654694,
            0.08196240663528442,
            0.05104021728038788,
            0.025229934602975845,
            -0.005834185518324375,
            0.2137887179851532
        ]
    },
    "decoder": {
        "num_inputs": 2,
        "num_outputs": 2,
        "num_hidden_layers": 1,
        "neurons_per_hidden_layer": 64,
        "hidden_layer_activation_function": "relu",
        "final_layer_activation_function": null,
        "bias": true,
        "weights": [
            -0.3673780858516693,
            -0.4425395131111145,
            -1.0590438842773438,
            1.2703665494918823,
            0.059583403170108795,
            -1.5796575546264648,
            0.4820246398448944,
            -0.594237744808197,
            2.324793577194214,
            -0.1453004628419876,
            -1.1441128253936768,
            1.3835667371749878,
            2.49827241897583,
            0.09355386346578598,
            0.8656966090202332,
            0.881411075592041,
            -0.801513671875,
            1.8221279382705688,
            -0.05022645369172096,
            -0.8217822313308716,
            0.5646020770072937,
            -0.8624662160873413,
            1.019700050354004,
            -0.7502948641777039,
            0.7372541427612305,
            -0.596337080001831,
            -0.6390395760536194,
            -0.435017466545105,
            -1.4528661966323853,
            -1.2153632640838623,
            1.4943140745162964,
            0.6997858881950378,
            2.048240900039673,
            0.38914892077445984,
            0.3634260594844818,
            -0.5805422067642212,
            -0.5561813116073608,
            0.45934736728668213,
            1.7425315380096436,
            -0.28943273425102234,
            1.6772252321243286,
            0.4173346161842346,
            -0.7674387693405151,
            0.9330102801322937,
            -0.8218362927436829,
            -0.2958109676837921,
            -0.45676928758621216,
            0.5127768516540527,
            1.364894986152649,
            -0.2687593698501587,
            -0.8367607593536377,
            -0.11395388841629028,
            -0.6968836784362793,
            0.7813893556594849,
            0.1115809977054596,
            0.6818332076072693,
            2.105480909347534,
            0.018389159813523293,
            -1.0240042209625244,
            2.315650701522827,
            0.059752799570560455,
            -0.7976849675178528,
            1.6324100494384766,
            0.2777702212333679,
            -0.3464111387729645,
            -0.36485907435417175,
            -1.7665860652923584,
            0.4562605321407318,
            -0.6257233023643494,
            0.01393005158752203,
            -0.5263993144035339,
            -0.3858339786529541,
            -0.9302297830581665,
            1.2019726037979126,
            -0.991793155670166,
            1.2035622596740723,
            -0.1538802534341812,
            -0.4334418773651123,
            -0.6986283659934998,
            -0.6935577988624573,
            -0.4687911868095398,
            0.5308616757392883,
            1.1901283264160156,
            0.7038110494613647,
            0.2168983370065689,
            -0.788468599319458,
            0.5678647756576538,
            0.5006133913993835,
            -0.8216805458068848,
            0.6177132725715637,
            0.3435572683811188,
            -0.6677725315093994,
            0.4690929353237152,
            -0.570490837097168,
            -0.2826067805290222,
            -0.2619894742965698,
            -0.16269421577453613,
            -0.2942849099636078,
            0.9532731175422668,
            0.8032079935073853,
            -0.6101506948471069,
            0.4893762469291687,
            2.135223388671875,
            -0.20632335543632507,
            0.5410045981407166,
            -0.486386775970459,
            0.5914507508277893,
            -0.7545452117919922,
            -0.4339972734451294,
            0.3601889908313751,
            0.6299199461936951,
            -1.2111965417861938,
            2.0758347511291504,
            -0.3376742899417877,
            -0.03568849712610245,
            -0.8680636286735535,
            0.2896808385848999,
            -0.9801344871520996,
            -0.6627799868583679,
            -0.4808007776737213,
            -0.007545134983956814,
            0.3662762939929962,
            1.35757577419281,
            -0.4427909553050995,
            -0.47067081928253174,
            -0.06716360151767731,
            -0.22340156137943268,
            -0.22011271119117737,
            1.7939844131469727,
            -0.5218786597251892,
            -0.44958651065826416,
            0.5605242848396301,
            2.115981101989746,
            -0.5731396675109863,
            2.3958518505096436,
            1.329440712928772,
            -1.2481358051300049,
            1.2523337602615356,
            0.9148463606834412,
            1.264840006828308,
            1.06690514087677,
            -0.5859616994857788,
            0.03896176069974899,
            1.761287808418274,
            1.1367180347442627,
            1.270231008529663,
            -0.8254244923591614,
            1.8602038621902466,
            1.7709167003631592,
            -0.880811870098114,
            0.13479644060134888,
            -0.19296802580356598,
            1.884285569190979,
            0.7681742310523987,
            -1.116381287574768,
            1.692184329032898,
            2.625514030456543,
            -0.026131408289074898,
            0.9681189656257629,
            1.6362050771713257,
            1.1278893947601318,
            1.0074552297592163,
            1.1459285020828247,
            -0.5488824248313904,
            -0.5455353260040283,
            -1.1346529722213745,
            0.5411255359649658,
            -1.1427011489868164,
            -0.7615819573402405,
            1.451690912246704,
            1.067625880241394,
            0.4663148522377014,
            -0.006818593014031649,
            0.7765440940856934,
            0.5339244604110718,
            -0.47489219903945923,
            1.2499264478683472,
            0.05769948661327362,
            -0.8674700856208801,
            1.6573289632797241,
            0.8948307633399963,
            1.814927577972412,
            -0.6495562195777893,
            -0.07222495973110199,
            1.7963885068893433,
            0.46233946084976196,
            1.3113470077514648,
            -0.6987354755401611,
            0.9795800447463989,
            1.1797826290130615,
            -0.25536656379699707,
            -0.3984276056289673,
            -0.06460007280111313,
            -1.5578248500823975,
            -2.232391119003296,
            0.3315788805484772,
            -0.13965299725532532,
            -1.8306065797805786,
            0.10099807381629944,
            -0.7303240299224854,
            -1.419079065322876,
            0.06252267956733704,
            0.5158714056015015,
            0.31569671630859375,
            0.15854938328266144,
            0.12494385987520218,
            -2.0100173950195312,
            -0.1398250013589859,
            -0.6568050980567932,
            0.5539717078208923,
            2.674619674682617,
            0.14825910329818726,
            -0.48188790678977966,
            3.328667163848877,
            0.790273904800415,
            -1.5860638618469238,
            -0.0923304557800293,
            -0.4141651690006256,
            -3.6718814373016357,
            0.5071641206741333,
            0.08689118921756744,
            2.176449775695801,
            0.05592235177755356,
            -0.6036043167114258,
            -0.16175995767116547,
            1.3537448644638062,
            -0.7110683917999268,
            0.26583337783813477,
            -2.7100675106048584,
            3.5207529067993164,
            -5.485195651999675e-05,
            -0.08175931870937347,
            -3.6327991485595703,
            -0.22695636749267578,
            0.35986095666885376,
            -1.385765552520752,
            -1.3515616655349731,
            0.5379595160484314,
            0.31785348057746887,
            0.08859020471572876,
            0.10085047036409378,
            -1.406316876411438,
            1.6216646432876587,
            0.09458338469266891,
            0.18201474845409393,
            0.26457616686820984,
            3.7087903022766113,
            1.1986442804336548,
            -0.0158521868288517,
            0.48713409900665283,
            0.39689651131629944,
            0.026391100138425827,
            -0.016176370903849602,
            0.04004889354109764,
            0.23290814459323883,
            0.21495559811592102,
            0.3541316092014313,
            -0.11103618890047073,
            -0.2201957106590271,
            0.24076545238494873,
            1.589102864265442,
            -0.15938101708889008,
            1.630083680152893,
            1.248173713684082,
            -0.5578309297561646,
            0.44729867577552795,
            0.5117514133453369,
            0.6355292797088623,
            0.6034822463989258,
            0.2248409390449524,
            -0.20681621134281158,
            1.2372814416885376,
            1.6422386169433594,
            0.5306060910224915,
            0.13125064969062805,
            1.2660826444625854,
            1.610475778579712,
            -0.3263852596282959,
            0.20099911093711853,
            0.03555527701973915,
            1.1157641410827637,
            0.5245042443275452,
            -1.0859450101852417,
            0.6832708716392517,
            1.5515812635421753,
            0.18951906263828278,
            0.3740057945251465,
            1.7997627258300781,
            0.46231117844581604,
            0.8815898895263672,
            0.5468945503234863,
            0.20587973296642303,
            -0.4434548318386078,
            -0.33238649368286133,
            0.13058555126190186,
            0.2485867291688919,
            -0.7766258716583252,
            1.2053073644638062,
            0.33550918102264404,
            0.9730027318000793,
            0.30924251675605774,
            0.49533534049987793,
            0.31659528613090515,
            0.03622159734368324,
            0.4225163757801056,
            0.6438870429992676,
            0.1422424614429474,
            1.3771791458129883,
            0.4428318440914154,
            0.7064170837402344,
            0.15652023255825043,
            0.01360748428851366,
            1.2504469156265259,
            0.3383632004261017,
            0.4204532504081726,
            0.1786116063594818,
            0.530596137046814,
            0.8913717269897461,
            0.1309920847415924,
            0.2949743866920471,
            0.11554699391126633,
            0.6497196555137634
        ]
    }
}