{
    "num_epochs": 10000,
    "batch_size": 256,
    "final_loss": 14.812948942184448,
    "learning_rate": 0.001,
    "train_data_exp_dir_path": [
        "/app/data/cmc_configs/cmc_train_data"
    ],
    "encoder": {
        "num_inputs": 2,
        "num_outputs": 1,
        "num_hidden_layers": 1,
        "neurons_per_hidden_layer": 64,
        "hidden_layer_activation_function": "relu",
        "final_layer_activation_function": null,
        "bias": true,
        "weights": [
            -0.4901905059814453,
            -0.6661569476127625,
            0.5058408379554749,
            -0.6368744373321533,
            -0.692012369632721,
            -0.21356195211410522,
            0.41064366698265076,
            0.28743958473205566,
            -0.37811070680618286,
            0.6643985509872437,
            -0.13840752840042114,
            0.5056129693984985,
            -0.4318888485431671,
            0.4690202474594116,
            -0.19517706334590912,
            0.547067403793335,
            0.6948992013931274,
            -0.3871402144432068,
            -0.3983396291732788,
            -0.6936002969741821,
            -0.1729160100221634,
            0.3524591624736786,
            0.6466069221496582,
            -0.6375476717948914,
            0.08884216099977493,
            0.2914906144142151,
            0.13051737844944,
            0.5993613004684448,
            -0.0012457765405997634,
            -0.33845266699790955,
            -0.12858714163303375,
            0.04382816702127457,
            0.528060257434845,
            0.6867841482162476,
            0.27337339520454407,
            -0.16195431351661682,
            -0.29614439606666565,
            0.6847223043441772,
            0.18686048686504364,
            -0.6201277375221252,
            0.021303873509168625,
            0.0052187079563736916,
            0.18282964825630188,
            -0.1276131570339203,
            0.09622621536254883,
            0.039605140686035156,
            0.09665056318044662,
            -0.3851238191127777,
            0.27917587757110596,
            0.11937561631202698,
            0.5174453258514404,
            0.34947875142097473,
            0.5746232867240906,
            -0.48332345485687256,
            -0.46305471658706665,
            0.07167910784482956,
            -0.040918488055467606,
            -0.008294879458844662,
            -0.2185344398021698,
            0.2360192984342575,
            0.028636150062084198,
            0.06449718773365021,
            0.2932128608226776,
            0.323000431060791,
            -0.12674273550510406,
            -0.6869755983352661,
            -0.6244482398033142,
            0.26362287998199463,
            -0.093135766685009,
            -0.2792505919933319,
            0.400495707988739,
            -0.3941815197467804,
            0.1429518163204193,
            0.5373696088790894,
            -0.23742921650409698,
            -0.7065955996513367,
            -0.5316864252090454,
            -0.6318381428718567,
            0.4437442421913147,
            0.11289039254188538,
            0.40377095341682434,
            0.5970920324325562,
            -0.10005434602499008,
            0.02764367312192917,
            -0.2584829032421112,
            -0.6348695158958435,
            0.06831043213605881,
            -0.5546500086784363,
            0.12034324556589127,
            0.28195682168006897,
            0.38655394315719604,
            -0.2841132581233978,
            0.6217233538627625,
            0.34252089262008667,
            0.1794033795595169,
            0.05234792083501816,
            -0.4454251527786255,
            -0.2248348891735077,
            -0.07036056369543076,
            0.5193308591842651,
            -0.08572163432836533,
            -0.5872116088867188,
            0.08754456788301468,
            -0.17960643768310547,
            0.32424911856651306,
            0.4791880249977112,
            0.5590003132820129,
            -0.6586411595344543,
            -0.118418388068676,
            0.04699578881263733,
            0.054676663130521774,
            0.3261503279209137,
            -0.2949400246143341,
            -0.5058522820472717,
            -0.24355584383010864,
            0.37090224027633667,
            0.37087294459342957,
            0.44678962230682373,
            0.5861234068870544,
            -0.07772131264209747,
            0.2113947570323944,
            -0.29039978981018066,
            -0.6871734857559204,
            0.556571364402771,
            0.3253929018974304,
            0.5627726316452026,
            0.6802103519439697,
            -0.44955235719680786,
            -0.3866039216518402,
            0.47598931193351746,
            0.5447158813476562,
            -1.4442918300628662,
            0.32034119963645935,
            -0.30153003334999084,
            0.6589819192886353,
            1.5072535276412964,
            0.20795641839504242,
            0.37169507145881653,
            -0.4081661105155945,
            0.628762423992157,
            -0.9233126044273376,
            1.1682605743408203,
            -0.1657070815563202,
            0.8847216963768005,
            0.5923586487770081,
            0.18697960674762726,
            -0.9472575783729553,
            -0.20687535405158997,
            -0.6941301226615906,
            -0.24314583837985992,
            -0.8615434169769287,
            -0.2397899329662323,
            0.9502329230308533,
            -1.5239226818084717,
            -0.6546880602836609,
            1.18148672580719,
            -0.19266590476036072,
            -1.186495304107666,
            0.8915004730224609,
            -1.0333682298660278,
            -0.5524184107780457,
            -1.5565006732940674,
            0.1728251725435257,
            0.3857046961784363,
            0.18378576636314392,
            0.12100183218717575,
            0.689818799495697,
            -0.5997141003608704,
            -1.493057370185852,
            -0.8378169536590576,
            0.4412206709384918,
            -0.02603958733379841,
            0.7164290547370911,
            -0.49053722620010376,
            1.385454535484314,
            -0.5716346502304077,
            0.08642000705003738,
            0.2724114954471588,
            -0.23352262377738953,
            0.5882034301757812,
            -1.4545756578445435,
            0.05385676026344299,
            -1.5143054723739624,
            0.8693704605102539,
            -0.5890395641326904,
            -0.866696298122406,
            -0.5569669604301453,
            -0.07639967650175095,
            -0.7009984254837036,
            1.0455201864242554,
            1.5611857175827026,
            0.07360238581895828,
            0.004676297307014465,
            -0.07818011939525604,
            0.05916830897331238,
            -0.06369282305240631,
            0.0696374773979187,
            -0.07582987844944,
            0.08218342065811157,
            0.0359262116253376,
            -0.06720010936260223,
            0.03359641134738922,
            -0.055633142590522766,
            -0.06389813125133514,
            -0.09430765360593796,
            0.04207615554332733,
            0.00040984153747558594,
            0.06997295469045639,
            0.11306102573871613,
            0.02717551589012146,
            -0.10649143159389496,
            0.11781013011932373,
            0.06520963460206985,
            -0.10405309498310089,
            -0.14107613265514374,
            -0.1050599217414856,
            0.10293982923030853,
            -0.10994545370340347,
            0.11433443427085876,
            0.05696217343211174,
            0.05746643245220184,
            -0.10497474670410156,
            0.12310634553432465,
            -0.104341521859169,
            -0.08368073403835297,
            -0.1362956315279007,
            -0.042791351675987244,
            -0.017626702785491943,
            0.09147161990404129,
            0.08250746130943298,
            0.01423974335193634,
            -0.10909401625394821,
            -0.11621056497097015,
            -0.24460257589817047,
            0.04477137327194214,
            -0.11125209927558899,
            0.12694160640239716,
            -0.023224234580993652,
            0.09188375622034073,
            -0.07353244721889496,
            -0.09321141242980957,
            0.020638642832636833,
            -0.10837723314762115,
            -0.07212163507938385,
            -0.13994811475276947,
            0.04965588450431824,
            -0.5187346339225769,
            0.07637368142604828,
            -0.06294721364974976,
            -0.08417945355176926,
            -0.07220841944217682,
            -0.09185586869716644,
            0.08497393131256104,
            0.08377185463905334,
            0.10078946501016617,
            0.11844396591186523,
            0.859396755695343
        ]
    },
    "decoder": {
        "num_inputs": 1,
        "num_outputs": 2,
        "num_hidden_layers": 1,
        "neurons_per_hidden_layer": 64,
        "hidden_layer_activation_function": "relu",
        "final_layer_activation_function": null,
        "bias": true,
        "weights": [
            2.0013201236724854,
            -0.31927624344825745,
            -0.6583245992660522,
            -0.744353711605072,
            1.1852731704711914,
            0.5749098062515259,
            -0.6579674482345581,
            1.8991823196411133,
            -1.021247386932373,
            2.06339955329895,
            1.6786320209503174,
            -0.8368253707885742,
            0.7415868043899536,
            1.0686498880386353,
            0.02283298969268799,
            -0.42488163709640503,
            0.7836098670959473,
            -0.7640706896781921,
            -0.23071438074111938,
            1.1419726610183716,
            1.8771064281463623,
            1.9122191667556763,
            -0.01531286258250475,
            1.114267349243164,
            1.8368582725524902,
            0.043868422508239746,
            -0.7238786220550537,
            1.1147340536117554,
            1.1534489393234253,
            -0.6764621734619141,
            -0.3103087246417999,
            2.073859214782715,
            0.04134237766265869,
            1.9884240627288818,
            0.5756120085716248,
            1.910555362701416,
            1.579606294631958,
            0.7752708196640015,
            1.7519291639328003,
            1.5189778804779053,
            0.11455274373292923,
            -0.5695405602455139,
            -0.38834503293037415,
            -1.0479401350021362,
            -1.2936607599258423,
            -1.0289419889450073,
            -0.3114221394062042,
            -0.7409206628799438,
            0.5594154596328735,
            0.12571772933006287,
            0.014832258224487305,
            1.6298208236694336,
            1.5545178651809692,
            0.24775896966457367,
            1.3633549213409424,
            -0.6910818815231323,
            0.3256702125072479,
            0.3665400743484497,
            1.823612928390503,
            -0.7041125297546387,
            -0.7679330110549927,
            0.9522281289100647,
            -1.475313425064087,
            0.10773337632417679,
            -2.2210404872894287,
            2.7405874729156494,
            2.784346580505371,
            3.5297579765319824,
            -1.9431405067443848,
            -1.0834513902664185,
            3.00103759765625,
            -2.101167678833008,
            2.638969659805298,
            -1.9373704195022583,
            -1.5990736484527588,
            1.3170298337936401,
            -1.2271817922592163,
            -1.7553364038467407,
            -0.5703045129776001,
            3.107739210128784,
            -1.2939953804016113,
            2.7614336013793945,
            2.3017241954803467,
            -1.871024489402771,
            -2.085134267807007,
            -2.125286817550659,
            -1.0355502367019653,
            -1.8273476362228394,
            -2.0448403358459473,
            -0.24507340788841248,
            2.430314302444458,
            -1.829637885093689,
            -1.8908350467681885,
            2.868959903717041,
            1.99293851852417,
            -2.2933192253112793,
            -0.9931936264038086,
            -1.9012205600738525,
            -1.0844160318374634,
            -2.1175215244293213,
            -1.7727808952331543,
            -1.2807965278625488,
            -1.9591292142868042,
            -1.4519906044006348,
            -0.6287237405776978,
            2.2855358123779297,
            3.4506590366363525,
            1.6600812673568726,
            2.608980655670166,
            2.2583625316619873,
            3.174083948135376,
            2.842495918273926,
            -1.0552870035171509,
            -0.719199001789093,
            -0.8200782537460327,
            -1.8303085565567017,
            -1.4870413541793823,
            -0.5827991366386414,
            -1.317363977432251,
            1.689008355140686,
            -0.6210948824882507,
            -0.8149003982543945,
            -2.0306644439697266,
            3.3080644607543945,
            2.104036331176758,
            -1.5649747848510742,
            2.453327178955078,
            -0.476703017950058,
            2.110936403274536,
            -0.08497214317321777,
            -0.11307677626609802,
            0.17196950316429138,
            3.5863349437713623,
            -1.5340582132339478,
            0.00437671085819602,
            1.5555524826049805,
            -0.079554483294487,
            -3.7134640216827393,
            -4.732257843017578,
            -0.37830719351768494,
            2.9908852577209473,
            3.671085834503174,
            -0.07536225020885468,
            0.15721413493156433,
            3.2065634727478027,
            -0.07366938143968582,
            -0.09855182468891144,
            3.6216695308685303,
            2.0996832847595215,
            2.1130154132843018,
            -0.07081064581871033,
            3.5976169109344482,
            2.017172336578369,
            0.08953090012073517,
            -0.21516814827919006,
            3.521855592727661,
            3.663139581680298,
            -0.14235839247703552,
            -0.1086835190653801,
            1.8768656253814697,
            -0.006694763898849487,
            -4.11152458190918,
            -2.9274392127990723,
            2.141495704650879,
            2.5490305423736572,
            3.8044867515563965,
            2.2508819103240967,
            -5.162096977233887,
            -0.09196920692920685,
            -0.08987931162118912,
            0.14209946990013123,
            -0.2374810129404068,
            -0.13677993416786194,
            -0.1500568985939026,
            0.09850189089775085,
            0.010046600364148617,
            -0.8773708939552307,
            -0.010863789357244968,
            0.10683608055114746,
            2.34244441986084,
            -5.3400702476501465,
            -0.04622044414281845,
            -4.580954074859619,
            -0.18628916144371033,
            -0.47649404406547546,
            0.08324131369590759,
            2.0556156635284424,
            0.13912412524223328,
            -0.219136580824852,
            3.136232852935791,
            -0.11276297271251678,
            0.028379689902067184,
            -0.07838086038827896,
            1.533574104309082,
            0.9995521306991577,
            1.7256832122802734,
            0.11183710396289825,
            1.441582441329956,
            1.4176726341247559,
            -0.26687702536582947,
            0.9620144963264465,
            0.5464860796928406,
            0.13582637906074524,
            0.6378993988037109,
            0.11098229140043259,
            0.43791401386260986,
            0.12237046658992767,
            1.2004389762878418,
            0.17779874801635742,
            0.9418739676475525,
            1.582700490951538,
            0.17442716658115387,
            -0.15672485530376434,
            -0.09768661856651306,
            -0.051328301429748535,
            0.4582587778568268,
            -0.1247340589761734,
            0.05954461544752121,
            1.5545156002044678,
            0.027022289112210274,
            0.4319579601287842,
            1.062929391860962,
            1.2444130182266235,
            -0.2065059095621109,
            -0.10583437979221344,
            -0.5578120350837708,
            3.0517544746398926,
            -0.22166763246059418,
            0.5004013776779175,
            0.3497055172920227,
            0.18843865394592285,
            0.09460888803005219,
            -0.04525630548596382,
            0.96753990650177,
            1.5175518989562988,
            0.43780219554901123,
            0.7314884066581726,
            0.9546546339988708,
            1.332314133644104,
            1.0342448949813843,
            0.8125059008598328,
            0.014165139757096767,
            0.10004869103431702,
            0.44757071137428284,
            -0.2365889996290207,
            0.09346931427717209,
            -0.9801816344261169,
            0.7733768224716187,
            0.4686885178089142,
            0.1470184624195099,
            -0.13156035542488098,
            0.894430935382843,
            0.7688636779785156,
            0.2589869499206543,
            0.6359550356864929,
            -0.0735747292637825,
            1.1596323251724243,
            1.4592413902282715
        ]
    }
}