{
    "num_epochs": 10000,
    "batch_size": 256,
    "final_loss": 14.77809476852417,
    "learning_rate": 0.001,
    "train_data_exp_dir_path": [
        "/app/data/cmc_configs/cmc_train_data"
    ],
    "encoder": {
        "num_inputs": 2,
        "num_outputs": 1,
        "num_hidden_layers": 1,
        "neurons_per_hidden_layer": 64,
        "hidden_layer_activation_function": "relu",
        "final_layer_activation_function": null,
        "bias": true,
        "weights": [
            0.5719316005706787,
            0.4049956202507019,
            -0.24359267950057983,
            -0.629056990146637,
            0.126465305685997,
            0.3460831046104431,
            -0.16937832534313202,
            -0.29498428106307983,
            -0.4937308430671692,
            0.2872844636440277,
            0.6753301620483398,
            -0.12889990210533142,
            -0.5077745914459229,
            -0.6403083801269531,
            0.1253950595855713,
            0.586642324924469,
            0.4848999083042145,
            -0.42370083928108215,
            -0.48196592926979065,
            0.6481824517250061,
            -0.5428847074508667,
            0.08607393503189087,
            0.09215037524700165,
            -0.10376081615686417,
            -0.38126686215400696,
            0.20755279064178467,
            -0.2487225979566574,
            0.3387013375759125,
            0.38626137375831604,
            -0.5511316657066345,
            0.6651882529258728,
            0.5108411908149719,
            -0.6676239967346191,
            -0.4445696771144867,
            0.021806279197335243,
            0.0808190405368805,
            0.4994543790817261,
            -0.3926149904727936,
            -0.4807926118373871,
            0.4860253930091858,
            -0.42041951417922974,
            -0.4552173912525177,
            0.4664052724838257,
            -0.01280384324491024,
            0.08273544162511826,
            -0.27765804529190063,
            0.4608384966850281,
            0.49352210760116577,
            0.4843308627605438,
            0.6402661204338074,
            -0.14416682720184326,
            -0.16848169267177582,
            0.478716105222702,
            -0.20021682977676392,
            0.6456586718559265,
            -0.1250147968530655,
            0.2536872625350952,
            -0.2628379464149475,
            0.6973447203636169,
            -0.33341333270072937,
            0.3676958978176117,
            -0.027608796954154968,
            0.8100417256355286,
            0.3217697739601135,
            -0.10369279235601425,
            -0.25307193398475647,
            -0.4059215188026428,
            0.518386960029602,
            -0.3395916521549225,
            0.643066942691803,
            -0.4975733160972595,
            -0.11405579000711441,
            0.30481603741645813,
            -0.2922607362270355,
            0.4013698399066925,
            -0.10972164571285248,
            0.4152996838092804,
            -0.36699265241622925,
            0.7091407179832458,
            0.11737991124391556,
            0.21906690299510956,
            0.07709522545337677,
            0.28771689534187317,
            -0.567704975605011,
            -0.3713001608848572,
            -0.425293892621994,
            -0.639360249042511,
            -0.22299475967884064,
            -0.43485063314437866,
            0.40991002321243286,
            0.11450154334306717,
            0.3749525845050812,
            0.5940517783164978,
            0.42039817571640015,
            -0.4226277768611908,
            0.215196892619133,
            0.6680060625076294,
            -0.20860126614570618,
            0.470546156167984,
            0.11869962513446808,
            0.4827635884284973,
            0.03040299005806446,
            0.3870573341846466,
            -0.06153372302651405,
            0.33063846826553345,
            -0.5890616178512573,
            -0.14666302502155304,
            -0.675571084022522,
            -0.2009589821100235,
            0.18913182616233826,
            -0.23731136322021484,
            -0.5824518203735352,
            0.803219735622406,
            0.12882362306118011,
            -0.44412991404533386,
            -0.45240652561187744,
            -0.15996423363685608,
            0.4298878610134125,
            0.1457449346780777,
            0.5481795072555542,
            -0.2203739583492279,
            -0.06124627962708473,
            0.47400787472724915,
            0.2488085776567459,
            -0.5807162523269653,
            0.1513095498085022,
            0.12492889910936356,
            0.2647400200366974,
            1.285097599029541,
            0.1494808793067932,
            0.45943161845207214,
            -0.4675191342830658,
            -1.5830799341201782,
            0.30357304215431213,
            0.3833981454372406,
            0.46211469173431396,
            0.6416736841201782,
            -0.7445729374885559,
            1.4202531576156616,
            0.6576877236366272,
            1.4307583570480347,
            -0.7586751580238342,
            0.10546903312206268,
            0.32725992798805237,
            0.17288342118263245,
            -1.6672462224960327,
            0.2621033191680908,
            0.9359112977981567,
            0.33714720606803894,
            -0.7943939566612244,
            -0.6594887375831604,
            -0.5315839648246765,
            -1.200451135635376,
            0.10170523077249527,
            0.45461276173591614,
            -0.5779920220375061,
            0.4302673935890198,
            0.5876785516738892,
            0.195194810628891,
            -1.4020427465438843,
            0.22973302006721497,
            1.4644981622695923,
            -0.24539190530776978,
            -0.5778918862342834,
            0.36300355195999146,
            -0.15321703255176544,
            0.012805813923478127,
            -1.0153579711914062,
            -1.3367104530334473,
            -0.13183213770389557,
            -0.3068819046020508,
            0.6630441546440125,
            -1.5403456687927246,
            -1.1136314868927002,
            -1.3511548042297363,
            1.3814921379089355,
            0.5031504034996033,
            -0.6038856506347656,
            -0.3581017255783081,
            -0.18716581165790558,
            -0.5999449491500854,
            -0.07997845113277435,
            -1.1286364793777466,
            0.28417646884918213,
            0.2511844336986542,
            -0.679887592792511,
            0.34384873509407043,
            1.004930019378662,
            0.5494216680526733,
            0.49127626419067383,
            -0.45919764041900635,
            1.3507837057113647,
            -0.10404979437589645,
            -0.07739001512527466,
            -0.022792037576436996,
            -0.05036012828350067,
            0.1352820098400116,
            -0.0863664448261261,
            0.0037468820810317993,
            -0.0667438805103302,
            0.0392284095287323,
            0.0832953080534935,
            -0.08767847716808319,
            0.09332649409770966,
            -0.099106565117836,
            0.0562860406935215,
            -0.030619770288467407,
            -0.051463913172483444,
            -0.0020669400691986084,
            0.23115889728069305,
            -0.07171520590782166,
            -0.06685236096382141,
            -0.10770367085933685,
            0.04654872417449951,
            -0.10749022662639618,
            0.09987848997116089,
            0.09755552560091019,
            -0.03628057241439819,
            0.1218365728855133,
            0.008008897304534912,
            -0.004746988415718079,
            0.11292308568954468,
            -0.010765647515654564,
            0.017057886347174644,
            0.1054607480764389,
            -0.04498383775353432,
            0.06629054248332977,
            0.040481675416231155,
            -0.02031850814819336,
            -0.10048773884773254,
            0.10153461992740631,
            0.060547009110450745,
            0.1002747043967247,
            -0.08700902760028839,
            -0.1222241222858429,
            0.09754981100559235,
            0.1013449877500534,
            0.027463382109999657,
            0.05652175843715668,
            -0.13575121760368347,
            0.035452112555503845,
            0.03197537362575531,
            -0.0228719525039196,
            0.06673403084278107,
            -0.0940273106098175,
            -0.05141283571720123,
            0.14024768769741058,
            0.02409261465072632,
            -0.024496331810951233,
            0.06376750767230988,
            -0.05675502493977547,
            -0.13577988743782043,
            0.004619796294718981,
            -0.015435397624969482,
            0.07524371892213821,
            -0.1023443266749382,
            -0.9503352642059326
        ]
    },
    "decoder": {
        "num_inputs": 1,
        "num_outputs": 2,
        "num_hidden_layers": 1,
        "neurons_per_hidden_layer": 64,
        "hidden_layer_activation_function": "relu",
        "final_layer_activation_function": null,
        "bias": true,
        "weights": [
            0.5940122008323669,
            0.5393183827400208,
            1.2139722108840942,
            -0.162217378616333,
            0.8112549781799316,
            1.3840960264205933,
            -1.5102730989456177,
            -1.5716540813446045,
            0.9327498078346252,
            -2.3355841636657715,
            0.8076422214508057,
            0.25299814343452454,
            -2.3279032707214355,
            1.3236287832260132,
            0.8071916699409485,
            1.8286402225494385,
            -0.27348947525024414,
            -0.6800820231437683,
            0.5399428606033325,
            0.8507749438285828,
            0.7748302221298218,
            -2.1430294513702393,
            0.5797863602638245,
            -0.6504796147346497,
            -0.8977549076080322,
            -0.1676269769668579,
            -2.3014636039733887,
            -2.507948160171509,
            0.5486248731613159,
            0.989741325378418,
            -2.6245570182800293,
            -0.6581488251686096,
            -2.349628448486328,
            0.012310566380620003,
            1.1393392086029053,
            -1.1649439334869385,
            -0.8137819766998291,
            -1.1491049528121948,
            -1.33137845993042,
            -0.9099680781364441,
            -1.983380675315857,
            -2.2033259868621826,
            -1.438002109527588,
            -0.6943864822387695,
            0.5985575318336487,
            -1.1199053525924683,
            0.8681128621101379,
            1.2019792795181274,
            -1.5471917390823364,
            -1.3672595024108887,
            1.0028729438781738,
            -1.2699549198150635,
            -0.5677707195281982,
            1.4399429559707642,
            0.6042556166648865,
            1.0316764116287231,
            0.8875096440315247,
            -2.5308830738067627,
            -0.17581939697265625,
            -2.1269867420196533,
            1.2031787633895874,
            -1.1694824695587158,
            -2.4538538455963135,
            1.2437036037445068,
            3.3498246669769287,
            2.0379860401153564,
            3.993056535720825,
            -0.35921919345855713,
            1.6781114339828491,
            3.965228319168091,
            -1.8987133502960205,
            -1.9761146306991577,
            1.2242469787597656,
            -1.813519835472107,
            1.8246077299118042,
            3.031625986099243,
            -1.8146353960037231,
            2.6912922859191895,
            2.9701664447784424,
            -0.45344018936157227,
            -0.4749873876571655,
            -0.9945487976074219,
            1.9967948198318481,
            3.3478825092315674,
            2.788181781768799,
            -1.3418738842010498,
            0.7309482097625732,
            -0.9516018033027649,
            -1.1396770477294922,
            -0.7754602432250977,
            -1.7847106456756592,
            -1.9374563694000244,
            1.9909363985061646,
            2.5448408126831055,
            -2.0337884426116943,
            -0.9673677682876587,
            -1.8243863582611084,
            -0.3350571095943451,
            2.5629711151123047,
            -1.4741235971450806,
            -1.1879222393035889,
            -1.4542021751403809,
            -1.676344394683838,
            0.9354824423789978,
            -1.255068302154541,
            -1.372170090675354,
            -1.810706377029419,
            -1.0170683860778809,
            3.109971761703491,
            -1.411738634109497,
            3.3043642044067383,
            3.2766377925872803,
            -1.9470535516738892,
            -1.7208118438720703,
            3.2269880771636963,
            -1.6003761291503906,
            -0.8316240906715393,
            3.8478896617889404,
            1.4753308296203613,
            3.451472520828247,
            1.4223551750183105,
            -1.9649909734725952,
            -0.8226697444915771,
            -1.6582050323486328,
            2.02107310295105,
            -1.4778870344161987,
            -1.4797323942184448,
            2.0249969959259033,
            -0.18695014715194702,
            -0.08292046934366226,
            -0.05418470501899719,
            0.06753207743167877,
            -0.055900026112794876,
            -0.13095547258853912,
            2.564493417739868,
            2.2618329524993896,
            0.17461718618869781,
            2.7038393020629883,
            0.016222454607486725,
            -0.21415448188781738,
            2.8391876220703125,
            -0.12638752162456512,
            -0.18420878052711487,
            1.540705680847168,
            -0.10557441413402557,
            -3.0387439727783203,
            -0.16861340403556824,
            -0.19447509944438934,
            -0.1792459338903427,
            -6.717484951019287,
            0.278726190328598,
            -2.929917335510254,
            1.4007861614227295,
            -0.05971623957157135,
            2.633575916290283,
            2.5317513942718506,
            0.013193387538194656,
            -0.1127581000328064,
            2.531315565109253,
            -3.121514320373535,
            2.737868547439575,
            0.06347985565662384,
            0.059713214635849,
            2.8105695247650146,
            -1.8850398063659668,
            3.3449575901031494,
            2.302311420440674,
            3.8334755897521973,
            -6.564664840698242,
            -6.486876010894775,
            2.5822036266326904,
            -0.8967539072036743,
            -0.15029913187026978,
            1.8967375755310059,
            0.011286729946732521,
            -0.08377514034509659,
            2.1427738666534424,
            2.5435166358947754,
            -0.0017574045341461897,
            3.0493109226226807,
            -1.6381586790084839,
            0.025429314002394676,
            -0.07555560022592545,
            -0.0234758872538805,
            0.19237050414085388,
            2.665071964263916,
            0.043233633041381836,
            3.041224718093872,
            0.016297833994030952,
            2.611410140991211,
            -6.401848793029785,
            -0.008418777026236057,
            1.0219124555587769,
            0.6364878416061401,
            1.066969394683838,
            0.12214253842830658,
            0.642453134059906,
            0.7938717603683472,
            0.2924421727657318,
            0.15988539159297943,
            0.38052690029144287,
            -0.3494313955307007,
            0.6739236116409302,
            1.2925511598587036,
            -0.09691698849201202,
            0.6823852062225342,
            1.0591464042663574,
            -0.2215614765882492,
            0.11734938621520996,
            2.9996280670166016,
            0.903039276599884,
            0.8618373274803162,
            0.845817506313324,
            0.4368470311164856,
            0.15532204508781433,
            2.805875301361084,
            0.3692018985748291,
            0.06840769946575165,
            -0.5688973665237427,
            -0.6543748378753662,
            1.1792447566986084,
            0.8154817819595337,
            -0.36590760946273804,
            3.257204055786133,
            -0.34222161769866943,
            -0.029100408777594566,
            0.6736541390419006,
            -0.04159744083881378,
            1.7432626485824585,
            0.36938223242759705,
            -0.08513592183589935,
            1.465874433517456,
            -0.14971023797988892,
            0.5055446624755859,
            0.14742358028888702,
            0.8566457629203796,
            1.2707555294036865,
            0.5751751661300659,
            0.9181432723999023,
            1.5166447162628174,
            0.13476824760437012,
            0.1330840289592743,
            0.8227679133415222,
            0.3559033274650574,
            1.544203519821167,
            0.7818894982337952,
            0.5718787312507629,
            0.8964694142341614,
            0.5687528848648071,
            -0.23907101154327393,
            0.002356231212615967,
            -0.014664914458990097,
            0.8078861236572266,
            0.19917064905166626,
            0.7599327564239502,
            0.6429786086082458,
            -0.06917073577642441,
            1.3341872692108154
        ]
    }
}