{
    "num_epochs": 20000,
    "batch_size": 1000,
    "final_loss": 7.0741658210754395,
    "train_data_exp_dir_path": "data/scp_train_data_norm",
    "encoder": {
        "num_inputs": 2,
        "num_outputs": 2,
        "num_hidden_layers": 1,
        "neurons_per_hidden_layer": 64,
        "hidden_layer_activation_function": "relu",
        "final_layer_activation_function": null,
        "bias": true,
        "weights": [
            -0.5434516668319702,
            0.6527736783027649,
            0.17840763926506042,
            0.46200796961784363,
            0.2241096794605255,
            0.7068828344345093,
            -0.015890300273895264,
            -0.16988831758499146,
            -0.4125744700431824,
            0.11917375028133392,
            -0.3222029209136963,
            0.2138928771018982,
            -0.33627861738204956,
            0.5887549519538879,
            -0.052444037050008774,
            0.07825913280248642,
            0.44621700048446655,
            -0.5739806294441223,
            0.3211604952812195,
            0.5066327452659607,
            0.3722396492958069,
            -0.22879880666732788,
            -0.6498729586601257,
            0.6615787148475647,
            -0.2017228603363037,
            0.5607908368110657,
            0.6912427544593811,
            0.13625240325927734,
            -0.02599179744720459,
            -0.3347214162349701,
            -0.2537517845630646,
            0.20523862540721893,
            -0.08566005527973175,
            -0.14062276482582092,
            -0.22367706894874573,
            -0.4013860523700714,
            0.006723492406308651,
            0.22490085661411285,
            -0.5519505739212036,
            0.12130846828222275,
            -0.030536074191331863,
            0.5661867260932922,
            0.030735254287719727,
            -0.06619703769683838,
            -0.5852864980697632,
            0.04339853301644325,
            0.4563506245613098,
            -0.6427483558654785,
            -0.05661363527178764,
            0.2652636170387268,
            0.06908097118139267,
            0.6855025887489319,
            -0.522763192653656,
            0.2722250819206238,
            0.05060321092605591,
            -0.415590763092041,
            0.5209274291992188,
            0.624123752117157,
            -0.19914688169956207,
            0.650273323059082,
            -0.0711408257484436,
            -0.5870955586433411,
            -0.3122002184391022,
            -0.11580710113048553,
            0.3204302191734314,
            0.5380263924598694,
            -0.4950607120990753,
            0.04002648964524269,
            0.3329511284828186,
            -0.6656065583229065,
            -0.10165943205356598,
            0.6813617944717407,
            0.16227026283740997,
            0.09321456402540207,
            0.2669973373413086,
            -0.5286789536476135,
            -0.2917327284812927,
            -0.1544496864080429,
            -0.4473053514957428,
            0.48868638277053833,
            -0.37260961532592773,
            0.2663966417312622,
            0.199418842792511,
            -0.012679815292358398,
            -0.6042819023132324,
            0.5354527831077576,
            0.562146008014679,
            -0.39989274740219116,
            -0.09065544605255127,
            -0.610150158405304,
            0.19214071333408356,
            0.6838255524635315,
            -0.49977633357048035,
            -0.5046998262405396,
            -0.015323162078857422,
            -0.4744453728199005,
            0.43755394220352173,
            0.22034263610839844,
            0.07078135013580322,
            -0.39654847979545593,
            0.4330396056175232,
            -0.05009937286376953,
            -0.07114648818969727,
            -0.18920773267745972,
            -0.31131866574287415,
            0.7120540142059326,
            -0.500970184803009,
            0.31143075227737427,
            0.6713772416114807,
            -0.5827611684799194,
            -0.08881932497024536,
            -0.6279125809669495,
            -0.24284948408603668,
            0.5044318437576294,
            0.3619996905326843,
            -0.6813638806343079,
            -0.11015143245458603,
            -0.14829033613204956,
            0.06725770235061646,
            0.003939628601074219,
            0.47947341203689575,
            -0.5096457004547119,
            0.5067756772041321,
            -0.11668086051940918,
            -0.6649928689002991,
            -0.3190529942512512,
            -0.3124479055404663,
            -0.6815198659896851,
            -0.09137668460607529,
            0.4029654562473297,
            0.8934566974639893,
            0.37503963708877563,
            -0.345092236995697,
            -0.23173116147518158,
            0.2414085865020752,
            0.015453716740012169,
            0.4689022898674011,
            0.6086799502372742,
            0.5817726254463196,
            -0.08239012211561203,
            -0.0927586480975151,
            0.3051440119743347,
            -0.6646945476531982,
            0.5557847619056702,
            -0.3395480215549469,
            0.3413732945919037,
            -0.3433019816875458,
            0.37421363592147827,
            -0.6104117631912231,
            -0.4927564263343811,
            0.6074205636978149,
            -0.32595881819725037,
            0.09566635638475418,
            1.1521742343902588,
            0.38741227984428406,
            0.42733341455459595,
            0.48180991411209106,
            -0.6074503660202026,
            -0.432994544506073,
            0.03766343370079994,
            -0.6248058676719666,
            0.5783250331878662,
            -0.19287532567977905,
            0.3696209490299225,
            -0.21793706715106964,
            -0.5954320430755615,
            0.11494186520576477,
            0.5472604632377625,
            -0.2849881649017334,
            0.34770721197128296,
            -0.21727487444877625,
            0.198775053024292,
            -0.5907092094421387,
            -0.37338027358055115,
            0.23624615371227264,
            0.6754060387611389,
            -0.2553871273994446,
            -0.6920341849327087,
            0.6395377516746521,
            -0.6511300802230835,
            0.028246281668543816,
            0.48046183586120605,
            0.4507961869239807,
            -0.6874300837516785,
            -0.0038620252162218094,
            -0.31951001286506653,
            -0.29876893758773804,
            -0.10644799470901489,
            0.5191242098808289,
            -0.22436493635177612,
            -0.49635449051856995,
            -0.20677798986434937,
            -0.04739324748516083,
            -0.05445890128612518,
            0.36734873056411743,
            0.02656272053718567,
            -0.07618916034698486,
            0.07357677817344666,
            -0.07625096291303635,
            0.07926978170871735,
            0.022985458374023438,
            -0.07532979547977448,
            0.038606226444244385,
            -0.11042194068431854,
            -0.08931883424520493,
            -0.0982058048248291,
            -0.0502680242061615,
            0.10172179341316223,
            -0.11567983031272888,
            -0.023754794150590897,
            -0.06439996510744095,
            0.050077348947525024,
            -0.031682636588811874,
            0.10259570181369781,
            0.04710366949439049,
            -0.07292085886001587,
            0.00733269052579999,
            0.6066523790359497,
            -0.11354558914899826,
            -0.07646702229976654,
            0.08606813102960587,
            -0.09531395882368088,
            -0.04917995631694794,
            0.04148858040571213,
            -0.06405017524957657,
            0.038572363555431366,
            -0.027506664395332336,
            -0.026120496913790703,
            -0.06964196264743805,
            0.0791495144367218,
            0.11867334693670273,
            0.001047387020662427,
            -0.10253775864839554,
            0.08196030557155609,
            -0.1172143742442131,
            0.021980494260787964,
            -0.01810021698474884,
            0.07203259319067001,
            0.0681925117969513,
            0.11976802349090576,
            -0.04314219951629639,
            0.11765751242637634,
            0.09272007644176483,
            -0.10841526091098785,
            0.07507678866386414,
            0.05185440927743912,
            -0.1127910166978836,
            -0.012856781482696533,
            0.1050204336643219,
            -0.0637262612581253,
            -0.002267977222800255,
            -0.09953735768795013,
            -0.10487578809261322,
            -0.12489664554595947,
            -0.06233636289834976,
            -0.10986027121543884,
            -0.06333285570144653,
            0.00845307856798172,
            0.2580355107784271,
            0.08423931896686554,
            0.05061756819486618,
            -0.09846736490726471,
            0.0029096633661538363,
            -0.014349084347486496,
            0.02538430690765381,
            -0.07077842205762863,
            -0.023095473647117615,
            0.11675939708948135,
            0.12376546114683151,
            -0.07832127809524536,
            -0.0296628475189209,
            0.04957418888807297,
            -0.0853269025683403,
            0.002079145284369588,
            0.033421263098716736,
            0.02883945032954216,
            -0.10439881682395935,
            0.05288071930408478,
            -0.00015236088074743748,
            -0.05979415774345398,
            -0.09466468542814255,
            0.4965805113315582,
            0.05414129048585892,
            0.11791816353797913,
            0.09880976378917694,
            -0.05108077451586723,
            -0.06815215945243835,
            -0.10251851379871368,
            0.08020879328250885,
            -0.08396098017692566,
            0.09081143140792847,
            -0.1121056005358696,
            0.04805035889148712,
            -0.10104292631149292,
            0.015984155237674713,
            0.07578523457050323,
            -0.08228419721126556,
            0.07849368453025818,
            -0.053754355758428574,
            -0.054165780544281006,
            0.06690181791782379,
            0.07770337164402008,
            -0.0795854926109314,
            -0.05709098279476166,
            0.053385064005851746,
            0.019450411200523376,
            -0.07140517234802246,
            0.04928047955036163,
            -0.11184186488389969,
            -0.046010710299015045,
            -0.03171314299106598,
            -0.08493869006633759,
            0.07843326777219772,
            -0.1086285412311554,
            -0.00908971019089222,
            0.0901695191860199,
            0.10047723352909088,
            -0.03919455409049988,
            0.10537771135568619,
            0.0635066032409668,
            -0.01460372842848301,
            0.0030179943423718214
        ]
    },
    "decoder": {
        "num_inputs": 2,
        "num_outputs": 2,
        "num_hidden_layers": 1,
        "neurons_per_hidden_layer": 64,
        "hidden_layer_activation_function": "relu",
        "final_layer_activation_function": null,
        "bias": true,
        "weights": [
            2.1615278720855713,
            -0.6834946870803833,
            4.0617146492004395,
            0.06930005550384521,
            1.8390183448791504,
            -0.20714928209781647,
            0.9721366167068481,
            0.49323517084121704,
            -0.22516319155693054,
            0.1540919989347458,
            -0.5847243070602417,
            0.3203704059123993,
            1.377913475036621,
            -0.5304950475692749,
            -2.8221147060394287,
            0.13813285529613495,
            -1.032641887664795,
            -0.32794252038002014,
            -1.4000084400177002,
            0.5117953419685364,
            2.1923389434814453,
            -0.33552661538124084,
            0.5972041487693787,
            -0.30234095454216003,
            1.941033959388733,
            -0.17474888265132904,
            -0.09901547431945801,
            0.08885136991739273,
            1.017182469367981,
            0.5487200617790222,
            2.7909023761749268,
            -0.374783992767334,
            -0.6330053806304932,
            -0.46317532658576965,
            2.5414652824401855,
            -0.8122456669807434,
            0.5990245342254639,
            -0.6126816868782043,
            -0.5114561915397644,
            0.46179696917533875,
            -0.5606985688209534,
            -0.1656171828508377,
            4.581851482391357,
            -0.2022966891527176,
            -1.6353662014007568,
            -0.6632735729217529,
            2.6990718841552734,
            0.4933438301086426,
            0.0072950441390275955,
            -0.6828901767730713,
            -0.4472777545452118,
            0.051140885800123215,
            -0.9263290166854858,
            0.6012139916419983,
            2.4806113243103027,
            0.16249911487102509,
            1.2710981369018555,
            -0.27731072902679443,
            0.6389573216438293,
            -0.5802035331726074,
            2.522576093673706,
            0.6966524124145508,
            0.41352057456970215,
            -0.5235897898674011,
            -1.6598588228225708,
            0.34331342577934265,
            -1.5334278345108032,
            -0.12125508487224579,
            -0.4454854726791382,
            -0.07849125564098358,
            2.582505941390991,
            0.3382560610771179,
            -0.7671452164649963,
            -0.04243648424744606,
            -1.0550719499588013,
            -0.6456652879714966,
            2.453148603439331,
            -0.48595449328422546,
            2.705875873565674,
            0.4372529685497284,
            -0.6177777647972107,
            0.5723467469215393,
            2.825392484664917,
            0.6072534918785095,
            2.385711669921875,
            -0.5308815240859985,
            -0.3124452531337738,
            0.23484189808368683,
            -0.6694176197052002,
            -0.4060589671134949,
            0.02113042213022709,
            -0.1739138513803482,
            -0.661679208278656,
            0.022315382957458496,
            2.399883985519409,
            0.27316004037857056,
            1.6088148355484009,
            -0.03496366739273071,
            2.8043885231018066,
            0.26675930619239807,
            -0.23625601828098297,
            -0.07115911692380905,
            0.16091224551200867,
            -0.3324611783027649,
            2.6230356693267822,
            0.6307641267776489,
            -0.14130784571170807,
            0.06040645018219948,
            4.186105251312256,
            0.5889549255371094,
            2.863189220428467,
            0.1828622817993164,
            -0.6441212892532349,
            0.28643566370010376,
            -0.9352065324783325,
            0.6053474545478821,
            -1.686897873878479,
            -0.14831532537937164,
            -0.7820032238960266,
            -0.6096553206443787,
            0.3664929270744324,
            -0.5053710341453552,
            -0.6313471794128418,
            0.2595917880535126,
            -0.705892026424408,
            0.4535079002380371,
            -0.916634738445282,
            -0.189132958650589,
            2.509716510772705,
            4.0234808921813965,
            2.2565267086029053,
            0.10839245468378067,
            -0.7645347118377686,
            -1.589388132095337,
            3.669262647628784,
            4.74730920791626,
            0.1416897475719452,
            5.646073341369629,
            3.259035587310791,
            3.2103028297424316,
            2.1722965240478516,
            -0.7026285529136658,
            0.17683009803295135,
            1.560555338859558,
            -2.2167418003082275,
            0.9477238655090332,
            3.2685673236846924,
            -2.2624614238739014,
            -0.6859087944030762,
            4.45535135269165,
            0.2940126955509186,
            2.903358221054077,
            -2.7941830158233643,
            -0.5220898389816284,
            -2.813150405883789,
            3.242169141769409,
            0.32140934467315674,
            3.744086980819702,
            2.63850998878479,
            2.288526773452759,
            5.364051818847656,
            1.8902369737625122,
            0.25703564286231995,
            2.6904349327087402,
            -0.6578505635261536,
            -2.0049028396606445,
            0.16521508991718292,
            3.1568472385406494,
            -2.80212140083313,
            2.841196298599243,
            0.9200802445411682,
            -1.1679013967514038,
            -1.9830952882766724,
            1.1760008335113525,
            -0.370914101600647,
            3.1938226222991943,
            1.613590955734253,
            2.9940240383148193,
            -0.38599857687950134,
            1.6612707376480103,
            2.7026350498199463,
            -0.4996243119239807,
            4.347383975982666,
            2.913360595703125,
            -1.5181063413619995,
            -2.7025890350341797,
            1.8034595251083374,
            -3.2714900970458984,
            2.4055140018463135,
            -1.4332796335220337,
            -2.0985987186431885,
            0.3636012077331543,
            -0.14435376226902008,
            -0.5958871245384216,
            -0.16707547008991241,
            0.13438795506954193,
            -0.03953735530376434,
            0.05266391858458519,
            -0.14938941597938538,
            0.04412175714969635,
            0.06347043812274933,
            0.08736621588468552,
            -0.13001258671283722,
            -0.05076494812965393,
            -0.1358596682548523,
            0.09608116745948792,
            0.13563422858715057,
            -0.17063243687152863,
            0.121223084628582,
            -0.13867251574993134,
            -0.06286466121673584,
            0.01731392741203308,
            -0.04335685446858406,
            -4.090358257293701,
            0.08771815896034241,
            -0.04621816799044609,
            -0.008753353729844093,
            0.01609167829155922,
            -0.008160260505974293,
            -0.10568016022443771,
            -0.05446544289588928,
            -0.08349933475255966,
            -0.019681517034769058,
            -0.009880159050226212,
            0.13749007880687714,
            0.020480839535593987,
            0.07047630846500397,
            -0.0396154411137104,
            -0.0583825521171093,
            0.05482998117804527,
            -0.12116449326276779,
            -0.09133724123239517,
            0.09391190856695175,
            0.015196230262517929,
            -0.09966351836919785,
            0.036599405109882355,
            0.07048197090625763,
            0.019166072830557823,
            -0.09342634677886963,
            -0.11641517281532288,
            -0.1719704419374466,
            -0.056409355252981186,
            -0.0317525789141655,
            0.026197096332907677,
            -0.010549386031925678,
            0.12533600628376007,
            -0.5614053606987,
            -0.1262734979391098,
            0.05221410095691681,
            -0.011054088361561298,
            0.13525845110416412,
            0.07763542979955673,
            -0.0030378217343240976,
            0.04579996317625046,
            -0.02766546420753002,
            0.1153068020939827,
            0.055006153881549835,
            0.6551724076271057,
            0.09521042555570602,
            0.18716564774513245,
            -0.08932262659072876,
            -0.06395973265171051,
            -0.08295391499996185,
            0.2864220142364502,
            -0.06887778639793396,
            0.2302478700876236,
            -0.031211692839860916,
            -0.031224843114614487,
            0.08406441658735275,
            -0.04267646372318268,
            0.3723544478416443,
            -0.026632875204086304,
            -0.0660167708992958,
            0.02228713408112526,
            -0.10393674671649933,
            -0.018613597378134727,
            0.11029309034347534,
            0.4375852942466736,
            -0.08600138127803802,
            0.24149365723133087,
            0.06577464193105698,
            -0.07630641758441925,
            -0.053768500685691833,
            0.34219545125961304,
            0.025759877637028694,
            -0.07407869398593903,
            0.26886895298957825,
            -0.07116032391786575,
            0.2344534993171692,
            0.11339017748832703,
            -0.06163208931684494,
            0.16676461696624756,
            -0.1008647233247757,
            0.10066723078489304,
            0.09111307561397552,
            0.08305905014276505,
            -0.08725401759147644,
            0.48979341983795166,
            0.04908708110451698,
            -0.011202950030565262,
            -0.04263806343078613,
            -0.1083935871720314,
            -0.06795229762792587,
            0.24532261490821838,
            0.12314170598983765,
            0.08607407659292221,
            -0.08349653333425522,
            -0.1006113663315773,
            0.26541611552238464,
            0.05039677768945694,
            2.4030957221984863,
            0.23403875529766083,
            -0.0394892692565918,
            -0.05231469124555588,
            -0.029207155108451843,
            0.055019330233335495,
            -0.11086776107549667,
            -0.10550130158662796,
            -0.05265551060438156,
            -0.08588306605815887,
            -2.9089596271514893,
            0.44014742970466614
        ]
    }
}