{
    "num_epochs": 20000,
    "batch_size": 1000,
    "final_loss": 6.071566104888916,
    "train_data_exp_dir_path": "data/scp_train_data_norm",
    "encoder": {
        "num_inputs": 2,
        "num_outputs": 2,
        "num_hidden_layers": 1,
        "neurons_per_hidden_layer": 64,
        "hidden_layer_activation_function": "relu",
        "final_layer_activation_function": null,
        "bias": true,
        "weights": [
            0.5457088351249695,
            -0.5049880146980286,
            -0.24864047765731812,
            0.3688121736049652,
            -0.6634480357170105,
            0.2548062801361084,
            -0.4952104091644287,
            -0.1418975591659546,
            0.3499070107936859,
            0.13594117760658264,
            0.19150425493717194,
            0.3239348828792572,
            -0.3105592429637909,
            -0.3311808705329895,
            0.4657916724681854,
            0.718140184879303,
            -0.5163353681564331,
            0.5296379327774048,
            0.8016355037689209,
            -0.0544477254152298,
            -0.03617984056472778,
            -0.596315324306488,
            0.23429842293262482,
            0.9074760675430298,
            0.48269885778427124,
            0.012037038803100586,
            -0.21367494761943817,
            0.6747748851776123,
            -0.16725929081439972,
            0.4412015676498413,
            0.3368656039237976,
            -0.23286336660385132,
            -0.06701916456222534,
            -0.19071316719055176,
            -0.29476627707481384,
            0.035489898175001144,
            0.19366955757141113,
            -0.3890620172023773,
            -0.5170082449913025,
            -0.4787622392177582,
            0.4141162037849426,
            -0.5791027545928955,
            -0.1301499903202057,
            0.1962575614452362,
            -0.13641107082366943,
            0.4719162881374359,
            0.41516369581222534,
            -0.35061559081077576,
            -0.22201687097549438,
            -0.5356574058532715,
            0.4149802327156067,
            0.6186271905899048,
            0.44791263341903687,
            -0.025757193565368652,
            -0.260711133480072,
            -0.4436655640602112,
            -0.19324052333831787,
            -0.6806060671806335,
            0.4468817412853241,
            0.2199995219707489,
            -0.13635686039924622,
            -0.07533012330532074,
            0.20395466685295105,
            0.3353222906589508,
            0.2714085280895233,
            0.523493230342865,
            -0.32293999195098877,
            -0.3574414849281311,
            -0.3891003131866455,
            0.43952101469039917,
            -0.31469425559043884,
            0.26788830757141113,
            -0.11256566643714905,
            -0.1078438013792038,
            -0.6205032467842102,
            0.5533037781715393,
            0.49138301610946655,
            -0.46261999011039734,
            0.51291823387146,
            0.555281400680542,
            -0.29200223088264465,
            0.24672839045524597,
            0.5036017298698425,
            0.48872873187065125,
            -0.2370944768190384,
            0.09781840443611145,
            -0.12085771560668945,
            -0.6214451789855957,
            -0.33119136095046997,
            0.048906538635492325,
            -0.030183792114257812,
            -0.46020573377609253,
            0.5598891377449036,
            -0.4505294859409332,
            0.31938087940216064,
            0.41684070229530334,
            0.1660812646150589,
            0.5331061482429504,
            -0.6809836030006409,
            0.376769095659256,
            -0.6995313167572021,
            -0.00781918317079544,
            0.5085018873214722,
            0.4950122833251953,
            -0.34240224957466125,
            -0.1678735762834549,
            -0.6407931447029114,
            0.5623212456703186,
            -0.3286735415458679,
            0.11779802292585373,
            -0.27422383427619934,
            0.41710609197616577,
            0.35709309577941895,
            0.4725644588470459,
            -0.2097168266773224,
            0.39767950773239136,
            0.04461010918021202,
            0.04602367803454399,
            0.615889847278595,
            -0.4024246633052826,
            -0.511744499206543,
            0.47928231954574585,
            -0.7027772665023804,
            -0.6948745846748352,
            0.45222729444503784,
            -0.3888710141181946,
            -0.21501678228378296,
            -0.7004294991493225,
            0.6239972710609436,
            0.577909529209137,
            -0.22051002085208893,
            -0.707908034324646,
            2.231732130050659,
            0.10116531699895859,
            0.043113645166158676,
            0.46344107389450073,
            0.29018956422805786,
            3.798407793045044,
            -0.3632849156856537,
            0.9933302402496338,
            0.3176807761192322,
            -0.6761499643325806,
            0.08235977590084076,
            0.5891117453575134,
            0.026707708835601807,
            -0.3183358311653137,
            0.47941142320632935,
            -0.3168264329433441,
            -0.47953158617019653,
            -0.553368091583252,
            -0.622143566608429,
            -0.025542497634887695,
            0.5300690531730652,
            -0.6184500455856323,
            0.6905273795127869,
            -0.10493502020835876,
            0.15411913394927979,
            -0.2357867956161499,
            0.580485463142395,
            0.7533427476882935,
            2.592963933944702,
            0.6791349649429321,
            -0.46682417392730713,
            0.5168365836143494,
            0.5636621713638306,
            0.5641849637031555,
            -0.49248623847961426,
            0.2905791401863098,
            -0.04854965582489967,
            0.037501417100429535,
            0.4590623080730438,
            0.010615348815917969,
            -0.09967959672212601,
            -0.10390657186508179,
            0.1424824595451355,
            -0.03889629617333412,
            -0.5185178518295288,
            -0.0912286639213562,
            -0.23796489834785461,
            0.4021216630935669,
            -0.04841328412294388,
            0.46810203790664673,
            -0.6008493900299072,
            0.5748579502105713,
            0.7158676385879517,
            -0.24691800773143768,
            1.7603098154067993,
            -0.40137335658073425,
            -0.5238282084465027,
            -0.247013658285141,
            0.5780826210975647,
            -0.29097145795822144,
            0.01061318814754486,
            -0.03663605451583862,
            0.02534574829041958,
            0.055666234344244,
            1.1618973016738892,
            0.14216309785842896,
            0.038428425788879395,
            -0.11509079486131668,
            -0.07639989256858826,
            2.1250221729278564,
            0.02881668508052826,
            -0.5110669732093811,
            0.10688398778438568,
            -0.03948599472641945,
            0.04135693609714508,
            -0.015006616711616516,
            0.07171253859996796,
            -0.08158385008573532,
            -0.10148227214813232,
            -0.002274439437314868,
            -0.11752551794052124,
            0.019819218665361404,
            0.006707958411425352,
            0.044061049818992615,
            -0.03543303906917572,
            0.11039525270462036,
            0.03467757999897003,
            0.017232609912753105,
            -0.015664875507354736,
            0.019832178950309753,
            -0.11493193358182907,
            0.2445017546415329,
            -0.5844593644142151,
            -0.04619487747550011,
            0.001934398664161563,
            0.04776914417743683,
            0.09152133762836456,
            0.09998167306184769,
            0.1062275618314743,
            -0.14336223900318146,
            0.08426038175821304,
            -0.03590533882379532,
            0.002952411537989974,
            0.1114039421081543,
            -0.076701320707798,
            -0.0009808540344238281,
            -0.04407992959022522,
            0.007355179637670517,
            -0.11136753112077713,
            -0.04482453316450119,
            0.036449819803237915,
            -0.42597848176956177,
            -0.07808756828308105,
            0.044543083757162094,
            -0.03738968074321747,
            0.06297433376312256,
            -0.1606869399547577,
            -0.040846407413482666,
            -1.3747589588165283,
            -0.08699551224708557,
            -0.08017466962337494,
            -0.03843044862151146,
            -0.10047507286071777,
            0.10185815393924713,
            -0.025715261697769165,
            -0.07525961101055145,
            0.0671481266617775,
            -0.043879877775907516,
            1.0000312328338623,
            -0.09642131626605988,
            -0.08235754072666168,
            -0.0069978926330804825,
            0.12587212026119232,
            1.7121707201004028,
            0.048195019364356995,
            -0.21792088449001312,
            0.030538886785507202,
            -0.0793125182390213,
            -0.03375716134905815,
            -0.03897686302661896,
            0.10021254420280457,
            -0.05011015012860298,
            -0.03663860261440277,
            0.036905813962221146,
            -0.010974660515785217,
            0.12826935946941376,
            0.027387050911784172,
            0.0046377032995224,
            0.03576114773750305,
            0.07108364999294281,
            -0.041308581829071045,
            -0.09402575343847275,
            0.022479861974716187,
            -0.07335603982210159,
            -0.11187588423490524,
            -0.5859034061431885,
            -0.3822939097881317,
            0.06828446686267853,
            -0.06930913031101227,
            0.1294422298669815,
            -0.04367133975028992,
            -0.06188655644655228,
            -0.09756067395210266,
            -0.09989362955093384,
            -0.11917725205421448,
            -0.2592528462409973,
            -0.09837876260280609,
            -0.07319298386573792,
            0.12220685929059982,
            -0.10833492875099182,
            -0.07908803224563599,
            0.07609353959560394,
            0.08998934924602509,
            0.0048915911465883255,
            -0.09760324656963348,
            -0.0877874344587326,
            0.08231795579195023,
            0.005102141760289669,
            0.06395304948091507,
            -0.019867220893502235,
            -0.22079718112945557,
            0.007177393417805433,
            0.8947129249572754,
            0.029309123754501343,
            -0.03560667484998703,
            -0.0766330286860466,
            -0.0851658284664154,
            0.056064486503601074,
            -0.11096885055303574,
            0.05683097988367081
        ]
    },
    "decoder": {
        "num_inputs": 2,
        "num_outputs": 2,
        "num_hidden_layers": 1,
        "neurons_per_hidden_layer": 64,
        "hidden_layer_activation_function": "relu",
        "final_layer_activation_function": null,
        "bias": true,
        "weights": [
            0.42930155992507935,
            -1.4660329818725586,
            0.3447848856449127,
            -1.4275633096694946,
            0.7691921591758728,
            0.060498978942632675,
            -0.6014358997344971,
            -1.6078144311904907,
            -0.5656946301460266,
            1.4927858114242554,
            -0.6727538704872131,
            -1.4860363006591797,
            -0.34811732172966003,
            0.8805139064788818,
            0.5197758674621582,
            -1.6977308988571167,
            -0.6383679509162903,
            -0.6462697386741638,
            0.7731081247329712,
            0.10820217430591583,
            -0.44128453731536865,
            -1.488133192062378,
            1.1400378942489624,
            -0.17268867790699005,
            0.9856774806976318,
            -0.18900156021118164,
            -0.5650104880332947,
            1.6867159605026245,
            -0.5826496481895447,
            -0.8572655916213989,
            -0.46027785539627075,
            1.7767962217330933,
            -2.109548330307007,
            0.6232427954673767,
            0.20766600966453552,
            -1.7590198516845703,
            0.9852649569511414,
            -1.9728754758834839,
            0.8029232621192932,
            -1.45268714427948,
            -0.31306809186935425,
            1.529344081878662,
            -1.0341482162475586,
            0.9133406281471252,
            -0.7152462005615234,
            -1.957376480102539,
            0.03712973743677139,
            -1.3289715051651,
            -0.46426865458488464,
            1.2390292882919312,
            1.1120948791503906,
            0.09225517511367798,
            -0.45725905895233154,
            -1.5823951959609985,
            -0.16858363151550293,
            -1.824116826057434,
            1.1943366527557373,
            0.09965890645980835,
            -0.383507639169693,
            -0.15654586255550385,
            -0.6287774443626404,
            -1.4234158992767334,
            -0.10746544599533081,
            -1.1189477443695068,
            -0.4994869828224182,
            -2.0050017833709717,
            0.3262246549129486,
            -1.4889323711395264,
            0.10747192054986954,
            0.3170911371707916,
            -0.20767629146575928,
            1.9160981178283691,
            0.3502994179725647,
            -1.410666584968567,
            -0.12343195080757141,
            -1.5877190828323364,
            1.2080734968185425,
            -0.1409832388162613,
            -0.7125364542007446,
            -1.847748875617981,
            -0.06403947621583939,
            -1.5855222940444946,
            -0.5725852847099304,
            1.4480328559875488,
            1.772351622581482,
            -0.09615200012922287,
            -1.305540680885315,
            0.40681788325309753,
            -2.3762660026550293,
            -0.8152981400489807,
            0.5080605745315552,
            0.41508856415748596,
            -0.48411086201667786,
            -1.830468773841858,
            -0.32641056180000305,
            -2.0135011672973633,
            0.10580811649560928,
            1.9992849826812744,
            -1.0644382238388062,
            0.3126675486564636,
            -0.7098272442817688,
            -1.9133673906326294,
            1.1113373041152954,
            -1.341680645942688,
            -0.4489118754863739,
            -1.9115571975708008,
            0.8280559182167053,
            -1.560908317565918,
            0.7102710604667664,
            0.010964755900204182,
            0.6894404888153076,
            -1.321278691291809,
            0.330368310213089,
            -1.323068618774414,
            -0.13136465847492218,
            1.0750067234039307,
            0.9906731247901917,
            -1.7601724863052368,
            -0.5388087630271912,
            -1.5839414596557617,
            0.504306972026825,
            -1.074683666229248,
            0.822580873966217,
            -0.6976274251937866,
            0.31775203347206116,
            -0.9743344783782959,
            -0.6070724129676819,
            -1.759049415588379,
            1.814089298248291,
            2.2482128143310547,
            1.0147939920425415,
            1.2868930101394653,
            -0.8085598349571228,
            1.4296064376831055,
            -0.48637688159942627,
            2.3181300163269043,
            1.3728662729263306,
            1.032172441482544,
            1.689939022064209,
            0.9335272312164307,
            0.7260136008262634,
            -1.6801625490188599,
            1.2586665153503418,
            -1.7404285669326782,
            0.4810834527015686,
            0.8228944540023804,
            0.925311803817749,
            2.185966968536377,
            -0.6065564155578613,
            1.2039185762405396,
            1.2174406051635742,
            0.7434352040290833,
            -0.6676108241081238,
            1.4307674169540405,
            1.4156250953674316,
            1.1215935945510864,
            1.5002771615982056,
            0.5391974449157715,
            1.5299413204193115,
            1.5528415441513062,
            1.1669080257415771,
            0.46583232283592224,
            -0.6180600523948669,
            1.6461929082870483,
            0.5684155821800232,
            2.1022727489471436,
            1.057227611541748,
            1.0681232213974,
            2.2916789054870605,
            -0.7984219789505005,
            1.7471274137496948,
            0.33568429946899414,
            0.2538946270942688,
            -1.0856714248657227,
            1.2423049211502075,
            1.2362086772918701,
            -1.8834348917007446,
            -0.6249933838844299,
            1.8265458345413208,
            0.6049050092697144,
            1.178143858909607,
            2.393357753753662,
            1.9505939483642578,
            0.6728799939155579,
            1.9944742918014526,
            -0.3360852301120758,
            0.9766730666160583,
            0.8433218002319336,
            1.791529893875122,
            1.5333868265151978,
            1.6249111890792847,
            1.0527812242507935,
            -0.2590044140815735,
            -0.7165473103523254,
            -0.1859622299671173,
            -0.410935640335083,
            -0.24697566032409668,
            -0.41021856665611267,
            -0.03575126826763153,
            -0.4836556315422058,
            -0.23699165880680084,
            -0.16071897745132446,
            -0.6181047558784485,
            -0.05052690580487251,
            0.06117379292845726,
            0.1423269808292389,
            -0.35843318700790405,
            0.07638009637594223,
            0.060262326151132584,
            -0.9241917729377747,
            -0.3964216411113739,
            -0.30010664463043213,
            -0.5019181370735168,
            0.07978226989507675,
            -0.3864094913005829,
            -1.1782495975494385,
            -0.24074885249137878,
            -0.09811253100633621,
            -0.7012419104576111,
            -0.6261430382728577,
            -0.07271338999271393,
            -0.16127653419971466,
            -0.49599817395210266,
            -0.7786904573440552,
            -0.6062262654304504,
            -0.35493579506874084,
            0.03745308518409729,
            0.3677034378051758,
            -0.44630166888237,
            -0.7314216494560242,
            0.11445341259241104,
            -0.4792146682739258,
            -0.8167995810508728,
            -0.06490179896354675,
            0.11288205534219742,
            0.02553499862551689,
            -0.21757327020168304,
            -0.0532507598400116,
            -0.5595925450325012,
            -0.7183969020843506,
            -0.7258661985397339,
            0.3912322521209717,
            -0.6894564628601074,
            -0.14578092098236084,
            -0.5191882848739624,
            -0.4951322376728058,
            0.07962038367986679,
            -0.30741819739341736,
            -0.30940961837768555,
            -0.46707507967948914,
            -0.285185843706131,
            -0.5297729969024658,
            -0.31531092524528503,
            -0.04078858345746994,
            -0.4199366271495819,
            -0.5623539090156555,
            0.2772639989852905,
            0.8359034061431885,
            0.3530316650867462,
            -0.09554450213909149,
            1.0338915586471558,
            0.008047866635024548,
            0.5732184052467346,
            0.5318612456321716,
            -0.026129771023988724,
            0.195941761136055,
            0.1934182345867157,
            0.3041759133338928,
            0.28144699335098267,
            -0.6611900329589844,
            0.17239688336849213,
            -0.8830471634864807,
            0.7200384140014648,
            0.5347893834114075,
            0.8100546002388,
            0.48332861065864563,
            0.7776738405227661,
            0.32670170068740845,
            -0.05758429318666458,
            0.6702951192855835,
            0.902816116809845,
            0.28978341817855835,
            0.18778303265571594,
            0.35317859053611755,
            0.23134814202785492,
            -0.06558872014284134,
            0.11318562179803848,
            0.46766597032546997,
            0.1132211983203888,
            0.5116766095161438,
            0.0626939907670021,
            -1.2371751070022583,
            0.4102337062358856,
            0.5680557489395142,
            0.3500967025756836,
            0.050069067627191544,
            0.6549582481384277,
            0.6566850543022156,
            0.4428778290748596,
            0.680354654788971,
            -0.7019941210746765,
            0.025328898802399635,
            0.023111209273338318,
            0.20591256022453308,
            -1.2749581336975098,
            0.2014634609222412,
            0.18098902702331543,
            0.44342246651649475,
            0.09731627255678177,
            0.787944495677948,
            0.30749157071113586,
            0.6987919211387634,
            0.35572177171707153,
            0.49080899357795715,
            0.777080774307251,
            0.14078441262245178,
            0.6098882555961609,
            0.4563901126384735,
            0.5856925845146179,
            0.09508920460939407,
            -0.3939616084098816,
            0.7942003607749939
        ]
    }
}