{
    "num_epochs": 2000,
    "batch_size": 64,
    "final_loss": 1.1501150727272034,
    "train_data_exp_dir_path": "data/scp_train_data_non_norm",
    "encoder": {
        "num_inputs": 2,
        "num_outputs": 2,
        "num_hidden_layers": 1,
        "neurons_per_hidden_layer": 64,
        "hidden_layer_activation_function": "relu",
        "final_layer_activation_function": null,
        "bias": true,
        "weights": [
            -0.1341334581375122,
            0.18787533044815063,
            0.05833534896373749,
            0.3386073112487793,
            0.1772688627243042,
            -0.6492661833763123,
            -0.44141319394111633,
            0.6396079063415527,
            -0.47342774271965027,
            -0.036527976393699646,
            -0.29230186343193054,
            0.12323098629713058,
            0.5333675742149353,
            -0.1993362307548523,
            0.16677045822143555,
            -0.20461028814315796,
            0.050321031361818314,
            -0.027989134192466736,
            0.2829560339450836,
            0.5027961134910583,
            0.20153099298477173,
            -0.325133353471756,
            -0.057225584983825684,
            0.5552736520767212,
            0.35830193758010864,
            0.057497184723615646,
            0.37515538930892944,
            -0.11537963151931763,
            0.5488731265068054,
            -0.5038541555404663,
            0.18277859687805176,
            -0.6593043804168701,
            0.2729817032814026,
            -0.36954355239868164,
            0.08788258582353592,
            0.466787189245224,
            0.32468050718307495,
            0.45461976528167725,
            0.2359580397605896,
            -0.5556997656822205,
            0.4903688430786133,
            0.20032773911952972,
            0.6157059073448181,
            -0.2831941843032837,
            0.2818693518638611,
            -0.2294793725013733,
            -0.09048879891633987,
            0.346057265996933,
            -0.4764941334724426,
            -0.3495539724826813,
            -0.047102391719818115,
            -0.5946515798568726,
            0.6952758431434631,
            -0.17907410860061646,
            -0.361596941947937,
            -0.4223989248275757,
            -0.20410007238388062,
            -0.2656945586204529,
            0.3742365837097168,
            0.3533848226070404,
            -0.07917694002389908,
            0.42186442017555237,
            -0.19917559623718262,
            0.2602216899394989,
            -0.20105992257595062,
            0.034026868641376495,
            -0.20949983596801758,
            -0.4406401515007019,
            0.03720444440841675,
            -0.09285765886306763,
            -0.6710787415504456,
            -0.5142879486083984,
            -0.3823626935482025,
            -0.2582245469093323,
            -0.231363445520401,
            -0.3294869363307953,
            0.1798221468925476,
            -0.5671190619468689,
            -0.6128175854682922,
            -0.5171681046485901,
            0.38015079498291016,
            0.43664246797561646,
            -0.6134170889854431,
            -0.11895519495010376,
            -0.20624996721744537,
            0.5152986645698547,
            0.6643825769424438,
            0.6649987697601318,
            -0.07784992456436157,
            -0.6029459834098816,
            -0.3973190188407898,
            -0.2845808267593384,
            -0.10710972547531128,
            -0.3699570298194885,
            0.29834362864494324,
            0.36640462279319763,
            -0.05145430564880371,
            -0.6559876203536987,
            -0.1140088438987732,
            -0.1111687421798706,
            0.455741822719574,
            -0.2555468678474426,
            0.4223026633262634,
            0.08175216615200043,
            0.6096352934837341,
            -0.040414273738861084,
            0.3333835303783417,
            0.6722489595413208,
            -0.27403104305267334,
            -0.14890193939208984,
            -0.34624284505844116,
            -0.14619415998458862,
            -0.019196728244423866,
            0.23936130106449127,
            0.06686389446258545,
            -0.487834095954895,
            0.1047498807311058,
            0.20132385194301605,
            0.17013773322105408,
            0.46847736835479736,
            0.05626765638589859,
            0.6177453994750977,
            0.0562739372253418,
            -0.024471402168273926,
            0.3302296996116638,
            -0.22086870670318604,
            0.4242592751979828,
            0.2963502109050751,
            1.3028825521469116,
            -0.009889249689877033,
            0.5029903054237366,
            -1.2282123565673828,
            -0.8096699714660645,
            0.8238067626953125,
            -0.42925772070884705,
            -0.5427984595298767,
            2.0120456218719482,
            1.3623745441436768,
            0.4410342574119568,
            0.8660123348236084,
            1.0794211626052856,
            -0.3422478437423706,
            -0.26540568470954895,
            0.08463317155838013,
            -0.09174114465713501,
            0.6438711881637573,
            1.7596441507339478,
            -0.32740750908851624,
            1.9970520734786987,
            -0.3205927908420563,
            -0.5802938938140869,
            2.040768623352051,
            -0.15908277034759521,
            -0.6535639762878418,
            -0.44653117656707764,
            0.061158716678619385,
            0.2190237045288086,
            -0.3496414124965668,
            -1.3862628936767578,
            -0.3157173693180084,
            -1.0948342084884644,
            -0.07014608383178711,
            0.18259769678115845,
            -0.11429929733276367,
            -0.1114276647567749,
            0.13915568590164185,
            -0.050665318965911865,
            0.22531121969223022,
            -0.8776801824569702,
            -0.620888888835907,
            1.266714334487915,
            -0.86162930727005,
            0.5880805850028992,
            -0.05796879529953003,
            0.16182929277420044,
            -1.5123080015182495,
            0.4857293963432312,
            0.40876561403274536,
            -0.4139937460422516,
            1.0060068368911743,
            -0.16839438676834106,
            -0.9335228204727173,
            0.0032956600189208984,
            -0.6593106389045715,
            1.2055492401123047,
            -0.40175268054008484,
            -1.644505500793457,
            -1.677495002746582,
            -0.427041620016098,
            -0.5769710540771484,
            0.25426435470581055,
            -0.6956800818443298,
            -0.11522813886404037,
            -0.0650419145822525,
            0.06349289417266846,
            0.034984562546014786,
            -0.0032565989531576633,
            -0.11747647821903229,
            0.037650033831596375,
            0.053613632917404175,
            -1.434674620628357,
            -0.13406841456890106,
            -0.041672199964523315,
            -0.11567573249340057,
            -0.19337734580039978,
            -0.013507679104804993,
            0.09669463336467743,
            0.060857683420181274,
            0.0017105787992477417,
            0.039522431790828705,
            -0.08363852649927139,
            -0.1221185028553009,
            -0.1529754400253296,
            0.06987893581390381,
            -0.08687525987625122,
            -0.13908685743808746,
            0.11002078652381897,
            -0.12293124198913574,
            -0.09112720191478729,
            -0.04582968354225159,
            0.06077370047569275,
            0.06174125149846077,
            0.10438521951436996,
            0.10802211612462997,
            0.054229382425546646,
            0.0031042546033859253,
            0.12413574755191803,
            0.02909150719642639,
            -0.11861786246299744,
            -0.01777702569961548,
            -0.02436038851737976,
            -0.10365705192089081,
            0.11472401022911072,
            -0.08508758246898651,
            -0.04797390475869179,
            0.022465761750936508,
            -0.005458548665046692,
            -0.06485173106193542,
            0.05440570414066315,
            0.02433355525135994,
            0.10711973905563354,
            0.027905389666557312,
            0.05848276615142822,
            -0.09869656711816788,
            0.09773299098014832,
            0.12354820966720581,
            0.012625426054000854,
            -0.053236573934555054,
            0.05556269362568855,
            0.0824374258518219,
            0.168023020029068,
            0.056503407657146454,
            0.014737498015165329,
            -0.029601603746414185,
            0.03517957031726837,
            0.01567842625081539,
            -0.07751975208520889,
            0.05023708567023277,
            -0.04683227837085724,
            0.044830456376075745,
            0.027995051816105843,
            -0.013151220977306366,
            0.08690787851810455,
            0.10813163220882416,
            -0.05912138521671295,
            -0.13222117722034454,
            0.06530332565307617,
            -0.08372168987989426,
            -0.11985626071691513,
            0.11342999339103699,
            -0.002333119511604309,
            -0.09970749914646149,
            -0.07263119518756866,
            -0.07087945193052292,
            -0.095644511282444,
            -0.07031466066837311,
            -0.0512072928249836,
            0.014362126588821411,
            -0.0004956871271133423,
            -0.0203392431139946,
            0.08499312400817871,
            0.011089012026786804,
            0.05459657311439514,
            -0.0759449303150177,
            0.07770387828350067,
            -0.03478783369064331,
            0.0769760012626648,
            -0.11301180720329285,
            0.06188472360372543,
            0.1136094182729721,
            0.022478416562080383,
            0.0901726633310318,
            0.026190370321273804,
            0.006016477942466736,
            -0.02172882854938507,
            -0.0564628541469574,
            0.0687003806233406,
            0.09687685966491699,
            -0.07999201118946075,
            0.05901734158396721,
            -0.07915182411670685,
            0.008558839559555054,
            0.008287191390991211,
            0.12780308723449707,
            0.101525217294693,
            -0.06636931002140045,
            -0.04935498535633087,
            -0.09483727067708969,
            -0.06365823745727539,
            0.08330831676721573,
            0.046373069286346436,
            -0.005924448370933533,
            -0.16606354713439941,
            -0.09634903073310852,
            0.15248984098434448,
            0.08788397163152695,
            0.0718349888920784,
            -0.0818706601858139,
            -0.07596886157989502,
            0.1048530712723732,
            -0.9062352776527405,
            -0.9404245615005493
        ]
    },
    "decoder": {
        "num_inputs": 2,
        "num_outputs": 2,
        "num_hidden_layers": 1,
        "neurons_per_hidden_layer": 64,
        "hidden_layer_activation_function": "relu",
        "final_layer_activation_function": null,
        "bias": true,
        "weights": [
            -0.06823498010635376,
            0.522932231426239,
            0.6886014938354492,
            1.8261622190475464,
            0.2096136510372162,
            -0.28995761275291443,
            -0.13548070192337036,
            0.4006602168083191,
            0.9253888130187988,
            1.5502859354019165,
            1.4699715375900269,
            1.6224507093429565,
            0.549178421497345,
            2.0192062854766846,
            1.875394344329834,
            1.9186662435531616,
            1.886597990989685,
            1.8154271841049194,
            -0.5847756862640381,
            -1.08549964427948,
            -0.27098754048347473,
            0.15858882665634155,
            1.79972505569458,
            2.006913185119629,
            -0.5052521228790283,
            -0.6873826384544373,
            1.3813503980636597,
            1.951475977897644,
            1.8914213180541992,
            -1.0397193431854248,
            -0.2740895450115204,
            0.5869030356407166,
            1.1961209774017334,
            -1.2823256254196167,
            1.7330007553100586,
            1.2893376350402832,
            -0.3172700107097626,
            -0.05173152685165405,
            1.8258165121078491,
            -1.616787075996399,
            1.6450339555740356,
            1.786103367805481,
            1.1353071928024292,
            1.9652373790740967,
            1.800746202468872,
            1.4153639078140259,
            0.8898700475692749,
            1.9306327104568481,
            -0.5080533027648926,
            0.27816635370254517,
            1.2290260791778564,
            1.829256296157837,
            -0.47549861669540405,
            0.30560630559921265,
            1.386702299118042,
            1.9588310718536377,
            -0.0255740936845541,
            -0.4834546744823456,
            -1.4660334587097168,
            2.0620436668395996,
            1.6628129482269287,
            1.872728943824768,
            -0.5871996879577637,
            -1.0792607069015503,
            -0.4372130334377289,
            0.1519222855567932,
            -0.0012343465350568295,
            -1.2052853107452393,
            -0.544549822807312,
            -0.24674805998802185,
            0.6374911665916443,
            1.5520364046096802,
            -1.708258867263794,
            0.5634282231330872,
            1.4236291646957397,
            1.7269643545150757,
            1.4086118936538696,
            1.4289920330047607,
            1.0829235315322876,
            1.6978986263275146,
            1.9345437288284302,
            1.8464726209640503,
            -0.5982218980789185,
            -0.38231921195983887,
            1.000498652458191,
            1.663431167602539,
            1.9401135444641113,
            1.9435864686965942,
            1.8719794750213623,
            0.6980087161064148,
            0.6901689767837524,
            1.9938691854476929,
            -0.5299692153930664,
            -0.06815069913864136,
            -0.6004627346992493,
            -1.1071223020553589,
            -0.6578161120414734,
            0.31509846448898315,
            0.996073305606842,
            -1.3040410280227661,
            1.6308435201644897,
            1.2899186611175537,
            -0.28635334968566895,
            -0.5058308839797974,
            1.5982482433319092,
            1.4873578548431396,
            0.06880944967269897,
            -0.5821370482444763,
            -0.45053377747535706,
            0.2933925986289978,
            -1.4853938817977905,
            1.8650168180465698,
            -0.33311915397644043,
            -0.4666869044303894,
            0.5996933579444885,
            -1.3640201091766357,
            -1.1155436038970947,
            2.097771167755127,
            -0.5355108380317688,
            -0.4030870497226715,
            1.6241668462753296,
            1.3150317668914795,
            1.0700563192367554,
            1.8669788837432861,
            -0.6887563467025757,
            -0.7027204036712646,
            0.05814236402511597,
            0.5017220377922058,
            -0.6156980991363525,
            1.41326105594635,
            -0.1665704995393753,
            -0.6215136647224426,
            1.7076425552368164,
            1.8234699964523315,
            1.5355278253555298,
            1.6107728481292725,
            1.6256438493728638,
            1.2146975994110107,
            -0.5616801977157593,
            1.763216257095337,
            0.04280686378479004,
            1.4114285707473755,
            -0.22931116819381714,
            -0.6228310465812683,
            0.4821142852306366,
            1.010099172592163,
            -0.44577616453170776,
            0.31258073449134827,
            1.7159464359283447,
            1.5320099592208862,
            0.9558148384094238,
            1.4505892992019653,
            -0.20395898818969727,
            1.0840568542480469,
            -0.3081779181957245,
            1.5443681478500366,
            0.015578697435557842,
            0.8398396968841553,
            1.0433226823806763,
            1.2114179134368896,
            -0.08715766668319702,
            1.015267252922058,
            -0.536748468875885,
            1.584628701210022,
            1.0784525871276855,
            1.4060802459716797,
            1.80964195728302,
            1.6883268356323242,
            0.5965301990509033,
            0.038404881954193115,
            1.6591650247573853,
            0.5702475309371948,
            1.7112520933151245,
            1.3101544380187988,
            -0.6773658394813538,
            1.241787075996399,
            -0.1262521743774414,
            0.614904522895813,
            0.9526708722114563,
            -0.5965014100074768,
            1.057044506072998,
            -0.2984236180782318,
            -0.6454160213470459,
            0.8333595991134644,
            -0.4304136335849762,
            0.851296603679657,
            0.48215848207473755,
            -0.6266624331474304,
            1.6172206401824951,
            1.7582769393920898,
            -0.31065261363983154,
            -0.6265600323677063,
            -0.08273784816265106,
            0.08364727348089218,
            -0.07875150442123413,
            0.11990447342395782,
            -0.10742911696434021,
            -0.10276802629232407,
            0.20587939023971558,
            -0.1629212647676468,
            -0.186027392745018,
            0.28191614151000977,
            -0.06983712315559387,
            -0.17807835340499878,
            0.10424858331680298,
            -0.18046385049819946,
            -5.27590274810791,
            0.044313400983810425,
            -3.9976208209991455,
            -0.32890868186950684,
            0.04802539944648743,
            -4.948451042175293,
            -0.18563804030418396,
            -0.004726674407720566,
            -0.3802122175693512,
            0.05459638312458992,
            0.002031490206718445,
            -0.14301304519176483,
            -0.0803472101688385,
            -0.08495994657278061,
            0.035896845161914825,
            2.216698169708252,
            -0.0844130888581276,
            0.4065990746021271,
            0.08854471147060394,
            -1.9162828922271729,
            -0.11165454983711243,
            0.12088531255722046,
            3.570047378540039,
            -0.1336730569601059,
            -0.2806922197341919,
            0.057957276701927185,
            -0.1142374649643898,
            0.07881401479244232,
            0.005491395480930805,
            -0.14814123511314392,
            -0.5031335949897766,
            0.2052636444568634,
            -0.08703675866127014,
            0.19612953066825867,
            -0.044931650161743164,
            -3.957836151123047,
            -0.29670587182044983,
            0.06793144345283508,
            -0.2366827130317688,
            -0.09180152416229248,
            -0.05851241946220398,
            2.158883810043335,
            -0.10563519597053528,
            -3.116365671157837,
            2.6302545070648193,
            0.1219213604927063,
            -0.1783541738986969,
            -0.014740293845534325,
            0.04186588525772095,
            0.10626105964183807,
            0.07978345453739166,
            1.2585160732269287,
            0.029390808194875717,
            -0.000577777624130249,
            1.148088812828064,
            1.028095006942749,
            1.2299790382385254,
            1.0011446475982666,
            0.9747642278671265,
            -2.683881998062134,
            0.07117055356502533,
            0.9779801964759827,
            -0.02456963062286377,
            1.082040548324585,
            -1.3292609453201294,
            -0.11632037162780762,
            -1.042651653289795,
            1.2420130968093872,
            -0.06946487724781036,
            -0.7594032287597656,
            1.0278198719024658,
            1.0845080614089966,
            1.2120416164398193,
            1.1880149841308594,
            0.07769708335399628,
            1.2179259061813354,
            -0.018726348876953125,
            0.982832133769989,
            -0.01038446556776762,
            0.7987136840820312,
            1.0515152215957642,
            -2.766889810562134,
            0.015322104096412659,
            -2.2361536026000977,
            -0.058274045586586,
            1.3210041522979736,
            -1.0775043964385986,
            1.008482575416565,
            1.0648267269134521,
            1.11570405960083,
            1.2021667957305908,
            0.1042831540107727,
            1.1393481492996216,
            1.1164077520370483,
            1.1270211935043335,
            1.3108055591583252,
            -0.03659714758396149,
            -2.742614269256592,
            -0.08251747488975525,
            -1.7089849710464478,
            1.3061906099319458,
            -0.09360580146312714,
            1.211350440979004,
            0.08112284541130066,
            -0.11637571454048157,
            0.6839504837989807,
            -0.028459951281547546,
            -1.757572054862976,
            1.0063502788543701,
            -0.0578698068857193,
            1.0472699403762817,
            1.0713729858398438,
            0.05074094235897064,
            0.09973204135894775,
            -0.08410565555095673,
            0.4868747591972351
        ]
    }
}