{
    "num_epochs": 2000,
    "batch_size": 64,
    "final_loss": 15.751178400857109,
    "train_data_exp_dir_path": "data/scp_train_data_non_norm",
    "encoder": {
        "num_inputs": 2,
        "num_outputs": 2,
        "num_hidden_layers": 1,
        "neurons_per_hidden_layer": 64,
        "hidden_layer_activation_function": "relu",
        "final_layer_activation_function": null,
        "bias": true,
        "weights": [
            -0.6855227947235107,
            0.060577668249607086,
            -0.4369843304157257,
            -0.10558468848466873,
            -0.1738080382347107,
            -0.45138609409332275,
            -0.1545397788286209,
            0.281354695558548,
            0.32847779989242554,
            -0.5807366967201233,
            0.26283812522888184,
            -0.6438084244728088,
            -0.15076397359371185,
            0.3623098134994507,
            0.4887896180152893,
            -0.3097406327724457,
            0.5330782532691956,
            0.62961345911026,
            -0.47652870416641235,
            -0.10171830654144287,
            0.5043492317199707,
            0.4582572281360626,
            -0.11035984754562378,
            -0.049780070781707764,
            0.0768786072731018,
            -0.6983388066291809,
            -0.013397276401519775,
            -0.18328440189361572,
            0.7134733200073242,
            0.6051369905471802,
            -0.1353810429573059,
            -0.19642674922943115,
            -0.6359039545059204,
            -0.5377234220504761,
            -0.45622166991233826,
            0.5987046360969543,
            -0.35463401675224304,
            -0.5382084846496582,
            0.7724196910858154,
            0.19014260172843933,
            0.2738911509513855,
            0.139755517244339,
            -0.33597472310066223,
            0.22551396489143372,
            -0.0827760100364685,
            -0.27171340584754944,
            0.6046093106269836,
            0.6543805003166199,
            0.2704801857471466,
            0.55205899477005,
            0.09297865629196167,
            -0.025311291217803955,
            -0.08808386325836182,
            -0.5323467254638672,
            -0.6004888415336609,
            0.4004664719104767,
            0.23612575232982635,
            0.36319777369499207,
            0.6184489727020264,
            0.4959662854671478,
            0.5648651719093323,
            0.3695337474346161,
            -0.22861039638519287,
            -0.4606787860393524,
            -0.3526444435119629,
            0.07473442703485489,
            0.5464760065078735,
            0.46164262294769287,
            0.5495522618293762,
            -0.2524375319480896,
            0.5417049527168274,
            -0.08052617311477661,
            0.497987300157547,
            0.5355916023254395,
            0.21763259172439575,
            -0.5571517944335938,
            0.24727049469947815,
            0.2920229136943817,
            -0.17952460050582886,
            -0.19913005828857422,
            0.38701629638671875,
            0.2222919464111328,
            0.6157856583595276,
            0.5367438197135925,
            0.47780975699424744,
            0.06325210630893707,
            0.49466216564178467,
            -0.028619596734642982,
            0.8491742014884949,
            0.2209540754556656,
            -0.11716470122337341,
            0.40514808893203735,
            -0.2922222316265106,
            -0.35996079444885254,
            -0.226976677775383,
            0.05545194819569588,
            -0.0028256773948669434,
            -0.14366400241851807,
            0.2631216049194336,
            0.181844562292099,
            0.779380202293396,
            0.13712532818317413,
            -0.05332062393426895,
            -0.03085877001285553,
            -0.009302318096160889,
            -0.2843172550201416,
            -0.11710666120052338,
            0.20483505725860596,
            0.42932945489883423,
            -0.4240250289440155,
            -0.5986629128456116,
            -0.6467580199241638,
            0.7717161774635315,
            0.27511027455329895,
            0.20237097144126892,
            0.42319318652153015,
            -0.5056498050689697,
            -0.18303829431533813,
            0.5159874558448792,
            0.47844481468200684,
            -0.42243844270706177,
            -0.3569491505622864,
            0.44925540685653687,
            -0.17063385248184204,
            -0.3215734660625458,
            0.4273301661014557,
            -0.02224123477935791,
            -0.6464837789535522,
            0.8503438234329224,
            1.1218457221984863,
            -0.0817076563835144,
            -0.7388116717338562,
            0.573128879070282,
            -0.5085826516151428,
            -1.8119014501571655,
            0.24278992414474487,
            -1.5958006381988525,
            0.18766909837722778,
            0.8066394925117493,
            0.10144728422164917,
            0.38887327909469604,
            -0.09992164373397827,
            0.6558781862258911,
            0.1318730115890503,
            0.7010931372642517,
            1.6662850379943848,
            0.561069905757904,
            -1.8250123262405396,
            0.5077714323997498,
            1.3019146919250488,
            -0.1060556173324585,
            -1.404895305633545,
            -0.6628496646881104,
            0.21183496713638306,
            0.25844186544418335,
            0.3775296211242676,
            1.3868227005004883,
            -1.4461719989776611,
            0.5978888273239136,
            -0.40038520097732544,
            1.418352484703064,
            -0.6170126795768738,
            0.23689234256744385,
            0.646953284740448,
            -1.9303863048553467,
            -0.582992672920227,
            -2.318690776824951,
            0.32564181089401245,
            -0.8804745674133301,
            1.9066903591156006,
            -1.921127200126648,
            0.37467506527900696,
            -1.2688366174697876,
            1.6798449754714966,
            -0.5862568616867065,
            -1.8928145170211792,
            0.17898094654083252,
            -1.076014757156372,
            2.1716232299804688,
            -0.6329125761985779,
            -0.35232168436050415,
            1.8815945386886597,
            0.002798795700073242,
            0.37094980478286743,
            0.9300174117088318,
            -1.3573012351989746,
            -0.3213803470134735,
            0.5912900567054749,
            0.15559881925582886,
            0.2337474226951599,
            -0.984717071056366,
            0.6450809836387634,
            0.275631844997406,
            0.14234735071659088,
            -0.050852492451667786,
            0.14669188857078552,
            0.018798083066940308,
            -0.052833229303359985,
            -0.05041668564081192,
            0.05516219139099121,
            -0.0016450464027002454,
            0.1117144227027893,
            0.03182582929730415,
            0.1025903970003128,
            -0.09422561526298523,
            -0.11236755549907684,
            0.08750797063112259,
            -0.07303859293460846,
            0.11287666857242584,
            0.05804514139890671,
            0.028437212109565735,
            -0.017037564888596535,
            -0.07290344685316086,
            0.04770861938595772,
            -0.03858362138271332,
            0.09481184929609299,
            0.019122755154967308,
            -0.1010589450597763,
            0.12245185673236847,
            -0.013853159733116627,
            -0.05765438824892044,
            0.014848211780190468,
            -0.013154850341379642,
            -0.09035775065422058,
            0.11707524955272675,
            0.10337232053279877,
            -0.08256207406520844,
            -0.08697602152824402,
            0.014304718933999538,
            -0.12382528185844421,
            0.1085401251912117,
            0.005743950605392456,
            -0.06119196116924286,
            0.054664917290210724,
            0.030383551493287086,
            0.1166754886507988,
            0.026523321866989136,
            -0.006936998106539249,
            0.1115303635597229,
            0.12768633663654327,
            -0.029043585062026978,
            0.06348428875207901,
            0.1539844572544098,
            -0.053102344274520874,
            0.07631352543830872,
            0.09854122251272202,
            0.10723133385181427,
            -0.06585247814655304,
            -0.0790913999080658,
            0.067788265645504,
            -0.03697746992111206,
            -0.025830956175923347,
            -0.020094558596611023,
            0.08956718444824219,
            0.0720570757985115,
            0.12428048253059387,
            0.2757665812969208,
            0.2598668038845062,
            0.1151430755853653,
            -0.06263542175292969,
            0.07125256955623627,
            0.07364864647388458,
            -0.08868080377578735,
            0.0011699944734573364,
            -0.08616116642951965,
            -0.12344875931739807,
            0.10293710976839066,
            0.027925580739974976,
            0.09707187116146088,
            0.05230283737182617,
            0.05879953131079674,
            -0.00498633086681366,
            -0.058610185980796814,
            0.04090641811490059,
            0.04919403791427612,
            0.020059898495674133,
            -0.00012186804815428331,
            0.10368366539478302,
            0.10287846624851227,
            -0.06965167075395584,
            -0.1026107519865036,
            -0.11314958333969116,
            0.02086840569972992,
            0.09208385646343231,
            0.06346101313829422,
            -0.03717923164367676,
            0.09785819053649902,
            -0.0673709511756897,
            0.09262359887361526,
            -0.09698119014501572,
            -0.0584840327501297,
            -0.06926846504211426,
            -0.036849863827228546,
            0.08490046858787537,
            -0.00039573758840560913,
            0.050009340047836304,
            -0.044362057000398636,
            0.04484698176383972,
            -0.07424183189868927,
            0.05826468765735626,
            0.0011804340174421668,
            0.12408997863531113,
            0.0626995712518692,
            -1.0698057413101196,
            0.08476485311985016,
            -0.11668337136507034,
            0.013578241690993309,
            -0.01704508624970913,
            0.021374687552452087,
            0.027159767225384712,
            0.1210901290178299,
            -0.046000540256500244,
            0.0862017273902893,
            -0.10535378009080887,
            0.12155929207801819,
            0.08180412650108337,
            -0.1090230792760849,
            0.0656324177980423,
            -0.09483069181442261,
            0.0011841952800750732,
            0.07209192216396332,
            1.0282652378082275
        ]
    },
    "decoder": {
        "num_inputs": 2,
        "num_outputs": 2,
        "num_hidden_layers": 1,
        "neurons_per_hidden_layer": 64,
        "hidden_layer_activation_function": "relu",
        "final_layer_activation_function": null,
        "bias": true,
        "weights": [
            0.448628306388855,
            -0.5689035654067993,
            -0.16371190547943115,
            -0.23873743414878845,
            -0.305919349193573,
            -0.6410154700279236,
            -0.27700477838516235,
            0.6724082231521606,
            -0.6155881285667419,
            -1.7087714672088623,
            0.14202004671096802,
            0.22128158807754517,
            -0.5845791101455688,
            0.6876201033592224,
            -0.5984269380569458,
            0.3803665041923523,
            0.2812805771827698,
            -0.6246672868728638,
            0.6830992698669434,
            -1.4928689002990723,
            0.37693461775779724,
            -1.3479580879211426,
            -0.19554996490478516,
            -0.5249060988426208,
            0.6370957493782043,
            2.527461290359497,
            0.5192131996154785,
            0.01574818417429924,
            0.018539685755968094,
            -0.43531346321105957,
            -0.5637103915214539,
            -0.4318176507949829,
            0.011568605899810791,
            -0.43726107478141785,
            1.0576568841934204,
            -10.772308349609375,
            0.03415650129318237,
            0.17704308032989502,
            0.19189734756946564,
            -0.66527259349823,
            -0.405943363904953,
            -0.6810321807861328,
            0.7297722101211548,
            -0.2740662693977356,
            -0.034725647419691086,
            -1.315871000289917,
            -0.22164294123649597,
            -0.12322509288787842,
            0.1668277531862259,
            2.1631228923797607,
            -0.5566287040710449,
            -1.7980071306228638,
            -0.07731461524963379,
            0.01054292917251587,
            -0.538490891456604,
            -0.21922597289085388,
            -0.5997706055641174,
            -0.5823918581008911,
            -0.12922099232673645,
            -1.0640631914138794,
            0.6915179491043091,
            -1.107200026512146,
            -0.4985448718070984,
            -0.6031441688537598,
            0.40221351385116577,
            -0.7802358865737915,
            -0.5692027807235718,
            -0.9612765312194824,
            -0.604680597782135,
            -1.0994535684585571,
            0.36198335886001587,
            -1.9215925931930542,
            1.4069263935089111,
            -9.641104698181152,
            0.12484832108020782,
            2.4274842739105225,
            -0.29473450779914856,
            0.06791847944259644,
            0.24385279417037964,
            -0.25455978512763977,
            0.16496014595031738,
            -0.4733184576034546,
            0.6551393866539001,
            -0.4197520315647125,
            0.18894033133983612,
            -1.2411378622055054,
            -0.22620779275894165,
            -0.5085765719413757,
            0.007244368549436331,
            -0.734964907169342,
            0.7071205973625183,
            -1.3534107208251953,
            -0.5184161067008972,
            0.3383423984050751,
            -0.35919860005378723,
            -1.3054637908935547,
            -0.49021607637405396,
            0.6098654866218567,
            -0.11443424224853516,
            -0.5319744944572449,
            -0.19201751053333282,
            0.5521036982536316,
            -0.017610717564821243,
            -1.1803407669067383,
            -0.3400164544582367,
            -1.0534416437149048,
            -0.41817036271095276,
            -0.6973100900650024,
            -0.44180694222450256,
            -1.719754695892334,
            1.1557167768478394,
            -9.175385475158691,
            -0.3682419955730438,
            -0.6874545216560364,
            0.06536108255386353,
            -0.43823373317718506,
            -0.5339112281799316,
            -1.5017988681793213,
            -0.5150065422058105,
            -1.1301850080490112,
            0.4926816523075104,
            1.505375862121582,
            0.5059688687324524,
            -0.005869865417480469,
            0.05627823621034622,
            -1.8490078449249268,
            -0.3156501352787018,
            -1.5408681631088257,
            2.123225688934326,
            -0.2398374080657959,
            -0.698500394821167,
            -0.48505350947380066,
            2.2364137172698975,
            -0.6368774771690369,
            -0.2976328432559967,
            -0.3858374357223511,
            -0.6737884283065796,
            2.2963359355926514,
            2.2364022731781006,
            -0.1333523988723755,
            -0.6335983872413635,
            -0.5757320523262024,
            2.5433099269866943,
            -0.2632278800010681,
            -0.6708317995071411,
            0.9518532156944275,
            -0.5159586668014526,
            2.419219493865967,
            -0.1405489444732666,
            2.5306813716888428,
            2.3142647743225098,
            -0.41777482628822327,
            -0.18094803392887115,
            2.2980761528015137,
            -0.6781733632087708,
            -0.24182841181755066,
            2.490609645843506,
            2.282412528991699,
            1.9850600957870483,
            -0.5284136533737183,
            2.0298967361450195,
            2.474112033843994,
            2.0579333305358887,
            2.01743221282959,
            0.3577789068222046,
            -0.1234632283449173,
            -0.4294908046722412,
            -0.6747109293937683,
            -0.3472314476966858,
            2.26460862159729,
            2.0238869190216064,
            -0.17727959156036377,
            2.0754947662353516,
            2.025139808654785,
            -0.09970424324274063,
            2.289031505584717,
            -0.5132673382759094,
            -0.634289562702179,
            -0.496707022190094,
            2.3279213905334473,
            2.208664655685425,
            2.1338276863098145,
            2.3041911125183105,
            0.5033559799194336,
            -0.4165741205215454,
            -0.159465491771698,
            2.189121961593628,
            1.9959019422531128,
            -0.17513424158096313,
            -0.5677598714828491,
            1.8672467470169067,
            2.0995802879333496,
            -0.03145817667245865,
            0.04053105413913727,
            -0.04347755014896393,
            -0.1430826485157013,
            -0.6789799928665161,
            0.0867154449224472,
            -0.12734252214431763,
            0.03941315412521362,
            -0.05461400747299194,
            -0.2089759260416031,
            -0.27212920784950256,
            -0.1077374815940857,
            0.5866765975952148,
            -0.05788708105683327,
            0.035046618431806564,
            0.05867806077003479,
            -0.01168002188205719,
            3.7724311351776123,
            0.10407321155071259,
            -0.06357293576002121,
            -0.08263722062110901,
            -0.039183542132377625,
            -0.2481890171766281,
            -0.045239999890327454,
            0.4762501120567322,
            -0.6036674976348877,
            -0.06792305409908295,
            -0.11271625757217407,
            -0.21963351964950562,
            -0.2322535365819931,
            -0.14760302007198334,
            -0.10769818723201752,
            0.10445837676525116,
            -0.129314586520195,
            -0.4292401969432831,
            -0.3795483112335205,
            3.3809926509857178,
            0.3592296540737152,
            -0.020696237683296204,
            0.050181493163108826,
            0.024698540568351746,
            -0.07261718064546585,
            -0.15360254049301147,
            0.11527189612388611,
            -0.1739729791879654,
            -0.2839098572731018,
            -0.014974702149629593,
            -0.23873400688171387,
            0.057480111718177795,
            -0.06756642460823059,
            -0.0783628523349762,
            -0.16969558596611023,
            -0.2806904911994934,
            0.01919117197394371,
            -0.449672132730484,
            2.3850226402282715,
            -0.07084240019321442,
            -0.06309978663921356,
            -0.362637996673584,
            -0.3743821978569031,
            0.3356553912162781,
            -0.06957391649484634,
            -0.399044007062912,
            -0.5034044981002808,
            1.643933892250061,
            0.004815161228179932,
            0.04532860219478607,
            0.08283983916044235,
            2.112377643585205,
            0.08138753473758698,
            0.06857506185770035,
            0.016145095229148865,
            -0.03156130015850067,
            1.8578941822052002,
            1.8674901723861694,
            -0.11984315514564514,
            -1.1353586912155151,
            -0.05063591152429581,
            1.4478228092193604,
            -0.10449828207492828,
            -0.08057759702205658,
            1.4816288948059082,
            0.057834550738334656,
            1.5567117929458618,
            -0.014051809906959534,
            1.4059737920761108,
            1.7328550815582275,
            0.07877932488918304,
            -1.0576144456863403,
            2.0675487518310547,
            0.09612470865249634,
            -0.0935824066400528,
            1.525973916053772,
            1.723589301109314,
            1.9495586156845093,
            -0.12167364358901978,
            1.8258914947509766,
            1.6936860084533691,
            1.9776993989944458,
            2.160024404525757,
            1.4703454971313477,
            -0.9963181614875793,
            -0.019898787140846252,
            -0.05713300406932831,
            0.07547974586486816,
            1.577553153038025,
            1.992768406867981,
            0.009367987513542175,
            1.666517972946167,
            1.9610341787338257,
            -0.08329292386770248,
            1.8051775693893433,
            -0.04043104499578476,
            -0.03722217679023743,
            0.09357583522796631,
            1.7703875303268433,
            1.8350147008895874,
            1.7459553480148315,
            2.040102958679199,
            1.2087980508804321,
            0.06861506402492523,
            0.019750893115997314,
            2.040982961654663,
            2.0461764335632324,
            -0.44280460476875305,
            -0.011094404384493828,
            2.372865915298462,
            2.0696115493774414,
            0.16733667254447937,
            1.2375024557113647
        ]
    }
}