{
    "num_epochs": 2000,
    "batch_size": 64,
    "final_g_loss": 0.7541107535362244,
    "final_d_loss": 0.7202070355415344,
    "train_data_exp_dir_path": "data/scp_train_data_non_norm",
    "generator": {
        "num_inputs": 2,
        "num_outputs": 2,
        "num_hidden_layers": 1,
        "neurons_per_hidden_layer": 64,
        "hidden_layer_activation_function": "relu",
        "final_layer_activation_function": null,
        "bias": true,
        "weights": [
            0.9402058124542236,
            0.9750902652740479,
            -0.9943177103996277,
            -1.0611834526062012,
            -1.1040927171707153,
            1.5123791694641113,
            -0.8787616491317749,
            -1.2704919576644897,
            0.4829634726047516,
            -1.3930749893188477,
            1.1276781558990479,
            0.998216450214386,
            0.14119784533977509,
            -0.361780047416687,
            2.213341474533081,
            2.093104124069214,
            -1.7339357137680054,
            -0.5499541759490967,
            0.772400438785553,
            1.173433780670166,
            -0.8977224230766296,
            -0.9082745313644409,
            0.049504898488521576,
            -1.168453335762024,
            1.8125919103622437,
            1.5450893640518188,
            1.1486945152282715,
            1.0923312902450562,
            -0.9996950626373291,
            -1.0511873960494995,
            -0.8919269442558289,
            -0.8843459486961365,
            -0.27990221977233887,
            -0.11967207491397858,
            0.08308321237564087,
            -0.05885535478591919,
            1.1849256753921509,
            1.0136083364486694,
            1.056994915008545,
            -0.560469388961792,
            1.7468845844268799,
            0.25100332498550415,
            0.9814454317092896,
            0.5586758852005005,
            1.89643132686615,
            1.3549940586090088,
            0.18697860836982727,
            -1.6019997596740723,
            0.4728422462940216,
            -1.3727480173110962,
            -0.8575324416160583,
            -0.9499475359916687,
            1.1411974430084229,
            -0.658128023147583,
            -0.28575780987739563,
            -0.24881646037101746,
            0.962894082069397,
            1.000781536102295,
            -1.689816951751709,
            -1.509365439414978,
            1.0312612056732178,
            0.9373679757118225,
            -1.5745954513549805,
            -0.7069417238235474,
            -1.5393617153167725,
            -1.168347716331482,
            -1.182721495628357,
            0.6681909561157227,
            -1.5781900882720947,
            -1.25066077709198,
            -1.2530732154846191,
            -0.032964836806058884,
            0.035143397748470306,
            2.149068832397461,
            1.0162353515625,
            0.8645808696746826,
            -1.4526069164276123,
            -1.0027990341186523,
            -0.06760744750499725,
            -1.1177310943603516,
            0.2721807360649109,
            -0.738174319267273,
            -1.3935251235961914,
            0.4493694007396698,
            2.2033846378326416,
            1.7338618040084839,
            1.2485684156417847,
            0.6635437607765198,
            -0.6914216876029968,
            -0.8390063047409058,
            -1.4539484977722168,
            -0.3409155607223511,
            0.8240965008735657,
            0.5774433612823486,
            -0.8694969415664673,
            -1.1989268064498901,
            -1.1440986394882202,
            0.402564138174057,
            -0.5049806237220764,
            -1.06129789352417,
            2.013068437576294,
            2.085859537124634,
            -0.24897755682468414,
            -0.7872071266174316,
            1.6128956079483032,
            1.5086932182312012,
            1.2227094173431396,
            1.7190806865692139,
            0.8815295100212097,
            0.7814315557479858,
            1.9642231464385986,
            1.3506497144699097,
            1.8176640272140503,
            -0.35668691992759705,
            -0.8109480142593384,
            1.5103633403778076,
            -0.9200711846351624,
            0.4258652329444885,
            -1.4006085395812988,
            -1.3237618207931519,
            -0.9443315267562866,
            -0.9529663920402527,
            -0.9850608110427856,
            -0.9536974430084229,
            -0.8416332006454468,
            -0.020059656351804733,
            -0.20463700592517853,
            -0.4295113980770111,
            1.9013874530792236,
            0.18508532643318176,
            1.1383758783340454,
            0.07447405159473419,
            0.7949098348617554,
            2.061720609664917,
            1.7432938814163208,
            0.8920562267303467,
            0.8083750009536743,
            1.820980429649353,
            0.2145710289478302,
            1.7553786039352417,
            1.093405842781067,
            2.1968138217926025,
            0.5105032324790955,
            0.30215370655059814,
            1.6602340936660767,
            -0.6412280201911926,
            2.1318864822387695,
            1.661944031715393,
            1.384455919265747,
            1.5380653142929077,
            0.8697509765625,
            0.07470278441905975,
            1.0476261377334595,
            1.4424582719802856,
            0.6231188774108887,
            -0.5018360614776611,
            1.949593186378479,
            1.0552741289138794,
            1.9146770238876343,
            1.6361027956008911,
            1.1481378078460693,
            1.143317699432373,
            0.8307343125343323,
            1.584864854812622,
            0.6920515298843384,
            1.8219728469848633,
            1.3072187900543213,
            -0.2365412712097168,
            1.7205531597137451,
            1.1513727903366089,
            0.6637977957725525,
            1.8858722448349,
            0.014622559770941734,
            1.3564096689224243,
            1.37247633934021,
            -0.0017938138917088509,
            1.4626942873001099,
            1.6446999311447144,
            0.8641796708106995,
            1.0119924545288086,
            1.0535680055618286,
            0.9174069166183472,
            1.6123313903808594,
            1.0148624181747437,
            0.43802130222320557,
            0.9788535833358765,
            1.2026134729385376,
            0.627342700958252,
            -0.03192416578531265,
            0.09639247506856918,
            1.7556661367416382,
            1.791314721107483,
            0.6378331780433655,
            -0.33966609835624695,
            -0.24493452906608582,
            -0.27501150965690613,
            -0.01801028661429882,
            0.8144118785858154,
            -0.23975244164466858,
            -1.0327414274215698,
            -0.11749764531850815,
            0.4300408959388733,
            -0.4085601568222046,
            -0.17602601647377014,
            -0.6953831315040588,
            0.7264938354492188,
            -0.42359471321105957,
            -0.3917093873023987,
            -0.10814813524484634,
            0.018255889415740967,
            0.7249415516853333,
            -0.29089370369911194,
            -0.07127084583044052,
            0.6305804252624512,
            -0.8429104685783386,
            0.19226136803627014,
            -0.032627638429403305,
            -0.08953823894262314,
            -0.09369257092475891,
            0.7576260566711426,
            0.615247368812561,
            -0.22563894093036652,
            0.8651443719863892,
            -0.23725830018520355,
            -0.2099279761314392,
            0.11133190244436264,
            -0.24697114527225494,
            -0.10398369282484055,
            0.31219038367271423,
            0.6666725277900696,
            -0.20767252147197723,
            0.15485075116157532,
            -0.17891991138458252,
            -0.05084028095006943,
            -1.1055423021316528,
            0.5944479703903198,
            -0.2361370325088501,
            -0.1732868254184723,
            0.2615136206150055,
            -0.294662207365036,
            -0.16335654258728027,
            -0.00887859333306551,
            -1.0543475151062012,
            -0.1045697033405304,
            -0.7069599032402039,
            -0.6718342900276184,
            0.5407297015190125,
            -0.7906123399734497,
            -0.06491580605506897,
            -0.21905411779880524,
            -0.0299025010317564,
            -0.161424919962883,
            -0.18746303021907806,
            -0.05155705660581589,
            -0.019961383193731308,
            -0.18156495690345764,
            1.3763500452041626,
            0.4818016588687897,
            1.0218479633331299,
            0.7192611694335938,
            0.9979067444801331,
            1.4415953159332275,
            1.155676245689392,
            1.1213936805725098,
            1.006974697113037,
            1.3223068714141846,
            0.9069620370864868,
            1.068664789199829,
            1.0675127506256104,
            1.3733737468719482,
            0.6684495806694031,
            0.9026037454605103,
            1.080057978630066,
            -0.0027857571840286255,
            1.3276785612106323,
            1.0067353248596191,
            1.0911914110183716,
            1.279483437538147,
            1.18080735206604,
            0.9167641401290894,
            1.1111706495285034,
            1.0560885667800903,
            0.8232106566429138,
            0.6165417432785034,
            1.4227941036224365,
            0.8024389743804932,
            1.4028234481811523,
            1.067922830581665,
            0.8955448865890503,
            1.0663095712661743,
            0.8267051577568054,
            1.2005099058151245,
            1.3123536109924316,
            1.1562308073043823,
            1.148422122001648,
            0.8616177439689636,
            1.0221706628799438,
            1.0913307666778564,
            1.1799018383026123,
            1.4146885871887207,
            0.516903281211853,
            1.0847135782241821,
            1.443367600440979,
            0.6569203734397888,
            1.234856128692627,
            1.0827748775482178,
            1.2059458494186401,
            1.0626479387283325,
            0.9928192496299744,
            1.1698696613311768,
            1.5006732940673828,
            1.137704849243164,
            0.9268304705619812,
            0.9158210158348083,
            1.1010061502456665,
            0.7620862126350403,
            0.6391006112098694,
            0.8464848399162292,
            1.1572530269622803,
            1.1447190046310425,
            -0.12088408321142197,
            1.1238290071487427
        ]
    },
    "discriminator": {
        "num_inputs": 2,
        "num_outputs": 1,
        "num_hidden_layers": 1,
        "neurons_per_hidden_layer": 64,
        "hidden_layer_activation_function": "relu",
        "final_layer_activation_function": "sigmoid",
        "bias": true,
        "weights": [
            0.07389603555202484,
            -0.0022563727106899023,
            -0.3395237922668457,
            0.12473157793283463,
            -0.7424499988555908,
            0.26766952872276306,
            -0.22561879456043243,
            0.48468300700187683,
            0.5293312668800354,
            -0.5488553047180176,
            -0.3931899666786194,
            -0.06983887404203415,
            0.6967819929122925,
            0.4495905637741089,
            0.11359065771102905,
            -0.11515295505523682,
            -0.6992141604423523,
            0.03363042697310448,
            0.5268319845199585,
            -0.004946633707731962,
            -0.4763510823249817,
            0.07787393033504486,
            -0.5869063138961792,
            0.5805932879447937,
            0.32732298970222473,
            0.05413828790187836,
            0.621632993221283,
            0.09835805743932724,
            0.20974889397621155,
            0.32244589924812317,
            0.6304707527160645,
            0.05923968181014061,
            0.01707202009856701,
            -0.02642710506916046,
            0.6919671297073364,
            -0.8529203534126282,
            0.17211294174194336,
            0.013097508810460567,
            -0.7164489030838013,
            -0.5714085102081299,
            0.2880755662918091,
            -0.6128697395324707,
            0.2929736077785492,
            0.69202721118927,
            -0.041202694177627563,
            0.06591823697090149,
            0.11203595250844955,
            -0.24856352806091309,
            -0.024122608825564384,
            0.5489741563796997,
            0.291674941778183,
            0.37312179803848267,
            -0.37599536776542664,
            0.2192857712507248,
            -0.26480352878570557,
            0.13091616332530975,
            0.4954761266708374,
            -0.27968353033065796,
            -0.41512009501457214,
            0.016786957159638405,
            0.08079033344984055,
            -0.4253213703632355,
            0.24390728771686554,
            -0.031188642606139183,
            0.13239634037017822,
            0.46559250354766846,
            0.29447034001350403,
            0.03966957703232765,
            -0.37151622772216797,
            -0.01944904774427414,
            0.2652732729911804,
            0.6152509450912476,
            0.4235156178474426,
            -0.32869648933410645,
            -0.5950121879577637,
            0.7952640652656555,
            -0.28484195470809937,
            0.15059059858322144,
            -0.281120240688324,
            0.46737170219421387,
            0.5886264443397522,
            0.5672187805175781,
            0.14862540364265442,
            0.026019949465990067,
            -0.6787543296813965,
            0.02891327627003193,
            0.4174599051475525,
            -0.030976569280028343,
            -0.18672826886177063,
            0.21804048120975494,
            -0.7143110036849976,
            -0.4528809189796448,
            0.15692801773548126,
            0.4975537061691284,
            0.6696099638938904,
            0.4300203025341034,
            0.39105886220932007,
            -0.1439186930656433,
            -0.27114567160606384,
            -0.033727530390024185,
            0.3163765072822571,
            -0.7988379001617432,
            -0.5249726176261902,
            -0.07917854189872742,
            -0.12879538536071777,
            0.4186166524887085,
            0.04713227599859238,
            0.40977349877357483,
            0.1002858504652977,
            0.2681151330471039,
            -0.6502529382705688,
            -0.12301225960254669,
            -0.19328591227531433,
            -0.4336757957935333,
            0.6362333297729492,
            -0.8679819703102112,
            -0.4188479781150818,
            -1.0602612495422363,
            -0.6332141757011414,
            0.21543516218662262,
            0.6080820560455322,
            0.46592843532562256,
            0.09683592617511749,
            -0.39377787709236145,
            0.32405829429626465,
            0.050938598811626434,
            0.22836869955062866,
            -0.31595444679260254,
            -0.460850328207016,
            0.3255597651004791,
            -0.07301005721092224,
            -0.14907586574554443,
            -0.5748336315155029,
            -0.46755895018577576,
            -0.2601284980773926,
            -0.38199517130851746,
            -0.2236187905073166,
            -0.9983006715774536,
            0.48088160157203674,
            -0.08839655667543411,
            0.4182548522949219,
            0.3505985736846924,
            0.11480189859867096,
            -0.05392519012093544,
            1.062077283859253,
            -0.1934107393026352,
            0.3068934977054596,
            0.5014601349830627,
            0.15919005870819092,
            -0.2566531300544739,
            -0.15400360524654388,
            0.9853596091270447,
            0.20214280486106873,
            -0.08483073115348816,
            -0.0002989770728163421,
            0.45408767461776733,
            -0.670576810836792,
            0.19145400822162628,
            0.569355309009552,
            0.9421031475067139,
            0.09964646399021149,
            0.43848854303359985,
            0.4440709948539734,
            0.33600515127182007,
            -0.5417212247848511,
            -0.44032034277915955,
            0.31642070412635803,
            0.05163039639592171,
            0.3349519371986389,
            -0.12783583998680115,
            -0.005399146117269993,
            0.4725157618522644,
            0.4180353283882141,
            0.44685661792755127,
            -0.03333445265889168,
            -0.1480158120393753,
            -0.5593950748443604,
            0.8695913553237915,
            -0.08988090604543686,
            0.5223962068557739,
            -0.23179708421230316,
            0.05414962023496628,
            0.3949122428894043,
            0.5125203132629395,
            -0.4584123492240906,
            0.10220060497522354,
            0.1284288763999939,
            -0.07609107345342636,
            0.2782331109046936,
            0.4675041735172272,
            0.18600478768348694,
            -0.3722218871116638,
            -0.05782719701528549,
            -0.25809428095817566,
            0.33590441942214966,
            -0.32001838088035583,
            -0.008680898696184158,
            -1.0208231210708618,
            -0.31850096583366394,
            -0.11544293165206909,
            -0.5256564617156982,
            -0.41359570622444153,
            0.0554937981069088,
            0.2849233150482178,
            -0.26933562755584717,
            -0.322756826877594,
            0.32592666149139404,
            -0.15838272869586945,
            -1.4887028932571411,
            -0.3395354151725769,
            -0.022297676652669907,
            -0.4703635275363922,
            -0.16362647712230682,
            0.37969085574150085,
            -0.34356123208999634,
            -0.49719861149787903,
            0.2908526062965393,
            0.4424934685230255,
            0.28733715415000916,
            -0.38610219955444336,
            0.029882382601499557,
            -0.3189135491847992,
            -0.21628208458423615,
            -0.7940100431442261,
            -0.4436645805835724,
            -0.18489329516887665,
            0.27595531940460205,
            0.2493697553873062,
            0.05017773061990738,
            0.23724614083766937,
            -0.2936914265155792,
            -0.3919968605041504,
            0.21323247253894806,
            -0.35440170764923096,
            -0.35545700788497925,
            -0.19658765196800232,
            -0.43512049317359924,
            -0.2156277745962143,
            0.3014147877693176,
            -0.47671157121658325,
            0.023273959755897522,
            -0.5736603736877441,
            -0.3737506568431854,
            1.0660524368286133,
            -0.5001236796379089,
            0.25380876660346985,
            0.23755046725273132,
            -1.4128905534744263,
            -0.016790995374321938,
            -0.3699033260345459,
            -0.3735417127609253,
            -0.4320777952671051,
            -0.4850674569606781,
            -0.32073870301246643,
            -0.3128529489040375,
            0.008460735902190208,
            0.2759738564491272
        ]
    }
}