{
    "num_epochs": 2000,
    "batch_size": 64,
    "final_g_loss": 0.7893496751785278,
    "final_d_loss": 0.7598839402198792,
    "train_data_exp_dir_path": "data/scp_train_data_non_norm",
    "generator": {
        "num_inputs": 2,
        "num_outputs": 2,
        "num_hidden_layers": 1,
        "neurons_per_hidden_layer": 64,
        "hidden_layer_activation_function": "relu",
        "final_layer_activation_function": null,
        "bias": true,
        "weights": [
            -0.8646495938301086,
            1.6197116374969482,
            -0.7609972357749939,
            -1.9002805948257446,
            2.1684162616729736,
            0.7025067806243896,
            -1.122000813484192,
            -0.7390499114990234,
            -0.5614079833030701,
            -0.7580730319023132,
            0.8577582240104675,
            -0.7372757196426392,
            1.2575958967208862,
            1.1280517578125,
            1.1267753839492798,
            1.3598576784133911,
            -0.11597547680139542,
            -0.5984176397323608,
            -1.6347898244857788,
            1.018816351890564,
            0.23529474437236786,
            0.08630409091711044,
            -2.4970922470092773,
            -0.8110077381134033,
            1.3960360288619995,
            -1.0275338888168335,
            0.8835177421569824,
            1.4333672523498535,
            0.16793972253799438,
            -0.832217812538147,
            2.1933772563934326,
            0.8144927024841309,
            1.0582584142684937,
            1.2187188863754272,
            0.8494184613227844,
            1.3857998847961426,
            -2.352426767349243,
            -0.24530424177646637,
            -1.796111822128296,
            1.296093225479126,
            0.9879026412963867,
            -1.041085958480835,
            1.077188491821289,
            0.5461491346359253,
            1.2407448291778564,
            -0.894536018371582,
            1.383551836013794,
            -0.7187964916229248,
            -2.4083096981048584,
            -0.21872903406620026,
            0.9619112610816956,
            -0.7483885884284973,
            1.3960175514221191,
            -0.4533972144126892,
            -2.471134901046753,
            -0.498989075422287,
            -0.3401258885860443,
            0.13178667426109314,
            1.021674633026123,
            1.7085009813308716,
            0.9259873032569885,
            1.7595515251159668,
            0.5125588178634644,
            -1.5087865591049194,
            1.5484719276428223,
            -0.8745394349098206,
            0.8656297326087952,
            -0.470296174287796,
            -0.2664385437965393,
            -0.9837590456008911,
            1.7378895282745361,
            -1.2137118577957153,
            1.3627758026123047,
            -0.8125333786010742,
            -1.4834251403808594,
            1.701696753501892,
            1.362985372543335,
            -0.8104513883590698,
            0.6953705549240112,
            1.5940438508987427,
            1.456672191619873,
            -1.0001946687698364,
            0.18712562322616577,
            -0.14526629447937012,
            1.4603617191314697,
            -0.2051125317811966,
            -0.23359325528144836,
            -0.5925248265266418,
            -0.7830541729927063,
            -0.5305306315422058,
            2.1652681827545166,
            0.5357094407081604,
            -0.2997806966304779,
            0.7649199366569519,
            1.2638826370239258,
            -0.7060675621032715,
            -2.0788748264312744,
            -0.8081859350204468,
            1.5147000551223755,
            0.5358782410621643,
            -0.39088326692581177,
            -2.012357234954834,
            0.428798109292984,
            -1.5127511024475098,
            -0.08573221415281296,
            -0.025528060272336006,
            -1.3866633176803589,
            1.4819347858428955,
            -1.7048999071121216,
            1.367538332939148,
            -2.4855592250823975,
            0.10527558624744415,
            1.1318939924240112,
            -0.7692740559577942,
            0.16485032439231873,
            -0.152044415473938,
            1.1946604251861572,
            -1.1572120189666748,
            0.12512052059173584,
            -1.5020455121994019,
            -2.3188438415527344,
            -0.9194318056106567,
            1.6078728437423706,
            -1.2987152338027954,
            1.4976575374603271,
            -0.41328150033950806,
            -1.6463046073913574,
            -1.4653422832489014,
            0.7232323884963989,
            1.1925336122512817,
            0.6106535792350769,
            -0.379537433385849,
            1.6594427824020386,
            0.5933009386062622,
            2.1269102096557617,
            1.7764629125595093,
            1.5445183515548706,
            0.6178061962127686,
            -0.501462996006012,
            0.30493080615997314,
            0.6209210753440857,
            1.3805596828460693,
            0.3252546489238739,
            0.8068529367446899,
            1.6939105987548828,
            1.2837462425231934,
            0.5351371169090271,
            0.967640221118927,
            1.1265413761138916,
            1.8058816194534302,
            0.5292315483093262,
            1.041246771812439,
            0.6769734025001526,
            0.3308412730693817,
            -0.09002398699522018,
            0.46145161986351013,
            1.8391358852386475,
            1.198602557182312,
            1.2349042892456055,
            0.4924759864807129,
            1.1384251117706299,
            0.6690833568572998,
            1.6261428594589233,
            0.9889454245567322,
            0.8532989025115967,
            0.7657389640808105,
            0.9327518343925476,
            0.9869379997253418,
            0.973701000213623,
            1.8434969186782837,
            0.17216309905052185,
            1.5629602670669556,
            1.4807928800582886,
            1.087550163269043,
            1.9298219680786133,
            0.2952106297016144,
            0.12247545272111893,
            0.16974440217018127,
            0.40187302231788635,
            0.5794171690940857,
            -0.4390588104724884,
            1.270361304283142,
            0.9196343421936035,
            0.9891705513000488,
            0.574376106262207,
            1.8548485040664673,
            0.9103031754493713,
            1.1391404867172241,
            0.27966082096099854,
            0.3476411700248718,
            0.10435499250888824,
            1.0300037860870361,
            -0.11055365949869156,
            -0.25488245487213135,
            -0.6468957662582397,
            -0.05966702848672867,
            -0.09973124414682388,
            0.18276163935661316,
            0.3855370283126831,
            0.1633998304605484,
            -0.1338336020708084,
            -0.02602318488061428,
            0.19753167033195496,
            -0.4091264605522156,
            0.11053009331226349,
            0.30107635259628296,
            0.2904900908470154,
            -0.4806883633136749,
            0.20249256491661072,
            0.2095944583415985,
            -0.33314332365989685,
            -0.09980972111225128,
            0.12197422236204147,
            0.4305870831012726,
            0.03656600043177605,
            0.1052652895450592,
            -0.4842442572116852,
            0.07404502481222153,
            -0.36386898159980774,
            -0.5235691070556641,
            -0.2065935730934143,
            0.010776115581393242,
            0.12219686061143875,
            -0.03655853122472763,
            0.2061619609594345,
            0.15197569131851196,
            -0.00220206705853343,
            0.16618569195270538,
            0.0547109954059124,
            -0.03540511801838875,
            0.1501864492893219,
            0.2928074300289154,
            0.16307605803012848,
            0.015215526334941387,
            -0.2824459373950958,
            0.026191672310233116,
            -0.13399958610534668,
            -0.30499428510665894,
            -0.23718075454235077,
            -0.07503744959831238,
            -0.7108116149902344,
            -0.8714737296104431,
            -0.02059827744960785,
            0.02629476971924305,
            0.08527752757072449,
            -0.0075395843014121056,
            0.010262245312333107,
            -0.3313094973564148,
            0.0933721736073494,
            0.07672824710607529,
            0.12561450898647308,
            0.004749941639602184,
            -0.6333850026130676,
            0.07508944720029831,
            -0.2521747648715973,
            -0.34620004892349243,
            1.1247972249984741,
            1.2597744464874268,
            0.9944519400596619,
            0.644080638885498,
            1.3639121055603027,
            0.5377866625785828,
            1.5130776166915894,
            1.5661293268203735,
            1.4149166345596313,
            1.4665518999099731,
            -0.3275432288646698,
            1.7021658420562744,
            0.7582803964614868,
            1.6314058303833008,
            0.5515478849411011,
            1.139228105545044,
            1.6137783527374268,
            1.5381934642791748,
            1.5826226472854614,
            1.2927584648132324,
            0.8192947506904602,
            1.4705555438995361,
            0.6965835690498352,
            0.8685171604156494,
            1.6584430932998657,
            0.8194489479064941,
            0.9145936965942383,
            1.5983872413635254,
            1.3073018789291382,
            1.686728835105896,
            1.681325912475586,
            0.8465147614479065,
            0.7142453193664551,
            0.6325389742851257,
            1.3525809049606323,
            0.8028305768966675,
            0.6745885610580444,
            1.3022072315216064,
            0.7138806581497192,
            1.520367980003357,
            0.7379851937294006,
            1.192238450050354,
            0.9443461298942566,
            1.4303202629089355,
            1.5592374801635742,
            1.069689393043518,
            1.1397768259048462,
            1.069600224494934,
            1.5186645984649658,
            0.5656283497810364,
            1.1680152416229248,
            0.8121488690376282,
            0.051644466817379,
            1.3603663444519043,
            1.424416422843933,
            1.6228537559509277,
            0.930435836315155,
            1.2727420330047607,
            0.7083102464675903,
            1.1839450597763062,
            1.5334447622299194,
            0.9956048130989075,
            1.078941822052002,
            1.5015069246292114,
            -0.04416140541434288,
            1.259555697441101
        ]
    },
    "discriminator": {
        "num_inputs": 2,
        "num_outputs": 1,
        "num_hidden_layers": 1,
        "neurons_per_hidden_layer": 64,
        "hidden_layer_activation_function": "relu",
        "final_layer_activation_function": "sigmoid",
        "bias": true,
        "weights": [
            0.709671139717102,
            0.5708540081977844,
            0.24805033206939697,
            0.5433163642883301,
            -0.5765161514282227,
            -0.1088952124118805,
            0.6037970185279846,
            0.08409833163022995,
            -0.23337990045547485,
            -0.26214125752449036,
            -0.6732782125473022,
            -0.660152792930603,
            0.7821652293205261,
            -0.6124337911605835,
            0.04339779168367386,
            0.013502887450158596,
            -0.12800513207912445,
            0.5978512763977051,
            -0.08482182025909424,
            -0.13257789611816406,
            -0.3963433504104614,
            0.017867496237158775,
            0.11681872606277466,
            -0.023540019989013672,
            -0.268898069858551,
            -0.6650145649909973,
            -0.6811338663101196,
            0.03435472398996353,
            0.2848222553730011,
            -0.3049183785915375,
            -0.4044667184352875,
            0.010609688237309456,
            -0.08577749878168106,
            0.1565883904695511,
            -0.18158705532550812,
            0.8236331343650818,
            -0.42924201488494873,
            0.18191060423851013,
            0.31959161162376404,
            0.21031920611858368,
            -0.20928329229354858,
            -0.32693782448768616,
            -0.15026384592056274,
            0.6112854480743408,
            0.7342468500137329,
            -0.7313808798789978,
            -0.33121258020401,
            0.022151079028844833,
            0.21595890820026398,
            0.5631797909736633,
            0.6770700216293335,
            0.15754356980323792,
            -0.42990970611572266,
            -0.08332928270101547,
            -0.02708050049841404,
            0.6788232922554016,
            0.6419904828071594,
            -0.38449010252952576,
            -0.3186812102794647,
            0.3069123923778534,
            -0.43916431069374084,
            -0.2660196125507355,
            -0.3328990936279297,
            0.016618067398667336,
            -0.227256178855896,
            0.5112523436546326,
            -0.32473325729370117,
            -0.3328508138656616,
            0.41276711225509644,
            0.5163702368736267,
            -0.32315391302108765,
            0.5402963161468506,
            -0.23645494878292084,
            0.3304080665111542,
            0.11828687787055969,
            0.6347007751464844,
            -0.0575270913541317,
            -0.03491803631186485,
            0.16473068296909332,
            0.3408074378967285,
            0.4511553943157196,
            0.34980306029319763,
            -0.7270822525024414,
            0.600540816783905,
            0.5559142231941223,
            0.2699141502380371,
            0.18285347521305084,
            -0.03019890934228897,
            -0.6329175233840942,
            0.48042306303977966,
            0.46516501903533936,
            0.33257368206977844,
            0.5275713801383972,
            0.7791503667831421,
            0.3417060673236847,
            -0.00038957863580435514,
            0.03734013810753822,
            -0.02949383109807968,
            0.09634104371070862,
            0.7379343509674072,
            0.2557561993598938,
            0.5073031187057495,
            -0.13459596037864685,
            -0.7782232761383057,
            0.32564157247543335,
            0.4080173969268799,
            -0.05530223250389099,
            0.4896072447299957,
            0.20847564935684204,
            0.036446187645196915,
            0.5525774359703064,
            0.09375899285078049,
            -0.21977382898330688,
            0.4627530574798584,
            0.6106622815132141,
            0.506242573261261,
            -0.3253246247768402,
            -0.21875923871994019,
            0.5220094323158264,
            -0.037566687911748886,
            -0.5609496235847473,
            0.6869122385978699,
            0.4578400254249573,
            0.6187329292297363,
            0.40050622820854187,
            0.003696250496432185,
            -0.14219850301742554,
            -0.19949477910995483,
            -0.77607661485672,
            -0.09442111849784851,
            0.5682651996612549,
            0.8733431696891785,
            -0.5381745100021362,
            -0.25806552171707153,
            0.8489229083061218,
            -0.34503138065338135,
            0.25990673899650574,
            -0.70408034324646,
            -0.03698669373989105,
            -0.24628368020057678,
            -0.6256042718887329,
            -0.28859442472457886,
            -0.48359906673431396,
            0.3943078815937042,
            -0.1224631518125534,
            -0.2768864333629608,
            0.23415769636631012,
            0.29237785935401917,
            -0.5119928121566772,
            0.2715187966823578,
            0.2747303545475006,
            -0.08071904629468918,
            -0.1384393274784088,
            -0.26931679248809814,
            0.4143838584423065,
            -0.14668606221675873,
            0.1073070764541626,
            -0.2323179841041565,
            -0.17102599143981934,
            -0.11887083947658539,
            -0.16688129305839539,
            -0.10952705889940262,
            0.2528655529022217,
            0.3853525221347809,
            0.3188161551952362,
            0.35551732778549194,
            1.1453262567520142,
            0.36248937249183655,
            0.05356637388467789,
            0.4367160499095917,
            0.23524720966815948,
            1.1922067403793335,
            -0.2794156074523926,
            -0.21502183377742767,
            -0.3837740123271942,
            -0.968041718006134,
            1.2294589281082153,
            -0.051514141261577606,
            0.3698510229587555,
            0.9523400068283081,
            0.06644552946090698,
            0.32220181822776794,
            0.07282927632331848,
            0.38616061210632324,
            -0.12494882196187973,
            -0.0527966283261776,
            -0.18677610158920288,
            0.8223827481269836,
            -0.3610976040363312,
            0.1315321922302246,
            0.9680623412132263,
            -0.7069284319877625,
            -0.07401418685913086,
            0.22837069630622864,
            -3.7714014053344727,
            0.7066594958305359,
            0.07123063504695892,
            -0.06453829258680344,
            -1.0223536491394043,
            -0.25703221559524536,
            0.2129688560962677,
            0.07093046605587006,
            -0.3894735872745514,
            -0.03340074419975281,
            -0.0017589435447007418,
            -0.5100411176681519,
            0.0447765588760376,
            -0.21622928977012634,
            -0.42367658019065857,
            0.29371270537376404,
            -0.2083602398633957,
            -0.2819218933582306,
            0.07100081443786621,
            -0.27686843276023865,
            -0.4934512972831726,
            -0.387600302696228,
            0.3906209170818329,
            -0.17797671258449554,
            -2.7861742973327637,
            -0.3121664226055145,
            -0.15634645521640778,
            0.2897748351097107,
            -0.031490933150053024,
            -0.4066550135612488,
            0.312055379152298,
            -0.06190590187907219,
            0.08203762024641037,
            -0.31714972853660583,
            -0.43207138776779175,
            -0.38038790225982666,
            -2.0259320735931396,
            -0.31759852170944214,
            0.13211345672607422,
            0.114877849817276,
            -0.3512384593486786,
            -2.349909543991089,
            0.4551452100276947,
            0.4266020953655243,
            0.20928722620010376,
            -1.0768338441848755,
            -1.8324517011642456,
            -0.3045017123222351,
            -0.298694372177124,
            -0.9582346677780151,
            -0.3115970492362976,
            0.15639515221118927,
            -0.1754986196756363,
            -0.3075958788394928,
            0.3490649461746216,
            -0.3005469739437103,
            -0.017711738124489784,
            -0.9603634476661682,
            0.38384050130844116,
            -0.15587975084781647,
            -0.1497374027967453,
            -0.01483452320098877,
            0.39353427290916443
        ]
    }
}