{
    "num_epochs": 2000,
    "batch_size": 64,
    "final_g_loss": 0.7301287651062012,
    "final_d_loss": 0.725018322467804,
    "train_data_exp_dir_path": "data/scp_train_data_non_norm",
    "generator": {
        "num_inputs": 2,
        "num_outputs": 2,
        "num_hidden_layers": 1,
        "neurons_per_hidden_layer": 64,
        "hidden_layer_activation_function": "relu",
        "final_layer_activation_function": null,
        "bias": true,
        "weights": [
            -0.9071412682533264,
            1.3907300233840942,
            -1.9417850971221924,
            -1.3142346143722534,
            -1.6719893217086792,
            -1.2598050832748413,
            -1.5234419107437134,
            -1.4833178520202637,
            -1.610769510269165,
            -0.9476271271705627,
            -0.07860583066940308,
            -0.08920101076364517,
            -1.1049045324325562,
            1.219640851020813,
            -1.8136396408081055,
            0.6623715162277222,
            0.9654377102851868,
            0.930986762046814,
            -1.267357349395752,
            -1.301956057548523,
            -1.4778621196746826,
            -1.4253294467926025,
            -1.217271327972412,
            -1.1292616128921509,
            1.550593376159668,
            0.9142851233482361,
            -1.582546353340149,
            1.2511518001556396,
            -1.765546441078186,
            1.012276291847229,
            -0.6441699862480164,
            1.1023340225219727,
            -1.0057533979415894,
            -1.4710400104522705,
            -1.62795090675354,
            -1.813482403755188,
            1.3591558933258057,
            1.030390739440918,
            -1.3628134727478027,
            1.6328800916671753,
            0.7453758716583252,
            -1.4148409366607666,
            1.1438201665878296,
            -1.1788570880889893,
            1.1438753604888916,
            1.1400073766708374,
            1.3378711938858032,
            1.052535891532898,
            -1.4012938737869263,
            -1.807497501373291,
            1.1692670583724976,
            -1.687322974205017,
            1.2769349813461304,
            -1.172745704650879,
            -0.9575749039649963,
            1.582592487335205,
            0.5396341681480408,
            0.0677269697189331,
            1.6137830018997192,
            0.8858346939086914,
            -0.0841277688741684,
            -0.11123234778642654,
            -1.0645196437835693,
            -0.871716320514679,
            1.297975778579712,
            1.4640851020812988,
            -1.2280850410461426,
            -1.6231396198272705,
            0.969464123249054,
            -1.3656675815582275,
            0.4963962137699127,
            -0.07095436006784439,
            1.5370441675186157,
            0.9601550102233887,
            0.6245648860931396,
            1.274105429649353,
            0.003342496696859598,
            0.023022109642624855,
            -1.0242723226547241,
            -1.764501690864563,
            1.6171623468399048,
            1.4328595399856567,
            1.0765990018844604,
            -1.828782558441162,
            -1.776094913482666,
            1.5929768085479736,
            1.8194010257720947,
            0.7887197136878967,
            1.5425190925598145,
            1.190718412399292,
            -0.48939645290374756,
            -0.9481736421585083,
            -1.2851550579071045,
            -1.7319921255111694,
            1.1998542547225952,
            -1.644190788269043,
            -1.8071601390838623,
            -1.3618425130844116,
            -1.885401725769043,
            0.8076949715614319,
            -1.6584885120391846,
            1.028535008430481,
            1.290448784828186,
            -1.0495222806930542,
            -1.4934886693954468,
            -1.2634674310684204,
            -1.3952300548553467,
            -1.4582256078720093,
            1.2794259786605835,
            0.5232195258140564,
            1.2961187362670898,
            1.3349727392196655,
            -1.5502084493637085,
            1.0237932205200195,
            -1.8294503688812256,
            -1.767125129699707,
            0.2889752984046936,
            1.0324230194091797,
            0.9269295334815979,
            -1.4643661975860596,
            1.158575177192688,
            -1.528019666671753,
            -1.3310729265213013,
            0.4313136339187622,
            1.7271653413772583,
            1.1818641424179077,
            1.521350622177124,
            1.5609214305877686,
            1.4469479322433472,
            1.0684012174606323,
            1.476436734199524,
            1.3148257732391357,
            1.3914443254470825,
            -0.5391371846199036,
            1.202742338180542,
            0.4144062101840973,
            0.7510464191436768,
            1.3025004863739014,
            0.9777310490608215,
            1.19438898563385,
            0.8889232873916626,
            1.0895991325378418,
            0.7790156006813049,
            1.3736826181411743,
            0.6792280077934265,
            0.9069017171859741,
            1.2149523496627808,
            0.5176547169685364,
            1.1301932334899902,
            0.776181161403656,
            0.7067774534225464,
            0.7945486903190613,
            0.8901652097702026,
            0.48629459738731384,
            1.0490167140960693,
            0.39080196619033813,
            1.711363673210144,
            0.9991162419319153,
            -0.6054003238677979,
            1.5799239873886108,
            0.4763936996459961,
            0.9195212125778198,
            1.2270718812942505,
            1.610031247138977,
            0.7634961009025574,
            1.4220385551452637,
            -0.11044616997241974,
            1.7332247495651245,
            0.8911710381507874,
            0.44530758261680603,
            0.7206332087516785,
            1.0903972387313843,
            0.9642701148986816,
            1.2753654718399048,
            1.5567653179168701,
            1.649092435836792,
            1.013522982597351,
            1.0518699884414673,
            1.204716444015503,
            0.838695228099823,
            0.9640301465988159,
            1.0959837436676025,
            1.4134691953659058,
            0.7450876235961914,
            1.0683050155639648,
            1.2374731302261353,
            1.5632175207138062,
            0.826921284198761,
            1.6556613445281982,
            1.5037922859191895,
            0.42719733715057373,
            1.5243829488754272,
            0.06909549981355667,
            -0.10523941367864609,
            -0.11317786574363708,
            0.1135544553399086,
            0.11124175041913986,
            0.05035432428121567,
            0.07990716397762299,
            -0.026330629363656044,
            -0.12146048992872238,
            -0.04142111539840698,
            0.0783587321639061,
            -0.13472546637058258,
            -0.31898465752601624,
            -0.038836922496557236,
            0.19225254654884338,
            -0.0646611675620079,
            0.025984134525060654,
            -0.024772830307483673,
            -0.2196485847234726,
            0.00040254482883028686,
            -0.053433384746313095,
            0.13027158379554749,
            -0.1350305676460266,
            -0.3258925676345825,
            0.005453512072563171,
            0.13404668867588043,
            0.018469378352165222,
            0.20906928181648254,
            -0.20937380194664001,
            -0.21240882575511932,
            0.015456452034413815,
            0.09654375910758972,
            -0.14542031288146973,
            0.1381736695766449,
            -0.08522249758243561,
            -0.019495300948619843,
            -0.2332741767168045,
            -0.11208005994558334,
            0.0029113246127963066,
            0.044591158628463745,
            -0.3453769087791443,
            0.2598975896835327,
            0.14715535938739777,
            -0.2904777228832245,
            -0.3243659436702728,
            0.06549286097288132,
            0.05104384943842888,
            0.015264775604009628,
            -0.018517443910241127,
            0.06903292238712311,
            -0.023358764126896858,
            0.07765559107065201,
            -0.09100161492824554,
            0.04610764980316162,
            -0.08637615293264389,
            -0.18056903779506683,
            0.04873243346810341,
            -0.07420980930328369,
            -0.1480715125799179,
            0.031684089452028275,
            -0.001996248494833708,
            -0.01716766692698002,
            -0.28481563925743103,
            -0.18736478686332703,
            0.9818681478500366,
            1.400665283203125,
            1.3784877061843872,
            1.2655812501907349,
            1.2990143299102783,
            -0.06292729824781418,
            1.16221284866333,
            1.1577221155166626,
            0.8314820528030396,
            1.4345554113388062,
            1.2936336994171143,
            1.3889609575271606,
            0.8279123306274414,
            1.1818592548370361,
            1.2369908094406128,
            1.1489315032958984,
            1.1836540699005127,
            1.2998511791229248,
            0.8530802726745605,
            1.1308794021606445,
            1.0622243881225586,
            1.0262572765350342,
            0.9813545346260071,
            0.8342921733856201,
            1.3426746129989624,
            0.9946910738945007,
            0.8634079098701477,
            0.990545392036438,
            1.0115145444869995,
            0.8706618547439575,
            -0.017243647947907448,
            1.3388538360595703,
            0.9272628426551819,
            1.356749415397644,
            1.0020314455032349,
            0.9759142398834229,
            0.8952488303184509,
            0.9750850200653076,
            -0.010564024560153484,
            1.2984800338745117,
            0.9557501673698425,
            1.0476926565170288,
            1.230263590812683,
            0.8555631637573242,
            0.8084599375724792,
            1.2196612358093262,
            1.3272426128387451,
            0.9862855076789856,
            1.4428108930587769,
            1.2107816934585571,
            1.1528667211532593,
            1.0137659311294556,
            1.248764991760254,
            1.326351523399353,
            0.8235523104667664,
            0.8024346828460693,
            1.0876508951187134,
            1.453471302986145,
            1.0705816745758057,
            0.9379489421844482,
            1.0250039100646973,
            1.1006163358688354,
            0.9152324795722961,
            0.976957380771637,
            -0.1447850465774536,
            0.9235892295837402
        ]
    },
    "discriminator": {
        "num_inputs": 2,
        "num_outputs": 1,
        "num_hidden_layers": 1,
        "neurons_per_hidden_layer": 64,
        "hidden_layer_activation_function": "relu",
        "final_layer_activation_function": "sigmoid",
        "bias": true,
        "weights": [
            -0.16005100309848785,
            -0.4471851885318756,
            0.030574673786759377,
            0.3039034307003021,
            -0.20783236622810364,
            0.04668694734573364,
            0.7036624550819397,
            0.4467674791812897,
            0.2296200692653656,
            0.4025820791721344,
            -0.2509636878967285,
            -0.4981479346752167,
            -0.33760154247283936,
            0.26450657844543457,
            -0.19013768434524536,
            0.17675139009952545,
            1.1133320331573486,
            0.04171343892812729,
            -0.07555556297302246,
            -0.09296232461929321,
            0.22971610724925995,
            0.05184686928987503,
            0.2694351375102997,
            0.2518236041069031,
            -0.29299747943878174,
            0.015878183767199516,
            0.13214263319969177,
            0.019902590662240982,
            0.6657564043998718,
            0.11469925194978714,
            -0.634688138961792,
            0.24364492297172546,
            0.5573756694793701,
            -0.3872564733028412,
            0.5962480902671814,
            -0.3130660951137543,
            -0.4611659049987793,
            0.012546590529382229,
            0.22092141211032867,
            0.053565509617328644,
            0.6870797872543335,
            0.48878562450408936,
            0.5349978804588318,
            0.5993322730064392,
            -0.06562303006649017,
            0.1953992247581482,
            0.25171372294425964,
            0.10209392756223679,
            -0.6388204097747803,
            0.543040931224823,
            -0.12344475835561752,
            0.130716472864151,
            -0.5058454275131226,
            -0.0007029768894426525,
            -0.30790016055107117,
            -0.08637601137161255,
            0.10492289811372757,
            0.6255125403404236,
            -0.056447021663188934,
            -0.36265474557876587,
            -0.5363146662712097,
            -0.39044883847236633,
            -0.5846372842788696,
            -0.09707865864038467,
            0.01650247536599636,
            -0.6947901248931885,
            -0.1967528760433197,
            -0.7176033854484558,
            0.4889221489429474,
            0.4873499870300293,
            -0.5863912105560303,
            0.5762342214584351,
            0.5859355330467224,
            0.10720815509557724,
            -0.24387480318546295,
            0.09992961585521698,
            -0.5563399195671082,
            0.45408421754837036,
            -0.09880903363227844,
            0.5290331244468689,
            -0.15081773698329926,
            -0.43572962284088135,
            -0.5886794924736023,
            0.20865078270435333,
            0.283646821975708,
            0.44180479645729065,
            0.17852674424648285,
            0.18543431162834167,
            -0.4512649178504944,
            0.15443281829357147,
            0.28040269017219543,
            -0.27149316668510437,
            0.15375001728534698,
            -0.6112263798713684,
            -0.5171435475349426,
            -0.3250664472579956,
            0.06378631293773651,
            0.2623054087162018,
            -0.3517046868801117,
            0.546337902545929,
            -0.5244261622428894,
            0.016402870416641235,
            0.2802432179450989,
            -0.6646211743354797,
            0.644219160079956,
            0.46263936161994934,
            -0.6682705879211426,
            -0.41095051169395447,
            -0.1341610699892044,
            0.009100208058953285,
            0.4412481188774109,
            -0.46805161237716675,
            0.18389344215393066,
            -0.15647494792938232,
            -0.12539106607437134,
            -0.026408374309539795,
            0.03445734083652496,
            0.26814326643943787,
            0.20918765664100647,
            -0.26475250720977783,
            -0.2911072373390198,
            0.28141286969184875,
            -0.30015459656715393,
            -0.04866757616400719,
            -0.28948813676834106,
            -0.5347527265548706,
            -0.10209417343139648,
            -0.5518282651901245,
            -0.4354323148727417,
            -0.04142574965953827,
            0.2694264054298401,
            0.3637382984161377,
            -0.5531370639801025,
            -0.6051516532897949,
            0.1816456913948059,
            -0.05535295233130455,
            -0.1202467679977417,
            -0.03836829587817192,
            0.05767756327986717,
            -1.0313003063201904,
            0.27108660340309143,
            0.4391416907310486,
            0.3504959046840668,
            -0.2869800627231598,
            -0.44196653366088867,
            -0.15211625397205353,
            0.4503030776977539,
            -0.3146691918373108,
            0.897891640663147,
            -0.09743723273277283,
            -0.38501667976379395,
            0.17597924172878265,
            -0.8368264436721802,
            -0.23366394639015198,
            0.5610300898551941,
            -0.4590407907962799,
            0.6103357076644897,
            -0.0871519222855568,
            0.1095624640583992,
            -0.5886395573616028,
            -0.6049422025680542,
            -0.3726446330547333,
            0.039302654564380646,
            -0.15764184296131134,
            -0.42704546451568604,
            -0.22067242860794067,
            -0.595117449760437,
            0.5819704532623291,
            -0.137536883354187,
            -0.3390888273715973,
            0.1602371484041214,
            -0.010139813646674156,
            0.2937207520008087,
            0.8683675527572632,
            -0.5233709216117859,
            -0.6583707332611084,
            -0.2913857698440552,
            -0.3856724500656128,
            0.35276421904563904,
            -0.2564786672592163,
            -0.14186903834342957,
            -0.691005289554596,
            0.07364663481712341,
            -0.663403332233429,
            -0.5659425258636475,
            -0.7026678919792175,
            -0.4086250066757202,
            0.7263362407684326,
            0.4283049702644348,
            0.40453124046325684,
            -0.22401131689548492,
            -0.20389236509799957,
            -0.1346966177225113,
            0.011484303511679173,
            0.36963146924972534,
            -0.2045428454875946,
            0.11092066019773483,
            -0.12702319025993347,
            -0.13566209375858307,
            0.15192492306232452,
            0.1170131042599678,
            0.10338623821735382,
            -0.4487927258014679,
            -0.06472455710172653,
            -0.25600144267082214,
            -0.2449822872877121,
            -0.39439141750335693,
            0.1466536670923233,
            0.016516102477908134,
            -0.23156851530075073,
            -0.41145995259284973,
            -0.6045051217079163,
            0.05475611239671707,
            0.10188543051481247,
            0.10832513868808746,
            0.27713140845298767,
            -0.0685126781463623,
            0.1083536371588707,
            -0.41263478994369507,
            0.015169098973274231,
            0.10436859726905823,
            -0.015119384974241257,
            0.07892667502164841,
            -0.4210700988769531,
            0.03092224709689617,
            -0.12590548396110535,
            -0.1680903434753418,
            -0.09251325577497482,
            -0.1387518048286438,
            -0.05479968711733818,
            -0.12231351435184479,
            0.04223098233342171,
            -0.10217186063528061,
            0.14494650065898895,
            0.08121620863676071,
            0.0988486111164093,
            0.1338280290365219,
            -0.26103347539901733,
            -0.09916452318429947,
            -0.028630271553993225,
            -0.11768238246440887,
            0.10975152999162674,
            -0.35329943895339966,
            0.05242189019918442,
            0.051701050251722336,
            -0.03765076771378517,
            -0.2776694595813751,
            -0.04376326501369476,
            -0.011098578572273254,
            -0.08118368685245514,
            0.16182133555412292,
            -0.18706892430782318,
            -0.20857101678848267,
            0.48112496733665466,
            -0.06711184978485107,
            0.023809580132365227,
            0.3498137891292572
        ]
    }
}