{
    "num_epochs": 2000,
    "batch_size": 64,
    "final_loss": 6.116855314799717,
    "train_data_exp_dir_path": "data/scp_train_data_non_norm",
    "encoder": {
        "num_inputs": 2,
        "num_outputs": 2,
        "num_hidden_layers": 1,
        "neurons_per_hidden_layer": 64,
        "hidden_layer_activation_function": "relu",
        "final_layer_activation_function": null,
        "bias": true,
        "weights": [
            -0.3963041603565216,
            0.3445671498775482,
            0.3017573654651642,
            0.4082619845867157,
            0.38620418310165405,
            -0.5582147836685181,
            0.25040531158447266,
            0.4639313220977783,
            0.2516670227050781,
            0.46661657094955444,
            0.5213986039161682,
            -0.1781417727470398,
            -0.4400298297405243,
            0.47900643944740295,
            -0.584197461605072,
            -0.2424304485321045,
            -0.47304093837738037,
            0.3229984939098358,
            0.5484585762023926,
            0.22762975096702576,
            -0.3992958664894104,
            -0.29373815655708313,
            0.3527202010154724,
            -0.6252927184104919,
            0.1676097810268402,
            0.4974149465560913,
            -0.2874067723751068,
            -0.46475672721862793,
            0.551078736782074,
            -0.5435400009155273,
            -0.2541758418083191,
            -0.6840409636497498,
            0.27646270394325256,
            0.5358945727348328,
            -0.1641474962234497,
            -0.3622366487979889,
            0.13992029428482056,
            0.18342921137809753,
            0.029300013557076454,
            0.022993849590420723,
            -0.24247115850448608,
            -0.5571344494819641,
            -0.1796521544456482,
            0.6366549134254456,
            0.008325411938130856,
            0.29484128952026367,
            -0.24870429933071136,
            0.023939689621329308,
            -0.6463841795921326,
            -0.07962435483932495,
            0.6963931918144226,
            -0.7016646265983582,
            -0.6355642676353455,
            -0.35485807061195374,
            -0.011506698094308376,
            0.15061205625534058,
            0.3325574994087219,
            -0.5263024568557739,
            0.24266386032104492,
            -0.404291033744812,
            0.26079046726226807,
            -0.7055780291557312,
            0.2425682544708252,
            -0.12233442068099976,
            0.1488037109375,
            0.1552581936120987,
            -0.04412126541137695,
            -0.017655372619628906,
            0.6376076340675354,
            -0.20989224314689636,
            -0.4044634997844696,
            -0.31464359164237976,
            0.46180447936058044,
            0.6189594864845276,
            0.03476232290267944,
            -0.7006188631057739,
            -0.3298640549182892,
            0.41242706775665283,
            -0.39914220571517944,
            0.5131140947341919,
            -0.6527567505836487,
            -0.4589070975780487,
            0.039053380489349365,
            -0.523870587348938,
            -0.24938729405403137,
            -0.17525458335876465,
            0.11588412523269653,
            -0.4197797477245331,
            -0.18734866380691528,
            -0.09351187944412231,
            -0.6264674663543701,
            -0.24451789259910583,
            -0.35453227162361145,
            0.3499501943588257,
            0.26644212007522583,
            0.5945295095443726,
            -0.07603037357330322,
            -0.5416604280471802,
            -0.32858195900917053,
            -0.6069313287734985,
            -0.14141979813575745,
            0.11227552592754364,
            -0.5787981748580933,
            -0.6331998109817505,
            0.5099890828132629,
            0.37673497200012207,
            -0.2459726333618164,
            -0.2664531171321869,
            -0.03825639560818672,
            0.03203590214252472,
            0.12564069032669067,
            -0.4407597780227661,
            0.45200425386428833,
            -0.2542794346809387,
            -0.3887110948562622,
            -0.3039770722389221,
            0.40361571311950684,
            0.17613215744495392,
            0.5444052219390869,
            0.059516411274671555,
            -0.4999980330467224,
            0.027352886274456978,
            -0.08281999826431274,
            -0.6359666585922241,
            0.10336440801620483,
            -0.5921574831008911,
            0.08820636570453644,
            0.49379849433898926,
            0.5371077060699463,
            -0.4784180819988251,
            -0.2468196153640747,
            -0.4860752522945404,
            0.9558753371238708,
            0.4746178984642029,
            -0.7970637679100037,
            0.45644503831863403,
            -0.12149722129106522,
            0.47391557693481445,
            0.019719064235687256,
            0.5127450823783875,
            0.8073698878288269,
            -0.40062811970710754,
            -0.39078524708747864,
            -0.352342426776886,
            0.9242954850196838,
            -0.061800360679626465,
            0.7254208922386169,
            0.020008284598588943,
            -0.2561403810977936,
            -0.5274965763092041,
            0.2320851981639862,
            -0.6245973110198975,
            0.9588903784751892,
            0.40626662969589233,
            -0.4640352129936218,
            0.3512606918811798,
            -0.3911305069923401,
            0.16375231742858887,
            -0.3618977963924408,
            0.04729342460632324,
            0.019081292673945427,
            -0.2555539608001709,
            -0.2381250560283661,
            -0.5831272602081299,
            0.45258060097694397,
            0.27190834283828735,
            0.43317940831184387,
            0.6554285287857056,
            -0.5688706040382385,
            0.13398206233978271,
            0.01311558485031128,
            -0.09158730506896973,
            0.584771454334259,
            -0.057632267475128174,
            -0.6172671914100647,
            -0.9262185096740723,
            0.19409304857254028,
            0.6048970818519592,
            -0.26895850896835327,
            0.5233549475669861,
            -0.04992606118321419,
            -0.4512074589729309,
            -0.8912444710731506,
            -0.2906746566295624,
            -0.324442982673645,
            0.5125667452812195,
            -1.0142017602920532,
            0.6838545203208923,
            -0.39554518461227417,
            0.6770560145378113,
            -0.19739407300949097,
            -0.02255145274102688,
            -0.0058786021545529366,
            -0.049994900822639465,
            0.008097752928733826,
            -0.018221015110611916,
            0.03345571458339691,
            0.06654578447341919,
            -0.021156294271349907,
            0.06171700358390808,
            0.13183237612247467,
            0.1270718276500702,
            -0.1012222021818161,
            0.06673748791217804,
            0.059625450521707535,
            -0.09865112602710724,
            -0.085977703332901,
            -0.09019254148006439,
            0.021457720547914505,
            -0.08479258418083191,
            0.05314759537577629,
            -0.021935807541012764,
            0.01097513735294342,
            -0.09779176861047745,
            -0.08488760143518448,
            2.489959297236055e-05,
            -0.05556698516011238,
            -0.1147526353597641,
            0.018160223960876465,
            -0.07986991852521896,
            0.0609477162361145,
            0.01974405348300934,
            0.03345264494419098,
            -0.10119925439357758,
            -0.012236717157065868,
            0.10959431529045105,
            -0.08411148190498352,
            -0.06732910871505737,
            0.12960228323936462,
            0.03788870573043823,
            0.04044562950730324,
            0.0728863850235939,
            -0.005350947380065918,
            0.07990662753582001,
            -0.09354101121425629,
            0.05232471227645874,
            -0.07408428192138672,
            -0.10595203936100006,
            -0.08118388801813126,
            -0.05970824509859085,
            0.10972198843955994,
            0.10984189808368683,
            0.05602630227804184,
            0.05307920277118683,
            -0.025201372802257538,
            0.05685627460479736,
            -0.04074760526418686,
            0.11061157286167145,
            -0.11064787209033966,
            0.11676646769046783,
            -0.07500290125608444,
            0.16818365454673767,
            -0.03418624773621559,
            0.07366344332695007,
            0.0949329137802124,
            -0.10010838508605957,
            0.05801251903176308,
            -0.012433366850018501,
            0.0691174566745758,
            -0.03320404142141342,
            -0.09434676170349121,
            0.054313138127326965,
            -0.023021327331662178,
            -0.07849274575710297,
            0.04001645743846893,
            -0.05439769849181175,
            -0.08118627965450287,
            0.0573679655790329,
            -0.12102486938238144,
            0.04779721796512604,
            -0.03975473344326019,
            -0.015061721205711365,
            0.0487804152071476,
            -0.01676812767982483,
            -0.12003783881664276,
            0.03920099511742592,
            0.1139809787273407,
            0.06015168875455856,
            -0.019194254651665688,
            -0.12872442603111267,
            0.031879737973213196,
            -0.015771791338920593,
            0.0441264808177948,
            -0.09357230365276337,
            -0.06762313842773438,
            -0.12181884050369263,
            0.058551087975502014,
            -0.0463988333940506,
            0.09593220055103302,
            0.07181675732135773,
            -0.0037440061569213867,
            -0.03942161798477173,
            0.052161846309900284,
            -0.07821698486804962,
            0.06505221873521805,
            -0.06244821846485138,
            -0.07501207292079926,
            0.01833130419254303,
            0.02313549816608429,
            0.06490187346935272,
            0.11920973658561707,
            0.04193098843097687,
            -0.13257873058319092,
            -0.1312776654958725,
            -0.03850749135017395,
            -0.029240429401397705,
            0.025334831327199936,
            -0.03045596182346344,
            -0.07618674635887146,
            -0.006004199385643005,
            -0.0997031033039093,
            0.03726297616958618,
            0.02736540138721466,
            0.06503531336784363,
            -0.07687866687774658,
            -0.07269492000341415,
            -0.10364299267530441,
            -0.08888590335845947,
            -0.12478680908679962,
            -0.021363064646720886,
            0.32866889238357544,
            0.25266849994659424
        ]
    },
    "decoder": {
        "num_inputs": 2,
        "num_outputs": 2,
        "num_hidden_layers": 1,
        "neurons_per_hidden_layer": 64,
        "hidden_layer_activation_function": "relu",
        "final_layer_activation_function": null,
        "bias": true,
        "weights": [
            -1.4452847242355347,
            -0.561279833316803,
            0.45431482791900635,
            -0.842130720615387,
            0.4641466438770294,
            -0.7929165363311768,
            -1.7348012924194336,
            0.1789524406194687,
            -0.4649509787559509,
            2.3666911125183105,
            0.15374554693698883,
            -1.0821996927261353,
            1.6394141912460327,
            0.9943510890007019,
            0.65058434009552,
            0.19011551141738892,
            1.1647557020187378,
            0.1257944107055664,
            2.6428511142730713,
            0.7543832063674927,
            -0.7476921081542969,
            0.5717454552650452,
            -1.6825189590454102,
            -0.01470303162932396,
            -1.3476579189300537,
            -0.2253578007221222,
            -0.8633813858032227,
            -0.7782540917396545,
            0.05488414317369461,
            0.193580761551857,
            -0.020166533067822456,
            0.39183473587036133,
            -1.6193358898162842,
            -0.3054373562335968,
            0.7293447256088257,
            0.593870222568512,
            -0.6740469932556152,
            0.22888945043087006,
            -1.0658642053604126,
            0.5519771575927734,
            -1.1313868761062622,
            0.15553516149520874,
            0.5543063282966614,
            -0.3396860361099243,
            1.90560781955719,
            1.452911615371704,
            -1.48713219165802,
            0.03451824188232422,
            1.3325111865997314,
            -0.17543204128742218,
            -1.5325627326965332,
            -0.13737042248249054,
            -1.1267894506454468,
            0.6753039956092834,
            -1.635449767112732,
            0.4014410674571991,
            0.3811870515346527,
            -0.22065472602844238,
            -1.5134587287902832,
            0.22593247890472412,
            -0.845301628112793,
            0.2830983102321625,
            1.4446665048599243,
            -0.3007001280784607,
            1.6523120403289795,
            -1.0076582431793213,
            -1.7708439826965332,
            -0.2471460998058319,
            -1.8180431127548218,
            0.2966018319129944,
            0.6692685484886169,
            0.3654083013534546,
            0.8590009808540344,
            -0.18489353358745575,
            -1.1555137634277344,
            0.6056545376777649,
            -0.28347426652908325,
            1.3353368043899536,
            -2.842641830444336,
            -0.6480078101158142,
            -1.5355225801467896,
            -0.21381236612796783,
            0.14730185270309448,
            0.47616392374038696,
            -1.6181323528289795,
            -0.3088899850845337,
            -1.4864295721054077,
            -0.2548222243785858,
            -0.5999088883399963,
            0.3580000400543213,
            0.40955230593681335,
            -0.20493660867214203,
            1.9628974199295044,
            1.59441077709198,
            -1.788010597229004,
            -0.6860595345497131,
            0.7139066457748413,
            -0.5829987525939941,
            -1.474920392036438,
            -0.2187049239873886,
            -1.5574990510940552,
            0.37269577383995056,
            -1.571820855140686,
            0.2211371213197708,
            1.6430490016937256,
            1.1167211532592773,
            -0.5375058054924011,
            -1.1371662616729736,
            -0.8402206301689148,
            0.555810272693634,
            -0.19258356094360352,
            -0.8539171814918518,
            -1.3681272268295288,
            0.147279754281044,
            -1.5262335538864136,
            -0.426412433385849,
            -1.6294584274291992,
            0.3495452404022217,
            -1.5339802503585815,
            -0.6397097110748291,
            0.2273443639278412,
            -0.07675905525684357,
            -1.3435860872268677,
            -0.3893909156322479,
            -1.3590006828308105,
            0.5598843097686768,
            -0.9419497847557068,
            0.3595152199268341,
            2.9051260948181152,
            0.9423039555549622,
            -0.5290244817733765,
            3.1178414821624756,
            1.5882437229156494,
            -0.7838668823242188,
            -1.2823561429977417,
            -0.7935277819633484,
            1.0090028047561646,
            0.8632610440254211,
            1.1155048608779907,
            2.275304079055786,
            3.1117043495178223,
            0.013761483132839203,
            0.17222358286380768,
            0.2560243010520935,
            2.3863561153411865,
            -1.688713550567627,
            1.5900028944015503,
            2.385389804840088,
            2.0155820846557617,
            -0.6099892854690552,
            -1.9794260263442993,
            1.922823190689087,
            -0.8736907243728638,
            2.053018093109131,
            2.251865863800049,
            2.0820789337158203,
            -0.7379286885261536,
            2.2426908016204834,
            2.0071451663970947,
            -1.0022765398025513,
            -0.65294349193573,
            2.887338876724243,
            3.37994647026062,
            -1.2050447463989258,
            -0.61431485414505,
            1.1620627641677856,
            0.04938095808029175,
            5.0325751304626465,
            2.513745069503784,
            0.4574899673461914,
            1.9664890766143799,
            2.884934902191162,
            0.9650388360023499,
            -0.718515157699585,
            -1.033599615097046,
            3.115652322769165,
            0.03981539607048035,
            2.635671377182007,
            2.2235515117645264,
            2.76686429977417,
            -1.4260741472244263,
            2.3871910572052,
            1.0621846914291382,
            -0.7082500457763672,
            2.1782634258270264,
            2.1801443099975586,
            1.5389444828033447,
            3.203526496887207,
            -0.3543217182159424,
            3.152500629425049,
            2.0617592334747314,
            0.9855589866638184,
            0.050812385976314545,
            -0.3033255934715271,
            0.8686268329620361,
            -0.13902172446250916,
            -1.8284579515457153,
            0.14711962640285492,
            2.0989105701446533,
            0.019977552816271782,
            -0.89124596118927,
            1.0713863372802734,
            0.02073279209434986,
            -0.1087409183382988,
            -0.0899854227900505,
            1.047715663909912,
            -0.037769854068756104,
            -0.015327401459217072,
            0.21217934787273407,
            -0.0026661171577870846,
            -0.1498713493347168,
            -0.09111211448907852,
            -0.36766865849494934,
            -0.06671630591154099,
            2.7118380069732666,
            0.06434877216815948,
            -1.074130892753601,
            0.04510851204395294,
            -0.0008635640260763466,
            0.05908750370144844,
            0.027428776025772095,
            -0.13737578690052032,
            -0.08342339843511581,
            -2.499225616455078,
            1.543553352355957,
            0.0986812487244606,
            0.029080256819725037,
            -0.012154987081885338,
            -2.458967685699463,
            0.1126740500330925,
            0.48112720251083374,
            -0.025233563035726547,
            0.051614049822092056,
            -0.06547408550977707,
            0.000682450772728771,
            -0.0840504989027977,
            0.07603676617145538,
            0.10576969385147095,
            -3.122859239578247,
            0.22333522140979767,
            -0.8842911720275879,
            0.09646974503993988,
            -0.0017285452922806144,
            -0.1396847814321518,
            2.3822665214538574,
            0.6371556520462036,
            0.12275341898202896,
            -1.2655926942825317,
            -0.11588957160711288,
            0.15922878682613373,
            0.013283688575029373,
            0.03302641212940216,
            0.1218259409070015,
            -0.016078850254416466,
            -0.12769682705402374,
            0.04707690328359604,
            0.9122825264930725,
            0.5303388833999634,
            -1.0186160802841187,
            1.1815307140350342,
            1.1191366910934448,
            -1.1599196195602417,
            -0.02858458273112774,
            -0.09045783430337906,
            -0.1609710156917572,
            0.23377028107643127,
            0.25762948393821716,
            0.9020655751228333,
            1.2819746732711792,
            0.10770829021930695,
            -0.01611567661166191,
            0.010671289637684822,
            1.400904893875122,
            -0.05039277300238609,
            0.3105470836162567,
            0.36200860142707825,
            1.0782095193862915,
            -0.137360081076622,
            0.19387109577655792,
            0.9415909051895142,
            -0.318266361951828,
            0.903496265411377,
            0.24728240072727203,
            0.35385751724243164,
            -0.004935165401548147,
            0.9030718803405762,
            0.5639762878417969,
            0.6494058966636658,
            -0.42183718085289,
            1.4879847764968872,
            0.577927827835083,
            -0.07905612885951996,
            0.4663355052471161,
            0.33994296193122864,
            0.056194789707660675,
            1.2776020765304565,
            0.9656895995140076,
            0.07143686711788177,
            0.9073065519332886,
            1.2147655487060547,
            0.3967427909374237,
            -0.011080511845648289,
            -0.14527569711208344,
            0.9951480627059937,
            0.007188103161752224,
            1.0215539932250977,
            0.4959794878959656,
            1.092046856880188,
            0.09214899688959122,
            0.5528750419616699,
            0.19170261919498444,
            -0.9301576018333435,
            0.9796916842460632,
            0.9237082600593567,
            0.3367013931274414,
            0.7727999091148376,
            0.009065263904631138,
            1.0770156383514404,
            0.4372633695602417,
            0.4920503795146942,
            -1.2233552932739258,
            1.105404019355774
        ]
    }
}