{
    "num_epochs": 2000,
    "batch_size": 64,
    "final_loss": 6.213433163506644,
    "train_data_exp_dir_path": "data/scp_train_data_non_norm",
    "encoder": {
        "num_inputs": 2,
        "num_outputs": 2,
        "num_hidden_layers": 1,
        "neurons_per_hidden_layer": 64,
        "hidden_layer_activation_function": "relu",
        "final_layer_activation_function": null,
        "bias": true,
        "weights": [
            0.5223041772842407,
            0.24237830936908722,
            -0.31550657749176025,
            0.030110308900475502,
            0.4846429228782654,
            -0.2715432941913605,
            -0.46251705288887024,
            0.3116074502468109,
            0.5734058022499084,
            -0.26028603315353394,
            0.6682878136634827,
            -0.5097475051879883,
            -0.5181024074554443,
            -0.09167370945215225,
            0.11132121086120605,
            -0.654880166053772,
            0.24991697072982788,
            -0.6092458963394165,
            -0.12217149138450623,
            0.5281684398651123,
            0.7572193741798401,
            0.14150263369083405,
            -0.39860036969184875,
            -0.5088486075401306,
            0.2483900785446167,
            -0.6854188442230225,
            0.15069255232810974,
            0.2581336200237274,
            -0.7274227142333984,
            0.2260788530111313,
            0.3220670521259308,
            0.14882229268550873,
            0.008383424952626228,
            0.47434771060943604,
            -0.41123104095458984,
            0.008894256316125393,
            0.05174130201339722,
            -0.44502124190330505,
            0.2081245630979538,
            0.08979906886816025,
            0.06840898841619492,
            0.34872084856033325,
            0.17522476613521576,
            0.11473064869642258,
            0.15321481227874756,
            -0.017885029315948486,
            -0.02072352170944214,
            -0.014761567115783691,
            0.6185521483421326,
            0.30225905776023865,
            -0.4407643973827362,
            0.10112637281417847,
            0.9323258996009827,
            0.24429787695407867,
            -0.035496652126312256,
            -0.4618116021156311,
            0.11480461061000824,
            0.07475645840167999,
            -0.31586870551109314,
            -0.5830974578857422,
            -0.639781653881073,
            -0.07566619664430618,
            -0.057106103748083115,
            0.6495785117149353,
            0.44909292459487915,
            -0.634424090385437,
            0.5132114291191101,
            -0.14484244585037231,
            0.6134104132652283,
            -0.18154257535934448,
            -0.3737304210662842,
            0.3373951315879822,
            0.1457223892211914,
            -0.5568954944610596,
            0.13956034183502197,
            -0.35575124621391296,
            -0.49487778544425964,
            0.6609100103378296,
            0.6657641530036926,
            -0.5333558917045593,
            0.008633434772491455,
            -0.14721858501434326,
            0.05720076709985733,
            0.21507881581783295,
            0.6201321482658386,
            -0.5210593938827515,
            0.5774791240692139,
            0.6174650192260742,
            -0.17299073934555054,
            -0.03318303823471069,
            -0.6712554693222046,
            -0.24034881591796875,
            -0.1949237585067749,
            0.30383381247520447,
            -0.044521331787109375,
            -0.5669731497764587,
            -0.33058393001556396,
            -0.6307677030563354,
            1.2424232959747314,
            0.012675661593675613,
            -0.14478689432144165,
            -0.4393501281738281,
            -0.0724748969078064,
            -0.48321884870529175,
            0.00730741024017334,
            -0.40159666538238525,
            -0.6560183167457581,
            -0.3212088942527771,
            0.7025932669639587,
            0.3579970896244049,
            -0.2852143943309784,
            0.045278243720531464,
            -0.12400823831558228,
            -0.6754998564720154,
            0.8708788752555847,
            0.10784026980400085,
            0.5640353560447693,
            -0.05615276098251343,
            0.6651692986488342,
            -0.0919884443283081,
            0.15962964296340942,
            -0.353683203458786,
            0.09407258033752441,
            -0.166756272315979,
            -0.20164543390274048,
            -0.6901501417160034,
            0.36229008436203003,
            -0.2714938819408417,
            0.6693306565284729,
            0.28236669301986694,
            0.09987396001815796,
            0.282268226146698,
            -0.36338010430336,
            0.5319107174873352,
            -0.12913332879543304,
            -0.11277318000793457,
            0.6145921349525452,
            0.8924708366394043,
            -1.1761173009872437,
            0.35798996686935425,
            0.25446629524230957,
            -0.6818360686302185,
            1.3477839231491089,
            1.2865824699401855,
            -1.4428645372390747,
            0.11210799217224121,
            0.6554813981056213,
            -1.1782081127166748,
            -0.3068396747112274,
            -0.21456746757030487,
            0.4759320616722107,
            -0.32335996627807617,
            -0.06853275746107101,
            0.8768675327301025,
            -0.04347388073801994,
            -0.527153730392456,
            0.37281736731529236,
            -0.1505149006843567,
            -1.032027244567871,
            -1.3251954317092896,
            0.6053952574729919,
            -0.17585670948028564,
            -0.5920956134796143,
            -0.9532503485679626,
            0.5862947106361389,
            -0.34110212326049805,
            -1.4167985916137695,
            0.5633547902107239,
            -0.31029823422431946,
            1.0943061113357544,
            -0.05593264102935791,
            -0.917630672454834,
            0.11817371845245361,
            0.267894446849823,
            0.08947204798460007,
            0.32316845655441284,
            0.21002459526062012,
            1.0256046056747437,
            -0.594386637210846,
            -0.6537616848945618,
            0.5489733815193176,
            -0.11233776807785034,
            0.7249549627304077,
            -0.9090813398361206,
            -0.06846010684967041,
            0.8243330121040344,
            0.02252018451690674,
            -0.4150466322898865,
            0.6199396252632141,
            0.27420806884765625,
            -0.24819645285606384,
            -0.5040556192398071,
            0.08081335574388504,
            0.09390240907669067,
            -0.10989530384540558,
            0.1362050324678421,
            0.039909571409225464,
            -0.07067877054214478,
            0.043409332633018494,
            -0.0123501718044281,
            -0.04942914843559265,
            0.127550408244133,
            0.024416975677013397,
            -0.06246541440486908,
            -0.07611905038356781,
            -0.11933788657188416,
            0.14462235569953918,
            0.10184954106807709,
            -0.09624021500349045,
            0.2001677304506302,
            -0.10098178684711456,
            -0.1219809502363205,
            -0.0397021509706974,
            0.01646294631063938,
            -0.03016522526741028,
            0.04458959400653839,
            0.007889056578278542,
            0.15055900812149048,
            0.03130321949720383,
            -0.0061976611614227295,
            0.025632601231336594,
            -0.004109859466552734,
            -0.12263234704732895,
            -0.12045501172542572,
            -0.06907214224338531,
            -0.09551912546157837,
            -0.05303584039211273,
            -0.05145375803112984,
            -0.09310074150562286,
            0.09947706758975983,
            -0.041752349585294724,
            0.03633558750152588,
            0.008653029799461365,
            0.12397052347660065,
            -0.01252494752407074,
            -0.08707831054925919,
            0.10638800263404846,
            -0.07121965289115906,
            -0.014840823598206043,
            0.0595439076423645,
            -0.04049660265445709,
            -0.2146657556295395,
            -0.0390591025352478,
            -0.01126931607723236,
            0.00015841424465179443,
            -0.034906014800071716,
            0.05077841132879257,
            -0.12275024503469467,
            -0.07252702116966248,
            -0.03843027353286743,
            0.0690353661775589,
            -0.01884572207927704,
            0.051967307925224304,
            0.011351823806762695,
            -0.03359580039978027,
            0.07958225905895233,
            -0.04708481207489967,
            -0.08854608237743378,
            0.053673043847084045,
            -0.07025130838155746,
            0.0038262605667114258,
            -0.02718620002269745,
            -0.11998488008975983,
            -0.10441267490386963,
            0.12310409545898438,
            -0.09124820679426193,
            -0.11429321765899658,
            0.11261965334415436,
            -0.12074600160121918,
            0.04180113226175308,
            0.0972643718123436,
            0.1758071631193161,
            -0.029461130499839783,
            -0.18291600048542023,
            -0.06250713765621185,
            0.11006691306829453,
            0.02095293439924717,
            -0.06959686428308487,
            0.05686235427856445,
            -0.05450481176376343,
            -0.07950479537248611,
            -0.04892224445939064,
            -0.0455189049243927,
            -0.02898581326007843,
            -0.015844421461224556,
            -0.04775078594684601,
            -0.05909009650349617,
            -0.04635968431830406,
            0.036992594599723816,
            0.03726573288440704,
            0.0622529536485672,
            0.002415419090539217,
            0.12389722466468811,
            -0.09583869576454163,
            -0.09289700537919998,
            0.0932837575674057,
            -0.03311145305633545,
            0.03518475219607353,
            -0.0632379949092865,
            -0.019439207389950752,
            -0.10612426698207855,
            -0.09225435554981232,
            0.07343834638595581,
            0.1016339361667633,
            0.029175356030464172,
            0.3287455439567566,
            0.010472580790519714,
            0.12083479762077332,
            0.0027710646390914917,
            0.07594342529773712,
            0.14798210561275482,
            -0.10349278897047043,
            0.08314238488674164,
            0.2417096346616745,
            -0.00021472573280334473,
            0.05254527926445007,
            0.02044673264026642,
            -0.06928668916225433,
            -0.12372589111328125,
            0.04051735997200012,
            0.9035822749137878,
            0.7261066436767578
        ]
    },
    "decoder": {
        "num_inputs": 2,
        "num_outputs": 2,
        "num_hidden_layers": 1,
        "neurons_per_hidden_layer": 64,
        "hidden_layer_activation_function": "relu",
        "final_layer_activation_function": null,
        "bias": true,
        "weights": [
            0.7661721110343933,
            0.4188799262046814,
            1.1532479524612427,
            0.1285143941640854,
            0.8286824226379395,
            -0.04546432942152023,
            -0.48454299569129944,
            0.2027876228094101,
            1.3436771631240845,
            0.28710323572158813,
            1.1989341974258423,
            0.3793904483318329,
            -0.5893968939781189,
            0.21485230326652527,
            -1.463424563407898,
            0.021549686789512634,
            0.4634672701358795,
            0.6076890230178833,
            -1.9730937480926514,
            1.7793463468551636,
            0.012330843135714531,
            0.6171761751174927,
            1.024691104888916,
            -0.09742798656225204,
            0.9720522165298462,
            0.07359138876199722,
            1.1579691171646118,
            0.45312055945396423,
            1.0544542074203491,
            0.07559475302696228,
            0.9555734395980835,
            -0.5573716759681702,
            1.0567330121994019,
            0.4998544156551361,
            -0.3490777909755707,
            -2.258234739303589,
            1.5602492094039917,
            -0.16671894490718842,
            0.7386034727096558,
            0.2671739459037781,
            1.4521468877792358,
            0.1436556875705719,
            0.5094560980796814,
            0.25266698002815247,
            -0.9344570636749268,
            0.7633655667304993,
            0.5779579281806946,
            0.3269263505935669,
            -1.6287733316421509,
            -0.37192749977111816,
            -0.4075310528278351,
            -0.4833795428276062,
            -1.2961771488189697,
            -0.16950199007987976,
            -0.4317432641983032,
            0.36344408988952637,
            0.09048081934452057,
            -0.5674976706504822,
            -1.3879510164260864,
            0.9610863327980042,
            -1.2339413166046143,
            -0.3260478973388672,
            2.0551016330718994,
            0.11875816434621811,
            -1.4570047855377197,
            0.7199092507362366,
            -1.8376545906066895,
            0.4480556547641754,
            0.4684610068798065,
            -0.14494647085666656,
            -0.4030199944972992,
            -0.6769730448722839,
            0.14433202147483826,
            0.07465115934610367,
            0.5148390531539917,
            0.5807433724403381,
            -1.4090752601623535,
            1.060530662536621,
            2.6736342906951904,
            0.040980931371450424,
            1.3029173612594604,
            -0.06679435819387436,
            -1.3540772199630737,
            1.0136182308197021,
            1.0345810651779175,
            0.11192823201417923,
            0.9549986720085144,
            -0.5108208656311035,
            0.45401546359062195,
            0.5079392790794373,
            1.1003727912902832,
            -0.569263219833374,
            1.8899012804031372,
            0.44576531648635864,
            1.0915364027023315,
            0.044164642691612244,
            0.9439398050308228,
            -0.5037729144096375,
            -0.021433843299746513,
            0.016108635812997818,
            1.3516212701797485,
            0.18920111656188965,
            0.716518223285675,
            -0.4993370771408081,
            -1.168747901916504,
            -0.1517040878534317,
            -1.5634504556655884,
            -0.6380894184112549,
            1.4408538341522217,
            -0.236103817820549,
            1.0591927766799927,
            0.13683494925498962,
            -1.2867891788482666,
            1.2747846841812134,
            1.3555625677108765,
            -0.3365076184272766,
            1.4539700746536255,
            -0.052489668130874634,
            1.2878292798995972,
            0.3409683108329773,
            1.2159571647644043,
            0.5335121750831604,
            0.019718939438462257,
            -0.9182138442993164,
            0.5480403900146484,
            0.39639151096343994,
            0.8092862963676453,
            0.316241055727005,
            2.4644525051116943,
            1.6173738241195679,
            1.3241063356399536,
            -0.4350394904613495,
            1.766953706741333,
            1.3814269304275513,
            -0.4776025116443634,
            -0.4310259222984314,
            -0.15152683854103088,
            -0.7701341509819031,
            1.4003723859786987,
            2.516613483428955,
            1.6508533954620361,
            1.437925934791565,
            1.1291900873184204,
            1.447605013847351,
            1.6984751224517822,
            -0.5637007355690002,
            2.2826292514801025,
            1.2996022701263428,
            1.1251403093338013,
            2.168757915496826,
            -0.6645612120628357,
            0.6807485818862915,
            -0.7976024150848389,
            -0.5098130106925964,
            -0.49917659163475037,
            -0.6588650941848755,
            -0.3622899055480957,
            0.2381146401166916,
            -0.716110110282898,
            2.3776895999908447,
            -0.6891381740570068,
            -0.25420016050338745,
            0.716806173324585,
            -0.5320562720298767,
            -0.5155348777770996,
            1.355263590812683,
            -0.8543117642402649,
            2.6647987365722656,
            1.8008418083190918,
            0.1808415800333023,
            1.7954840660095215,
            1.849268913269043,
            1.8611552715301514,
            1.3545576333999634,
            2.7460217475891113,
            1.3924144506454468,
            0.47195881605148315,
            -0.5690118074417114,
            1.7251988649368286,
            1.6586480140686035,
            -0.45197269320487976,
            -0.16922549903392792,
            2.1829380989074707,
            1.048050880432129,
            0.6846485733985901,
            2.170445203781128,
            2.6948273181915283,
            1.59781813621521,
            1.7799034118652344,
            -0.4774233102798462,
            1.1855566501617432,
            0.8870895504951477,
            -0.40004047751426697,
            -0.037729643285274506,
            -0.26286786794662476,
            0.12768054008483887,
            -0.20541957020759583,
            -0.1065155640244484,
            0.050308916717767715,
            -1.8590186834335327,
            -1.2456084489822388,
            -5.273479461669922,
            -0.9623337388038635,
            -0.041786015033721924,
            -0.011037820018827915,
            -0.12922276556491852,
            -0.23855875432491302,
            0.6006755828857422,
            -0.2632817029953003,
            -1.307092547416687,
            -0.061858855187892914,
            -0.34276464581489563,
            -0.2129489779472351,
            -0.6104270219802856,
            5.16900634765625,
            -0.24659116566181183,
            -1.0922459363937378,
            -0.9843223690986633,
            -1.0514570474624634,
            -0.019060885533690453,
            -0.5925365686416626,
            1.9373570680618286,
            -1.2228481769561768,
            -0.07913032174110413,
            4.15736198425293,
            -1.5338128805160522,
            -0.48954495787620544,
            -1.259839415550232,
            -0.08787301927804947,
            -0.4738077223300934,
            7.179616451263428,
            0.9914453029632568,
            -0.2224864363670349,
            2.4556760787963867,
            -0.19985635578632355,
            1.0318405628204346,
            -0.7225647568702698,
            0.5810354948043823,
            0.11744926124811172,
            -0.15839894115924835,
            0.2997187077999115,
            -0.04835706949234009,
            -0.31888461112976074,
            0.963503360748291,
            -0.9542572498321533,
            3.006021738052368,
            0.12247397750616074,
            -0.1169431209564209,
            -2.951810121536255,
            0.8613196611404419,
            -0.09196987003087997,
            -0.16004334390163422,
            -0.23095539212226868,
            -0.33930733799934387,
            -0.4128762185573578,
            -0.3324264585971832,
            0.6922813057899475,
            0.6298882365226746,
            0.8224802613258362,
            -0.10035838931798935,
            0.5344638824462891,
            0.35387933254241943,
            0.007457372732460499,
            -0.4230789244174957,
            -0.008996124379336834,
            -0.5015061497688293,
            0.5619809031486511,
            1.2683403491973877,
            0.717643678188324,
            0.49324050545692444,
            0.5996469855308533,
            0.6343712210655212,
            0.5148667693138123,
            0.6487600803375244,
            1.0929709672927856,
            0.6037577390670776,
            0.5131753087043762,
            1.0167311429977417,
            2.2626264095306396,
            0.4916944205760956,
            0.917626678943634,
            -0.649312436580658,
            1.3642053604125977,
            -0.06327053159475327,
            -0.45315611362457275,
            -0.050171609967947006,
            0.9496395587921143,
            2.008057117462158,
            -0.05070308968424797,
            -1.1667861938476562,
            0.37068116664886475,
            -0.32516157627105713,
            0.05102100223302841,
            0.5345658659934998,
            1.9283270835876465,
            2.649851083755493,
            0.5235626697540283,
            0.9143569469451904,
            0.6510946750640869,
            1.740118384361267,
            0.6225543022155762,
            1.6677770614624023,
            2.2610480785369873,
            0.6482330560684204,
            0.4081456959247589,
            -0.03178032860159874,
            0.8688377737998962,
            1.889425277709961,
            1.1189008951187134,
            -0.17389142513275146,
            1.2077666521072388,
            0.5952262282371521,
            0.08104714006185532,
            2.0763919353485107,
            0.9773492217063904,
            0.5169562697410583,
            0.5920169949531555,
            -0.6797053813934326,
            0.33978691697120667,
            0.535516619682312,
            0.018636075779795647,
            0.6808621883392334
        ]
    }
}