{
    "num_epochs": 5000,
    "batch_size": 64,
    "final_loss": 137.37966969807943,
    "train_data_exp_dir_path": "data/scp_train_data_non_norm",
    "encoder": {
        "num_inputs": 2,
        "num_outputs": 2,
        "num_hidden_layers": 1,
        "neurons_per_hidden_layer": 64,
        "hidden_layer_activation_function": "relu",
        "final_layer_activation_function": null,
        "bias": true,
        "weights": [
            -0.34171774983406067,
            0.2642155885696411,
            -0.6959909796714783,
            0.5078404545783997,
            0.37738484144210815,
            -0.3720410168170929,
            0.6569333672523499,
            -0.4694352149963379,
            -0.5530810356140137,
            0.5894876718521118,
            0.17510449886322021,
            -0.14925336837768555,
            0.4789171814918518,
            -0.6080487966537476,
            -0.43998122215270996,
            0.2992621958255768,
            0.27563542127609253,
            -0.20014333724975586,
            0.601877748966217,
            0.1490916758775711,
            0.6061728000640869,
            0.25719743967056274,
            0.3511471152305603,
            -0.2852879762649536,
            -0.33195510506629944,
            0.06999886780977249,
            0.5676144957542419,
            -0.16909819841384888,
            -0.39897891879081726,
            -0.5087094902992249,
            0.3158401846885681,
            -0.7055615186691284,
            0.37807217240333557,
            0.6407958269119263,
            -0.2343956083059311,
            0.5029296875,
            0.3156598210334778,
            -0.5515028238296509,
            0.9013462066650391,
            0.44336187839508057,
            -0.41724586486816406,
            -0.48230063915252686,
            -0.2060232311487198,
            0.04545873776078224,
            -0.21915923058986664,
            0.39206209778785706,
            0.017910122871398926,
            -0.06424891948699951,
            -0.5056750178337097,
            0.05802851542830467,
            0.027818406000733376,
            0.3081730306148529,
            -0.18292009830474854,
            -0.6092460751533508,
            0.130244642496109,
            0.44847291707992554,
            -0.26170849800109863,
            -0.2089306116104126,
            -0.0775991827249527,
            0.08220264315605164,
            0.6858919262886047,
            -0.16748195886611938,
            0.23963940143585205,
            -0.3836272656917572,
            0.30672258138656616,
            -0.4575093388557434,
            -0.5500773787498474,
            0.275899738073349,
            -0.39573463797569275,
            0.13317915797233582,
            0.6263733506202698,
            -0.18143343925476074,
            0.6580360531806946,
            -0.3315688371658325,
            -0.6440438032150269,
            -0.6874880194664001,
            0.6969831585884094,
            -0.2306157648563385,
            0.47141844034194946,
            -0.6239944696426392,
            0.4015238881111145,
            -0.48036086559295654,
            -0.5322986841201782,
            0.054292306303977966,
            0.3421120047569275,
            -0.47057992219924927,
            0.38176625967025757,
            0.1264689713716507,
            -0.5957579016685486,
            0.6625687479972839,
            0.432428777217865,
            0.33546188473701477,
            0.6086778044700623,
            -0.3118298649787903,
            0.11073189973831177,
            -0.6091800928115845,
            -0.41030505299568176,
            0.28345224261283875,
            0.3323901891708374,
            -0.005047546699643135,
            -0.038612425327301025,
            -0.08464688062667847,
            0.416193425655365,
            -0.6616916656494141,
            -0.24395254254341125,
            -0.36737722158432007,
            -0.6761510968208313,
            -0.21974751353263855,
            0.007436648942530155,
            0.06255906075239182,
            -0.2910747230052948,
            -0.05783325433731079,
            -0.34417393803596497,
            0.3246752619743347,
            -0.3214886784553528,
            0.6556417346000671,
            0.35793623328208923,
            0.5007802248001099,
            -0.3967205286026001,
            -0.6372131109237671,
            -0.8036131262779236,
            0.2930724620819092,
            -0.11928427219390869,
            -0.2150161862373352,
            -0.652996301651001,
            -0.5657157301902771,
            -0.44366756081581116,
            0.4602741301059723,
            0.4451018273830414,
            0.8067256212234497,
            0.5880555510520935,
            -0.38562384247779846,
            0.02727176994085312,
            0.31295448541641235,
            -0.31473949551582336,
            0.1611049324274063,
            0.41359859704971313,
            -1.0647320747375488,
            0.44765451550483704,
            0.4265285134315491,
            1.4419753551483154,
            0.5586740374565125,
            -0.6865149736404419,
            -0.37559181451797485,
            -1.342657208442688,
            -0.4399360716342926,
            0.2916310429573059,
            -0.8693805932998657,
            0.5811846852302551,
            -1.4284257888793945,
            0.8721652030944824,
            0.4957183003425598,
            -1.2728807926177979,
            -0.4710121154785156,
            -0.20470529794692993,
            -0.8021777272224426,
            0.4419935345649719,
            -0.9271244406700134,
            0.08845150470733643,
            0.3927571177482605,
            -0.3722216486930847,
            -1.2456927299499512,
            -0.24908000230789185,
            0.6328142285346985,
            0.3496028780937195,
            -0.4927399754524231,
            -0.4352315366268158,
            0.4310615658760071,
            -0.41357648372650146,
            -1.2305350303649902,
            0.40425390005111694,
            -0.856876015663147,
            -0.47973597049713135,
            -1.249861478805542,
            0.1900773048400879,
            -0.5815379023551941,
            0.7988186478614807,
            -1.0314900875091553,
            -0.21510788798332214,
            0.6033371090888977,
            -0.6193377375602722,
            0.5378773808479309,
            -1.0409908294677734,
            -0.46256527304649353,
            1.0673397779464722,
            0.5516289472579956,
            0.547544002532959,
            0.4382794499397278,
            -1.005033254623413,
            -0.33539846539497375,
            -0.34913715720176697,
            0.4003264009952545,
            -0.02060057409107685,
            -0.16939352452754974,
            -0.06444482505321503,
            -0.019463911652565002,
            -0.13570408523082733,
            -0.06750208139419556,
            -0.11620983481407166,
            0.07203047722578049,
            -0.012685388326644897,
            0.11135811358690262,
            -0.03264499083161354,
            -0.06930075585842133,
            -0.2537273168563843,
            0.08922559022903442,
            -0.1102447658777237,
            -0.013033926486968994,
            0.04146887734532356,
            0.08669142425060272,
            0.061322152614593506,
            -0.005040366668254137,
            0.030152246356010437,
            0.37786099314689636,
            -0.04335525631904602,
            -0.12479647994041443,
            0.2561802566051483,
            0.06144591420888901,
            -0.12444150447845459,
            0.09864085912704468,
            -0.029898107051849365,
            -0.037567880004644394,
            -0.009652987122535706,
            0.07419490814208984,
            -0.008018776774406433,
            -0.10378079116344452,
            -0.029105957597494125,
            -0.034096017479896545,
            -0.054800957441329956,
            -0.054576799273490906,
            0.11488950252532959,
            -0.06372231245040894,
            0.07803164422512054,
            0.2951756417751312,
            0.06326965987682343,
            0.051325589418411255,
            0.020825738087296486,
            -0.053731512278318405,
            0.029852986335754395,
            -0.0772242546081543,
            -0.04901505634188652,
            0.04378274083137512,
            0.021228119730949402,
            -0.04976178705692291,
            -0.12142877280712128,
            0.007047116756439209,
            0.10774258524179459,
            -0.08367234468460083,
            -0.1148313358426094,
            -0.0075276438146829605,
            0.041836049407720566,
            0.05022624135017395,
            0.10571711510419846,
            0.024354472756385803,
            -0.03769822418689728,
            0.07255908101797104,
            -0.04759180545806885,
            0.035764433443546295,
            0.06546664237976074,
            0.0941290557384491,
            0.008957384154200554,
            -0.10338294506072998,
            0.047535091638565063,
            -0.10959000885486603,
            0.05926083028316498,
            0.1382984071969986,
            -0.03576919808983803,
            -0.000864669680595398,
            -0.2969970405101776,
            -0.015760332345962524,
            -0.035558268427848816,
            0.08967535197734833,
            0.05891503766179085,
            0.0298704095184803,
            0.03397728502750397,
            0.12060148268938065,
            0.07492901384830475,
            0.6706599593162537,
            -0.08141942322254181,
            0.01818259060382843,
            0.15217971801757812,
            0.056518543511629105,
            0.09581871330738068,
            -0.026420123875141144,
            -0.07642297446727753,
            0.17693068087100983,
            0.0996209979057312,
            0.09050396084785461,
            -0.0708719789981842,
            0.06267426908016205,
            -0.0055416785180568695,
            -0.11121299862861633,
            0.08242522180080414,
            0.11186575889587402,
            -0.05676648020744324,
            0.05902954936027527,
            0.05208621919155121,
            0.27966755628585815,
            -0.05311708152294159,
            0.12075521051883698,
            -0.008204142563045025,
            0.0343179851770401,
            0.04131010174751282,
            -0.03223481774330139,
            -0.04277721792459488,
            -0.009293091483414173,
            -0.07197342813014984,
            0.11381934583187103,
            0.0019077062606811523,
            0.11248432099819183,
            0.21858158707618713,
            0.011606305837631226,
            -0.08810780197381973,
            -0.08095544576644897,
            -0.08020970225334167,
            0.04302288591861725,
            -0.0006608383846469223,
            -0.12102027237415314,
            0.09480103850364685,
            -0.045683540403842926,
            -0.6722024083137512,
            -0.8605923652648926
        ]
    },
    "decoder": {
        "num_inputs": 2,
        "num_outputs": 2,
        "num_hidden_layers": 1,
        "neurons_per_hidden_layer": 64,
        "hidden_layer_activation_function": "relu",
        "final_layer_activation_function": null,
        "bias": true,
        "weights": [
            2.766676902770996,
            4.125904560089111,
            3.350492477416992,
            3.688917636871338,
            -0.06099956855177879,
            -0.6839606165885925,
            3.915019989013672,
            3.4276959896087646,
            3.2122161388397217,
            3.6282553672790527,
            -1.9478121995925903,
            -1.1195814609527588,
            1.4289054870605469,
            -3.5342042446136475,
            -2.400094747543335,
            -0.19829383492469788,
            0.1086357831954956,
            0.571493923664093,
            3.899217367172241,
            3.516618490219116,
            3.0943777561187744,
            3.9472672939300537,
            3.251190185546875,
            4.379214763641357,
            -1.4199039936065674,
            -1.3393105268478394,
            4.002766132354736,
            4.34172248840332,
            4.153818607330322,
            2.9528462886810303,
            4.175685405731201,
            2.9423890113830566,
            3.4250850677490234,
            3.5268611907958984,
            0.7110951542854309,
            -0.5296032428741455,
            3.3545305728912354,
            4.265246391296387,
            -2.021446466445923,
            -0.4334825873374939,
            -0.04270428419113159,
            -0.20188498497009277,
            3.1424238681793213,
            3.750394344329834,
            0.11451882123947144,
            0.27856969833374023,
            -0.05497616529464722,
            -0.2232537865638733,
            4.151719093322754,
            3.721381902694702,
            3.931924343109131,
            3.192249298095703,
            3.2295804023742676,
            4.373736381530762,
            4.055314064025879,
            3.8914477825164795,
            -0.05553191900253296,
            -0.40681782364845276,
            3.8217380046844482,
            4.420508861541748,
            -0.7014402747154236,
            -0.010242640972137451,
            0.7616329789161682,
            -0.5880671739578247,
            0.025710582733154297,
            -0.018591225147247314,
            4.2646379470825195,
            2.9939146041870117,
            3.0064589977264404,
            3.957078695297241,
            3.537050485610962,
            4.379100799560547,
            -0.2771042287349701,
            -0.5794289708137512,
            3.9598300457000732,
            4.019892692565918,
            3.7174813747406006,
            2.91735577583313,
            3.526669979095459,
            3.8184990882873535,
            -1.8888663053512573,
            -0.5635906457901001,
            1.14046049118042,
            -3.331270694732666,
            0.21164071559906006,
            -0.050813913345336914,
            2.719165802001953,
            4.540153980255127,
            -0.4113152325153351,
            -0.05823642015457153,
            2.6472761631011963,
            1.5139905214309692,
            0.06266123056411743,
            -0.01085805892944336,
            4.134322643280029,
            3.4040467739105225,
            -1.9513702392578125,
            -1.1130552291870117,
            -0.710491955280304,
            -1.5933891534805298,
            3.955703020095825,
            4.361149311065674,
            -0.6307661533355713,
            0.2819664478302002,
            3.031273365020752,
            4.262627124786377,
            4.075977325439453,
            3.774721384048462,
            -1.343808889389038,
            -1.3010541200637817,
            -2.4188132286071777,
            0.17688874900341034,
            -0.3755868375301361,
            0.10349851846694946,
            3.2292370796203613,
            3.517118215560913,
            -2.1959946155548096,
            0.17470572888851166,
            3.8719396591186523,
            4.135887145996094,
            3.690735101699829,
            4.378715515136719,
            4.167959213256836,
            3.5959506034851074,
            -3.03851580619812,
            1.285059928894043,
            -0.1124480739235878,
            -0.10552705824375153,
            1.5998867750167847,
            1.5874618291854858,
            -0.0002258891036035493,
            1.1731833219528198,
            1.890251636505127,
            3.000361919403076,
            2.070068836212158,
            2.583594560623169,
            -0.6817958950996399,
            1.6475303173065186,
            1.5546040534973145,
            1.5706175565719604,
            2.677422523498535,
            1.0785547494888306,
            2.046281576156616,
            1.783436894416809,
            1.6516236066818237,
            -0.4612719714641571,
            1.360563039779663,
            2.4270260334014893,
            -0.11492764949798584,
            1.9709347486495972,
            -0.5951903462409973,
            -0.2833624482154846,
            1.8334393501281738,
            1.7897472381591797,
            1.3869811296463013,
            0.8593498468399048,
            -0.286781907081604,
            1.4767131805419922,
            -0.6183652877807617,
            -0.48795434832572937,
            -0.4395599365234375,
            1.5819785594940186,
            1.9803011417388916,
            1.1704527139663696,
            -0.5952415466308594,
            1.4005439281463623,
            1.8932803869247437,
            1.0880963802337646,
            2.4171504974365234,
            2.139376401901245,
            -0.47781217098236084,
            2.038562059402466,
            -0.6097667813301086,
            -0.2144385576248169,
            -0.5402195453643799,
            1.7365925312042236,
            2.997921943664551,
            2.226689100265503,
            1.229615569114685,
            -0.6768488883972168,
            1.6607588529586792,
            1.1130307912826538,
            2.5653109550476074,
            2.270921230316162,
            -0.48248809576034546,
            1.555055022239685,
            2.053764581680298,
            1.4168956279754639,
            2.0449697971343994,
            1.5134598016738892,
            1.837228536605835,
            -0.0016026056837290525,
            0.32567229866981506,
            -0.35176247358322144,
            -0.10641244798898697,
            -0.5054402351379395,
            -0.12227758020162582,
            1.083001732826233,
            -4.352163791656494,
            2.2790822982788086,
            -0.009562564082443714,
            -0.6025375127792358,
            -0.0843098983168602,
            0.036805134266614914,
            0.28347349166870117,
            -0.35053718090057373,
            -0.808246374130249,
            -0.9541686773300171,
            -0.4487106502056122,
            -1.1375188827514648,
            0.09156691282987595,
            1.9846733808517456,
            0.11845776438713074,
            -0.12831009924411774,
            0.058594584465026855,
            -0.08233167231082916,
            -0.49036210775375366,
            -0.6225736737251282,
            0.090488962829113,
            -0.5250990390777588,
            -0.07125172019004822,
            -0.08971092104911804,
            -0.12271510064601898,
            -1.2699942588806152,
            0.009957432746887207,
            -0.9787169694900513,
            -0.012340737506747246,
            -0.10725522041320801,
            0.013136476278305054,
            -0.3235209584236145,
            -0.6229853630065918,
            -0.1807836890220642,
            1.9718507528305054,
            -4.005521774291992,
            0.09312698245048523,
            0.2917802631855011,
            0.113093301653862,
            -1.2473924160003662,
            0.017722800374031067,
            -0.7186052799224854,
            1.1078107357025146,
            -0.9882635474205017,
            -0.22771108150482178,
            -0.09707163274288177,
            0.15576842427253723,
            -0.6649636626243591,
            0.13293400406837463,
            2.9444217681884766,
            0.08959932625293732,
            -0.07193876802921295,
            2.8591599464416504,
            -0.33413562178611755,
            -0.10358540713787079,
            -0.5753105878829956,
            4.248302936553955,
            -0.09549528360366821,
            2.834739923477173,
            3.007403612136841,
            0.053771793842315674,
            2.9242799282073975,
            2.8940396308898926,
            -3.541485548019409,
            -2.9332432746887207,
            -3.4855289459228516,
            -0.011347660794854164,
            2.7856533527374268,
            3.036247491836548,
            2.9420506954193115,
            -3.458376407623291,
            3.092299461364746,
            2.8521728515625,
            2.9090654850006104,
            2.9981837272644043,
            0.8432114124298096,
            3.13043475151062,
            -3.8741586208343506,
            0.060169488191604614,
            2.915264129638672,
            0.048074305057525635,
            0.06213557720184326,
            2.9236233234405518,
            2.8919148445129395,
            2.9314568042755127,
            3.227471113204956,
            -0.12350299954414368,
            2.979933738708496,
            0.018604472279548645,
            0.8317753672599792,
            -0.09973497688770294,
            2.9437623023986816,
            2.7974202632904053,
            3.114982843399048,
            0.055879995226860046,
            3.0022478103637695,
            2.7263941764831543,
            2.9853458404541016,
            -3.8524396419525146,
            -3.0179061889648438,
            -0.033410459756851196,
            2.773571014404297,
            0.038347333669662476,
            2.1064627170562744,
            -0.03819437325000763,
            2.8707852363586426,
            -3.4829816818237305,
            -2.8119633197784424,
            3.1346123218536377,
            -0.12054993212223053,
            2.9795825481414795,
            3.1177399158477783,
            -3.2310304641723633,
            -3.6371493339538574,
            0.11679378151893616,
            2.8066489696502686,
            -3.64839768409729,
            3.0502655506134033,
            2.80955171585083,
            2.858787775039673,
            -3.531318187713623,
            0.013983771204948425,
            -0.27007925510406494,
            1.0645233392715454
        ]
    }
}