{
    "num_epochs": 5000,
    "batch_size": 64,
    "final_loss": 98.82293217976888,
    "train_data_exp_dir_path": "data/scp_train_data_non_norm",
    "encoder": {
        "num_inputs": 2,
        "num_outputs": 2,
        "num_hidden_layers": 1,
        "neurons_per_hidden_layer": 64,
        "hidden_layer_activation_function": "relu",
        "final_layer_activation_function": null,
        "bias": true,
        "weights": [
            0.017438948154449463,
            -0.23660776019096375,
            -0.2147403210401535,
            0.3409323990345001,
            -0.36086177825927734,
            0.530975341796875,
            -0.32787299156188965,
            0.27417251467704773,
            0.4875752925872803,
            0.2503911554813385,
            0.18187646567821503,
            0.21281883120536804,
            -0.31765756011009216,
            0.07443621009588242,
            0.5330455899238586,
            -0.4905145466327667,
            -0.47426551580429077,
            -0.24484485387802124,
            -0.5034000277519226,
            -0.1649511456489563,
            0.08106821775436401,
            -0.2981652617454529,
            0.36108118295669556,
            -0.5693588852882385,
            0.1846025437116623,
            0.3539087772369385,
            0.4620315730571747,
            0.4212481379508972,
            -0.4002228379249573,
            0.04771830514073372,
            0.5473158955574036,
            0.27345016598701477,
            -0.6025480031967163,
            -0.6227437853813171,
            0.1342170536518097,
            0.21803447604179382,
            -0.5470899343490601,
            -0.11765521764755249,
            0.5347994565963745,
            0.41967517137527466,
            0.27358680963516235,
            -0.5812888145446777,
            0.298200398683548,
            0.2668292224407196,
            -0.6142509579658508,
            0.08214638382196426,
            -0.05108827352523804,
            -0.03361380100250244,
            -0.5886762142181396,
            0.013578886166214943,
            0.054642509669065475,
            0.008558687753975391,
            0.09254147112369537,
            0.6828848719596863,
            0.5649610161781311,
            0.4539109766483307,
            0.6939850449562073,
            0.4849829375743866,
            -0.033256370574235916,
            0.05277669429779053,
            -0.6749029755592346,
            -0.525736391544342,
            0.25350630283355713,
            -0.08423715829849243,
            -0.26131635904312134,
            -0.30025312304496765,
            0.2889319360256195,
            0.6235949993133545,
            0.5498024821281433,
            -0.29341959953308105,
            -0.3245403468608856,
            -0.26021116971969604,
            0.3004012107849121,
            0.5712662935256958,
            0.20323389768600464,
            -0.06662613153457642,
            -0.5561450719833374,
            -0.4921247959136963,
            -0.19728094339370728,
            0.07978734374046326,
            0.25948822498321533,
            -0.504511833190918,
            0.15609323978424072,
            -0.6460648775100708,
            0.43872445821762085,
            -0.3100920617580414,
            0.5542371273040771,
            0.28951194882392883,
            0.3761531710624695,
            0.11731515824794769,
            -0.4655511975288391,
            -0.3187587261199951,
            -0.4195979833602905,
            0.04666665196418762,
            0.06641118228435516,
            0.19633133709430695,
            -0.26080840826034546,
            -0.5742793083190918,
            -0.5880410075187683,
            0.013685941696166992,
            0.4087863862514496,
            0.14951832592487335,
            0.13100165128707886,
            -0.13741600513458252,
            -0.4570082128047943,
            0.2915969789028168,
            -0.20235861837863922,
            0.07964726537466049,
            0.6395487189292908,
            0.3993974030017853,
            0.5771337151527405,
            -0.30803731083869934,
            -0.5568715929985046,
            0.4606406092643738,
            0.14698660373687744,
            -0.4602605104446411,
            0.24550765752792358,
            -0.1153639554977417,
            -0.1866247057914734,
            -0.6638014912605286,
            0.5206542611122131,
            -0.639370858669281,
            0.05221457779407501,
            0.48784250020980835,
            -0.6773074269294739,
            -0.6213740706443787,
            -0.4473918378353119,
            -0.6877172589302063,
            -0.5562877655029297,
            -0.49769672751426697,
            0.6352214217185974,
            1.5166022777557373,
            0.48834890127182007,
            -1.162880778312683,
            -0.8934606313705444,
            -0.6259254217147827,
            0.1141619086265564,
            0.4057754874229431,
            -0.3973337709903717,
            0.22118061780929565,
            -1.1801915168762207,
            1.1016002893447876,
            -1.3529858589172363,
            -0.7736793160438538,
            0.3867647051811218,
            -0.5715845823287964,
            -0.4236879348754883,
            -1.098607063293457,
            0.42464131116867065,
            0.7094005346298218,
            1.4403209686279297,
            -0.44662678241729736,
            0.42247968912124634,
            -1.5215659141540527,
            0.3448651134967804,
            -0.5628789663314819,
            1.2927680015563965,
            0.987109899520874,
            -0.3349044919013977,
            0.4748038649559021,
            0.19404149055480957,
            -0.9342334866523743,
            -0.4281972348690033,
            0.3946031928062439,
            -0.9394717812538147,
            0.6419146656990051,
            0.13870680332183838,
            0.6793936491012573,
            -0.41802912950515747,
            -0.4875134229660034,
            -0.19162368774414062,
            0.6950982809066772,
            0.8376244902610779,
            0.4941316246986389,
            -1.2214367389678955,
            -0.8180586695671082,
            0.04002338647842407,
            0.3863469064235687,
            -1.344595193862915,
            0.45929819345474243,
            -0.917894721031189,
            0.9263392686843872,
            -1.3854384422302246,
            -0.26652806997299194,
            -1.7265303134918213,
            -0.656988263130188,
            0.5349388718605042,
            0.6781794428825378,
            0.6488954424858093,
            1.4883368015289307,
            0.19149678945541382,
            0.22277653217315674,
            0.09578472375869751,
            0.10836970806121826,
            -0.011934975162148476,
            0.0034245613496750593,
            0.029121987521648407,
            -0.1526212841272354,
            0.007020267192274332,
            0.054449379444122314,
            0.10042579472064972,
            -0.004813283681869507,
            0.11805166304111481,
            0.060051679611206055,
            0.09511859714984894,
            0.10126429051160812,
            -0.1937635838985443,
            0.07082097232341766,
            -0.024260133504867554,
            0.033838801085948944,
            0.058385059237480164,
            -0.04565337300300598,
            0.1161637157201767,
            0.04835104942321777,
            0.17582009732723236,
            0.04588136076927185,
            -0.041237469762563705,
            0.3219723105430603,
            -0.08702103048563004,
            -0.10301221162080765,
            0.062090080231428146,
            0.2143852710723877,
            -0.10652823746204376,
            -0.05913171172142029,
            0.012443989515304565,
            0.06156047061085701,
            0.04834318161010742,
            -0.10197262465953827,
            0.039443083107471466,
            -0.058229416608810425,
            0.08220571279525757,
            0.10955121368169785,
            -0.06419363617897034,
            0.10293622314929962,
            0.050270870327949524,
            0.04670492187142372,
            0.017133548855781555,
            -0.12162697315216064,
            -0.4092981219291687,
            -0.146902933716774,
            0.010361358523368835,
            0.03482430428266525,
            -0.09362304210662842,
            0.04994301497936249,
            -0.05592380091547966,
            0.2050744891166687,
            -0.14960186183452606,
            -0.0478643923997879,
            0.039233893156051636,
            -0.01426003873348236,
            0.07350657880306244,
            -0.03616471588611603,
            -0.0025117695331573486,
            -0.06461524218320847,
            -0.00806356966495514,
            -0.09738895297050476,
            0.10991618037223816,
            0.09394807368516922,
            -0.02498694323003292,
            -0.15575110912322998,
            -0.08843574672937393,
            0.18153993785381317,
            0.0013824144843965769,
            -0.053390324115753174,
            0.07683226466178894,
            0.06085523962974548,
            -0.06397080421447754,
            0.07949000597000122,
            0.0636751726269722,
            -0.1412307173013687,
            0.2851911187171936,
            0.0872209221124649,
            0.01850190758705139,
            0.11861590296030045,
            -0.0982624888420105,
            0.14155380427837372,
            0.06894432008266449,
            -0.12441249191761017,
            -0.18912476301193237,
            0.06982427835464478,
            -0.1758202463388443,
            -1.041394829750061,
            -0.10743655264377594,
            0.012872387655079365,
            -0.1334501951932907,
            -0.24734987318515778,
            -0.10639718174934387,
            -0.06557536125183105,
            0.04039090871810913,
            0.0890016257762909,
            -0.05457089841365814,
            -0.03762011229991913,
            0.06911219656467438,
            0.07737670838832855,
            0.006419867277145386,
            -0.01642383448779583,
            0.011228695511817932,
            0.07339347898960114,
            -0.07000616192817688,
            -0.07863376289606094,
            -0.1702614575624466,
            -0.038003548979759216,
            0.2312040627002716,
            -0.00042738058255054057,
            0.04502148926258087,
            -0.17356286942958832,
            0.152854323387146,
            0.050433725118637085,
            0.13908259570598602,
            -0.06568831950426102,
            0.05481383576989174,
            0.0969020426273346,
            0.03913833200931549,
            0.08979108929634094,
            0.008434638381004333,
            -0.018826350569725037,
            0.02361750602722168,
            -0.0484219491481781,
            -0.007818639278411865,
            0.08241625130176544,
            0.6185661554336548,
            -0.9305458664894104
        ]
    },
    "decoder": {
        "num_inputs": 2,
        "num_outputs": 2,
        "num_hidden_layers": 1,
        "neurons_per_hidden_layer": 64,
        "hidden_layer_activation_function": "relu",
        "final_layer_activation_function": null,
        "bias": true,
        "weights": [
            -2.249567985534668,
            4.874187469482422,
            -0.03893250226974487,
            -0.646891713142395,
            -2.780041217803955,
            4.858485698699951,
            -3.103837490081787,
            4.10322904586792,
            0.2218683362007141,
            -0.34957757592201233,
            -2.3026676177978516,
            4.675737380981445,
            -3.369941473007202,
            4.450555801391602,
            -2.935816764831543,
            3.9743316173553467,
            2.5759317874908447,
            -1.05579674243927,
            -2.46626615524292,
            4.454433441162109,
            -0.020038366317749023,
            0.09938395023345947,
            -0.22709479928016663,
            0.10215163230895996,
            -3.0671722888946533,
            4.720553874969482,
            -0.07792074978351593,
            3.6778578758239746,
            -0.687343955039978,
            -0.45400339365005493,
            0.36845940351486206,
            -0.14368265867233276,
            0.587662398815155,
            -0.6496126651763916,
            1.584813117980957,
            -5.164655685424805,
            -2.8351778984069824,
            4.594144344329834,
            -0.1583571434020996,
            0.3402346968650818,
            -2.8981969356536865,
            4.5248517990112305,
            0.21709132194519043,
            -0.4919579029083252,
            0.039772629737854004,
            -0.407387375831604,
            -0.09597879648208618,
            -0.6288827061653137,
            0.16463637351989746,
            -0.12651944160461426,
            -1.8930457830429077,
            5.027278423309326,
            -2.820835590362549,
            4.294469833374023,
            -1.7879917621612549,
            3.9504849910736084,
            -3.2034573554992676,
            4.8663177490234375,
            0.19425147771835327,
            4.085734844207764,
            3.5752756595611572,
            -0.4345686733722687,
            -0.2598802447319031,
            0.5692030787467957,
            -0.2413105070590973,
            -0.38234129548072815,
            -2.568084239959717,
            5.104926109313965,
            -3.0381853580474854,
            5.009640216827393,
            -1.8507652282714844,
            4.572272777557373,
            -1.7638071775436401,
            3.9902732372283936,
            0.38301676511764526,
            -4.206995010375977,
            0.20736676454544067,
            -0.6490944027900696,
            -1.7252483367919922,
            4.4896745681762695,
            0.12962698936462402,
            -0.48185834288597107,
            -2.8066670894622803,
            4.936779499053955,
            -2.2224841117858887,
            4.63671350479126,
            -0.5622981190681458,
            -0.5856872797012329,
            -2.644986391067505,
            4.829516887664795,
            -2.963350772857666,
            4.777019500732422,
            -0.3734486401081085,
            -0.44002118706703186,
            3.6731762886047363,
            -0.4370562732219696,
            3.5462684631347656,
            -0.3614526391029358,
            3.668872117996216,
            -0.4936591684818268,
            -0.603914737701416,
            0.13338947296142578,
            3.1060614585876465,
            -0.4270831346511841,
            0.019514942541718483,
            -0.584122359752655,
            0.46075260639190674,
            -4.248023509979248,
            -2.6682820320129395,
            3.9578187465667725,
            0.12118828296661377,
            -0.15065127611160278,
            0.1436157524585724,
            3.8383004665374756,
            -3.459336996078491,
            4.145826816558838,
            -2.1863787174224854,
            4.857460975646973,
            -0.288165420293808,
            0.6004149317741394,
            -2.238452672958374,
            4.786234378814697,
            -0.019059419631958008,
            0.4589361548423767,
            -3.0607502460479736,
            4.488164901733398,
            -2.039699077606201,
            3.944470167160034,
            3.049680471420288,
            -0.5806748270988464,
            3.40865159034729,
            3.697160482406616,
            -0.3588491380214691,
            2.8584933280944824,
            3.200634002685547,
            3.672428607940674,
            0.9972407221794128,
            3.3661446571350098,
            -0.34359997510910034,
            -0.45094969868659973,
            2.7176995277404785,
            0.017643319442868233,
            -0.6821376085281372,
            -0.4615910053253174,
            -0.6217311024665833,
            1.5363777875900269,
            3.2156286239624023,
            -0.4617672562599182,
            3.2364120483398438,
            -0.535830557346344,
            -0.44804123044013977,
            -0.06091940402984619,
            -0.6478708982467651,
            3.3708558082580566,
            3.5894837379455566,
            3.6885859966278076,
            3.691768169403076,
            0.8900349140167236,
            0.41808316111564636,
            -0.5719772577285767,
            -0.10214817523956299,
            3.1889724731445312,
            3.677558660507202,
            3.633856773376465,
            3.6467206478118896,
            2.2181479930877686,
            -0.36115482449531555,
            3.647512435913086,
            -0.47414839267730713,
            3.59161639213562,
            3.6985294818878174,
            -0.6558728814125061,
            3.70086932182312,
            3.0608651638031006,
            -0.36146628856658936,
            0.4192182719707489,
            0.34834545850753784,
            0.47375527024269104,
            -0.666733980178833,
            0.4087965488433838,
            -0.0132362749427557,
            2.0706071853637695,
            3.4588427543640137,
            -0.26901769638061523,
            1.078970193862915,
            3.1878976821899414,
            3.634695291519165,
            -0.6200506687164307,
            3.102332830429077,
            -0.7046946287155151,
            3.3840744495391846,
            3.541771411895752,
            -0.27699509263038635,
            -0.11190177500247955,
            -0.6128013730049133,
            -1.0867737531661987,
            0.11518098413944244,
            -0.29052889347076416,
            -1.0226808786392212,
            -1.1874741315841675,
            0.9174407124519348,
            -0.579049289226532,
            -0.10140150785446167,
            -0.10555902123451233,
            -0.5935468077659607,
            2.9752302169799805,
            -0.11539663374423981,
            0.03431031107902527,
            0.10548780858516693,
            -3.6095211505889893,
            -0.6348155736923218,
            0.016901150345802307,
            -0.6763432621955872,
            -0.08490686118602753,
            0.020011350512504578,
            -0.10756076872348785,
            -0.08284783363342285,
            -0.06911013275384903,
            -0.8008232116699219,
            -0.50108402967453,
            -0.8762334585189819,
            2.33715558052063,
            2.140152931213379,
            0.04662671685218811,
            0.05768910050392151,
            -0.3289394676685333,
            -0.591654896736145,
            -0.21047446131706238,
            -0.46896716952323914,
            -3.3227758407592773,
            0.03058619797229767,
            -0.2505893111228943,
            0.06405919790267944,
            -0.516386866569519,
            -0.41419902443885803,
            -0.017681583762168884,
            -0.5378670692443848,
            -0.6583594083786011,
            -0.07855327427387238,
            2.2963883876800537,
            2.4375722408294678,
            2.254979372024536,
            -0.04866167902946472,
            1.7877520322799683,
            0.08681957423686981,
            -3.0714683532714844,
            -0.8845470547676086,
            0.005038425326347351,
            2.0209696292877197,
            -1.3468496799468994,
            -0.23981042206287384,
            -0.05642654001712799,
            -0.185370534658432,
            0.020818054676055908,
            -0.9191985726356506,
            -0.5174413919448853,
            3.9749348163604736,
            0.08409754931926727,
            3.9318463802337646,
            3.932112216949463,
            -0.07303376495838165,
            3.8757705688476562,
            4.1357808113098145,
            3.9631643295288086,
            -2.17169189453125,
            3.8612749576568604,
            -0.052298128604888916,
            0.07264287769794464,
            4.307862281799316,
            2.260115623474121,
            0.04575084149837494,
            -0.09799660742282867,
            0.062267422676086426,
            -2.5882747173309326,
            3.9047086238861084,
            -0.0704755187034607,
            4.02178955078125,
            0.08871102333068848,
            0.04380317032337189,
            0.03780102729797363,
            0.018969103693962097,
            3.7325997352600098,
            3.7529540061950684,
            3.7276036739349365,
            3.984311819076538,
            2.427884817123413,
            -2.0232086181640625,
            0.05347606539726257,
            -0.06721913814544678,
            3.9137346744537354,
            3.9047930240631104,
            3.7724077701568604,
            3.7557878494262695,
            -1.9903322458267212,
            -0.018830209970474243,
            3.703300952911377,
            -0.03755675256252289,
            3.9085824489593506,
            3.6765220165252686,
            0.055174827575683594,
            3.770336151123047,
            4.051478385925293,
            0.12314833700656891,
            -2.315640449523926,
            -2.2305166721343994,
            -2.2429633140563965,
            0.039857491850852966,
            -1.9150636196136475,
            0.07068333029747009,
            -1.840046763420105,
            3.9569292068481445,
            0.09742595255374908,
            2.3628413677215576,
            4.228000640869141,
            3.8021366596221924,
            0.12120118737220764,
            3.8183958530426025,
            -0.061263307929039,
            4.035383701324463,
            3.7243621349334717,
            -1.2149642705917358,
            2.778656482696533
        ]
    }
}