{
    "num_epochs": 2000,
    "batch_size": 64,
    "final_loss": 0.4374451796923365,
    "train_data_exp_dir_path": "data/scp_train_data_non_norm",
    "encoder": {
        "num_inputs": 2,
        "num_outputs": 2,
        "num_hidden_layers": 1,
        "neurons_per_hidden_layer": 64,
        "hidden_layer_activation_function": "relu",
        "final_layer_activation_function": null,
        "bias": true,
        "weights": [
            -0.16149544715881348,
            -0.6536906361579895,
            0.5828572511672974,
            0.4787599742412567,
            -0.4049715995788574,
            -0.5295003056526184,
            0.1400853842496872,
            0.3846043050289154,
            0.6077738404273987,
            -0.6600136756896973,
            -0.015365886501967907,
            0.458551287651062,
            0.3419730067253113,
            0.2019292712211609,
            0.09070304781198502,
            0.07890469580888748,
            -0.24795985221862793,
            -0.1647261381149292,
            -0.3402943015098572,
            -0.07707156985998154,
            -0.4493929445743561,
            0.6080855131149292,
            -0.13777685165405273,
            -0.46952709555625916,
            -0.5640332102775574,
            -0.4257126748561859,
            -0.16658830642700195,
            -0.6190829277038574,
            -0.5719168782234192,
            -0.2936697006225586,
            -0.536997377872467,
            0.34545600414276123,
            -0.343695729970932,
            -0.4575684368610382,
            -0.2686447501182556,
            0.06302694976329803,
            -0.3104761838912964,
            -0.46083492040634155,
            0.56461101770401,
            -0.5161131620407104,
            -0.2660626173019409,
            0.2873254120349884,
            0.2798668146133423,
            -0.40348586440086365,
            -0.36768966913223267,
            0.047827769070863724,
            0.4227585196495056,
            -0.12125861644744873,
            -0.385794460773468,
            -0.38774165511131287,
            0.2813611626625061,
            0.15553174912929535,
            -0.4464806914329529,
            0.172774076461792,
            0.677681028842926,
            -0.4810330271720886,
            0.3053516745567322,
            0.23396676778793335,
            0.46219348907470703,
            0.08744253218173981,
            -0.5900070667266846,
            0.22553662955760956,
            0.30609244108200073,
            -0.15299761295318604,
            0.022924380376935005,
            0.5106115937232971,
            0.07862585783004761,
            -0.6369810700416565,
            0.0467950701713562,
            -0.24765563011169434,
            0.123282790184021,
            -0.4546588659286499,
            -0.18259240686893463,
            0.5553968548774719,
            0.15125727653503418,
            -0.27762287855148315,
            0.5824098587036133,
            0.34625354409217834,
            0.21927917003631592,
            -0.3419555723667145,
            0.17602884769439697,
            -0.29634779691696167,
            0.5441160798072815,
            -0.3250487148761749,
            -0.11279261112213135,
            0.32074832916259766,
            0.6379415392875671,
            -0.0388302356004715,
            -0.4248482286930084,
            -0.3488906919956207,
            0.01849275827407837,
            -0.2913353741168976,
            0.5873647332191467,
            -0.21122854948043823,
            -0.5850741267204285,
            -0.20624703168869019,
            0.34066087007522583,
            -0.6004445552825928,
            0.6895037293434143,
            -0.3478638827800751,
            -0.551328718662262,
            -0.6026110649108887,
            -0.43106982111930847,
            0.12253226339817047,
            0.4710325598716736,
            -0.41570591926574707,
            -0.5091671347618103,
            -0.1401362419128418,
            0.18147361278533936,
            0.5104575753211975,
            -0.22396278381347656,
            0.49621495604515076,
            0.05792403221130371,
            -0.2560093104839325,
            0.997391402721405,
            0.49697262048721313,
            -0.3774092495441437,
            -0.6070879697799683,
            0.32406729459762573,
            -0.22248190641403198,
            -0.05892358347773552,
            0.04195535555481911,
            0.49804145097732544,
            0.2526055574417114,
            -0.12124317139387131,
            -0.031041713431477547,
            0.7066603899002075,
            0.4441359043121338,
            0.5007379651069641,
            -0.4911153316497803,
            0.6595962643623352,
            1.3476073741912842,
            -0.23060142993927002,
            0.8912236094474792,
            0.3242696523666382,
            1.3840054273605347,
            -0.053695619106292725,
            0.36632058024406433,
            1.0184696912765503,
            0.2957608103752136,
            -0.21292012929916382,
            -0.37326446175575256,
            -0.48462116718292236,
            0.7349023222923279,
            0.06151610612869263,
            -0.722210168838501,
            0.6993616223335266,
            -0.5781828165054321,
            -0.8234860897064209,
            -0.36932143568992615,
            -1.6869966983795166,
            -0.3983064293861389,
            0.17921876907348633,
            0.765605628490448,
            -0.9099424481391907,
            -0.26568472385406494,
            0.027544962242245674,
            -0.8415578007698059,
            0.414095401763916,
            -0.3438578248023987,
            0.19777576625347137,
            0.2721795439720154,
            0.3389893174171448,
            -0.5935178995132446,
            0.9813539981842041,
            0.4969276785850525,
            -1.3541940450668335,
            -0.3313494026660919,
            0.3389936089515686,
            -0.0019847750663757324,
            -0.4235142767429352,
            0.5758010149002075,
            -0.6324980854988098,
            -0.5123997926712036,
            -0.17010390758514404,
            0.3432115912437439,
            -0.13285422325134277,
            0.6751824021339417,
            -0.4336841404438019,
            -1.6763389110565186,
            0.5099560618400574,
            0.30807334184646606,
            -1.3490513563156128,
            -0.9745140671730042,
            0.06121253967285156,
            -0.5848645567893982,
            -0.06862848997116089,
            -0.3295743465423584,
            -1.4852708578109741,
            -0.997548520565033,
            0.3766598105430603,
            -1.7240506410598755,
            -0.12005867063999176,
            0.026422610506415367,
            -0.014636784791946411,
            -0.006963931489735842,
            -0.10893911123275757,
            -0.08006367087364197,
            -0.10497035086154938,
            -0.1661471724510193,
            0.10192294418811798,
            0.09128595143556595,
            0.06266176700592041,
            0.04107564687728882,
            -0.0469336211681366,
            -0.05342571437358856,
            0.06984609365463257,
            0.05513574555516243,
            -0.00913509726524353,
            0.06232164427638054,
            0.04397138953208923,
            -0.0794220119714737,
            -0.09343209862709045,
            0.08021019399166107,
            0.20639868080615997,
            -0.022639870643615723,
            -0.05786290764808655,
            0.045084286481142044,
            0.13924041390419006,
            -0.01792687177658081,
            -0.058715514838695526,
            0.11543139070272446,
            -0.0014330621343106031,
            -0.04922106862068176,
            -0.012032962404191494,
            0.08442211151123047,
            0.07008476555347443,
            -0.09284175932407379,
            -0.07814855128526688,
            0.0484304279088974,
            0.007098282687366009,
            -0.06486169993877411,
            -0.0645582526922226,
            -0.05610251426696777,
            -0.08352115750312805,
            0.014925246126949787,
            0.03441256284713745,
            -0.03014233708381653,
            -0.014773011207580566,
            0.10857629776000977,
            -0.080651193857193,
            -0.08443640172481537,
            0.11926102638244629,
            0.14996705949306488,
            -0.06812025606632233,
            0.10544197261333466,
            0.05902799963951111,
            -0.05447399243712425,
            -0.05061537027359009,
            0.04597960039973259,
            -0.10767120122909546,
            0.08720234036445618,
            0.23038659989833832,
            0.005165352486073971,
            0.11850450187921524,
            0.043962012976408005,
            -0.10079464316368103,
            0.01573580875992775,
            -0.09485027194023132,
            -0.040871936827898026,
            -0.01068115234375,
            -0.02139529213309288,
            -0.0804051086306572,
            -0.06004636734724045,
            0.123601034283638,
            -0.06147725507616997,
            -0.10557600110769272,
            -0.0664118081331253,
            0.055701419711112976,
            0.026631593704223633,
            -0.06368936598300934,
            -0.12325933575630188,
            -0.12081004679203033,
            0.10461921989917755,
            0.09467920660972595,
            0.02136029303073883,
            0.09959544986486435,
            -0.07686904072761536,
            0.2337750345468521,
            0.0388830304145813,
            0.07513368129730225,
            -0.007475655525922775,
            0.03342365100979805,
            -0.043217599391937256,
            0.014073609374463558,
            0.038335781544446945,
            -0.059180065989494324,
            0.11545756459236145,
            -0.049312736839056015,
            -0.05007147789001465,
            -0.0035568922758102417,
            -0.045399606227874756,
            -0.12493114173412323,
            0.039625510573387146,
            0.05191471800208092,
            -0.11464941501617432,
            0.01831454038619995,
            0.1209808737039566,
            0.095342718064785,
            -0.1823648363351822,
            -0.004965528845787048,
            0.08059756457805634,
            -0.07909540832042694,
            -0.04898102581501007,
            0.0764416754245758,
            0.10786043107509613,
            0.07722395658493042,
            0.13134728372097015,
            0.038066551089286804,
            -0.07267963886260986,
            0.07778330892324448,
            0.12619684636592865,
            0.08181542158126831,
            0.0010445124935358763,
            -0.0007968544960021973,
            -0.07432277500629425,
            0.5308125019073486,
            0.05926743894815445,
            0.08963105082511902,
            0.07131190598011017,
            -0.6157793402671814,
            -1.0208590030670166
        ]
    },
    "decoder": {
        "num_inputs": 2,
        "num_outputs": 2,
        "num_hidden_layers": 1,
        "neurons_per_hidden_layer": 64,
        "hidden_layer_activation_function": "relu",
        "final_layer_activation_function": null,
        "bias": true,
        "weights": [
            0.972701907157898,
            2.157275676727295,
            -0.5972172021865845,
            -0.4640101492404938,
            0.029298484325408936,
            -0.3508289158344269,
            1.0273866653442383,
            2.156635046005249,
            -0.10244262218475342,
            -0.10819053649902344,
            1.6796798706054688,
            2.1403748989105225,
            0.9841378331184387,
            2.3727691173553467,
            -0.5985157489776611,
            -0.4578911066055298,
            -0.05267363786697388,
            -0.4146314859390259,
            -0.5416972637176514,
            1.6370000839233398,
            0.5120978355407715,
            1.9676563739776611,
            -0.06196326017379761,
            0.08459067344665527,
            2.232956647872925,
            2.3212413787841797,
            -0.37034526467323303,
            -0.03845745325088501,
            -0.006294022314250469,
            2.1912131309509277,
            1.3299195766448975,
            2.067044973373413,
            0.13977718353271484,
            -0.16777992248535156,
            0.22214379906654358,
            1.8379998207092285,
            1.7129275798797607,
            1.6778769493103027,
            0.03737589716911316,
            2.276632308959961,
            -0.33172857761383057,
            -0.2504497170448303,
            1.7494808435440063,
            1.6228482723236084,
            0.7974395751953125,
            2.36185359954834,
            -1.0829747915267944,
            1.1263989210128784,
            0.8839649558067322,
            2.542332887649536,
            0.472619891166687,
            1.7590471506118774,
            1.4029629230499268,
            1.5414824485778809,
            0.5942187309265137,
            2.2473256587982178,
            -0.22601619362831116,
            -0.5877410769462585,
            0.33819252252578735,
            -0.29022538661956787,
            0.16825924813747406,
            0.1227535828948021,
            -0.03655141592025757,
            -0.6253166794776917,
            0.21250088512897491,
            2.2295114994049072,
            2.1496236324310303,
            -1.210506558418274,
            0.8425155282020569,
            1.7565547227859497,
            -0.9650073647499084,
            1.7289727926254272,
            0.15461790561676025,
            -0.18318867683410645,
            1.429678201675415,
            2.272092819213867,
            0.31291475892066956,
            1.3142201900482178,
            -0.01477227732539177,
            2.2636160850524902,
            0.014651714824140072,
            1.4528900384902954,
            2.096247673034668,
            -1.3544763326644897,
            0.06106514483690262,
            2.3008079528808594,
            2.2721590995788574,
            -1.1403108835220337,
            1.5630215406417847,
            2.2954928874969482,
            1.72409188747406,
            -1.7330368757247925,
            1.5189810991287231,
            2.0770480632781982,
            0.23449993133544922,
            -0.5110867619514465,
            1.3543325662612915,
            1.9106454849243164,
            2.0693776607513428,
            -1.2992894649505615,
            0.3292263448238373,
            1.7053308486938477,
            1.7805392742156982,
            2.103782892227173,
            -0.5173048377037048,
            -0.45981478691101074,
            0.38543733954429626,
            2.159834861755371,
            -0.48093152046203613,
            -0.4929429590702057,
            -0.21230268478393555,
            -0.5532978177070618,
            -0.6500788331031799,
            -0.6851793527603149,
            -0.34245848655700684,
            -5.152949810028076,
            1.5821938514709473,
            2.1348884105682373,
            -0.15838676691055298,
            -0.3380126655101776,
            -0.7470757961273193,
            1.3138359785079956,
            -0.5302982926368713,
            -0.08829998970031738,
            1.169493556022644,
            2.365182876586914,
            0.4485023319721222,
            2.039245367050171,
            0.994539737701416,
            0.052849557250738144,
            -0.6390794515609741,
            1.3122485876083374,
            -0.666411817073822,
            0.356151819229126,
            1.1868656873703003,
            -0.4232228100299835,
            -0.6071933507919312,
            1.2373661994934082,
            1.2566248178482056,
            -0.6748547554016113,
            0.8017933964729309,
            -0.3247677683830261,
            1.5566719770431519,
            1.1293309926986694,
            -0.32896220684051514,
            1.0098775625228882,
            0.8525415658950806,
            0.9668418765068054,
            -0.22594740986824036,
            0.43041521310806274,
            1.2394676208496094,
            2.0246288776397705,
            0.3168916404247284,
            0.9910090565681458,
            0.9024531841278076,
            0.7258824110031128,
            -0.17783278226852417,
            -0.5614064931869507,
            -0.3933686912059784,
            -0.26746734976768494,
            1.4717552661895752,
            0.6472393274307251,
            1.3095145225524902,
            1.442309021949768,
            -0.5584473609924316,
            1.1503987312316895,
            1.3988386392593384,
            1.4636850357055664,
            1.383798599243164,
            0.8024628758430481,
            0.7665225863456726,
            0.5661419630050659,
            1.0069084167480469,
            0.5741326212882996,
            0.885982096195221,
            -0.22233515977859497,
            0.5876913666725159,
            0.7297818064689636,
            1.652833104133606,
            0.14678514003753662,
            -0.19094258546829224,
            1.2813045978546143,
            -0.5624387264251709,
            -0.47194212675094604,
            0.0532950721681118,
            1.4844205379486084,
            0.98809415102005,
            -0.5625563263893127,
            1.8603726625442505,
            -0.07432901859283447,
            0.8461112380027771,
            1.7270587682724,
            -0.1779136061668396,
            -0.11129309982061386,
            -0.1242082417011261,
            -0.11162146925926208,
            0.11284796893596649,
            -0.9447614550590515,
            -0.06973794847726822,
            -0.09317806363105774,
            -0.042412519454956055,
            0.8849342465400696,
            0.1719665229320526,
            -0.08522473275661469,
            -0.8191279768943787,
            -0.04866454005241394,
            0.5427743196487427,
            -0.21017883718013763,
            0.04757371544837952,
            0.30489811301231384,
            -0.5212550759315491,
            0.22477762401103973,
            0.05375427007675171,
            -0.769313633441925,
            -0.05586846172809601,
            1.5400501489639282,
            -0.515595018863678,
            0.06627632677555084,
            -0.4631423354148865,
            -0.08010299503803253,
            -0.07519301772117615,
            -0.08451239764690399,
            0.09334264695644379,
            0.11397600173950195,
            0.3374044597148895,
            -2.3782260417938232,
            -0.0077406070195138454,
            1.316887617111206,
            0.09166808426380157,
            -0.3724127411842346,
            0.41927456855773926,
            0.5082492828369141,
            0.5925110578536987,
            -1.699044108390808,
            0.1234460175037384,
            -2.681776523590088,
            -0.4534930884838104,
            -0.6832244992256165,
            -0.4511803388595581,
            0.05294443666934967,
            -0.5069348216056824,
            -1.9082430601119995,
            0.49547749757766724,
            -1.0756198167800903,
            0.041956111788749695,
            0.19596737623214722,
            -0.06983862817287445,
            -0.09572190046310425,
            -0.07447591423988342,
            0.5670471787452698,
            -0.43940138816833496,
            0.029626965522766113,
            1.1992220878601074,
            -0.11330631375312805,
            -0.361745685338974,
            0.4096754491329193,
            1.253578543663025,
            -0.05005509406328201,
            0.08241796493530273,
            1.104052186012268,
            -0.09199574589729309,
            1.4683897495269775,
            1.0538718700408936,
            0.11319680511951447,
            0.10817259550094604,
            1.3464230298995972,
            1.1184364557266235,
            -0.08948266506195068,
            1.1756272315979004,
            -0.09396007657051086,
            1.0286394357681274,
            1.03452467918396,
            0.09811557829380035,
            1.3964210748672485,
            1.0257160663604736,
            1.272209644317627,
            -0.0923038125038147,
            1.0778006315231323,
            1.0842370986938477,
            1.0794703960418701,
            1.5004581212997437,
            1.3285454511642456,
            1.3347601890563965,
            1.332692265510559,
            -0.03256908059120178,
            0.044135451316833496,
            -0.007516792509704828,
            -0.09981732070446014,
            1.1197824478149414,
            -2.9644458293914795,
            1.1528642177581787,
            1.3315346240997314,
            -0.07098850607872009,
            1.1814371347427368,
            1.2111982107162476,
            1.2087403535842896,
            1.2474243640899658,
            -2.7738425731658936,
            1.3107109069824219,
            -3.0352981090545654,
            1.1320594549179077,
            -2.611283540725708,
            1.2393332719802856,
            0.0828012079000473,
            1.2137562036514282,
            -2.4705989360809326,
            1.0797572135925293,
            1.2590036392211914,
            -0.04693537950515747,
            1.158718228340149,
            -0.09338250756263733,
            -0.05919189751148224,
            -0.06702177971601486,
            -8.567631721496582,
            1.036313533782959,
            0.07882386445999146,
            0.9963681101799011,
            0.08938595652580261,
            1.2337169647216797,
            1.033028244972229,
            1.676291823387146,
            0.4977916479110718
        ]
    }
}