{
    "num_epochs": 5000,
    "batch_size": 64,
    "final_loss": 162.45826059977213,
    "train_data_exp_dir_path": "data/scp_train_data_non_norm",
    "encoder": {
        "num_inputs": 2,
        "num_outputs": 2,
        "num_hidden_layers": 1,
        "neurons_per_hidden_layer": 64,
        "hidden_layer_activation_function": "relu",
        "final_layer_activation_function": null,
        "bias": true,
        "weights": [
            0.12636388838291168,
            0.30172303318977356,
            -0.015333684161305428,
            0.04386508837342262,
            0.462446391582489,
            -0.03290963172912598,
            -0.26491090655326843,
            -0.04640206694602966,
            0.7014674544334412,
            0.44838234782218933,
            0.5114626288414001,
            0.40633735060691833,
            0.6766392588615417,
            -0.32193490862846375,
            -0.010381793603301048,
            0.5595606565475464,
            0.5106738209724426,
            -0.25739458203315735,
            0.6068372130393982,
            -0.33378365635871887,
            -0.6158354878425598,
            0.03983326628804207,
            0.46169477701187134,
            -0.09321516752243042,
            -0.6015892624855042,
            -0.31018394231796265,
            0.7288351058959961,
            0.42110496759414673,
            0.4935706555843353,
            0.24026983976364136,
            0.3847913146018982,
            -0.10311907529830933,
            0.5789670944213867,
            0.22192642092704773,
            -0.5081808567047119,
            0.5985232591629028,
            0.04142874479293823,
            -0.2841845750808716,
            0.43667715787887573,
            0.30731335282325745,
            -0.07453012466430664,
            -0.4879002571105957,
            -0.07850778102874756,
            -0.36184704303741455,
            0.5302430391311646,
            0.3791453242301941,
            -0.268877238035202,
            -0.5554164052009583,
            -0.29281431436538696,
            0.6243224143981934,
            -0.08876925706863403,
            -0.015325605869293213,
            -0.06172531843185425,
            -0.5749773383140564,
            -0.10409122705459595,
            -0.3119235038757324,
            0.10843843221664429,
            -0.26048925518989563,
            0.08153665065765381,
            0.4518968462944031,
            -0.03223806619644165,
            -0.06891566514968872,
            0.40198010206222534,
            0.5837996602058411,
            0.6143773198127747,
            -0.4696314334869385,
            0.3803941607475281,
            -0.3399396240711212,
            -0.5577250123023987,
            -0.2935221195220947,
            0.1884753704071045,
            -0.1771436333656311,
            -0.12595123052597046,
            -0.49996453523635864,
            -0.680332601070404,
            0.4158819615840912,
            0.18449944257736206,
            -0.31754302978515625,
            0.6289905905723572,
            -0.08287471532821655,
            0.17442786693572998,
            -0.10836255550384521,
            -0.465550035238266,
            -0.5812918543815613,
            0.057075705379247665,
            0.3032585084438324,
            0.1186363697052002,
            -0.10160857439041138,
            -0.1807354986667633,
            0.2695009112358093,
            0.23649001121520996,
            -0.2827702760696411,
            -0.06946432590484619,
            -0.31143537163734436,
            -0.013247847557067871,
            -0.5412952899932861,
            0.039520300924777985,
            0.21931107342243195,
            -0.31024059653282166,
            -0.6613942384719849,
            -0.040929898619651794,
            0.07237957417964935,
            0.3857995867729187,
            -0.08173447847366333,
            -0.047389328479766846,
            -0.5026899576187134,
            0.14009377360343933,
            0.37287914752960205,
            -0.5999568700790405,
            0.46821340918540955,
            -0.5424790382385254,
            0.3488152325153351,
            0.405573308467865,
            0.1490330696105957,
            -0.10608791559934616,
            0.11005444079637527,
            0.6214887499809265,
            -0.25327354669570923,
            -0.6944705843925476,
            -0.05994269251823425,
            -0.5732392072677612,
            -0.6773827075958252,
            -0.024328337982296944,
            0.2695596218109131,
            -0.3937090039253235,
            0.38932985067367554,
            -0.37791311740875244,
            0.3103172183036804,
            -1.3563486337661743,
            -1.6344777345657349,
            0.5351025462150574,
            -0.609023928642273,
            1.0162714719772339,
            0.3757525384426117,
            -0.690983235836029,
            -1.1134518384933472,
            -0.08589369058609009,
            -0.5496200323104858,
            1.0111427307128906,
            0.47874778509140015,
            0.09325885772705078,
            -1.329609751701355,
            0.8875656723976135,
            -0.34598034620285034,
            1.2037720680236816,
            -0.3178134858608246,
            -0.48456305265426636,
            -0.591892421245575,
            0.36524826288223267,
            0.2024419903755188,
            0.10876896232366562,
            -0.21912813186645508,
            1.260269045829773,
            -0.6659661531448364,
            -0.6108421087265015,
            0.3133886456489563,
            0.023825109004974365,
            1.2626467943191528,
            0.05665910243988037,
            1.4968079328536987,
            -0.19021207094192505,
            0.6012558341026306,
            0.1097264289855957,
            -0.45531702041625977,
            0.38628774881362915,
            1.1312445402145386,
            -0.5878645777702332,
            0.12329232692718506,
            -0.3236307203769684,
            0.3464832901954651,
            -0.7674006223678589,
            0.03451770544052124,
            -0.935451090335846,
            -0.6982576847076416,
            -0.6161830425262451,
            -0.3200681209564209,
            -0.034071099013090134,
            -0.015954792499542236,
            -0.8494486212730408,
            0.014704108238220215,
            0.209666907787323,
            -0.9566370844841003,
            -0.9231307506561279,
            -0.4855755865573883,
            -0.9790328741073608,
            -0.30243992805480957,
            -0.11404770612716675,
            -2.2010538578033447,
            0.039504051208496094,
            0.39142128825187683,
            1.187351942062378,
            1.0084694623947144,
            0.05054233595728874,
            0.8425021767616272,
            0.020304381847381592,
            -0.03856952488422394,
            -0.07850625365972519,
            -0.08804537355899811,
            -0.025551587343215942,
            0.08948639035224915,
            -0.06558264791965485,
            0.08250434696674347,
            -0.20373785495758057,
            -0.06566193699836731,
            0.045787617564201355,
            0.13323315978050232,
            -0.08924057334661484,
            -0.10808832943439484,
            -0.12476705759763718,
            0.07716019451618195,
            -0.10330361127853394,
            -0.0008323271758854389,
            0.04274190962314606,
            -0.05433797836303711,
            0.07064862549304962,
            0.09579126536846161,
            -0.09523486346006393,
            0.031230852007865906,
            0.05492974817752838,
            0.12139002978801727,
            0.0758499801158905,
            -0.04838638752698898,
            0.002887636423110962,
            -0.11228936910629272,
            0.02733011543750763,
            -0.06278122961521149,
            -0.026378005743026733,
            0.04974457621574402,
            -0.11890919506549835,
            -0.09147007018327713,
            -0.011557742953300476,
            -0.038387760519981384,
            0.03230339288711548,
            0.02800166606903076,
            -0.010749576613307,
            0.0678507536649704,
            0.1024537906050682,
            -0.06627938151359558,
            -0.015807926654815674,
            -0.09714014828205109,
            0.07746798545122147,
            0.10195636749267578,
            0.08787517994642258,
            -0.11223338544368744,
            0.03711263835430145,
            0.056673455983400345,
            -0.017502205446362495,
            0.1340959519147873,
            0.2051575779914856,
            0.11807004362344742,
            -0.08143249154090881,
            0.11246198415756226,
            -0.10641364753246307,
            0.03301829844713211,
            -0.13319627940654755,
            -0.030055366456508636,
            0.03559455648064613,
            0.6770378351211548,
            -0.03865253925323486,
            -0.06081456318497658,
            -0.08957807719707489,
            -0.0664457157254219,
            -0.04117153584957123,
            0.09304510802030563,
            0.0875299721956253,
            -0.10302984714508057,
            -0.13569104671478271,
            0.09757333993911743,
            -0.08834454417228699,
            -0.08046846091747284,
            -0.0010650140466168523,
            0.10129892826080322,
            -0.1519257128238678,
            0.0013150922022759914,
            0.10200139880180359,
            0.0770789161324501,
            0.10935579240322113,
            0.0856475681066513,
            -0.11423778533935547,
            -0.08883967995643616,
            -0.018750043585896492,
            0.10368874669075012,
            -0.11106166243553162,
            0.0019815266132354736,
            -0.0169905424118042,
            0.038320671766996384,
            -0.10323067009449005,
            0.03587314113974571,
            0.09319491684436798,
            -0.01674923300743103,
            0.03867681324481964,
            -0.07259513437747955,
            0.11730588972568512,
            -0.11899835616350174,
            -0.018613144755363464,
            -0.08171705901622772,
            -0.0624251514673233,
            0.11855520308017731,
            0.13704557716846466,
            -0.03529655933380127,
            0.08732958137989044,
            0.04630964994430542,
            0.08534733951091766,
            0.11623695492744446,
            0.08570230007171631,
            0.03830377757549286,
            0.1427985280752182,
            -0.08145418763160706,
            -0.028761163353919983,
            0.03604964166879654,
            0.12821099162101746,
            0.01935630291700363,
            0.11697597056627274,
            0.08488383889198303,
            -0.08069686591625214,
            -0.073785200715065,
            -0.011907681822776794,
            -0.11389104276895523,
            -0.08804228901863098,
            -0.1345573365688324,
            -1.1335828304290771,
            -0.5727499723434448
        ]
    },
    "decoder": {
        "num_inputs": 2,
        "num_outputs": 2,
        "num_hidden_layers": 1,
        "neurons_per_hidden_layer": 64,
        "hidden_layer_activation_function": "relu",
        "final_layer_activation_function": null,
        "bias": true,
        "weights": [
            -0.4763009548187256,
            -2.6100640296936035,
            3.78227162361145,
            4.438483238220215,
            -1.259108066558838,
            -1.8730069398880005,
            -0.6115030646324158,
            0.17072266340255737,
            -0.21330714225769043,
            -0.6424807906150818,
            -1.0620181560516357,
            -1.685141682624817,
            0.17468976974487305,
            0.03434675931930542,
            3.2460405826568604,
            4.255726337432861,
            2.9991042613983154,
            3.418888807296753,
            0.025049209594726562,
            -0.4347915053367615,
            4.2759318351745605,
            4.110566139221191,
            3.907944917678833,
            3.865738868713379,
            -0.24280571937561035,
            -0.4127300977706909,
            0.1974518895149231,
            0.2729377746582031,
            2.953009605407715,
            3.6383860111236572,
            0.06100344657897949,
            -0.4448608160018921,
            -0.3830491006374359,
            -0.05218225717544556,
            4.8317389488220215,
            2.268761396408081,
            4.318475246429443,
            3.2884957790374756,
            -0.7352359890937805,
            -2.083728075027466,
            -0.10721331834793091,
            -0.46341294050216675,
            -0.6076769828796387,
            0.39346927404403687,
            -0.49724310636520386,
            0.11203980445861816,
            3.2915902137756348,
            4.289665222167969,
            -0.6194716691970825,
            -0.6290802955627441,
            4.067110538482666,
            2.855233669281006,
            3.9893014430999756,
            4.278056621551514,
            -0.055741727352142334,
            -0.18595373630523682,
            3.8260514736175537,
            3.7523372173309326,
            4.162729263305664,
            3.7717456817626953,
            3.9251253604888916,
            3.9923129081726074,
            3.119971990585327,
            3.984922170639038,
            3.5680878162384033,
            4.414246082305908,
            -0.3120785355567932,
            -0.5905079245567322,
            3.2633891105651855,
            3.2590456008911133,
            0.4381408095359802,
            -0.011055469512939453,
            4.1377973556518555,
            3.7082462310791016,
            3.8808112144470215,
            3.8788490295410156,
            4.299157619476318,
            0.4356069266796112,
            2.799710512161255,
            3.774827718734741,
            0.5158713459968567,
            -0.06061583757400513,
            2.911756753921509,
            4.388128280639648,
            0.4310941696166992,
            -0.3479089140892029,
            3.233623504638672,
            3.7152304649353027,
            4.375905990600586,
            2.9539897441864014,
            -0.33400315046310425,
            0.04176872968673706,
            -0.25366055965423584,
            -2.5124855041503906,
            -0.5465020537376404,
            -2.331127643585205,
            -1.052433967590332,
            -2.101184368133545,
            -0.3384174406528473,
            -0.3378613591194153,
            0.31192106008529663,
            -0.3915883004665375,
            -0.4037747383117676,
            -0.6900277137756348,
            -0.22335723042488098,
            0.24223464727401733,
            4.389430046081543,
            3.2280874252319336,
            3.592022180557251,
            4.207804203033447,
            3.821502685546875,
            4.1120524406433105,
            0.40027791261672974,
            0.24343454837799072,
            -0.0945243239402771,
            -0.30085769295692444,
            4.055026531219482,
            4.485424995422363,
            4.449338912963867,
            3.2872684001922607,
            2.989553213119507,
            3.8196823596954346,
            -0.5009963512420654,
            -2.4906673431396484,
            3.188035011291504,
            4.47869873046875,
            2.939971685409546,
            3.1383442878723145,
            3.058983325958252,
            1.6321992874145508,
            3.0644285678863525,
            -0.24899160861968994,
            -0.6191028952598572,
            2.6887762546539307,
            -0.37499794363975525,
            1.0971417427062988,
            1.9179959297180176,
            -0.133472740650177,
            1.2900938987731934,
            1.6006814241409302,
            -0.6556058526039124,
            -0.624904215335846,
            1.8641270399093628,
            -0.540682852268219,
            -0.1932750940322876,
            1.2974344491958618,
            0.5380534529685974,
            2.778144359588623,
            -0.40672820806503296,
            -0.6013045310974121,
            -0.6864365935325623,
            1.981616497039795,
            -0.48453861474990845,
            1.9599964618682861,
            1.7931697368621826,
            -0.38275450468063354,
            1.7176711559295654,
            1.6742676496505737,
            1.375188946723938,
            1.5759724378585815,
            1.111204981803894,
            -0.6485419273376465,
            1.7853565216064453,
            -0.5118634700775146,
            0.35886645317077637,
            1.149502158164978,
            -0.10380253195762634,
            1.3077515363693237,
            -0.6668503880500793,
            0.989857017993927,
            -0.41208550333976746,
            1.8856595754623413,
            0.8965777158737183,
            -0.3901476263999939,
            2.750361919403076,
            2.8466274738311768,
            3.096698522567749,
            -0.32145172357559204,
            -0.6746885180473328,
            -0.005375325679779053,
            -0.2551914155483246,
            2.062079429626465,
            1.709221363067627,
            1.812644362449646,
            -0.6793505549430847,
            -0.16286206245422363,
            1.7734633684158325,
            0.7007544040679932,
            1.8399332761764526,
            2.9629099369049072,
            1.5896629095077515,
            1.920624852180481,
            1.895127296447754,
            -0.7399265170097351,
            0.49040457606315613,
            0.08850599825382233,
            -0.035712674260139465,
            0.42426612973213196,
            0.07833904027938843,
            -1.0937495231628418,
            -0.5569376349449158,
            0.03524278104305267,
            -0.3761303126811981,
            -0.44277486205101013,
            0.021653547883033752,
            -0.03716345131397247,
            -0.8617031574249268,
            -0.043012455105781555,
            -0.10731866955757141,
            1.14008367061615,
            0.5187751650810242,
            1.0902146100997925,
            0.061818644404411316,
            0.029805317521095276,
            -0.031705424189567566,
            -0.8984307646751404,
            -0.07189993560314178,
            0.2345438301563263,
            -0.5029035806655884,
            0.08339151740074158,
            -0.3627219498157501,
            -0.28456708788871765,
            -0.5287072062492371,
            -0.9527848362922668,
            -0.8303568363189697,
            0.07019752264022827,
            -0.47139471769332886,
            0.0013161152601242065,
            0.18430235981941223,
            -0.3588159382343292,
            3.457798957824707,
            -0.9753867983818054,
            0.04481160640716553,
            -1.2797589302062988,
            -0.043256282806396484,
            -0.5889549851417542,
            0.6544501781463623,
            -0.04017108678817749,
            2.19317626953125,
            1.7675237655639648,
            0.9433181881904602,
            0.026992350816726685,
            0.009195178747177124,
            0.020529642701148987,
            -0.05860467255115509,
            0.006586452014744282,
            -0.7348282933235168,
            -0.5403503775596619,
            0.06474286317825317,
            -0.10983826220035553,
            -0.6076536774635315,
            0.46012356877326965,
            -0.8908529281616211,
            1.7395422458648682,
            -1.179129719734192,
            -0.44462159276008606,
            -3.843135118484497,
            3.1782925128936768,
            -3.5527091026306152,
            -0.06083056330680847,
            0.09505453705787659,
            -3.4664828777313232,
            -0.04208576679229736,
            3.3355536460876465,
            2.969031810760498,
            0.020217224955558777,
            3.251398801803589,
            3.0697240829467773,
            0.008373692631721497,
            0.09234960377216339,
            3.0178205966949463,
            0.03861992061138153,
            0.03798775374889374,
            2.8862321376800537,
            3.296621561050415,
            -3.459857702255249,
            -0.08507898449897766,
            -0.11780990660190582,
            0.06380319595336914,
            2.9191858768463135,
            -0.0956421047449112,
            3.091780662536621,
            3.0416171550750732,
            -0.08918187022209167,
            3.1577205657958984,
            3.1997647285461426,
            3.3405821323394775,
            3.160027027130127,
            3.2240259647369385,
            0.056351274251937866,
            3.0450210571289062,
            0.00384521484375,
            3.336289405822754,
            3.249528169631958,
            2.636726140975952,
            3.310694456100464,
            0.11103062331676483,
            3.382941961288452,
            0.002658617915585637,
            2.9629833698272705,
            3.162767171859741,
            -0.022261828184127808,
            -3.940356492996216,
            -3.96578311920166,
            -3.7473363876342773,
            -0.0031121820211410522,
            0.09961330890655518,
            0.10337643325328827,
            0.0005506277084350586,
            3.0189366340637207,
            3.086200714111328,
            3.028684139251709,
            0.10098814964294434,
            0.05374336242675781,
            3.0932090282440186,
            3.1497981548309326,
            3.043074131011963,
            -3.8575620651245117,
            3.16792631149292,
            2.909867525100708,
            -0.565309464931488,
            1.1166415214538574
        ]
    }
}