{
    "num_epochs": 5000,
    "batch_size": 64,
    "final_loss": 120.6710080464681,
    "train_data_exp_dir_path": "data/scp_train_data_non_norm",
    "encoder": {
        "num_inputs": 2,
        "num_outputs": 2,
        "num_hidden_layers": 1,
        "neurons_per_hidden_layer": 64,
        "hidden_layer_activation_function": "relu",
        "final_layer_activation_function": null,
        "bias": true,
        "weights": [
            -0.6584706902503967,
            0.10860840976238251,
            0.16132543981075287,
            0.23426538705825806,
            0.1829453706741333,
            -0.3851645290851593,
            -0.1540636569261551,
            0.35250064730644226,
            -0.746878981590271,
            0.46520325541496277,
            0.19544628262519836,
            0.4040285348892212,
            0.6319331526756287,
            -0.11235415935516357,
            -0.4476221203804016,
            -0.2775193750858307,
            0.10024876147508621,
            0.32479551434516907,
            0.6886119246482849,
            -0.1566842794418335,
            0.7464882135391235,
            0.3867260813713074,
            -0.462342232465744,
            -0.5976191163063049,
            -0.5933096408843994,
            0.23202776908874512,
            -0.22447949647903442,
            0.5176494121551514,
            0.5293744802474976,
            0.10045214742422104,
            0.04645204544067383,
            -0.0134621262550354,
            0.059769272804260254,
            -0.09209716320037842,
            -0.5729770064353943,
            0.3345697820186615,
            -0.6846345663070679,
            -0.1655248999595642,
            0.7467953562736511,
            0.010184070095419884,
            0.6229345202445984,
            -0.046734631061553955,
            0.4874994456768036,
            0.19196990132331848,
            -0.0816354751586914,
            -0.6273150444030762,
            0.5821611285209656,
            -0.1803019642829895,
            -0.40619656443595886,
            -0.5804172158241272,
            0.08736556023359299,
            0.17588932812213898,
            0.28584742546081543,
            -0.15828078985214233,
            0.7930895090103149,
            -0.02968922257423401,
            0.5946627259254456,
            0.4320161044597626,
            -0.36134806275367737,
            0.05672072991728783,
            0.01708865910768509,
            0.4677303433418274,
            -0.46745583415031433,
            -0.6836031675338745,
            0.036226607859134674,
            0.22452206909656525,
            -0.44008347392082214,
            0.4948291480541229,
            -0.13728004693984985,
            -0.25250858068466187,
            0.0380210280418396,
            -0.21096393465995789,
            0.7093019485473633,
            0.37783676385879517,
            -0.25972750782966614,
            -0.47409194707870483,
            0.6033160090446472,
            -0.657382607460022,
            0.17256927490234375,
            -0.42361947894096375,
            -0.24802064895629883,
            0.21794570982456207,
            0.6997928023338318,
            -0.40171197056770325,
            0.29608410596847534,
            -0.5644646286964417,
            -0.47577863931655884,
            0.049124691635370255,
            -0.7862114906311035,
            0.4249495267868042,
            0.6087324023246765,
            -0.3820760250091553,
            0.5384950637817383,
            0.5212608575820923,
            -0.3053957223892212,
            -0.2963584363460541,
            -0.3528252840042114,
            0.6638738512992859,
            -0.05666251480579376,
            0.25892895460128784,
            0.11129603534936905,
            0.06227259710431099,
            -0.4974976181983948,
            -0.3447045683860779,
            -0.2560640871524811,
            -0.1313943862915039,
            -0.2705320119857788,
            0.47554630041122437,
            -0.6551275849342346,
            -0.0032853316515684128,
            0.5528882145881653,
            0.33882513642311096,
            0.21071979403495789,
            0.571466326713562,
            -0.5586920976638794,
            -0.49596530199050903,
            -0.6036899089813232,
            0.37520459294319153,
            -0.305319607257843,
            -0.6534832715988159,
            0.4217831492424011,
            -0.24883010983467102,
            0.627284049987793,
            0.46765416860580444,
            0.07439249753952026,
            -0.6840617060661316,
            0.6841499209403992,
            -0.5767617225646973,
            1.3277391195297241,
            -1.2448210716247559,
            -0.36709338426589966,
            0.06873933225870132,
            1.2869839668273926,
            -0.048697054386138916,
            -0.15780818462371826,
            -0.41227516531944275,
            -1.0331274271011353,
            -0.5181444883346558,
            1.0983995199203491,
            0.1765924096107483,
            -0.9488689303398132,
            0.5982321500778198,
            0.504356324672699,
            0.31403619050979614,
            0.04079556465148926,
            -0.6137498617172241,
            0.24665188789367676,
            0.2737952172756195,
            -0.03380250930786133,
            -1.1722134351730347,
            -0.07739299535751343,
            0.5803032517433167,
            0.4061046242713928,
            -0.5551912188529968,
            -0.4068557322025299,
            1.2936105728149414,
            0.0692513957619667,
            1.0415740013122559,
            0.25756874680519104,
            -0.17046308517456055,
            1.0010650157928467,
            -0.554433286190033,
            -0.5288382768630981,
            0.16599512100219727,
            -0.878939688205719,
            -0.0022192001342773438,
            0.5681142210960388,
            0.6560292840003967,
            -0.3427414894104004,
            -0.6505247354507446,
            0.328091561794281,
            -1.2950502634048462,
            0.8030180335044861,
            -0.37804678082466125,
            -0.9267803430557251,
            -0.2551059424877167,
            0.7789796590805054,
            -0.31027358770370483,
            -1.164498209953308,
            -0.5060105919837952,
            0.1687445044517517,
            1.0178416967391968,
            -1.5164464712142944,
            0.29361870884895325,
            1.2329617738723755,
            0.5089145302772522,
            -0.6290227770805359,
            0.2832656502723694,
            -0.6683536767959595,
            0.08524300158023834,
            0.46956413984298706,
            -0.29806268215179443,
            0.14794914424419403,
            -0.16148783266544342,
            -0.03706951439380646,
            0.0025204354897141457,
            0.06589340418577194,
            -0.08259119838476181,
            -0.06208941340446472,
            -0.023039430379867554,
            -0.12455597519874573,
            0.030913472175598145,
            0.16329872608184814,
            0.05761374533176422,
            0.03778911009430885,
            0.10764013975858688,
            0.13453932106494904,
            -0.05366981029510498,
            0.04016123712062836,
            -0.015125799924135208,
            -0.07136416435241699,
            0.714242696762085,
            0.07371528446674347,
            -0.1393611580133438,
            0.05286934971809387,
            -0.11413230001926422,
            -0.02920493483543396,
            -0.008215420879423618,
            0.024286553263664246,
            3.0411713123321533,
            -0.02211393415927887,
            0.1743306964635849,
            -0.09833043068647385,
            -0.005066663026809692,
            0.044196967035532,
            -0.02272742986679077,
            -0.020623043179512024,
            0.0858432799577713,
            -0.10762208700180054,
            0.09550750255584717,
            -0.0779973566532135,
            0.09432284533977509,
            -0.04768633097410202,
            0.06539829075336456,
            -0.1233193576335907,
            -0.20431551337242126,
            -0.028640983626246452,
            0.040323108434677124,
            0.0003780759288929403,
            0.05926671624183655,
            0.056622833013534546,
            0.08092663437128067,
            -0.10696542263031006,
            0.09150128066539764,
            -0.030369073152542114,
            0.000941168051213026,
            -0.2890862822532654,
            -0.07872011512517929,
            0.07704823464155197,
            0.057058632373809814,
            -0.03214086592197418,
            0.10327070951461792,
            0.010978132486343384,
            0.02423817478120327,
            0.12265253067016602,
            -0.10762380063533783,
            -0.20836032927036285,
            0.09121008217334747,
            -0.04535911977291107,
            -0.06361169368028641,
            -0.12889507412910461,
            0.08577881008386612,
            0.10272806882858276,
            -0.07253696024417877,
            0.021489104256033897,
            -0.03296768665313721,
            -0.018292726948857307,
            -0.00216791033744812,
            0.08361700922250748,
            -0.10978682339191437,
            -0.0794842541217804,
            0.10941153764724731,
            -0.09566560387611389,
            0.13182036578655243,
            -0.005359932780265808,
            -0.28992927074432373,
            0.032845139503479004,
            0.157779723405838,
            -0.049426376819610596,
            0.07875624299049377,
            0.017315372824668884,
            0.1423020362854004,
            -0.042938873171806335,
            -2.8896145820617676,
            0.09465652704238892,
            -0.11916978657245636,
            -0.09913810342550278,
            0.07451741397380829,
            -0.1103721633553505,
            0.0956510379910469,
            0.01224103569984436,
            -0.04274216294288635,
            0.09332966804504395,
            -0.10593102872371674,
            0.10159240663051605,
            -0.03194734454154968,
            0.11403951048851013,
            -0.06661896407604218,
            -0.045663073658943176,
            0.24428749084472656,
            -0.033274319022893906,
            0.00209103524684906,
            0.01213324535638094,
            -0.05452032387256622,
            -0.08324647694826126,
            0.05091647431254387,
            0.3290177285671234,
            0.061454206705093384,
            -0.06254877150058746,
            -0.12524694204330444,
            0.35348206758499146,
            -0.03236366808414459,
            -0.06979326158761978,
            -0.05216287076473236,
            0.07641590386629105,
            -0.028558552265167236,
            -0.018977969884872437,
            0.08182743936777115,
            0.053791746497154236,
            -0.01609085500240326,
            0.6986756324768066,
            -0.7332505583763123
        ]
    },
    "decoder": {
        "num_inputs": 2,
        "num_outputs": 2,
        "num_hidden_layers": 1,
        "neurons_per_hidden_layer": 64,
        "hidden_layer_activation_function": "relu",
        "final_layer_activation_function": null,
        "bias": true,
        "weights": [
            -0.212371826171875,
            0.4526817202568054,
            -0.5233315825462341,
            -0.36135080456733704,
            -0.34927311539649963,
            0.016142606735229492,
            -3.1892802715301514,
            3.2929484844207764,
            -0.5574086904525757,
            0.2998763918876648,
            -3.2658193111419678,
            3.8251633644104004,
            -1.9972375631332397,
            3.0084142684936523,
            -1.6940958499908447,
            4.6134138107299805,
            -2.636120319366455,
            4.437948703765869,
            -0.09216690063476562,
            -0.2736723721027374,
            -0.17413806915283203,
            0.025654613971710205,
            3.5415236949920654,
            -0.2731097936630249,
            -1.9010467529296875,
            3.9958412647247314,
            -1.8204692602157593,
            4.8742594718933105,
            -1.8749293088912964,
            4.072081089019775,
            -0.441079318523407,
            -0.23987525701522827,
            -2.8161118030548096,
            3.3085618019104004,
            -0.6393460035324097,
            -0.3188547194004059,
            -3.2116775512695312,
            3.069714069366455,
            -0.6957730054855347,
            -0.6856070160865784,
            -1.5934865474700928,
            4.902613639831543,
            2.8129236698150635,
            -0.8133687376976013,
            -3.306779384613037,
            3.5950350761413574,
            -1.9914361238479614,
            3.825422763824463,
            0.4371485114097595,
            -0.3497329354286194,
            -1.6534262895584106,
            4.094737529754639,
            -2.8186395168304443,
            2.9795026779174805,
            -2.76554536819458,
            3.53555965423584,
            -0.25488516688346863,
            -0.459718257188797,
            -0.6053094863891602,
            0.04933446645736694,
            -0.08757400512695312,
            0.48491328954696655,
            -0.640407919883728,
            -0.39734557271003723,
            -2.150298833847046,
            4.121591567993164,
            -2.7338855266571045,
            4.286424160003662,
            -3.259535551071167,
            4.0714802742004395,
            0.14806349575519562,
            -1.01063072681427,
            2.994720697402954,
            -0.736640214920044,
            -2.7874698638916016,
            4.174353122711182,
            -3.2408785820007324,
            3.2607674598693848,
            -1.8128172159194946,
            4.732357501983643,
            -3.258305549621582,
            4.193470478057861,
            -0.07664752006530762,
            0.16105002164840698,
            -1.7116395235061646,
            4.740042209625244,
            0.17114382982254028,
            0.05206739902496338,
            -0.033727943897247314,
            -0.21873649954795837,
            -2.0883994102478027,
            3.867889642715454,
            -0.036180973052978516,
            0.11463451385498047,
            -3.0523581504821777,
            3.1413087844848633,
            -2.7306344509124756,
            4.379919528961182,
            -0.0932316780090332,
            -0.5976608395576477,
            0.07034772634506226,
            -0.18364471197128296,
            -1.93408203125,
            4.641347885131836,
            -0.45634162425994873,
            -0.2816877067089081,
            3.462324857711792,
            -0.18654277920722961,
            -0.35566720366477966,
            -0.32877880334854126,
            3.256723642349243,
            -0.2037232369184494,
            -2.040546417236328,
            4.844464302062988,
            -1.7337520122528076,
            5.03940486907959,
            0.4075148403644562,
            -0.6496509909629822,
            -3.119704246520996,
            4.054906368255615,
            -1.835374355316162,
            4.595859527587891,
            -0.06946223974227905,
            -0.5015990138053894,
            -2.9274966716766357,
            4.168698787689209,
            -2.242180585861206,
            4.917646884918213,
            -0.6149240136146545,
            -0.6520965099334717,
            -0.26565125584602356,
            3.375941514968872,
            -0.5816589593887329,
            3.609813690185547,
            3.4871392250061035,
            2.5428364276885986,
            2.4952268600463867,
            -0.12431037425994873,
            -0.3860037624835968,
            0.2832055687904358,
            3.3840277194976807,
            2.0517125129699707,
            3.4594311714172363,
            -0.5372699499130249,
            3.318652629852295,
            -0.6373632550239563,
            3.751722812652588,
            -0.02107173204421997,
            2.2615323066711426,
            0.7630676031112671,
            3.6132099628448486,
            3.475106716156006,
            -0.5928959846496582,
            3.317760944366455,
            3.6608264446258545,
            3.5582778453826904,
            -0.23544585704803467,
            -0.3246399760246277,
            -0.6207084059715271,
            -0.5422356128692627,
            3.3987295627593994,
            2.573194980621338,
            3.5570313930511475,
            0.30774879455566406,
            0.6954590082168579,
            3.04971981048584,
            3.096776247024536,
            2.399390935897827,
            3.622913122177124,
            -0.4626672863960266,
            2.161306858062744,
            -0.5173505544662476,
            -0.6033767461776733,
            3.111773729324341,
            -0.5448118448257446,
            3.3790714740753174,
            3.2251524925231934,
            -0.30689260363578796,
            -0.10791146755218506,
            3.3637332916259766,
            -0.011625885963439941,
            0.20513875782489777,
            -0.2095806896686554,
            0.21158850193023682,
            2.1048617362976074,
            2.4039928913116455,
            -0.40916216373443604,
            3.6885199546813965,
            3.3195037841796875,
            -0.06707048416137695,
            3.4290430545806885,
            2.3259241580963135,
            0.04184931516647339,
            -0.0672062486410141,
            0.0035395175218582153,
            -1.5071635246276855,
            0.06971170008182526,
            -1.327085256576538,
            -1.2563955783843994,
            0.5906934142112732,
            0.2064497172832489,
            0.010678157210350037,
            -0.0039997100830078125,
            1.6362024545669556,
            -0.37805917859077454,
            1.0895841121673584,
            -0.4132741093635559,
            -0.05400444567203522,
            -1.4395108222961426,
            0.07321134209632874,
            -1.873110294342041,
            -0.10478530824184418,
            0.9717671275138855,
            0.4844858646392822,
            -1.444398045539856,
            -0.5758651494979858,
            0.07008008658885956,
            -0.21545585989952087,
            -1.7921054363250732,
            -1.1758053302764893,
            0.019115522503852844,
            -0.03534604609012604,
            -0.12211230397224426,
            -0.11710821092128754,
            -0.4799509644508362,
            0.047756753861904144,
            -0.9709993600845337,
            -0.7560417652130127,
            0.6971632242202759,
            -0.6089664101600647,
            -1.6332511901855469,
            0.7405290603637695,
            -0.9034388065338135,
            0.05544617772102356,
            0.9185354709625244,
            0.12353208661079407,
            0.10615479946136475,
            -0.42896556854248047,
            0.0030772387981414795,
            -1.6308826208114624,
            -0.5506172180175781,
            0.06653532385826111,
            -0.10841280221939087,
            -0.18244729936122894,
            0.07817576825618744,
            1.609871745109558,
            -0.06748990714550018,
            1.3433295488357544,
            1.0753010511398315,
            0.9375490546226501,
            -0.004136230330914259,
            -1.0749410390853882,
            -0.09703514724969864,
            0.07268552482128143,
            -0.7088298201560974,
            0.8069090247154236,
            -0.05611772835254669,
            -0.04171133041381836,
            0.09673839807510376,
            3.804752826690674,
            -0.03492581844329834,
            3.9000890254974365,
            3.538579225540161,
            3.477144241333008,
            3.875399112701416,
            0.02397000789642334,
            0.07898373901844025,
            -2.417755126953125,
            3.470658779144287,
            3.8563923835754395,
            3.588050365447998,
            -0.054680779576301575,
            3.7905161380767822,
            -0.04566296935081482,
            3.6791393756866455,
            0.014649718999862671,
            3.731790542602539,
            -2.2742514610290527,
            3.826153039932251,
            3.554870367050171,
            0.02152937650680542,
            3.5286285877227783,
            3.666931390762329,
            3.73162841796875,
            -0.06526553630828857,
            0.07390274107456207,
            0.109305739402771,
            -0.006140619516372681,
            3.731856107711792,
            3.8249666690826416,
            3.737231969833374,
            -0.11747654527425766,
            -2.2884013652801514,
            3.9804749488830566,
            4.081946849822998,
            3.587775707244873,
            3.7576522827148438,
            -0.11662416160106659,
            3.8184986114501953,
            0.06194727122783661,
            -0.06910255551338196,
            3.6038575172424316,
            -0.12096984684467316,
            3.8043155670166016,
            3.7779853343963623,
            -0.1016279011964798,
            0.03912195563316345,
            3.581998825073242,
            -0.11257480084896088,
            -2.2546889781951904,
            -0.05236618220806122,
            -2.054241895675659,
            3.851646900177002,
            3.597766876220703,
            0.04719601944088936,
            3.7766709327697754,
            3.6844348907470703,
            -0.09005129337310791,
            3.7261061668395996,
            3.7491514682769775,
            -2.2055342197418213,
            2.509704828262329
        ]
    }
}