{
    "num_epochs": 40000,
    "batch_size": 2000,
    "final_loss": 0.39535486698150635,
    "train_data_exp_dir_path": "data/bounded_scp_exps/scp_train_data_norm_bounded",
    "encoder": {
        "num_inputs": 2,
        "num_outputs": 2,
        "num_hidden_layers": 1,
        "neurons_per_hidden_layer": 64,
        "hidden_layer_activation_function": "relu",
        "final_layer_activation_function": null,
        "bias": true,
        "weights": [
            0.1623173952102661,
            -0.011986911296844482,
            -0.6620107293128967,
            -0.26826971769332886,
            -0.16340932250022888,
            0.08313356339931488,
            0.4969964623451233,
            0.15337181091308594,
            0.3649086356163025,
            -0.2957092821598053,
            -0.3058566153049469,
            0.5190960168838501,
            0.2743334174156189,
            -0.14171212911605835,
            0.30488747358322144,
            0.15556538105010986,
            0.001672328100539744,
            0.25842219591140747,
            -0.39773666858673096,
            0.6488322019577026,
            0.4425176978111267,
            0.26514169573783875,
            -0.0736846998333931,
            0.2180984914302826,
            0.4637613892555237,
            0.2667977213859558,
            -0.5326835513114929,
            -0.4657994210720062,
            0.1413075029850006,
            0.2764580249786377,
            0.08026736974716187,
            0.3280777633190155,
            -0.4830850064754486,
            -0.06293696165084839,
            1.5724009275436401,
            0.45469164848327637,
            0.4944770932197571,
            -0.5864697694778442,
            0.09923933446407318,
            0.746773362159729,
            0.07295870780944824,
            -0.6175971627235413,
            1.1316871643066406,
            0.4302481412887573,
            -0.3012442886829376,
            0.17265012860298157,
            -0.4853244125843048,
            -0.4089938700199127,
            1.0582116842269897,
            0.9028119444847107,
            -0.650251567363739,
            0.462277889251709,
            -0.546593189239502,
            -0.33793172240257263,
            0.24276627600193024,
            0.6255683302879333,
            -0.3035810887813568,
            0.02962556481361389,
            0.24705159664154053,
            -0.3995986580848694,
            -0.273621529340744,
            0.24153336882591248,
            -0.37986794114112854,
            -0.030668683350086212,
            -0.6907387375831604,
            -0.2772138714790344,
            -0.6701369881629944,
            -0.3278609812259674,
            -0.597652018070221,
            -0.18667900562286377,
            -0.07593780755996704,
            -0.43816375732421875,
            -0.1801610291004181,
            0.6235940456390381,
            -0.16023027896881104,
            -0.45526906847953796,
            -0.12222898006439209,
            -0.5644186735153198,
            0.12078064680099487,
            -0.4675213098526001,
            -0.6486303210258484,
            0.12140151113271713,
            -0.37949246168136597,
            -0.25496798753738403,
            0.5143501162528992,
            -0.6273059248924255,
            0.5965437293052673,
            0.1451236605644226,
            -0.28203290700912476,
            0.6611765623092651,
            -0.7338753342628479,
            -0.24928441643714905,
            -0.32292449474334717,
            0.0579649843275547,
            -0.12517333030700684,
            0.04143640026450157,
            0.5768679976463318,
            -0.03494536876678467,
            -0.6407902836799622,
            0.637136697769165,
            -0.4462241530418396,
            -0.3659771978855133,
            -0.48680076003074646,
            0.05428946018218994,
            -0.41524600982666016,
            0.418815940618515,
            -0.1850181370973587,
            0.4527284502983093,
            -0.6052553653717041,
            -0.3066694438457489,
            0.4438902735710144,
            -0.5448105335235596,
            0.1265202760696411,
            -0.6593261361122131,
            -0.40301215648651123,
            0.7495225071907043,
            0.3608056902885437,
            -0.5358662605285645,
            0.405190646648407,
            -0.0982467532157898,
            0.2292492389678955,
            -0.5936764478683472,
            -0.3715912997722626,
            0.3228537142276764,
            0.23722898960113525,
            -0.13069957494735718,
            -0.7339769601821899,
            -0.6149219274520874,
            -0.13295722007751465,
            0.21839240193367004,
            -0.1707485169172287,
            -0.649389922618866,
            -0.643014669418335,
            0.17553795874118805,
            0.002831399440765381,
            -0.4074120819568634,
            0.13354715704917908,
            -0.10876300930976868,
            -0.6497955322265625,
            -0.6187900900840759,
            -0.5344455242156982,
            -1.483246922492981,
            0.13111071288585663,
            -0.8039049506187439,
            -0.3380107581615448,
            0.6890937089920044,
            -0.6907036304473877,
            0.663037896156311,
            -0.4031296968460083,
            1.7363526821136475,
            -0.4936841130256653,
            0.3609234392642975,
            -0.43978944420814514,
            -0.1782781332731247,
            0.167154923081398,
            -0.0011010675225406885,
            0.35209599137306213,
            -0.17999601364135742,
            -0.17727400362491608,
            -0.019987678155303,
            0.13777317106723785,
            1.1544153690338135,
            0.1985817700624466,
            0.019434988498687744,
            -0.10279809683561325,
            0.32389503717422485,
            0.1858479380607605,
            -0.4377160966396332,
            0.5256719589233398,
            0.8270721435546875,
            0.5243248343467712,
            -0.06775116920471191,
            -0.15154078602790833,
            0.10930715501308441,
            -0.29055851697921753,
            0.22214409708976746,
            -0.6397994160652161,
            0.42605695128440857,
            0.04187332093715668,
            0.6620818972587585,
            -0.5021835565567017,
            -0.5834267735481262,
            -0.5379640460014343,
            0.6411686539649963,
            -0.4038750231266022,
            -0.01430871244519949,
            -0.6317949295043945,
            -0.6705993413925171,
            0.028410017490386963,
            0.12640869617462158,
            -0.26619139313697815,
            0.15339353680610657,
            -0.11993081867694855,
            0.11756503582000732,
            0.43135935068130493,
            0.09123197197914124,
            0.11906552314758301,
            -0.020910656079649925,
            -0.11199544370174408,
            -0.047388628125190735,
            -0.5314468145370483,
            0.0461307168006897,
            0.08843579143285751,
            0.27513691782951355,
            -0.027154697105288506,
            -0.14689430594444275,
            0.08535178005695343,
            0.40004396438598633,
            0.5855600237846375,
            -0.7367233633995056,
            0.008001327514648438,
            -0.25248390436172485,
            -0.027328938245773315,
            -0.03405199944972992,
            0.21662980318069458,
            -0.2075219452381134,
            0.31437060236930847,
            0.0737636387348175,
            -0.13957612216472626,
            -0.3095845878124237,
            -0.22966505587100983,
            -0.02595028281211853,
            -0.051378991454839706,
            0.2068522423505783,
            0.0015314482152462006,
            -0.030480341985821724,
            0.18662598729133606,
            -0.02534531056880951,
            -0.07663422077894211,
            0.09615881741046906,
            -0.06909222900867462,
            0.11812691390514374,
            -0.0905175656080246,
            -0.11516246199607849,
            -0.03956657648086548,
            0.07653778791427612,
            -0.09573133289813995,
            0.12866008281707764,
            0.11249043792486191,
            0.14457954466342926,
            -0.021018758416175842,
            -0.1319790482521057,
            -0.21187520027160645,
            -0.06283189356327057,
            0.1277645081281662,
            0.17917273938655853,
            0.10336059331893921,
            0.03343746066093445,
            -0.07577760517597198,
            -0.1237090677022934,
            0.11101867258548737,
            0.021175846457481384,
            -0.10621082782745361,
            -0.14880883693695068,
            -0.012851133942604065,
            -0.31912967562675476,
            -0.0342138409614563,
            0.07453689724206924,
            0.32950350642204285,
            -0.055559635162353516,
            0.10915878415107727,
            0.10402426868677139,
            0.11812163889408112,
            0.11375336349010468,
            -0.6744670867919922,
            0.017748521640896797,
            0.2326563447713852,
            0.22473078966140747,
            0.08115947991609573,
            -0.042768802493810654,
            0.16265669465065002,
            0.4548129141330719,
            0.5521242022514343,
            -1.0705958604812622,
            0.03480014204978943,
            -0.19310736656188965,
            -0.0619991272687912,
            -0.04974319785833359,
            0.2251724898815155,
            -0.43900784850120544,
            0.5317028760910034,
            -0.14744260907173157,
            -0.016070064157247543,
            -0.31334754824638367,
            -0.1672658920288086,
            -0.0968402773141861,
            -0.09203694015741348,
            0.1983424723148346,
            0.21389618515968323,
            0.06637032330036163,
            0.17594659328460693,
            0.016680270433425903,
            -0.09720644354820251,
            -0.03383490443229675,
            -0.006232470273971558,
            -0.0581335723400116,
            -0.22876346111297607,
            -0.350516676902771,
            -0.07860089838504791,
            -0.07870882749557495,
            0.20360171794891357,
            0.19237570464611053,
            0.13259898126125336,
            0.16348505020141602,
            -0.06468169391155243,
            -0.01949160173535347,
            -0.2872063219547272,
            -0.27740246057510376,
            0.05921116843819618,
            0.15620921552181244,
            0.07012440264225006,
            -0.0843220204114914,
            -0.07779163122177124,
            -0.10902030766010284,
            -0.08360590040683746,
            -0.06288513541221619,
            0.123482346534729,
            -0.1723332554101944,
            -0.03781282901763916,
            -0.2712128758430481,
            -0.08954228460788727,
            0.18097826838493347
        ]
    },
    "decoder": {
        "num_inputs": 2,
        "num_outputs": 2,
        "num_hidden_layers": 1,
        "neurons_per_hidden_layer": 64,
        "hidden_layer_activation_function": "relu",
        "final_layer_activation_function": null,
        "bias": true,
        "weights": [
            -0.5338266491889954,
            -0.13381505012512207,
            0.9985703825950623,
            2.184631109237671,
            2.252230405807495,
            1.0855294466018677,
            1.2841637134552002,
            1.3227496147155762,
            0.40818876028060913,
            -0.30036887526512146,
            1.3365590572357178,
            2.2140626907348633,
            -1.4499022960662842,
            -0.9879149198532104,
            1.6383599042892456,
            2.0824995040893555,
            1.7482190132141113,
            1.8868122100830078,
            1.331208348274231,
            2.3514645099639893,
            -0.1531069278717041,
            -0.25398820638656616,
            0.92719566822052,
            2.0788791179656982,
            0.003859579563140869,
            0.0953836441040039,
            2.2067699432373047,
            0.6927530169487,
            2.1668992042541504,
            1.4117178916931152,
            -0.498637318611145,
            0.17508339881896973,
            0.003463566303253174,
            -0.010127127170562744,
            0.9988077282905579,
            1.6268208026885986,
            0.12975391745567322,
            2.3611533641815186,
            1.8212265968322754,
            1.9229557514190674,
            0.9187079668045044,
            2.3749263286590576,
            1.8552676439285278,
            1.1066969633102417,
            -0.4597809910774231,
            0.11108702421188354,
            1.3990204334259033,
            2.2209548950195312,
            -0.16052815318107605,
            -1.7622514963150024,
            1.9316855669021606,
            1.120105504989624,
            -0.15132588148117065,
            -0.6036503314971924,
            0.6769864559173584,
            2.282198905944824,
            -0.4724433124065399,
            -0.627490222454071,
            -0.5198862552642822,
            -0.20282721519470215,
            1.253841519355774,
            2.2408719062805176,
            0.3313751816749573,
            0.12071233987808228,
            0.8652998805046082,
            1.9716299772262573,
            -0.2911415696144104,
            -0.15618425607681274,
            1.5094329118728638,
            0.8243705630302429,
            -0.3703298568725586,
            -0.36915454268455505,
            0.9557892680168152,
            2.192185163497925,
            2.7703444957733154,
            -2.0115888118743896,
            2.0709285736083984,
            1.5946331024169922,
            2.3497791290283203,
            1.2146130800247192,
            2.155803680419922,
            0.41940367221832275,
            -0.11765789985656738,
            0.10304147005081177,
            1.0030661821365356,
            0.9470798373222351,
            -0.1699281930923462,
            -0.4487103521823883,
            -0.136801615357399,
            0.6111688613891602,
            1.8134570121765137,
            1.010277271270752,
            -2.98435640335083,
            1.9801236391067505,
            1.0000556707382202,
            1.10569167137146,
            0.47632911801338196,
            2.4388556480407715,
            -0.21955540776252747,
            -0.6697689294815063,
            -0.309134304523468,
            0.2708818316459656,
            1.2570778131484985,
            1.2305984497070312,
            2.2445013523101807,
            2.079038381576538,
            0.9433027505874634,
            2.200796365737915,
            -2.2536492347717285,
            -0.225520059466362,
            0.5383872985839844,
            2.294909954071045,
            2.351254940032959,
            1.4119244813919067,
            0.25692492723464966,
            -0.6837388873100281,
            1.7322839498519897,
            1.781821608543396,
            1.3542503118515015,
            2.211338758468628,
            -0.32807520031929016,
            0.25953125953674316,
            1.898449420928955,
            1.0554741621017456,
            2.3203649520874023,
            1.2384623289108276,
            2.1629066467285156,
            0.8457409143447876,
            -0.5742339491844177,
            0.414519339799881,
            -0.6099933385848999,
            -0.05464872345328331,
            -0.5919464826583862,
            -0.02999045141041279,
            1.9856315851211548,
            -0.2201530486345291,
            -0.2131461799144745,
            0.10063603520393372,
            -0.04161477088928223,
            -0.07938646525144577,
            -0.40421929955482483,
            0.18762129545211792,
            0.23821747303009033,
            -0.5939784049987793,
            -0.47570186853408813,
            0.19453465938568115,
            -0.42575201392173767,
            -0.33115434646606445,
            0.4182942807674408,
            -0.47952184081077576,
            -0.3890838623046875,
            -0.4675410985946655,
            1.7559919357299805,
            -0.1323993057012558,
            -0.6580829620361328,
            -0.37183311581611633,
            -0.000546676863450557,
            -0.25564828515052795,
            -0.46299827098846436,
            -0.5015026330947876,
            0.31030887365341187,
            -0.059197425842285156,
            0.47166839241981506,
            -0.4469011425971985,
            -0.4524993896484375,
            0.7532156109809875,
            -0.06537795811891556,
            -0.05720166489481926,
            0.21009717881679535,
            -0.3526051640510559,
            0.3266468346118927,
            -0.6458684802055359,
            -0.6124398708343506,
            -0.24420355260372162,
            1.4392799139022827,
            0.25942203402519226,
            -0.41332104802131653,
            -0.002618730068206787,
            -0.27152812480926514,
            0.30676162242889404,
            -0.5336381793022156,
            -0.32298800349235535,
            2.207944393157959,
            -0.16223236918449402,
            -0.5955148935317993,
            -0.47373175621032715,
            -0.4912652373313904,
            -0.013834638521075249,
            -0.5997350811958313,
            -0.20088300108909607,
            -0.5566360354423523,
            0.399151474237442,
            0.09041343629360199,
            -0.9139368534088135,
            -2.016477108001709,
            -1.5360033512115479,
            0.10021720826625824,
            -1.2464566230773926,
            2.432137966156006,
            -1.3905352354049683,
            -1.4100273847579956,
            -1.1124951839447021,
            0.113630011677742,
            -1.2288075685501099,
            -0.0817880779504776,
            -1.5020407438278198,
            -1.3330448865890503,
            0.07886691391468048,
            0.12106488645076752,
            -1.160269021987915,
            -0.7624216079711914,
            -1.5304572582244873,
            -0.9010837078094482,
            -1.8670974969863892,
            0.028683587908744812,
            -1.5593841075897217,
            1.5604811906814575,
            -1.5541281700134277,
            -0.028318792581558228,
            -1.1815457344055176,
            -0.06793062388896942,
            0.05150620639324188,
            -1.4690592288970947,
            -0.1188662201166153,
            -1.0222588777542114,
            0.06192043423652649,
            -1.0934926271438599,
            -0.08308032155036926,
            -1.4944636821746826,
            -1.585148811340332,
            -1.4986175298690796,
            -1.485197901725769,
            -1.4470839500427246,
            -0.05464111268520355,
            -1.1031467914581299,
            -0.007545351982116699,
            -0.06945265829563141,
            -1.8389759063720703,
            3.0224342346191406,
            -1.1753194332122803,
            -1.2015191316604614,
            0.04551655054092407,
            0.03989630565047264,
            -1.2231353521347046,
            -1.6728276014328003,
            -1.2696136236190796,
            2.461092472076416,
            -0.972831666469574,
            -1.64914870262146,
            -0.0392322838306427,
            -1.799569845199585,
            -1.2689793109893799,
            -0.10424087941646576,
            -1.7324219942092896,
            -1.976658821105957,
            -1.2386053800582886,
            -0.1212875247001648,
            1.195421814918518,
            0.7143210768699646,
            1.1438591480255127,
            -0.03412100672721863,
            1.32958984375,
            -1.9942303895950317,
            1.2815396785736084,
            1.1696200370788574,
            1.3013261556625366,
            0.01789596676826477,
            1.518418312072754,
            0.00992247462272644,
            0.08585061877965927,
            0.5970851182937622,
            0.12205949425697327,
            0.06945152580738068,
            1.175742745399475,
            2.493107795715332,
            1.2484261989593506,
            1.2764976024627686,
            0.9272651672363281,
            -0.007443323731422424,
            1.682399034500122,
            -2.6101343631744385,
            0.7005534172058105,
            -0.10214674472808838,
            2.006437301635742,
            0.10374683886766434,
            0.015399262309074402,
            1.6959892511367798,
            0.08227066695690155,
            1.2118206024169922,
            -0.0020970702171325684,
            0.3117409646511078,
            -0.014943063259124756,
            1.9496735334396362,
            -1.6989165544509888,
            0.7209875583648682,
            0.5223516225814819,
            -0.14648950099945068,
            -0.07729440927505493,
            0.6303994655609131,
            0.00018599629402160645,
            -0.07827591896057129,
            0.6972918510437012,
            1.1419955492019653,
            0.8249200582504272,
            2.403982639312744,
            0.05267590284347534,
            -0.04450089856982231,
            0.7222801446914673,
            1.1568723917007446,
            1.8045663833618164,
            -1.008891224861145,
            1.843800663948059,
            0.8545857071876526,
            -0.031216412782669067,
            1.2926055192947388,
            1.2754833698272705,
            0.0996667891740799,
            0.7168572545051575,
            0.8974825739860535,
            0.25864318013191223,
            0.12518882751464844,
            -0.1811193972826004
        ]
    }
}