{
    "num_epochs": 20000,
    "batch_size": 1000,
    "final_g_loss": 0.9308121204376221,
    "final_d_loss": 0.6554850935935974,
    "train_data_exp_dir_path": "data/scp_train_data_norm",
    "generator": {
        "num_inputs": 2,
        "num_outputs": 2,
        "num_hidden_layers": 1,
        "neurons_per_hidden_layer": 64,
        "hidden_layer_activation_function": "relu",
        "final_layer_activation_function": null,
        "bias": true,
        "weights": [
            0.2642420828342438,
            1.5223140716552734,
            1.087208867073059,
            -0.5565240383148193,
            0.4126584231853485,
            -0.5825154185295105,
            -0.3648064434528351,
            1.787466049194336,
            0.5464727878570557,
            -1.2001533508300781,
            -1.1719423532485962,
            -0.41488003730773926,
            0.5785959362983704,
            0.9002007842063904,
            2.3401894569396973,
            1.5023865699768066,
            0.25755196809768677,
            1.9132845401763916,
            0.347555011510849,
            2.057330369949341,
            -1.0479801893234253,
            -0.5944843292236328,
            -0.6149447560310364,
            -1.03187894821167,
            0.6969452500343323,
            1.0627620220184326,
            0.9880109429359436,
            -0.503849983215332,
            -0.7561824321746826,
            -1.5256954431533813,
            -1.6153874397277832,
            -0.014422656036913395,
            -1.328048586845398,
            -0.4628460109233856,
            1.8668864965438843,
            0.8264321088790894,
            2.446268320083618,
            1.476135015487671,
            0.7018275856971741,
            1.47408127784729,
            1.7913999557495117,
            1.856067419052124,
            0.5268471837043762,
            -0.6518983244895935,
            0.8403396010398865,
            -0.786501944065094,
            0.8447691798210144,
            1.204073429107666,
            1.9912832975387573,
            1.9701417684555054,
            1.268799066543579,
            -0.7439069747924805,
            1.9704984426498413,
            1.2327011823654175,
            0.8576164841651917,
            0.06717713922262192,
            0.3363500237464905,
            2.0909526348114014,
            -0.05937084183096886,
            -0.18947722017765045,
            0.26379260420799255,
            1.8858877420425415,
            1.872407078742981,
            0.8646895885467529,
            2.0106894969940186,
            1.794269323348999,
            2.333226203918457,
            0.8169304132461548,
            1.7359404563903809,
            -0.6159600019454956,
            0.09113047271966934,
            1.5533981323242188,
            1.0042208433151245,
            0.7623616456985474,
            1.5931695699691772,
            0.7597495913505554,
            -0.4572143852710724,
            -0.14980491995811462,
            2.8219761848449707,
            1.1650338172912598,
            2.544151544570923,
            1.8532581329345703,
            1.984557032585144,
            1.1874701976776123,
            1.4159374237060547,
            -0.46823206543922424,
            2.3061726093292236,
            1.4930511713027954,
            -0.029613643884658813,
            1.9998284578323364,
            2.1514739990234375,
            1.1550735235214233,
            0.04637175798416138,
            0.11183267831802368,
            -0.05537424236536026,
            -1.7135074138641357,
            1.1964240074157715,
            0.9862865805625916,
            0.5838491916656494,
            1.2105674743652344,
            1.0697919130325317,
            1.537165880203247,
            1.5838146209716797,
            0.47868356108665466,
            -0.4687859117984772,
            0.042977601289749146,
            1.9517123699188232,
            2.092485189437866,
            -1.421284556388855,
            -0.863791286945343,
            -1.3009607791900635,
            -0.4150795638561249,
            0.6127025485038757,
            1.2926374673843384,
            0.18610411882400513,
            1.7634000778198242,
            -0.6912679076194763,
            -1.1672358512878418,
            -1.3177375793457031,
            -0.4693082571029663,
            0.225301131606102,
            1.8412913084030151,
            2.2476463317871094,
            0.8356447815895081,
            1.7707029581069946,
            -0.29675570130348206,
            0.8698188066482544,
            -0.7845706343650818,
            0.016909807920455933,
            0.24803568422794342,
            0.8422028422355652,
            -0.36180365085601807,
            0.0968739315867424,
            0.40392059087753296,
            0.7138110399246216,
            -0.46134430170059204,
            -0.932597279548645,
            -0.9717109799385071,
            -0.17343208193778992,
            -0.5625439882278442,
            0.5815176963806152,
            0.21125026047229767,
            -0.47484344244003296,
            0.28622323274612427,
            0.45575854182243347,
            0.15692460536956787,
            -0.5106942653656006,
            0.11929221451282501,
            -0.43243223428726196,
            0.9907728433609009,
            0.9436942338943481,
            0.9958948493003845,
            -0.44892996549606323,
            0.5012292265892029,
            -0.2628529369831085,
            -0.32837915420532227,
            -0.9780411124229431,
            1.0790523290634155,
            -0.969487190246582,
            0.9560977220535278,
            -0.40487706661224365,
            -1.019604206085205,
            0.10032352805137634,
            -0.7493022084236145,
            0.12196073681116104,
            0.17333872616291046,
            0.5410658121109009,
            -0.9492520689964294,
            -0.5364450812339783,
            -0.23171980679035187,
            -0.19782355427742004,
            -0.2595773935317993,
            -0.21112868189811707,
            -0.8820958733558655,
            -0.6235072612762451,
            0.6219974160194397,
            0.18712390959262848,
            0.10951109975576401,
            0.23903797566890717,
            -1.1067923307418823,
            1.0960735082626343,
            -0.4687564969062805,
            0.08201170712709427,
            0.4493039548397064,
            0.26805099844932556,
            -0.054351966828107834,
            -0.7562221884727478,
            0.45159783959388733,
            -0.026773575693368912,
            0.13733530044555664,
            -0.2883461117744446,
            -0.6572032570838928,
            -0.5571937561035156,
            0.18253406882286072,
            0.3793199062347412,
            -0.761864960193634,
            -0.7756624221801758,
            -0.43358689546585083,
            -0.7168619632720947,
            -1.711289644241333,
            -2.085855484008789,
            -2.008681535720825,
            -0.6941045522689819,
            -0.29870930314064026,
            -0.5653172731399536,
            0.25062888860702515,
            -0.25479382276535034,
            0.054148364812135696,
            -0.3154810070991516,
            -1.2281594276428223,
            -1.7094380855560303,
            -0.5283322930335999,
            -1.3113296031951904,
            0.28069865703582764,
            0.24530893564224243,
            -0.909565269947052,
            -1.5386631488800049,
            0.13207288086414337,
            -1.6248220205307007,
            0.7096261978149414,
            -1.9740715026855469,
            0.167598158121109,
            -1.977912425994873,
            -0.9189050793647766,
            -1.5261188745498657,
            -1.1505509614944458,
            -0.5133272409439087,
            -2.353144884109497,
            -0.3890814185142517,
            -0.9265721440315247,
            0.30595749616622925,
            -1.4714757204055786,
            -1.5264796018600464,
            -1.6641669273376465,
            -0.3883267641067505,
            -1.560154676437378,
            -0.8808578848838806,
            -0.6879029870033264,
            -0.058056026697158813,
            -0.665109395980835,
            -0.9057270288467407,
            -0.382892906665802,
            -0.5621078610420227,
            -0.7242967486381531,
            0.3819834887981415,
            -1.3234903812408447,
            -0.49057725071907043,
            -0.3839050233364105,
            -0.4922790229320526,
            -0.5327606201171875,
            -0.6312903761863708,
            -0.3865237534046173,
            -0.7169904112815857,
            -1.1432331800460815,
            -0.5335787534713745,
            -0.7821993827819824,
            0.5367823839187622,
            0.439374178647995,
            0.2582363784313202,
            -0.05422593280673027,
            -0.6822881102561951,
            0.7014749646186829,
            0.8632662296295166,
            1.2665042877197266,
            0.3138609826564789,
            0.4670191705226898,
            -0.36053845286369324,
            1.437689185142517,
            0.6508326530456543,
            0.5167360305786133,
            0.7985578179359436,
            1.305171012878418,
            0.5705952048301697,
            0.2737732231616974,
            1.276064157485962,
            0.8188167810440063,
            1.1352940797805786,
            0.09915580600500107,
            0.41308408975601196,
            1.001850962638855,
            1.3374308347702026,
            0.6491467952728271,
            0.8487393260002136,
            0.8924849629402161,
            0.3519595265388489,
            -0.12574219703674316,
            0.5428131818771362,
            0.3904263377189636,
            1.1419850587844849,
            1.656858205795288,
            1.0202717781066895,
            -0.2905105948448181,
            0.18754783272743225,
            -0.05772855132818222,
            0.16413992643356323,
            1.3709155321121216,
            1.344156265258789,
            0.8179520964622498,
            0.6587802767753601,
            0.7306327819824219,
            0.42472586035728455,
            1.576797604560852,
            -0.11857998371124268,
            -0.5144356489181519,
            0.5707356333732605,
            0.5974963903427124,
            0.6261163353919983,
            1.7448925971984863,
            0.1030864417552948,
            1.17219078540802,
            0.14105166494846344,
            0.7881650328636169,
            0.8829476237297058,
            0.4082801043987274,
            1.5734243392944336,
            0.6511586308479309,
            0.5164898633956909,
            0.41428342461586,
            0.6089569330215454,
            -0.5420936942100525,
            0.0592011995613575,
            -0.09463562816381454
        ]
    },
    "discriminator": {
        "num_inputs": 2,
        "num_outputs": 1,
        "num_hidden_layers": 1,
        "neurons_per_hidden_layer": 64,
        "hidden_layer_activation_function": "relu",
        "final_layer_activation_function": "sigmoid",
        "bias": true,
        "weights": [
            -0.011458992958068848,
            -0.17803210020065308,
            0.7058196663856506,
            -0.5403462648391724,
            0.5999038219451904,
            0.37478893995285034,
            -0.21312807500362396,
            0.44218772649765015,
            -0.6871954798698425,
            -0.3439376652240753,
            -0.06430591642856598,
            -0.15652580559253693,
            -0.22874712944030762,
            -0.3925630748271942,
            -0.10883446037769318,
            0.242425337433815,
            -0.4307560622692108,
            0.27528291940689087,
            -0.4476439952850342,
            0.27986040711402893,
            0.45381850004196167,
            -0.38968729972839355,
            0.17861910164356232,
            -0.4381644129753113,
            -0.44666630029678345,
            -0.018518928438425064,
            -0.5295497179031372,
            0.15702176094055176,
            0.23186682164669037,
            0.3808116316795349,
            0.7134484648704529,
            0.5365654826164246,
            0.40854158997535706,
            -0.4431402385234833,
            0.5622356534004211,
            0.2912527322769165,
            -0.7697663903236389,
            -0.4031852185726166,
            0.06447743624448776,
            0.20604415237903595,
            0.5813189148902893,
            0.11198244988918304,
            0.4657291769981384,
            0.15792977809906006,
            0.1697046011686325,
            -0.1459379494190216,
            0.4247085452079773,
            0.009327654726803303,
            0.3209648132324219,
            0.5505858659744263,
            -0.6861560344696045,
            -0.45504552125930786,
            -0.5048585534095764,
            0.4536733329296112,
            0.3882984519004822,
            -0.5229867100715637,
            -0.59882652759552,
            -0.3291170001029968,
            0.5460863709449768,
            -0.2688508629798889,
            0.297551691532135,
            0.5119497776031494,
            0.0502556674182415,
            -0.4348823130130768,
            0.6029199361801147,
            -0.5551214218139648,
            -0.11722365766763687,
            0.6666408777236938,
            0.11124485731124878,
            -0.38194358348846436,
            0.1948242485523224,
            -0.2566947937011719,
            -0.5008885264396667,
            -0.00540416082367301,
            -0.6479365229606628,
            -0.31800174713134766,
            0.18163245916366577,
            -0.24786990880966187,
            0.21970123052597046,
            -0.5404068827629089,
            0.6779653429985046,
            -0.0009447932243347168,
            0.44797569513320923,
            0.548349916934967,
            -0.25352606177330017,
            -0.5122649669647217,
            0.057536780834198,
            -0.2823495864868164,
            -0.11652882397174835,
            -0.18277594447135925,
            0.17957061529159546,
            0.23795153200626373,
            0.21551774442195892,
            0.3646301329135895,
            -0.13361917436122894,
            -0.19160455465316772,
            -0.09976868331432343,
            0.4113982915878296,
            -0.013236811384558678,
            -0.020888784900307655,
            -0.2065444141626358,
            0.34728336334228516,
            -0.5085235238075256,
            -0.43853405117988586,
            -0.5511019229888916,
            0.0772654116153717,
            0.31312790513038635,
            -0.604179322719574,
            0.5138503909111023,
            -0.2947728931903839,
            0.05238720029592514,
            0.3526878356933594,
            0.6440672278404236,
            -0.5709754824638367,
            0.5350287556648254,
            0.0876462385058403,
            0.22883319854736328,
            -0.2888537645339966,
            0.13284127414226532,
            0.4057489037513733,
            0.26896852254867554,
            -0.5861301422119141,
            0.1273324340581894,
            0.4338284432888031,
            0.6811256408691406,
            0.40395450592041016,
            0.05498389154672623,
            -0.6884450316429138,
            -0.3249036371707916,
            -0.5695316195487976,
            1.6775814294815063,
            -1.3852907419204712,
            -0.5225125551223755,
            0.5326849818229675,
            0.11682529002428055,
            -0.12272866815328598,
            0.5661442875862122,
            -0.15054938197135925,
            -0.479538232088089,
            0.6393114328384399,
            -1.2697502374649048,
            -0.8195462226867676,
            -0.7183132767677307,
            1.080306053161621,
            0.015030222944915295,
            1.7502496242523193,
            -0.4340721368789673,
            -0.37806978821754456,
            -0.05023201182484627,
            -0.5477477312088013,
            0.9753444194793701,
            0.7522872090339661,
            -0.10410480201244354,
            0.7867502570152283,
            -0.3386206030845642,
            0.5183292627334595,
            -0.2140347957611084,
            -0.2880735397338867,
            -0.17045237123966217,
            0.3872952163219452,
            0.0209908876568079,
            -0.6276472210884094,
            -0.4176986813545227,
            0.21825478971004486,
            -1.5222828388214111,
            0.2036341428756714,
            -0.7041215896606445,
            -0.3743884265422821,
            -0.46464118361473083,
            -0.8848879933357239,
            0.9111232757568359,
            -0.6040422916412354,
            0.612008810043335,
            -0.5891697406768799,
            0.22885644435882568,
            0.6695001125335693,
            0.07425252348184586,
            0.9084947109222412,
            0.5862793922424316,
            1.001121163368225,
            -0.9821649789810181,
            -0.18528221547603607,
            0.001018000766634941,
            1.0503535270690918,
            0.017313091084361076,
            -0.18060751259326935,
            -0.7012313008308411,
            0.5113073587417603,
            -0.6530759334564209,
            0.3678243160247803,
            2.1357414722442627,
            -0.39657846093177795,
            -0.10351872444152832,
            0.06661748886108398,
            0.9506246447563171,
            -0.1295410692691803,
            0.24701033532619476,
            -1.3017183542251587,
            -3.2537949085235596,
            -0.0381552092730999,
            0.050276901572942734,
            0.006006622686982155,
            0.00971895456314087,
            -0.15818527340888977,
            0.257571280002594,
            -0.1162673681974411,
            0.11817952245473862,
            0.3203057646751404,
            0.03448553755879402,
            -2.263655185699463,
            0.4056004583835602,
            -0.19057728350162506,
            0.06903844326734543,
            -0.04138174653053284,
            -2.657230854034424,
            -3.1970455646514893,
            -0.15720559656620026,
            -0.34461453557014465,
            -0.09043940901756287,
            0.014300953596830368,
            0.37556248903274536,
            0.02302098274230957,
            -0.3159445822238922,
            -0.0350843220949173,
            -0.0935501828789711,
            -0.0803898349404335,
            -0.05263549089431763,
            0.027462515980005264,
            0.2870100438594818,
            -0.6615278124809265,
            0.01609794795513153,
            0.042243972420692444,
            -0.12369777262210846,
            -0.8363117575645447,
            -1.3004069328308105,
            -0.014341980218887329,
            -1.179681658744812,
            1.4699910879135132,
            -0.07029911875724792,
            1.5798712968826294,
            0.046470142900943756,
            0.042620882391929626,
            0.014444592408835888,
            -0.6085296869277954,
            -0.022682543843984604,
            -0.06878705322742462,
            -0.07824438810348511,
            0.15164992213249207,
            0.07097257673740387,
            0.0018570738611742854,
            -0.05120813846588135,
            0.10251720994710922,
            -0.11013105511665344,
            0.23454518616199493,
            0.782677173614502,
            -0.0010907710529863834,
            0.6309889554977417
        ]
    }
}