{
    "num_epochs": 20000,
    "batch_size": 1000,
    "final_g_loss": 1.0713425874710083,
    "final_d_loss": 0.4949225187301636,
    "train_data_exp_dir_path": "data/scp_train_data_norm",
    "generator": {
        "num_inputs": 2,
        "num_outputs": 2,
        "num_hidden_layers": 1,
        "neurons_per_hidden_layer": 64,
        "hidden_layer_activation_function": "relu",
        "final_layer_activation_function": null,
        "bias": true,
        "weights": [
            -0.9023422002792358,
            0.11756671220064163,
            0.04718327149748802,
            -0.3166079819202423,
            0.9820804595947266,
            -0.6064348220825195,
            -0.03055938519537449,
            0.06426720321178436,
            -0.24020424485206604,
            0.8629369735717773,
            -0.5476163625717163,
            -1.3053685426712036,
            -0.13120880722999573,
            -0.29566094279289246,
            0.7449130415916443,
            -0.20329290628433228,
            -0.2868427038192749,
            0.7687258124351501,
            -0.0678563043475151,
            -0.08466406166553497,
            -0.5017833113670349,
            -0.6568549275398254,
            -0.09506453573703766,
            -1.1667866706848145,
            -0.6225094795227051,
            -0.9222792983055115,
            1.1657987833023071,
            -0.3342428505420685,
            0.9894008040428162,
            -0.27321189641952515,
            0.6372929811477661,
            0.43841829895973206,
            -0.3463491201400757,
            -1.2326226234436035,
            0.4994931221008301,
            0.22642382979393005,
            -1.3053086996078491,
            0.13030840456485748,
            -1.8856302499771118,
            0.04540615156292915,
            -1.4798572063446045,
            0.3353131115436554,
            0.516109824180603,
            -0.6378846168518066,
            -2.360089063644409,
            -0.10028912872076035,
            -0.242712140083313,
            0.054282352328300476,
            0.7025333642959595,
            0.5851825475692749,
            1.3312801122665405,
            -0.5006477236747742,
            -0.32540392875671387,
            -0.06054458022117615,
            -1.9391828775405884,
            0.31324589252471924,
            0.35539019107818604,
            -0.3087172210216522,
            0.6201044321060181,
            0.28203946352005005,
            0.5830325484275818,
            -0.16063192486763,
            -0.40012481808662415,
            0.45442327857017517,
            -0.46498990058898926,
            0.7703261971473694,
            -0.948314368724823,
            0.19518642127513885,
            0.6126816272735596,
            0.5078434348106384,
            -0.4112526774406433,
            0.8733056783676147,
            -2.00892972946167,
            -0.9155663847923279,
            -0.10202726721763611,
            0.8041037321090698,
            -0.16589738428592682,
            0.7178710103034973,
            -0.2676660716533661,
            0.7112786769866943,
            -1.5306974649429321,
            0.15541166067123413,
            -1.1277246475219727,
            0.050168752670288086,
            0.931422233581543,
            -0.10945369303226471,
            0.5545459985733032,
            0.39166927337646484,
            -1.9675023555755615,
            0.4277114272117615,
            0.6721459627151489,
            0.2922021448612213,
            -1.2090435028076172,
            0.2615892291069031,
            0.003964756615459919,
            -0.4042416512966156,
            0.8035413026809692,
            0.48693904280662537,
            -0.3838821351528168,
            0.038127098232507706,
            0.007829366251826286,
            -0.7070980072021484,
            0.1176496371626854,
            0.220383882522583,
            -0.16532176733016968,
            -1.2738003730773926,
            -0.43137478828430176,
            0.3623449504375458,
            -0.5206188559532166,
            0.9230645895004272,
            -0.20891234278678894,
            -1.4730267524719238,
            -0.5551825761795044,
            -0.8682775497436523,
            -0.06840070337057114,
            -0.3402327597141266,
            0.4200359880924225,
            -1.229424238204956,
            -1.4638404846191406,
            0.1466141939163208,
            -0.2879929542541504,
            -1.437604546546936,
            -0.42373326420783997,
            0.15588167309761047,
            0.18034842610359192,
            -1.4461549520492554,
            -0.3004961311817169,
            -0.13659153878688812,
            0.24831141531467438,
            0.8322040438652039,
            0.19156715273857117,
            0.05445719510316849,
            0.7971693277359009,
            -0.6711165308952332,
            0.8702726364135742,
            0.5798215866088867,
            0.35634735226631165,
            0.7494076490402222,
            0.3445912003517151,
            -0.002462641568854451,
            0.4166346490383148,
            0.9507173299789429,
            0.7797106504440308,
            -0.35561466217041016,
            0.22424189746379852,
            0.6916227340698242,
            0.4093875586986542,
            -0.981985867023468,
            0.2810858190059662,
            0.8423312306404114,
            -1.2869107723236084,
            0.5863165855407715,
            0.2832651436328888,
            0.0006360226543620229,
            0.7662936449050903,
            0.5064429640769958,
            -0.4488883912563324,
            0.8695755004882812,
            -0.02400616928935051,
            0.5683457255363464,
            0.7648559808731079,
            -0.03228982537984848,
            0.7183409929275513,
            0.5439696311950684,
            -0.8529212474822998,
            1.098929524421692,
            0.2044762670993805,
            0.34126901626586914,
            -0.3540761172771454,
            0.39221879839897156,
            0.21211889386177063,
            -0.41974151134490967,
            0.4304634928703308,
            0.932948112487793,
            0.280774861574173,
            0.9784078001976013,
            0.3740233778953552,
            1.1332409381866455,
            -0.02836393378674984,
            1.1786588430404663,
            0.04153972864151001,
            0.8005728125572205,
            0.6891226172447205,
            0.06906433403491974,
            0.37818387150764465,
            0.9057173728942871,
            -0.6205307841300964,
            -0.34344229102134705,
            0.15995709598064423,
            0.9430515170097351,
            -0.2829694151878357,
            0.9126443266868591,
            -0.44157975912094116,
            -0.3524426221847534,
            -0.1481112688779831,
            0.07959853857755661,
            0.4762271046638489,
            0.21447281539440155,
            -0.2159239649772644,
            0.5516703724861145,
            -0.11979103833436966,
            0.10529015958309174,
            -0.4284597337245941,
            -0.4221821129322052,
            -0.30847859382629395,
            0.5898611545562744,
            0.7593732476234436,
            0.19550584256649017,
            -0.06128993257880211,
            -0.650985836982727,
            -0.27252036333084106,
            0.9224289655685425,
            -0.6169631481170654,
            -0.07950830459594727,
            1.0817028284072876,
            -0.16009220480918884,
            0.05901159718632698,
            -0.3869337737560272,
            0.020821789279580116,
            -0.3381754159927368,
            -0.46552523970603943,
            -0.42497894167900085,
            -0.4695594906806946,
            -0.308452308177948,
            0.043960072100162506,
            -0.42130953073501587,
            -0.3316936194896698,
            -0.0032143834978342056,
            0.759615957736969,
            0.11243097484111786,
            -0.04497117921710014,
            -0.04038060083985329,
            -0.6940878033638,
            -0.21039769053459167,
            -0.41474395990371704,
            0.13964547216892242,
            -0.24753278493881226,
            -0.44329503178596497,
            -0.15243929624557495,
            -0.27844342589378357,
            -0.10926230996847153,
            -0.24436375498771667,
            -0.33337175846099854,
            0.13302376866340637,
            -0.429073303937912,
            -0.25016501545906067,
            -0.05910210683941841,
            -0.3683229982852936,
            -0.36287185549736023,
            -0.35966965556144714,
            -0.21941259503364563,
            -0.6784294843673706,
            -0.1577473282814026,
            -0.2160089761018753,
            -0.40963155031204224,
            -0.1841617226600647,
            0.44066956639289856,
            0.18131756782531738,
            0.4094679057598114,
            0.3009922206401825,
            0.3267805278301239,
            -0.29923221468925476,
            0.32483285665512085,
            0.39862576127052307,
            0.41422295570373535,
            0.3640959560871124,
            0.20462903380393982,
            0.5659241080284119,
            0.2685386836528778,
            0.4869464933872223,
            0.5423968434333801,
            0.1087595596909523,
            0.1988801509141922,
            -0.4067628085613251,
            0.6126285791397095,
            -1.0700966119766235,
            0.4818391501903534,
            0.3397316336631775,
            -1.0522916316986084,
            0.2348872721195221,
            -0.1201653704047203,
            0.3125419020652771,
            0.2129579335451126,
            0.6362406015396118,
            -0.07881370931863785,
            -0.2272738218307495,
            0.01157313957810402,
            0.28851914405822754,
            0.24754698574543,
            -0.13786837458610535,
            -0.40213850140571594,
            0.24774117767810822,
            -1.2729759216308594,
            0.09875068813562393,
            0.1580401211977005,
            0.31483694911003113,
            -0.6232561469078064,
            0.23353734612464905,
            -0.19534803926944733,
            0.18407467007637024,
            0.7241125106811523,
            -0.27976951003074646,
            0.9896933436393738,
            0.2844702899456024,
            -0.17503079771995544,
            0.1579127460718155,
            0.21278421580791473,
            0.14306117594242096,
            0.4592307507991791,
            0.24135690927505493,
            0.2283778190612793,
            0.5360575318336487,
            0.6677167415618896,
            0.4438707232475281,
            0.676837146282196,
            -0.6489272713661194,
            0.5296199321746826,
            0.3565983772277832,
            0.6155685782432556,
            0.3484954237937927,
            -0.08062725514173508,
            0.15405762195587158
        ]
    },
    "discriminator": {
        "num_inputs": 2,
        "num_outputs": 1,
        "num_hidden_layers": 1,
        "neurons_per_hidden_layer": 64,
        "hidden_layer_activation_function": "relu",
        "final_layer_activation_function": "sigmoid",
        "bias": true,
        "weights": [
            -0.33444949984550476,
            -0.08573856204748154,
            -0.14145764708518982,
            0.21399767696857452,
            0.7402065992355347,
            0.2771737277507782,
            0.3718614876270294,
            0.39718326926231384,
            0.04945749044418335,
            -0.28767019510269165,
            -0.6280853152275085,
            0.19183167815208435,
            0.46735721826553345,
            -0.5419272184371948,
            0.5069929957389832,
            0.6085797548294067,
            -0.2841213643550873,
            -0.1269865781068802,
            -0.5784749984741211,
            -0.45270422101020813,
            0.6512411832809448,
            -0.12301172316074371,
            0.9200115203857422,
            0.41890767216682434,
            0.3086351752281189,
            -0.3538874387741089,
            0.2838272452354431,
            -0.4772202968597412,
            -0.1815384477376938,
            -0.4435962438583374,
            -0.7041277885437012,
            -0.392397940158844,
            -0.6773229837417603,
            0.24150516092777252,
            0.12362881749868393,
            0.03421147167682648,
            -0.48770764470100403,
            -0.0018648166442289948,
            0.21859528124332428,
            0.22537176311016083,
            0.3997020125389099,
            -0.62156081199646,
            -0.02540760673582554,
            0.24152228236198425,
            -0.5244472026824951,
            0.35053062438964844,
            0.3498658835887909,
            -0.23367707431316376,
            -0.475999116897583,
            -1.0292741060256958,
            -0.14064650237560272,
            0.2889160215854645,
            0.6586325764656067,
            0.47255444526672363,
            -0.0433192104101181,
            0.03681967034935951,
            -0.21780569851398468,
            0.043393298983573914,
            0.5589510798454285,
            -0.36728474497795105,
            0.00927440170198679,
            0.3257671892642975,
            -0.3585035502910614,
            0.04225154593586922,
            -0.5326106548309326,
            -0.04739517718553543,
            0.25347357988357544,
            0.03626316785812378,
            -0.09766438603401184,
            -0.28862643241882324,
            -0.33793020248413086,
            -0.37788230180740356,
            0.8076654076576233,
            0.4242481291294098,
            0.008986389264464378,
            0.48144495487213135,
            0.13973577320575714,
            0.009720001369714737,
            0.15311971306800842,
            0.334995836019516,
            0.6044438481330872,
            0.0615914948284626,
            -0.5189566612243652,
            0.10043992847204208,
            0.13812994956970215,
            0.2702254056930542,
            -0.5898489952087402,
            0.17838823795318604,
            0.2213204950094223,
            -0.639643132686615,
            0.6251610517501831,
            -0.32786813378334045,
            -0.5688826441764832,
            -0.04170879349112511,
            -0.10385452955961227,
            -0.1505739688873291,
            -0.7082464098930359,
            0.508429229259491,
            -0.1551557034254074,
            0.4432351887226105,
            0.1309077888727188,
            0.2776491940021515,
            0.40944385528564453,
            0.47217753529548645,
            0.20500630140304565,
            -0.14055055379867554,
            -0.006644329056143761,
            0.11579032987356186,
            -0.6700214743614197,
            -0.3953419625759125,
            0.30080336332321167,
            -0.6698388457298279,
            -0.0054392884485423565,
            0.13712988793849945,
            -0.9603478312492371,
            -0.41956913471221924,
            0.3618423342704773,
            0.47878938913345337,
            0.42776861786842346,
            0.15135720372200012,
            0.18508033454418182,
            0.5502314567565918,
            -0.4269986152648926,
            -0.713570773601532,
            -0.09124839305877686,
            0.014874007552862167,
            0.09374688565731049,
            0.2649794816970825,
            -3.277935266494751,
            -1.1553786993026733,
            2.3918230533599854,
            0.4288196861743927,
            -0.5683559775352478,
            -0.04946132004261017,
            0.25207167863845825,
            0.05921680107712746,
            0.9432099461555481,
            0.8715078234672546,
            -0.13748487830162048,
            -0.1382380872964859,
            -0.4287605583667755,
            0.7218676805496216,
            -0.3673463463783264,
            0.24571868777275085,
            0.4143514931201935,
            0.8529650568962097,
            -1.1037980318069458,
            0.27163752913475037,
            -0.573594331741333,
            -0.5869383811950684,
            -0.9138849973678589,
            0.24676060676574707,
            1.4298145771026611,
            -1.2310879230499268,
            -0.035631489008665085,
            -0.2161865085363388,
            -0.7264098525047302,
            -0.6417076587677002,
            -0.2679663300514221,
            -1.0410261154174805,
            -0.9663842916488647,
            -0.3239392340183258,
            1.1292665004730225,
            0.8028513789176941,
            0.7945178747177124,
            -0.27747276425361633,
            1.7099107503890991,
            0.27440670132637024,
            0.2951773703098297,
            -0.24362535774707794,
            0.47781211137771606,
            0.9157775044441223,
            -0.08098171651363373,
            0.5981443524360657,
            -1.0791285037994385,
            -0.31902217864990234,
            0.21340961754322052,
            0.9119343757629395,
            -0.5723501443862915,
            -1.1748002767562866,
            -0.11300474405288696,
            -0.4951527416706085,
            -1.3425097465515137,
            -0.5767778158187866,
            -0.012960189953446388,
            0.31639760732650757,
            0.19768846035003662,
            -0.6338413953781128,
            0.7709403038024902,
            0.02709389477968216,
            -0.24230244755744934,
            0.18519330024719238,
            4.141530990600586,
            -0.17043596506118774,
            -2.44840145111084,
            0.05235346779227257,
            -0.0981740951538086,
            -0.1198025643825531,
            0.09259134531021118,
            0.17752380669116974,
            0.31136393547058105,
            -0.9557328820228577,
            0.07608005404472351,
            -1.4601624011993408,
            -0.039291635155677795,
            -0.1047537624835968,
            0.0075054895132780075,
            -0.9501705169677734,
            -0.0607854425907135,
            0.33643803000450134,
            0.3593881130218506,
            0.032207079231739044,
            0.027618765830993652,
            -0.06352906674146652,
            -0.21817216277122498,
            0.05233609676361084,
            4.151848793029785,
            -0.12317321449518204,
            0.5498517155647278,
            -0.05044369399547577,
            0.5083726048469543,
            0.07697246968746185,
            -0.01579134725034237,
            0.5871990323066711,
            0.563720703125,
            -0.08678291738033295,
            -3.7764732837677,
            -1.2941066026687622,
            2.8734281063079834,
            -0.13245244324207306,
            1.2169214487075806,
            -0.23115937411785126,
            0.00346468947827816,
            -0.0935354232788086,
            -0.17774222791194916,
            0.1333017200231552,
            -0.0017633375246077776,
            -0.05516965687274933,
            0.5188985466957092,
            -0.3129015564918518,
            -0.07619520276784897,
            0.1367345154285431,
            -0.015887713059782982,
            -1.2855781316757202,
            -0.07016308605670929,
            -0.10773066431283951,
            1.5353164672851562,
            0.1135656088590622,
            0.027855001389980316,
            -0.3398904502391815,
            -0.2070419192314148,
            0.10142526030540466,
            0.038263775408267975,
            -0.5059637427330017,
            -0.004709627479314804,
            0.06200298294425011,
            0.20310485363006592
        ]
    }
}