{
    "num_epochs": 20000,
    "batch_size": 1000,
    "final_g_loss": 1.1988424062728882,
    "final_d_loss": 0.4734664261341095,
    "train_data_exp_dir_path": "data/scp_train_data_norm",
    "generator": {
        "num_inputs": 2,
        "num_outputs": 2,
        "num_hidden_layers": 1,
        "neurons_per_hidden_layer": 64,
        "hidden_layer_activation_function": "relu",
        "final_layer_activation_function": null,
        "bias": true,
        "weights": [
            0.2524338364601135,
            -1.0791648626327515,
            -0.044160474091768265,
            0.6158344149589539,
            0.5764704942703247,
            -0.0721362754702568,
            -0.610430121421814,
            -1.2098630666732788,
            1.0614205598831177,
            1.3909528255462646,
            -0.5502159595489502,
            0.3212257921695709,
            0.16476768255233765,
            -0.3215876817703247,
            -0.7525421977043152,
            -1.1513679027557373,
            0.6004748940467834,
            -0.09003360569477081,
            -1.1326069831848145,
            0.7699437737464905,
            -0.8847324848175049,
            0.6672234535217285,
            -0.9717712998390198,
            -0.6180269718170166,
            -0.11562030017375946,
            0.2449318915605545,
            1.0493831634521484,
            0.3900391161441803,
            0.024626098573207855,
            0.23487737774848938,
            -0.15190064907073975,
            -0.028933120891451836,
            0.9449902176856995,
            1.4977374076843262,
            -0.5196979641914368,
            0.23166659474372864,
            -0.2863033711910248,
            -2.3238656520843506,
            -0.8098013997077942,
            -1.3277647495269775,
            1.0550354719161987,
            0.4313802719116211,
            0.948915421962738,
            1.3072177171707153,
            0.2640410363674164,
            -1.5129783153533936,
            0.7266338467597961,
            -0.46728232502937317,
            -1.0795503854751587,
            0.7254481315612793,
            -0.9031280875205994,
            -0.7359285950660706,
            -0.7260984778404236,
            -0.6297512650489807,
            0.339849054813385,
            -1.2608304023742676,
            1.032580852508545,
            0.1776735633611679,
            -0.054483652114868164,
            -0.003758650040253997,
            0.4545302391052246,
            0.701345682144165,
            0.7812890410423279,
            0.8493682742118835,
            -0.23617465794086456,
            -0.1832670420408249,
            0.744172990322113,
            -1.2905770540237427,
            -0.703070878982544,
            -1.005319356918335,
            0.4146703779697418,
            -1.1296627521514893,
            0.7477360963821411,
            0.49449801445007324,
            -0.23723076283931732,
            0.1501673310995102,
            0.8888441920280457,
            0.3492876887321472,
            -0.11960059404373169,
            0.6690387725830078,
            -0.8973076939582825,
            0.5910073518753052,
            0.1365244835615158,
            -1.1050629615783691,
            0.22414569556713104,
            -0.34670117497444153,
            -0.6164239048957825,
            -2.353165864944458,
            -0.09727457165718079,
            0.6549426913261414,
            -0.49564969539642334,
            -0.9637884497642517,
            -0.24443118274211884,
            -0.698871910572052,
            -0.18153168261051178,
            -1.552677869796753,
            0.695244312286377,
            0.9124042987823486,
            0.6821220517158508,
            -0.4588925838470459,
            0.6064652800559998,
            1.1989017724990845,
            -0.7586212754249573,
            0.3363947570323944,
            0.8078503012657166,
            -0.8664613962173462,
            1.1092705726623535,
            0.436820924282074,
            1.0109933614730835,
            0.40574249625205994,
            -0.8635578751564026,
            -0.2039068639278412,
            -0.05292223393917084,
            -0.3908029794692993,
            -0.8333681225776672,
            0.06808310002088547,
            -0.6575728058815002,
            -1.131881594657898,
            0.8379595875740051,
            0.5322999954223633,
            0.6885631084442139,
            -0.10793036967515945,
            0.001327616162598133,
            -0.21624980866909027,
            0.4189942479133606,
            0.6562249660491943,
            0.47857847809791565,
            -2.0281004905700684,
            0.7113870978355408,
            0.9680994153022766,
            0.8385152220726013,
            1.2854572534561157,
            0.00882535707205534,
            -1.162251353263855,
            1.0472966432571411,
            1.1906687021255493,
            0.9225608110427856,
            0.5312344431877136,
            0.38436901569366455,
            0.2126351147890091,
            -1.1182820796966553,
            0.353056401014328,
            -1.1248059272766113,
            0.6153316497802734,
            -0.11355440318584442,
            -1.1053781509399414,
            0.801712155342102,
            1.3849718570709229,
            0.07279326021671295,
            -0.020082131028175354,
            1.0858224630355835,
            -0.47108137607574463,
            0.4773519039154053,
            0.6707680821418762,
            0.029668191447854042,
            0.7960524559020996,
            -0.2200610190629959,
            0.7083161473274231,
            -0.7469825744628906,
            0.6079348921775818,
            0.8588696718215942,
            0.42019516229629517,
            1.0348289012908936,
            0.6116403937339783,
            -0.12548749148845673,
            1.1442534923553467,
            0.2943494915962219,
            -1.1876901388168335,
            0.4526573717594147,
            0.8324359655380249,
            1.1971691846847534,
            1.0163015127182007,
            -0.6556229591369629,
            1.0207767486572266,
            0.7457603812217712,
            0.5337843894958496,
            -0.9512121677398682,
            -0.4011634290218353,
            0.7126350402832031,
            0.6333426237106323,
            -0.1884060651063919,
            0.3203427493572235,
            0.12157811224460602,
            -1.4680018424987793,
            1.2315497398376465,
            -1.0532753467559814,
            1.1857326030731201,
            -0.1748492419719696,
            0.6351759433746338,
            0.9531207084655762,
            -0.6997533440589905,
            -0.05462869256734848,
            -0.2256687432527542,
            -0.06675512343645096,
            -0.15647804737091064,
            -0.43596336245536804,
            -0.13211634755134583,
            0.46178820729255676,
            -0.22840219736099243,
            -0.32180050015449524,
            -0.2863638997077942,
            -0.22537420690059662,
            -0.2717706859111786,
            -0.45281073451042175,
            -1.0560572147369385,
            0.009492181241512299,
            -0.19773733615875244,
            -0.12493830919265747,
            0.080812968313694,
            -0.08635615557432175,
            0.673876166343689,
            -0.34445032477378845,
            0.002353767864406109,
            -0.045976296067237854,
            -0.38129717111587524,
            0.02042124606668949,
            -0.04273108392953873,
            -0.3264821469783783,
            -0.3042137026786804,
            -0.18821118772029877,
            0.13170765340328217,
            -0.08585082739591599,
            -0.24506530165672302,
            0.5799856781959534,
            -0.31624388694763184,
            -0.34516921639442444,
            -0.32054924964904785,
            -0.3892395794391632,
            -0.3335505723953247,
            -0.16408224403858185,
            0.02130918763577938,
            0.13841372728347778,
            -0.11677549034357071,
            -0.2473212629556656,
            -0.36896905303001404,
            0.7373921871185303,
            0.09804657101631165,
            -0.4152054190635681,
            -0.5172150135040283,
            0.3099273145198822,
            -0.30270829796791077,
            -0.058173876255750656,
            0.26937660574913025,
            0.023540068417787552,
            -0.9188445210456848,
            0.12708339095115662,
            0.0503036268055439,
            -2.663490056991577,
            -0.38172855973243713,
            -0.861082136631012,
            -0.44959571957588196,
            -0.3652256727218628,
            -0.3997143805027008,
            -0.16622821986675262,
            -0.19429230690002441,
            1.5019770860671997,
            0.6161360740661621,
            0.24692952632904053,
            0.2620316445827484,
            0.7189650535583496,
            -0.9774429202079773,
            0.3046194612979889,
            0.4997463524341583,
            0.8041467070579529,
            0.37419381737709045,
            0.21316756308078766,
            0.19538265466690063,
            0.09673445671796799,
            0.6847606897354126,
            0.4831789433956146,
            0.8051320910453796,
            0.20364466309547424,
            -1.124405026435852,
            0.5137477517127991,
            -1.314157485961914,
            0.7255378365516663,
            0.6243624091148376,
            -0.8642810583114624,
            0.5401608943939209,
            0.38003548979759216,
            0.5602324604988098,
            0.3776775300502777,
            -0.32763418555259705,
            0.5626388192176819,
            -0.05912414565682411,
            0.12758520245552063,
            0.5360944271087646,
            0.6280889511108398,
            0.41769593954086304,
            0.43213167786598206,
            0.6422449350357056,
            0.4482123851776123,
            -0.441377729177475,
            0.3574841618537903,
            0.4638260006904602,
            -0.1553480178117752,
            0.38354867696762085,
            0.6238029599189758,
            0.296418160200119,
            -1.1566002368927002,
            0.15829458832740784,
            0.5446422100067139,
            0.13745352625846863,
            -0.8562151789665222,
            0.6941545605659485,
            0.843478262424469,
            0.4361893832683563,
            0.4332008361816406,
            -0.18904267251491547,
            0.5657371282577515,
            0.953316867351532,
            -0.6110408306121826,
            0.5212745070457458,
            -0.703323245048523,
            0.6425371766090393,
            -0.25336307287216187,
            -0.09795542061328888,
            0.31978511810302734,
            0.8599214553833008,
            -1.3657618761062622,
            -0.12797002494335175,
            0.15725955367088318
        ]
    },
    "discriminator": {
        "num_inputs": 2,
        "num_outputs": 1,
        "num_hidden_layers": 1,
        "neurons_per_hidden_layer": 64,
        "hidden_layer_activation_function": "relu",
        "final_layer_activation_function": "sigmoid",
        "bias": true,
        "weights": [
            0.323123961687088,
            0.4033544659614563,
            0.7851407527923584,
            0.3932206332683563,
            -0.46367669105529785,
            0.41577163338661194,
            -0.1319921761751175,
            0.5408996939659119,
            -0.04859485849738121,
            0.4589076042175293,
            -0.44820913672447205,
            0.15109987556934357,
            -0.7603910565376282,
            -0.29936251044273376,
            -0.3008193075656891,
            0.12138589471578598,
            0.18839144706726074,
            0.7298179268836975,
            -0.28537511825561523,
            0.23648829758167267,
            0.4749304950237274,
            0.4530975818634033,
            -0.6215490698814392,
            -0.18495626747608185,
            0.3856799006462097,
            -0.19176793098449707,
            0.3227228820323944,
            -0.5131282210350037,
            -0.09529420733451843,
            -0.5548955202102661,
            0.8819852471351624,
            -0.17040523886680603,
            0.2139572948217392,
            0.6827759742736816,
            0.27183178067207336,
            0.37861281633377075,
            -0.6019251942634583,
            -0.045353002846241,
            -0.746357262134552,
            -0.38388529419898987,
            0.3586360812187195,
            -0.2569260001182556,
            0.3876389265060425,
            -0.43153178691864014,
            0.5548906326293945,
            -0.1684706062078476,
            0.551191508769989,
            -0.4175267219543457,
            0.05331479385495186,
            0.24053741991519928,
            -0.22448836266994476,
            0.2351146638393402,
            0.04404197260737419,
            0.2354779690504074,
            0.5050549507141113,
            -0.3627820909023285,
            -0.7446346282958984,
            -0.9584863781929016,
            0.09673617780208588,
            0.11213085800409317,
            0.07866741716861725,
            -0.4360664486885071,
            -0.3253362476825714,
            0.5421046614646912,
            0.6748870611190796,
            0.5463783144950867,
            -0.03936314582824707,
            -0.12424838542938232,
            1.142478346824646,
            0.21869228780269623,
            -0.08212877810001373,
            0.19109563529491425,
            0.16657933592796326,
            0.21665997803211212,
            0.18440069258213043,
            0.23425030708312988,
            0.01174883171916008,
            0.010247329249978065,
            -0.2431483417749405,
            -0.6644213199615479,
            -0.1152409240603447,
            0.6857794523239136,
            0.644146203994751,
            -0.3443696200847626,
            0.3495263159275055,
            -0.18214239180088043,
            -0.048587359488010406,
            0.3284650146961212,
            0.4364631772041321,
            0.3893597722053528,
            0.033500175923109055,
            -0.599786102771759,
            -0.07654426991939545,
            0.10594639927148819,
            -0.325725793838501,
            -0.5788506865501404,
            -0.602836012840271,
            0.5497189164161682,
            0.2794719636440277,
            0.316646546125412,
            0.5870885848999023,
            -0.6408171653747559,
            -0.6259563565254211,
            -0.48911839723587036,
            0.058007240295410156,
            -0.32252395153045654,
            0.3030700385570526,
            0.30499720573425293,
            0.8396649956703186,
            0.4234344959259033,
            -0.5380459427833557,
            0.4112566411495209,
            0.3378608822822571,
            -0.1749088168144226,
            -0.3675346374511719,
            0.03280583396553993,
            -0.3536500334739685,
            -0.4963226020336151,
            0.4369104504585266,
            -0.16704928874969482,
            -0.636044442653656,
            0.5643555521965027,
            -0.6619861721992493,
            -0.5214589834213257,
            0.48550596833229065,
            -0.5096513032913208,
            -0.3987535536289215,
            -0.21052026748657227,
            -0.46604979038238525,
            0.853466808795929,
            -0.14799785614013672,
            -0.4258252680301666,
            -0.8146185874938965,
            -0.624201238155365,
            -1.6583784818649292,
            -1.2821564674377441,
            -0.3736998438835144,
            -0.9219456911087036,
            0.08945556730031967,
            0.1503422111272812,
            -0.6539696455001831,
            0.16307677328586578,
            0.30931463837623596,
            2.855772018432617,
            -0.4958226978778839,
            0.018242429941892624,
            -1.0804115533828735,
            0.15079942345619202,
            -0.14123600721359253,
            0.34404394030570984,
            0.4556026756763458,
            -0.6804320216178894,
            -3.0040934085845947,
            -1.499561071395874,
            0.45985904335975647,
            0.30623218417167664,
            1.3704135417938232,
            -0.04009557142853737,
            -0.10501743853092194,
            -0.49645698070526123,
            -0.3091622292995453,
            -0.488727867603302,
            1.2022967338562012,
            -1.0276778936386108,
            -0.03070717863738537,
            0.32758206129074097,
            -0.1825321763753891,
            -0.38702014088630676,
            -0.10677550733089447,
            -0.0377667061984539,
            0.2117670178413391,
            0.2358567863702774,
            -0.4848070740699768,
            0.49072524905204773,
            0.24427467584609985,
            -0.3858097791671753,
            -0.5003604888916016,
            0.5880275368690491,
            0.8017188906669617,
            -0.5309874415397644,
            -0.4570579528808594,
            0.028005357831716537,
            1.473090410232544,
            -0.05631587654352188,
            -0.12075889110565186,
            -2.165987968444824,
            1.5930150747299194,
            -0.6465784907341003,
            -0.26642027497291565,
            -1.4463367462158203,
            0.6122573018074036,
            0.1726382076740265,
            -0.04242183640599251,
            2.235881805419922,
            -0.00542078772559762,
            0.050046488642692566,
            -0.1063932254910469,
            0.038963787257671356,
            1.6562455892562866,
            0.965903103351593,
            0.10878405719995499,
            -0.12225982546806335,
            -0.2691699266433716,
            0.14703939855098724,
            0.07321977615356445,
            0.025178147479891777,
            -0.010434269905090332,
            5.523484230041504,
            0.13889960944652557,
            -0.2333109825849533,
            0.6009497046470642,
            -1.1334421634674072,
            -0.09579423069953918,
            -0.019164565950632095,
            0.031205536797642708,
            -0.06189526617527008,
            3.8386154174804688,
            -0.5163275003433228,
            0.1040261909365654,
            0.03501226007938385,
            5.095885753631592,
            -0.024087391793727875,
            0.028147557750344276,
            0.10722695291042328,
            0.7097747325897217,
            0.015855103731155396,
            -5.932415962219238,
            -0.4899193048477173,
            -0.05671166256070137,
            -0.3025382459163666,
            -0.06416264921426773,
            -0.17817649245262146,
            0.06200385466217995,
            0.07024029642343521,
            0.04244178161025047,
            0.08946023881435394,
            0.3282560110092163,
            0.01965947262942791,
            0.002837088191881776,
            -0.051351793110370636,
            -0.08542007952928543,
            -0.2609373927116394,
            -0.18495401740074158,
            0.4015558958053589,
            -0.0009460747241973877,
            -0.3839116394519806,
            -2.653609037399292,
            -0.06376150250434875,
            -0.0020376890897750854,
            -2.023256301879883,
            -5.906749248504639,
            0.012593090534210205,
            0.07648340612649918,
            -0.3206824064254761,
            -0.1855957806110382,
            -1.0168251991271973,
            -0.03883206471800804
        ]
    }
}