{
    "num_epochs": 20000,
    "batch_size": 1000,
    "final_g_loss": 0.5313546061515808,
    "final_d_loss": 0.7093015909194946,
    "train_data_exp_dir_path": "data/scp_train_data_non_norm",
    "generator": {
        "num_inputs": 2,
        "num_outputs": 2,
        "num_hidden_layers": 1,
        "neurons_per_hidden_layer": 64,
        "hidden_layer_activation_function": "relu",
        "final_layer_activation_function": null,
        "bias": true,
        "weights": [
            -0.8907899260520935,
            -1.5332279205322266,
            -0.5366846919059753,
            1.4655483961105347,
            -1.1087865829467773,
            1.4152613878250122,
            1.0631872415542603,
            -1.2259985208511353,
            -1.0367026329040527,
            -1.1668254137039185,
            -1.3509877920150757,
            -0.9683443903923035,
            -1.4440454244613647,
            -1.3436063528060913,
            1.2211883068084717,
            1.5081312656402588,
            1.2332942485809326,
            1.2161086797714233,
            0.9583472013473511,
            -1.1253046989440918,
            1.5382232666015625,
            0.7522350549697876,
            0.6385478973388672,
            0.3573906719684601,
            0.15108251571655273,
            0.03211311995983124,
            1.2922533750534058,
            1.38637375831604,
            -1.5123167037963867,
            1.3144326210021973,
            1.0473674535751343,
            -0.8050500750541687,
            0.5226705074310303,
            0.4352439045906067,
            0.9696406126022339,
            -1.098498821258545,
            -1.3990607261657715,
            -1.275539755821228,
            -1.0159904956817627,
            1.026547908782959,
            -1.4158252477645874,
            1.2923612594604492,
            -0.7113352417945862,
            0.9657285809516907,
            -0.9104697704315186,
            -1.2271357774734497,
            -1.312944769859314,
            -1.3463973999023438,
            -1.356982707977295,
            1.052789330482483,
            1.2219995260238647,
            -0.8112456798553467,
            0.9333047270774841,
            0.8326824307441711,
            1.4162031412124634,
            -1.5185304880142212,
            0.7182799577713013,
            1.3475784063339233,
            -0.9780957698822021,
            1.3628389835357666,
            -0.0862550213932991,
            0.4205583333969116,
            -1.427358627319336,
            1.0856339931488037,
            -1.294870138168335,
            -1.5546185970306396,
            1.2435593605041504,
            1.3750587701797485,
            1.3075568675994873,
            -1.300249695777893,
            0.945558488368988,
            1.3269680738449097,
            -0.8958620429039001,
            -1.0228317975997925,
            -1.2195801734924316,
            -1.3946655988693237,
            -1.342265009880066,
            -1.569124698638916,
            1.4996358156204224,
            0.8903940320014954,
            -1.4684929847717285,
            -0.6003873348236084,
            -1.1160938739776611,
            -1.3506749868392944,
            -1.2367092370986938,
            -1.0897667407989502,
            0.9370870590209961,
            0.7098457217216492,
            1.3381752967834473,
            -0.8259539008140564,
            1.2102950811386108,
            1.194709062576294,
            1.2223536968231201,
            -1.0546634197235107,
            1.2156662940979004,
            -0.4709094166755676,
            1.5156004428863525,
            1.1503956317901611,
            1.4288982152938843,
            -1.4386523962020874,
            0.7110067009925842,
            -0.9849551320075989,
            -0.6016157269477844,
            -0.6950595378875732,
            1.2396576404571533,
            -0.8197281360626221,
            -0.8067384362220764,
            -1.0450730323791504,
            -1.187239170074463,
            0.6918928623199463,
            -0.7650090456008911,
            1.369813323020935,
            1.0014981031417847,
            1.2540146112442017,
            -1.4089528322219849,
            1.1894128322601318,
            -0.5231550335884094,
            -0.8339657783508301,
            0.49893710017204285,
            0.29871922731399536,
            -1.4871505498886108,
            -1.4125827550888062,
            -1.078216791152954,
            -0.7116930484771729,
            -1.3638924360275269,
            0.9243921041488647,
            1.0582715272903442,
            0.9410512447357178,
            0.6587740778923035,
            0.7912193536758423,
            0.6360020637512207,
            0.33788907527923584,
            0.8077355027198792,
            1.0400969982147217,
            1.1788172721862793,
            0.9292194247245789,
            0.4387533664703369,
            0.4832651913166046,
            1.4868175983428955,
            1.5388281345367432,
            -0.7406086325645447,
            0.1941210925579071,
            0.5788719058036804,
            0.9962741732597351,
            1.5354583263397217,
            1.3686089515686035,
            0.4561914801597595,
            1.221129059791565,
            0.9849541783332825,
            0.9243964552879333,
            0.5942183136940002,
            1.0805363655090332,
            0.4128534197807312,
            0.2910226881504059,
            1.0529823303222656,
            0.48032376170158386,
            1.3716131448745728,
            1.0839691162109375,
            1.2914162874221802,
            1.1187615394592285,
            0.8865817785263062,
            1.4163206815719604,
            1.0254789590835571,
            1.2823066711425781,
            0.8880314826965332,
            0.7038549780845642,
            0.9258370995521545,
            0.6954690217971802,
            1.4087345600128174,
            1.1571458578109741,
            0.6096888780593872,
            0.7466050982475281,
            1.1291884183883667,
            0.998163640499115,
            1.041675329208374,
            1.345343828201294,
            1.0789287090301514,
            1.0944969654083252,
            1.2968711853027344,
            0.9475468993186951,
            0.7823178768157959,
            1.3942582607269287,
            1.5450190305709839,
            1.5048022270202637,
            1.469716191291809,
            0.5330967307090759,
            1.3041083812713623,
            1.1957814693450928,
            0.4042889475822449,
            1.6341181993484497,
            0.8776698112487793,
            1.2768913507461548,
            0.12003199756145477,
            -0.06607379764318466,
            0.1059776321053505,
            0.16275106370449066,
            0.1268618106842041,
            -0.011293289251625538,
            0.049999628216028214,
            -0.027612363919615746,
            -0.0553724579513073,
            0.022576143965125084,
            -0.1999787986278534,
            0.04749710485339165,
            0.11087261885404587,
            0.19215774536132812,
            0.01699386164546013,
            -0.2009475827217102,
            -0.08079575002193451,
            -0.2260671705007553,
            0.3137420117855072,
            -0.1531815379858017,
            0.012112364172935486,
            -0.2496606856584549,
            0.2643756568431854,
            -0.04343085363507271,
            0.20483256876468658,
            0.12107953429222107,
            -0.17212209105491638,
            0.1493649184703827,
            -0.11167561262845993,
            -0.10964946448802948,
            0.004485226236283779,
            -0.09370776265859604,
            0.09645089507102966,
            -0.047492802143096924,
            -0.14849171042442322,
            -0.016451571136713028,
            -0.01668751798570156,
            0.05571571737527847,
            -0.01963532529771328,
            -0.014692009426653385,
            -0.019313346594572067,
            0.08021759241819382,
            0.2774537205696106,
            -0.1349845677614212,
            -0.05824682116508484,
            -0.10114020109176636,
            -0.06467364728450775,
            -0.09626761078834534,
            -0.07952523976564407,
            -0.010313024744391441,
            -0.07850649207830429,
            0.01545651350170374,
            0.04196026176214218,
            -0.10056636482477188,
            -0.11919562518596649,
            -0.02655850164592266,
            -0.17289850115776062,
            0.04843449592590332,
            -0.16364669799804688,
            -0.16229784488677979,
            0.165438711643219,
            -0.12450648844242096,
            -0.05097257345914841,
            -0.05146348848938942,
            1.0013067722320557,
            0.9382548332214355,
            0.9506350755691528,
            0.880805253982544,
            0.9292426705360413,
            0.9175224304199219,
            1.0030027627944946,
            0.8933310508728027,
            0.7914810180664062,
            0.8803160190582275,
            1.0110605955123901,
            0.9440625309944153,
            -0.035241808742284775,
            0.7983167767524719,
            0.8876420855522156,
            0.831931471824646,
            0.9863503575325012,
            0.8231446743011475,
            0.9059011936187744,
            0.9718793034553528,
            0.924178421497345,
            0.8872249126434326,
            0.8398348689079285,
            0.9217813014984131,
            0.9414795637130737,
            0.8551748394966125,
            0.9612231850624084,
            1.017866611480713,
            0.8220810890197754,
            0.8001198768615723,
            0.8724672794342041,
            1.0182586908340454,
            0.9961948394775391,
            0.9669274687767029,
            0.8684917688369751,
            0.8140209913253784,
            1.0424412488937378,
            0.910494327545166,
            0.8732245564460754,
            0.8606336116790771,
            0.8644559979438782,
            1.0194175243377686,
            0.9276237487792969,
            0.8276380300521851,
            0.8126941323280334,
            0.9785918593406677,
            0.9700988531112671,
            0.9487570524215698,
            0.9305171370506287,
            1.0196073055267334,
            0.811538577079773,
            0.8233585953712463,
            0.9356080889701843,
            0.7882146835327148,
            1.0328364372253418,
            0.8298723697662354,
            0.8017821907997131,
            0.8165431022644043,
            0.8028450012207031,
            0.8559569120407104,
            0.9510406255722046,
            0.8730117082595825,
            0.9542519450187683,
            1.041861891746521,
            0.01584428921341896,
            0.8493013381958008
        ]
    },
    "discriminator": {
        "num_inputs": 2,
        "num_outputs": 1,
        "num_hidden_layers": 1,
        "neurons_per_hidden_layer": 64,
        "hidden_layer_activation_function": "relu",
        "final_layer_activation_function": "sigmoid",
        "bias": true,
        "weights": [
            0.15234985947608948,
            0.4427599012851715,
            -0.16465365886688232,
            -0.11451452970504761,
            -0.5777102708816528,
            0.21579088270664215,
            -0.5009484887123108,
            -0.2741752862930298,
            0.18507176637649536,
            -0.1459159255027771,
            -0.1451878398656845,
            0.1592450886964798,
            0.027052229270339012,
            0.25868239998817444,
            0.619217038154602,
            0.2860872745513916,
            0.1163768321275711,
            0.08405730873346329,
            -0.08090662956237793,
            0.17296290397644043,
            0.10955358296632767,
            -0.6192306876182556,
            -0.43061792850494385,
            0.37869787216186523,
            0.21185636520385742,
            -0.38058945536613464,
            -0.19009704887866974,
            0.010576991364359856,
            0.5774074792861938,
            0.1444256752729416,
            -0.7055879831314087,
            0.22825026512145996,
            -0.620643675327301,
            0.6987912654876709,
            0.1967993974685669,
            -0.38804203271865845,
            1.585202932357788,
            -0.10405877977609634,
            0.6225675344467163,
            0.61916583776474,
            0.225755512714386,
            0.13326850533485413,
            -0.5219205617904663,
            0.041350167244672775,
            -0.22698663175106049,
            0.27949443459510803,
            -0.41022035479545593,
            0.35473868250846863,
            0.516309916973114,
            -0.5358920693397522,
            -0.4341408610343933,
            0.1570221483707428,
            0.25750404596328735,
            -0.6096210479736328,
            -0.45341360569000244,
            0.2293715626001358,
            0.4914103150367737,
            -0.546764612197876,
            0.3400733768939972,
            0.08065379410982132,
            0.1634218990802765,
            0.05841436609625816,
            -0.39698630571365356,
            0.4682956337928772,
            -0.5951336622238159,
            0.5911684632301331,
            -0.13421599566936493,
            0.19056300818920135,
            0.8738152980804443,
            -0.05789494514465332,
            0.0050317710265517235,
            0.020763879641890526,
            -0.33296430110931396,
            -0.47527316212654114,
            -0.3466813266277313,
            -0.6799160242080688,
            -0.28734368085861206,
            -0.5772897005081177,
            0.12110072374343872,
            0.12922391295433044,
            -0.09446170181035995,
            0.1877773106098175,
            0.3731526732444763,
            0.22698825597763062,
            0.24684706330299377,
            0.4462072253227234,
            -0.5070357322692871,
            -0.43262434005737305,
            0.2009817510843277,
            0.2936730682849884,
            -0.39912936091423035,
            -0.33303388953208923,
            -0.5822970867156982,
            0.03224387392401695,
            -0.2573080360889435,
            0.25094839930534363,
            -0.6578667163848877,
            0.18934281170368195,
            -0.6066213250160217,
            -0.5861466526985168,
            -0.49100378155708313,
            0.43513911962509155,
            -0.09939080476760864,
            -0.04066503047943115,
            0.11479198187589645,
            0.09163942188024521,
            -0.23370632529258728,
            -0.15499591827392578,
            -0.07793564349412918,
            0.020836753770709038,
            -0.456508070230484,
            0.24043385684490204,
            0.5572471618652344,
            0.14007791876792908,
            0.1073029413819313,
            0.2839195430278778,
            -0.12510675191879272,
            0.20355677604675293,
            0.7178612351417542,
            0.6914089322090149,
            -0.10368917882442474,
            0.27069810032844543,
            0.5036957263946533,
            -0.5976229310035706,
            0.6606162190437317,
            0.5594654083251953,
            0.40583646297454834,
            0.176118403673172,
            -0.4630607068538666,
            -0.34825754165649414,
            0.16207025945186615,
            -0.3738845884799957,
            -0.44793298840522766,
            -0.3064367473125458,
            -0.17904256284236908,
            -0.27959421277046204,
            0.07457244396209717,
            -0.34095653891563416,
            0.306964635848999,
            -0.26350516080856323,
            0.6390343904495239,
            -0.007764028385281563,
            -0.21471761167049408,
            0.18288132548332214,
            0.04340295121073723,
            0.2951556146144867,
            0.4973544478416443,
            -0.17893391847610474,
            -0.3215532600879669,
            0.2892540693283081,
            -0.05857055261731148,
            -0.07966738194227219,
            -0.09705574065446854,
            -0.30108824372291565,
            0.072977215051651,
            -0.4622980058193207,
            0.060229040682315826,
            0.16986672580242157,
            -0.9786936640739441,
            -0.967841625213623,
            0.05507112294435501,
            -0.26841703057289124,
            0.5474222898483276,
            0.39206644892692566,
            -0.4786575138568878,
            -0.5780543684959412,
            0.19292041659355164,
            0.47589048743247986,
            -0.8991255164146423,
            0.6175607442855835,
            0.2723372280597687,
            0.6795011162757874,
            -0.8126071691513062,
            0.03966079652309418,
            -0.1313081979751587,
            -1.0932464599609375,
            0.14738154411315918,
            -0.48425427079200745,
            -0.30356764793395996,
            -0.697688102722168,
            -0.26732826232910156,
            -0.31016722321510315,
            0.30578261613845825,
            0.2545980215072632,
            0.1667073369026184,
            -1.235581636428833,
            -0.19838540256023407,
            -0.12157057970762253,
            -0.30659887194633484,
            0.026203859597444534,
            -0.312251478433609,
            0.14430488646030426,
            0.16516968607902527,
            -0.06557637453079224,
            -0.3188297748565674,
            0.059234268963336945,
            0.037960559129714966,
            -0.11012708395719528,
            0.1661931872367859,
            0.16993997991085052,
            -0.45168983936309814,
            -0.051072776317596436,
            0.0455203577876091,
            0.2208288460969925,
            -0.22139957547187805,
            -0.44574490189552307,
            -0.5293027758598328,
            -0.19728942215442657,
            -0.1878763884305954,
            -0.132658451795578,
            1.4948351383209229,
            0.20471812784671783,
            0.09276898950338364,
            -0.4053879976272583,
            0.21983502805233002,
            -0.11574847251176834,
            0.048384588211774826,
            0.13677151501178741,
            -0.10986437648534775,
            0.5137283802032471,
            -0.07584010809659958,
            -0.3474610447883606,
            -0.15854771435260773,
            -0.04862191900610924,
            0.14877961575984955,
            -0.0862504318356514,
            -0.4431537687778473,
            -0.24891598522663116,
            0.051150351762771606,
            0.09963400661945343,
            0.06378171592950821,
            0.035423919558525085,
            -0.05133277550339699,
            0.07406550645828247,
            0.14298607409000397,
            -0.028990279883146286,
            -0.019894488155841827,
            -0.12579412758350372,
            -0.5902817845344543,
            -0.016909107565879822,
            -0.33247992396354675,
            -0.1186375841498375,
            0.20672646164894104,
            0.020791471004486084,
            -0.66321861743927,
            0.09385714679956436,
            -0.3491707444190979,
            0.17964720726013184,
            -0.24152715504169464,
            -0.03548295050859451,
            0.5945732593536377,
            -0.16603372991085052,
            -0.1396198719739914,
            -0.1245288997888565,
            -0.13449227809906006,
            -0.21654407680034637,
            0.2608625590801239
        ]
    }
}