{
    "num_epochs": 20000,
    "batch_size": 1000,
    "final_g_loss": 1.0041756629943848,
    "final_d_loss": 0.48449066281318665,
    "train_data_exp_dir_path": "data/scp_train_data_norm",
    "generator": {
        "num_inputs": 2,
        "num_outputs": 2,
        "num_hidden_layers": 1,
        "neurons_per_hidden_layer": 64,
        "hidden_layer_activation_function": "relu",
        "final_layer_activation_function": null,
        "bias": true,
        "weights": [
            0.5043854117393494,
            -0.5131588578224182,
            0.2535608112812042,
            -0.16029444336891174,
            -0.7560082077980042,
            0.1946849673986435,
            -1.0551466941833496,
            -0.5018758773803711,
            -0.6555078029632568,
            -0.10453753173351288,
            -1.282671332359314,
            -0.9538403153419495,
            -0.47327664494514465,
            0.5640688538551331,
            0.9266786575317383,
            -0.13001731038093567,
            -0.38486248254776,
            0.1555686593055725,
            0.4595727026462555,
            -0.35459861159324646,
            0.1951359063386917,
            -0.24218186736106873,
            0.2710176110267639,
            -0.38993486762046814,
            0.6055540442466736,
            -0.46255868673324585,
            -0.5204879641532898,
            0.5564419031143188,
            -1.4442421197891235,
            -0.8105943202972412,
            -0.5347437858581543,
            -0.06935656070709229,
            0.5556133985519409,
            0.9428935647010803,
            -0.5381911396980286,
            -0.5657311081886292,
            -0.34141403436660767,
            0.30009767413139343,
            0.1797003149986267,
            1.030387282371521,
            -0.09271761775016785,
            0.8166532516479492,
            -0.661081075668335,
            -1.5765705108642578,
            0.36068442463874817,
            0.6308188438415527,
            1.4862170219421387,
            1.2142335176467896,
            -1.0194824934005737,
            -0.45618584752082825,
            0.4264805316925049,
            -0.32981303334236145,
            0.16473309695720673,
            -0.25702089071273804,
            0.0039295535534620285,
            -0.13748300075531006,
            0.1554480940103531,
            -0.2634603679180145,
            -0.4980429708957672,
            0.5894874930381775,
            -0.3733637034893036,
            -0.35754042863845825,
            -1.3638261556625366,
            -0.9356120824813843,
            -0.7587292790412903,
            -0.4539000988006592,
            -0.2072870135307312,
            -0.17276258766651154,
            -0.05563386157155037,
            -0.1927199363708496,
            -0.5642478466033936,
            0.49507221579551697,
            0.860731303691864,
            0.2569628655910492,
            0.2485620230436325,
            -0.12749019265174866,
            -1.1421855688095093,
            -0.2252293825149536,
            -0.6091801524162292,
            0.37200456857681274,
            0.1256122589111328,
            -0.2707829475402832,
            -0.7520228624343872,
            0.36380699276924133,
            0.3675048053264618,
            1.0460041761398315,
            0.4146229326725006,
            0.8528276085853577,
            -0.47407886385917664,
            1.1473186016082764,
            0.3943001925945282,
            0.6655024290084839,
            1.756765604019165,
            1.5887738466262817,
            0.4055597484111786,
            -0.26955345273017883,
            -0.9784536361694336,
            0.47369584441185,
            -0.3147505819797516,
            -0.5623388886451721,
            0.7279248833656311,
            1.2063871622085571,
            0.5170242190361023,
            0.5734246373176575,
            -0.6481423377990723,
            0.4957093298435211,
            0.6444272994995117,
            1.0457745790481567,
            0.4995371699333191,
            -0.3836776614189148,
            -1.0599309206008911,
            -0.3398243188858032,
            -1.2185829877853394,
            -1.2896523475646973,
            -0.9294925332069397,
            0.45814481377601624,
            -1.1296066045761108,
            0.23276394605636597,
            -0.5596603155136108,
            0.5146704316139221,
            -1.227295994758606,
            -0.03162352368235588,
            0.4745383858680725,
            -1.1153790950775146,
            0.6077973246574402,
            0.9985632300376892,
            0.1766478270292282,
            -0.28507742285728455,
            0.6081383228302002,
            0.5096496343612671,
            0.5388957262039185,
            0.23350167274475098,
            1.4885722398757935,
            1.0726083517074585,
            -1.6958973407745361,
            -0.4660501182079315,
            -0.773453414440155,
            0.7323507070541382,
            0.5754281878471375,
            0.8929951190948486,
            1.1474052667617798,
            -1.720658779144287,
            0.29079797863960266,
            0.13106708228588104,
            1.0838481187820435,
            0.6205704808235168,
            -1.1262632608413696,
            0.7955828905105591,
            -0.5131692290306091,
            -0.10977409780025482,
            0.7122105956077576,
            -0.0600222609937191,
            -0.7167531251907349,
            0.8253412842750549,
            0.5851261019706726,
            0.5047289729118347,
            0.7810488939285278,
            -1.7765891551971436,
            0.9876850843429565,
            0.9978459477424622,
            -0.6835587620735168,
            1.3000071048736572,
            0.6431970000267029,
            -1.626521348953247,
            0.3740924894809723,
            0.6955035328865051,
            -0.3700195848941803,
            -0.8752855658531189,
            0.5677403211593628,
            -1.5508040189743042,
            1.028754711151123,
            0.9141801595687866,
            0.05029260367155075,
            0.7622589468955994,
            0.08131437748670578,
            1.1536436080932617,
            -2.0143632888793945,
            0.8236348032951355,
            1.4037196636199951,
            0.7301045656204224,
            -1.6088272333145142,
            1.2241692543029785,
            0.82376629114151,
            -0.5563455820083618,
            -0.08008383214473724,
            -1.9207509756088257,
            1.0171772241592407,
            -1.6720364093780518,
            -0.014734909869730473,
            -0.11195358633995056,
            1.1597166061401367,
            0.6688693761825562,
            -0.3238168954849243,
            -0.4421238601207733,
            -0.4024783670902252,
            -0.2910160422325134,
            -0.22891491651535034,
            0.4713921546936035,
            -1.2489649057388306,
            -0.22278985381126404,
            -0.6216403245925903,
            0.040707990527153015,
            -0.5931156277656555,
            -0.46845346689224243,
            -0.44725701212882996,
            -1.5110766887664795,
            -0.3180409073829651,
            -0.24609296023845673,
            -0.40386322140693665,
            0.31601279973983765,
            0.194403737783432,
            -0.15040983259677887,
            0.4023958146572113,
            0.5867785215377808,
            -0.2250806838274002,
            0.20982418954372406,
            -0.31948867440223694,
            -0.3375953137874603,
            -0.5701108574867249,
            0.18401727080345154,
            0.13161717355251312,
            -1.1080639362335205,
            -0.238832488656044,
            0.5620383024215698,
            -0.25824472308158875,
            -0.3694242238998413,
            -0.029311276972293854,
            -1.8150737285614014,
            0.062062639743089676,
            0.2801707684993744,
            -0.39098066091537476,
            0.11831886321306229,
            -0.48146292567253113,
            -1.061453104019165,
            -0.11914851516485214,
            -0.2776367962360382,
            -0.26296037435531616,
            -0.6328758597373962,
            0.43002089858055115,
            0.18535739183425903,
            -1.763453722000122,
            0.09428507089614868,
            -0.2804115414619446,
            -0.36250826716423035,
            -2.056652545928955,
            -0.2405744045972824,
            -0.34354153275489807,
            -0.06981568038463593,
            0.07911084592342377,
            -1.709530234336853,
            -0.3443044424057007,
            -1.2145682573318481,
            -0.19419577717781067,
            -0.18232212960720062,
            -0.2674506604671478,
            0.04882369935512543,
            0.1473042070865631,
            -0.13886527717113495,
            0.2197616547346115,
            -0.27735674381256104,
            0.5014943480491638,
            0.18483386933803558,
            1.3912811279296875,
            0.3880835473537445,
            -0.5071313381195068,
            0.35871654748916626,
            0.1289789378643036,
            0.19789062440395355,
            0.04449702799320221,
            0.7466661334037781,
            -0.5740781426429749,
            0.024417581036686897,
            0.48610353469848633,
            0.2142171859741211,
            1.485937237739563,
            0.46102842688560486,
            -0.555153489112854,
            -0.5544242262840271,
            0.5812835693359375,
            -1.1299083232879639,
            0.4917728304862976,
            0.1802869290113449,
            0.16561543941497803,
            0.21816343069076538,
            0.37190672755241394,
            1.3552184104919434,
            0.3805052638053894,
            0.02804066613316536,
            0.3664569854736328,
            0.44255077838897705,
            0.41465994715690613,
            0.4742045998573303,
            0.4038204252719879,
            0.24006137251853943,
            0.3914552628993988,
            0.3605574369430542,
            0.23264344036579132,
            -0.2848292887210846,
            0.5503731369972229,
            0.5821681618690491,
            0.3422197699546814,
            0.661108672618866,
            -1.275412917137146,
            0.4173242151737213,
            -0.5346346497535706,
            0.2598285675048828,
            0.5758470296859741,
            0.299114853143692,
            0.3515198528766632,
            0.6285004615783691,
            0.0948023721575737,
            0.498604416847229,
            -0.936184287071228,
            -0.2781352400779724,
            0.21931222081184387,
            0.40835025906562805,
            0.3509587347507477,
            0.3893401324748993,
            0.5484590530395508,
            0.4437880516052246,
            0.1880914866924286,
            0.43260547518730164
        ]
    },
    "discriminator": {
        "num_inputs": 2,
        "num_outputs": 1,
        "num_hidden_layers": 1,
        "neurons_per_hidden_layer": 64,
        "hidden_layer_activation_function": "relu",
        "final_layer_activation_function": "sigmoid",
        "bias": true,
        "weights": [
            -0.2593783736228943,
            0.4253610074520111,
            -0.3771161437034607,
            -0.46986550092697144,
            -0.5775887966156006,
            0.5677922368049622,
            0.20523740351200104,
            -0.5297868847846985,
            -0.5981944799423218,
            0.06764283776283264,
            0.20995104312896729,
            -0.395717591047287,
            0.4290916323661804,
            0.6486218571662903,
            0.3212713897228241,
            0.29651734232902527,
            0.39135032892227173,
            -0.4946404695510864,
            -0.5304051041603088,
            -0.5073741674423218,
            -0.4884226620197296,
            -0.4285739064216614,
            0.2850881516933441,
            0.4831286370754242,
            0.020068325102329254,
            -0.537368893623352,
            -0.5046894550323486,
            -0.25046610832214355,
            0.16276265680789948,
            -0.27342990040779114,
            -0.46428021788597107,
            0.277071475982666,
            -0.04014529660344124,
            -0.08805733919143677,
            0.6814573407173157,
            0.29743316769599915,
            0.5613706111907959,
            -0.26658210158348083,
            -0.4356926381587982,
            0.29205626249313354,
            -0.486467182636261,
            0.4766964614391327,
            0.20036810636520386,
            0.222975492477417,
            -0.2814202308654785,
            -0.055307161062955856,
            0.23302480578422546,
            -0.6655318140983582,
            0.20751063525676727,
            0.6033313870429993,
            -0.1196114718914032,
            0.4396143853664398,
            -0.6709629893302917,
            -0.01528980489820242,
            0.2161848396062851,
            -0.5235901474952698,
            0.47190073132514954,
            0.37983372807502747,
            -0.29065200686454773,
            0.6315537095069885,
            -0.5318080186843872,
            0.006660624407231808,
            0.440327912569046,
            0.14920467138290405,
            -0.6426684856414795,
            0.41937094926834106,
            0.49972596764564514,
            -0.4246607720851898,
            -0.010912403464317322,
            -0.3177682161331177,
            0.3177134692668915,
            -0.2728326916694641,
            -0.5432335734367371,
            0.07120287418365479,
            0.08990129083395004,
            -0.2434503436088562,
            -0.5070807337760925,
            0.1829346865415573,
            -0.6038693785667419,
            0.22423569858074188,
            -0.7806624174118042,
            -0.46318450570106506,
            -0.5892665982246399,
            0.1829172968864441,
            0.6861611008644104,
            -0.4106743335723877,
            -0.6682260036468506,
            0.2168673574924469,
            0.17633767426013947,
            0.5284278392791748,
            -0.09338781237602234,
            0.6642884612083435,
            -0.49733051657676697,
            -0.7643129825592041,
            -0.03205597773194313,
            0.050575148314237595,
            0.40391775965690613,
            -0.47064122557640076,
            0.13363498449325562,
            0.021069049835205078,
            -0.13956783711910248,
            0.539021372795105,
            -0.32470524311065674,
            0.08651036769151688,
            -0.1894245147705078,
            -0.25631803274154663,
            0.01663031429052353,
            0.19403085112571716,
            0.25186821818351746,
            0.6102147102355957,
            -0.32600003480911255,
            0.5544281005859375,
            0.12331950664520264,
            -0.5795989036560059,
            0.3653065264225006,
            -0.15748588740825653,
            0.337271124124527,
            -0.1957566887140274,
            0.29026082158088684,
            0.029814213514328003,
            0.7727383971214294,
            0.4093738794326782,
            0.03698784112930298,
            0.27875614166259766,
            -0.6997976303100586,
            -0.36155325174331665,
            0.29538124799728394,
            0.4743872880935669,
            1.080796241760254,
            -0.4082849323749542,
            -0.5283778309822083,
            0.22803954780101776,
            -0.8331509232521057,
            -0.4910888373851776,
            -0.05508919060230255,
            0.8414260745048523,
            -0.6689311861991882,
            -0.4826696813106537,
            -0.8060285449028015,
            -0.2682846486568451,
            0.3945888876914978,
            -4.385441780090332,
            -0.017451297491788864,
            -2.7868223190307617,
            0.8486369252204895,
            1.7687898874282837,
            0.3270438313484192,
            -0.7572770118713379,
            -1.201417326927185,
            0.011159027926623821,
            -0.287794291973114,
            -0.25960299372673035,
            0.2934730350971222,
            -0.12193173170089722,
            -0.5548509955406189,
            0.010050790384411812,
            2.105257034301758,
            -0.3261357545852661,
            -1.0476561784744263,
            -0.47850826382637024,
            -0.4190896153450012,
            -0.2966059744358063,
            0.1515497863292694,
            0.38485464453697205,
            -2.689020872116089,
            1.2775708436965942,
            -1.0302492380142212,
            -1.229934573173523,
            -1.5663396120071411,
            -0.2423766553401947,
            0.35171833634376526,
            -0.10766924917697906,
            0.9444372653961182,
            -0.18665285408496857,
            1.479393482208252,
            -0.29490330815315247,
            0.6576505899429321,
            -0.48371726274490356,
            -0.4237288236618042,
            -0.5770648717880249,
            -0.7007691860198975,
            -1.7849189043045044,
            -0.05209175869822502,
            0.14364498853683472,
            -0.6434482336044312,
            -0.33910447359085083,
            0.23462364077568054,
            1.1488412618637085,
            -0.3831760883331299,
            0.20432505011558533,
            -0.5655633211135864,
            -0.14808396995067596,
            0.09204356372356415,
            -0.1824781894683838,
            -0.20233948528766632,
            -0.13967375457286835,
            -0.21386262774467468,
            -0.1048552542924881,
            0.14528095722198486,
            0.25280821323394775,
            -0.1045004278421402,
            -2.308037519454956,
            -1.9525948762893677,
            0.08979561924934387,
            -0.0013301258441060781,
            1.5720674991607666,
            0.07639290392398834,
            1.5967713594436646,
            0.8535049557685852,
            -1.2221546173095703,
            -0.1248481273651123,
            -0.22084011137485504,
            -0.22566066682338715,
            0.08180930465459824,
            -0.293083518743515,
            -0.02197263203561306,
            0.15163098275661469,
            0.027781497687101364,
            -0.3298017084598541,
            0.01897309720516205,
            1.4718101024627686,
            -0.07553838193416595,
            -0.48620548844337463,
            0.0924130380153656,
            -0.11284886300563812,
            0.034239642322063446,
            0.02115880697965622,
            0.05780767276883125,
            1.2779293060302734,
            -7.2394118309021,
            -0.1868308037519455,
            -0.21355491876602173,
            1.1208561658859253,
            -0.22064241766929626,
            -0.05033628270030022,
            -0.2003670632839203,
            0.08260437101125717,
            -0.06841127574443817,
            3.8805525302886963,
            -0.035497065633535385,
            -0.09337727725505829,
            0.0931556224822998,
            -0.06843742728233337,
            -0.3302541673183441,
            -0.14873811602592468,
            -1.5201938152313232,
            -0.1610846072435379,
            0.04021676257252693,
            -0.013136804103851318,
            0.010583266615867615,
            -0.00891054980456829,
            -1.6332652568817139,
            -1.1747539043426514,
            -0.07156910747289658,
            1.0553804636001587,
            0.3072751760482788,
            0.4061887264251709
        ]
    }
}