{
    "num_epochs": 20000,
    "batch_size": 1000,
    "final_g_loss": 0.9267293214797974,
    "final_d_loss": 0.7176676988601685,
    "train_data_exp_dir_path": "data/scp_train_data_non_norm",
    "generator": {
        "num_inputs": 2,
        "num_outputs": 2,
        "num_hidden_layers": 1,
        "neurons_per_hidden_layer": 64,
        "hidden_layer_activation_function": "relu",
        "final_layer_activation_function": null,
        "bias": true,
        "weights": [
            -1.2611815929412842,
            -1.001668930053711,
            1.0974376201629639,
            1.4499971866607666,
            1.385463833808899,
            1.4310545921325684,
            1.5632145404815674,
            -0.8529300689697266,
            1.4750944375991821,
            -1.0645664930343628,
            1.323203682899475,
            -1.1318068504333496,
            0.8469502329826355,
            1.3869109153747559,
            -1.303370475769043,
            1.2882556915283203,
            -1.3259670734405518,
            -0.909967303276062,
            -0.8282514214515686,
            1.082160234451294,
            1.3916370868682861,
            -0.8309271335601807,
            1.393155813217163,
            -0.2995133697986603,
            1.4587212800979614,
            1.133313775062561,
            0.8528748750686646,
            1.105648398399353,
            -0.9614965915679932,
            1.3792619705200195,
            -1.1182488203048706,
            0.464731901884079,
            -1.3252804279327393,
            -1.4705332517623901,
            1.2363126277923584,
            -1.2846407890319824,
            -1.1489951610565186,
            0.5162472724914551,
            1.4525930881500244,
            -0.5660889744758606,
            1.0705024003982544,
            1.5545097589492798,
            1.371301531791687,
            -0.9413533210754395,
            0.912589430809021,
            1.4534146785736084,
            -1.2874755859375,
            -0.9020381569862366,
            -1.1968615055084229,
            1.4065330028533936,
            1.3090749979019165,
            -0.3363496959209442,
            1.2197269201278687,
            0.2573297321796417,
            1.5197644233703613,
            -1.2877638339996338,
            -1.0435703992843628,
            -1.2257411479949951,
            1.2003059387207031,
            -1.4016649723052979,
            -0.9285162091255188,
            -1.206174373626709,
            -1.0636370182037354,
            -0.8992929458618164,
            1.3231297731399536,
            1.3629601001739502,
            -0.8232253789901733,
            0.060553956776857376,
            -0.70998615026474,
            1.3830989599227905,
            -1.1531519889831543,
            -0.9585036039352417,
            -0.8276880979537964,
            1.4007879495620728,
            -1.1536351442337036,
            -0.8939350247383118,
            -0.5891428589820862,
            -0.7386935949325562,
            -0.8334189653396606,
            -1.4123830795288086,
            -1.2434371709823608,
            1.0423237085342407,
            -1.0711755752563477,
            -0.9043290615081787,
            -1.1460994482040405,
            -0.8745973110198975,
            -0.6707199215888977,
            -0.3076373040676117,
            1.0172497034072876,
            1.2583153247833252,
            -1.4294606447219849,
            -0.9648682475090027,
            1.5117992162704468,
            -0.9341360926628113,
            1.1410022974014282,
            1.3309085369110107,
            1.3632785081863403,
            0.997171938419342,
            -1.4792730808258057,
            1.4624288082122803,
            1.5040141344070435,
            0.5708460211753845,
            -1.3605626821517944,
            -1.0110129117965698,
            1.2716416120529175,
            -1.2103908061981201,
            -1.1002631187438965,
            1.3579822778701782,
            0.8731889724731445,
            -1.4711360931396484,
            1.247260332107544,
            1.5347192287445068,
            1.563358187675476,
            0.7418711185455322,
            -1.3678821325302124,
            1.5088019371032715,
            -1.2562376260757446,
            1.5354053974151611,
            1.3432375192642212,
            1.2451978921890259,
            -1.2036339044570923,
            -1.0324537754058838,
            -1.332175850868225,
            1.115167260169983,
            -1.4323194026947021,
            1.1430240869522095,
            1.363189697265625,
            0.17958088219165802,
            1.5110483169555664,
            1.1980104446411133,
            1.076192021369934,
            1.5117220878601074,
            0.4214312434196472,
            1.4591666460037231,
            0.8800858855247498,
            0.7812880873680115,
            0.3409186899662018,
            0.6020374894142151,
            1.1670215129852295,
            1.3275820016860962,
            0.6745643019676208,
            1.3509012460708618,
            0.729738175868988,
            1.170850157737732,
            0.43751731514930725,
            0.8997416496276855,
            0.9671254754066467,
            1.4919509887695312,
            0.719462513923645,
            0.67966628074646,
            0.876494288444519,
            0.47733861207962036,
            0.7801678776741028,
            1.5916575193405151,
            1.1059218645095825,
            0.5204675197601318,
            1.5470296144485474,
            1.0061023235321045,
            0.5033179521560669,
            0.6097897291183472,
            0.3076695203781128,
            1.4604558944702148,
            0.7103471755981445,
            1.1896613836288452,
            0.26571959257125854,
            0.7243918180465698,
            1.3670430183410645,
            0.6576519012451172,
            0.6076231002807617,
            1.1596375703811646,
            1.1783764362335205,
            1.3084449768066406,
            0.7047654390335083,
            1.6072618961334229,
            0.5954978466033936,
            0.42245087027549744,
            1.485100269317627,
            0.6310195922851562,
            1.3534693717956543,
            0.6002677083015442,
            0.9848757386207581,
            1.0332833528518677,
            1.0951846837997437,
            0.45654475688934326,
            1.1480364799499512,
            0.34613874554634094,
            0.36995643377304077,
            1.1872823238372803,
            1.1002206802368164,
            0.43472859263420105,
            0.8745015859603882,
            0.9321851134300232,
            -0.18510228395462036,
            -0.039527859538793564,
            0.08338344097137451,
            0.06551790237426758,
            0.13609759509563446,
            0.05212494358420372,
            -0.06532201915979385,
            0.09986033290624619,
            -0.19739651679992676,
            0.0332963690161705,
            0.046166062355041504,
            0.011731329374015331,
            0.08063219487667084,
            0.13615454733371735,
            0.14987525343894958,
            -0.15353459119796753,
            -0.1544136106967926,
            0.0703752338886261,
            -0.07588568329811096,
            -0.07499734312295914,
            -0.03226223215460777,
            0.09521524608135223,
            0.0791502445936203,
            -0.15276512503623962,
            0.16222412884235382,
            0.03812408819794655,
            -0.01856587640941143,
            -0.004612911492586136,
            -0.27341872453689575,
            -0.03437785059213638,
            -0.20700418949127197,
            -0.17728115618228912,
            -0.0262768417596817,
            -0.17632749676704407,
            -0.1113007664680481,
            -0.2989378273487091,
            -0.015617087483406067,
            -0.15363527834415436,
            -0.1384929120540619,
            -0.07884666323661804,
            0.01564081385731697,
            -0.05999729409813881,
            -0.23188993334770203,
            -0.03155780956149101,
            0.004661310464143753,
            -0.2396978884935379,
            0.12178043276071548,
            0.12587547302246094,
            0.06616536527872086,
            0.14292368292808533,
            0.05313119664788246,
            -0.2734282314777374,
            0.07334505766630173,
            0.12337709963321686,
            -0.1285790205001831,
            -0.0008607527706772089,
            0.09749231487512589,
            0.1902000904083252,
            6.306485738605261e-05,
            0.06459520012140274,
            -0.18325160443782806,
            -0.0668027251958847,
            0.010638227686285973,
            -0.054469555616378784,
            0.8552350997924805,
            1.0380538702011108,
            0.9059133529663086,
            0.9949750900268555,
            0.9070596098899841,
            0.8802289366722107,
            0.967147946357727,
            0.7972304821014404,
            0.9591891765594482,
            0.8229499459266663,
            0.9227744936943054,
            0.9930756092071533,
            1.0802603960037231,
            0.966029703617096,
            1.0299010276794434,
            0.944202721118927,
            0.8414968848228455,
            0.9599212408065796,
            0.8110796809196472,
            0.8934651017189026,
            1.059277892112732,
            0.8875656127929688,
            0.8556195497512817,
            0.8950486779212952,
            0.8059528470039368,
            1.0285537242889404,
            0.9497219920158386,
            0.8658642768859863,
            0.8249238133430481,
            1.0027674436569214,
            0.7690039277076721,
            0.8480024933815002,
            1.0213055610656738,
            0.958082914352417,
            0.8018768429756165,
            0.9402561187744141,
            0.8966562747955322,
            0.850487470626831,
            0.8819066286087036,
            0.8589798808097839,
            0.9805959463119507,
            0.835475742816925,
            0.7391758561134338,
            0.7958558201789856,
            0.8571822643280029,
            0.9517021775245667,
            0.9469413161277771,
            1.0884121656417847,
            0.9126235246658325,
            0.8423535823822021,
            1.0197709798812866,
            0.8513810038566589,
            1.0189135074615479,
            0.9102258086204529,
            0.9500343203544617,
            1.051567792892456,
            0.969697892665863,
            0.972700297832489,
            1.0033308267593384,
            0.8947761654853821,
            0.7087502479553223,
            0.965207040309906,
            0.8472512364387512,
            1.0085088014602661,
            -0.1398209184408188,
            0.8193285465240479
        ]
    },
    "discriminator": {
        "num_inputs": 2,
        "num_outputs": 1,
        "num_hidden_layers": 1,
        "neurons_per_hidden_layer": 64,
        "hidden_layer_activation_function": "relu",
        "final_layer_activation_function": "sigmoid",
        "bias": true,
        "weights": [
            -0.5624945759773254,
            0.0607183463871479,
            -0.6602710485458374,
            0.30296382308006287,
            -0.6459622383117676,
            -0.3003983795642853,
            0.4494054913520813,
            -0.5837571024894714,
            0.1427893191576004,
            0.3014579117298126,
            0.27119380235671997,
            -0.3566039800643921,
            -0.4374503493309021,
            -0.3950367569923401,
            0.7537045478820801,
            -0.20558175444602966,
            0.41715705394744873,
            0.2028525322675705,
            -0.6033758521080017,
            0.4612547755241394,
            0.19587154686450958,
            0.5323014855384827,
            -0.9522705078125,
            -0.23809190094470978,
            -0.3747544288635254,
            0.6628625988960266,
            0.610089123249054,
            0.2758326232433319,
            0.5231505632400513,
            -0.248177170753479,
            -0.07210428267717361,
            0.3935498595237732,
            0.14405538141727448,
            0.2537142336368561,
            0.3357313573360443,
            0.1362682282924652,
            0.2021869271993637,
            0.23576313257217407,
            0.21248175203800201,
            -0.3310532867908478,
            0.4610421061515808,
            0.685402512550354,
            0.01794445514678955,
            -0.28898465633392334,
            0.29950299859046936,
            -0.4333058297634125,
            0.22220419347286224,
            -0.5533443689346313,
            0.08532267808914185,
            -0.49516165256500244,
            0.3889695107936859,
            0.5438398122787476,
            -0.2788902819156647,
            0.3233402371406555,
            -0.23823648691177368,
            0.002603502944111824,
            -0.3435222804546356,
            0.030201632529497147,
            0.7221633791923523,
            0.28754979372024536,
            0.3526679277420044,
            0.4778722822666168,
            -0.6800077557563782,
            -0.34523630142211914,
            -0.498665452003479,
            0.023718994110822678,
            0.3766091465950012,
            0.2688038647174835,
            -0.3193986415863037,
            0.013992703519761562,
            -0.05307435616850853,
            0.7473166584968567,
            -0.6204357743263245,
            0.44336098432540894,
            0.4276975691318512,
            0.5999743342399597,
            0.14666706323623657,
            0.5541934967041016,
            -0.11165142059326172,
            0.575056791305542,
            0.6662085652351379,
            -0.024397362023591995,
            0.20023603737354279,
            0.05275269225239754,
            0.3571915030479431,
            -0.6050506830215454,
            -0.43632423877716064,
            -0.5911790728569031,
            0.18087491393089294,
            0.31476640701293945,
            -0.27953413128852844,
            0.01595696620643139,
            -0.426857590675354,
            -0.4602135419845581,
            -0.07322445511817932,
            0.3579254448413849,
            0.6017248630523682,
            -0.30852267146110535,
            -0.3641747832298279,
            -0.5153031945228577,
            0.6570594906806946,
            -0.5554947257041931,
            0.382417231798172,
            0.7192564606666565,
            0.024315329268574715,
            0.1963057518005371,
            -0.21132723987102509,
            -0.6817009449005127,
            0.034074634313583374,
            0.1219901591539383,
            0.2774933874607086,
            0.19285444915294647,
            -0.19716480374336243,
            -0.2254674881696701,
            -0.3800537586212158,
            -0.7475813627243042,
            0.015128612518310547,
            -0.5982078909873962,
            -0.8893962502479553,
            -0.34770432114601135,
            0.36808690428733826,
            0.08634153753519058,
            -0.1584193855524063,
            -0.6140097379684448,
            0.36749425530433655,
            -0.2814025282859802,
            0.11711014062166214,
            -0.08187717199325562,
            -0.03259448707103729,
            -0.16089549660682678,
            -0.52467280626297,
            0.1656050980091095,
            -0.3226746618747711,
            -0.45871102809906006,
            0.004227872006595135,
            0.1653396338224411,
            0.07371354103088379,
            -0.07468713819980621,
            -0.20940853655338287,
            0.4714466333389282,
            0.00706403749063611,
            -0.3112241327762604,
            0.6199151873588562,
            -0.11382743716239929,
            0.010858315974473953,
            -0.057111527770757675,
            0.21617648005485535,
            -0.014208017848432064,
            -0.4073658585548401,
            -0.4994323253631592,
            -0.5002928972244263,
            0.25233954191207886,
            -0.6184061765670776,
            -0.3306541442871094,
            0.05245206877589226,
            1.0866576433181763,
            0.2919231355190277,
            0.22028401494026184,
            -0.3731642961502075,
            -0.6023058295249939,
            0.08970686793327332,
            -0.047163017094135284,
            0.1498817801475525,
            0.02774769999086857,
            -0.136355921626091,
            -0.20142003893852234,
            -0.4406038522720337,
            -0.3817357122898102,
            -0.6518908143043518,
            0.010042968206107616,
            0.37910953164100647,
            -0.6861892938613892,
            -0.3348923623561859,
            -0.06461197882890701,
            0.11447804421186447,
            -0.08053138107061386,
            -0.07054692506790161,
            0.5267702341079712,
            0.27320995926856995,
            0.07002433389425278,
            -0.2768672704696655,
            0.5914031267166138,
            0.08041518926620483,
            -0.26203200221061707,
            0.07453349232673645,
            0.16994354128837585,
            -0.380633145570755,
            0.6981240510940552,
            0.302425354719162,
            0.22518298029899597,
            0.7883896827697754,
            -0.050245512276887894,
            -0.44135338068008423,
            0.32870393991470337,
            0.10747146606445312,
            -0.08866859972476959,
            0.3523784577846527,
            -0.0145792281255126,
            -0.04869292303919792,
            -0.11670666188001633,
            -0.36092329025268555,
            0.253185510635376,
            -0.2391980141401291,
            -0.23009422421455383,
            -0.3228265643119812,
            -0.12571218609809875,
            -0.07759330421686172,
            0.3877444565296173,
            -0.1928558200597763,
            -0.2976369261741638,
            0.2695161700248718,
            0.07471787929534912,
            -0.0984947457909584,
            -0.060119181871414185,
            -0.08257779479026794,
            0.07345777004957199,
            -0.11888496577739716,
            0.2723362445831299,
            -0.3264580965042114,
            0.19981065392494202,
            -0.31170526146888733,
            -0.32457858324050903,
            0.37537169456481934,
            -0.10047666728496552,
            -0.40508538484573364,
            0.4303129315376282,
            -0.11604291200637817,
            -0.19575169682502747,
            0.3060319423675537,
            0.16233351826667786,
            0.3535740375518799,
            -0.08598602563142776,
            -0.33185437321662903,
            -0.3269149661064148,
            0.04837336763739586,
            0.030858784914016724,
            0.4608505070209503,
            -0.3249421715736389,
            0.07132190465927124,
            -0.366828054189682,
            -0.13708186149597168,
            0.027589919045567513,
            -0.0077085671946406364,
            -0.27322763204574585,
            -0.2974082827568054,
            0.021498624235391617,
            -0.33113589882850647,
            -0.23038004338741302,
            0.023822536692023277,
            0.03072180785238743,
            -0.05214376747608185,
            -0.16326859593391418,
            -0.22345247864723206,
            -0.1504555642604828,
            -0.24115803837776184,
            0.08396152406930923,
            0.5028992295265198
        ]
    }
}