{
    "num_epochs": 5000,
    "batch_size": 64,
    "final_loss": 18.123759905497234,
    "train_data_exp_dir_path": "data/scp_train_data_non_norm",
    "encoder": {
        "num_inputs": 2,
        "num_outputs": 2,
        "num_hidden_layers": 1,
        "neurons_per_hidden_layer": 64,
        "hidden_layer_activation_function": "relu",
        "final_layer_activation_function": null,
        "bias": true,
        "weights": [
            0.3232113718986511,
            -0.2575477659702301,
            0.36508676409721375,
            0.14379936456680298,
            -0.04667389392852783,
            -0.008707193657755852,
            0.3361157774925232,
            -0.2698458731174469,
            0.6152897477149963,
            0.14708562195301056,
            0.1190231442451477,
            -0.247327983379364,
            0.6718989014625549,
            -0.05132347345352173,
            0.6613126993179321,
            0.5009346008300781,
            0.47015267610549927,
            -0.47014111280441284,
            -0.2052113115787506,
            0.36454397439956665,
            -0.20714071393013,
            -0.37949424982070923,
            0.35461705923080444,
            -0.6812285780906677,
            -0.33573466539382935,
            0.4783776104450226,
            0.5410439372062683,
            -0.6255421042442322,
            -0.5515345931053162,
            -0.4559026062488556,
            -0.16096992790699005,
            0.054186008870601654,
            0.5552752614021301,
            -0.6551834344863892,
            0.04779296740889549,
            0.34415191411972046,
            -0.1342417597770691,
            -0.4830394387245178,
            0.4701260030269623,
            0.34834054112434387,
            0.0009928345680236816,
            -0.09398436546325684,
            -0.13527292013168335,
            -0.12803691625595093,
            -0.5559674501419067,
            -0.48074355721473694,
            -0.19954542815685272,
            -0.03751501813530922,
            -0.297842413187027,
            -0.6999744176864624,
            0.5672120451927185,
            -0.09768873453140259,
            -0.5372198820114136,
            -0.48616260290145874,
            -0.058106083422899246,
            0.5184780955314636,
            0.11852184683084488,
            0.0006222384399734437,
            0.26697391271591187,
            -0.11067813634872437,
            0.29721519351005554,
            0.19303271174430847,
            -0.3050217926502228,
            -0.2155044972896576,
            -0.6592180728912354,
            0.5826265811920166,
            0.04554468393325806,
            0.03307405859231949,
            -0.6189509630203247,
            -0.31541603803634644,
            0.44476595520973206,
            0.2849258482456207,
            0.3688400685787201,
            -0.007350691594183445,
            0.3104063868522644,
            -0.5365972518920898,
            0.42179960012435913,
            -0.6029163002967834,
            -0.243119478225708,
            0.49224212765693665,
            0.5114661455154419,
            0.3817286789417267,
            0.3945079445838928,
            -0.6012207269668579,
            0.6791121363639832,
            -0.6119750142097473,
            -0.13921809196472168,
            0.09279118478298187,
            -0.5795856714248657,
            -0.12038052082061768,
            -0.49342823028564453,
            -0.0976635292172432,
            0.42583468556404114,
            -0.008982681669294834,
            -0.2027716338634491,
            -0.04685503989458084,
            -0.7036528587341309,
            -0.3659306466579437,
            0.4847906529903412,
            0.007875775918364525,
            -0.6760610342025757,
            -0.1879900097846985,
            -0.6498925685882568,
            -0.232263445854187,
            0.20590360462665558,
            0.3523115813732147,
            -0.6164022088050842,
            0.13995672762393951,
            -0.2671410143375397,
            0.4943401515483856,
            0.5693695545196533,
            0.0631529837846756,
            0.15243659913539886,
            -0.00278562493622303,
            -0.22635528445243835,
            -0.48297396302223206,
            0.38530999422073364,
            0.5486840009689331,
            1.3056070804595947,
            -0.011227895505726337,
            0.5780242085456848,
            0.17997725307941437,
            -0.09470663219690323,
            -0.01708993688225746,
            0.4369714856147766,
            -0.6317907571792603,
            0.23217301070690155,
            0.06325655430555344,
            -0.2848151624202728,
            -0.7215800285339355,
            -0.004685659892857075,
            -0.5967717170715332,
            0.5627425312995911,
            0.33140188455581665,
            0.12453407049179077,
            0.0012037762207910419,
            -0.2292630970478058,
            -0.03877650201320648,
            0.41216641664505005,
            0.3216286301612854,
            0.8485988974571228,
            0.270496129989624,
            -0.4156293570995331,
            -0.23215624690055847,
            -0.581199049949646,
            0.30476894974708557,
            -0.39494428038597107,
            -1.0259732007980347,
            -0.47653695940971375,
            -0.46865028142929077,
            -0.3835867941379547,
            -0.37786948680877686,
            0.41907256841659546,
            -0.6228382587432861,
            0.3095330595970154,
            -1.1322803497314453,
            1.1940807104110718,
            0.1377885937690735,
            -0.18024484813213348,
            0.6996951699256897,
            -0.3148197531700134,
            0.35361605882644653,
            0.32307153940200806,
            -0.5449580550193787,
            -0.5992836356163025,
            0.49217480421066284,
            0.12719082832336426,
            -0.6246431469917297,
            0.12105227261781693,
            -0.3626541495323181,
            -0.10803920030593872,
            -0.40610653162002563,
            -0.6566585898399353,
            -0.5301992893218994,
            -0.5866139531135559,
            -0.7222186923027039,
            0.442147433757782,
            -0.9793912768363953,
            0.5142044425010681,
            -0.39454516768455505,
            -1.1521676778793335,
            0.8262519836425781,
            -0.9750659465789795,
            0.9136607646942139,
            -0.4891853332519531,
            -0.3669801950454712,
            0.9506481885910034,
            0.10082963109016418,
            -0.29053372144699097,
            -0.12102541327476501,
            0.2633323073387146,
            -0.6242048740386963,
            -0.027770191431045532,
            -0.0924416035413742,
            0.018649116158485413,
            0.021496251225471497,
            0.18630634248256683,
            -0.06263825297355652,
            0.07139232754707336,
            -0.0564834363758564,
            0.08181890845298767,
            0.015136071480810642,
            -0.04934015870094299,
            -0.01701381802558899,
            -0.12970568239688873,
            0.06473653018474579,
            -0.10403886437416077,
            -0.09307238459587097,
            -0.05133524537086487,
            -0.09425180405378342,
            0.026996329426765442,
            0.086397185921669,
            0.08448530733585358,
            -0.05503778159618378,
            -0.09540903568267822,
            -0.021665597334504128,
            -0.030475661158561707,
            -0.020128920674324036,
            -0.06565126776695251,
            0.026625458151102066,
            0.08146420866250992,
            0.060659125447273254,
            0.05290476977825165,
            -0.03699265420436859,
            -0.03176185116171837,
            -0.051457032561302185,
            -0.08083181083202362,
            0.044874321669340134,
            0.01602371409535408,
            0.09361124038696289,
            -0.08726032078266144,
            0.0861789733171463,
            -0.030776578933000565,
            -0.07352960109710693,
            -0.1066778153181076,
            -0.06458227336406708,
            -0.03847631812095642,
            0.05315881222486496,
            8.677971345605329e-05,
            -0.011574053205549717,
            -0.05328302085399628,
            0.024945424869656563,
            0.004684820771217346,
            0.07857732474803925,
            0.05632603168487549,
            -0.08870568126440048,
            -0.0452093742787838,
            -0.08881229907274246,
            -0.01943410560488701,
            -0.11858545243740082,
            -0.061867691576480865,
            0.1336892545223236,
            -0.08472573757171631,
            0.0309009850025177,
            0.083580881357193,
            -0.011828238144516945,
            0.010064810514450073,
            0.11062530428171158,
            -0.009569226764142513,
            -0.009502977132797241,
            -0.11619477719068527,
            -0.08354496955871582,
            -0.017095565795898438,
            0.10705697536468506,
            0.10247276723384857,
            -0.059359386563301086,
            0.03969991207122803,
            -0.038335561752319336,
            -0.02780299261212349,
            -0.10282117128372192,
            0.0449637770652771,
            0.03784823790192604,
            -0.0958850085735321,
            -0.09094422310590744,
            -0.09836280345916748,
            0.1249755248427391,
            -0.11105966567993164,
            0.006575226783752441,
            0.08510953187942505,
            -0.005836656782776117,
            -0.08031287789344788,
            0.0840650200843811,
            0.07611522078514099,
            0.07047626376152039,
            -0.08806902915239334,
            0.08813901245594025,
            -0.009622479788959026,
            -0.038968801498413086,
            0.10355892777442932,
            -0.015462014824151993,
            0.07344044744968414,
            0.031227244064211845,
            -0.0008595576509833336,
            0.08317632973194122,
            -0.11282381415367126,
            0.006588302087038755,
            -0.0461265929043293,
            -0.07247856259346008,
            -0.03318113088607788,
            0.08870363980531693,
            0.053773581981658936,
            -0.000980187556706369,
            0.006447639781981707,
            -0.023333994671702385,
            0.0793670117855072,
            0.024957764893770218,
            0.024854212999343872,
            0.10033999383449554,
            0.01286198478192091,
            -0.060848332941532135,
            0.05691510811448097,
            -0.10112430900335312,
            0.021400654688477516,
            -0.015157133340835571,
            -0.020033150911331177,
            -0.02561461739242077,
            0.03566595911979675,
            0.0010382253676652908,
            -0.03484247624874115,
            0.059696946293115616,
            -0.3590696454048157,
            -0.7128020524978638
        ]
    },
    "decoder": {
        "num_inputs": 2,
        "num_outputs": 2,
        "num_hidden_layers": 1,
        "neurons_per_hidden_layer": 64,
        "hidden_layer_activation_function": "relu",
        "final_layer_activation_function": null,
        "bias": true,
        "weights": [
            0.7568397521972656,
            1.291748285293579,
            -0.530593991279602,
            -1.7992976903915405,
            1.212551474571228,
            0.3210803270339966,
            -0.6324170231819153,
            -0.04305122420191765,
            -1.004045844078064,
            -1.430633544921875,
            1.2853552103042603,
            1.425583839416504,
            0.9537774324417114,
            1.4698455333709717,
            -0.19574353098869324,
            -0.29821741580963135,
            1.0295042991638184,
            1.3393495082855225,
            0.02335979975759983,
            -1.2312006950378418,
            1.100200891494751,
            1.5764195919036865,
            2.077500104904175,
            2.1520373821258545,
            1.4214869737625122,
            1.357242465019226,
            1.3119944334030151,
            0.5230175852775574,
            1.3195401430130005,
            0.48317083716392517,
            -0.8404818773269653,
            -3.113360643386841,
            0.7059478163719177,
            1.5956878662109375,
            1.1293368339538574,
            0.4022511839866638,
            1.3558404445648193,
            1.2333511114120483,
            1.3782224655151367,
            0.8147957921028137,
            1.040187954902649,
            -0.10189231485128403,
            1.27003812789917,
            -0.4070054888725281,
            1.5691394805908203,
            0.6870020627975464,
            1.189694881439209,
            1.2784478664398193,
            2.0138461589813232,
            0.491712749004364,
            -1.0249722003936768,
            1.2136043310165405,
            2.137943744659424,
            -0.42092782258987427,
            0.14388969540596008,
            1.353838324546814,
            1.715765118598938,
            0.3380671739578247,
            1.83963942527771,
            1.1054304838180542,
            0.7929227948188782,
            1.036438226699829,
            2.023876905441284,
            2.086966037750244,
            -0.48726654052734375,
            0.9169298410415649,
            0.9569079279899597,
            1.1890432834625244,
            2.2695865631103516,
            1.1368653774261475,
            1.2419744729995728,
            1.0397822856903076,
            1.0876126289367676,
            1.0477346181869507,
            -0.06879711151123047,
            -3.4364264011383057,
            -0.6748783588409424,
            -2.436358690261841,
            -0.9057877659797668,
            -1.9014835357666016,
            1.7502145767211914,
            0.8118637204170227,
            -0.9378048181533813,
            -1.745002031326294,
            0.8905804753303528,
            0.7965079545974731,
            0.6163867115974426,
            1.3941774368286133,
            0.808122456073761,
            -2.8637588024139404,
            -0.525495171546936,
            1.0398811101913452,
            1.4669526815414429,
            0.47975465655326843,
            1.089065432548523,
            0.5101932883262634,
            1.3724806308746338,
            1.491437554359436,
            1.050003170967102,
            0.8025752305984497,
            1.5296132564544678,
            0.5534030795097351,
            1.430971622467041,
            0.7071775794029236,
            -0.08801894634962082,
            0.5062499642372131,
            -0.5047686100006104,
            0.9988419413566589,
            -0.38198626041412354,
            0.025937480852007866,
            1.4214733839035034,
            0.30691418051719666,
            0.669418215751648,
            1.4999098777770996,
            -0.43900009989738464,
            0.8745660781860352,
            0.7451799511909485,
            1.611378788948059,
            1.0496509075164795,
            1.2847137451171875,
            1.4684780836105347,
            1.4488333463668823,
            0.555284857749939,
            -0.12034977227449417,
            1.3642487525939941,
            1.1810165643692017,
            0.9943093061447144,
            0.3690012991428375,
            1.5627155303955078,
            -0.28854721784591675,
            1.5616246461868286,
            -0.67747962474823,
            -0.33969980478286743,
            1.7966152429580688,
            1.9943147897720337,
            -0.6753411293029785,
            1.1715294122695923,
            -0.6443626880645752,
            0.5729437470436096,
            2.6766531467437744,
            0.8555787801742554,
            1.5074323415756226,
            1.7290297746658325,
            -0.1709117889404297,
            1.8994853496551514,
            0.9673802852630615,
            2.006889820098877,
            2.0722403526306152,
            1.9622540473937988,
            1.204097032546997,
            2.210559844970703,
            1.5416016578674316,
            2.285635232925415,
            -0.575638473033905,
            2.959339141845703,
            1.166509747505188,
            1.895483374595642,
            2.3022258281707764,
            0.7102121710777283,
            2.7885372638702393,
            -0.29684972763061523,
            1.0143741369247437,
            2.2337918281555176,
            1.5527725219726562,
            1.0168352127075195,
            -0.05203419551253319,
            -0.009278910234570503,
            -0.15485307574272156,
            2.468984842300415,
            0.09648580104112625,
            0.9205754995346069,
            1.4145004749298096,
            2.182379961013794,
            -0.4287942349910736,
            1.6783835887908936,
            2.1505208015441895,
            1.9935206174850464,
            2.480347156524658,
            1.443503499031067,
            2.4217214584350586,
            -1.5527218580245972,
            -0.39584240317344666,
            -0.6963673830032349,
            1.3047635555267334,
            1.9603195190429688,
            -0.3707160949707031,
            0.4014444053173065,
            1.5391041040420532,
            0.9464846253395081,
            1.8355871438980103,
            1.2638449668884277,
            1.6083518266677856,
            -0.35022255778312683,
            0.5986030101776123,
            0.22188730537891388,
            0.06893926858901978,
            3.199833631515503,
            -0.41019415855407715,
            -0.4570900797843933,
            -0.06228882819414139,
            -0.45477819442749023,
            -1.0073308944702148,
            -0.6346753239631653,
            -0.905786395072937,
            -0.4808473587036133,
            0.019075565040111542,
            0.06490113586187363,
            -1.9371131658554077,
            -0.4680532217025757,
            -0.08908018469810486,
            -0.13789337873458862,
            -0.15440627932548523,
            0.44300559163093567,
            0.5239552855491638,
            0.015566207468509674,
            -0.32164889574050903,
            0.7360958456993103,
            -2.068122625350952,
            1.691941499710083,
            -0.7830348014831543,
            0.1707872897386551,
            0.1301196813583374,
            -0.5257008671760559,
            -0.8396909832954407,
            1.3739818334579468,
            -0.5148435235023499,
            0.2779782712459564,
            -0.28963199257850647,
            -0.4292765259742737,
            -3.088719129562378,
            -1.8667583465576172,
            1.4974464178085327,
            0.14626844227313995,
            -1.1044329404830933,
            -0.28172656893730164,
            -0.7940613627433777,
            2.320147752761841,
            1.2198249101638794,
            -0.10038519650697708,
            0.11804721504449844,
            -0.20845474302768707,
            -0.07564360648393631,
            0.3957673907279968,
            0.12998643517494202,
            2.1308069229125977,
            1.6665408611297607,
            0.03356688842177391,
            0.08325527608394623,
            -0.5295116305351257,
            1.3756788969039917,
            -1.1370278596878052,
            -0.29449108242988586,
            -0.4056493043899536,
            0.6802805066108704,
            -0.22641417384147644,
            0.09583566337823868,
            0.8544922471046448,
            -1.9709068536758423,
            1.1967748403549194,
            -0.10988014191389084,
            -2.5605180263519287,
            0.8171496987342834,
            0.8379506468772888,
            -0.00963551551103592,
            0.779077410697937,
            -0.842979907989502,
            0.5989099144935608,
            2.353513479232788,
            0.7312580347061157,
            0.9419606328010559,
            1.0716756582260132,
            0.81693035364151,
            0.8248261213302612,
            0.6574956178665161,
            0.8563945889472961,
            0.92938631772995,
            0.843533456325531,
            0.9053959250450134,
            0.9229633212089539,
            0.838721513748169,
            2.15684175491333,
            -0.3686008155345917,
            2.281810760498047,
            0.856103777885437,
            1.0555322170257568,
            2.106593608856201,
            0.826862096786499,
            2.256171226501465,
            0.218846395611763,
            0.8660832643508911,
            2.3437983989715576,
            0.8518558144569397,
            0.6812392473220825,
            0.010719399899244308,
            1.0511029958724976,
            -2.1403231620788574,
            1.5877785682678223,
            2.357372283935547,
            0.5720731019973755,
            0.9229884743690491,
            1.337611436843872,
            0.04930134490132332,
            0.9770275354385376,
            1.0834046602249146,
            0.7650004029273987,
            1.2112717628479004,
            1.788802981376648,
            1.5834611654281616,
            -0.12120001018047333,
            0.32569435238838196,
            -0.09926959127187729,
            1.0236495733261108,
            0.8789352774620056,
            -0.04253218322992325,
            0.7477357387542725,
            0.8192368745803833,
            0.7072540521621704,
            1.2589218616485596,
            0.782608151435852,
            0.7137148380279541,
            0.8127341866493225,
            1.3478024005889893
        ]
    }
}