{
    "num_epochs": 2000,
    "batch_size": 64,
    "final_loss": 6.731665372848511,
    "train_data_exp_dir_path": "data/scp_train_data_non_norm",
    "encoder": {
        "num_inputs": 2,
        "num_outputs": 2,
        "num_hidden_layers": 1,
        "neurons_per_hidden_layer": 64,
        "hidden_layer_activation_function": "relu",
        "final_layer_activation_function": null,
        "bias": true,
        "weights": [
            -0.17622695863246918,
            -0.03483062610030174,
            0.33906152844429016,
            0.07634829729795456,
            -0.6277981996536255,
            -0.5880042314529419,
            -0.5934988260269165,
            0.2198019176721573,
            -0.2813114523887634,
            0.27571696043014526,
            -0.6275641322135925,
            -0.1236104965209961,
            0.38586610555648804,
            -0.29702913761138916,
            -0.24837711453437805,
            -0.23987936973571777,
            0.5512526631355286,
            -0.1511991024017334,
            -0.27343255281448364,
            -0.09503567218780518,
            -0.4831211566925049,
            0.16769036650657654,
            0.5709169507026672,
            -0.3646058142185211,
            -0.07010860741138458,
            0.41413503885269165,
            0.06697209179401398,
            0.536350429058075,
            0.30648255348205566,
            0.05428116023540497,
            -0.6614828109741211,
            0.6012097001075745,
            -0.17339780926704407,
            0.3425551652908325,
            0.5515961647033691,
            0.4208866357803345,
            -0.517292857170105,
            -5.0132359319832176e-05,
            0.6848697066307068,
            -0.21280178427696228,
            -0.04391978308558464,
            0.3878365755081177,
            0.6015145778656006,
            0.5653486251831055,
            -0.6094936728477478,
            0.39652061462402344,
            -0.23714418709278107,
            0.5800637006759644,
            0.47169238328933716,
            0.6438673138618469,
            0.550144374370575,
            0.1495443880558014,
            -0.5238573551177979,
            0.13337408006191254,
            0.28251343965530396,
            0.6909610033035278,
            0.05107228830456734,
            0.13077415525913239,
            0.16307616233825684,
            -0.08462750911712646,
            -0.06823018938302994,
            0.4718763828277588,
            -0.1389368623495102,
            0.06845555454492569,
            0.6132388710975647,
            -0.5100304484367371,
            -0.45672672986984253,
            0.6760343909263611,
            -0.6335563063621521,
            0.18498744070529938,
            0.3469558358192444,
            -0.5301663875579834,
            -0.5778486728668213,
            0.3681892454624176,
            0.21493598818778992,
            0.6978474855422974,
            0.7117671966552734,
            0.17236433923244476,
            -0.2518669366836548,
            -0.35631391406059265,
            -0.14723306894302368,
            -0.03464691713452339,
            -0.3573281466960907,
            -0.3294665515422821,
            0.17529326677322388,
            -0.09659653902053833,
            -0.23982642590999603,
            0.41310858726501465,
            -0.025661563500761986,
            0.35859617590904236,
            -0.4389305114746094,
            0.6210263967514038,
            0.599897563457489,
            -0.687107264995575,
            -0.25031161308288574,
            0.26104864478111267,
            0.8158286213874817,
            -0.06006403639912605,
            -0.24268794059753418,
            0.16227269172668457,
            0.21274322271347046,
            -0.5656078457832336,
            0.42769500613212585,
            0.21924105286598206,
            0.29907432198524475,
            0.14929330348968506,
            0.5246991515159607,
            -0.587415337562561,
            -0.30613625049591064,
            -0.12511825561523438,
            0.016420185565948486,
            -0.36274781823158264,
            0.7072174549102783,
            0.15025053918361664,
            -0.23306912183761597,
            -0.22343003749847412,
            -0.18792235851287842,
            0.13990668952465057,
            -0.021664321422576904,
            -0.12248575687408447,
            -0.011934638023376465,
            -0.1123533844947815,
            -0.13717031478881836,
            -0.1799488067626953,
            -0.44858890771865845,
            0.25982654094696045,
            0.08800262212753296,
            -0.23488134145736694,
            0.3867575228214264,
            0.48809462785720825,
            -0.42435991764068604,
            -0.6210162043571472,
            -0.4534026086330414,
            -0.38885626196861267,
            -0.6385228633880615,
            0.22355538606643677,
            -0.28195837140083313,
            -0.6383249759674072,
            -0.7142815589904785,
            -0.6725627779960632,
            0.5715051293373108,
            -0.7240362763404846,
            -0.5581366419792175,
            0.38662558794021606,
            -0.36952778697013855,
            -0.7613105177879333,
            -1.4485046863555908,
            0.32634228467941284,
            -0.5375517010688782,
            -0.3237341344356537,
            -0.40458884835243225,
            0.4724312722682953,
            0.3416331112384796,
            -0.05619317665696144,
            0.07893985509872437,
            -0.558032214641571,
            -0.3412885367870331,
            -0.03843289613723755,
            0.2379569709300995,
            0.22309695184230804,
            -0.275699645280838,
            -0.6886637210845947,
            -0.3476419150829315,
            -0.24438199400901794,
            -0.2288125604391098,
            -0.5447055101394653,
            -0.3771574795246124,
            -0.29723700881004333,
            1.1007975339889526,
            -0.6910005807876587,
            0.365173876285553,
            -0.4338182508945465,
            -0.7398180365562439,
            -0.11345581710338593,
            0.5452719330787659,
            -0.7068472504615784,
            1.2707903385162354,
            0.42035311460494995,
            -0.6054340600967407,
            0.1660531759262085,
            -0.7540629506111145,
            0.44707566499710083,
            -0.5086382031440735,
            0.37811893224716187,
            -0.5156227946281433,
            -0.40389013290405273,
            0.18442046642303467,
            0.014768004417419434,
            -0.429942786693573,
            0.08159184455871582,
            -0.5374792218208313,
            0.5033825039863586,
            0.040690142661333084,
            -0.08961285650730133,
            0.04519262909889221,
            -0.06866717338562012,
            -0.05180155485868454,
            -0.008749902248382568,
            -0.053841620683670044,
            0.026530131697654724,
            -0.023181617259979248,
            -0.07407501339912415,
            -0.10933671146631241,
            0.08594708144664764,
            -0.029157070443034172,
            -0.05916895344853401,
            0.1360909789800644,
            -0.10753380507230759,
            -0.07459928095340729,
            0.06054230406880379,
            0.20059844851493835,
            -0.023067280650138855,
            -0.04382553696632385,
            0.03606975078582764,
            -0.06427177041769028,
            -0.09372473508119583,
            -0.007516535464674234,
            -0.07132205367088318,
            0.10866562277078629,
            0.06421424448490143,
            -0.07764005661010742,
            0.08319735527038574,
            0.006833629682660103,
            0.015760762616991997,
            -0.08298887312412262,
            0.027230937033891678,
            -0.038090016692876816,
            -0.012121722102165222,
            -0.04555116966366768,
            0.07554115355014801,
            0.10619892925024033,
            0.04507768154144287,
            -0.04711344465613365,
            -0.004208117723464966,
            0.0661683976650238,
            0.046430911868810654,
            -0.10030204057693481,
            -0.025086257606744766,
            -0.12360687553882599,
            0.029737865552306175,
            -0.27486810088157654,
            0.1254224181175232,
            -0.060035303235054016,
            -0.0699082463979721,
            -0.030239997431635857,
            -0.08134852349758148,
            -0.07967349886894226,
            0.11943680047988892,
            0.04841827228665352,
            -0.006110534071922302,
            0.11458937078714371,
            0.016405746340751648,
            0.06077189743518829,
            -0.07591460645198822,
            -0.05521779879927635,
            -0.013886883854866028,
            -0.07427182793617249,
            -0.0015863964799791574,
            0.05055423080921173,
            0.07566209882497787,
            0.10046297311782837,
            0.01577453315258026,
            0.0926651805639267,
            -0.0369546115398407,
            0.036561042070388794,
            0.09682144224643707,
            0.12544839084148407,
            0.1111648678779602,
            0.055467043071985245,
            0.01284042838960886,
            0.028226297348737717,
            -0.07055546343326569,
            0.12409000098705292,
            0.12394841015338898,
            0.12956547737121582,
            -0.05538187921047211,
            -0.0175278652459383,
            0.10204610973596573,
            -0.10372119396924973,
            0.01612011529505253,
            -0.09069737046957016,
            0.06360742449760437,
            0.045137640088796616,
            0.12084975838661194,
            -0.0007560516824014485,
            0.08662298321723938,
            0.0841417983174324,
            -0.09966863691806793,
            0.02438311278820038,
            0.03681548312306404,
            0.05490778759121895,
            0.10980750620365143,
            0.037958841770887375,
            -0.09779966622591019,
            0.13285332918167114,
            0.02853091061115265,
            -0.06418720632791519,
            -0.06346191465854645,
            -0.07815013825893402,
            -0.10233183950185776,
            -0.04002256691455841,
            -0.11610632389783859,
            0.03580954670906067,
            -0.019372278824448586,
            0.05898479372262955,
            -0.10294301062822342,
            0.005607813596725464,
            -0.05489960312843323,
            0.006418922450393438,
            0.12179060280323029,
            -0.057895511388778687,
            0.07578687369823456,
            0.009463478811085224,
            -0.008787959814071655,
            -0.050416916608810425,
            0.05528181791305542,
            -0.04135957360267639,
            0.04340547323226929,
            0.09819158911705017,
            0.022619813680648804,
            -0.03441514074802399,
            0.026400649920105934
        ]
    },
    "decoder": {
        "num_inputs": 2,
        "num_outputs": 2,
        "num_hidden_layers": 1,
        "neurons_per_hidden_layer": 64,
        "hidden_layer_activation_function": "relu",
        "final_layer_activation_function": null,
        "bias": true,
        "weights": [
            -1.0162975788116455,
            0.8487409949302673,
            3.038837432861328,
            0.4418204426765442,
            -1.7109946012496948,
            0.4630313217639923,
            -1.8039324283599854,
            -0.3680930435657501,
            0.63450026512146,
            -0.1203937828540802,
            0.9555539488792419,
            0.6580386161804199,
            1.1549670696258545,
            0.8534737229347229,
            -0.803446352481842,
            1.2948827743530273,
            -0.8797729015350342,
            0.5654382109642029,
            -0.942112922668457,
            0.581843912601471,
            0.05994921922683716,
            -0.08659190684556961,
            0.5309242010116577,
            -0.17073583602905273,
            -1.9720572233200073,
            -0.3059903681278229,
            -1.5094385147094727,
            -0.14606928825378418,
            -1.5791841745376587,
            -0.8147788643836975,
            -0.8354119062423706,
            0.49055585265159607,
            -0.8593798279762268,
            0.8218746185302734,
            -1.6162537336349487,
            -0.225224569439888,
            -0.6323063969612122,
            0.4793829917907715,
            2.7250454425811768,
            1.0192089080810547,
            -1.3561216592788696,
            -0.06157848611474037,
            -1.0921404361724854,
            0.5013740062713623,
            -0.5943489074707031,
            -1.1216739416122437,
            -1.4839863777160645,
            0.13197630643844604,
            -0.8612567782402039,
            0.22523654997348785,
            -1.1337555646896362,
            0.1918720155954361,
            1.3336760997772217,
            -1.1677241325378418,
            -1.547931432723999,
            -0.8726014494895935,
            -1.727870225906372,
            -0.05724809691309929,
            -1.537253499031067,
            0.051355261355638504,
            0.12495660036802292,
            0.02294820360839367,
            -1.149953842163086,
            -0.06088080257177353,
            0.5964376330375671,
            -0.8363616466522217,
            -0.6737222075462341,
            0.42442071437835693,
            -1.257633090019226,
            0.09421543031930923,
            -1.2670209407806396,
            -0.41793590784072876,
            -1.1566252708435059,
            0.7349318861961365,
            -0.8565456867218018,
            0.614085853099823,
            -1.6791081428527832,
            -0.7259384989738464,
            -0.1949867308139801,
            1.4447895288467407,
            -1.560062050819397,
            -0.4983244836330414,
            -1.1238453388214111,
            1.1724971532821655,
            0.5994394421577454,
            -0.07604583352804184,
            -1.0893948078155518,
            -1.0828266143798828,
            0.4708344340324402,
            -1.7302358150482178,
            -0.9182304739952087,
            0.2504780888557434,
            -1.712131381034851,
            0.5817835927009583,
            -0.5533506274223328,
            -0.03574153780937195,
            -1.826162338256836,
            -0.13334088027477264,
            -0.6021057963371277,
            0.9330736994743347,
            -1.2715141773223877,
            -0.34591764211654663,
            0.2184683084487915,
            -0.20163972675800323,
            -0.39776936173439026,
            -0.996025562286377,
            -1.2931653261184692,
            -0.0867403969168663,
            -1.3495979309082031,
            1.0974377393722534,
            0.6562097668647766,
            -0.6701481342315674,
            0.07193618267774582,
            -0.06921495497226715,
            -1.0957704782485962,
            -1.0476617813110352,
            -0.917858362197876,
            0.5336732864379883,
            -1.100828766822815,
            0.8112520575523376,
            0.2288428544998169,
            -0.060958489775657654,
            -1.4255462884902954,
            0.3319284915924072,
            -1.715059757232666,
            -0.04372400790452957,
            0.5352957844734192,
            -0.866286039352417,
            1.4416542053222656,
            -0.7202726006507874,
            2.670868158340454,
            2.2721190452575684,
            -0.517541766166687,
            0.5330498218536377,
            0.6316595673561096,
            2.610344648361206,
            1.858940839767456,
            2.135307550430298,
            -0.3331540822982788,
            -0.5335694551467896,
            1.719880223274231,
            1.8208242654800415,
            2.316291332244873,
            2.0326170921325684,
            1.1522756814956665,
            2.4231629371643066,
            1.6340142488479614,
            0.40141165256500244,
            2.5030770301818848,
            0.9319223761558533,
            0.24882280826568604,
            2.1240108013153076,
            1.1169559955596924,
            1.2920091152191162,
            0.3777919113636017,
            1.8159412145614624,
            2.202152729034424,
            1.575893521308899,
            -0.07211358100175858,
            1.7876601219177246,
            -1.1855636835098267,
            1.9192410707473755,
            0.5632700324058533,
            1.2283905744552612,
            2.0756218433380127,
            1.0336430072784424,
            2.255431652069092,
            -0.025143427774310112,
            1.153097152709961,
            1.9935482740402222,
            -0.46650540828704834,
            0.6795709133148193,
            1.0972036123275757,
            0.8247294425964355,
            1.3438823223114014,
            1.1745980978012085,
            1.6040560007095337,
            1.3416563272476196,
            1.7614041566848755,
            -0.4967164397239685,
            1.427089810371399,
            1.975277066230774,
            3.046942710876465,
            -0.9377219080924988,
            -0.2016686052083969,
            0.6121192574501038,
            1.1852864027023315,
            1.5529669523239136,
            -0.272653192281723,
            1.3568577766418457,
            1.5948126316070557,
            -1.2988284826278687,
            0.43051600456237793,
            -0.42741280794143677,
            -0.09533556550741196,
            -0.22843658924102783,
            -0.004774613305926323,
            -1.402499794960022,
            -2.3283472061157227,
            0.5697667002677917,
            0.15002621710300446,
            0.31795457005500793,
            -0.12115053087472916,
            -0.06182720139622688,
            -0.33414655923843384,
            -0.3110044002532959,
            -0.4163138270378113,
            0.1305517852306366,
            0.37723392248153687,
            -0.24291202425956726,
            0.4072142541408539,
            1.631960153579712,
            -0.12738069891929626,
            0.24410846829414368,
            -1.521460771560669,
            0.01659184880554676,
            0.1344839185476303,
            0.04034337028861046,
            0.12148890644311905,
            -0.6242355108261108,
            -0.08315884321928024,
            -0.1909540891647339,
            -0.1352146565914154,
            -0.07983741909265518,
            3.2819032669067383,
            0.5034089684486389,
            0.055994484573602676,
            -0.32186245918273926,
            0.16265171766281128,
            0.38292717933654785,
            -0.5190231800079346,
            -1.9635196924209595,
            -0.37511584162712097,
            0.37970414757728577,
            0.0927530825138092,
            -0.3446684181690216,
            0.0378706231713295,
            0.3025190234184265,
            0.008834730833768845,
            0.3670302629470825,
            -0.10390230268239975,
            0.6738873720169067,
            -0.3051856756210327,
            -0.00920889899134636,
            0.5424145460128784,
            -0.11962032318115234,
            0.2586783468723297,
            2.089782476425171,
            -0.06079215928912163,
            -0.41286954283714294,
            0.2232152819633484,
            0.20486345887184143,
            0.10885585844516754,
            0.043154582381248474,
            -0.18494002521038055,
            3.3163390159606934,
            0.6935620903968811,
            1.303115963935852,
            0.712048351764679,
            0.8845934271812439,
            -0.023892709985375404,
            -0.02147575095295906,
            -0.20211261510849,
            0.8474398851394653,
            0.7599601745605469,
            0.8756715655326843,
            -0.006424505729228258,
            -0.045481231063604355,
            0.8069770336151123,
            1.0677244663238525,
            0.9364745020866394,
            0.8177775740623474,
            0.6014969944953918,
            0.9263149499893188,
            0.9685333371162415,
            -0.34276100993156433,
            1.0165740251541138,
            0.5781606435775757,
            0.8183003067970276,
            0.8180353045463562,
            0.4937478303909302,
            0.9794135689735413,
            0.3071460425853729,
            0.9750206470489502,
            0.7640706896781921,
            0.9506744742393494,
            -0.07610539346933365,
            1.2506695985794067,
            0.9179538488388062,
            0.984933614730835,
            0.37735599279403687,
            0.9267759919166565,
            0.7165186405181885,
            0.6536847352981567,
            0.9204655289649963,
            -1.3888975381851196,
            0.8738033175468445,
            0.8792741894721985,
            -0.0808691456913948,
            1.054233431816101,
            0.5340092182159424,
            0.7546932101249695,
            0.5844924449920654,
            0.5585789084434509,
            0.7349346876144409,
            0.48874548077583313,
            0.9237895011901855,
            0.11756070703268051,
            1.1066627502441406,
            0.8418282270431519,
            1.2292304039001465,
            -0.36134418845176697,
            -0.015749190002679825,
            1.1114678382873535,
            0.6945188641548157,
            0.7037939429283142,
            -0.058752045035362244,
            0.6839058995246887,
            0.7286105751991272,
            0.9111986756324768,
            -0.199757382273674,
            0.9960601329803467
        ]
    }
}