{
    "num_epochs": 20000,
    "batch_size": 1000,
    "final_loss": 5.479092597961426,
    "train_data_exp_dir_path": "data/scp_train_data_non_norm",
    "encoder": {
        "num_inputs": 2,
        "num_outputs": 2,
        "num_hidden_layers": 1,
        "neurons_per_hidden_layer": 64,
        "hidden_layer_activation_function": "relu",
        "final_layer_activation_function": null,
        "bias": true,
        "weights": [
            0.6248181462287903,
            -0.19975489377975464,
            -0.06414724886417389,
            0.5150357484817505,
            -0.43452659249305725,
            -0.6082547307014465,
            1.7028229236602783,
            0.07514631003141403,
            0.4309597611427307,
            -0.37413376569747925,
            0.6025195717811584,
            -0.4338633716106415,
            0.2049860954284668,
            -0.5268541574478149,
            -0.08970499783754349,
            0.11366353183984756,
            -0.6558405160903931,
            -0.37720003724098206,
            0.5425590872764587,
            -0.6575654149055481,
            0.17730332911014557,
            0.5909820199012756,
            -0.3769213557243347,
            -0.17490291595458984,
            0.6456746459007263,
            0.3597463071346283,
            -0.19338910281658173,
            0.14586442708969116,
            0.4114966094493866,
            0.2443346232175827,
            -0.7341962456703186,
            0.5945926904678345,
            0.17425739765167236,
            -0.4443510174751282,
            -0.13309045135974884,
            0.10352849960327148,
            0.2835138142108917,
            0.33858776092529297,
            0.43827563524246216,
            -0.24969014525413513,
            0.8226553797721863,
            0.6987596154212952,
            -0.6261998414993286,
            -0.1699894666671753,
            0.05499064922332764,
            -0.48844051361083984,
            0.33629071712493896,
            0.33355557918548584,
            0.1059766411781311,
            -0.053405940532684326,
            0.41445666551589966,
            0.21222199499607086,
            -0.13827627897262573,
            -0.5243710279464722,
            -0.5138534903526306,
            0.5505267381668091,
            -0.2501589059829712,
            0.0370587557554245,
            0.32625097036361694,
            -0.15345311164855957,
            -0.03948291391134262,
            0.07754123955965042,
            0.37492635846138,
            0.56540447473526,
            -0.7265599370002747,
            0.1354210376739502,
            -0.7506418824195862,
            0.3910791277885437,
            0.27844005823135376,
            0.522872269153595,
            -0.3262464702129364,
            0.31953030824661255,
            0.0657828226685524,
            0.5098369717597961,
            0.44284042716026306,
            0.2552323043346405,
            0.57073974609375,
            0.23242144286632538,
            -0.054668162018060684,
            0.04973450303077698,
            -0.21988743543624878,
            -0.6133421659469604,
            -0.38411620259284973,
            -0.0013781699817627668,
            0.05721485614776611,
            -0.10004812479019165,
            -0.3284725546836853,
            0.2480262666940689,
            0.692506730556488,
            -0.5213248133659363,
            0.28840070962905884,
            -0.30327868461608887,
            0.014285360462963581,
            0.5827520489692688,
            0.17202633619308472,
            -0.4137633740901947,
            0.1534627377986908,
            0.1946328580379486,
            0.002018213039264083,
            0.6314868927001953,
            -0.5409260392189026,
            0.0820789709687233,
            0.015599668025970459,
            -0.10732746124267578,
            0.8450127243995667,
            0.4866350293159485,
            -0.26637741923332214,
            0.29531407356262207,
            -0.36536839604377747,
            -0.6709434986114502,
            0.3322332799434662,
            0.3115106523036957,
            -0.04217636585235596,
            -0.6766261458396912,
            -0.3355884552001953,
            -0.7021913528442383,
            -0.19859470427036285,
            0.042688678950071335,
            0.3863756060600281,
            -0.10849219560623169,
            0.9550377726554871,
            0.44268789887428284,
            0.6560990810394287,
            0.060354288667440414,
            0.44111722707748413,
            -0.7048627138137817,
            -0.08611749857664108,
            0.13694451749324799,
            0.09792912006378174,
            0.5225942730903625,
            0.6622853875160217,
            0.20239156484603882,
            -0.506121039390564,
            0.4318975806236267,
            -0.1920115351676941,
            -0.1657252311706543,
            -0.14237433671951294,
            0.47592073678970337,
            -0.5310577750205994,
            -0.012383699417114258,
            1.0497483015060425,
            0.5305624008178711,
            0.14023832976818085,
            0.07264132052659988,
            0.012822151184082031,
            -0.8566982746124268,
            0.23594187200069427,
            -0.2789536416530609,
            0.7486569881439209,
            -0.43274766206741333,
            0.45747894048690796,
            -0.6612073183059692,
            -0.5674110651016235,
            0.0876460075378418,
            0.5292051434516907,
            -1.00874924659729,
            1.3265900611877441,
            0.24230998754501343,
            0.1276727318763733,
            0.4023723602294922,
            -0.09994474053382874,
            -0.1962195187807083,
            -0.6546655297279358,
            0.7832257151603699,
            0.012272736988961697,
            -0.6542328000068665,
            -0.08738213777542114,
            0.8905778527259827,
            0.5351867079734802,
            0.12341825664043427,
            0.39794355630874634,
            -0.7896561026573181,
            -0.0592116117477417,
            0.13501453399658203,
            -0.2178487330675125,
            0.31638890504837036,
            -0.4133431911468506,
            0.12991812825202942,
            0.8371447920799255,
            -0.5102595686912537,
            0.20933720469474792,
            -0.10590694844722748,
            -0.6915915608406067,
            -0.30449843406677246,
            -0.04426068067550659,
            0.002085864543914795,
            0.14042207598686218,
            -0.4261492192745209,
            0.9696202874183655,
            -0.5968493223190308,
            0.40566307306289673,
            -0.40410706400871277,
            -0.0008517056703567505,
            0.06523699313402176,
            0.03301370143890381,
            -0.12472925335168839,
            -0.11613643169403076,
            -0.014920666813850403,
            -0.0004921406507492065,
            -0.11407853662967682,
            -0.09936925768852234,
            -0.08887933194637299,
            -0.12520259618759155,
            -0.102760449051857,
            -0.04646727070212364,
            0.09927032142877579,
            -0.08594156056642532,
            -0.0005736019229516387,
            -0.056004270911216736,
            -0.01222870871424675,
            -0.08815676718950272,
            0.11859852075576782,
            -0.06306400150060654,
            0.11220023036003113,
            0.0024151504039764404,
            -0.02081652358174324,
            0.07260134816169739,
            -0.13932836055755615,
            0.0014208853244781494,
            0.0426027849316597,
            0.16654519736766815,
            -0.07348260283470154,
            -0.1253771036863327,
            0.07746835798025131,
            0.05040301755070686,
            0.0206174124032259,
            -0.03833432495594025,
            -0.03464650735259056,
            -0.05547857657074928,
            0.09371732920408249,
            0.050068892538547516,
            -0.10850691050291061,
            -0.027068838477134705,
            -0.040727946907281876,
            -0.00846235454082489,
            0.029358377680182457,
            0.00026251375675201416,
            -0.04136137664318085,
            -0.07119160890579224,
            0.04464004933834076,
            0.08812714368104935,
            0.005585991777479649,
            0.1277560591697693,
            0.12398216128349304,
            -0.10141505300998688,
            0.05924975499510765,
            -0.01598823070526123,
            0.07254130393266678,
            0.010308310389518738,
            0.04481767117977142,
            0.03457440063357353,
            -0.02218012511730194,
            0.044335655868053436,
            0.1121436282992363,
            -0.0189732164144516,
            0.09901753813028336,
            0.01995159685611725,
            -0.008734018541872501,
            0.08175726234912872,
            -0.14962321519851685,
            -0.0380045622587204,
            0.05130481719970703,
            0.05619281530380249,
            0.10988657921552658,
            -0.051617249846458435,
            -0.09227944910526276,
            0.04001569747924805,
            0.016359373927116394,
            -0.07196997851133347,
            -0.011551737785339355,
            0.051808979362249374,
            0.10705484449863434,
            -0.059053391218185425,
            0.0309419147670269,
            -0.0034503962378948927,
            -0.04767520725727081,
            -0.08218155801296234,
            -0.12202969193458557,
            -0.0520251989364624,
            0.0881400778889656,
            -0.0993088036775589,
            -0.014493816532194614,
            -0.0808708518743515,
            0.08145137876272202,
            -0.3343237340450287,
            0.09414376318454742,
            0.07203886657953262,
            0.023780766874551773,
            0.10363908112049103,
            0.05346887931227684,
            0.15040378272533417,
            0.0004922982770949602,
            0.13737083971500397,
            0.05796948820352554,
            -0.07580333203077316,
            -0.05419880151748657,
            0.07304447889328003,
            -0.07094726711511612,
            -0.039002031087875366,
            0.07589711248874664,
            -0.08910477161407471,
            -0.10744550824165344,
            0.14162975549697876,
            0.12365283071994781,
            0.07127365469932556,
            0.054797351360321045,
            -0.288295179605484,
            -0.09905284643173218,
            -0.10326837748289108,
            0.12784895300865173,
            -0.02701057493686676,
            0.04993792250752449,
            0.024645626544952393,
            0.06936335563659668,
            -0.05688275396823883,
            0.04079215228557587,
            -0.06821601092815399,
            -0.08980157971382141,
            0.03540746867656708,
            0.13575246930122375,
            -0.22051553428173065,
            -0.6432706713676453
        ]
    },
    "decoder": {
        "num_inputs": 2,
        "num_outputs": 2,
        "num_hidden_layers": 1,
        "neurons_per_hidden_layer": 64,
        "hidden_layer_activation_function": "relu",
        "final_layer_activation_function": null,
        "bias": true,
        "weights": [
            -0.25403717160224915,
            1.2771302461624146,
            0.48035839200019836,
            1.3750258684158325,
            -0.4739074110984802,
            1.4960925579071045,
            0.1522037535905838,
            -0.16204670071601868,
            -0.39839646220207214,
            -0.3088527321815491,
            0.23842944204807281,
            -0.5006741285324097,
            0.41194939613342285,
            1.0612846612930298,
            -0.7264336347579956,
            0.2900456190109253,
            -0.5116981267929077,
            0.5102378726005554,
            -0.36703982949256897,
            -1.4301413297653198,
            -0.001886674202978611,
            -1.2758660316467285,
            -1.040062665939331,
            -1.6408843994140625,
            -1.3268216848373413,
            -1.5209100246429443,
            -0.6849081516265869,
            1.010144591331482,
            -0.6483842134475708,
            0.017884714528918266,
            -0.7065789103507996,
            -1.0561736822128296,
            -0.26472020149230957,
            1.3200154304504395,
            -0.7532607913017273,
            -1.1070306301116943,
            0.15643370151519775,
            0.7782066464424133,
            -0.14931975305080414,
            1.4033749103546143,
            0.8774734735488892,
            0.01106217410415411,
            0.5163516998291016,
            0.11031598597764969,
            0.043907530605793,
            0.8228083252906799,
            -0.7746473550796509,
            1.2100179195404053,
            -0.28406497836112976,
            1.1635363101959229,
            -0.5614239573478699,
            0.8396549820899963,
            -0.42233696579933167,
            0.9770472049713135,
            0.2105812281370163,
            1.228699803352356,
            -0.8413981795310974,
            -1.2722468376159668,
            -0.4389615058898926,
            0.22926835715770721,
            0.6000317335128784,
            1.2493064403533936,
            -0.302474707365036,
            0.9696219563484192,
            0.38647913932800293,
            1.3678772449493408,
            -0.3464975357055664,
            -1.1901189088821411,
            0.4377630949020386,
            -0.31369489431381226,
            0.7517305612564087,
            1.136727213859558,
            0.20723120868206024,
            -0.014042045921087265,
            -0.672913134098053,
            -0.9875127673149109,
            -0.20518605411052704,
            1.2602874040603638,
            -0.5150192379951477,
            0.47429221868515015,
            0.9223962426185608,
            0.526398241519928,
            -0.11255273222923279,
            -0.4070262312889099,
            -0.9123113751411438,
            1.351635456085205,
            0.330063134431839,
            1.1720852851867676,
            0.3621377646923065,
            1.0724058151245117,
            -0.2679831087589264,
            0.9063467979431152,
            1.2931970357894897,
            0.4664994478225708,
            -0.05858885124325752,
            0.8714523911476135,
            0.03555848449468613,
            1.0413414239883423,
            -0.9065611362457275,
            -1.2039029598236084,
            -0.5030326247215271,
            0.1965949833393097,
            0.08001717925071716,
            1.8447738885879517,
            0.15673425793647766,
            -0.3397047519683838,
            -0.6790567636489868,
            -0.00820843130350113,
            -0.691628098487854,
            -0.34635603427886963,
            0.3780518174171448,
            1.1063445806503296,
            0.30773940682411194,
            1.2146275043487549,
            -0.9743227958679199,
            1.7540737390518188,
            0.4483242332935333,
            0.36883997917175293,
            0.16138161718845367,
            -0.6826856732368469,
            -0.6511430144309998,
            -0.9451308846473694,
            -0.6047745943069458,
            -0.8857663869857788,
            -0.4728858470916748,
            0.9511895179748535,
            -0.3996868133544922,
            0.19830766320228577,
            1.28290855884552,
            1.6188381910324097,
            1.9936089515686035,
            -0.4189247488975525,
            1.2899184226989746,
            -0.7581314444541931,
            1.6755393743515015,
            1.2059388160705566,
            1.4709089994430542,
            0.49774032831192017,
            0.5565517544746399,
            -0.18098701536655426,
            0.3127897381782532,
            1.7624309062957764,
            0.5169821977615356,
            -0.1501697450876236,
            2.253875732421875,
            -0.6157410144805908,
            1.9838606119155884,
            2.8981165885925293,
            -0.6936547756195068,
            1.4251734018325806,
            1.4845008850097656,
            1.0271544456481934,
            0.8961902260780334,
            1.4743460416793823,
            1.6971611976623535,
            1.739518404006958,
            -0.17225143313407898,
            0.2567131519317627,
            1.3997342586517334,
            1.1472933292388916,
            3.2764992713928223,
            0.037829842418432236,
            1.501372218132019,
            2.3940892219543457,
            -0.624993622303009,
            -0.5522047281265259,
            2.1343154907226562,
            1.702248215675354,
            0.723831295967102,
            -0.45873957872390747,
            2.383159875869751,
            1.8415517807006836,
            1.72896146774292,
            2.0026586055755615,
            -0.8239926695823669,
            0.9652237892150879,
            1.4912797212600708,
            0.31459054350852966,
            0.30321505665779114,
            2.246508836746216,
            1.057902455329895,
            0.5147435069084167,
            1.0596548318862915,
            2.0430855751037598,
            1.5362751483917236,
            2.7994611263275146,
            0.9363394975662231,
            -0.36475035548210144,
            -0.1509227454662323,
            -0.4958259165287018,
            1.4810564517974854,
            1.2236849069595337,
            0.05765453726053238,
            0.3290479779243469,
            0.10610967129468918,
            -0.05413346737623215,
            -0.633752703666687,
            0.24838091433048248,
            0.20702476799488068,
            -0.7602121233940125,
            -0.9080594778060913,
            1.064091682434082,
            0.6374495029449463,
            -2.022106170654297,
            1.9359703063964844,
            -0.98098224401474,
            -1.188271164894104,
            -2.260214328765869,
            -0.005367095582187176,
            2.411954402923584,
            0.19902198016643524,
            0.6908949017524719,
            -1.0445687770843506,
            -0.2982827126979828,
            0.13835228979587555,
            -0.1438533365726471,
            0.1265001744031906,
            -0.3338266909122467,
            -0.4011295437812805,
            0.3343712389469147,
            -2.086355447769165,
            -0.824012041091919,
            0.19485604763031006,
            -0.07928864657878876,
            0.558146595954895,
            -1.582533597946167,
            -0.24493126571178436,
            0.6073084473609924,
            -0.11663200706243515,
            2.2759652137756348,
            0.15381671488285065,
            -0.6694661974906921,
            -1.3566558361053467,
            0.02048957720398903,
            -0.1710628718137741,
            0.3105120360851288,
            0.1256464570760727,
            -0.05774196982383728,
            -1.4853198528289795,
            -0.015693990513682365,
            0.07996144890785217,
            1.5055261850357056,
            -0.7604016065597534,
            0.33603355288505554,
            -0.2433381825685501,
            -1.171836018562317,
            -0.9349112510681152,
            0.5028206706047058,
            0.24555374681949615,
            -0.11594343930482864,
            -0.2583676278591156,
            0.6313247084617615,
            -2.3429384231567383,
            2.2143030166625977,
            -0.18079423904418945,
            -0.9232205152511597,
            0.5594229698181152,
            0.6969718337059021,
            0.7582940459251404,
            0.08545935899019241,
            0.22922901809215546,
            0.17529359459877014,
            0.7987940907478333,
            0.2736276388168335,
            0.712314784526825,
            0.45565930008888245,
            0.8967974185943604,
            -0.11356958746910095,
            0.3468661904335022,
            1.3664085865020752,
            0.07663073390722275,
            0.06405375897884369,
            0.6595569252967834,
            -0.10199475288391113,
            1.0925803184509277,
            1.9192571640014648,
            -0.4061106741428375,
            0.7359537482261658,
            0.7691817879676819,
            0.2976378798484802,
            0.5095633268356323,
            0.554169774055481,
            0.8005517721176147,
            0.6602588295936584,
            -0.0018876433605328202,
            0.0177229605615139,
            0.763026773929596,
            0.5584111213684082,
            1.4548163414001465,
            -0.3067285418510437,
            0.5116400718688965,
            1.2309374809265137,
            -0.10709227621555328,
            -0.2744971811771393,
            0.5813374519348145,
            0.6569761037826538,
            1.8389967679977417,
            -0.012698061764240265,
            0.50220787525177,
            0.7302271723747253,
            0.782934844493866,
            0.6621465086936951,
            0.36607059836387634,
            0.6485283374786377,
            0.4987320601940155,
            0.41099774837493896,
            -0.1332441121339798,
            0.8345385789871216,
            0.26144108176231384,
            0.026375804096460342,
            0.027886461466550827,
            1.0000289678573608,
            0.6809252500534058,
            1.6349501609802246,
            0.6599068641662598,
            -0.12585444748401642,
            0.061833783984184265,
            0.003227376379072666,
            0.5628167986869812,
            0.45676589012145996,
            -0.20239104330539703,
            0.7441665530204773
        ]
    }
}