{
    "num_epochs": 20000,
    "batch_size": 1000,
    "final_loss": 5.332756519317627,
    "train_data_exp_dir_path": "data/scp_train_data_norm",
    "encoder": {
        "num_inputs": 2,
        "num_outputs": 2,
        "num_hidden_layers": 1,
        "neurons_per_hidden_layer": 64,
        "hidden_layer_activation_function": "relu",
        "final_layer_activation_function": null,
        "bias": true,
        "weights": [
            -0.37830057740211487,
            0.6557673215866089,
            0.6769593358039856,
            -0.24921894073486328,
            0.34607094526290894,
            -0.11795252561569214,
            -0.19079869985580444,
            -0.17769721150398254,
            0.6472439169883728,
            0.1769651174545288,
            -0.5897757411003113,
            0.5898335576057434,
            -0.5557183027267456,
            0.4369022846221924,
            -0.048440396785736084,
            -0.5872992277145386,
            0.58980792760849,
            -0.48634815216064453,
            0.309500128030777,
            0.4478760361671448,
            -0.5041841268539429,
            -0.12834593653678894,
            0.2851751148700714,
            0.09368818998336792,
            -0.07912904024124146,
            -0.2017795443534851,
            -0.4310566186904907,
            -0.6530972123146057,
            -0.3387684226036072,
            -0.363847017288208,
            -0.06275367736816406,
            -0.17071789503097534,
            -0.2291353940963745,
            -0.6811985373497009,
            -0.6809234619140625,
            0.3837624192237854,
            -0.5889925956726074,
            -0.5604323148727417,
            -0.6325788497924805,
            -0.5448530316352844,
            -0.2656330466270447,
            0.6724340319633484,
            -0.7030596733093262,
            -0.6539037227630615,
            -0.42100992798805237,
            -0.34198522567749023,
            0.4909382462501526,
            -0.2936784625053406,
            0.4029484987258911,
            0.7417140603065491,
            0.26342886686325073,
            -0.2340545952320099,
            0.42120593786239624,
            -0.4726022183895111,
            -0.587620735168457,
            0.6439236998558044,
            -0.6728976368904114,
            -0.4472312331199646,
            0.09117621183395386,
            -0.535795271396637,
            -0.25621041655540466,
            0.3966830372810364,
            0.692206084728241,
            -0.29117318987846375,
            -0.20263564586639404,
            -0.44699251651763916,
            0.5364665985107422,
            0.5373623967170715,
            -0.22899039089679718,
            -0.2521532475948334,
            0.02868211269378662,
            -0.4200538694858551,
            -0.21344013512134552,
            0.6764901280403137,
            -0.44292744994163513,
            -0.278929740190506,
            -0.46408969163894653,
            0.3717901408672333,
            -0.654911994934082,
            -0.62653648853302,
            0.5844491124153137,
            -0.02493298053741455,
            -0.15831637382507324,
            -0.6175423860549927,
            -0.27007463574409485,
            0.2986190617084503,
            0.12223076820373535,
            -0.44162192940711975,
            0.31721246242523193,
            0.7068953514099121,
            0.6302061676979065,
            -0.03311425447463989,
            0.39688795804977417,
            -0.39557144045829773,
            -0.22158001363277435,
            0.6901413798332214,
            -0.4536384344100952,
            0.6508088111877441,
            -0.25094765424728394,
            0.22927571833133698,
            0.39303237199783325,
            -0.3251199424266815,
            0.14493530988693237,
            -0.24389806389808655,
            -0.48652389645576477,
            -0.17319752275943756,
            -0.6920480728149414,
            -0.33396902680397034,
            0.3805451989173889,
            -0.5945528745651245,
            -0.33047541975975037,
            -0.38166236877441406,
            -0.3506631851196289,
            0.5023345947265625,
            -0.49015378952026367,
            0.14637590944766998,
            0.07775013893842697,
            -0.11622706800699234,
            -0.6965077519416809,
            -0.10344034433364868,
            0.45799702405929565,
            0.5416099429130554,
            -0.0362924262881279,
            0.07634757459163666,
            0.22946083545684814,
            -0.28475043177604675,
            -0.34862250089645386,
            -0.38056281208992004,
            0.33283424377441406,
            -0.08928900957107544,
            0.6003723740577698,
            0.6709272861480713,
            0.15144169330596924,
            -0.2962135970592499,
            -0.16940738260746002,
            -0.6954441666603088,
            0.5567857623100281,
            0.1311192661523819,
            0.08478982746601105,
            1.7543202638626099,
            0.3765260577201843,
            -0.7740560173988342,
            0.6994604468345642,
            -0.5621808767318726,
            0.08984088897705078,
            -0.3821629583835602,
            0.4146393835544586,
            -1.0689784288406372,
            0.6359923481941223,
            0.24361281096935272,
            0.44753530621528625,
            0.28285515308380127,
            0.43346819281578064,
            -0.1576462984085083,
            -0.2284652590751648,
            0.3832458257675171,
            -0.3360866606235504,
            0.0257720947265625,
            0.101287841796875,
            0.6127977967262268,
            0.5623288750648499,
            0.4771394431591034,
            0.5947515964508057,
            0.08377736806869507,
            0.46447470784187317,
            0.7941060662269592,
            -0.8360335230827332,
            -0.30707141757011414,
            -0.004309535026550293,
            -0.5332587957382202,
            0.033390384167432785,
            -0.521329939365387,
            0.0834120586514473,
            -0.1282367706298828,
            -0.38164106011390686,
            0.23931486904621124,
            -0.37894904613494873,
            0.6317665576934814,
            -0.25590452551841736,
            -0.40862229466438293,
            -0.8354938626289368,
            0.24945448338985443,
            -0.4157043993473053,
            -0.09028428047895432,
            -0.7029431462287903,
            -0.19195199012756348,
            0.6417178511619568,
            0.08873241394758224,
            0.6998172998428345,
            -0.9937025904655457,
            0.30647605657577515,
            0.15469153225421906,
            0.015719395130872726,
            0.04063038527965546,
            0.10623624920845032,
            -0.04615134373307228,
            0.11267493665218353,
            0.008428909815847874,
            -0.06984037905931473,
            -0.08885888755321503,
            -0.05943402647972107,
            0.15559931099414825,
            0.05091126263141632,
            0.39609473943710327,
            0.04390256106853485,
            -0.04538813605904579,
            -0.034549929201602936,
            0.07935434579849243,
            0.10825416445732117,
            -0.06090998277068138,
            -0.16975289583206177,
            -0.046424347907304764,
            0.1014651283621788,
            -0.04352262243628502,
            0.06663335114717484,
            0.010589063167572021,
            -0.2909391522407532,
            0.08970107138156891,
            0.028633788228034973,
            0.11440366506576538,
            0.10649918764829636,
            -0.005938306450843811,
            -0.08366502821445465,
            -0.11020968854427338,
            -0.10548649728298187,
            -0.27299442887306213,
            -0.028741419315338135,
            -0.11526690423488617,
            0.03628632053732872,
            0.10232935845851898,
            0.0038701847661286592,
            0.05571993812918663,
            -0.11111028492450714,
            0.023966297507286072,
            0.0678865909576416,
            0.051835283637046814,
            -0.23142749071121216,
            -0.009345874190330505,
            0.06492604315280914,
            -0.11968041956424713,
            0.04746778681874275,
            -0.10900021344423294,
            -0.08226113021373749,
            -0.11423473060131073,
            0.07551915943622589,
            -0.05008756369352341,
            -0.01737840473651886,
            0.1379116028547287,
            0.0378236398100853,
            0.059453487396240234,
            0.0441020131111145,
            -0.08974254876375198,
            -0.22359375655651093,
            0.02847638726234436,
            -0.0427839457988739,
            -0.05241229757666588,
            -0.020857980474829674,
            0.05327950417995453,
            0.0527968555688858,
            0.07514777779579163,
            -0.004988878965377808,
            -0.04775075986981392,
            0.011961913667619228,
            -0.10555209219455719,
            0.004852890968322754,
            -0.026523876935243607,
            0.03502033278346062,
            0.923538088798523,
            -0.11743910610675812,
            0.006606282666325569,
            -0.03651033341884613,
            0.038820862770080566,
            -0.07907041907310486,
            -0.08717577159404755,
            -0.030046096071600914,
            0.03076176345348358,
            -0.053406789898872375,
            -0.060584940016269684,
            0.044298525899648666,
            -0.1193169355392456,
            -0.09188675135374069,
            -0.011546596884727478,
            -0.09785351157188416,
            0.0006016349652782083,
            -0.09757821261882782,
            0.056030288338661194,
            0.07054182887077332,
            0.09493693709373474,
            0.11340154707431793,
            0.09751952439546585,
            -0.1483965367078781,
            -0.10809183120727539,
            -0.05191889405250549,
            -0.03607883304357529,
            0.09365565329790115,
            -0.08721121400594711,
            -0.03363734483718872,
            -0.10737283527851105,
            -0.01816639117896557,
            0.12170359492301941,
            0.0017220558365806937,
            -0.015794306993484497,
            -0.0017185062170028687,
            0.013752046972513199,
            -0.07185297459363937,
            -0.019371595233678818,
            -0.08605934679508209,
            0.08470858633518219,
            0.07768750190734863,
            0.07043880969285965,
            0.013444304466247559,
            -0.020974235609173775,
            0.030363643541932106,
            0.0970214381814003,
            0.09584033489227295,
            0.08812372386455536,
            0.013083051890134811,
            0.1297149509191513,
            -0.03529849648475647,
            -0.028397666290402412,
            0.13438640534877777,
            -0.21022044122219086
        ]
    },
    "decoder": {
        "num_inputs": 2,
        "num_outputs": 2,
        "num_hidden_layers": 1,
        "neurons_per_hidden_layer": 64,
        "hidden_layer_activation_function": "relu",
        "final_layer_activation_function": null,
        "bias": true,
        "weights": [
            -0.4876115024089813,
            -2.2845354080200195,
            -0.13878855109214783,
            1.237139344215393,
            -0.41693127155303955,
            0.6173380613327026,
            -1.093596339225769,
            -0.39544352889060974,
            -0.15706540644168854,
            1.0618535280227661,
            -0.6812493801116943,
            -1.7896208763122559,
            0.056652944535017014,
            0.8700265884399414,
            0.3782031238079071,
            -2.186692476272583,
            -0.5256887078285217,
            -3.5846381187438965,
            0.005938827525824308,
            0.8155114054679871,
            0.642492949962616,
            2.060706377029419,
            1.308591604232788,
            -0.8553715944290161,
            -1.1599270105361938,
            -1.0569143295288086,
            -0.15356536209583282,
            1.1727855205535889,
            -0.5961568355560303,
            0.5955865383148193,
            -1.37946355342865,
            0.20873835682868958,
            0.14366930723190308,
            1.24508535861969,
            -0.5576863288879395,
            0.599442720413208,
            2.5412979125976562,
            1.8596925735473633,
            -0.9702559113502502,
            -0.46938538551330566,
            -0.15577857196331024,
            1.1521075963974,
            1.4788275957107544,
            -1.3521060943603516,
            -1.0264819860458374,
            -1.552812933921814,
            -0.20647692680358887,
            -1.0238873958587646,
            -0.021226903423666954,
            1.0350719690322876,
            -0.797184944152832,
            -0.26738691329956055,
            0.0808817446231842,
            -2.36741304397583,
            -0.16139645874500275,
            1.155410647392273,
            -0.2181418091058731,
            1.1811500787734985,
            -0.204607293009758,
            1.3396804332733154,
            -0.4814503490924835,
            1.0426061153411865,
            0.17134985327720642,
            1.1983765363693237,
            -0.3796367943286896,
            0.7002611756324768,
            -0.32524141669273376,
            -1.4174878597259521,
            0.08387020230293274,
            -1.3214409351348877,
            0.3296923041343689,
            1.0882188081741333,
            -0.36020225286483765,
            2.269700050354004,
            1.2703683376312256,
            -1.7594295740127563,
            -0.5308107137680054,
            0.688336193561554,
            -0.13812221586704254,
            1.053114891052246,
            0.6069142818450928,
            -0.9295105338096619,
            -0.15206055343151093,
            1.1017061471939087,
            0.08385318517684937,
            -2.473301410675049,
            0.010441569611430168,
            0.731725811958313,
            -0.2473534494638443,
            0.6620073318481445,
            -0.6106649041175842,
            -0.16390183568000793,
            0.00521827582269907,
            -0.31020480394363403,
            -0.3737429082393646,
            1.60025155544281,
            -0.32927027344703674,
            0.6734375357627869,
            -0.21808381378650665,
            0.487108439207077,
            0.01544106099754572,
            2.0329389572143555,
            -0.8201935291290283,
            0.6377622485160828,
            -0.16100695729255676,
            1.1513961553573608,
            -0.5100682377815247,
            0.5358715057373047,
            -0.28486692905426025,
            2.1442296504974365,
            -0.07139048725366592,
            -1.9236007928848267,
            -0.34052470326423645,
            -1.7037990093231201,
            -0.49148470163345337,
            0.9994157552719116,
            0.083577960729599,
            1.8270237445831299,
            0.4209710657596588,
            -2.301622152328491,
            -0.30811169743537903,
            -1.5488215684890747,
            -0.9949762225151062,
            -0.21267427504062653,
            -0.5898647904396057,
            0.6893288493156433,
            0.050085123628377914,
            1.1485204696655273,
            -0.69060218334198,
            0.2847171723842621,
            0.7086004614830017,
            0.7628071904182434,
            0.38128146529197693,
            -0.725246250629425,
            1.194893717765808,
            -0.7778112888336182,
            -3.236746311187744,
            1.065808653831482,
            1.5830870866775513,
            -1.1408861875534058,
            -1.081978440284729,
            0.3228703737258911,
            1.235181450843811,
            0.053305093199014664,
            0.22674237191677094,
            0.6681044101715088,
            2.137437343597412,
            -0.6590523719787598,
            0.33275189995765686,
            -0.27893081307411194,
            0.41984501481056213,
            0.19926537573337555,
            0.4096722900867462,
            -1.26888906955719,
            -0.2022651731967926,
            0.34920281171798706,
            0.30502304434776306,
            0.5265264511108398,
            0.9348309636116028,
            0.23265281319618225,
            0.5766459703445435,
            -0.4561787247657776,
            0.5951012372970581,
            1.1204999685287476,
            1.0071067810058594,
            0.6242026090621948,
            0.7518836855888367,
            0.29185232520103455,
            1.4405847787857056,
            0.3268575668334961,
            -0.17800766229629517,
            0.9536051750183105,
            0.5030223727226257,
            -1.345787763595581,
            -0.7245649099349976,
            0.8833127617835999,
            0.6539421677589417,
            0.43996497988700867,
            2.581249952316284,
            0.08287583291530609,
            0.44074928760528564,
            1.2497227191925049,
            0.6010656952857971,
            -1.8427964448928833,
            -0.5009212493896484,
            0.9265621304512024,
            2.143364191055298,
            -0.8575444221496582,
            -0.4543372392654419,
            0.5245629549026489,
            1.1644264459609985,
            1.4987435340881348,
            -0.35319653153419495,
            -0.4711207449436188,
            -0.3299298584461212,
            -0.1254556030035019,
            -0.5902696251869202,
            -0.14539550244808197,
            -0.8237350583076477,
            -2.273995876312256,
            1.2670005559921265,
            -0.5843712687492371,
            -1.4988713264465332,
            1.4576959609985352,
            1.6556884050369263,
            -0.4414166510105133,
            -0.3325548768043518,
            -0.6106696724891663,
            -0.47654178738594055,
            -0.36618995666503906,
            -0.48562583327293396,
            -0.04332858324050903,
            -0.5484921336174011,
            0.9674164652824402,
            1.7360247373580933,
            -0.06948576122522354,
            -0.49381959438323975,
            -0.5807365775108337,
            -0.8872143626213074,
            -0.4109928011894226,
            -0.40796154737472534,
            -0.40699952840805054,
            -0.29219821095466614,
            -0.5799729228019714,
            -0.36265328526496887,
            -0.11498866230249405,
            0.25462397933006287,
            -0.6303499341011047,
            -1.8200932741165161,
            0.5500764846801758,
            -0.34559810161590576,
            -1.0702502727508545,
            1.824926495552063,
            -0.49655023217201233,
            -1.0756746530532837,
            -0.8306996822357178,
            -0.3660001754760742,
            -0.09024108946323395,
            -0.04875835031270981,
            -1.5255614519119263,
            -0.4133846163749695,
            -0.43947505950927734,
            -1.7478984594345093,
            -0.41655832529067993,
            -0.370793879032135,
            -0.5050735473632812,
            -1.6472680568695068,
            0.44904443621635437,
            -0.12906667590141296,
            -0.38764384388923645,
            -1.5860722064971924,
            -1.898027777671814,
            -0.1411849856376648,
            -0.17128895223140717,
            -0.45765236020088196,
            -1.2150909900665283,
            1.7155299186706543,
            0.3515678942203522,
            0.2050020843744278,
            -0.2617301642894745,
            0.30166491866111755,
            1.553193211555481,
            0.746585488319397,
            0.8889967203140259,
            -3.1522932052612305,
            0.4759933650493622,
            1.7964224815368652,
            -1.3329492807388306,
            -1.6031855344772339,
            0.30631256103515625,
            0.07549767941236496,
            -0.4615384042263031,
            0.4230680763721466,
            0.3076458275318146,
            2.082509994506836,
            -1.2765440940856934,
            0.3110690414905548,
            -1.286105990409851,
            -0.33506664633750916,
            -0.3703806698322296,
            0.31568098068237305,
            1.857654094696045,
            1.8389322757720947,
            0.1709861308336258,
            0.1952049285173416,
            0.17546537518501282,
            0.1998186856508255,
            0.3416638672351837,
            0.23839125037193298,
            0.9137174487113953,
            -0.6581556797027588,
            0.27912768721580505,
            0.6389399766921997,
            -1.3156304359436035,
            0.18696308135986328,
            0.7946221232414246,
            -0.40718796849250793,
            0.3025974929332733,
            1.189359426498413,
            0.6041324734687805,
            0.23966729640960693,
            0.41060736775398254,
            0.06635916978120804,
            0.529242753982544,
            0.3711612820625305,
            0.339967280626297,
            1.3209712505340576,
            -0.0670563355088234,
            0.16072805225849152,
            0.053029149770736694,
            1.36453115940094,
            -2.7519659996032715,
            0.9750255346298218,
            0.3427649140357971,
            1.6356762647628784,
            0.21416690945625305,
            0.9788565039634705,
            -0.3795524537563324,
            0.012273058295249939,
            0.6328327655792236,
            -0.2890140116214752,
            0.3678949773311615
        ]
    }
}