{
    "num_epochs": 40000,
    "batch_size": 1000,
    "final_loss": 140.23561096191406,
    "train_data_exp_dir_path": [
        "/app/data/bpw_train_data/knee_speed_2.0",
        "/app/data/bpw_train_data/knee_speed_4.0",
        "/app/data/bpw_train_data/knee_speed_6.0"
    ],
    "encoder": {
        "num_inputs": 100,
        "num_outputs": 1,
        "num_hidden_layers": 1,
        "neurons_per_hidden_layer": 64,
        "hidden_layer_activation_function": "relu",
        "final_layer_activation_function": null,
        "bias": true,
        "weights": [
            -0.038435567170381546,
            0.008719408884644508,
            -0.035362325608730316,
            -0.0364319384098053,
            0.12491904199123383,
            0.04529546573758125,
            -0.039394035935401917,
            -0.009747463278472424,
            0.02821379341185093,
            -0.008463752456009388,
            -0.005521772429347038,
            0.10560517758131027,
            0.029011651873588562,
            -0.014971042051911354,
            -0.01471556443721056,
            -0.04106893017888069,
            -0.04302721843123436,
            -0.08626308292150497,
            0.052098702639341354,
            0.00869304221123457,
            -0.0529448501765728,
            0.05994189903140068,
            -0.04912789911031723,
            0.05509981885552406,
            -0.07098253816366196,
            0.03164827823638916,
            0.06888554245233536,
            0.08909525722265244,
            -0.0419151596724987,
            -0.01724153757095337,
            -0.030722251161932945,
            0.050532616674900055,
            0.048035092651844025,
            0.05956609547138214,
            0.04841553792357445,
            0.03306750953197479,
            -0.011075078509747982,
            -0.021141687408089638,
            0.03510918840765953,
            0.050744712352752686,
            -0.0016271539498120546,
            0.011043551377952099,
            0.10628203302621841,
            0.004696790128946304,
            0.1120663583278656,
            -0.022424520924687386,
            0.049218907952308655,
            0.094194196164608,
            0.016005955636501312,
            -0.04178867116570473,
            -0.022692568600177765,
            0.058430928736925125,
            0.021344594657421112,
            0.04630197584629059,
            0.03328557685017586,
            0.05636214837431908,
            -0.022924033924937248,
            -0.014736386947333813,
            0.05664714798331261,
            0.015860896557569504,
            0.05604971945285797,
            0.0997195765376091,
            0.009787998162209988,
            0.02679983712732792,
            -0.016844462603330612,
            -0.02131190523505211,
            -0.11056511849164963,
            -0.028995567932724953,
            0.02985578216612339,
            -0.08376042544841766,
            -0.07580757886171341,
            -0.13284781575202942,
            -0.05207780376076698,
            -0.03928523138165474,
            0.04063016176223755,
            -0.023061728104948997,
            -0.02834709919989109,
            0.07857540994882584,
            -0.01587522216141224,
            -0.044738393276929855,
            0.09573070704936981,
            -0.11945756524801254,
            -0.09136991947889328,
            0.05267055332660675,
            -0.029222814366221428,
            0.10909003764390945,
            0.10710785537958145,
            -0.054949626326560974,
            -0.020640837028622627,
            -0.034041617065668106,
            0.0383368618786335,
            0.0194302499294281,
            0.034858569502830505,
            0.011866415850818157,
            -0.06456996500492096,
            0.014449159614741802,
            0.008597631938755512,
            -0.03686491400003433,
            -0.03327522054314613,
            0.13229385018348694,
            0.07894599437713623,
            -0.047042351216077805,
            -0.13773711025714874,
            -0.010587739758193493,
            -0.003968984819948673,
            0.046532634645700455,
            0.015201199799776077,
            0.08242131024599075,
            -0.04357337951660156,
            -0.06552807241678238,
            -0.062800832092762,
            0.004131922032684088,
            -0.035303667187690735,
            0.0011086378945037723,
            0.053983546793460846,
            0.10943668335676193,
            0.027825605124235153,
            0.07358364015817642,
            0.03987262025475502,
            0.023587213829159737,
            -0.04679184406995773,
            -0.03871006518602371,
            0.08018505573272705,
            0.04529307037591934,
            -0.04919489473104477,
            0.10618756711483002,
            0.08212105184793472,
            -0.036911092698574066,
            -0.052537284791469574,
            -0.023644626140594482,
            0.04636479541659355,
            -0.0048852055333554745,
            -0.011594455689191818,
            0.019564365968108177,
            0.008401370607316494,
            -0.033701907843351364,
            -0.09689773619174957,
            0.08067335933446884,
            0.026133975014090538,
            -0.015010404400527477,
            -0.07071958482265472,
            0.08409826457500458,
            0.10173097252845764,
            -0.05692677944898605,
            -0.010393462143838406,
            0.04968768730759621,
            0.12411989271640778,
            0.004914093296974897,
            0.03995747119188309,
            0.13741938769817352,
            0.04758836328983307,
            0.0061731799505651,
            0.0034200269728899,
            0.06451046466827393,
            -0.003988809883594513,
            -0.026988092809915543,
            -0.0914342850446701,
            0.04711869731545448,
            0.15694065392017365,
            0.028209857642650604,
            0.06344415992498398,
            -0.002451414940878749,
            0.003686493495479226,
            -0.021032441407442093,
            0.07973820716142654,
            -0.07073556631803513,
            0.059867020696401596,
            -0.08817948400974274,
            -0.040345001965761185,
            -0.04304122552275658,
            0.06950026750564575,
            -0.08112010359764099,
            -0.03076741471886635,
            -0.10115830600261688,
            0.06821241974830627,
            0.07718880474567413,
            0.031719040125608444,
            -0.04807775467634201,
            0.11403058469295502,
            -0.02011026069521904,
            -0.04389674961566925,
            -0.028658339753746986,
            0.1064906120300293,
            0.17744891345500946,
            -0.04842869192361832,
            0.1424095332622528,
            0.12047378718852997,
            0.038309477269649506,
            0.05916093662381172,
            0.042410679161548615,
            0.016360292211174965,
            0.10478221625089645,
            0.009021610021591187,
            0.12336283922195435,
            -0.01272034551948309,
            -0.03651808574795723,
            0.05160883814096451,
            -0.04840034246444702,
            0.01210745144635439,
            -0.012085139751434326,
            -0.043970972299575806,
            -0.027632426470518112,
            -0.1080867201089859,
            -0.04896959662437439,
            0.1362447738647461,
            0.03648149594664574,
            -0.029880983754992485,
            0.10423535108566284,
            0.0410178005695343,
            -0.03552465885877609,
            0.036825478076934814,
            0.04561103135347366,
            -0.03158292546868324,
            0.03667502850294113,
            0.08767052739858627,
            -0.04304118454456329,
            0.0332065224647522,
            0.03465069457888603,
            0.009075088426470757,
            -0.10377679020166397,
            0.06502698361873627,
            0.04732591286301613,
            0.006924307905137539,
            0.07935871183872223,
            -0.029977310448884964,
            -0.0014731773408129811,
            -0.06565388292074203,
            0.025619037449359894,
            -0.0357615202665329,
            -0.08072027564048767,
            0.017588183283805847,
            0.025762300938367844,
            0.09354233741760254,
            -0.016002459451556206,
            -0.05022665113210678,
            -0.10412930697202682,
            -0.05468425154685974,
            0.014702992513775826,
            0.00913866888731718,
            0.07956073433160782,
            -0.06250761449337006,
            0.05725668743252754,
            -0.03470760956406593,
            -0.00807187519967556,
            0.052056632936000824,
            -0.05970580875873566,
            0.060811564326286316,
            0.023747334256768227,
            0.030943764373660088,
            0.0704173594713211,
            0.008708987385034561,
            -0.0116718839854002,
            0.023499583825469017,
            -0.0012242040829733014,
            0.04394284635782242,
            0.025980614125728607,
            0.01493652630597353,
            0.07726460695266724,
            0.06953345239162445,
            -0.03514073044061661,
            0.0872965082526207,
            0.12585684657096863,
            0.07430532574653625,
            0.05732743814587593,
            0.08968431502580643,
            0.06572137027978897,
            -0.06844218820333481,
            -0.04252464696764946,
            -0.07318481802940369,
            -0.033372990787029266,
            -0.023918699473142624,
            -0.051322873681783676,
            0.04023849219083786,
            -0.0355682410299778,
            -0.05027741938829422,
            0.08492036163806915,
            -0.023112067952752113,
            0.018807915970683098,
            -0.038541946560144424,
            -0.012967383489012718,
            -0.07605959475040436,
            0.06844121962785721,
            -0.055232834070920944,
            0.11374910175800323,
            0.0016342711169272661,
            -0.0032460002694278955,
            -0.09873555600643158,
            -0.03029869683086872,
            -0.025856131687760353,
            0.09868914633989334,
            -0.04073196277022362,
            0.04397476091980934,
            0.03817765414714813,
            -0.04244675114750862,
            -0.03391881287097931,
            -0.028508460149168968,
            0.014455505646765232,
            0.012726147659122944,
            -0.10977417230606079,
            0.0360892154276371,
            0.041432466357946396,
            0.0264302808791399,
            0.05088089406490326,
            -0.10233704745769501,
            0.09183365106582642,
            0.06917364150285721,
            -0.04047020897269249,
            0.07237296551465988,
            0.09465428441762924,
            0.09730786085128784,
            0.003681538160890341,
            -0.17973491549491882,
            0.0076600476168096066,
            -0.020041370764374733,
            -0.03006964735686779,
            -0.08914832025766373,
            0.03498458489775658,
            -0.06773102283477783,
            0.02281532995402813,
            -0.142891526222229,
            0.028685815632343292,
            -0.0728209987282753,
            -0.031899355351924896,
            -0.0010827960213646293,
            0.010714483447372913,
            -0.07919114828109741,
            -0.07013493031263351,
            0.04390713945031166,
            -0.08387812227010727,
            0.005896569229662418,
            -0.028415754437446594,
            -0.06527724862098694,
            -0.0021109958179295063,
            0.08926886320114136,
            0.1322735846042633,
            -0.03986623138189316,
            -0.1225791648030281,
            0.14169731736183167,
            -0.0582280196249485,
            -0.0002092628856189549,
            0.029347054660320282,
            -0.06148531287908554,
            0.10927749425172806,
            0.04395033419132233,
            -0.009799197316169739,
            -0.04259743168950081,
            0.016262797638773918,
            0.16666866838932037,
            0.08881502598524094,
            0.15010787546634674,
            0.15704025328159332,
            -0.03983400762081146,
            -0.09415707737207413,
            -0.08316221088171005,
            -0.05575365200638771,
            0.028205644339323044,
            -0.09671279788017273,
            0.08216699957847595,
            0.05356145277619362,
            0.08221478760242462,
            -0.06051152944564819,
            -0.08760244399309158,
            -0.047797687351703644,
            0.033287495374679565,
            -0.13693879544734955,
            -0.07008052617311478,
            -0.07514764368534088,
            -0.059187956154346466,
            -0.06349710375070572,
            0.1051596850156784,
            0.13331720232963562,
            -0.02381252683699131,
            -0.039338912814855576,
            0.06553908437490463,
            -0.16138309240341187,
            0.0012454526731744409,
            0.11297773569822311,
            0.05536211282014847,
            0.052415844053030014,
            0.06854870915412903,
            -0.03509074077010155,
            -0.0020730241667479277,
            0.0326928049325943,
            0.06486259400844574,
            -0.15548457205295563,
            0.1679784655570984,
            -0.03206701576709747,
            0.10185517370700836,
            0.07406900078058243,
            -0.036689069122076035,
            -0.1518443375825882,
            0.0662904605269432,
            0.05532965809106827,
            -0.025400755926966667,
            -0.005059055984020233,
            0.03349054604768753,
            0.02291877567768097,
            0.06454279273748398,
            0.024625854566693306,
            0.19905811548233032,
            -0.11933216452598572,
            -0.10807248950004578,
            -0.08452536910772324,
            0.008487147279083729,
            0.08208711445331573,
            0.05702485144138336,
            -0.049427326768636703,
            0.08144542574882507,
            -0.07338286191225052,
            -0.029427237808704376,
            -0.07352077215909958,
            -0.03754110634326935,
            -0.07724732905626297,
            -0.005313599016517401,
            -0.025433406233787537,
            0.10707870125770569,
            -0.06240549683570862,
            -0.14860667288303375,
            -0.04492911696434021,
            -0.14021512866020203,
            0.019830219447612762,
            0.030857229605317116,
            0.07660835981369019,
            0.0643390342593193,
            0.07992509752511978,
            0.06725075095891953,
            0.016978491097688675,
            0.041497789323329926,
            -0.03629760071635246,
            0.01972140371799469,
            0.029131509363651276,
            -0.09817977249622345,
            0.13803257048130035,
            0.026247581467032433,
            0.015629421919584274,
            -0.1366693377494812,
            -0.05810314789414406,
            0.03701296076178551,
            0.0659937858581543,
            0.13055948913097382,
            0.024670947343111038,
            0.1227206289768219,
            0.04806128889322281,
            0.06523968279361725,
            -0.030535144731402397,
            0.01689329743385315,
            0.12836270034313202,
            -0.01362593937665224,
            -0.039754804223775864,
            -0.0067368377931416035,
            0.0023628019262105227,
            0.009083165787160397,
            -0.0211403276771307,
            -0.09863916039466858,
            0.11518426239490509,
            0.04881797358393669,
            -0.038747526705265045,
            0.10230427980422974,
            0.11109130084514618,
            -0.04141132906079292,
            0.0014282838674262166,
            0.06984031200408936,
            -0.11719212681055069,
            0.03340337425470352,
            -0.03342067077755928,
            0.011922051198780537,
            -0.0802835151553154,
            -0.05287889763712883,
            0.04540780559182167,
            -0.04261482506990433,
            -0.04676983505487442,
            0.05702495574951172,
            0.04859967902302742,
            -0.005026279017329216,
            -0.11304734647274017,
            -0.025607774034142494,
            0.08049075305461884,
            0.02832072228193283,
            0.06719068437814713,
            -0.14918746054172516,
            0.15506301820278168,
            -0.11140047013759613,
            0.07827296853065491,
            0.12943914532661438,
            -0.1474294513463974,
            0.00214111665263772,
            -0.07479721307754517,
            0.03702656552195549,
            0.036850664764642715,
            -0.01413952186703682,
            -0.03543361276388168,
            -0.029952511191368103,
            -0.03248250111937523,
            0.08804156631231308,
            0.12152013927698135,
            -0.02618185244500637,
            0.012909701094031334,
            0.015091792680323124,
            0.04358642175793648,
            0.1001063659787178,
            0.14325256645679474,
            -0.07742413878440857,
            -0.16346287727355957,
            -0.07123646140098572,
            0.11847984045743942,
            -0.1431637853384018,
            -0.13807198405265808,
            -0.05585501715540886,
            0.04163004457950592,
            -0.10601367056369781,
            0.06868136674165726,
            -0.06955533474683762,
            0.10634647309780121,
            0.009065164253115654,
            -0.09675070643424988,
            0.09087104350328445,
            0.07641573995351791,
            -0.17488552629947662,
            -0.005681976210325956,
            -0.030738361179828644,
            -0.14206957817077637,
            0.14408931136131287,
            -0.019716808572411537,
            -0.07712365686893463,
            0.11760127544403076,
            0.08990029990673065,
            0.1257110983133316,
            -0.12279920279979706,
            0.011960728093981743,
            -0.06308665126562119,
            0.10853690654039383,
            -0.051808569580316544,
            0.14053945243358612,
            0.12149792909622192,
            0.10546060651540756,
            0.2385418862104416,
            -0.19754572212696075,
            -0.09377558529376984,
            -0.01946803368628025,
            -0.10011408478021622,
            0.14719852805137634,
            -0.12591344118118286,
            0.08478091657161713,
            -0.04993328079581261,
            -0.12755589187145233,
            0.26208722591400146,
            0.45934367179870605,
            0.1421014368534088,
            0.12609508633613586,
            0.20294222235679626,
            0.0851188525557518,
            0.24594458937644958,
            -0.08373124897480011,
            -0.29603415727615356,
            -0.023519599810242653,
            0.018271200358867645,
            0.00954847689718008,
            -0.0993032157421112,
            0.20688030123710632,
            0.041004057973623276,
            -0.15476365387439728,
            -0.009327159263193607,
            -0.10027460753917694,
            0.12811943888664246,
            0.04251313954591751,
            -0.05035656690597534,
            -0.03978024050593376,
            0.02519441395998001,
            -0.09374362975358963,
            -0.1273244321346283,
            0.2034125179052353,
            0.018172377720475197,
            -0.248819038271904,
            0.0020129363983869553,
            -0.0077531305141747,
            -0.008419133722782135,
            -0.20676027238368988,
            0.10328274965286255,
            0.08582165092229843,
            -0.2631447911262512,
            0.12090451270341873,
            0.04161486402153969,
            0.0795750617980957,
            0.014989590272307396,
            -0.26180794835090637,
            0.19727860391139984,
            0.22393383085727692,
            0.16208335757255554,
            -0.14049114286899567,
            0.22655165195465088,
            0.0623505599796772,
            0.17947041988372803,
            -0.127970352768898,
            -0.2006826251745224,
            0.011311481706798077,
            0.10893651843070984,
            0.12229321151971817,
            -0.16990001499652863,
            -0.014127661474049091,
            0.16175495088100433,
            0.03227389603853226,
            -0.06434956192970276,
            -0.06852222234010696,
            0.0007029575644992292,
            0.0074925497174263,
            0.020205602049827576,
            0.07454391568899155,
            0.16184698045253754,
            0.11701735109090805,
            0.035772304981946945,
            0.013732877559959888,
            0.08103450387716293,
            -0.019837133586406708,
            0.011640465818345547,
            0.03389578312635422,
            0.031038355082273483,
            0.04463692754507065,
            -0.01090715080499649,
            -0.05651196464896202,
            -0.09638748317956924,
            0.05489305034279823,
            -0.10414869338274002,
            -0.002494820859283209,
            -0.03807557001709938,
            0.055755387991666794,
            0.0868367925286293,
            0.08556895703077316,
            0.06734124571084976,
            0.006697009317576885,
            -0.07819359749555588,
            0.16555428504943848,
            -0.0407404899597168,
            -0.052251532673835754,
            0.08899491280317307,
            0.03094043955206871,
            -0.015532562509179115,
            -0.03867732733488083,
            -0.03627331182360649,
            -0.0013528047129511833,
            0.03787142038345337,
            -0.05215919390320778,
            0.03520403802394867,
            0.04080493375658989,
            0.08774952590465546,
            0.018098076805472374,
            0.1264181286096573,
            0.04615120589733124,
            0.005366392433643341,
            0.027359839528799057,
            -0.04533468559384346,
            0.10891181975603104,
            -0.08133244514465332,
            -0.06438201665878296,
            0.04718034341931343,
            -0.014997820369899273,
            -0.07343258708715439,
            0.02048000507056713,
            0.04453177750110626,
            0.06449052691459656,
            0.03494478389620781,
            0.02419232949614525,
            -0.05640394240617752,
            -0.0718720480799675,
            -0.0761943906545639,
            0.05863206088542938,
            -0.1409919112920761,
            -0.09796702116727829,
            -0.04386129230260849,
            -0.10663216561079025,
            -0.09341292083263397,
            -0.16841624677181244,
            -0.00016304614837281406,
            0.05025295168161392,
            -0.06852249801158905,
            0.057210177183151245,
            0.014170622453093529,
            -0.08518176525831223,
            -0.044481273740530014,
            -0.07057473808526993,
            0.009349899366497993,
            0.03736722469329834,
            0.0036800168454647064,
            0.049801625311374664,
            -0.02343970723450184,
            -0.1020396500825882,
            -0.03977586328983307,
            -0.025130338966846466,
            -0.03831498324871063,
            0.062121450901031494,
            0.08294614404439926,
            -0.025625912472605705,
            0.0034128655679523945,
            0.08044376969337463,
            0.06804200261831284,
            -0.08430390059947968,
            -0.03378449007868767,
            0.05042554810643196,
            -0.06701038777828217,
            -0.1140424832701683,
            -0.0504949651658535,
            0.04427031800150871,
            0.0033843708224594593,
            -0.024526292458176613,
            0.04176433011889458,
            -0.007630153093487024,
            -0.016807422041893005,
            0.08572936058044434,
            0.0603557750582695,
            0.041147779673337936,
            0.09730459004640579,
            -0.10360068827867508,
            -0.012484165839850903,
            -0.04000191017985344,
            0.060040153563022614,
            -0.09867136180400848,
            -0.04612712562084198,
            -0.04038430005311966,
            -0.04040007293224335,
            0.06019158288836479,
            -0.008814808912575245,
            0.044769324362277985,
            -0.04148062318563461,
            0.02499604970216751,
            -0.047377560287714005,
            0.0038519972003996372,
            0.0029101427644491196,
            -0.02304898016154766,
            0.0014237187569960952,
            0.003232246031984687,
            0.03823550045490265,
            0.05855054780840874,
            -0.12693729996681213,
            0.021386193111538887,
            0.009410246275365353,
            0.10583291202783585,
            -0.1394340544939041,
            -0.12630335986614227,
            0.07170376181602478,
            0.11357459425926208,
            0.10934323817491531,
            0.10927166789770126,
            0.009795842692255974,
            0.06682226806879044,
            0.16829076409339905,
            -0.0750599130988121,
            -0.03276120126247406,
            -0.030152183026075363,
            0.00782722793519497,
            0.0049403635784983635,
            -0.0024250152055174112,
            -0.05405781418085098,
            -0.007014340255409479,
            -0.05722874775528908,
            -0.03495730832219124,
            0.03707708418369293,
            0.049147263169288635,
            0.0004727141640614718,
            0.016267092898488045,
            0.07912682741880417,
            0.1257457137107849,
            -0.05795241519808769,
            -0.022717714309692383,
            0.07534973323345184,
            0.09655632823705673,
            -0.0725255087018013,
            0.03526771068572998,
            -0.04233286529779434,
            -0.022579194977879524,
            -0.043981388211250305,
            0.03387780860066414,
            -0.05067218095064163,
            0.028754087164998055,
            0.024741776287555695,
            -0.06504750996828079,
            -0.0674586072564125,
            0.04944182187318802,
            -0.027900496497750282,
            -0.03064917027950287,
            0.08623659610748291,
            -0.1379653364419937,
            0.05370587110519409,
            -0.07782267779111862,
            -0.1256202906370163,
            0.25369566679000854,
            -0.15316972136497498,
            0.05805816501379013,
            -0.10825514048337936,
            0.008432276546955109,
            -0.05030011758208275,
            -0.005619019269943237,
            -0.030063174664974213,
            -0.033539507538080215,
            0.0614197663962841,
            0.10666611045598984,
            -0.02643175795674324,
            0.13814321160316467,
            0.04835311323404312,
            0.07038947939872742,
            -0.01700311154127121,
            0.06040381267666817,
            0.02663937397301197,
            -0.10609519481658936,
            -0.0757162794470787,
            -0.03706331551074982,
            0.11799786239862442,
            0.1216445341706276,
            0.030317798256874084,
            -0.0044123032130301,
            0.0566122941672802,
            -0.011300242505967617,
            -0.011233986355364323,
            -0.05366011708974838,
            0.08383817225694656,
            -0.10846935212612152,
            0.01817990466952324,
            0.06761667132377625,
            -0.023536192253232002,
            0.08003757894039154,
            0.07796531915664673,
            0.09501443803310394,
            -0.05271851643919945,
            0.06080704554915428,
            -0.07128249853849411,
            0.07003437727689743,
            0.04871233180165291,
            -0.03793978691101074,
            -0.02560298517346382,
            -0.009668986313045025,
            -0.014710135757923126,
            0.05589871481060982,
            0.0454493872821331,
            0.008369216695427895,
            -0.008918659761548042,
            0.048564594238996506,
            0.09181828796863556,
            -0.027433227747678757,
            -0.0894627645611763,
            0.09214658290147781,
            -0.030372973531484604,
            0.0008478675736114383,
            0.09085191041231155,
            0.01513026375323534,
            0.012046623975038528,
            0.12905524671077728,
            -0.03117203526198864,
            0.01604347676038742,
            -0.04690253734588623,
            0.035773418843746185,
            -0.062197498977184296,
            0.06405331939458847,
            0.00373507896438241,
            -0.02793879061937332,
            -0.037575945258140564,
            0.01911679469048977,
            0.014085336588323116,
            0.05821705237030983,
            -0.11886455863714218,
            0.09203655272722244,
            0.008439905941486359,
            0.05490492284297943,
            -0.09073835611343384,
            0.05502491816878319,
            0.0161527581512928,
            0.13130630552768707,
            -0.05144214630126953,
            -0.07943658530712128,
            -0.007528632413595915,
            0.04598482698202133,
            0.023195205256342888,
            0.04410243406891823,
            0.04137655347585678,
            -0.014971956610679626,
            -0.09510187059640884,
            -0.04540596529841423,
            -0.08794300258159637,
            -0.060011062771081924,
            0.07813272625207901,
            -0.008274822495877743,
            0.03378136083483696,
            -0.04725419729948044,
            0.044481318444013596,
            0.03192276880145073,
            0.08328712731599808,
            0.023441752418875694,
            -0.12049580365419388,
            0.08565950393676758,
            0.12165290117263794,
            0.06860005110502243,
            0.09925112128257751,
            0.07258707284927368,
            -0.014489821158349514,
            0.008115656673908234,
            0.014724232256412506,
            0.12548613548278809,
            -0.0548149012029171,
            0.025194820016622543,
            0.018747856840491295,
            -0.022349610924720764,
            -0.005393252242356539,
            0.05834927782416344,
            -0.024865727871656418,
            -0.09409455955028534,
            0.013933096081018448,
            0.07019491493701935,
            0.014206216670572758,
            0.052109383046627045,
            -0.014885698445141315,
            0.10442839562892914,
            0.0643404871225357,
            0.08799346536397934,
            -0.04194236174225807,
            0.046773239970207214,
            -0.032668471336364746,
            -0.0344751812517643,
            -0.06560494750738144,
            0.05944397300481796,
            -0.061953190714120865,
            -0.09824089705944061,
            0.04026839882135391,
            0.04731341823935509,
            0.013773397542536259,
            -0.05378629267215729,
            0.02616049349308014,
            -0.050685226917266846,
            -0.10435313731431961,
            0.04950908198952675,
            -0.0011492084013298154,
            -0.04555266350507736,
            -0.010867840610444546,
            0.07533323019742966,
            0.02499244175851345,
            -0.07211428135633469,
            0.10036151111125946,
            -0.040388379245996475,
            0.10245229303836823,
            -0.11033356934785843,
            0.0651835948228836,
            0.05492498725652695,
            -0.027820613235235214,
            0.04043009877204895,
            -0.01696847565472126,
            -0.044371988624334335,
            0.03223084285855293,
            0.0591382272541523,
            0.06094016134738922,
            0.04621398448944092,
            -0.015981798991560936,
            -0.0018474189564585686,
            -0.09690508991479874,
            0.028124162927269936,
            -0.08501168340444565,
            -0.001599121605977416,
            -0.004238846246153116,
            -0.07333286106586456,
            0.08248867094516754,
            -0.07317301630973816,
            0.024873850867152214,
            0.09431573748588562,
            0.04916824400424957,
            0.09737733006477356,
            0.08846447616815567,
            -0.07440821081399918,
            0.028673380613327026,
            -0.040394313633441925,
            -0.033996351063251495,
            0.08735790103673935,
            0.00969190988689661,
            0.02464030124247074,
            -0.07154202461242676,
            -0.0789913460612297,
            -0.12794309854507446,
            -0.0919635146856308,
            0.027943937107920647,
            0.03553103283047676,
            0.0790373831987381,
            -0.07206395268440247,
            0.03198743239045143,
            0.07218216359615326,
            -0.06043853238224983,
            0.059246063232421875,
            0.01551241334527731,
            -0.014369327574968338,
            0.005267496220767498,
            0.11114460974931717,
            -0.07262172549962997,
            -0.08509321510791779,
            0.08749813586473465,
            -0.022409679368138313,
            -0.050049927085638046,
            0.05121676251292229,
            -0.036901239305734634,
            0.044735074043273926,
            -0.07834691554307938,
            -0.019018879160284996,
            -0.06708225607872009,
            0.00042088571353815496,
            0.04773697629570961,
            -0.05087590962648392,
            0.025659499689936638,
            0.0060594468377530575,
            -0.049832623451948166,
            0.0693342313170433,
            0.0016330537619069219,
            0.04809324070811272,
            0.007987155579030514,
            0.05789449065923691,
            -0.062007512897253036,
            -0.07033322006464005,
            -0.00462378840893507,
            0.0867818221449852,
            0.07681342959403992,
            -0.07363501936197281,
            -0.04525504633784294,
            -0.03059125319123268,
            -0.03593183681368828,
            0.005318637005984783,
            0.08866710215806961,
            -0.022072596475481987,
            0.02594197914004326,
            0.026681935414671898,
            -0.015638820827007294,
            -0.06997854262590408,
            0.013563442043960094,
            -0.008340894244611263,
            -0.03239016234874725,
            0.09813468158245087,
            -0.06541891396045685,
            0.015225538983941078,
            0.03950846567749977,
            0.04757174104452133,
            0.09403231739997864,
            -0.03365335240960121,
            -0.03718133270740509,
            0.04930095374584198,
            -0.060166846960783005,
            0.01085744984447956,
            0.0010113383177667856,
            -0.04179902747273445,
            -0.0898713618516922,
            0.006929741241037846,
            -0.00028558773919939995,
            -0.0812150165438652,
            -0.07811840623617172,
            -0.007364946883171797,
            0.0706835687160492,
            0.04022054374217987,
            0.0978604331612587,
            -0.0914635881781578,
            -0.10298632830381393,
            0.0205535888671875,
            0.024282747879624367,
            -0.08877212554216385,
            -0.08650429546833038,
            0.04735666885972023,
            0.09824173897504807,
            0.04734481871128082,
            0.01855146512389183,
            0.0717490091919899,
            0.07667756825685501,
            -0.06328848004341125,
            -0.0434868298470974,
            -0.07770773768424988,
            -0.010438895784318447,
            -0.008702203631401062,
            0.056158289313316345,
            0.02454354800283909,
            -0.008261801674962044,
            0.038370560854673386,
            -0.037839580327272415,
            0.00908019207417965,
            -0.03590121865272522,
            -0.020540699362754822,
            0.00806521624326706,
            0.055018290877342224,
            -0.05695272237062454,
            -0.03146516904234886,
            -0.043469738215208054,
            0.03148235008120537,
            0.01449571456760168,
            -0.03594354912638664,
            0.0828346386551857,
            -0.03379560261964798,
            -0.03346799686551094,
            0.15508005023002625,
            -0.010256749577820301,
            0.10905200988054276,
            0.026214543730020523,
            0.09360463917255402,
            -0.003802940482273698,
            -0.06486288458108902,
            -0.029997870326042175,
            -0.0773296058177948,
            0.013900683261454105,
            0.07915991544723511,
            -0.02435864880681038,
            0.03393469378352165,
            0.029087387025356293,
            -0.03874097391963005,
            -0.026684410870075226,
            -0.019596854224801064,
            -0.020838972181081772,
            -0.02481829933822155,
            0.016644231975078583,
            -0.03928182274103165,
            -0.022239835932850838,
            -0.06654268503189087,
            0.06381338834762573,
            -0.06778980046510696,
            -0.04143138974905014,
            0.00020108374883420765,
            -0.04366576299071312,
            0.04585275799036026,
            -0.09187114238739014,
            -0.023149562999606133,
            0.057860031723976135,
            -0.043865565210580826,
            0.04278569668531418,
            -0.02575618401169777,
            0.034388232976198196,
            0.0182538740336895,
            -0.0032285971101373434,
            -0.006428405176848173,
            0.0014192250091582537,
            -0.08835157752037048,
            -0.0017218660796061158,
            0.00203042128123343,
            -0.07871837168931961,
            -0.02619478479027748,
            -0.08801905810832977,
            0.006693614646792412,
            0.13297148048877716,
            -0.026537936180830002,
            0.024045798927545547,
            -0.11228176951408386,
            -0.01688908226788044,
            -0.05262256786227226,
            0.02164359763264656,
            0.09521489590406418,
            0.07963353395462036,
            -0.03740575164556503,
            -0.008722255006432533,
            0.17748188972473145,
            -0.058650385588407516,
            -0.03453201428055763,
            0.09206466376781464,
            0.06070195883512497,
            0.12947620451450348,
            0.10317371785640717,
            -0.11635460704565048,
            0.008152107708156109,
            0.0955178514122963,
            -0.031857263296842575,
            0.05493767559528351,
            -0.06182483956217766,
            -0.043400879949331284,
            0.021327447146177292,
            -0.11721779406070709,
            0.0906822606921196,
            0.10598435997962952,
            0.05071790888905525,
            0.0893135815858841,
            0.10057386755943298,
            0.033547453582286835,
            0.1055874451994896,
            -0.0200846828520298,
            0.003911464009433985,
            0.062237806618213654,
            0.009714524261653423,
            0.021943196654319763,
            -0.034590188413858414,
            0.045581888407468796,
            -0.03258844092488289,
            0.028722893446683884,
            -0.0024782910477370024,
            -0.08139710873365402,
            0.03726935759186745,
            0.05844330042600632,
            0.08950364589691162,
            0.045673489570617676,
            -0.0624154657125473,
            0.0947490930557251,
            -0.11048226058483124,
            0.010902836918830872,
            -0.028159623965620995,
            -0.02519671618938446,
            0.04563315585255623,
            0.027299363166093826,
            0.034375619143247604,
            0.07412704080343246,
            0.08733762800693512,
            0.05020344629883766,
            -0.04108205437660217,
            0.1336255520582199,
            0.036864474415779114,
            -0.02022126503288746,
            0.06819725781679153,
            0.013324466533958912,
            -0.05652599036693573,
            -0.04348980262875557,
            -0.006767165847122669,
            0.009894879534840584,
            -0.025719206780195236,
            -0.054490573704242706,
            -0.07391249388456345,
            -0.007460192311555147,
            -0.007751876022666693,
            0.05876598879694939,
            0.05820908397436142,
            0.01999148353934288,
            0.008331093937158585,
            -0.052253611385822296,
            0.12912127375602722,
            -0.08305679261684418,
            -0.016843559220433235,
            -0.008959710597991943,
            0.023095600306987762,
            0.08629831671714783,
            -0.00037458896986208856,
            -0.07837442308664322,
            0.06298672407865524,
            -0.012915823608636856,
            0.09413132816553116,
            -0.02964802086353302,
            0.0049226186238229275,
            -0.0015975370770320296,
            0.025311967357993126,
            -0.10136555880308151,
            0.07967562973499298,
            -0.014031351543962955,
            0.06328834593296051,
            0.11304522305727005,
            -0.04579561948776245,
            -0.040670398622751236,
            0.03834148868918419,
            -0.01793201081454754,
            -0.016499651595950127,
            -0.0529058463871479,
            -0.004426996223628521,
            0.0878152921795845,
            0.004657917656004429,
            0.07866872102022171,
            0.00019703251018654555,
            0.07681319117546082,
            0.021001121029257774,
            -0.052490994334220886,
            0.008797704242169857,
            0.1014406606554985,
            0.02724960818886757,
            -0.0455339215695858,
            -0.03200262784957886,
            0.06054024025797844,
            -0.0259090568870306,
            -0.0553383007645607,
            0.021256081759929657,
            -0.0543532595038414,
            0.03142448142170906,
            -0.05431576445698738,
            -0.006661310326308012,
            0.13236917555332184,
            0.028746366500854492,
            -0.06114291772246361,
            0.006591118406504393,
            0.08309810608625412,
            0.04623991623520851,
            0.06717006862163544,
            -0.022661486640572548,
            -0.03470156714320183,
            -0.11551996320486069,
            -0.0737394168972969,
            0.08737584948539734,
            -0.05319688096642494,
            -0.045208368450403214,
            0.0038872919976711273,
            -0.04028793051838875,
            -0.0261908620595932,
            0.009369167499244213,
            -0.05207693576812744,
            0.02072623372077942,
            0.041733477264642715,
            -0.022893032059073448,
            -0.03708191588521004,
            0.014524884521961212,
            -0.03299064561724663,
            0.13218900561332703,
            -0.0006609046249650419,
            0.11295720189809799,
            0.07489163428544998,
            -0.05203830450773239,
            0.07419811189174652,
            0.11211417615413666,
            0.07246995717287064,
            -0.03867644444108009,
            0.059103526175022125,
            0.04009343311190605,
            0.055584218353033066,
            0.05590439215302467,
            0.06415507942438126,
            -0.03007897362112999,
            0.0753883346915245,
            -0.031483910977840424,
            -0.03818667680025101,
            -0.03148363158106804,
            0.004378213547170162,
            0.09662739932537079,
            0.07568440586328506,
            0.0499146431684494,
            0.04226440563797951,
            0.048771198838949203,
            -0.00013716374814976007,
            -0.031572625041007996,
            -0.09153634309768677,
            -0.021031484007835388,
            -0.0156584233045578,
            -0.016008730977773666,
            0.03018047660589218,
            0.0818595141172409,
            -0.05175113305449486,
            -0.007707409095019102,
            0.030218705534934998,
            0.009685341268777847,
            -0.026723474264144897,
            -0.06964470446109772,
            0.018235381692647934,
            -0.06887922435998917,
            0.06346049904823303,
            0.06189994513988495,
            0.017964273691177368,
            -0.021709835156798363,
            -0.03301540017127991,
            0.057691264897584915,
            0.06331746280193329,
            -0.039295632392168045,
            0.03826295956969261,
            0.10230356454849243,
            0.09499911218881607,
            0.0061861020512878895,
            -0.04445463418960571,
            0.015839189291000366,
            -0.09542074799537659,
            0.0006468492210842669,
            0.055856749415397644,
            -0.03368857502937317,
            0.07748528569936752,
            0.03635934740304947,
            0.098535917699337,
            0.02909441851079464,
            -0.011396747082471848,
            0.09423049539327621,
            -0.053656406700611115,
            0.025489341467618942,
            -0.09373989701271057,
            -0.13060003519058228,
            -0.019835656508803368,
            0.10505898296833038,
            0.06378833949565887,
            0.04481542110443115,
            -0.04825849086046219,
            -0.02065970003604889,
            0.014749626629054546,
            -0.009232333861291409,
            -0.035372983664274216,
            0.16002638638019562,
            0.015923554077744484,
            -0.006143151316791773,
            -0.032090526074171066,
            -0.05684218183159828,
            -0.09367138892412186,
            0.0022258032113313675,
            0.008040448650717735,
            0.038956962525844574,
            -0.09086031466722488,
            -0.12476298958063126,
            -0.01629265770316124,
            0.0021247186232358217,
            0.016351694241166115,
            -0.03730721399188042,
            0.07994351536035538,
            0.13411597907543182,
            0.05259290710091591,
            -0.16040368378162384,
            -0.04690878093242645,
            -0.04460170492529869,
            -0.01837579533457756,
            0.00396463368088007,
            -0.09998409450054169,
            0.10335128009319305,
            -0.018413251265883446,
            -0.046240001916885376,
            0.04355547949671745,
            -0.04644094407558441,
            -0.04540623351931572,
            0.01827019266784191,
            0.058615945279598236,
            0.11605765670537949,
            0.044984929263591766,
            -0.04723666235804558,
            -0.09431006759405136,
            0.052951231598854065,
            -0.09530607610940933,
            -0.03957296162843704,
            0.046523064374923706,
            0.019948208704590797,
            0.030015451833605766,
            0.07466117292642593,
            -0.024597730487585068,
            0.065569207072258,
            -0.0011736335000023246,
            0.03329858556389809,
            0.050382498651742935,
            -0.02488958090543747,
            -0.05252142995595932,
            0.02160666137933731,
            -0.04734688997268677,
            -0.05186917260289192,
            -0.019015202298760414,
            -0.08049914985895157,
            -0.011965034529566765,
            0.016569867730140686,
            -0.10851600021123886,
            -0.033058445900678635,
            0.0663580596446991,
            0.05601215362548828,
            -0.06289217621088028,
            -0.1103135198354721,
            -0.010235589928925037,
            0.08701985329389572,
            0.013759654015302658,
            0.057658709585666656,
            -0.07203411310911179,
            0.014971990138292313,
            -0.015874186530709267,
            -0.1151297464966774,
            -0.026413781568408012,
            -0.02153017744421959,
            0.05980190262198448,
            0.01933162473142147,
            -0.11341771483421326,
            -0.018860094249248505,
            -0.032178785651922226,
            -0.012549318373203278,
            -0.00482533685863018,
            0.0022507875692099333,
            0.00184273486956954,
            -0.048060156404972076,
            -0.02872304990887642,
            0.015657784417271614,
            0.09991300851106644,
            0.011542143300175667,
            -0.04116224870085716,
            -0.03567511960864067,
            0.01307685300707817,
            -0.08562678098678589,
            0.023841504007577896,
            0.08914800733327866,
            -0.0655452311038971,
            0.01307167112827301,
            -0.08436746150255203,
            0.07672416418790817,
            0.029653212055563927,
            -0.05589951202273369,
            0.06329786032438278,
            0.06546977162361145,
            0.005856313742697239,
            0.03732907772064209,
            -0.06985750049352646,
            0.01245932001620531,
            0.06801777333021164,
            -0.052281346172094345,
            -0.012564035132527351,
            -0.08003464341163635,
            0.01759190484881401,
            0.01648419164121151,
            0.021525569260120392,
            0.10420437902212143,
            -0.04514789953827858,
            -0.004183019511401653,
            0.058981794863939285,
            -0.05475673824548721,
            0.015453167259693146,
            -0.059638671576976776,
            0.0297295693308115,
            -0.08137835562229156,
            -0.024907786399126053,
            0.11249753087759018,
            -0.009229296818375587,
            0.014008170925080776,
            0.06656645238399506,
            0.0567108616232872,
            -0.04124946892261505,
            0.05632154643535614,
            -0.04620479792356491,
            -0.0971418023109436,
            -0.06055734306573868,
            -0.07421557605266571,
            -0.04327571019530296,
            -0.01580137573182583,
            0.019994044676423073,
            0.04501544311642647,
            -0.054920874536037445,
            0.015594938769936562,
            -0.0973232239484787,
            0.07108429819345474,
            -0.005715798120945692,
            -0.058481112122535706,
            -0.01670979894697666,
            0.10255790501832962,
            0.09341274201869965,
            0.13402216136455536,
            0.08309037238359451,
            -0.07944194227457047,
            -0.06627798080444336,
            -0.012864588759839535,
            -0.08758306503295898,
            0.07876592874526978,
            -0.0956936627626419,
            0.32460764050483704,
            0.1467645913362503,
            -0.15780290961265564,
            0.2436773031949997,
            -0.14761285483837128,
            -0.1250070333480835,
            -0.24268986284732819,
            0.07070007920265198,
            0.06822959333658218,
            0.11719468235969543,
            0.010548590682446957,
            -0.1102616935968399,
            0.16557829082012177,
            0.02687552571296692,
            0.08890234678983688,
            0.0225813090801239,
            -0.017350105568766594,
            0.05073266848921776,
            0.3058103621006012,
            0.12022972106933594,
            0.05474691838026047,
            -0.1859855353832245,
            0.08021635562181473,
            0.11566463112831116,
            0.03943271189928055,
            -0.22648294270038605,
            -0.11484231054782867,
            0.040215227752923965,
            -0.029951488599181175,
            0.058952100574970245,
            0.20827269554138184,
            -0.033048197627067566,
            0.04421570524573326,
            0.014767865650355816,
            -0.05531090870499611,
            0.030804786831140518,
            -0.14624318480491638,
            0.05206340178847313,
            -0.07834814488887787,
            0.004535089246928692,
            0.07861942052841187,
            -0.12287724018096924,
            -0.03097342886030674,
            0.10722367465496063,
            0.13519032299518585,
            0.02128017507493496,
            -0.09163753688335419,
            -0.3080609440803528,
            0.17748703062534332,
            -0.010780701413750648,
            -0.06283719092607498,
            -0.019597092643380165,
            0.0506027489900589,
            -0.23975850641727448,
            -0.018331116065382957,
            -0.1151038333773613,
            0.0719032809138298,
            -0.07586432248353958,
            0.031089788302779198,
            -0.057536300271749496,
            -0.09071318805217743,
            -0.1383611112833023,
            -0.0353890061378479,
            -0.0843934565782547,
            -0.04432205483317375,
            0.08029228448867798,
            -0.02794904261827469,
            0.06962552666664124,
            -0.0037326663732528687,
            -0.18808235228061676,
            0.019970668479800224,
            -0.09399803727865219,
            0.15117321908473969,
            -0.18167492747306824,
            -0.02830837294459343,
            0.12938883900642395,
            0.20480012893676758,
            -0.17419736087322235,
            0.0008377187186852098,
            0.23589204251766205,
            -0.05968561768531799,
            0.055979371070861816,
            -0.005127645563334227,
            0.019926147535443306,
            0.1059027686715126,
            -0.07733453810214996,
            0.02029939740896225,
            -0.06707897782325745,
            0.11491023004055023,
            -0.1375168263912201,
            0.08934280276298523,
            0.23841463029384613,
            -0.03829808160662651,
            -0.18251551687717438,
            -0.13959813117980957,
            0.03569835051894188,
            0.18548481166362762,
            0.2575860917568207,
            -0.017690692096948624,
            -0.016598757356405258,
            -0.09226245433092117,
            0.09388792514801025,
            -0.14171288907527924,
            0.014062360860407352,
            0.1586848944425583,
            0.1525769829750061,
            0.025572819635272026,
            -0.07580722868442535,
            0.01476057805120945,
            0.177806094288826,
            -0.13107387721538544,
            -0.07754669338464737,
            0.04081584885716438,
            -0.10355771332979202,
            -0.025523319840431213,
            0.0018706799019128084,
            -0.06315610557794571,
            0.03980528190732002,
            -0.15540610253810883,
            -0.13739365339279175,
            -0.04428468272089958,
            -0.11019974201917648,
            -0.08899664133787155,
            -0.08826407045125961,
            0.13070407509803772,
            0.13195058703422546,
            -0.02008741721510887,
            0.06639599055051804,
            -0.061197761446237564,
            -0.07531355321407318,
            0.12450464814901352,
            -0.05702625587582588,
            -0.14647962152957916,
            0.05892137065529823,
            0.0929848700761795,
            0.018176348879933357,
            0.14735370874404907,
            -0.08765977621078491,
            -0.062046315521001816,
            -0.11420392990112305,
            -0.128032386302948,
            0.017971893772482872,
            0.07390081882476807,
            0.008706542663276196,
            0.12496952712535858,
            -0.1860206127166748,
            0.01625758782029152,
            0.12250634282827377,
            0.21146221458911896,
            -0.18685437738895416,
            0.033062808215618134,
            0.14457127451896667,
            0.021584555506706238,
            0.05993646755814552,
            -0.12722094357013702,
            0.10783490538597107,
            -0.11754599213600159,
            0.12148226052522659,
            0.024787670001387596,
            0.001641113543882966,
            -0.021747572347521782,
            0.08126573264598846,
            -0.09900826960802078,
            0.00519115524366498,
            -0.16479970514774323,
            0.08786317706108093,
            0.10441175848245621,
            0.2855903208255768,
            0.02011297084391117,
            0.08860374987125397,
            -0.07984066009521484,
            -0.2018021196126938,
            0.2282450646162033,
            -0.052105631679296494,
            -0.012258256785571575,
            0.05054331198334694,
            0.28628185391426086,
            -0.05145376920700073,
            -0.10098475962877274,
            0.015886234119534492,
            -0.10867473483085632,
            -0.17348185181617737,
            -0.005322570446878672,
            -0.18553057312965393,
            0.11315782368183136,
            0.10538013279438019,
            0.00379230291582644,
            -0.08754226565361023,
            -0.05181488022208214,
            0.23121954500675201,
            -0.10843100398778915,
            0.1705601066350937,
            -0.06111593171954155,
            0.13471895456314087,
            -0.09377843886613846,
            -0.007908248342573643,
            0.14711441099643707,
            0.019392112269997597,
            0.2433476597070694,
            -0.013925239443778992,
            -0.0752294659614563,
            0.07804808765649796,
            -0.12607908248901367,
            0.032454345375299454,
            -0.021541472524404526,
            -0.03013005666434765,
            0.10642897337675095,
            0.12373792380094528,
            0.12073374539613724,
            -0.14173562824726105,
            -0.03328943997621536,
            0.0255964957177639,
            -0.0486261285841465,
            0.021976850926876068,
            0.026746347546577454,
            0.08739904314279556,
            0.04832417890429497,
            -0.23252323269844055,
            0.050984498113393784,
            -0.15898478031158447,
            -0.0019941634964197874,
            -0.12505750358104706,
            0.08003779500722885,
            0.13192544877529144,
            0.02245008386671543,
            0.01192668080329895,
            -0.08499157428741455,
            -0.0063430084846913815,
            -0.025904525071382523,
            -0.08628425747156143,
            0.05916256085038185,
            0.222410187125206,
            -0.10693641006946564,
            0.10923156887292862,
            0.02814091369509697,
            -0.09616094082593918,
            -0.060783348977565765,
            -0.20160123705863953,
            -0.03861736133694649,
            0.058040551841259,
            0.07092978805303574,
            0.01562793366611004,
            0.0701255053281784,
            0.19689589738845825,
            -0.08557465672492981,
            0.05321849137544632,
            -0.12853483855724335,
            -0.21344608068466187,
            0.25143614411354065,
            0.0897940918803215,
            0.0008228604565374553,
            -0.02780272625386715,
            0.007185795344412327,
            0.2850033640861511,
            -0.18059299886226654,
            0.08025738596916199,
            -0.19379392266273499,
            0.043311957269907,
            0.18451808393001556,
            -0.18856126070022583,
            0.030172716826200485,
            0.08884043991565704,
            0.03060201182961464,
            -0.03580575808882713,
            -0.1337434947490692,
            -0.1473366916179657,
            -0.06093006581068039,
            0.20431318879127502,
            0.07741161435842514,
            -0.29208338260650635,
            -0.07491245120763779,
            -0.2440081536769867,
            0.08227948844432831,
            -0.03597058355808258,
            0.050127413123846054,
            -0.07545246928930283,
            -0.09137874096632004,
            0.025879839435219765,
            -0.09654366970062256,
            0.07220550626516342,
            0.12287626415491104,
            -0.1176467016339302,
            0.008678690530359745,
            -0.015225492417812347,
            0.06379836797714233,
            -0.059344399720430374,
            -0.03564218431711197,
            -0.06451777368783951,
            0.03729279711842537,
            0.11655602604150772,
            0.040449053049087524,
            -0.061146341264247894,
            0.041118934750556946,
            0.04171016812324524,
            0.09883005172014236,
            -0.0030619597528129816,
            -0.015339870937168598,
            -0.06273260712623596,
            0.08138402551412582,
            0.048517826944589615,
            -0.05170485004782677,
            -0.05434393137693405,
            0.01284806802868843,
            -0.005562520120292902,
            -0.002815305022522807,
            0.019522465765476227,
            0.07124019414186478,
            -0.003215876640751958,
            0.049533452838659286,
            0.05884458124637604,
            -0.01598239503800869,
            0.05967159941792488,
            0.04885087534785271,
            -0.03136061131954193,
            0.08674439787864685,
            0.06757967174053192,
            -0.09408479928970337,
            -0.06188562512397766,
            0.033530090004205704,
            0.04957672953605652,
            0.011612551286816597,
            -0.11178449541330338,
            0.07126984745264053,
            0.014845365658402443,
            0.12506946921348572,
            0.04599754884839058,
            0.007729967590421438,
            0.08798590302467346,
            -0.000980019336566329,
            0.018806634470820427,
            -0.033003173768520355,
            -0.06542929261922836,
            -0.07971751689910889,
            0.10676699876785278,
            -0.029020056128501892,
            0.04835769906640053,
            0.04714198037981987,
            -0.05402847006917,
            0.021594442427158356,
            -0.07209519296884537,
            -0.03242751955986023,
            -0.05535600706934929,
            0.05012121424078941,
            0.0560494065284729,
            -0.090157151222229,
            -0.049730923026800156,
            -0.011965364217758179,
            -0.08836628496646881,
            -0.044076114892959595,
            0.05095042660832405,
            0.02709793485701084,
            -0.050350841134786606,
            -0.018565936014056206,
            -0.019560037180781364,
            -0.0742965117096901,
            -0.049689486622810364,
            -0.08282753825187683,
            -0.09526895731687546,
            0.045603737235069275,
            0.06620408594608307,
            0.05245474725961685,
            0.018972329795360565,
            0.05189985781908035,
            0.01946830563247204,
            -0.14604821801185608,
            0.09209442883729935,
            -0.06917703151702881,
            -0.021929115056991577,
            0.0029819209594279528,
            0.01711760275065899,
            0.12017429620027542,
            0.02664235234260559,
            -0.039491571485996246,
            0.06606732308864594,
            0.048540953546762466,
            -0.08421950787305832,
            0.005411055404692888,
            0.04719138145446777,
            0.05446114018559456,
            0.0260376688092947,
            0.05814003199338913,
            -0.07082826644182205,
            0.05570792034268379,
            -0.05672229826450348,
            0.027827059850096703,
            -0.03205017372965813,
            0.01064745057374239,
            0.08438950031995773,
            0.06104087457060814,
            0.03628743439912796,
            0.00027295335894450545,
            -0.0022808725479990244,
            0.02466292679309845,
            0.0843379870057106,
            -0.0388450101017952,
            0.10560400038957596,
            0.09135111421346664,
            -0.0005589070497080684,
            -0.025733424350619316,
            -0.02151937037706375,
            -0.05610647797584534,
            0.0559232272207737,
            -0.03538960590958595,
            -0.0026217286940664053,
            0.03275607153773308,
            0.057500582188367844,
            -0.07401949912309647,
            0.048826735466718674,
            0.03085089661180973,
            0.03221508115530014,
            -0.002511438447982073,
            0.039571646600961685,
            0.03575393557548523,
            0.0527300164103508,
            0.03659598156809807,
            0.08486403524875641,
            -0.05664060637354851,
            -0.019857440143823624,
            -0.05624442175030708,
            -0.05933232605457306,
            -0.08419167995452881,
            -0.08748481422662735,
            0.004150782711803913,
            0.07496629655361176,
            0.028649311512708664,
            -0.0019662922713905573,
            -0.04021554812788963,
            -0.015872733667492867,
            0.08350618928670883,
            0.071831613779068,
            0.10408387333154678,
            0.06485621631145477,
            0.008413431234657764,
            0.07061755657196045,
            -0.01050602737814188,
            0.0029920400120317936,
            0.03585689514875412,
            -0.020325127989053726,
            -0.029006682336330414,
            0.051778394728899,
            0.043765317648649216,
            -0.05519333854317665,
            0.012974156066775322,
            0.016266807913780212,
            0.024993032217025757,
            0.0820622593164444,
            0.017843065783381462,
            0.059614792466163635,
            -0.025716343894600868,
            0.07202084362506866,
            0.08713249862194061,
            -0.04555284604430199,
            -0.11098193377256393,
            -0.076309934258461,
            0.04252167046070099,
            -0.0972912386059761,
            -0.016525227576494217,
            -0.03890503942966461,
            0.027747593820095062,
            -0.06545849144458771,
            -0.04860670492053032,
            -0.0073204184882342815,
            -0.03387448191642761,
            -0.06358226388692856,
            0.07215171307325363,
            0.0195755697786808,
            0.07278907299041748,
            -0.0840146392583847,
            0.09105178713798523,
            0.033668145537376404,
            -0.03650631755590439,
            0.05433834344148636,
            -0.03314197063446045,
            -0.05967465043067932,
            0.08998634666204453,
            0.0895041823387146,
            0.0009669165592640638,
            -0.06819239258766174,
            0.024518517777323723,
            0.055463772267103195,
            0.0658184066414833,
            0.006119952537119389,
            0.07068092375993729,
            -0.0481736995279789,
            0.013697854243218899,
            0.0325765535235405,
            -0.025771357119083405,
            -0.05223637446761131,
            0.03657431900501251,
            0.0763334259390831,
            -0.015511401928961277,
            0.0472235269844532,
            0.02904079109430313,
            0.07121705263853073,
            0.07185661792755127,
            0.018150506541132927,
            -0.05172588303685188,
            0.05055568739771843,
            -0.16023515164852142,
            -0.02922210842370987,
            0.037783555686473846,
            -0.022720400243997574,
            0.07403776794672012,
            0.06201985478401184,
            0.1789817363023758,
            -0.019907532259821892,
            -0.07532663643360138,
            0.026034139096736908,
            0.0025638649240136147,
            -0.06539730727672577,
            0.06966902315616608,
            0.022459939122200012,
            0.07236211001873016,
            -0.15293408930301666,
            0.04814785346388817,
            0.023488961160182953,
            -0.053006913512945175,
            0.06891722232103348,
            0.0007428367389366031,
            -0.007198722567409277,
            0.09080205112695694,
            -0.04145378991961479,
            0.003112335689365864,
            -0.13384799659252167,
            -0.01346510462462902,
            -0.07378613203763962,
            -0.05755586922168732,
            0.05803722143173218,
            0.1480715274810791,
            0.1495315432548523,
            0.16457432508468628,
            0.27554187178611755,
            -0.13524481654167175,
            -0.007479026913642883,
            0.05815038084983826,
            0.09666607528924942,
            0.030428724363446236,
            -0.04365731030702591,
            -0.10003455728292465,
            0.035606831312179565,
            -0.07831375300884247,
            0.06964923441410065,
            0.02837059460580349,
            0.12274666875600815,
            0.10444037616252899,
            0.06875806301832199,
            0.010735115967690945,
            -0.2296975702047348,
            0.08847463130950928,
            0.1321076899766922,
            -0.10460984706878662,
            0.06396537274122238,
            -0.14483694732189178,
            0.08240599185228348,
            0.03595418483018875,
            -0.10939321666955948,
            -0.15953698754310608,
            -0.05960677191615105,
            -0.09614318609237671,
            -0.0422247052192688,
            0.0359918437898159,
            -0.01210701372474432,
            -0.12999624013900757,
            0.09398713707923889,
            -0.048963211476802826,
            0.041394516825675964,
            -0.19803963601589203,
            -0.02923744171857834,
            0.19556090235710144,
            -0.08343876153230667,
            0.17897875607013702,
            0.32829007506370544,
            0.038979820907115936,
            -0.07393699884414673,
            -0.05844241753220558,
            0.05742751434445381,
            -0.06977787613868713,
            0.0772288367152214,
            -0.10421949625015259,
            0.08053378015756607,
            0.08863180875778198,
            -0.10102573782205582,
            0.07930324226617813,
            -0.010752784088253975,
            -0.15331709384918213,
            0.04361344128847122,
            -0.0642147809267044,
            0.010549097321927547,
            0.03167662397027016,
            0.03305051475763321,
            0.09294196218252182,
            0.03951273113489151,
            0.00070275051984936,
            0.05269677937030792,
            0.03260107338428497,
            0.08786467462778091,
            -0.04565346986055374,
            0.06053655222058296,
            -0.08147090673446655,
            -0.014983490109443665,
            -0.08726553618907928,
            -0.01684747077524662,
            -0.015104241669178009,
            0.018642233684659004,
            0.08940937370061874,
            0.09292636811733246,
            -0.02743927575647831,
            -0.031574543565511703,
            -0.04331783577799797,
            -0.07712491601705551,
            -0.013550001196563244,
            -0.016717292368412018,
            0.07847703993320465,
            0.08038108050823212,
            0.038783635944128036,
            0.0423412062227726,
            0.03431374952197075,
            0.031200245022773743,
            -0.003648084355518222,
            0.024564946070313454,
            0.007005921099334955,
            0.015831314027309418,
            -0.06139258295297623,
            -0.015789872035384178,
            -0.07781536877155304,
            0.07750146836042404,
            0.04812569543719292,
            0.0383855476975441,
            0.05233139172196388,
            -0.055685821920633316,
            0.08243745565414429,
            0.025830330327153206,
            0.06436768919229507,
            -0.079205721616745,
            0.05390780046582222,
            0.03170891851186752,
            0.02041594125330448,
            -0.07704254984855652,
            -0.020980818197131157,
            -0.059373535215854645,
            0.02539885975420475,
            -0.07737400382757187,
            0.00033864585566334426,
            0.0247634407132864,
            0.0680520087480545,
            0.000859924010001123,
            0.024818312376737595,
            -0.067796491086483,
            0.00951392576098442,
            -0.052271414548158646,
            -0.03569547459483147,
            -0.0636134147644043,
            -0.02031753957271576,
            0.019925447180867195,
            0.02460722252726555,
            0.03554563596844673,
            -0.06396397948265076,
            -0.08095184713602066,
            -0.02059948444366455,
            -0.006866545416414738,
            0.08749061822891235,
            -0.03594336658716202,
            0.012967891991138458,
            0.0861600786447525,
            0.04231172055006027,
            0.09220147877931595,
            -0.06994105130434036,
            -0.012125258333981037,
            0.04693150147795677,
            0.016969168558716774,
            0.0013671645428985357,
            0.06932765990495682,
            0.06740610301494598,
            -0.042862001806497574,
            -0.009919926524162292,
            -0.0005632965476252139,
            0.07006466388702393,
            0.04721328616142273,
            -0.011444242671132088,
            0.04657122120261192,
            0.08877719193696976,
            -0.04211017116904259,
            -0.034345854073762894,
            0.006367417052388191,
            0.03287282958626747,
            0.01064575370401144,
            -0.061701610684394836,
            -0.0784735158085823,
            0.14223772287368774,
            -0.11516672372817993,
            -0.19871768355369568,
            0.3124401271343231,
            -0.11388280987739563,
            -0.07892339676618576,
            -0.07818837463855743,
            -0.010190223343670368,
            0.17642931640148163,
            0.1490262746810913,
            -0.08434447646141052,
            -0.17726516723632812,
            -0.08825276046991348,
            0.1198558583855629,
            -0.16032490134239197,
            0.016565576195716858,
            0.09409055858850479,
            -0.015859872102737427,
            -0.05512579157948494,
            0.011142438277602196,
            -0.0004117771459277719,
            -0.019160963594913483,
            -0.062496911734342575,
            -0.0808618888258934,
            -0.05843368545174599,
            0.038740724325180054,
            -0.14512194693088531,
            -0.08685547113418579,
            0.03485417738556862,
            -0.014153741300106049,
            -0.001229352317750454,
            -0.09679366648197174,
            -0.07458923757076263,
            -0.12257339060306549,
            -0.2146705687046051,
            -0.03756079450249672,
            0.12143470346927643,
            -0.14668649435043335,
            -0.009860549122095108,
            -0.06669307500123978,
            -0.06632466614246368,
            -0.005387859884649515,
            0.010608082637190819,
            0.10384718328714371,
            -0.11512961983680725,
            0.13980633020401,
            0.10507949441671371,
            0.06298572570085526,
            0.06995230168104172,
            -0.11905097216367722,
            0.03001175820827484,
            -0.1026143729686737,
            -0.03529739007353783,
            0.03030112013220787,
            -0.09372110664844513,
            0.05881218984723091,
            0.01498392689973116,
            -0.027084289118647575,
            -0.1482553333044052,
            -0.08984389901161194,
            0.29131653904914856,
            0.05574130639433861,
            0.06106313318014145,
            0.11144094169139862,
            0.06486963480710983,
            0.13689856231212616,
            -0.196013942360878,
            0.09766080230474472,
            -0.012867212295532227,
            0.027201712131500244,
            -0.03673987835645676,
            0.07817661017179489,
            -0.04494962468743324,
            0.12346318364143372,
            -0.17600566148757935,
            -0.13158851861953735,
            0.014492708258330822,
            0.07328051328659058,
            7.156252831919119e-05,
            0.009735025465488434,
            -0.09533854573965073,
            -0.07141759246587753,
            -0.17774219810962677,
            -0.0008585447212681174,
            0.12633080780506134,
            0.019760234281420708,
            0.02014763280749321,
            -0.04789603874087334,
            0.15008224546909332,
            -0.1883837878704071,
            0.14070196449756622,
            0.07428533583879471,
            -0.05088130384683609,
            -0.0023951472248882055,
            0.03171295300126076,
            0.03096127137541771,
            0.22127597033977509,
            -0.13793334364891052,
            0.031329333782196045,
            0.10585683584213257,
            -0.07348137348890305,
            0.059213437139987946,
            -0.14765208959579468,
            -0.21223969757556915,
            -0.05315178260207176,
            0.0679115504026413,
            0.17723612487316132,
            -0.10698244720697403,
            0.04640769585967064,
            0.015110669657588005,
            -0.20588238537311554,
            -0.3054453134536743,
            -0.12583912909030914,
            0.16818855702877045,
            0.0026371122803539038,
            0.15039141476154327,
            0.00753983948379755,
            0.09263759106397629,
            -0.08330375701189041,
            -0.0015681814402341843,
            -0.12306752800941467,
            -0.057535625994205475,
            -0.05812733620405197,
            -0.15592683851718903,
            0.5564469695091248,
            0.020628461614251137,
            -0.1430581659078598,
            -0.007782384287565947,
            -0.06046982854604721,
            0.11301590502262115,
            0.33882418274879456,
            -0.06753134727478027,
            -0.23229433596134186,
            -0.1811179220676422,
            0.2778792977333069,
            0.1393115520477295,
            -0.06712397187948227,
            -0.0978926494717598,
            0.2042124718427658,
            -0.14317922294139862,
            -0.038399890065193176,
            0.17300093173980713,
            0.2739766240119934,
            -0.17906789481639862,
            -0.06498388200998306,
            0.07891666144132614,
            -0.07503011077642441,
            -0.08877848833799362,
            0.11574412137269974,
            0.05873103439807892,
            -0.11666794121265411,
            -0.13993753492832184,
            -0.09892772883176804,
            0.1117672249674797,
            0.13433831930160522,
            0.15231335163116455,
            -0.13615509867668152,
            -0.12100820243358612,
            0.04740353301167488,
            0.1673346906900406,
            0.07667317241430283,
            -0.17104095220565796,
            -0.07586284726858139,
            -0.15591324865818024,
            -0.09751725196838379,
            -0.03972780331969261,
            -0.06838484108448029,
            0.07619750499725342,
            0.12195982784032822,
            0.157821923494339,
            0.1354355663061142,
            -0.0340653732419014,
            0.06892957538366318,
            0.12419138848781586,
            -0.12066584825515747,
            0.20829850435256958,
            -0.05453377217054367,
            0.20530807971954346,
            0.002558386418968439,
            0.27079570293426514,
            -0.054557811468839645,
            0.011711552739143372,
            0.17410573363304138,
            0.27806058526039124,
            -0.033185794949531555,
            0.01984039694070816,
            0.09109332412481308,
            -0.03882431611418724,
            -0.1865866333246231,
            0.04365124553442001,
            0.18220894038677216,
            0.1179131418466568,
            0.0024018094409257174,
            0.031771186739206314,
            0.11149213463068008,
            0.11590296030044556,
            -0.09423822164535522,
            0.06821422278881073,
            -0.09952002763748169,
            0.010696250945329666,
            0.03491171821951866,
            -0.06399962306022644,
            -0.10597994178533554,
            -0.028480930253863335,
            0.01588750258088112,
            -0.11231372505426407,
            -0.07856126874685287,
            -0.018062816932797432,
            -0.06245360150933266,
            -0.07182860374450684,
            0.2667124569416046,
            -0.04530264064669609,
            -0.13607633113861084,
            -0.034808993339538574,
            -0.20536623895168304,
            -0.05590011551976204,
            -0.016225997358560562,
            -0.015550833195447922,
            0.08726286888122559,
            0.045777224004268646,
            0.10978581756353378,
            -0.07895790040493011,
            -0.10907208919525146,
            -0.06280940026044846,
            0.040729373693466187,
            -0.11614491790533066,
            -0.030956221744418144,
            0.20008350908756256,
            -0.013502102345228195,
            -0.030972415581345558,
            0.2451566904783249,
            -0.0014460881939157844,
            -0.047044023871421814,
            -0.10664327442646027,
            -0.09413667023181915,
            0.13846272230148315,
            -0.033233776688575745,
            0.05022114887833595,
            -0.02109265886247158,
            0.16587701439857483,
            -0.18708866834640503,
            0.3581660985946655,
            0.01948685571551323,
            -0.024831607937812805,
            0.07898331433534622,
            0.04336727783083916,
            -0.047058168798685074,
            -0.01811183989048004,
            -0.034634340554475784,
            0.09239395707845688,
            0.21436859667301178,
            -0.021104933694005013,
            0.038286175578832626,
            -0.11167426407337189,
            -0.09110353142023087,
            0.17870451509952545,
            -0.12815575301647186,
            0.016556020826101303,
            0.017470546066761017,
            -0.11199941486120224,
            0.048967912793159485,
            -0.018116217106580734,
            0.0894186720252037,
            -0.0728205069899559,
            -0.04485869035124779,
            0.16364863514900208,
            0.1587074249982834,
            -0.025850599631667137,
            -0.1515115648508072,
            -0.03332953900098801,
            0.03326485678553581,
            0.030080197378993034,
            0.12519964575767517,
            -0.06980369985103607,
            0.1671491116285324,
            0.08649158477783203,
            -0.009997828863561153,
            0.13165637850761414,
            -0.1968252807855606,
            -0.038331545889377594,
            0.021116502583026886,
            -0.037509333342313766,
            -0.026964083313941956,
            -0.18068645894527435,
            0.1021745428442955,
            -0.04963817074894905,
            0.13512156903743744,
            -0.13616850972175598,
            -0.14157934486865997,
            -0.11154952645301819,
            0.005349386483430862,
            0.17195215821266174,
            -0.0040092747658491135,
            -0.10734636336565018,
            -0.09196995198726654,
            0.10237112641334534,
            0.1049463078379631,
            -0.07877195626497269,
            0.032066404819488525,
            -0.09890919178724289,
            0.013353298418223858,
            0.11612821370363235,
            -0.003593422705307603,
            0.0003752956399694085,
            0.07213103026151657,
            -0.034799057990312576,
            -0.008268030360341072,
            -0.05500003695487976,
            0.047605812549591064,
            0.07114540040493011,
            -0.015447745099663734,
            -0.03992912918329239,
            0.04034905508160591,
            -0.02973000332713127,
            -0.082061767578125,
            -0.09942206740379333,
            -0.11049781739711761,
            -0.031896237283945084,
            -0.04534696787595749,
            -0.02133246138691902,
            -0.0569995678961277,
            0.0452430360019207,
            0.015115233138203621,
            -0.05567334592342377,
            -0.03415820375084877,
            -0.10611485689878464,
            0.03691675513982773,
            0.12796948850154877,
            -0.023918332532048225,
            -0.027290022000670433,
            -0.02090262621641159,
            0.14290687441825867,
            -0.06706089526414871,
            0.028252795338630676,
            0.006590206641703844,
            0.04656508192420006,
            0.08907236903905869,
            0.0387863889336586,
            -0.03129563480615616,
            -0.01659212075173855,
            -0.026575587689876556,
            -0.011149604804813862,
            -0.004116097465157509,
            0.04936720058321953,
            -0.0338531993329525,
            -0.026540035381913185,
            0.007930648513138294,
            -0.08330677449703217,
            -0.0022313722874969244,
            -0.04394238814711571,
            -0.00664563849568367,
            0.0749160498380661,
            0.07174021750688553,
            0.014853047206997871,
            0.05686931684613228,
            0.007806563284248114,
            0.07655607908964157,
            -0.013810237869620323,
            0.12093564867973328,
            0.015092367306351662,
            -0.000686840561684221,
            -0.08660603314638138,
            -0.042721401900053024,
            -0.03454899415373802,
            -0.0005133812665008008,
            0.004756706766784191,
            -0.050241220742464066,
            0.021952182054519653,
            -0.008546892553567886,
            0.02758125402033329,
            -0.0666736587882042,
            0.08390558511018753,
            -0.0019416252616792917,
            -0.018892383202910423,
            -0.07337518781423569,
            0.05797396972775459,
            0.05295073613524437,
            -0.025021741166710854,
            -0.07732927054166794,
            -0.02753324620425701,
            -0.0354626327753067,
            -0.09508844465017319,
            0.027294954285025597,
            0.06956865638494492,
            0.012020796537399292,
            0.12082597613334656,
            0.05657443776726723,
            -0.03049907088279724,
            -0.021742193028330803,
            0.08325004577636719,
            0.024819763377308846,
            -0.07917768508195877,
            -0.056355807930231094,
            -0.008911692537367344,
            0.07684794068336487,
            0.04833889752626419,
            -0.04233211651444435,
            -0.1619277000427246,
            -0.006531925406306982,
            0.03904403746128082,
            -0.07707636803388596,
            0.1446491926908493,
            0.016836654394865036,
            0.17820793390274048,
            0.2012207955121994,
            0.2389729619026184,
            -0.013367671519517899,
            0.06976394355297089,
            -0.02100074477493763,
            0.03906829282641411,
            0.08275014907121658,
            0.008172876201570034,
            -0.1391267031431198,
            0.04917522519826889,
            -0.007921827025711536,
            -0.09783516824245453,
            -0.010386621579527855,
            0.23798193037509918,
            -0.08429689705371857,
            -0.18675407767295837,
            0.23996131122112274,
            0.06890516728162766,
            -0.03433731198310852,
            -0.0033618928864598274,
            -0.053994014859199524,
            0.006465176586061716,
            0.03975565731525421,
            -0.009956924244761467,
            -0.10124212503433228,
            -0.07476691156625748,
            -0.0938335433602333,
            0.14545682072639465,
            0.009068903513252735,
            -0.1545405089855194,
            -0.18211276829242706,
            -0.12992407381534576,
            0.2280728667974472,
            -0.09323608130216599,
            0.01705976575613022,
            0.2607906758785248,
            0.08922639489173889,
            0.19339606165885925,
            0.14169901609420776,
            0.15966741740703583,
            -0.047378528863191605,
            0.12995539605617523,
            -0.0680142194032669,
            0.12588363885879517,
            -0.015166978351771832,
            0.05384782701730728,
            0.12288148701190948,
            0.09015896916389465,
            0.01568394899368286,
            0.08544079959392548,
            0.08326267451047897,
            0.014675242826342583,
            0.00014218426076695323,
            0.021974563598632812,
            0.022640286013484,
            -0.10241109877824783,
            0.023802446201443672,
            0.037804439663887024,
            -0.12802307307720184,
            -0.1889059692621231,
            -0.18278425931930542,
            0.28695663809776306,
            -0.022748474031686783,
            0.010322708636522293,
            -0.04042767360806465,
            -0.20146021246910095,
            -0.014365609735250473,
            -0.00470024673268199,
            0.07775389403104782,
            0.07412855327129364,
            0.0020166421309113503,
            0.0015053452225401998,
            -0.1884101927280426,
            -0.0158490389585495,
            0.11591355502605438,
            0.025552738457918167,
            0.035599641501903534,
            -0.12887129187583923,
            0.04764716327190399,
            -0.10592886060476303,
            -0.015562862157821655,
            -0.10725613683462143,
            0.002463354729115963,
            -0.1664065271615982,
            0.11564496159553528,
            0.02821025811135769,
            0.15130852162837982,
            0.053817663341760635,
            0.09008580446243286,
            -0.08153346925973892,
            -0.0408976711332798,
            0.11939991265535355,
            -0.03331852704286575,
            -0.072278693318367,
            -0.06380756199359894,
            -0.03786635771393776,
            0.03245626389980316,
            0.11995004117488861,
            0.11796180158853531,
            -0.05550374835729599,
            -0.06763182580471039,
            0.023571832105517387,
            -0.005425609648227692,
            -0.07805375754833221,
            0.0634196549654007,
            0.050979726016521454,
            0.04478298872709274,
            -0.017862418666481972,
            0.09307526051998138,
            -0.0516991913318634,
            -0.031686071306467056,
            0.05098031088709831,
            -0.05960365757346153,
            0.0818629115819931,
            -0.060636669397354126,
            0.020829178392887115,
            -0.03674507886171341,
            0.09007583558559418,
            0.0027068890631198883,
            0.019416309893131256,
            -0.019622810184955597,
            -0.06885253638029099,
            -0.05916714668273926,
            0.12990115582942963,
            -0.07656322419643402,
            0.009592642076313496,
            0.07343970239162445,
            -0.043910834938287735,
            0.01458675041794777,
            -0.04287717491388321,
            0.1327172964811325,
            -0.05540047585964203,
            0.00891852006316185,
            -0.04113123565912247,
            0.0005627723876386881,
            -0.02892507240176201,
            0.09018940478563309,
            0.10687746852636337,
            0.06083425134420395,
            -0.06131801754236221,
            -0.026096448302268982,
            0.04774467274546623,
            0.013444303534924984,
            -0.010996613651514053,
            0.08343326300382614,
            0.020248424261808395,
            -0.016240566968917847,
            0.03028174676001072,
            -0.09965632110834122,
            0.059008050709962845,
            0.06652583181858063,
            0.10580363869667053,
            -0.056204330176115036,
            0.06539914011955261,
            0.060142144560813904,
            -0.10581237822771072,
            -0.09218501299619675,
            -0.05728023871779442,
            -0.20409420132637024,
            -0.03559203818440437,
            0.12867780029773712,
            0.07873254269361496,
            -0.021902069449424744,
            -0.15852594375610352,
            -0.10011135041713715,
            0.019195489585399628,
            -0.06488193571567535,
            -0.02891423925757408,
            0.0344005711376667,
            0.0718541145324707,
            -0.05132577195763588,
            0.005430793855339289,
            -0.12453094124794006,
            0.025394055992364883,
            -0.04939001426100731,
            -0.054811131209135056,
            0.051394984126091,
            -0.008449661545455456,
            0.09622170776128769,
            0.08781874179840088,
            0.03520544245839119,
            0.10037768632173538,
            0.009083193726837635,
            -0.04643670842051506,
            -0.018574418500065804,
            -0.08137541264295578,
            -0.07126440852880478,
            -0.04046805202960968,
            -0.02318357303738594,
            -0.01916171982884407,
            -0.06144772097468376,
            -0.03365645557641983,
            0.005792876239866018,
            0.06322365254163742,
            0.004227347671985626,
            0.049494534730911255,
            -0.03488390892744064,
            0.11074073612689972,
            -0.021832432597875595,
            -0.0396931990981102,
            -0.10376095771789551,
            0.003472302807494998,
            -0.04221749305725098,
            0.043811336159706116,
            0.052348241209983826,
            0.12204571068286896,
            0.06324319541454315,
            -0.017063099890947342,
            0.031533561646938324,
            0.056536830961704254,
            -0.08191366493701935,
            -0.014598929323256016,
            -0.005833543371409178,
            -0.08009644597768784,
            0.03778628632426262,
            0.005320359952747822,
            0.010358821600675583,
            -0.03579240292310715,
            0.0626663863658905,
            0.012063692323863506,
            0.03298244997859001,
            -0.04278941452503204,
            -0.06366705149412155,
            0.09377257525920868,
            0.06077762693166733,
            0.09961801767349243,
            -0.025477297604084015,
            0.06948840618133545,
            -0.010684098117053509,
            0.00854196771979332,
            0.06224077567458153,
            0.014845491386950016,
            -0.07009856402873993,
            -0.027481919154524803,
            0.07761714607477188,
            0.03888260945677757,
            -0.022256456315517426,
            0.09647885710000992,
            0.01560209970921278,
            -0.03664572536945343,
            -0.07755177468061447,
            0.07180596143007278,
            -0.02584840916097164,
            0.028553079813718796,
            -0.0029681152664124966,
            0.009337115101516247,
            0.022087451070547104,
            -0.06270580738782883,
            -0.08684944361448288,
            -0.09032833576202393,
            0.01889101043343544,
            -0.03178615868091583,
            -0.06267687678337097,
            -0.049381617456674576,
            -0.03981030732393265,
            0.0686628594994545,
            -0.08129256218671799,
            0.05082394555211067,
            -0.06407184153795242,
            -0.14814814925193787,
            -0.032913580536842346,
            0.07684129476547241,
            0.04872174561023712,
            -0.08749494701623917,
            -0.03742612898349762,
            -0.0014709599781781435,
            0.0666002407670021,
            0.008635911159217358,
            0.06211625039577484,
            -0.09989014267921448,
            0.052054040133953094,
            0.016591856256127357,
            -0.02983775921165943,
            0.024680253118276596,
            -0.06927774101495743,
            -0.03712063282728195,
            0.13935920596122742,
            0.025644073262810707,
            0.08125731348991394,
            0.0012982120970264077,
            -0.011694681830704212,
            -0.07385411858558655,
            0.05510522797703743,
            0.0738154873251915,
            -0.0516992062330246,
            -0.06386430561542511,
            0.02938712015748024,
            0.013514665886759758,
            -0.010671795345842838,
            -0.005904216784983873,
            0.03977453336119652,
            -0.04577187821269035,
            0.05280175432562828,
            0.05983876809477806,
            -0.027210533618927002,
            -0.1569114327430725,
            -0.11643221974372864,
            0.03107221983373165,
            0.1115490198135376,
            -0.05513256415724754,
            -0.04642068222165108,
            -0.02790360152721405,
            -0.03951047733426094,
            -0.0705903172492981,
            0.07696693390607834,
            -0.05228271335363388,
            -0.09067804366350174,
            0.0641750618815422,
            -0.005697288084775209,
            0.09870196133852005,
            0.0721961110830307,
            -0.057706352323293686,
            -0.05028125271201134,
            0.0729791447520256,
            -0.01303894817829132,
            -0.10344145447015762,
            -0.00800461508333683,
            -0.06145244091749191,
            0.019092535600066185,
            0.08090565353631973,
            -0.009034448303282261,
            -0.2181096374988556,
            -0.15895907580852509,
            0.12738972902297974,
            -0.04835038632154465,
            -0.07421241700649261,
            0.04750358313322067,
            -0.08244805037975311,
            -0.02207822911441326,
            0.08472035080194473,
            0.10480086505413055,
            -0.0008651291718706489,
            -0.01454893872141838,
            0.14374259114265442,
            0.05176016688346863,
            0.10742469131946564,
            0.11970018595457077,
            0.0613907054066658,
            0.11036726087331772,
            -0.06749975681304932,
            0.2629905045032501,
            -0.06890599429607391,
